0.000000000000000000e+00 8.228000596825710278e-02 4.160132777101286511e-03 -1.825518903882437146e-03 7.306285314647253948e-02 0.000000000000000000e+00 3.114503092289250263e-01 -2.082256144830577430e-02 9.096968291134516216e-03 -1.296535547692274359e-01 0.000000000000000000e+00 -4.955275641531952102e-01 9.485754070909201141e-03 7.796333873986737925e-03 -4.933424094145224537e-01 0.000000000000000000e+00 1.774197412234443660e-01 -5.934676945991980770e-03 -2.698472040402050132e-02 -5.821900658588854416e-01
-5.518171342277008486e-03 1.033036984458368668e-01 -2.894640589505009451e-02 -1.149793026387181845e-02 9.209367096913664841e-02 -9.564859320298621168e-03 3.355508469763691659e-01 -3.670116813809683187e-02 -3.146795199119225422e-04 -1.438343493645998228e-01 1.156063626316962065e-02 -5.270359748105747366e-01 3.793798270452716781e-03 -8.023101779725013219e-03 -4.890753448436388484e-01 1.472775830703008937e-03 2.433834503294972640e-01 -5.076713897805434916e-02 7.765623716253399617e-03 -6.412516355006447899e-01
-4.568413442695683398e-03 8.285057236295695349e-02 -5.964791454168905278e-03 -1.203547200652234188e-02 1.183204052212868396e-01 5.317652144641601616e-03 2.775480836681393226e-01 -1.265468819509399032e-02 -1.292535058617714019e-02 -8.600974396559442348e-02 2.591514548786134648e-03 -4.985700660937443240e-01 2.879284268361131938e-02 1.907833582740080941e-02 -5.082380187064313715e-01 1.554517420928491767e-02 1.779191334956042314e-01 2.826291705189437620e-02 1.316162685305500429e-02 -5.808715687890293466e-01
-1.811353553313203770e-03 7.207957977107176673e-02 1.080263559240664598e-02 1.256923843083926871e-02 1.056113962513626076e-01 2.076570886230164059e-02 3.427511899117461902e-01 -1.856968153819887196e-02 2.281255720487229688e-02 -1.248641928043047467e-01 -9.080301398049196726e-03 -4.679386725424997673e-01 -8.226853912730609092e-04 1.869119338850788042e-02 -5.328339494221699946e-01 -1.978761376424796603e-02 2.045602296812749632e-01 -1.700516336892425595e-02 -3.946425476447698935e-03 -6.324464208685449673e-01
-3.819106193767375472e-03 1.273658745335081444e-01 -3.775198627973570288e-03 1.357697825056364792e-02 7.441515805134468753e-02 -4.893449478054756607e-03 2.728093512859990910e-01 1.400613902237765260e-02 -8.332366915252860384e-03 -6.713107863303605094e-02 -6.959643460668811857e-03 -5.000135564413676903e-01 -1.572411190825094562e-02 -1.148875914322014177e-02 -4.765353266152532186e-01 2.978143484090499393e-02 1.813180257350907321e-01 1.933775779514165793e-02 -4.824716070058198553e-03 -6.018807923550625327e-01
-9.518209414360458837e-03 6.621240226263588879e-02 -9.449483801913429598e-03 -2.738208889336998103e-02 1.339424512332510475e-01 6.427151511179269791e-03 3.231985530624421621e-01 -1.127187150367452498e-02 -6.717775655835186120e-03 -1.140926652498549521e-01 -7.125421810298146127e-03 -5.076510187149212427e-01 -8.689061149530472733e-03 -4.842934345379438718e-03 -4.975548844236047374e-01 -2.104147942738049393e-02 1.523683056699108862e-01 4.485104110263704591e-02 -1.835824521486389624e-02 -5.481347528164415284e-01
8.361182787149108037e-03 1.061604964469295698e-01 -1.104140224554465630e-02 1.256916398812153030e-02 9.942591560997397770e-02 -8.139310578950478131e-03 3.245971889788697440e-01 -2.012312056111367070e-02 -7.113156082657161317e-04 -1.198827794863542989e-01 3.662456287334817095e-03 -4.907605922145600319e-01 7.461553510145869234e-03 1.382191916050902816e-02 -4.971291744279978109e-01 2.053031130411590507e-02 2.047339677965451799e-01 -6.752135486750143051e-03 -1.424704503213430201e-02 -5.927317817759230056e-01
-7.674620370841888500e-03 7.598000291520815019e-02 2.845482003069355753e-02 3.213457209360870512e-03 1.361732150118311613e-01 6.949560204399960091e-03 3.152944861868527404e-01 1.157187842810703665e-03 1.679043154656594677e-02 -1.127104784488279360e-01 -2.002334373815896004e-02 -5.416434250709053488e-01 1.176108876309420528e-02 -3.335554219395981540e-02 -4.280111923409055663e-01 -1.589638140036603829e-03 1.746133741423719909e-01 1.082796026144799799e-02 -2.765750045169350010e-02 -5.705684865462173905e-01
-3.379900661282038161e-03 9.285434706966637364e-02 -8.971797049243803585e-03 -1.967419810142466072e-02 1.039716937176584782e-01 4.741544760418351864e-03 3.227936898619904182e-01 -3.450486726773739632e-02 4.174692994306301169e-03 -1.281166240231886300e-01 -1.470724748027316467e-02 -4.899387586101097702e-01 7.025969653500903529e-03 3.126754774182513574e-02 -5.103232201669012369e-01 -1.106095384005622781e-02 1.851435707859231394e-01 8.152104488550557942e-04 1.054865437176840184e-03 -5.724164309371033710e-01
-1.918169028607348905e-02 9.929271524664715076e-02 1.446047651346191176e-03 3.779075824745853004e-03 1.282267333888000294e-01 4.945893627417546554e-03 3.319950442752862552e-01 -1.163306946051758349e-02 2.105906291004272513e-02 -1.303647250702065219e-01 1.250937782381342060e-02 -5.317902282749714660e-01 3.404787015150753660e-02 -7.138749258351069493e-03 -4.605775883791635716e-01 -8.218560007221096739e-03 1.856845313204096570e-01 3.550903925678311999e-03 4.911039520871920971e-03 -5.992500372784358431e-01
2.377685290825284035e-03 1.279024609565747039e-01 -4.145276205070997505e-02 -1.447920972909012361e-03 6.731162383861315213e-02 -7.703790337358715906e-03 3.366377648057320426e-01 -3.157473921355639923e-02 -1.010191315517051935e-02 -1.267284400374797393e-01 -1.461469701657676151e-03 -4.873500724841137166e-01 -7.816914788787016066e-03 2.336300564855325890e-02 -5.083089285438908700e-01 1.206175516108501031e-02 2.125318555710391799e-01 -2.148615090351446363e-02 1.072288471762413917e-02 -6.146356782877826497e-01
-5.006649490635556657e-03 1.474702039502705786e-01 -3.605853667066363788e-02 2.658442275023199970e-03 5.489351008457253600e-02 -9.774788273237706299e-04 2.977068882671520256e-01 -1.447572726461452547e-02 -6.788664957057466073e-03 -1.173092547917109346e-01 -1.466718373818699274e-02 -4.653117646628117665e-01 -4.834455972160065645e-03 1.034065018030601996e-02 -5.132139269751907484e-01 2.101020826992037321e-02 1.619767501964539946e-01 1.661222189054130383e-02 -2.197356733830978237e-02 -5.729058530552579853e-01
-3.922748342488663505e-03 1.373899966957435881e-01 3.367542407114636552e-04 1.851293575674834574e-02 6.576942811038863357e-02 2.445696187116362143e-03 2.412439544408333802e-01 1.536296153387421703e-02 -3.742138022829338828e-02 -3.340194114045431928e-02 -4.746559673370970983e-03 -5.291261511988040178e-01 2.075469590551568336e-02 -5.154868862299048088e-03 -4.690879035775551986e-01 2.874947705082600904e-02 1.658429966920497434e-01 3.274962626504055591e-02 1.114200604022482985e-02 -5.755507557775751959e-01
-3.918462898259803505e-03 1.246289911076610690e-01 -1.505526284512937428e-02 1.780179738072994525e-02 4.520356105636449962e-02 5.588679057591692742e-03 3.425846975352040413e-01 -3.507393994649028041e-02 1.071814209620729555e-04 -1.155201104586945915e-01 4.119508608230132082e-03 -5.168376532046176086e-01 4.149568869217500761e-02 2.567329242478239015e-02 -4.747063204983962836e-01 4.682918404949538635e-03 2.051352406014046170e-01 1.337967928742991516e-02 7.405510425345505909e-03 -5.972025754926468810e-01
1.038103314641591890e-02 9.940466343150457240e-02 -4.452096375597908683e-03 4.029914238759373275e-03 9.412020038944832190e-02 -1.900145995383479419e-02 3.081817650875087744e-01 -6.454246979403277518e-03 2.642070616952266887e-03 -1.110758835169017023e-01 2.056267230925595477e-02 -5.039823991106489043e-01 -1.266573775131714027e-02 3.449565020174454044e-03 -5.142947047702409735e-01 1.944808305219267869e-02 2.439376028870398061e-01 -2.892272382117545837e-02 2.474959680313375612e-02 -6.488286363470392448e-01
-2.059616135810056481e-02 5.536511868972176370e-02 3.453790620512486170e-02 -1.262575388142546211e-02 1.510070997433757833e-01 -5.575047594252260756e-03 3.439172607903306922e-01 -4.278740656967347511e-02 7.856760208177193325e-03 -1.495055053064603123e-01 1.270711465934801741e-02 -4.669440139946612334e-01 -4.404993215142229829e-03 1.572417035370535232e-02 -5.268330432508787631e-01 -4.107418523462415608e-03 2.685018928025364460e-01 -2.927342212016059708e-02 2.226448577512998503e-02 -6.686791842872884528e-01
-9.112875708562531013e-04 1.078829324416742397e-01 -1.419648355940987018e-02 2.063464505473421376e-02 7.772906073768801050e-02 1.255286454237686602e-02 3.273768122717564677e-01 -2.691519418489012050e-02 3.348590000102548425e-03 -1.308990246734947904e-01 -6.504634371358161693e-03 -4.740086471576136495e-01 -9.088902509235795291e-03 7.744755457127655909e-03 -5.180240474949298068e-01 1.024279562343587309e-02 2.070536783678561810e-01 6.191852781811457013e-03 2.812183367645718773e-03 -6.225622719471873845e-01
7.011977767998021915e-04 1.208808680096215143e-01 -1.797059855976224779e-02 1.498203284513549040e-02 7.412191542057600113e-02 1.434227178657468231e-02 2.822266180308476979e-01 9.449269522817594497e-03 -1.584288619901090892e-02 -7.756308117646859568e-02 5.180998191196459733e-03 -4.749768451975490691e-01 -3.413704548583383624e-03 4.792099163260137365e-03 -5.099740755242586632e-01 1.529098518789061799e-02 1.700019000904169075e-01 6.834581911905654450e-03 1.498913569726652295e-02 -6.048165002929732914e-01
5.779677816841494176e-03 5.397291033650548908e-02 3.842498079932583910e-02 -5.900518842267827094e-03 1.494240083521585771e-01 -1.444670275407293654e-03 2.690349513597057873e-01 -2.565042816894912842e-02 -3.498226640684315436e-02 -7.477088043294964625e-02 -1.156647912138273129e-02 -4.874304128673139225e-01 -1.569829299506143166e-02 7.340849854211353546e-03 -5.193717391881716994e-01 6.215030154788404176e-03 2.251602370394376607e-01 -1.264618915415193640e-02 1.874746122290824046e-02 -6.373656047570396277e-01
-1.677601489269914606e-02 9.348733900755662463e-03 2.119263996710409742e-02 -4.638912520131664718e-02 2.032642801257953380e-01 -4.968305244687019895e-03 3.891372862981249958e-01 -6.172026083834000060e-02 2.642081514146604748e-03 -1.976493093321535777e-01 -6.445184448867373461e-03 -5.427476145702272436e-01 7.347779209919745591e-02 1.908512957450517189e-02 -4.418900308006217803e-01 6.701851371178681530e-03 2.083339248069510929e-01 -5.130800682450548794e-03 5.282280131552836641e-04 -6.075891260357103585e-01
7.536797616792434429e-03 2.764593063181157440e-02 4.314786981542777233e-02 -2.287487889965317614e-02 1.631882387296431369e-01 1.629406787681898436e-02 2.779572402647425555e-01 2.544097047679363260e-02 -8.078062939941657930e-03 -9.823412916206557266e-02 -2.487156028122987361e-03 -5.093432079632649323e-01 1.654080688204460567e-02 2.523612943069273445e-04 -5.022912856985851660e-01 2.571287081766149979e-02 1.821948971241088011e-01 1.263211230818586141e-02 -5.753251357515556247e-03 -5.828197659215652582e-01
-1.994625973780835004e-02 9.605806975347078169e-02 -2.866296879409384324e-02 -2.372144311875186776e-02 8.796805533591568749e-02 3.244011438117215887e-03 3.726626397878425312e-01 -5.083061229609033699e-02 2.571217635140105734e-02 -1.752062841873022192e-01 2.133822693985981331e-02 -4.739005287157133650e-01 -3.703607311767126431e-02 1.603884325546681144e-02 -5.482403135811214634e-01 -2.369812720760822774e-03 2.078931234020026664e-01 -1.034952898849183546e-02 -4.371730473317172669e-03 -6.273917405325734054e-01
2.852992503988412143e-03 6.504586764957799583e-02 -7.571906807353929146e-03 -2.509746270936063367e-02 1.217853421804868108e-01 3.196422807289389656e-02 3.315641920316717561e-01 -3.897742470011632092e-03 2.823205409179303099e-02 -1.331084524723283313e-01 -7.131776088111263338e-03 -5.462773388555064447e-01 5.799367928466696298e-02 6.980948208638461383e-03 -4.586399996908848697e-01 -2.488896108441268976e-02 1.575374393067345835e-01 1.219162804432270125e-02 -1.390242330688532500e-02 -5.737726727740263266e-01
-2.178508068848291138e-02 7.097728174172407423e-02 1.708634440702957308e-02 5.086616352858335834e-03 1.253464437096034334e-01 -2.558135082687002307e-02 3.181699050185091693e-01 1.176226271842308740e-02 1.638739194918452033e-02 -8.759263604542492920e-02 1.054845109696780567e-02 -4.734871671636512458e-01 1.328074088332194952e-02 3.111516563554753145e-02 -5.249766282603773870e-01 1.318504485699388204e-02 1.993670948566201584e-01 3.200198357515950456e-04 -1.364139838789007325e-02 -5.885683389486697781e-01
2.404143434243454641e-03 1.107769318000366154e-01 -2.038433084517073113e-05 8.922227640273450167e-03 9.979908977198431730e-02 2.361788661876258744e-03 3.066526830859538921e-01 -5.778210367003857630e-03 -1.426842376748608913e-02 -1.266098227547448607e-01 2.246383875665091019e-03 -4.760495616023581178e-01 -1.529125238627590533e-02 2.302740615269123579e-03 -5.001941321129242946e-01 -2.047947407674366449e-02 1.875350439409210479e-01 -1.808523340370937760e-02 -3.488559744026677178e-02 -6.084665193481435530e-01
1.470712006243847514e-02 1.294304927135204175e-01 -2.527334744282600312e-02 3.691604763137375581e-03 5.888842609848949500e-02 -7.889883395478684835e-03 3.217095058310732725e-01 -2.264984255130209068e-02 -1.052093160685582500e-02 -1.138180857176779998e-01 9.972515928520277531e-03 -5.132136551176709194e-01 3.301328752636407959e-02 2.103886466214953919e-03 -4.820346259586025806e-01 -1.260049226501343354e-03 1.432934417984320641e-01 4.117140623923512543e-02 -1.937886209963284381e-02 -5.447329353880226988e-01
-2.184895337964206166e-02 8.022822236721342815e-02 2.464015536990653288e-03 -4.635379914465292787e-03 1.042150114873498651e-01 3.266909062632913311e-04 2.965086644907457547e-01 1.289519264328960191e-02 6.987948021793312717e-03 -9.267738156574872876e-02 2.001646559097775696e-02 -4.893008482771354917e-01 -2.592433100172408453e-03 4.143937176643147473e-03 -5.112155153329214219e-01 -4.115071198111656080e-03 1.898753197384315528e-01 1.441322056972264148e-02 1.874021354256525176e-02 -5.919828666254546290e-01
-2.101300894802201041e-03 1.294337727473278965e-01 -3.601771150408287527e-03 1.731008945180166278e-02 7.416704956775257984e-02 8.667460732595604067e-03 3.452728565409598493e-01 -2.424800268092219130e-02 1.184639055225761642e-02 -1.415637769794403922e-01 -1.411023591488424003e-02 -5.175112098585312737e-01 2.227378542373527684e-02 -1.100789558770057935e-02 -4.738007351411395174e-01 1.079063093279040812e-02 2.007816792414631457e-01 -1.194677161250848677e-02 7.012552880785132350e-03 -6.062531511785784755e-01
-1.379702812333961567e-02 6.544419240895962830e-02 1.581013768014744025e-02 -2.438220619431590019e-02 1.503396453030097779e-01 3.199915569498821156e-03 2.776322384175776148e-01 3.494621840095175208e-02 4.604574866091466073e-03 -6.377550130229578396e-02 -1.311791229496138585e-02 -4.703069868547924415e-01 -1.807919883940532768e-02 6.316939991248698288e-03 -5.224388851543126933e-01 1.430606965553254950e-02 1.805276719543493502e-01 3.875177194821716100e-03 -1.860220563210100361e-02 -5.749584871974542377e-01
9.316522900271748467e-03 1.057463397853104919e-01 -2.681334941067475483e-02 -2.284586099911039767e-02 1.016714256953740042e-01 2.138276603394187805e-02 3.626425708356328936e-01 -4.866977085405919251e-02 1.612760913621003739e-02 -1.841951286394283294e-01 -9.637774268780419790e-03 -4.810366046741956225e-01 -1.128868845841833266e-02 2.170151435774799430e-03 -5.040651550225783151e-01 -2.311495237390861525e-03 1.347697038767565747e-01 5.079041025816898730e-02 1.296499757517871262e-02 -5.506050505541587592e-01
2.882854734215841569e-03 1.018743758589226583e-01 -2.683924192686862678e-02 -6.549751527640327621e-03 9.626971089098568246e-02 9.460807974997612058e-03 3.185359694569392941e-01 -1.088189564078041738e-02 3.779349542229930650e-03 -1.125233079626211941e-01 1.463461284714807562e-02 -4.703834721204054881e-01 -6.702775071449340594e-03 1.990328484661800512e-02 -5.082812748231574362e-01 1.196298935291317291e-02 1.773927251326714860e-01 8.527625649689977647e-03 1.782691591497174294e-02 -5.993387489079745611e-01
-3.845819975345230249e-03 1.256017527665829747e-01 -2.265424274618408826e-02 -6.487903421383596145e-03 8.607962054071527369e-02 1.851670516979682726e-02 3.227154136794259109e-01 -5.202153541834715275e-03 1.005627373238344655e-02 -1.402333167779963030e-01 1.734028831477939540e-03 -5.213186878249628231e-01 1.381705790573684034e-02 1.706755439138073031e-03 -4.826254876128278637e-01 9.338587922389601087e-03 1.787667794781832575e-01 9.599706932290646977e-03 8.570347715453256396e-03 -5.840537253459469058e-01
-1.291895701678083888e-02 9.461736369387582779e-02 3.373703814860790420e-03 5.861898160037036509e-03 1.106040779633535726e-01 3.390305271086127645e-03 2.908073614351895375e-01 -7.908388204104195920e-03 -3.090468299767447705e-02 -8.022068912800778273e-02 -1.277932007358049959e-02 -5.026921681778310225e-01 2.191181363654706032e-02 1.090984831411747659e-02 -4.818740365235191780e-01 3.915927108143171104e-03 1.878288885263596497e-01 1.892744212528232189e-02 4.522246792390010109e-03 -5.782385452571193740e-01
-1.563804136217135723e-02 2.638686380008599397e-02 1.228374233161782028e-02 -3.222410366818927868e-02 1.674365526920524039e-01 -2.215913648313414148e-03 3.283071120150671263e-01 -1.292102381904613496e-02 -1.488802819756247439e-02 -1.227345341873770923e-01 3.756978017143817843e-03 -4.760624992249715692e-01 -5.480147824879291057e-03 6.960262204951397913e-03 -5.099780365920141278e-01 -8.124214748890384863e-04 1.704583565328061379e-01 7.736916416291676410e-03 -1.360039861853401359e-02 -5.879587350352857289e-01
-1.466392142501381397e-02 1.280855491874503538e-01 -3.134829184188960005e-02 -4.833991034826809995e-03 8.303468197900085168e-02 3.106813515300065748e-02 2.916843310134811240e-01 -2.356699605870011399e-02 -1.471972161437008070e-02 -9.644148306757265032e-02 8.967544124234991254e-03 -5.001674054446233475e-01 4.893521979353571832e-03 1.384597349209030614e-03 -5.016270602153862779e-01 -4.352741990894914547e-04 1.480234078782162732e-01 5.052892790739194756e-02 -2.311341316626804379e-03 -5.437338766797841227e-01
-1.150837470013788694e-02 1.081664127022215205e-01 -1.647349145020712228e-03 -6.119459913158415906e-03 1.179378055931180058e-01 1.929007183684866740e-03 3.078744028258288967e-01 -2.200897841636169014e-02 -1.610486384931175685e-02 -1.321682967245794149e-01 -1.622026402481410376e-02 -5.209555294618657406e-01 2.942882486975889958e-02 3.202754538480177479e-03 -4.813766912111836493e-01 3.668970487311559725e-03 2.397079732105345529e-01 -4.374385674488649733e-02 1.866566568611435772e-03 -6.443491532162850532e-01
-1.294900509057830135e-02 5.229833801441053504e-02 1.670930428739361012e-02 -1.577144976272055544e-03 1.406660187401856943e-01 -1.575268228465389816e-02 2.961364410645527245e-01 -1.335449629458377099e-02 -2.197609447440976999e-02 -8.675123074386532906e-02 -2.883509985667008849e-02 -4.872219167349791102e-01 3.828124538926653414e-02 2.619983990431293611e-02 -4.862532594107525918e-01 3.516835873463043920e-04 1.698873166753905040e-01 2.388437537966596469e-02 -6.663450230386901846e-03 -5.831293724422624836e-01
-1.212347893657793503e-03 1.544117892737456033e-01 -5.216215430918715729e-02 1.350847433223139639e-02 4.285579394755892335e-02 -3.270079339937626006e-02 2.564588436375732639e-01 1.427574751826568566e-02 -2.651696015933719189e-02 -6.059331886507776654e-02 2.013435338238154376e-02 -5.197731029868315478e-01 2.553189601811485174e-02 1.835748763185712090e-02 -4.722891150285676298e-01 1.531667832175253631e-02 1.938634768068682734e-01 7.456394140766424428e-03 1.086172041818823583e-02 -5.947363954404726316e-01
-7.596907574703498298e-04 1.165436719476321825e-01 -9.731699853053495802e-03 -4.788059591409684138e-03 8.741179231353814194e-02 1.082072342863002468e-02 3.740622243584436624e-01 -4.586790203922957304e-02 6.614952972343787416e-03 -1.590598974052824244e-01 -1.131258537352875480e-02 -5.189465109933129039e-01 7.346430329060782242e-03 -7.335263332760969673e-03 -4.706646396913041763e-01 -1.006395176810119529e-02 1.630069497336065210e-01 7.906689202661239951e-03 -3.031771665463336637e-02 -5.727788281333364706e-01
1.059861784473772189e-02 9.452282375379150725e-02 -1.176227091907514413e-02 1.073443295065769354e-02 9.707928857663454536e-02 -1.967717999853280803e-02 2.772128810143599242e-01 4.050279781558261197e-03 -1.866073690497995971e-02 -7.398959686810109571e-02 1.510252438036170479e-02 -5.114415780996448557e-01 2.272650411355205124e-02 7.885932191722464304e-03 -4.831369332919906445e-01 1.691190297657455335e-02 1.898271458041259352e-01 1.046346948222080971e-02 6.605602711335176874e-03 -5.988865310542674791e-01
-2.686831049230075080e-03 1.134095280465574063e-01 -3.704540732673684139e-02 -9.657444177034912175e-03 8.440572469329836458e-02 -1.285282909781814732e-02 2.807391403429788101e-01 -1.921585878768426042e-02 -2.683278177354112698e-02 -9.528123148351277938e-02 3.820318644479056992e-03 -4.716778024413281756e-01 8.615980023466859178e-03 2.354474984480012592e-02 -5.265078372082079294e-01 -8.070959704774931937e-03 1.877716361262703193e-01 1.084715614907697488e-02 -1.728855533361503896e-03 -5.826115733661104690e-01
-1.588815374710283654e-02 8.304256778099759762e-02 2.825980342087915792e-03 -1.072858933348936998e-02 1.169167788528489293e-01 4.386519081206206871e-03 3.012061518546811922e-01 -3.321225096656307135e-02 -1.312947408649817183e-02 -9.348932718010996568e-02 1.193183382603208928e-02 -5.241378992557556016e-01 2.443434329541546018e-02 1.691885987332979180e-02 -4.839585144528584237e-01 1.020597628878190666e-02 2.186387715784590402e-01 -2.078912772898248995e-02 -3.634961453726802145e-03 -6.296663860850212346e-01
4.114804440146916861e-03 1.653416058105547370e-01 -4.922744183927319633e-02 2.446706887742374284e-02 3.111018092729889162e-02 -2.068850064631515967e-03 2.841564196423588262e-01 1.240206124206239338e-02 -1.671220724660786409e-03 -1.068659422181847396e-01 1.248221019467974334e-02 -5.173078346164687868e-01 1.994203039780777231e-02 1.160401557824783381e-02 -4.817339066377905321e-01 8.456081149285483989e-03 2.018252539636196108e-01 -1.351828814660199080e-02 2.185477172288663103e-02 -6.076638603566776320e-01
1.202692013442742749e-02 1.004546888465719517e-01 1.816163808762196082e-03 3.283057992491724558e-02 7.629120010793741247e-02 -7.517090749797792140e-03 3.105294240464934741e-01 -1.189874265598621361e-02 -2.433606021014411008e-02 -1.078998851714544488e-01 -1.055308080490024308e-02 -4.889170216451101947e-01 3.225341696301969180e-02 2.493987618100039494e-02 -4.812235353542478888e-01 -6.804267731782529666e-03 1.673291854514588339e-01 8.706924441953822064e-03 -3.468091389288795179e-02 -5.622125554058260422e-01
-1.179377178832792875e-03 1.191844078211535540e-01 -1.222372676673278563e-02 4.531579096679953095e-02 6.724686641956337252e-02 7.483957843625281894e-03 2.683460150957174828e-01 -1.260905726911236077e-02 -2.782585778887165448e-02 -8.041556802658145209e-02 4.999025615580979243e-03 -4.959518616267868940e-01 1.068250797665105598e-02 -8.067251344697112109e-03 -4.895633118514567395e-01 1.637448910358331802e-02 2.290717206839858189e-01 -2.677408139033102957e-02 1.552102050306564812e-02 -6.141172100464989958e-01
2.197959657473168987e-02 1.079092393210217271e-01 -1.208861440968145989e-02 8.877115677342829053e-03 6.635822717085843037e-02 -1.323067659994999878e-03 3.362426324174087044e-01 -2.590749359944847716e-02 -2.809923325605780120e-02 -1.313465642590946891e-01 1.662718556708367088e-02 -4.637124297647409743e-01 -3.103515520095220803e-02 2.401951620918162111e-02 -5.435335130241200075e-01 1.640126065811375183e-02 1.464911918465424678e-01 1.284254454359685764e-02 -1.802397292621744918e-02 -5.500889414494590790e-01
3.130823182654691311e-03 5.105840609157871746e-02 1.739681909355023093e-02 -2.865273332949301935e-02 1.363574894589502373e-01 -1.165429584623635904e-03 2.782722791803903251e-01 3.515693452461332580e-02 -6.625333546033328538e-03 -6.080779013559856755e-02 -3.323658419736598424e-02 -5.093078049983199573e-01 7.706444364489879045e-03 -3.241233729861646429e-02 -4.645936783608804466e-01 -1.246817546304360667e-02 1.457008708795476115e-01 4.060760681699322056e-02 -2.803269212801635588e-02 -5.467005742465007589e-01
-1.557819135211179710e-03 1.357646870581293019e-01 -5.841568880081497717e-02 -2.782345433485242450e-02 6.943274455217743335e-02 -1.486163930336175179e-02 3.011168849751545418e-01 -1.411293593290274817e-02 -2.573015977484853847e-02 -1.024983775191612295e-01 6.564948017768854234e-03 -4.988955852347511377e-01 2.629487852128165742e-02 3.688780896791400699e-03 -4.769552665353716248e-01 1.091086680515651608e-02 2.127737667339484329e-01 8.914494891449091865e-03 4.386177069608679716e-03 -5.990562749519892094e-01
1.194052969800487446e-02 9.622235717493890506e-02 -2.429230213617266862e-02 -1.617257466127164714e-02 9.977909155619120452e-02 -8.385028284632546798e-04 3.168843127986051833e-01 -1.983761028845490784e-03 1.849755504582354868e-03 -1.304975369396480511e-01 1.280564929268026252e-02 -4.945174499874858132e-01 7.035370432782911930e-03 -6.778035188566879088e-03 -4.950612365388729619e-01 6.313100335791495613e-03 1.781234155755588300e-01 1.521272105792970293e-02 1.163531848419468648e-02 -6.026922871984424779e-01
-8.811413361668671285e-03 1.160760923006602524e-01 -4.927832652699410537e-02 2.459929759886072924e-03 7.696384372646916661e-02 -6.989658563467367539e-04 2.854718573874346355e-01 -2.087735545915375343e-02 -2.197623513175578358e-02 -9.568580774182000592e-02 -1.925180694394851635e-02 -4.872632799207081700e-01 -1.182761245821850951e-02 -7.618879904743143527e-03 -5.031824016371455599e-01 -4.273613154149483867e-03 1.700134289458541670e-01 3.350331044419976867e-02 1.093938787427967130e-02 -5.822766597808599620e-01
-1.604533470481475394e-03 6.163510274309277892e-02 3.618097093123024549e-02 6.748042650246898963e-03 1.204501291938954305e-01 -4.331001344644544795e-03 2.994791528889221843e-01 -3.136136777386154886e-03 -1.927354203318467490e-02 -8.891268262190767102e-02 1.683047896042265401e-02 -4.933642798151667841e-01 1.336412852414528563e-02 2.314700442091115890e-02 -5.050347874132140591e-01 -8.022187304128094304e-03 2.185072117435732930e-01 -1.082654529591458442e-02 -3.598977683988511395e-05 -6.166954959802871672e-01
1.936035141126750056e-02 8.973429306850759513e-02 8.167130303170802574e-03 -2.301090566665667074e-03 8.397634100796723400e-02 -1.209780757392775810e-03 2.949458246161391073e-01 -3.186398993044129574e-04 -4.614198170747473363e-03 -9.773930027484159511e-02 2.768708003729331013e-02 -4.686063234334687522e-01 -1.286775069348582157e-02 1.187935550890170319e-02 -5.474621550556407756e-01 9.507445329902053377e-03 1.688045835900679192e-01 2.627053177382183968e-02 3.664475515086666399e-03 -5.834440830698207625e-01
8.645193090708743269e-03 1.250731909795932961e-01 -4.170232110690798299e-02 2.094347558069014140e-02 5.456580791207277237e-02 -7.420598371196771709e-03 2.833934233840594841e-01 -8.914169414494271804e-03 -2.512230503779455323e-02 -9.062321969052644643e-02 -1.424934981394023262e-02 -5.108427995308683078e-01 2.345683188123959956e-02 -1.229180286824686080e-02 -4.713175949417887645e-01 -1.872624655801346204e-03 2.167445973185149755e-01 -3.264617841650664654e-02 -7.936868151768987703e-03 -6.081299216142359576e-01
-1.770124319132664048e-02 1.017215192482754799e-01 -5.417618198475458204e-03 -9.202882607565007755e-03 1.033615955813782239e-01 9.120089850119392910e-03 3.557718510429189740e-01 -6.333450993112564598e-02 3.244532440394073264e-03 -1.789848298365993573e-01 1.437783575045174442e-02 -4.573436751950048507e-01 -3.994907231610835691e-02 1.542230011268434873e-03 -5.265458103084367236e-01 -1.414252329433032633e-02 1.780741832005489633e-01 1.813540984325451647e-02 1.314848064705978134e-02 -5.900332503402998530e-01
-4.181274963331674428e-03 1.151023315910408296e-01 -2.630440405663848555e-02 -1.746565739296737640e-02 1.048327535238065961e-01 1.542424545231932745e-02 2.949758657060072009e-01 2.514845050327768616e-02 9.509540976391173128e-03 -8.313896055672309604e-02 7.996863257730866051e-03 -4.882138015352227578e-01 -1.422328311834544778e-04 3.511327010558684680e-02 -5.348704202035090560e-01 6.236941878289682488e-03 1.437773099109641017e-01 3.777047254949272848e-02 -1.152861690424439658e-03 -5.504219437952335703e-01
-1.200784420998858917e-02 8.562431713101299746e-02 -1.510907974864294546e-02 -6.935784522493944337e-04 1.197501871742114588e-01 -5.678982534822886452e-03 3.206876504603330402e-01 -2.060406706891152601e-02 -4.645389197065223283e-03 -1.278084511484998131e-01 -2.911603569707247111e-02 -4.549147717318272055e-01 -1.187659949180983401e-02 2.785200476426098054e-02 -5.271039880268081346e-01 3.023233978442015947e-03 1.866187868501975600e-01 -7.214120705221465507e-04 -7.880833422495797311e-03 -5.989689142656575704e-01
-6.474121604021568221e-03 1.037558270381272046e-01 2.961164049765419720e-03 1.568975660981969389e-02 1.023262483284678864e-01 -4.831943607095007948e-03 3.360047331718359342e-01 -4.124460408502413772e-02 -2.972165796436686269e-03 -1.576290890789499299e-01 -8.070014903215181820e-03 -4.999679178214828656e-01 8.530220010460562788e-03 4.337323138546699854e-03 -4.918911970860884164e-01 -2.346136019298772357e-02 1.744294262140821117e-01 2.415925314811096999e-02 -3.018781345351020245e-02 -5.604385179696106389e-01
1.072172752943997484e-02 1.313957906320860625e-01 -1.034130199122481816e-02 4.222837366585287244e-02 5.893988912358771176e-02 5.920969538564741300e-03 2.967364170196880591e-01 1.534878835980447997e-02 -2.635806872731668443e-02 -1.016132183530879390e-01 -1.116709495943542935e-02 -5.021167889078985702e-01 2.534686214188104983e-02 1.466725550237455225e-02 -4.910991946003424591e-01 4.463315000962999463e-03 2.290610030663272900e-01 -3.882589003521838555e-02 -5.125285552910235215e-03 -6.524988895048252635e-01
-1.232907379054412958e-02 1.279012494520672949e-01 -3.080648159346850018e-02 1.656245130805465010e-02 5.609250847843956500e-02 2.559346305846803976e-02 2.991307115778245596e-01 -2.039756602890639703e-02 3.483700751660838771e-03 -1.086769581553745090e-01 -3.300536378762227926e-03 -4.557671144447187350e-01 -6.014813801902527818e-03 2.936260632674153950e-02 -5.161699781829351963e-01 1.354186677422796262e-02 2.280457335720800505e-01 -4.395473525172102422e-03 -1.512925811545979236e-02 -6.043724057928936411e-01
1.792949632223932339e-03 1.215513861041012528e-01 -1.219722249385232077e-02 1.110625009102599210e-02 5.455460778860403426e-02 1.609039317009015434e-03 2.533430929366234374e-01 1.709166438167078472e-02 -3.449147731100534603e-02 -5.128118866109476759e-02 -2.485276852326879452e-03 -5.405355386492511904e-01 3.504170705188175416e-02 -1.586324003976119848e-03 -4.718182693515312609e-01 -2.432750706564560175e-02 1.847808397623349752e-01 1.116434710533256019e-02 -3.267593929340589787e-03 -5.668435673415281872e-01
8.411084321409790371e-03 1.404810612410351822e-01 -3.846550541795187850e-02 1.708832416622376935e-02 5.463436047963474845e-02 3.005085396439689457e-03 3.278421454067435570e-01 -1.270230808978292311e-02 -7.788207200364672886e-03 -1.209695337183738229e-01 6.777778198611987895e-03 -5.102281888564502710e-01 1.895125523655968869e-02 -7.422987241280810250e-03 -4.898890996712862989e-01 5.006694941236743829e-03 1.798196495400577188e-01 -4.940049258109298000e-03 -1.364792946240396716e-02 -5.921795794463362572e-01
-1.854471478744685459e-02 8.793820925068125682e-02 -4.488811765000650170e-03 -4.176878304564791977e-03 1.166725465243999421e-01 -3.575823177138392171e-03 2.896366376302927925e-01 -1.050546901813876471e-03 1.933821392635811515e-03 -8.922420097759281576e-02 -9.604169787760409929e-03 -5.069994933136389159e-01 1.638346888214822772e-02 -2.172343966300287373e-03 -4.896638824262385392e-01 -5.122230937950904631e-03 1.913669570572504863e-01 1.029464486757108305e-02 -8.653035645316508456e-03 -6.007523280117270659e-01
-1.473018444295420316e-02 1.216306228421704383e-01 -2.315405260569132484e-02 -1.009525714272788838e-02 7.964448213427491319e-02 7.635310267691486352e-03 3.153213257878011433e-01 -2.302938115043459688e-02 -1.039754693247214520e-02 -1.077280648757414361e-01 5.143651514459646711e-03 -4.570366984943717847e-01 -2.109554396419006939e-02 2.136409490349331156e-02 -5.395575765906238663e-01 4.171630120727849549e-03 2.088539880416356853e-01 -1.195464971495606779e-02 4.978001111726432920e-03 -5.927740277548095849e-01
1.828047693792536621e-03 8.441325927015218278e-02 -1.728040616723138315e-02 -6.317076116811819360e-03 1.113803621195855881e-01 -1.035249402034853390e-02 2.590963645392847514e-01 3.933596034741378145e-02 -3.102308994281021901e-02 -4.835233463228397199e-02 -2.008682754036812679e-02 -4.832190912891085599e-01 -1.629068838887457946e-02 1.351141707312504200e-02 -5.130691821819448606e-01 1.842455279470961438e-02 1.599350165583338090e-01 2.764189590560504201e-02 -1.944958909402743144e-02 -5.784306341884118963e-01
-2.051319846743971612e-03 1.339507909438301114e-01 -4.187583004888031923e-02 -1.851409157646191628e-02 7.232709959441824266e-02 1.544337403160717104e-02 3.051490757263218834e-01 -1.258772179042002420e-02 -1.728020177157721729e-02 -1.033031696189172649e-01 -1.230364370250605285e-02 -4.870477583957073531e-01 -1.075203597151839011e-02 3.782691793229821589e-03 -5.082279180040341071e-01 -3.469697137264426273e-03 1.688489674318895961e-01 2.480636885305423714e-02 -6.352248260830323061e-03 -5.758199916620795333e-01
-8.482898581216946968e-04 1.524760219990566601e-01 -3.812712617292184775e-02 1.404217943133897854e-02 5.596586004530327424e-02 -1.662851800204328059e-02 2.965090871626829272e-01 -5.423144810838423716e-04 -3.315759722024061440e-02 -8.933246412582687701e-02 -1.256147590539308766e-02 -4.878314508478183709e-01 -8.496872838515759363e-03 1.287337385908342291e-02 -5.207455896088407643e-01 1.618969142609736483e-02 1.845532161802222459e-01 -1.206340951821965185e-03 -1.013998991091764890e-02 -5.893547063827503374e-01
7.640860931631205527e-03 9.546955927776801243e-02 8.540219323209009838e-04 3.657398232533528963e-03 8.543072741443767659e-02 9.046569609417179011e-04 3.253078802569410732e-01 -2.096156937892359670e-02 5.036164172166044534e-03 -1.286653004765665465e-01 -2.549237843160731196e-02 -4.897026459053363534e-01 -1.282283878289098428e-02 -6.697287650844142154e-03 -4.939416032335233742e-01 1.354183363413803687e-02 1.769681707699182205e-01 1.582353162485795189e-02 -3.824653529947263063e-03 -5.809511996882980034e-01
1.678270418574264594e-03 9.057315813840619012e-02 1.782287674243183441e-03 -9.112813797973687985e-03 1.068603294212355087e-01 2.926692275892087223e-03 2.889468091469004629e-01 -5.157135000897115906e-03 -7.469182420105649478e-03 -9.728574308933843340e-02 -7.733265616416996890e-03 -5.286869383960079993e-01 2.079850293497486485e-02 -5.530495573836394924e-03 -4.535761328758987077e-01 -4.893312614434371793e-04 1.285794250481560597e-01 3.780375125988495733e-02 -2.189911400105657227e-02 -5.314802125233210051e-01
-3.146202365743164774e-03 7.349056796420952442e-02 1.686029136692156899e-02 1.825849359690380177e-04 1.268275821609893550e-01 -5.414085716724756706e-03 3.144183512988560358e-01 -2.087577166936770839e-02 -7.599178713751598459e-03 -1.104377304673128390e-01 -4.183320506254644246e-05 -5.161203537002015951e-01 2.190438180143620961e-02 -7.696834992796759353e-03 -4.789692686239995778e-01 -9.581623929059545491e-04 9.191301180660123304e-02 4.900702479706953857e-02 -4.182466052859352967e-02 -5.087970410008705313e-01
-6.275737016158539766e-03 1.046563985430308125e-01 -4.727129570276100701e-03 -9.219298472861002861e-03 9.013217107263110650e-02 1.008501135609913418e-02 3.001961806894941631e-01 -1.334744716910252552e-02 -1.464537189938358921e-02 -1.181893059510762539e-01 7.706198726746629063e-03 -4.993024047293865286e-01 4.505331531845793713e-02 1.747041896391810997e-03 -4.763750768355071719e-01 1.244063926424819437e-02 1.798092401634820703e-01 2.821262116330150449e-02 7.156201454010094332e-03 -5.748004282390155595e-01
2.281928262926149510e-03 1.064601854866524117e-01 -2.339461821715179204e-02 -1.725052486611036023e-02 1.163923764739475120e-01 7.596508461848720806e-03 2.704390669035539041e-01 2.303663399882520391e-02 -1.099335702634295607e-02 -6.594530083647129337e-02 3.535877848771486458e-03 -5.648287520482218049e-01 5.310777766060615496e-02 -9.636907026536125839e-03 -4.264334984128627104e-01 2.860492796294019507e-02 2.514676910577384739e-01 -7.239687437506535372e-02 -2.289780819448027430e-02 -6.527019693454764182e-01
-2.263802660834776659e-02 1.207079076579268273e-01 -1.503222457964465894e-02 -1.829162393626920183e-03 1.126639227592715342e-01 1.513945155728080999e-02 3.201155214775832092e-01 1.994258387081053810e-02 2.618696786309511471e-02 -1.104649947155930817e-01 1.297500518356837530e-02 -4.841542258791495801e-01 1.015482740616535130e-02 2.236233984576712491e-02 -5.208040718980497807e-01 1.498509588898878746e-02 1.977650837150303209e-01 -2.291660529423686712e-02 -1.383610522393930592e-02 -6.250197418401767235e-01
-3.416416164825760923e-03 9.947538912364475849e-02 -1.357311372841028992e-02 -1.973427132231217115e-02 9.984435210728186127e-02 1.148879463574175447e-02 2.907836253556549955e-01 -5.466212003302296611e-03 -6.504683983372051143e-03 -8.846995301419204039e-02 -2.600975818408283319e-02 -5.304354477070702956e-01 3.207521488043402896e-02 -1.878170479728458880e-02 -4.825442772985635842e-01 -3.054146538863994863e-03 1.957334534006108517e-01 -4.301903419114459781e-02 -1.308763472610994030e-02 -6.150906159260854933e-01
-1.171226454154593137e-02 8.864945670649777842e-02 1.978536360063064617e-02 1.903145667527859908e-02 1.217982486816663878e-01 -1.460952173756038374e-03 3.442033930745044268e-01 -1.903682420771843700e-02 1.642907973859532647e-02 -1.390140031771295581e-01 -2.357989090499478316e-02 -5.552958449710315714e-01 4.372490266842834344e-02 -2.260677646912842911e-02 -4.321114654406504330e-01 8.418417987809624983e-03 1.897879239929662620e-01 -1.627021412561400343e-02 -1.661886763674646009e-02 -6.066729619833907128e-01
9.572858631437829169e-03 9.354757333792461382e-02 -2.409650003038868796e-02 -2.946932912002151600e-02 1.146677758951229892e-01 1.188138903354209013e-02 3.216343202365508636e-01 -2.270914287631804751e-02 -2.037140861751533805e-02 -1.477146143525982502e-01 6.213613442899222281e-03 -4.900232674177352199e-01 3.007552097627467017e-02 1.620984641473682472e-02 -4.939854989404949825e-01 -1.004909080388746018e-03 2.179321757081286726e-01 -4.416129892980501584e-03 -1.102419752014719562e-02 -6.172783876885150622e-01
-5.246460068565304141e-03 1.026810607002940079e-01 -3.122655131421428649e-03 -5.913792160549984946e-03 1.055429037303356188e-01 -5.255781568360890638e-03 3.210574845462530469e-01 -1.497932439149800114e-02 4.001167653212895151e-03 -1.154920252700289696e-01 1.326485630708467735e-02 -5.221106849521052196e-01 4.410636570303573534e-02 2.325527624369546492e-02 -4.796169595829073429e-01 -3.718912821416150809e-03 1.564084879910511983e-01 5.350812975893622092e-02 -6.064620669024014740e-03 -5.419577937436094173e-01
-1.142428774824489138e-02 1.222752709458763687e-01 -2.761601770366175004e-02 -3.116089449734254450e-03 9.521183545653333358e-02 -9.509223790124350303e-03 2.823135763452561120e-01 9.307360021710120446e-03 -9.302952667559188232e-03 -9.359644109503154064e-02 3.656484630936501171e-03 -4.568680081193474685e-01 -2.306000344532559143e-02 1.599832317889789829e-02 -5.614419771675612791e-01 -3.024541602094239431e-03 1.530869884690482241e-01 3.292762118701681590e-02 -3.153557506283194423e-02 -5.611819071600834263e-01
3.789987933742609144e-03 1.292419942993055237e-01 -2.949012110726793173e-03 1.777673678744263672e-02 7.077839553895701186e-02 1.917927964092505655e-02 3.025438422919456971e-01 -1.155253421356189011e-02 -2.754445999013561963e-02 -1.083344278980422348e-01 3.097535453680438054e-03 -5.302115208696206450e-01 2.135171962848158439e-02 1.614174749615974666e-04 -4.808475542822900350e-01 5.634213481380438877e-03 2.023016374737561240e-01 1.784650179781133161e-03 -1.107405940256590664e-02 -6.031840175154596917e-01
-5.230954424421622312e-03 8.645500008669199099e-02 9.809838018875232518e-03 7.530273040718108227e-03 1.061705105852460140e-01 -9.665037753478855284e-03 3.246801907338217053e-01 -2.437669158542163025e-02 -1.677851785865122972e-02 -1.264217419046694268e-01 4.169733744989115656e-03 -5.396714019822672626e-01 3.922816881600652006e-02 9.317758761452039212e-03 -4.715766572823594793e-01 -1.152938438490948639e-02 1.954295206312020861e-01 -2.417160395295324914e-03 -7.584713531129589834e-03 -5.899751433539019985e-01
3.973370755905295329e-03 8.931524222599063201e-02 -3.462257199206907748e-03 6.976365510614439616e-03 9.220935877621899701e-02 2.576546622778999596e-02 3.216887202110017552e-01 -2.231828325777437082e-03 1.272001329932028954e-02 -1.213063406888964801e-01 1.253118407399423859e-02 -5.081198946706410036e-01 1.839191364858593775e-02 3.723802127164319020e-03 -4.814156451302510353e-01 1.851845000180854430e-03 1.931220522402122275e-01 -5.318298360988014603e-03 -7.521961542001322047e-03 -6.021517736257230302e-01
-1.364803878835437953e-03 1.319109149271354420e-01 -3.733958389423350233e-02 1.582563937491279858e-03 7.886067469283623843e-02 1.283127659433733192e-02 3.109108418162067067e-01 -1.564720009963665309e-02 1.252552124108425799e-02 -1.032527086411418604e-01 6.252311127890632092e-03 -4.827467204457414618e-01 2.136355854371612892e-02 3.229672160838892997e-02 -5.010002042713281867e-01 1.600771195320468097e-05 1.892478052898294294e-01 7.920946633467018314e-03 -1.650793355302704324e-02 -5.936922455347172223e-01
-1.104644305778037031e-02 5.081890673996654340e-02 2.941651383736600123e-02 -2.744407710259871239e-03 1.366826714892169503e-01 -2.651002345377649616e-03 3.204606426191738411e-01 -4.227355660102011248e-02 -6.749270901058906230e-03 -1.199028448046990103e-01 1.356748672169888828e-03 -4.454777229903127966e-01 -3.410996551282820949e-02 9.382357848560209101e-03 -5.495086114236866770e-01 -8.712764177075229058e-03 1.880764580147382403e-01 -1.618204538884979865e-04 -1.284545713190506089e-02 -5.919104034240965095e-01
-2.425494984368406926e-03 2.770725899789534818e-02 2.631222934895141932e-02 -2.887027552430894775e-02 1.557338702108685413e-01 8.605689207707328467e-03 3.397996310763100047e-01 -4.671386081380305560e-02 7.342888635873331959e-03 -1.445357673481943717e-01 -8.448793271215422965e-03 -4.898921420412279959e-01 7.221192058109290358e-03 1.040959508127410442e-02 -5.256001750561288821e-01 2.490222845037000712e-03 8.939104178368109666e-02 7.338585877968720195e-02 -3.093513254033508283e-02 -5.109794652839052542e-01
1.348537220948184748e-02 5.966458324498461613e-02 2.716927394928074675e-03 -2.941375167550870640e-02 1.392803386451537118e-01 -6.636070608950543626e-03 3.135856771095190676e-01 3.356958579282254274e-03 6.628246376466391879e-03 -8.075343433375729851e-02 -1.839060469644238430e-02 -5.643068380214674162e-01 6.652751327616537869e-02 -1.891291070146285287e-03 -4.451264397566405684e-01 1.624015854039994461e-03 1.082347245502975758e-01 4.773144337154100469e-02 -4.578539931838311594e-02 -5.038445792967582992e-01
1.927202303532932898e-02 1.232247187299588542e-01 1.093857307911958246e-02 4.904838179814355326e-02 4.143741515367062311e-02 2.155812923428704342e-02 3.091166904169181384e-01 -1.371795162068891946e-02 -3.733935085383719484e-03 -1.348552465675927903e-01 4.038474152535524372e-03 -4.915648062079262526e-01 -1.720463320549877467e-02 3.435572885457960877e-03 -5.154588581386733148e-01 -6.545539354443633689e-03 2.064031570298955620e-01 -1.140532354357697703e-02 -7.577252309190669194e-03 -6.167847812425520937e-01
-5.853459140799565676e-03 1.473876523973692565e-01 -3.728853459833854356e-02 3.559907047877162046e-03 4.725524715731906078e-02 -1.374553859709048975e-02 3.195953712693384019e-01 -3.301545378689052512e-02 -1.344539751745835177e-02 -1.275564869341259677e-01 2.623600206106923866e-03 -5.166985540151149969e-01 3.406718019380215734e-02 1.438828726615717923e-02 -4.942819658657917059e-01 1.544076921862041693e-03 1.696249332514154773e-01 1.715585211002599794e-02 -1.941203958262232437e-02 -5.760399377563227841e-01
-1.473291847650005405e-02 7.670908697418701849e-02 2.704258078625735445e-03 -9.665925879924611164e-03 1.177864689952141525e-01 -1.608472204699511882e-02 3.089544393385680876e-01 -1.161675696290902747e-02 -5.248804752043345276e-03 -1.074427746658305344e-01 8.704823010905587619e-03 -5.209232251614994702e-01 2.471249707470454804e-02 2.677794086763856350e-03 -4.849767452670692425e-01 -9.471574110459547724e-03 1.665515688281508644e-01 -7.775853848401050039e-03 -2.856686084779336970e-02 -5.714426538323739146e-01
-9.428892110877849786e-03 1.323919441519160467e-01 -2.950948209803534381e-02 8.829844928860540454e-03 7.045289811302579697e-02 7.476378879415484548e-03 2.910105620486765909e-01 -2.309531441632092438e-02 -2.103432683712657195e-02 -9.970221491767806976e-02 1.389809052124287708e-02 -4.894614524887670459e-01 -8.378777488988853328e-03 1.254919943213865866e-02 -5.269110400173996345e-01 -7.587093716555306025e-03 1.720460839711232259e-01 3.185787082216096078e-02 -2.923769205331111162e-03 -5.842056222310120228e-01
8.277579981704726378e-04 1.047472712666920047e-01 -9.253657954943109165e-03 -4.258211231392800347e-03 1.220388974594760617e-01 3.265778521144443568e-03 2.967841645995115685e-01 -1.078285286378908442e-02 -3.850400070958388821e-02 -1.029620408947870547e-01 -1.135092331325219216e-02 -5.031700052745861074e-01 3.085707577984778127e-04 -2.222091713975624799e-02 -4.810210568398626818e-01 5.003041749603203033e-03 1.727982005669321253e-01 4.619239792930894539e-02 9.038374076348491826e-03 -5.866417282176819015e-01
-4.090591437524486451e-03 5.944928935347523064e-02 1.363743505271294842e-02 -1.229965486728859005e-02 1.513270901441500782e-01 8.137147878599333001e-03 3.117731788983150731e-01 -1.777155131071730954e-02 3.523923546260548240e-02 -1.381898836067851355e-01 9.231116374970201738e-03 -4.502344273802111885e-01 -9.493421082736812344e-03 2.477501569101510370e-02 -5.607626827988628770e-01 -8.354470801608998923e-03 2.026703792076930410e-01 2.480170499950817148e-02 -2.267936476399184248e-02 -5.975007877112670229e-01
-2.475212808357534194e-03 1.327620150590396175e-01 2.838156965442470425e-03 2.801704189324194516e-02 8.434365835345802864e-02 1.857462776228114426e-02 2.620301147921245688e-01 6.277178498920775798e-03 -1.650304394765330154e-02 -7.018972438595558194e-02 -1.441625177970487677e-02 -5.371357272203890476e-01 3.039166617904331957e-02 -1.770724107805659794e-02 -4.427890332347948488e-01 1.338316756560769573e-02 2.233706211986508927e-01 -8.516422265883165366e-03 2.055639247218681021e-02 -6.416339491776077431e-01
-1.238359228278540676e-02 1.479141922477672233e-01 -3.318215804634499881e-03 3.033183197857275068e-02 4.568437723258373523e-02 -1.665819710694094180e-02 3.183488597089023098e-01 -1.323155837815866848e-02 -1.834244034976336216e-02 -1.083104216793278479e-01 -3.836293406243526834e-03 -4.863131549249005703e-01 -4.631099089083445114e-03 7.533988534201818341e-03 -5.231139135292945941e-01 1.062273255793467000e-03 1.780432647074371988e-01 2.822071521238089103e-02 7.935470670194840620e-03 -5.873608024851687537e-01
4.175197075042182820e-04 1.231630070300487600e-01 -8.593049316531486959e-03 -1.487910314759820045e-03 8.321235044189821684e-02 1.527566720376197880e-03 3.638589703622140958e-01 -6.135029854255018289e-02 1.801363864806069387e-02 -1.564752182755994592e-01 1.385766284791182471e-03 -4.907123380282622516e-01 -5.002298139952440770e-05 1.585642127739749635e-02 -5.149175916485624338e-01 1.799581762157917084e-02 2.098574878040571079e-01 1.643968109406610673e-02 1.361912120460137196e-02 -6.186252460727386104e-01
-1.999787914276685008e-02 4.391415528017859199e-02 3.243485646001718209e-02 -2.353580780034414399e-02 1.455912806206151877e-01 -4.566061066412344105e-03 3.114180145864450799e-01 -8.949677820041154405e-03 -1.554682726056522135e-02 -1.250620686451386077e-01 -1.318963306377553962e-02 -5.002566248425024398e-01 -1.618000570391048276e-03 -1.139006491215398612e-02 -4.991023428893792135e-01 -3.927764162604696456e-03 1.929711405462044282e-01 1.673549323842607114e-02 1.504893691672291173e-02 -5.938784891932556986e-01
-1.636024195542271423e-03 1.245652156647904518e-01 -1.794057035706411729e-02 -8.521620928342295981e-03 8.823659333164110552e-02 1.430030218422264840e-02 2.967151625577084673e-01 -5.392330679192632557e-03 -1.478040059943500767e-02 -1.138044081100545446e-01 -9.473700891421495476e-03 -4.514801269976467801e-01 -1.424047916420885171e-02 3.693299287019830707e-02 -5.387833695356663011e-01 7.335293741150547076e-04 1.863365017176096539e-01 9.731387433654667060e-03 -6.306611224233403708e-03 -5.810873763804718095e-01
-3.647912176324716663e-04 1.060680344448244050e-01 -9.447274820808371221e-03 5.475841132571712677e-03 9.072541068229303396e-02 1.496462941939689234e-02 3.718902647007104045e-01 -3.152933621059114677e-02 3.228974544068384522e-02 -1.714902451323540855e-01 3.527355110267308119e-03 -5.247483054620745158e-01 1.461283660255513830e-02 1.225796028742738575e-03 -4.800711974537900661e-01 4.713222226870776924e-03 2.242547624367144665e-01 -2.070570085590796305e-02 1.812168474010465366e-02 -6.465220863902434445e-01
-1.540712962766039446e-02 1.274455059817721780e-01 -1.764565258519511931e-02 -9.098804875239162662e-03 7.308253227733865764e-02 6.552896624437334200e-03 3.376866560569375397e-01 -2.965068554885948171e-02 7.615359297861914317e-03 -1.630522789599132549e-01 4.280679845845155110e-03 -5.172814385082289412e-01 1.625519591893825888e-02 -2.084050700891534186e-02 -5.000374315615241372e-01 1.728635298565891348e-02 1.496584886034092454e-01 2.258799263785687961e-02 -1.430389536036532835e-02 -5.644152023272157592e-01
-2.417908115075557626e-02 1.404759709249495669e-01 -2.916262913903066092e-02 1.104618622442332665e-02 6.783969671706989446e-02 -7.754439200394567383e-03 2.700543464972313679e-01 1.786955568323998420e-02 -1.931790714070232701e-02 -6.926933045765515384e-02 -1.395698933602294682e-02 -5.138802750262300156e-01 6.000202635752260351e-03 -1.087394303349586283e-02 -4.875227554900278815e-01 1.280864082612038352e-02 2.316282272362299999e-01 -2.411958712350844788e-02 1.741672696429306250e-04 -6.408247783402624131e-01
-3.658198789485351751e-03 5.492791847516913933e-02 3.584975194242085578e-02 -1.159864430653910483e-02 1.227327825049397969e-01 -6.409561335393824076e-03 2.938083853955339442e-01 7.047950419794245247e-03 -5.966836067886463479e-03 -9.370054107898478923e-02 -6.435691494178937683e-03 -5.045674783382572137e-01 3.584148091085587184e-02 2.251593156054115807e-02 -4.730185468344804134e-01 1.064416349751764329e-02 2.096087397950504860e-01 6.086925875025800056e-03 2.058081886064726251e-02 -6.211110309788990813e-01
6.607774280064255060e-03 9.999176759580712115e-02 -2.769335906878848952e-02 3.861037280208359443e-04 6.988939121449211367e-02 9.202028784938641112e-03 2.870198540440155877e-01 3.304490151022562716e-04 -7.918011624755567565e-03 -1.030852155836188278e-01 1.124498729585934366e-02 -5.064929055827461779e-01 -4.397655042419325311e-03 8.736599809306124995e-03 -5.013237766697260511e-01 4.154092640410944615e-03 1.953531821026458781e-01 -1.234345680937672975e-03 -6.538693740903713317e-03 -5.909985815113076857e-01
-1.404374660112650032e-02 4.075130814226924497e-02 3.492101496818135475e-02 -2.358689484131483091e-02 1.532057890909596098e-01 -1.879786960046530772e-02 2.927255525016561055e-01 -9.162418503991746205e-03 -2.719359417126463938e-02 -8.567385995142651200e-02 7.199183612024206112e-03 -4.884460858479122147e-01 -6.345118209753006916e-03 1.277478502391649930e-02 -5.178819110528745107e-01 -5.899529494127034139e-03 1.608222796581951775e-01 1.039105513174378922e-02 -5.942790126268663806e-03 -5.660485867934130777e-01
-1.087972816477259311e-02 1.247365095246034672e-01 -1.093606986546977883e-02 1.951041811162006895e-02 8.409906627386383449e-02 1.854732939044664158e-02 3.628247846561953316e-01 -4.392723942639293472e-02 1.442765856590425694e-02 -1.685124451978653182e-01 7.539871176862555056e-03 -5.088126099114945733e-01 -1.665911888378793226e-03 4.816160512302377489e-04 -4.942614400340102354e-01 -2.553198600763167524e-03 1.693352121859838799e-01 2.360674548152006877e-02 -1.041166450256555617e-03 -5.662263732496958246e-01
-5.483736061014338886e-03 9.856219138779670486e-02 -5.441458652017869962e-03 -9.468839441883623170e-03 9.630708671522744679e-02 -9.392531969580510467e-03 3.057517972327505884e-01 -1.971909683088425569e-02 -1.417064337096638794e-02 -1.130679194281555694e-01 8.093352692066714538e-03 -4.762158548024045812e-01 6.912057451980701227e-03 1.661649831611769490e-02 -5.249916388832914782e-01 1.469134835932886518e-02 2.214832257429781015e-01 -2.563367306720787733e-02 -1.468040281498020870e-02 -6.215550571435779492e-01
2.909621527642720570e-03 9.093568344332357556e-02 -2.471169528141145457e-03 2.649360963763688556e-03 9.546995890690321285e-02 9.317076306262203622e-03 3.256815492535596324e-01 -3.461984820389875372e-02 7.819762043271231283e-04 -1.354065382650335991e-01 1.828460659869696886e-02 -4.898687042876846975e-01 5.033748399341016200e-03 -1.507708917258127057e-04 -4.989805109363348312e-01 -7.964226344815252337e-03 2.065237489971460672e-01 -8.376370772200216266e-03 -1.381936182660638626e-03 -6.068650741666233861e-01
-1.543535755705457979e-02 1.099631525738856419e-01 -1.754827781118822178e-02 -4.451297515494513288e-03 9.278023789095080076e-02 1.325300489098442738e-02 2.838307091291581430e-01 -1.466664759409354313e-02 -2.729743194785509350e-02 -8.589744589767295269e-02 1.487896727129026445e-02 -5.736820525534156445e-01 5.335678398537339884e-02 -3.696567828773157649e-02 -4.150019276882311314e-01 -5.596739907954891707e-03 1.818312401254742472e-01 3.884553032788944787e-02 1.294011173776409007e-02 -5.822335021170035319e-01
1.100380764477514040e-03 1.075198771528722980e-01 -3.420443780861710803e-02 -1.785088553634563147e-02 1.035701166277918500e-01 -2.231757898819927786e-03 2.883025649966610704e-01 4.778424776316703496e-03 -8.884835311589935058e-03 -1.142551193907933166e-01 1.240269046813880470e-02 -4.207493470453012030e-01 -6.469577958009219143e-02 5.146599992362922704e-02 -5.991931915587566104e-01 -2.063602909014664727e-02 1.563560646377428198e-01 2.171009882257136578e-02 -2.604436774652716877e-02 -5.520859080379234562e-01
-1.112870392096291204e-02 1.018569516331888358e-01 -2.443541435054588304e-02 -1.366370340853833784e-02 9.456806304583766087e-02 1.547763833113524959e-02 3.009243754153438366e-01 -4.617167899113019426e-03 4.432303698974959794e-03 -1.314211558794601553e-01 -1.725238720261038430e-02 -4.569524410761429678e-01 -3.328291154934666374e-02 1.567408343531471668e-02 -5.372156297089158983e-01 5.748243427080421478e-03 1.963329000852974404e-01 -1.924805136050489196e-02 6.786666390129350926e-03 -6.284942012016347945e-01
9.613157571618784203e-03 7.040645933921058086e-02 4.885469794972192165e-03 -4.053834012718491447e-02 1.299895071700816196e-01 1.663215483342647683e-02 2.916744771466697750e-01 -7.705976035027447754e-03 -1.564722934902647647e-02 -8.491300715016138201e-02 1.904130727010241650e-02 -5.109539342962925446e-01 2.119849862653770678e-02 1.348531388612769170e-03 -4.976869942478858722e-01 -9.270298578590283056e-03 2.061723773544034966e-01 3.156992660923029805e-03 1.581354173836957769e-02 -6.082742870673494284e-01
-1.133290853223683711e-02 8.496185473255450649e-02 1.854742323417551617e-02 2.404243560522443743e-02 1.153993442983572149e-01 1.528293318880185117e-02 2.948056510878384606e-01 -1.222541396830446013e-02 -2.261124692719057236e-03 -1.220935535249060844e-01 -1.032301971239398333e-02 -4.762308019915311719e-01 -4.471488312869122128e-04 7.821578882460947235e-03 -5.280276562997461287e-01 9.295263462222654038e-03 2.175956207639148932e-01 -5.992701218873051211e-03 -5.421743627856218974e-03 -6.215382711331082222e-01
-1.682591896282456534e-02 8.036053806283860457e-02 -6.003521518635211544e-03 -7.560973756816570697e-03 1.092310411247190416e-01 -3.675827372788959858e-03 2.317657599368721510e-01 3.568705182209675614e-02 -4.408789716367291639e-02 -3.050277159990807951e-02 1.860773559352805855e-03 -5.130198219717213570e-01 -6.265812003162837124e-04 1.548620965236047892e-03 -4.738137335323430177e-01 1.022026263845606311e-02 1.830892049498431540e-01 2.526025275839171268e-03 -1.461475728838511172e-02 -5.794952550654557388e-01
-1.507572279886065791e-02 9.703148951934220667e-02 -4.127988506978418418e-03 1.495783942191356930e-03 9.793959728055430525e-02 6.992399598476491292e-03 3.426791798716101733e-01 -3.008763228392521277e-02 -7.557804169364547991e-03 -1.400313586069092398e-01 -1.622481170800637792e-04 -5.274188576738905176e-01 2.275590527764018503e-02 2.068426652358563989e-02 -4.843479058774987078e-01 -1.118555706240988851e-02 1.801743207500307586e-01 9.266778523287322149e-04 -2.130807428425888356e-02 -5.772937607072162747e-01
-5.566329273085373827e-03 1.109864237508176171e-01 -3.496593051247368078e-02 1.244247926648901466e-03 7.353607117860150311e-02 9.482969796168659593e-03 3.015220058950202620e-01 -3.781193146848315159e-03 -6.748008356094295328e-03 -1.022470033115693566e-01 -4.142930154764020573e-03 -5.030091882917202550e-01 1.788241211177813220e-02 6.367009151491950791e-03 -4.991160461321262343e-01 -1.999995925020229409e-02 1.718374620387599916e-01 3.287728386505672784e-02 1.576413067710251067e-03 -5.705837816125725048e-01
-2.493507565833210857e-03 6.831804484641243458e-02 2.270645821749362955e-02 7.568450129248566281e-04 1.463852510697484788e-01 7.437802869546531435e-03 3.010646946726941442e-01 -3.114750705005376111e-02 -9.977741232962050733e-03 -1.165438176699274131e-01 1.411847600548231559e-02 -5.172247626277620691e-01 2.730857906383065553e-02 1.427127561911564757e-02 -4.943785785637196395e-01 -9.828131370693393015e-03 1.902020120395218339e-01 -1.416261163811189522e-02 -1.819599298489037176e-02 -5.903658202448931469e-01
-2.375923403543435397e-02 1.327741316267085081e-01 -1.082108449120905425e-02 2.091899756354637444e-02 8.163435270500776775e-02 -1.234389064683243283e-02 3.240307066311845507e-01 -1.020591665487840041e-02 1.840763708944268690e-02 -1.273720409567441481e-01 -1.292952732597271379e-02 -4.889844349391298528e-01 1.209715362354462503e-02 1.711637409471316457e-02 -5.094665071034758519e-01 -6.825279845959549008e-03 1.981378433904084080e-01 -3.332710028410176134e-03 -9.625800972477005502e-03 -6.109742764889737332e-01
7.630870894893625883e-03 7.354415043141364350e-02 4.681321707203242588e-03 -1.783596866665940889e-02 1.060247333199780539e-01 1.854558178517317149e-02 2.796948153795169034e-01 2.093048046495848968e-03 -1.023139574569316250e-02 -9.609213324049323268e-02 -4.981973194045112227e-03 -4.852174992184866698e-01 -8.780260779980918195e-03 -5.213986181036946166e-03 -5.176382855335631694e-01 3.806750570239107907e-04 2.057340218155115086e-01 -3.107204760571457072e-03 -2.609414427959767455e-02 -6.048752537126176332e-01
3.914610286042676315e-03 1.524200792586084818e-01 -4.648405454026819511e-02 1.724108394805426436e-03 6.028881478489835771e-02 1.518034345317992827e-02 3.148726987424487200e-01 -1.048193851014148428e-02 -8.411264405846736320e-03 -1.257196108757272501e-01 9.571999936136442108e-04 -4.841288603855228856e-01 -9.206669310646998367e-04 1.419479197645470009e-02 -5.209209212442025283e-01 -1.458388505112503952e-02 1.587895946335759478e-01 1.498250319073930227e-02 -2.258542534044539335e-02 -5.546328840681871153e-01
6.059274433709837052e-03 6.377302930009483284e-02 1.198507627128267070e-02 -1.975876697749774993e-02 1.091046138024785034e-01 -7.398698140155984468e-03 2.636816731835523453e-01 1.932447997506107906e-02 -2.182117889307291086e-02 -7.341386525207210800e-02 -3.514262034551284344e-03 -5.110316832192240977e-01 2.681967284522198194e-02 -8.291646418106975863e-03 -4.857774301782741833e-01 -8.939812358892599772e-03 2.023457159378219683e-01 1.051254361777509937e-02 -1.699588448484111967e-03 -5.767377898107306500e-01
-8.476696819732048443e-03 7.088028609305244143e-02 2.037947404184393269e-02 -3.452816781664906458e-04 1.174745243452837568e-01 -8.517944219181606408e-03 3.238428375650935220e-01 -1.445825319583761079e-02 -6.814804436630911809e-03 -1.296384033589362827e-01 9.901125122165035236e-03 -5.487115724781067572e-01 7.064554397830322130e-02 1.074715131505508264e-02 -4.518648593383705614e-01 4.578383148382731554e-03 1.756901487402205142e-01 -2.347031652830825280e-03 -1.386295435088115077e-02 -6.009159810262852952e-01
5.162181808582534323e-03 1.065582845826295727e-01 -9.358402760788957914e-03 1.748047197830189178e-02 7.259080435294909539e-02 8.741537585037342101e-03 3.189015428277933717e-01 1.040583632063833003e-02 8.077182213683163636e-03 -1.277604628794502817e-01 -1.964678346471702974e-02 -5.464124461440342806e-01 1.487238088588889277e-02 -2.070706522999352789e-02 -4.572988756812090827e-01 1.918827859946866526e-02 2.289439842422823224e-01 -2.301021277622797290e-02 1.803577661752436487e-02 -6.516345954347603220e-01
-1.798625324240156736e-03 1.158573476633038696e-01 -2.741777570864302460e-02 2.423151445700587239e-03 7.204853522660947807e-02 -8.277588476152866054e-03 3.024451841094542570e-01 -1.172554370732654949e-02 -7.178077540223279027e-03 -1.078672293231165702e-01 3.976385472976498060e-03 -5.165023709080176495e-01 2.287569031912820364e-02 8.288674653488085908e-03 -4.844862521540146405e-01 2.317539703181790631e-02 2.062829609286923327e-01 1.787357073189610804e-02 2.079702636229510335e-02 -5.990587169504568710e-01
-3.182077157153727701e-03 1.032048689154359544e-01 -4.877539992194446575e-04 -3.189286682278125000e-03 9.656869500803828832e-02 -8.048020679038243516e-03 2.902129201061207642e-01 -4.232007201384821449e-05 -9.513612647930101349e-03 -1.173616599539166472e-01 8.586177149553609472e-03 -5.017195599155099828e-01 2.107698595156167962e-02 4.120528155010873966e-03 -4.742137808386920894e-01 -5.022762035231618030e-03 1.820763189944706317e-01 4.711492194029106434e-02 5.615814833294860420e-03 -5.688406687334286449e-01
5.708848162943987170e-03 4.837359457881093561e-02 3.368508396695114870e-02 -8.485294042817375509e-03 1.452405251201041858e-01 -4.806357470762290945e-03 3.222408682444889427e-01 -3.406183021444299241e-02 9.364183392559375513e-03 -1.323760113772159408e-01 -5.927274477727281082e-05 -5.406294802684967760e-01 3.422152546221123026e-02 -3.602718773243869521e-03 -4.770843445769970548e-01 6.179818564358082085e-03 2.207588132748549148e-01 -2.185701786380974190e-02 -1.893101007617668113e-02 -6.176459755644331251e-01
4.526301982527382306e-03 9.964730964901910570e-02 2.651083045763505223e-03 1.181484503702409823e-02 8.330596216767059692e-02 -1.962613490102395504e-03 3.049712893594072050e-01 -4.502757759586793751e-02 -2.555691517152645920e-02 -1.224840133285405724e-01 -2.045480964141191058e-02 -5.050631149362394545e-01 2.511063354194993311e-02 -3.805708331868787320e-03 -4.709276513724819924e-01 -1.615049348593668166e-02 1.515673132748233953e-01 2.363167739418380736e-02 -3.403050626196889306e-02 -5.408160741149961037e-01
-1.350705108512041674e-02 1.086811099563990413e-01 -2.066253429804851965e-02 -1.813553548026983209e-02 9.119106462896235665e-02 1.215829988863188944e-02 3.203104296772834592e-01 -2.436536050386041430e-02 6.640003258248428075e-03 -1.355508415639794795e-01 -7.035698926131404157e-03 -4.735551310241454814e-01 -5.983037904347544844e-03 -2.688821636112594116e-03 -4.952253004898481414e-01 1.144175088224200221e-02 2.303772244548379367e-01 -6.249403226426544777e-03 2.626869010100235310e-02 -6.457169687574648709e-01
6.946530847302179179e-03 7.027935466501104844e-02 2.871275235775267581e-02 2.023657589851642763e-02 1.088077623557564405e-01 -8.594041656032178414e-03 3.286057052003721335e-01 -5.290577611213615611e-03 3.060394621402860033e-02 -1.240580190066504079e-01 1.002199091177786126e-02 -5.002903412220078838e-01 1.529200610113388460e-02 1.483175249727356100e-02 -5.088210980178666798e-01 -6.079315190403880229e-03 1.727545381399067936e-01 3.164190694829194239e-02 -1.430305017462105491e-02 -5.720504279007158077e-01
1.230246335322626033e-02 7.169842941874168818e-02 1.267952991147636849e-02 -6.124356398325472503e-03 1.131848037190872208e-01 7.065627784199691834e-03 3.447679116327856952e-01 -2.040841651787235131e-02 6.180190794799761064e-03 -1.405911772887598610e-01 -5.591975780298267737e-03 -4.975857334141048915e-01 1.444427712222932578e-02 6.687532755729481103e-03 -4.888190719427431552e-01 1.161670212221140031e-02 1.769089766314753120e-01 2.147936576050682791e-02 -6.258144614444193649e-03 -5.772428317078935889e-01
6.081158399379267207e-03 1.143586406542759781e-01 -9.724438333055697783e-03 3.107318041753642616e-03 8.736630614826593200e-02 -7.641711626040130143e-03 3.005640053628644837e-01 -1.244033053259758700e-02 -1.388289060352821888e-02 -9.463541284407039900e-02 -9.079591319899002824e-03 -4.936157947599543738e-01 -8.097174900954101640e-05 3.020516372783302490e-03 -5.137511534049806761e-01 8.733038612583855428e-03 2.328068908403664872e-01 -3.474512440161033056e-02 1.718659399343644770e-02 -6.280446947243980560e-01
-1.779896824571995662e-02 7.078714316174140875e-02 9.997003596842864159e-03 -6.998817278100438570e-03 1.280988507878308424e-01 -1.529547469003646274e-03 3.031803603034000649e-01 -2.015803217084518456e-02 -3.757711270422329879e-03 -1.114496908642650663e-01 2.878772271330121927e-03 -5.335363079334776160e-01 3.601125261631313301e-02 8.134339176878549113e-03 -4.654045778074988315e-01 -7.211139933614340441e-03 1.933421243545871415e-01 1.077814953783767446e-02 2.723940777082807171e-03 -5.870801172219731745e-01
-1.104482047773020469e-02 8.652715298992633142e-02 9.895325907531808338e-03 1.348766416854034304e-02 1.263805793052073245e-01 -5.489626722436963605e-03 2.818529133985531177e-01 1.229198597294196144e-02 -7.770322610495303262e-03 -7.588397444174592443e-02 -8.295257873890115111e-03 -5.065278167422911926e-01 1.716063471780052141e-02 9.789238805615248576e-03 -4.827538188642090944e-01 9.828250991063301051e-03 2.132019315003885473e-01 2.949096292441166778e-03 1.300901889008284837e-02 -6.228027538078416692e-01
-2.678876822641816386e-03 8.317957242944767904e-02 8.079519247652608774e-03 -9.040160037085879716e-03 1.121750494043671359e-01 4.942669808648358573e-03 2.986188878414813841e-01 -7.610798686299565137e-03 -3.691319521153769209e-03 -9.613122557901594700e-02 8.784626204211480431e-04 -5.393832939369519464e-01 3.973483910786206053e-02 1.146139608343017466e-03 -4.459489387492397983e-01 2.020926177782372303e-03 1.825125620167390994e-01 3.401271988792949064e-02 3.362608944002531963e-03 -5.658964021067559580e-01
-3.374585422306028946e-03 7.810903368721011653e-02 7.480499597761447808e-03 -9.009611658996070221e-03 1.271132483601306595e-01 4.017979547708626364e-03 3.277122208485425681e-01 -2.741980444468580455e-02 -9.006725671979042003e-03 -1.476810501078062998e-01 -3.278394172738971577e-03 -4.786059971859314421e-01 -1.143099416965389498e-02 5.514297975327310704e-03 -5.226257993045795303e-01 3.905029614981715691e-03 2.018899943016248533e-01 2.223536291342650961e-02 8.356571835211969168e-03 -5.847522689164398324e-01
-2.096977471851185423e-02 1.319256792408657064e-01 -1.651066484906519444e-02 1.246166982550264528e-02 8.044282431186562665e-02 -6.247939109295264776e-03 2.973563488068406979e-01 4.365205569441310551e-03 -3.187946367129958908e-03 -1.022570799164229105e-01 5.155125558308932057e-03 -5.466081096554522567e-01 3.776168880495106572e-02 4.283335546203899044e-03 -4.533273307519538053e-01 9.085604749772657751e-03 1.723820992596744039e-01 -6.125076212300370124e-04 -1.807514270928999370e-02 -5.773153239227475364e-01
4.750384572612700168e-03 9.990065925172683658e-02 1.936967931387147471e-02 2.443283016376809891e-02 1.066721975955169932e-01 7.826083884783266789e-03 3.305581433856115692e-01 -1.578808087033248264e-02 -2.106869544211972291e-03 -1.431935541942326306e-01 4.767149652862685827e-03 -5.023671799160875917e-01 1.201756647264816749e-02 7.409657877607452037e-04 -5.112159586635265374e-01 1.671478904672701014e-04 1.898961139116991104e-01 9.250666330310809357e-03 -9.340388289225832336e-03 -6.005027957919235604e-01
-2.908908080451520859e-03 1.213353089958359859e-01 -3.186802586399641035e-02 7.453064237623021650e-03 6.864283906760543230e-02 1.076154385369569415e-02 3.093329587100080436e-01 6.509588477897395448e-04 8.032077232033635675e-03 -1.250718113979200630e-01 -1.725325044925933408e-03 -4.856093311730084738e-01 8.939654988016462051e-03 -5.882686065049623492e-03 -4.946581029155689979e-01 -5.088471165227793913e-03 1.786020560679533187e-01 -1.235982097294117260e-03 -1.181365035309409756e-02 -5.884650411261765912e-01
-1.080021020787904837e-02 1.098586571129457345e-01 -1.141662165554470712e-02 4.230017037118301466e-03 8.128181305291376502e-02 -6.664240750803398280e-04 2.922494078129432293e-01 -9.818423563585063768e-03 -2.282747632351626518e-02 -1.011641958573698263e-01 1.549153410852853636e-02 -5.080655693109856763e-01 2.347706253468069895e-02 4.900130958939208359e-03 -4.913535997095994090e-01 -4.727286187569559525e-03 1.925951965562241741e-01 1.303915766062894652e-02 -2.878114136405710705e-03 -5.861510739565982675e-01
-2.005303751170955245e-02 5.439171992407994261e-02 1.068719813175900667e-02 -2.142131612559483242e-02 1.350910776686833348e-01 6.170502886175113777e-03 3.202136067987400581e-01 7.688433988103988981e-03 4.162809866974218065e-03 -1.088561278692500578e-01 -5.409923943159864086e-03 -4.738670890390607182e-01 -8.431223556829379323e-03 2.227145083702494754e-02 -5.041685425359653250e-01 -9.940338390292654050e-04 1.798954719219167386e-01 2.794214093237437982e-02 -8.989694740705156395e-03 -5.792751878662981690e-01
-5.710846211597950424e-03 8.433971229816691895e-02 -1.511839450698373652e-02 -3.814203506259732090e-02 1.287998172205977732e-01 5.300350064612347270e-03 3.345127961902181202e-01 -3.766087798118409463e-02 -6.750288852452674543e-03 -1.312847552435429666e-01 2.470189526807902922e-02 -4.655073506276962148e-01 -1.999560089477498553e-02 1.921594399325350991e-02 -5.407713988230439250e-01 6.517221350723747912e-03 1.875564642472808130e-01 -1.372251021506735308e-03 -1.594813036250919414e-02 -6.109036023589310416e-01
-3.074072894230322345e-03 9.428980075964671359e-02 -2.328850085394139346e-02 -6.251294106686297071e-03 8.747451538855094411e-02 -1.177845173649150028e-02 3.499502206635605184e-01 -5.208067802427251980e-02 1.736555817594779075e-03 -1.452010140556880269e-01 9.346891039317128946e-03 -4.844814324209829604e-01 -2.053578149066612873e-02 -1.062867787902145242e-02 -5.265337288178615349e-01 3.518124623747285670e-03 1.941333629964291929e-01 -2.041688303198612581e-02 -2.055896940713630022e-02 -6.139874901205371049e-01
-5.245272624687734309e-03 5.426555753379831010e-02 3.060115149018743236e-02 -6.272626023643756987e-03 1.227146885792887721e-01 -8.131932513647912100e-04 2.915095762758453390e-01 9.159719117804113880e-03 -7.385892800046318929e-04 -8.270994758057813312e-02 -1.139012820595533722e-02 -4.723578607373715155e-01 -1.822955701432025025e-02 5.368358456399781840e-03 -5.217571726087975037e-01 3.740021370017735693e-03 2.134245838612005841e-01 -3.351483113885511678e-02 -1.458307199934318760e-02 -6.130730219618251153e-01
-7.541866900304637633e-03 1.179825932609872563e-01 -1.102079773471956702e-02 1.147613478071265840e-02 8.796511459883485373e-02 -2.300686660781892448e-02 2.468194102135089774e-01 3.983708103425000896e-02 -1.804665431495706268e-02 -5.305686835809107077e-02 -6.887023058958111760e-03 -4.607478573466162741e-01 8.843659796585665728e-03 2.387717338287861230e-02 -5.346149207153186866e-01 9.265092689752797359e-03 2.194710405199166159e-01 -9.235086124856307574e-03 1.247134007896954014e-02 -6.310291309463060827e-01
9.841170534403906323e-03 1.384531024062501392e-01 -3.896059303683748615e-02 4.523872189974198661e-03 6.162103555491416085e-02 -8.058665570739212414e-03 2.969542430657168275e-01 -9.068322197127300782e-03 1.609526255300415369e-03 -1.075784820012898879e-01 -1.273401121044240997e-02 -5.018530817135570254e-01 3.596936222264440070e-02 1.423936372914616152e-02 -4.832100528396376382e-01 4.534477109538469740e-03 2.172280630822022163e-01 -3.405307251996367128e-03 4.858652361715391776e-03 -6.199816947793745925e-01
-2.266420379276280414e-04 1.007971993935864730e-01 3.515987995507672756e-03 -1.855135665190524655e-02 1.107554211833457203e-01 -9.167026881765792320e-03 3.205937769472931298e-01 -2.296315902336415471e-02 -1.184947885518921121e-02 -1.124071680241081200e-01 -1.102948723934351564e-03 -5.451751213082206560e-01 2.115823579022266254e-02 -1.154699527182630539e-02 -4.688092044197393893e-01 -8.851765081594430151e-05 2.026769123559971075e-01 -7.583093448503257922e-03 -2.574057506154306223e-03 -6.007364153616027158e-01
-4.599459337608201998e-03 1.197105685407640757e-01 -2.839742020573254866e-02 -6.249852553846911227e-03 8.298668535877164187e-02 -6.169922420143907939e-03 3.062345263282762464e-01 -5.717901434570687655e-03 -6.854925698424498351e-03 -9.161439371653851138e-02 1.602207633932780859e-03 -4.898364147184208761e-01 -2.749636980853203960e-03 2.283503659985260115e-02 -5.063320505729538290e-01 5.226954683041254435e-03 2.193073294089358249e-01 -2.801676793743618915e-04 -1.185860361151716558e-02 -6.117140401130953808e-01
-1.010356701791191233e-02 9.688155991916394538e-02 3.722829223637843035e-03 4.868972323837321816e-04 1.258305986732339843e-01 -9.064583034370372189e-03 2.601515151115370572e-01 2.573466789010566552e-02 -4.049250837509778961e-02 -6.316802175900992911e-02 1.353124110847654139e-02 -4.848015262347400434e-01 1.013278996548132478e-02 2.945501377139194549e-02 -5.158102400088371287e-01 1.829498134097821971e-03 1.266328393151071596e-01 3.635122106943029091e-02 -4.726334192219810992e-02 -5.415439206552528084e-01
-1.085715350537227661e-02 6.686542218573685026e-02 -5.651580454653157802e-03 -1.058874172576463116e-02 1.244680877773561012e-01 -1.286570249935965055e-02 2.639641301280435393e-01 1.788869723700080988e-02 -2.207596643273586345e-02 -5.801323675936070207e-02 -1.505996188823011464e-02 -5.214609401666460142e-01 1.929435777823777093e-02 2.057335711984700777e-02 -4.973659420473918180e-01 -1.775487149621177499e-02 1.816999036752933172e-01 3.399020647940271742e-03 -2.169920658819183418e-02 -5.842301755238121785e-01
1.481262412668139794e-03 8.289340422040526735e-02 -5.978795065368692520e-03 -7.243968912572091613e-03 1.072484673261409061e-01 4.154055743997806319e-03 2.416898125440543887e-01 3.874492720603738699e-02 -3.032124944730286986e-02 -3.676789185265698368e-02 6.757757078522367081e-03 -4.703161665957635296e-01 -1.065593296467731363e-02 2.045055770060731290e-02 -5.216643318622209424e-01 -3.930982574160676868e-03 1.859591931520548913e-01 -8.593112796934332734e-03 -3.481991019838498458e-02 -5.865960424911705884e-01
-2.446941221267305219e-02 8.449081188203291792e-02 7.370411610410668515e-03 3.079994800165802068e-03 1.265686670562173044e-01 -1.114899612060975265e-02 3.025783663490828057e-01 -9.869678757626898502e-03 1.175229725055348950e-02 -1.263438750873127070e-01 1.804696681152750688e-04 -4.609623642048512604e-01 -2.200898656358304950e-02 4.799467072088758543e-03 -5.426333853930777051e-01 5.063900181451658905e-03 1.852199635437898062e-01 3.543139813345798361e-02 1.712839645107690212e-03 -5.837251168767663145e-01
-1.198050116487369733e-02 7.322540675599166493e-02 1.110545768007456177e-02 -5.984711934762884482e-03 1.247093231725255602e-01 -4.031273974863520786e-04 2.637866746298572762e-01 5.253386537290717639e-03 -2.432866838303465035e-02 -8.572887204232439162e-02 1.672289792922105472e-02 -4.995173908682998820e-01 1.560544775974031552e-02 1.141133163203916778e-02 -4.804726545857195830e-01 7.361948439324681771e-03 2.407893216089476707e-01 -3.768361150269575188e-02 1.012080351082958116e-03 -6.532787504966454106e-01
1.434617891791631003e-02 7.811562258734186526e-02 3.276983268366685798e-02 -2.805417962181647878e-03 1.284005622050294060e-01 -1.928336654903410607e-02 3.134048314472473451e-01 2.149697071397971629e-03 -1.284740177439783887e-02 -1.129764572043476661e-01 1.019382594170926623e-02 -5.200360738170173303e-01 3.058638060317161317e-02 -2.053844939277446602e-03 -4.858358788077192236e-01 1.179094162932559260e-02 2.045387090255376683e-01 1.577056718374714173e-02 4.338297651135664124e-03 -6.024638805736718394e-01
-1.544309163738990034e-02 1.249846205938383026e-01 -1.620003756631731295e-02 1.476767799947628287e-02 8.436805089638274580e-02 -2.214232772132042771e-03 2.985808302822456350e-01 4.644106830760823257e-03 6.853836073101591056e-03 -1.024122419657637895e-01 -8.681681959710506932e-04 -4.987411986256746754e-01 1.554450355417647672e-02 8.636235326478544638e-03 -5.226500723019006367e-01 2.070945811888921101e-02 1.893296039027697886e-01 2.579107171550916802e-02 1.282349847030707021e-02 -5.985323417381558375e-01
-9.658541861393404176e-03 1.137495895038895949e-01 -4.683642725731166148e-03 1.869966689495471818e-02 8.453476961309684679e-02 4.995830131579535177e-05 3.051786527734897669e-01 -9.300464522326851516e-03 3.947485260482571853e-03 -1.283888737732040708e-01 -3.215210878180610726e-03 -5.109654595980092084e-01 2.037284876440920156e-02 8.406069634789088002e-03 -4.740883482082258182e-01 -1.587048829394193186e-02 1.810756582368492906e-01 7.518569086002253182e-03 -1.332311001852889455e-02 -5.732619947791892656e-01
-1.885984519217533129e-02 1.017924663336524094e-01 -9.940883653577797102e-03 -1.036245354685475309e-03 8.227563262053640136e-02 4.130341934467714193e-03 2.838846501071914941e-01 -3.212840010246566409e-03 -2.207643076344010039e-02 -8.939022994470954830e-02 1.137205063495552379e-02 -5.165512730774007855e-01 3.809822054552636228e-02 3.314922725211792189e-03 -4.718639075845935116e-01 6.386896954417652962e-03 1.947742491875139592e-01 1.231294033718044294e-02 -1.971413887695339963e-03 -5.836427800773810182e-01
-1.188785344891705315e-02 9.693701921758735018e-02 -5.163190966439813387e-04 -1.550480090588133956e-02 1.071509566428102411e-01 1.516904136459861765e-03 2.730838128763192763e-01 -2.727284019623951727e-03 -2.763542450850628440e-02 -7.375326564854703393e-02 -2.909237718680435757e-03 -4.888111310886716909e-01 -9.837786257439213450e-03 6.349521692751229976e-03 -5.203419073329046407e-01 -8.445087647292199434e-03 2.246490031575436586e-01 -2.574090945314747719e-02 1.005568554482392032e-02 -6.185068298112355034e-01
6.630694987115284822e-03 7.155147759220358006e-02 2.213135476182111552e-02 4.309420704952930670e-03 1.250733323433236288e-01 -1.019895594422841854e-02 3.190113467700727012e-01 -6.182876625032176533e-03 9.112430641215911453e-03 -1.247469492951010228e-01 1.582917727821991135e-03 -4.890229277014190856e-01 -2.100365912389591527e-02 1.323714070241782323e-02 -5.258684389625390976e-01 -3.129541102628624616e-02 1.499418459964435568e-01 2.990236884808211010e-02 -4.080696642221681714e-02 -5.385440290906612359e-01
-1.212020490200981654e-02 7.661708951007772939e-02 -6.523681992377792713e-03 6.847320323887031400e-03 9.815685037893411014e-02 -1.436780038366250196e-03 2.927281254647998154e-01 -9.470115266733379611e-04 -1.198942536298832837e-02 -8.047326780525890233e-02 -9.416851906078412340e-03 -4.564454933166035566e-01 -2.815017141256111188e-02 1.464713319308399812e-02 -5.240062900517452604e-01 1.790708133822831866e-02 2.059170088392856535e-01 -1.171073046566488418e-04 -5.826462605926053390e-03 -6.192816100792264411e-01
3.763745348270909272e-03 9.840612633380707575e-02 8.544828820113705217e-03 2.317373939132600508e-02 9.659111226952860063e-02 -1.859398874497366141e-02 2.713780706075780702e-01 4.306253871902938207e-03 -2.743606870372901352e-02 -8.435974751879915523e-02 5.170116512287286151e-03 -5.004911202078304866e-01 -2.530206666859577402e-02 -2.571396329377960768e-02 -5.021341709444276935e-01 1.019228359925335690e-02 1.780799823715516206e-01 1.654925664360868895e-02 1.518717929634780250e-02 -5.724900128582114389e-01
-1.343603414954359747e-02 1.095520565180910233e-01 -3.485350592701506271e-03 3.586778437034850685e-03 1.011387648809108503e-01 -3.932359758797700743e-03 2.922921687889525333e-01 -1.461287999930325522e-03 -3.664859109331630033e-03 -1.050629257885538903e-01 -1.513822492157969714e-03 -4.980081426510422071e-01 -5.711596116838899007e-03 -1.251869043768114032e-02 -5.055249689940871649e-01 -2.019744947367906746e-03 1.575432846112557184e-01 2.455964616957361651e-02 -7.650585302261843704e-03 -5.789578647230883002e-01
-1.356567833354130337e-02 9.981236100797659383e-02 -1.691761420187093065e-02 -6.088058220346255489e-03 8.635745160422025890e-02 -1.979774772475428185e-02 2.636450422257877180e-01 2.208930725475666268e-02 -1.653299226322818560e-02 -5.882505041846824989e-02 -9.193543942352947612e-03 -4.502081003822374083e-01 -7.734906741708610922e-03 3.124792854001523165e-02 -5.406979853582889461e-01 -2.848595179095345965e-03 2.131858849152513113e-01 -8.724233965179347544e-03 7.029513954035365719e-03 -6.163169552970512166e-01
-1.627402924602874834e-02 1.328349234227556019e-01 -3.250795808939353770e-02 -1.308994043194160878e-02 6.786634325154577985e-02 1.951545124235387618e-02 2.882885273405703108e-01 -1.326999342375841107e-02 -1.446827476079457636e-02 -1.066646353615742226e-01 -1.992822167063625950e-03 -5.333451661503997299e-01 4.627821243198600165e-02 5.137189794063298960e-03 -4.496157720938090407e-01 9.425721956283331787e-03 2.022953387622908050e-01 2.427493587530283291e-03 1.114579115311422133e-02 -6.140008715078744128e-01
2.949667579597210071e-03 1.057367585015051153e-01 -2.147205101510065665e-03 1.926531103522256816e-02 7.613075608297938113e-02 -3.988454990523448637e-03 2.597400222455853447e-01 -8.668031864558622263e-04 -2.800464409865950979e-02 -7.539289005802776722e-02 -1.839151784812082316e-02 -5.384182324299530142e-01 2.708502203290826665e-02 -1.689183440594544186e-02 -4.587671891424560111e-01 -1.264818241953944919e-02 2.038250397532112290e-01 9.381136550828006460e-03 -2.757571155301506358e-03 -5.924009255377159500e-01
-2.096267602731729726e-02 9.389326196727436347e-02 -1.926611443457044645e-02 -4.703662177208035519e-03 1.050034633719023336e-01 1.059413927866480545e-02 2.881982533996806928e-01 8.470068923199604305e-03 -2.031851628056645029e-02 -9.726996072258278780e-02 -2.625706653334543804e-03 -4.668384502802208624e-01 2.958563869542869817e-02 3.013942924593006334e-02 -5.122998560105609389e-01 -1.572300436203611859e-02 2.132494931644707825e-01 -1.304842441625019694e-02 -1.881238352299020866e-02 -6.029669893925362345e-01
1.439978584735980560e-02 7.778458581022837381e-02 3.301340741326247441e-02 1.323021609125241312e-02 1.232699060707211913e-01 -1.133126139867741446e-03 3.017693538170633794e-01 -1.008530224021127186e-02 -2.676600622120697305e-03 -8.622320944759681582e-02 6.095013769530791339e-03 -5.022384833968376316e-01 9.667160632235813345e-03 2.270909138089862583e-02 -4.959764472326125273e-01 6.891659220643177840e-03 1.960482511532241345e-01 1.390512960071487586e-04 1.226462253395787377e-02 -5.798078672896183061e-01
-2.322121335829550708e-03 4.940431017921186052e-02 3.291966447163502396e-02 -1.592011227563804032e-02 1.427503695788535920e-01 -6.061279398493255033e-03 2.875640305461162893e-01 -1.667996292397724845e-02 -3.264949228333142300e-02 -9.394630979921153591e-02 -2.073983306909399534e-03 -4.853133892543919359e-01 1.157975788514452146e-02 2.745388413963584934e-02 -5.017519112667557790e-01 1.547192739809778034e-02 2.173944577476620288e-01 -1.699399945361856207e-02 1.369811705629407281e-02 -6.295713377973795044e-01
-8.615409142443389637e-03 7.039754835910341790e-02 8.077097220640165956e-03 -1.268740988061895295e-02 1.165646131724917128e-01 -4.427022521879921298e-03 3.052426228145889153e-01 -2.301303517574766755e-02 -2.427635410823005338e-02 -1.087488518789106046e-01 -2.602298333324048335e-03 -4.996685149428527484e-01 5.313475302582370413e-03 -1.588414554602951556e-02 -4.902089955796711251e-01 -1.060317204137948763e-02 2.088372820005968411e-01 -1.482734538557600387e-02 -1.522416645165039842e-02 -6.116851458733866265e-01
5.789727449713878704e-03 1.533267077474442797e-01 -3.024814066931986664e-02 1.474295358091077222e-02 6.446132845680624390e-02 7.180707438725019570e-03 2.749661612664766608e-01 -1.007315167165799552e-02 -1.541851010933292104e-02 -8.831179945728942493e-02 -9.270333120233505836e-03 -5.571349036216635131e-01 6.898126489499034619e-02 1.108577026940142651e-02 -4.212760490432052585e-01 3.224960237243949986e-03 1.778784609116166315e-01 4.241139769766142861e-03 2.027637995226389683e-04 -5.998750796709350075e-01
-6.607799888976135030e-03 6.811722683354794194e-02 9.105934977324635707e-03 2.652744685349360879e-03 1.492450724184627153e-01 -6.813521948969846614e-03 3.383075676908363083e-01 -3.382595191676941726e-02 -2.744823714639502144e-02 -1.038369925404198368e-01 1.138980613912932149e-02 -5.026362338061497459e-01 3.864408346096064734e-03 -1.620058658067701635e-02 -5.026032952096994855e-01 1.970950203375284454e-03 2.058362871516781767e-01 -7.460033987591048465e-03 2.397967729096667569e-02 -6.190354381408189610e-01
1.030132282361540322e-02 1.004409667593170186e-01 3.309073843504286433e-03 1.277074187976892997e-02 9.198446472219877490e-02 1.237363300513460648e-02 3.263044775821253851e-01 1.615271400537099736e-03 3.148194465546919063e-02 -1.410985708164593788e-01 -3.701977381694668019e-04 -5.434123835163527927e-01 4.088591192061340196e-02 8.024320398248265679e-03 -4.544377067459585695e-01 3.794808645394996335e-03 1.651812553832390507e-01 3.867160192075370928e-02 5.385025012240291994e-03 -5.804861851100058256e-01
-1.306975476703106653e-02 1.169171336923207905e-01 -1.044104638559778878e-02 -8.545849915497455082e-03 1.062579501161923790e-01 -2.224001069023466819e-03 2.514128504732284775e-01 1.848558733042744706e-02 -1.204904288809636320e-02 -4.173134649622171899e-02 1.265237642279129493e-02 -4.695981296190899767e-01 4.057365645581451422e-03 3.624442121560213920e-02 -5.263819798717274123e-01 8.759129102878300543e-03 1.876683867065862543e-01 1.321790524323195395e-02 -1.257300467246627411e-02 -5.744172186900087240e-01
2.613254537453538889e-03 5.951258011894836747e-02 9.669239472529672988e-03 2.861659248153597835e-03 1.118606878176425790e-01 2.711026051119170156e-03 2.906946309179453403e-01 -1.275526723271878937e-02 -1.891840088308086032e-02 -1.046322665371973853e-01 1.194648088316707223e-03 -5.101468708043209732e-01 -5.066110562149095040e-03 8.890714081733945215e-03 -5.044492206308176518e-01 -3.951220772252886718e-03 2.111750006033260574e-01 -1.949865897824946265e-02 3.325106776810195577e-03 -6.283833877458340211e-01
-1.608609468189156622e-02 1.551314929869847259e-01 -3.728947842355463671e-02 1.973994297857607425e-02 3.184660582951220897e-02 5.084707958247728504e-03 3.469329827956456613e-01 -1.810421986204109948e-02 2.316433232879083759e-02 -1.408398944139960529e-01 -8.194865383442686418e-03 -4.917538324930859073e-01 -9.215679042964292772e-03 -3.798894079653111072e-03 -5.020365292641194577e-01 -6.308515395544733034e-03 1.673214435523668053e-01 4.179145399986480824e-02 1.499941430253556168e-02 -5.780890415773891622e-01
-1.036796678446096250e-02 1.333121608851198237e-01 -3.691065810216956344e-02 8.385463328715446474e-03 7.939326737772325893e-02 -5.756538308248839927e-03 3.265667857085322590e-01 -2.645918246297704335e-02 9.626988883402461811e-03 -1.207160369988232868e-01 2.592445565394000881e-02 -4.846354184648345997e-01 1.852251419365147367e-02 2.321596508883249851e-02 -5.074895062845052873e-01 1.396080389454150070e-02 2.257219862333187110e-01 -1.602732375372363516e-02 2.096151634492457103e-02 -6.414252888577434142e-01
1.501328969080104048e-04 1.169041187915370733e-01 -1.287892193138039272e-02 7.501979920703288549e-03 9.359831518264913330e-02 4.861074930999142313e-03 2.897884346691912971e-01 9.899719665583492367e-03 5.238558929584385959e-03 -8.301230251985335096e-02 -3.590981617561508042e-03 -4.966867411374846220e-01 -2.091591140252267722e-02 -1.014564908169508436e-02 -5.007838035052362136e-01 -1.251438321987980926e-02 1.076342960737101812e-01 6.184334964244193183e-02 -3.749254194043817601e-02 -5.131677536762103697e-01
-6.028000486861256543e-03 1.144551132728353210e-01 -1.486277520378589956e-02 1.144562195080804472e-02 9.093194622606687316e-02 1.902976944907206532e-03 3.223073552713544565e-01 -2.992747713319271127e-02 -1.076019152970935158e-02 -1.197767817150801190e-01 4.412485087234829448e-03 -5.367884412323430388e-01 1.257762391248608280e-02 -7.871581703052635964e-03 -4.695741198221441981e-01 8.632101519279161000e-03 2.261808576341347299e-01 -3.506389657396129927e-02 -6.932125349354817563e-03 -6.334243209196349644e-01
-3.298107720264984583e-03 1.118584417802763742e-01 -1.674771839366613266e-02 -3.975237422241238890e-03 8.841012719218530047e-02 -1.750597240951518377e-02 2.899501182629864449e-01 -2.395222496802498074e-02 -1.122483834547156889e-02 -1.032128572208277362e-01 -1.764330847504669893e-03 -4.728211192094440851e-01 9.078704296666394516e-03 1.863339431381206765e-02 -5.142304293222104139e-01 -2.433172198699896926e-02 1.739344925262608366e-01 1.205027421402630333e-02 -1.342128828560993151e-02 -5.710941225673168420e-01
-2.523033938424320416e-02 7.073650577067008838e-02 6.699385398291513027e-03 -2.325231686790841384e-02 1.392145536263545980e-01 6.504026856756490831e-03 2.703685475175711672e-01 1.826851886038510092e-02 -1.379216478210910229e-02 -7.246871447824172752e-02 8.718218157149881450e-03 -5.238679181904585258e-01 2.351650081954811955e-02 1.041508427805300924e-02 -4.779207804210567345e-01 1.080663681967488146e-02 1.469198394908880767e-01 3.832076443262252136e-02 -2.871893784032871974e-03 -5.458550948905527278e-01
6.471740290590092051e-03 1.061075917977189892e-01 -2.024086581818261218e-02 5.202769087748216129e-03 9.793697281086392870e-02 -3.281985729527878842e-02 3.015198688388520676e-01 1.521646828313869340e-02 -8.393342097912214611e-04 -1.019617195753119432e-01 -3.857012452473550755e-03 -4.711521041885665118e-01 -4.055939600911127874e-03 8.751655529048940618e-03 -5.233984031688696525e-01 3.515198197667487173e-02 2.222098690607468008e-01 -3.867599180122386834e-04 -2.089471302843155798e-03 -6.213716695716318128e-01
-3.100101054484163954e-02 1.245107425860619010e-01 -2.415205108212597346e-02 5.680480551269424978e-03 8.480211977562739090e-02 2.067560883434361660e-02 3.833241475093740469e-01 -7.693638667913953177e-02 2.899436424329986106e-02 -1.900237615486150555e-01 5.844042453950507206e-03 -4.419689175548215943e-01 1.734855156739371906e-03 3.436186824152998032e-02 -5.296498803837049740e-01 -1.611318684905290941e-02 1.843901587159457178e-01 2.890158961039282146e-02 -1.811407501291273370e-02 -5.944905377739513330e-01
-1.052054324973129319e-02 1.077875350975565083e-01 -1.616701265665296608e-02 -1.062970310515572517e-02 9.404506690869429697e-02 -5.274590434331812711e-03 2.702132690213430166e-01 1.234412400040038951e-02 -4.969596048634013219e-03 -1.026815493114272698e-01 1.020829721825758547e-02 -5.426622470362305606e-01 3.274084903442783107e-02 -1.491055629040836245e-02 -4.598131187360987582e-01 3.295106408698694582e-03 2.359668425461725894e-01 -1.503342684133415763e-02 2.201443970891855950e-02 -6.152442025019410066e-01
-7.698913236754813608e-03 1.400564302333615618e-01 -4.286836968222002692e-02 1.173217898324716317e-03 5.200904296095916479e-02 2.022907611577811487e-02 3.260912009146909041e-01 -2.641946239986968370e-02 -8.760092297017999310e-03 -1.278499600797969038e-01 6.413754443531246262e-03 -5.430609195205147177e-01 1.955257890544916805e-02 -2.336512135523573230e-02 -4.632389270087364785e-01 1.421324906557697339e-02 2.097636575039450169e-01 -6.128479404216373091e-03 3.245708370969014114e-03 -6.109016650204330823e-01
-1.124718624104552311e-02 1.295627593601485217e-01 -3.583644597096782847e-02 1.890647139189963535e-02 2.645518393701255799e-02 -4.049742312173052611e-02 2.442646228164257471e-01 -1.129487308914641462e-02 -5.432900265459116029e-02 -2.935608858961624712e-02 1.593702670820298928e-02 -3.729618595721639895e-01 -3.652341954994368922e-02 3.640426952889280754e-02 -6.038345016066049009e-01 5.033592311973483432e-03 2.119907377295421613e-01 9.107766316272903478e-03 2.522337947163949892e-02 -5.990439776119674820e-01
-3.342604047825388069e-03 1.063095429082431681e-01 -2.359183011665996754e-02 6.297130088972474962e-03 4.395979821628861334e-02 -1.936221887003235914e-02 2.926343010303545378e-01 -6.360260814968477644e-03 -1.210875737648930625e-02 -8.759062226721125999e-02 -3.851661378102257116e-03 -5.439232510744838045e-01 5.083578774052541216e-02 2.192252150285534888e-03 -4.524465770224981309e-01 2.452097634228994714e-03 2.281642477557996873e-01 -2.855024158955646318e-02 -3.068486171900665187e-03 -6.178715030086838755e-01
-8.524877158484645695e-03 8.394061446616588040e-02 -9.868406609697687876e-03 -5.184842495763722012e-03 9.960616306459582625e-02 2.049574023286487509e-03 2.848490211289743668e-01 9.935572435156775351e-03 -1.419137972871368711e-02 -5.889547252119774895e-02 -5.373421010558330005e-03 -4.968730405615197632e-01 1.195866868570984003e-02 5.121822164660359833e-03 -5.032193379162299696e-01 1.050938808710364866e-02 1.572911272946277972e-01 2.491270423768705139e-02 -5.889152391849888403e-03 -5.638817287369847220e-01
-1.518312430834415326e-02 9.717851966452004109e-02 -3.266559184609707511e-02 -8.234035823995301470e-03 1.113415352989703400e-01 9.721463897174118917e-04 3.185550129468620040e-01 -2.418416929220221570e-02 4.763849580402546025e-03 -1.265041730331174508e-01 -1.219729621864497696e-02 -5.169135396580321062e-01 1.401350924646812060e-02 5.080503700504244990e-03 -4.796563357857800969e-01 3.245848204506841979e-03 1.680731856972271232e-01 1.256945821734278476e-02 -1.168431121685681133e-02 -5.817524676264518302e-01
-1.210665348432570648e-02 1.160292346968402888e-01 -4.123009662922553185e-03 1.035077214985691101e-02 8.083198949012521117e-02 -1.550325941763650538e-02 3.055506923536971398e-01 -2.019376846429839223e-02 -2.021332540747132131e-02 -1.300658480249705096e-01 -4.681807134639243400e-04 -5.077245651757250622e-01 2.573471974530346790e-02 2.748647478155014784e-02 -4.910709598408185550e-01 6.501666668137773969e-03 1.627367857425079667e-01 2.433756048335155783e-02 -2.007458829682843421e-02 -5.686248527247693696e-01
-6.385975348356572219e-03 1.542968419609458963e-01 -3.072710988729954532e-02 2.797277479747716997e-02 4.294686244518280960e-02 6.303758289395699479e-04 3.181837159985318464e-01 -2.780877160145621071e-02 -6.790765002726354554e-03 -1.270601631006169074e-01 3.094720329400677331e-03 -5.076265389450842491e-01 3.615641912448357836e-02 2.214378776572535970e-02 -4.764849537415277170e-01 6.201760451270530231e-03 2.113950578064786034e-01 -2.204746609670541618e-02 -2.618597831566706405e-02 -6.036145315260934563e-01
6.466558983826954654e-03 9.361266988159219760e-02 -2.219372236865343323e-02 -1.701327521532048845e-02 8.811785007118284885e-02 4.105730542066032829e-03 3.245534344460976883e-01 -3.787877848988711188e-02 -1.051386425530709962e-02 -1.221914758659625733e-01 1.170856596062881672e-02 -4.919501248788072933e-01 5.014539506563287993e-03 1.197319782975630673e-02 -5.168873113514962370e-01 5.941110636588088113e-03 1.931680009381671614e-01 1.869545907627450515e-02 -3.827039620798077402e-03 -5.806389308592855292e-01
-7.416634457542370384e-03 9.298370672458039499e-02 -3.213539336865413668e-03 -5.564010929847777211e-03 1.189579301189979121e-01 -2.377356855408281969e-02 2.821027674583898026e-01 -3.269971312781927431e-02 -2.844287297982913895e-02 -7.374223093782768246e-02 -2.259307205149101508e-02 -4.903606220675043592e-01 2.983883399833348396e-03 -8.032319141561132178e-03 -5.272261688085753129e-01 -1.161831879794636251e-02 1.533206295641940387e-01 2.992794995669022934e-02 -1.143699092531632808e-02 -5.531127016799078921e-01
-7.159972955595948416e-03 9.940427874451845947e-02 -2.153495704831122348e-02 -5.014174763665421412e-03 8.149621173211357705e-02 -1.593785905200326147e-02 2.837037620349183165e-01 1.675688378827448755e-02 -1.417354347786319024e-02 -9.294906631180346879e-02 -1.832021773364620257e-02 -5.263343745579530664e-01 4.389298269924958584e-02 -1.977145678116855321e-02 -4.646503539533335392e-01 3.593073918579286000e-03 1.834430562853128499e-01 -1.988449233844107739e-02 -4.800479646633687425e-03 -5.763215880449090722e-01
-6.088096797676554456e-03 8.929905109387507867e-02 1.476807957596973191e-03 7.128786806598928945e-03 1.232602838223547936e-01 -5.288681804651586618e-03 3.211052963289152684e-01 -8.425767007003938033e-03 2.081846800509889669e-02 -1.253587169662750411e-01 -5.467366997224900292e-03 -5.171558192170706558e-01 5.522459876302107662e-02 2.074272398313992821e-02 -4.646408729862582798e-01 -2.397368459539469046e-02 1.686716306864900761e-01 1.695292559908800206e-02 -2.413571942157574646e-02 -5.522855911991297884e-01
-4.716712898396221640e-03 1.308872994869632045e-01 -3.897178447201735119e-02 5.303012557555619039e-03 6.398420586983469271e-02 -9.323434300442339645e-03 2.747760698090578324e-01 6.457434822778645306e-03 -1.483916505897810156e-02 -7.275073469354870204e-02 1.235486671589399246e-02 -5.100679851297782452e-01 2.760725685083523923e-02 -3.672474400480154472e-03 -4.773263963987317560e-01 -1.304719742005005720e-02 1.417277741079351616e-01 1.520270336524256680e-02 -3.095966789691325174e-02 -5.528154874330950541e-01
-1.826043366530916146e-02 1.427400412745861991e-01 -3.462949632059169475e-02 1.264745584018501894e-02 4.067391656036720149e-02 1.108054223196307253e-02 3.348156765896138642e-01 -2.887350351821500738e-02 1.299703778494696454e-02 -1.371943390108327776e-01 -3.955675054911360691e-03 -4.616566079830495273e-01 -2.958011574127487192e-02 1.265504275139549446e-02 -5.470474653772333662e-01 3.775612992568508526e-03 2.113950860227507000e-01 -3.043017805181465196e-03 3.608501385042310605e-02 -6.065094728884651287e-01
-1.623708878989257864e-02 1.035322699083767312e-01 -2.577998194695508422e-02 -1.364576684278059546e-02 9.607551894391136438e-02 -9.851390199778041132e-03 2.600653799980628400e-01 -6.427778487060832949e-03 -2.961325832786808332e-02 -6.209231704282987957e-02 6.373288001820810386e-03 -5.432175729771416828e-01 3.581807892417356032e-02 -1.471628391798597904e-02 -4.673609518310802291e-01 -1.719392709176367426e-02 1.641544326032235990e-01 3.753074080530374029e-02 -2.354734342024666915e-02 -5.616315238244523611e-01
5.539343566597999813e-03 1.048508202393338418e-01 5.569206964900763612e-04 1.950815945775775245e-03 6.796952644042204839e-02 -1.438686318073903805e-02 2.838187430094074037e-01 -1.891388197423259088e-02 -1.724382609596735241e-02 -8.122632806715517073e-02 -6.354610368538180995e-03 -5.349800446599813908e-01 9.192878696574958985e-03 -7.978975603424455498e-03 -4.512429558933164220e-01 1.582253881691252778e-02 2.133990572633673310e-01 -3.676610571813632156e-02 -1.342828973878156321e-02 -6.129593753693021174e-01
-7.348913149077968172e-03 1.426612014354196600e-01 -4.459923861910376069e-02 -5.618541241697353437e-03 4.990553131352346711e-02 -1.506999265844920916e-04 2.619516570901305186e-01 1.155100085119725381e-02 -2.275538472139436441e-02 -4.882053572139330444e-02 2.547004743526006670e-03 -5.184888575439986491e-01 1.578750625208695871e-03 -2.657361974623993067e-03 -4.904504587994909515e-01 1.454460021234487040e-02 1.862918629476796317e-01 -2.024081929159933513e-02 -1.029571355732096863e-02 -6.295244544002195353e-01
-2.192438887801837627e-02 8.361928111920045870e-02 -6.028866895875056343e-03 -4.421626062653615484e-03 9.971894099582616355e-02 8.919868179920317428e-03 2.639296860274986667e-01 2.027378981101319450e-02 -2.508861354402903629e-02 -4.595751904741358917e-02 -3.652923124718157003e-04 -4.923558554465655712e-01 8.415325805747478696e-03 4.956979779331846699e-03 -4.951627332916616608e-01 1.271849470377157260e-02 1.908563527778335545e-01 1.325160335899148653e-02 -8.754487810531012132e-03 -5.955549888392361879e-01
