1.787279713542187509e-01 0.000000000000000000e+00 -1.008354308234098162e-01 -4.632721838190031333e-02 -1.724127127007367144e-01 -2.614853018136920060e-01 0.000000000000000000e+00 -7.900318398883640625e-02 -2.507372574305141155e-01 1.541230509433000329e-03 3.031159126175833607e-01 0.000000000000000000e+00 1.456447766797990540e-01 4.522433690140256757e-01 -5.755769183307068992e-01 -2.512136269243746001e-01 0.000000000000000000e+00 -1.866993165185280856e-02 -2.039509731805444481e-01 -3.962638072981030657e-01
-4.185279473731930988e-01 -2.094101682483784088e-01 -5.111560973678576369e-02 -3.241324030206897411e-01 3.971650906715550877e-01 2.036234834074243660e-02 8.322463280458434198e-01 2.673314940101633175e-01 4.073251944637529820e-01 1.494863730576820871e-01 1.958961900089105090e-01 3.022796768344954144e-01 3.113191152594950717e-01 5.974898934553183327e-01 -2.635047665692954455e-01 2.087836136530832887e-01 5.822684256621003529e-01 5.481721914832178577e-02 3.302419725885271662e-01 -6.671980327542235134e-01
-3.212127903754661284e-01 -1.025285026956250345e+00 -4.957545475518701505e-01 -8.699583522649744216e-01 -1.663291964555883018e-01 -2.199165876156723431e-01 3.122679503538306478e-01 7.767763495457587208e-02 -9.658579468317579630e-02 1.810913177146279973e-01 -5.169888747164367304e-01 -2.843529954360576317e-01 2.467888603641237022e-01 -4.201170263621378798e-03 2.179087447644547648e-01 1.686741737399743424e-01 9.379373315227532704e-01 3.031117241794730743e-01 5.471178248888204365e-01 -3.816769530674726241e-01
-3.468897336128530240e-01 -5.045895708782054401e-01 -1.992429845066526761e-01 -5.599523211200877482e-01 2.098411733322018413e-01 2.193139254408319472e-01 9.238299408738557261e-01 2.309140237761657388e-01 5.055819561593422051e-01 -5.831983479963966099e-02 -1.879508754015489225e-01 -6.861075167082139048e-01 -2.102340372016761605e-02 -2.375560086239069668e-01 -3.143770888382727557e-01 1.588359478663768365e-01 -4.346896750869744253e-04 -1.655194208442891668e-01 -1.056802421744508641e-01 -8.959321296287154901e-01
-2.537490655842425391e-01 -4.683135613459273872e-01 -2.252988172781567322e-01 -4.567879496539228867e-01 7.253792827908006613e-02 2.229802215503995655e-01 6.640630058167726890e-01 1.730764584790395744e-01 3.162322004858245106e-01 -1.460329694985834093e-01 -2.184517588843237490e-01 2.455932288583355938e-01 4.127978523871993488e-01 4.686433565127262613e-01 1.776879002968105026e-01 -4.210650056557083132e-01 8.735538804206348651e-01 4.775126534404301459e-01 3.694700492497619004e-01 2.517786206053007070e-01
-3.268641175902219365e-01 -4.265207623507554224e-01 -1.627282417881989740e-01 -4.667741152450146647e-01 1.961545556347050190e-01 -1.399529000780025123e-01 9.277800984636694892e-01 4.199043270139248274e-01 3.512319055146086444e-01 4.037058044276280455e-01 2.143551891690414768e-01 -3.113846473527593361e-01 5.962226449621096935e-02 2.140670972984882736e-01 -6.213089532351644406e-01 9.581030575509774661e-02 6.308014124263391365e-01 1.925394010171882497e-01 3.443719586528467547e-01 -4.727142553451711415e-01
2.963746631912705376e-01 1.675407634351701314e-01 -5.127969922589015878e-02 9.995970290585722007e-02 -1.546735877494458677e-01 -4.594527197559554743e-01 9.431590077081170032e-02 2.516398168993845552e-02 -2.768950656212335604e-01 3.669650933049850572e-01 -4.901147776877637918e-01 -7.885056269699584064e-01 2.960564321831055112e-02 -3.451712716866979225e-01 -1.185962971759517287e-01 -6.780357238647285456e-01 -6.597471345217198468e-01 -1.798640526999712996e-01 -7.882597110033517929e-01 -2.837904146069398226e-01
6.249209019501608120e-01 -2.955950608298593685e-02 -2.691716536138115679e-01 1.462604725436119912e-01 -7.357614543910692140e-01 -4.993258745133066778e-03 4.175640291140108595e-01 7.308837128206908951e-02 6.158961271621773981e-02 -3.520585740966697408e-03 1.738400595620061828e-01 -6.093393865040772628e-01 -7.180501644648060178e-02 -5.835951355038074273e-02 -7.435397728029896625e-01 -1.214976990591647987e-01 -2.664471072044585220e-01 -2.509132077546287753e-01 -3.318236350366385867e-01 -7.256846687439156840e-01
-5.240572372134320034e-01 1.645708625034279504e-01 1.973434955603775021e-01 -1.256168643203645630e-01 7.227040718636964511e-01 1.963002458200506228e-01 2.912623981069315526e-01 -8.683272609580817980e-02 1.078362764941930702e-01 -3.005451165535725222e-01 -6.810737662871853004e-01 -5.269755806356937744e-02 4.137836493703746510e-01 1.126215266478216293e-01 5.489342593152966021e-01 -9.436591924458581637e-01 1.455987462420987866e-01 2.401733606135525445e-01 -3.116437299023893104e-01 4.753139786453109972e-01
-2.066172020444666246e-02 2.155926757465380927e-01 7.593467150718048730e-03 4.048823085638737079e-02 1.437171224759958010e-01 2.325645157863865387e-01 -2.730245493366647014e-01 -2.644531487215945331e-01 -3.403030760992333259e-01 -6.013066899177408331e-01 -3.210274340944675453e-01 -5.260986737134878410e-01 1.149552751352215796e-01 -6.427562061075781097e-02 -1.649568178100023208e-01 3.802364613124882831e-01 5.431685911638844955e-01 9.309656117343953485e-02 3.666254372169948650e-01 -8.671032300488437095e-01
1.494182989595091160e-01 -1.088196334316537672e-01 -2.024476853946588217e-01 -8.362829623203967000e-02 -1.595767596997874904e-01 -7.615077457182754805e-02 3.299051730054752274e-01 3.175407905317363666e-02 1.044988770388487198e-02 7.565224758892846735e-03 -4.402745726980336061e-01 1.500570864003773486e-01 4.731026655478380860e-01 3.237291074421422277e-01 3.871753768142918717e-01 1.008909022496318197e-02 -6.084102076943237458e-03 -9.129096910835653167e-02 -1.688968098747182234e-01 -7.046053351878314164e-01
3.036982260714993914e-02 5.003859409069871811e-02 -3.804054407977037339e-02 -2.684083068648322051e-02 1.182318274829029583e-02 -1.922094834318127665e-01 -5.829496860852056983e-02 -1.067801405109026214e-01 -2.935706438313380184e-01 -5.908765219884133668e-02 -5.075004267670329972e-01 -3.248889967436823789e-01 2.328907496279400691e-01 4.451032049542838487e-02 1.686380892703150947e-01 -4.258956364050846544e-01 2.122316920639900351e-01 1.394995016964974410e-01 -1.320646564733179984e-01 -2.644823310730204380e-02
3.941184674072840122e-01 7.902301463366628864e-02 -1.750724662238773988e-01 9.157834967563831252e-02 -3.795691599937216498e-01 -4.437964542924475175e-01 -1.865908296292537738e-01 -1.074956324309657429e-01 -4.490534324931226839e-01 1.528347077013945954e-01 -2.026732312485252652e-01 -1.652259949613605339e-01 2.145145528300524684e-01 1.443846572268108752e-01 -1.071732881007405602e-01 -8.522868069909345090e-02 2.707226017058645406e-01 1.083284508827474790e-01 2.785684929312350067e-02 -4.088103828307007026e-01
9.841423156177836473e-02 -1.713745028235716950e-01 -1.704017113865133881e-01 -1.991163685392454141e-01 -1.096487446087784506e-01 -2.954586629297303313e-01 -5.528613212276545230e-02 -7.431005964039755218e-03 -3.859602139182014557e-01 1.723939330496330746e-01 -6.014488142189297060e-01 -4.049513339239670939e-01 2.116807796102164185e-01 -1.546407301943680535e-01 2.546080403320686303e-01 1.060354710920332622e-01 6.685620943920501658e-01 2.028884306857508812e-01 4.013295778020656290e-01 -5.011476196804359740e-01
-1.006232301874845358e-01 9.483786522904397165e-02 4.399236864689380633e-02 -4.822406998529314009e-02 2.126204985779569512e-01 -1.847457683045151677e-01 -7.482039632690137276e-01 -3.759639621361114958e-01 -7.469768397732201581e-01 -4.548675509013556661e-01 -4.227963801019287149e-01 -4.781323442002939350e-01 1.634793902562873269e-01 -7.009122192003436336e-02 -4.156515622669232357e-02 -3.479006388891817125e-01 -1.555669634038534255e-01 -1.293736945948583128e-01 -3.091789709630454186e-01 -3.880272369908617791e-01
-3.436520954923019122e-01 4.420094804866102622e-01 3.564285251073342486e-01 2.335068852168613596e-01 6.445649944244772334e-01 1.532376961752476008e-01 -1.677094090174293672e-01 -1.331030036182837828e-01 -2.342837565780249431e-01 -4.504727336014328065e-01 -1.824742925787412318e-01 -3.770050236578603720e-01 1.802387351831102880e-01 4.072393367361665240e-02 -2.650771929050684816e-01 1.555728725390791434e-01 6.013417387221827726e-01 1.692509609757066880e-01 3.282107385397867727e-01 -5.341405383749486813e-01
-3.580528943652107055e-01 -2.664008982388980235e-02 1.317307961461278709e-01 -3.197323248687162778e-01 4.855661597878495050e-01 4.480253237294887225e-02 2.597847451010259490e-01 -6.086409762001390722e-02 -2.839191840073200523e-02 -5.860740101906811161e-02 -3.563537662215963686e-01 -6.786186872408852544e-01 9.868707666737236428e-02 -1.993366923599912688e-01 -2.066435956329283896e-01 -9.468509305197131409e-02 -2.724678723525258972e-02 -2.264470744727570817e-01 -1.611936867039515664e-01 -7.340901185700872134e-01
1.563082547275271850e-01 2.790341115177209785e-02 -2.327583671249166750e-02 -1.516678007001446421e-02 -1.249061035721866220e-01 1.507858055607716741e-01 9.205096771534387878e-03 -2.256731719806911451e-01 -2.230928782573672331e-01 -4.168341368607715314e-01 -5.910509646348038881e-02 -2.158077792187260147e-02 3.304610498843669752e-01 3.914506740024191744e-01 -7.188141536570322176e-02 -1.835578440017814339e-01 -2.778138279100542118e-02 1.186662626179590951e-02 -2.757984233039760813e-01 -3.955016184617803354e-01
-1.782687695731438038e-01 -3.237394298433388107e-02 -1.378087923036576401e-02 -1.192670305459682667e-01 3.117723614628952200e-01 2.082855280233608108e-01 3.202763265119112912e-01 -1.688394846373761360e-01 -2.315278090139645528e-02 -2.969765810059195044e-01 -6.815703835508482578e-02 -2.175350906942126739e-01 1.883229773281580033e-01 1.283592454915310210e-01 -3.033499588106896572e-01 -4.774501566325501933e-01 -3.610335110442465800e-01 -2.985246072595276745e-02 -5.092140736242253274e-01 -2.833514779547694484e-01
2.438800887830498004e-03 -4.103469118011560113e-02 -1.258123476267991592e-02 -1.654845648318401530e-01 -4.313931123912432414e-02 -5.255056966333139234e-01 -3.281871840527030848e-01 -8.262483347728374894e-02 -5.295816683650507173e-01 1.450400137486376750e-01 -6.991930802918461252e-03 -1.497645987856989214e-01 1.532396036560990937e-01 2.095069274780864133e-01 -2.984483634907824090e-01 -2.470295003800389300e-01 6.571182132561310674e-01 3.421093521266224124e-01 2.264958716895631996e-01 -1.200674359200395447e-01
6.308905567489341282e-01 5.769876905538747769e-01 2.427283369555312265e-02 4.466551848809349745e-01 -3.802993922264633619e-01 -1.134491318357675194e-01 4.282509583515644591e-01 7.053086949165869590e-02 1.625841778821160988e-01 7.116964856949606344e-02 -2.045992591194872867e-02 -1.157667506893003823e-01 1.708540216815661594e-01 2.667759961276116587e-01 -2.164239815685249924e-01 -3.568657676849612548e-02 -9.058216885813863417e-02 -5.318793871431752585e-02 -2.876485494457444725e-01 -6.169190511181820158e-01
-4.578395520083484160e-01 -2.122576567368814893e-01 1.068850110214671079e-02 -3.873192930184380933e-01 5.183141862882643114e-01 9.217642921680913037e-02 5.942277726417390937e-01 1.185427640429233820e-01 2.138048933676063301e-01 2.746528706009961074e-02 3.766089628602696249e-01 3.427114713247846334e-01 2.348872491792360351e-01 6.986114180242580796e-01 -4.374934531380728076e-01 -3.679209266713892590e-01 -2.219004280740134727e-01 -6.045344725793347362e-02 -3.696723864361339817e-01 -4.206391026886400764e-01
-4.351652725591959037e-01 7.565075509818439681e-01 4.686326536914242058e-01 3.174780864662916091e-01 9.807024492355750356e-01 -9.345208777272939749e-01 -3.209823676706755613e-01 -1.749592246181326527e-03 -7.150813588314781644e-01 6.594657302134993015e-01 1.175718056335164630e-01 5.462692012141057152e-02 1.943406421245588434e-01 3.775929049916373903e-01 -4.414834372696689879e-01 1.003782448038971209e-01 -3.877675046125184100e-03 -1.242128388280073353e-01 -1.207411266138685157e-01 -8.486056965983971301e-01
2.989242299416569604e-01 3.280963550551670438e-01 2.744454850709567711e-02 3.158567940265300522e-01 -9.691968643630383129e-02 -1.215981058074604215e+00 8.466205463344064763e-02 2.903064301870514896e-01 -4.916700692988262844e-01 1.203809059172419760e+00 3.851515919546504851e-01 -1.734295309950417696e-01 1.048146902226383681e-01 3.372123823188392100e-01 -7.974858303993204167e-01 -5.235927762333622004e-01 1.130324925678866554e+00 5.791164131574796370e-01 5.328197628958057930e-01 4.131640704368854111e-01
5.667181321540414041e-02 -1.139203694376073717e+00 -6.523381181220576641e-01 -9.125162171218756946e-01 -6.435768706956364049e-01 -9.599152391198745304e-01 4.483051221836073519e-01 3.331588626525587848e-01 -1.239583885737224334e-01 1.007218522959276719e+00 -3.648625168240160477e-03 -1.577109853521164728e-01 1.720667094590061508e-01 1.464715820217992182e-01 -2.873706090850335348e-01 -4.112777782084760525e-01 -6.740787277493354157e-01 -3.080963717201219421e-01 -7.571672972430895099e-01 -6.132917957586858648e-01
5.441387031274192571e-02 1.830154871104346936e-01 7.716026880503260021e-02 2.934444701570170649e-02 1.089032445847634700e-01 6.941347897832467195e-02 9.199988151466587105e-01 3.003832853654601065e-01 4.495913930198593977e-01 1.109942941986961501e-01 6.863148128405921478e-01 -2.720970326762153224e-01 -6.541326355584686780e-02 3.097652894198543172e-01 -1.081403290962167807e+00 6.214207245264153912e-01 7.202397573845327194e-01 1.379252089561151529e-01 5.594616134198878710e-01 -1.017258984856637127e+00
3.841407266134256315e-01 6.229909286420206582e-01 1.491676493707535245e-01 5.502983749782623946e-01 -6.492382720764956761e-02 -2.958652362633280020e-01 -1.076073140281247786e+00 -5.729260849513948539e-01 -1.075687231466552873e+00 -5.271493449980193535e-01 4.609396750733339987e-01 2.729218284920500448e-01 3.240367932406131857e-01 6.110351260238416904e-01 -5.553438996640090997e-01 -5.966094705110766006e-01 -1.759334427392372779e-01 -8.363357432551918325e-02 -4.976999702695691363e-01 -1.793985734866065107e-01
-4.798798671308075470e-01 1.990843107340642404e-01 8.761565593746011016e-02 7.530003449705546803e-02 6.037313570628194404e-01 1.072033062673890980e+00 1.179455867411537184e+00 2.057456094764697763e-01 9.308652086308188967e-01 -9.631899433689631307e-01 -2.016867490347741265e-01 1.328072375296794339e-01 2.657507430249395064e-01 4.365203700348133653e-01 2.040351360538894543e-02 -3.119727695776782772e-01 -1.088660640292158810e+00 -5.580700529572669710e-01 -9.798925639849196401e-01 -9.450131807657394800e-01
-1.311013289459540820e-01 -5.509851167202598488e-01 -2.939668860354235913e-01 -5.394567002178607407e-01 -1.314202137434833662e-01 2.390435417470025692e-02 6.408710561931308947e-01 1.449255294251284576e-01 2.932192657208243514e-01 1.322812767264055500e-01 8.961510236975520072e-02 9.793785043210939678e-01 6.586949729018489741e-01 1.014482697795252353e+00 1.344880279998683648e-01 1.366983699508224070e-01 6.660974129877830219e-01 2.726506358848493350e-01 2.527498138006566974e-01 -3.240422682769165674e-01
4.334690728510778857e-01 4.252518642055644338e-02 -1.795990412367492739e-01 9.742925959631287824e-02 -4.557880011144525012e-01 2.193514608545572009e-01 2.470094420188541084e-01 -7.143664330461477197e-02 7.980501286513079495e-02 -3.868649421987631620e-01 -7.373967262838113657e-01 -1.162079722350177091e+00 -4.943126953982665550e-02 -7.399284768167797566e-01 5.359256486482125159e-02 -6.587042765282671297e-01 -1.400081530752328440e-02 1.102458505654229370e-01 -3.667244976574715043e-01 9.626102285007981374e-02
1.440542116118935234e-01 -1.839054419470332324e-01 -1.823411307847082052e-01 -2.064430456509153133e-01 -1.944920469783466555e-01 5.413083476267239735e-01 -2.345817878142478774e-01 -3.522199349874501340e-01 -2.397756145717574450e-01 -9.797658325963316539e-01 1.734144973439336046e-01 1.383066555287102428e-01 2.701799829925905505e-01 5.161575166730316688e-01 -4.011687507569892119e-01 -6.472799043450540024e-01 1.635870604228773784e-01 2.320367904328415332e-01 -2.594678148815745544e-01 2.114354094929338790e-01
6.122784802194390918e-01 -2.600927320942696963e-01 -3.267371401893352512e-01 -4.443283082095209058e-02 -8.356228447496204526e-01 -5.596249693193255936e-01 2.971992773131126864e-01 1.902046321623687974e-01 -1.364577285815361807e-01 5.324344192746260918e-01 -3.635831409606447018e-01 -3.304220126912970068e-01 1.914234242032729072e-01 -7.200094663229225644e-02 8.437066958902414426e-02 -3.714949927137929375e-01 -2.919999147466934009e-03 -1.307349561021244055e-02 -2.325872697150598856e-01 -2.405017323125646922e-01
-2.181739971704594327e-01 4.921522080091050300e-01 2.541441022474829614e-01 1.824003636680232576e-01 5.033067113205802467e-01 8.885094043966308419e-01 1.929109951598426131e-01 -3.466868030044713000e-01 1.228990281226688686e-01 -1.198065796790609427e+00 -2.549666290356248921e-01 -4.016275554041260354e-01 1.231260701542664232e-01 -4.923658716898240972e-02 -1.360988462652994169e-01 1.374983036652238644e-02 5.142970604268131130e-01 1.845804303620962039e-01 1.053648967657442592e-01 -3.680430122581196395e-01
-2.013523580835659688e-01 2.108069813131683568e-01 1.073442021992536688e-01 7.281419090304316888e-03 3.410573614700000977e-01 6.701872821348973108e-01 -3.035043794703592979e-02 -4.389697625707796869e-01 -1.275580266906167493e-01 -9.968272330169648532e-01 -3.407015706595269977e-01 7.368584427573573459e-01 7.693195308228721885e-01 7.947506075511112655e-01 5.556919776396350708e-01 -1.518399310947766701e-01 -2.711980998003399868e-01 -1.421368447010453451e-01 -3.564563522946547214e-01 -7.144210697557380474e-01
-1.251869462357773355e-01 -4.664508936491915669e-01 -2.438427138238867253e-01 -5.078988005277147444e-01 -5.664222122443452606e-02 -4.916927788241891029e-01 -1.653093432383738182e-01 -9.768611232537549594e-02 -4.788780611096776774e-01 2.693691321500427671e-01 -6.809382569819701914e-01 -8.850553654726092678e-02 4.189073327857139040e-01 5.700564739200261744e-02 5.020607501790033123e-01 -5.603238086841861865e-01 8.489881591999269561e-02 9.329202752099301221e-02 -2.473186542014984279e-01 1.298124421337809586e-04
4.536560304968956236e-01 7.872196912120543733e-01 2.244450858928305204e-01 5.492958411160110410e-01 -3.932406656882981438e-03 3.812575625644089583e-01 1.740688283776335443e-01 -1.593814632214096416e-01 -4.675856784951637479e-03 -6.058046526795209941e-01 -1.672393177968732325e-01 -9.884821365787288538e-01 -2.043666331683429427e-01 -3.836887468040096616e-01 -5.559084292919461712e-01 -1.137381261716718939e-02 6.561024957934383783e-01 2.982220678695201577e-01 3.138688824656360454e-01 -2.896194721323512300e-01
-1.125290581126598133e-01 -5.647986893433195599e-01 -3.436229333078698600e-01 -4.856345016078021937e-01 -1.874978003972257445e-01 -2.061196148212764145e-01 5.733328862621254185e-01 2.035723895646951720e-01 1.778718610859891802e-01 2.913234392531961481e-01 2.056697169003137704e-01 5.346538678613482753e-02 2.955419650067108162e-01 4.522431997422228234e-01 -3.630994837860878066e-01 -4.157712606975139114e-01 1.617834125640415621e+00 8.099770614989658668e-01 8.648634287784466856e-01 6.689334049776930469e-01
-5.090305451312897994e-02 -1.275827745558316018e+00 -6.508196578133733645e-01 -9.468709883950189310e-01 -5.988217477581397885e-01 -5.401848055668606596e-01 2.029905657827010823e-01 1.612626128041257934e-01 -2.532405223320619014e-01 5.194152602887066594e-01 1.217186027315714458e+00 -4.431850767471520736e-02 -1.441823213896663569e-01 6.794687283697822267e-01 -1.700120838479543872e+00 -6.092810118868376978e-01 3.243432104279063699e-01 2.657996949856750168e-01 -1.002281214964685363e-01 1.920006518753802904e-01
5.307796979217622724e-01 -6.644972956728281144e-01 -5.524538681875478252e-01 -3.922987883372974216e-01 -9.726034663349274467e-01 1.041224923943081943e-01 1.000726737523193854e+00 2.858930964586530177e-01 5.472948082593374064e-01 1.230588472488633178e-01 2.359471157399130326e-01 -8.335363725138739133e-03 1.631012520562276080e-01 4.080822144113008809e-01 -5.082108602806671982e-01 -1.452022073337817076e+00 -5.058608814354592642e-01 1.198237870428549845e-01 -8.653211998609766642e-01 6.785810809471719551e-01
2.623691463501187093e-01 2.729145700155669041e-01 -2.720082827182772334e-02 1.419975238017512909e-01 -9.253113595850512296e-02 7.303272476479359954e-01 1.157722839153290800e-01 -3.381144268479169268e-01 1.027113090099648907e-01 -1.077620975121075242e+00 -7.653775170390472171e-01 -1.083389045445003473e+00 -4.098222419990835141e-02 -6.424041370045784349e-01 1.004410364763110297e-01 -1.531269439276483901e-01 2.920694697098620840e-01 1.068603749757827681e-01 1.308366611525921264e-02 -3.779298034263121053e-01
-4.144171407941870111e-01 -7.479922515062013000e-01 -3.188978355684444765e-01 -7.345668109049302563e-01 1.321015678947740635e-01 -1.137193637362897136e-01 1.606436073791621899e+00 7.095843470487019911e-01 9.172854511977114322e-01 7.436708072509474743e-01 -2.504118018453130867e-01 -6.495328008445783174e-01 5.291734080365623205e-03 -1.776685139823703241e-01 -3.038310380431129554e-01 -5.950674443424220916e-01 -6.281576811016692519e-02 6.545355193299604024e-02 -3.658585348858736097e-01 -5.542475425767975916e-02
-6.027198060899082721e-01 3.705541214910273995e-02 1.282157502120649384e-01 -2.295200148252863892e-01 7.104741759532124945e-01 4.023740811529674666e-01 4.583104277267239235e-01 -4.312175374354999813e-02 2.476952444296624811e-01 -4.441385835821234918e-01 5.592558476326722205e-01 1.914731785148924836e-01 1.570999639775265133e-01 6.310647319053690474e-01 -7.883432503162066673e-01 2.664955862469186032e-01 3.799542036827863178e-01 2.285932782745431907e-02 1.913274402992568568e-01 -7.792676359238859263e-01
-5.512403591903707323e-01 -3.320235888269576496e-01 -1.095817268654156601e-01 -4.422071439894338374e-01 4.382284436458710464e-01 -6.809039989326898246e-02 6.151472329141394191e-01 1.346088816295984703e-01 2.546283207764269418e-01 9.278549117249838829e-02 -2.066077235246099597e-01 5.077833530216405156e-02 3.517459977916906344e-01 3.250455282779560751e-01 6.107101834498218640e-02 -3.106647898675446440e-02 7.374018964611914750e-01 2.871853187088102555e-01 3.486636906010815440e-01 -2.511625358772879291e-01
-8.719616698851351266e-01 -3.598424855247399079e-01 2.252008201056972247e-02 -6.075235627660023896e-01 8.324718706386652345e-01 -7.269393996312745188e-01 -3.304332407205267108e-01 -8.451543371785597003e-02 -6.082159170314294094e-01 4.108826965916417828e-01 3.124919338088606446e-01 -1.136346808989625312e-01 1.276474510880677149e-01 3.736330441430559257e-01 -6.980996060675717096e-01 -1.838408690996495565e-01 8.676299359323592642e-01 4.568211984016464222e-01 3.985454407065040505e-01 2.946267235735933188e-03
-8.004939207814217861e-01 1.718082245127085239e-01 3.118818518652211047e-01 -2.019050141915695595e-01 1.043766443367349694e+00 -6.289886935215494024e-01 2.857409793936811493e-01 2.239248658820062188e-01 -2.298190946406867829e-01 6.470672532270700383e-01 -1.184124850705737364e+00 -2.714375363556802978e-01 5.699124544541996906e-01 -2.366798921003105682e-01 1.117657857425500056e+00 -7.995261582543083945e-01 -7.498192157481943232e-01 -1.790706542336157059e-01 -8.754366753331398465e-01 -1.967072964340574326e-01
1.158239843596392094e+00 -4.716067751500039873e-01 -6.736940957755692683e-01 -7.817765517326323577e-02 -1.668109721489698938e+00 1.128937982238121807e+00 5.788333026706161677e-01 -1.771441539927288422e-01 5.287992999888374568e-01 -1.263731228058887046e+00 2.950427676882971251e-01 3.764739056007031515e-01 4.001508348851364749e-01 6.526595597947976168e-01 -3.331898955752148339e-01 5.852498318850013481e-01 5.380995170591831300e-01 5.855524981309923049e-03 4.011112055723616288e-01 -1.118868653354842868e+00
-6.757919645087250293e-01 8.782525206398059670e-01 6.043046628752092309e-01 3.360663623070971884e-01 1.366109570670177797e+00 -1.602303335069676704e+00 8.008192295319893628e-01 7.617744062046971631e-01 -4.381915950227774359e-02 2.015996143247518635e+00 1.442795631247863364e+00 1.103505698570962645e-01 -1.204895932578794460e-01 8.016970192273354945e-01 -1.791156343017347607e+00 7.378701528594122649e-02 1.477824424766033706e+00 6.085827446678041541e-01 8.733579776768353176e-01 5.865960506386153073e-02
2.412461672561811432e-01 3.527100790972775290e-01 5.140954535186306740e-02 2.425453767824347628e-01 -5.195274319968427174e-02 5.065218260109383142e-01 -9.496423741061549295e-01 -7.542751656525146231e-01 -7.110256380587856029e-01 -1.372807223368387008e+00 -1.108485122812181700e+00 -3.989339347276570913e-01 3.855104904637624563e-01 -2.356976180245656249e-01 8.426821139500219049e-01 -1.953893961068672969e+00 -1.118628376143493197e+00 -2.034633236007248047e-02 -1.519396056618218083e+00 1.041298050824012167e+00
1.403334914225534247e+00 -1.525631838758958914e+00 -1.272708501900021494e+00 -7.436300939692703782e-01 -2.422010806358837254e+00 8.405820401487487104e-01 -6.456604638816874076e-01 -7.170032631172229554e-01 -4.483718552469512786e-01 -1.587987735156437763e+00 -3.646771412112818078e-01 -7.477142864560637481e-04 3.897076518957842128e-01 2.536799007165817521e-01 2.007934527444705797e-01 -9.126104219754738178e-01 8.199063937657664614e-01 5.374468250975779071e-01 1.587734635558303853e-01 7.958901627923953281e-01
5.765101776116082766e-01 -5.272434734561699532e-01 -4.718001526911158594e-01 -3.625204804539760017e-01 -8.957519109869155338e-01 -8.074227643087530382e-01 1.196958852592128197e+00 6.587486207647476055e-01 4.150046187561052258e-01 1.308778260838015184e+00 -1.281659739900466999e+00 3.890810341572934483e-01 8.622929913708302641e-01 2.789431455978279017e-01 1.506354105774850627e+00 -1.789011658712619468e+00 -6.717129382966989803e-01 3.760678296389138170e-02 -1.129675750298386738e+00 9.945985124616063544e-01
1.385517050599737621e+00 -2.839675849309679090e-01 -6.232499401385332982e-01 9.175151854423928277e-02 -1.806895666450496041e+00 1.441807975974495282e+00 9.800831823405879994e-01 -1.188640301423529166e-01 8.844039827801686293e-01 -1.494646385646985598e+00 1.463247999604502525e-01 -3.792863175471388182e-01 6.470274574473741658e-02 1.073689902466275908e-01 -5.992090939167264985e-01 -2.302575835822080474e+00 -5.303945395850124811e-01 3.697998947838792017e-01 -1.128824284457095706e+00 1.731487345322237470e+00
-6.826369583245993633e-01 5.984642107489588359e-01 4.163545338323412226e-01 1.970485217617463647e-01 1.093957801229153759e+00 -1.677925007075183661e+00 9.189190242547193854e-01 8.551351929751295211e-01 -1.070445481697032686e-03 2.175294195392085239e+00 1.551803920133975723e+00 6.397645278127195301e-03 -2.136311649637813170e-01 7.655146272106457817e-01 -1.978508451046110173e+00 -2.400209565085949404e+00 1.651092645127212044e-01 7.244756369216103220e-01 -7.066714895358885418e-01 2.155736990449839574e+00
1.079927235143620212e+00 -4.805679292866968932e-01 -6.667824062953783271e-01 -8.626312623509652111e-02 -1.520755179318366901e+00 -2.845576871333705959e-01 -2.735038891056974286e+00 -1.467105289133156854e+00 -2.244820264433153412e+00 -1.507933695353565806e+00 -4.035180019916977390e-01 9.806982858179862372e-01 9.287811990177057275e-01 8.580061130804317315e-01 8.809901456087263494e-01 -5.962677796880042624e-01 -1.183255016839998230e+00 -5.094959659678296449e-01 -1.099819411695336369e+00 -6.803509142080179650e-01
7.137907346331090475e-02 -2.017315662007460375e+00 -1.159747405831062839e+00 -1.384200008922759961e+00 -1.188597295347613159e+00 -9.112157584551339173e-01 -7.395605248607289850e-01 -1.882609057189382207e-01 -1.119492634374658069e+00 4.874126696260989711e-01 7.454076752133746986e-01 1.977986420186720107e+00 9.768345561648289488e-01 1.950170798213576306e+00 -6.095726265723298842e-02 1.189316719182754056e+00 1.199018479971666551e+00 2.594234973997106009e-01 1.025374723394618659e+00 -1.438593956650557448e+00
1.474081067520706778e+00 1.090169655186835174e+00 6.653292582426724444e-02 1.012966068254060215e+00 -1.202411216322193166e+00 3.520307384774949977e-01 -1.105411944918020861e+00 -8.150139362832563572e-01 -8.339785443253635577e-01 -1.229418890456979607e+00 -4.302321130534508820e-02 -2.850411607638284051e-02 2.674390448557762978e-01 2.348797742658167986e-01 -1.454449158592495128e-01 5.005991700196430472e-01 2.707975360197941161e-01 -3.063182627862116869e-02 2.156943337720248488e-01 -1.215182681948408838e+00
-2.423549860384199284e-01 -1.226151436149867519e-01 5.845064637686572806e-02 -2.007699422003685064e-01 1.894880237951594160e-01 -8.986396506942468942e-01 9.549163939214133645e-02 3.379256186599856049e-01 -3.752702557909913805e-01 9.481422439632194443e-01 1.589728874512400525e+00 3.426924482880207568e-01 -4.526847395858832335e-02 9.119656049243602958e-01 -1.770382021475258583e+00 -1.365981562380475189e+00 1.240503959232516218e+00 8.619977882913539835e-01 4.371742442106432147e-01 1.583901121975061166e+00
1.485604464697312777e+00 1.240071493846275907e-01 -4.613238150871643573e-01 4.880532548506462676e-01 -1.675755578117024136e+00 -1.810389736692965101e+00 -6.615429739194905734e-02 4.757595745877608029e-01 -7.539096886169416312e-01 1.841854145823017763e+00 -3.291809975842269420e+00 7.427469971284461625e-01 1.680403042859666130e+00 -7.397192644530425909e-02 4.043065717224186173e+00 -7.342074224744281619e-01 -1.795249387052489043e+00 -6.858528099037944914e-01 -1.662544894575290755e+00 -8.553195880178022792e-01
2.472225162329641623e+00 -1.188363779145190868e+00 -1.378086240639358584e+00 -1.744206266586970366e-01 -3.546346068531539331e+00 -2.075198470868863942e-01 -4.169066466546633709e-01 -2.778985749905590330e-01 -5.497486279683148069e-01 -2.016774953152019878e-01 9.252548985615473010e-01 -1.567204558117074154e+00 -7.356627350664464160e-01 -4.384952304513201060e-01 -2.121747797118676004e+00 2.544676891478543368e+00 -1.100576821505518943e+00 -1.420261425206836847e+00 -1.347339871310143655e-01 -4.325058008630200845e+00
-2.691801521872981828e-01 5.238877815092035206e+00 2.674208548732914359e+00 3.416516295361829769e+00 3.370479558220928595e+00 -7.712313965926769210e-01 -3.452649006711040247e+00 -1.642788921446079353e+00 -2.773009642515478212e+00 -1.318777435184142810e+00 -1.076938346427692927e+00 7.699206344348477060e-01 9.673012696114132725e-01 5.851360800536624662e-01 1.428241683987725885e+00 1.176348697648297081e+00 -6.779973247791215574e-01 -8.405925000105631817e-01 -2.938709579979104092e-01 -2.527866009807976599e+00
2.844317041410507341e-01 8.866727705433764539e-01 2.665683190034354166e-01 6.542362538212614931e-01 2.450725630764292173e-01 -2.928164938134203865e+00 3.482347216333225859e-01 9.874673297897669233e-01 -8.608637153493495786e-01 3.390395191045811885e+00 -2.448957384972188400e+00 -9.678542603891404639e-01 5.963649971178850429e-01 -1.026752482183450388e+00 2.192823561200364590e+00 -6.465761362960288361e-01 2.707534861712506569e+00 1.406363092628410971e+00 1.588805282517077533e+00 1.468283073270481243e+00
-4.922554111527692178e-01 -1.390060651400232494e+00 -5.910465686475443459e-01 -1.152350358626125226e+00 -9.548579327467253408e-02 9.429620920186447819e-01 1.003341111303398092e+00 3.332727146159019521e-02 8.268242239893867085e-01 -8.526759679074609188e-01 1.679159820336930120e-01 2.097041716563511626e-01 2.564783725895098399e-01 5.579918510781329832e-01 -3.279346675787557785e-01 -2.924001563174908891e-01 -1.842844577400895467e+00 -9.147222650565818292e-01 -1.453933782416532150e+00 -1.484901931900209471e+00
1.313164748823204275e-01 1.083349093289815324e+00 3.628458800534657969e-01 7.582927941500330338e-01 4.131009485973834994e-01 4.694196189347431547e-01 1.955991324565756972e+00 6.470906215409529816e-01 1.269262455887912866e+00 1.864222364759638706e-01 -2.913638635983731850e-01 -6.316034211503156470e-01 8.809883032418344695e-02 -1.197116250368107371e-01 -2.306869477637742416e-01 -5.794165016842085514e-01 1.416738474026965511e+00 7.787317726603664170e-01 6.599990050529940255e-01 7.572586441612362274e-01
4.327172883533041969e-01 2.341046881132622104e-01 -5.739178670714639025e-02 2.191034983936580305e-01 -4.076819616449102179e-01 2.794741624582600670e-01 1.390298163142985599e-01 -2.267544665974198237e-01 1.553416053317310808e-02 -5.384849656560570796e-01 -4.872597572227208018e-01 -3.132819606495309550e-01 3.565208053378288167e-01 -5.056109410831663431e-02 2.267768627748847909e-01 6.880718073937036605e-02 1.030488655237450230e-01 -7.140296333343421065e-02 -9.006500652415302954e-02 -7.793644378459159139e-01
4.916420047439651331e-01 5.560004347571366745e-01 1.093644096629666634e-01 4.156642888565085237e-01 -1.553373165900412967e-01 -1.801164883226269720e-01 3.151075768441653768e-02 -8.544401958274597253e-02 -1.900818097995805867e-01 -6.796135749012356675e-02 1.179043975393642141e-01 -5.947651994349990590e-01 -8.569421985947217602e-02 -1.026540014078887453e-01 -6.486588074626373768e-01 -7.948152964948849153e-01 -4.908312352419723634e-01 -1.324846613116677507e-01 -7.045608095320854414e-01 -3.539764678002393916e-02
-6.090218083628566870e-01 3.704432081569328794e-01 3.264981382881742555e-01 -5.969185000558636239e-02 9.878124821736208316e-01 4.725299213040452528e-01 6.195060760988726489e-01 4.169699128547005307e-03 3.762021638445990357e-01 -4.746346598893129709e-01 -7.570028619897273270e-01 -6.080462467198251009e-01 1.777451096404070729e-01 -2.939819184377582828e-01 3.142875215233412733e-01 -6.742908933885101153e-01 -2.323794762751587029e-01 2.178143647217768708e-02 -4.589905795682990286e-01 -4.434489197888161205e-02
8.164379609356206546e-02 -6.594138675735001787e-01 -4.188768463388693464e-01 -5.480801099084655625e-01 -3.904499708303892369e-01 -9.129847624466899680e-02 4.357866333454679664e-01 1.814329151103439008e-01 1.214684257783096161e-01 1.141195788024746693e-01 -1.314265984456418346e-01 -3.076535806687155095e-01 1.363747628465391826e-01 9.191420283635184929e-02 -2.599363854394592943e-01 -6.052392322006698855e-01 4.547901296039988939e-01 3.177157247522831574e-01 3.555218306295832020e-02 1.710213066649616254e-01
-6.145889494664809050e-01 4.882318031522481228e-01 3.317739120176340650e-01 6.470586613486564720e-02 1.011358254066229367e+00 5.276958627409102931e-01 2.582004478811994463e-01 -1.785191527122099719e-01 7.705680873177020440e-02 -7.147597984462977783e-01 2.204369857276818889e-01 -3.220232271896553700e-01 -1.233985155828756786e-02 2.165633976434279406e-01 -6.838008965411833673e-01 -8.918233908054526982e-01 -1.246393319293323532e-02 1.487144562245832080e-01 -3.551911460444072688e-01 3.364169457741799096e-01
2.664139032413757047e-01 -1.741001921742909853e-01 -2.337832138555744899e-01 -7.677928901712562093e-02 -3.534589785597783695e-01 -3.097302627518836449e-01 5.366296433799774834e-02 -5.417539363669768987e-02 -2.711892096829684462e-01 1.133576008866046814e-01 4.510198506260274520e-01 6.027087901372851775e-02 1.653843704138854565e-01 5.277886567449254773e-01 -7.840020595125873903e-01 -4.036807067008548744e-01 -1.647925379980945126e-01 -9.410156822650259101e-02 -3.235428020941219507e-01 -3.348094575982516474e-01
-3.366430301477573162e-01 -1.083399115956396735e-02 5.681195109881277683e-02 -2.021393363628033457e-01 4.024763994266346012e-01 -2.953828035237336946e-01 3.427828054512236378e-01 9.533701064329409836e-02 -6.170465443447473164e-03 2.351967630531788811e-01 1.992568673793482237e-02 5.097098447971376567e-02 3.317193135180306895e-01 4.060352636851293218e-01 -2.162311638970639271e-01 -2.657172501326242053e-01 3.512240404942848504e-02 2.436111071574735554e-02 -1.825265589764751284e-01 -3.914461998804839582e-01
5.518555041083714752e-01 -1.925976621496931773e-02 -2.690696904148097146e-01 1.446350017799235832e-01 -6.690238422753259639e-01 9.933289582283828800e-02 4.172512800921005516e-01 3.074350326234046027e-02 1.324378607311600675e-01 -1.350724900217413205e-01 -3.566338413062327684e-01 -5.777983962116793881e-01 1.287608271563519258e-01 -1.414362125069874021e-01 -9.666962110708537947e-02 -5.933422686036424754e-01 -1.040244010109498130e-01 3.299909141834881515e-02 -3.620709030391616734e-01 -8.584750200159410594e-02
-1.977810304502854166e-01 -9.329185903291148385e-02 -4.319143797154739728e-02 -2.181822261557061216e-01 2.053766613403533725e-01 4.042847215580418208e-02 -3.096840753014714620e-01 -2.871856355905623159e-01 -3.985377060962472795e-01 -4.538945554966475893e-01 -2.099923708665282218e-01 3.658485954445019894e-01 5.228273735863360194e-01 5.050886174580005994e-01 2.606760448951933595e-01 -3.705974485436597798e-01 3.680369408992769653e-01 1.938361363537205728e-01 -7.422282302446625568e-03 -7.488321630905084292e-02
1.531663051714627355e-01 -1.705239565660827961e-02 -5.005658537709984507e-02 -5.961520827308039450e-02 -1.001994859808923999e-01 -3.852267217986404813e-02 5.429986778740768516e-01 1.097255644704420996e-01 1.596606260104717623e-01 1.071171232639730742e-01 2.212949118240750690e-02 -9.947349541503786030e-02 2.148919974434104208e-01 3.140555585993437537e-01 -2.572335761892041162e-01 -3.770010789331084688e-01 3.361924904198345110e-01 1.685067902146029362e-01 6.141825538355100145e-04 -1.041202469605700398e-01
8.559200072781161794e-02 -3.128926340253181948e-01 -2.252752290576221506e-01 -3.077351506985772644e-01 -1.880559640292777390e-01 2.781314281661552146e-01 3.962043748602226412e-01 9.357103723516925486e-03 1.102889157743697779e-01 -2.706334157202920920e-01 -1.061373506478612144e-01 1.067478444423468897e-01 3.543506318307002578e-01 4.209353254436053460e-01 -2.835557791218526469e-02 8.513387034586028523e-02 2.138308454512303503e-01 8.107684502938583559e-03 6.166438172982847965e-02 -7.101783975305169250e-01
2.804823640811812124e-01 -3.625557949283486625e-03 -1.408987613785125659e-01 -1.412441488971002967e-03 -2.906083343283144549e-01 1.049680781091572451e-01 -2.511222989687846296e-01 -3.046049394278017020e-01 -3.742205626432864030e-01 -4.969499517361327667e-01 -6.370110543604845521e-02 -2.554442157412681880e-01 1.719887261709586446e-01 2.055247194287658508e-01 -3.230089978242226545e-01 -1.917078921809425573e-01 6.260021599133305248e-01 2.848368321529040070e-01 2.162876218182032684e-01 -1.491922613526358021e-01
2.422412150086925703e-02 -4.064953179220662238e-01 -3.125217123318421719e-01 -4.104196140805281279e-01 -1.814105805519926062e-01 -5.408177423473905510e-01 -1.548721046783980704e-01 -4.568294551273407306e-02 -4.850600795613326244e-01 2.896538407163334328e-01 -8.421003863843912196e-01 1.631947021650664298e-01 6.214285001765451621e-01 2.589537313617982228e-01 8.368534339658334487e-01 1.389328057508304459e-01 -3.314835491829734582e-02 -1.856694332560774041e-01 -1.270741836564777683e-01 -8.603810947348294880e-01
-3.286561632584085180e-01 -3.765273077919009115e-01 -1.744873215809005229e-01 -4.793848073413065070e-01 1.997590943773256966e-01 5.475480352329669120e-01 5.215850096588072748e-01 -7.341412270285646580e-03 3.259541393642668705e-01 -5.957349113183707523e-01 -4.388421163981570672e-01 1.103369317855827647e-01 5.179798251396598996e-01 2.454595683649528071e-01 4.714823471434633761e-01 -4.371903954148821381e-01 -1.659417390917481971e-01 -7.038848113924014993e-02 -3.795908008729149685e-01 -2.675308426125729833e-01
1.823915920863064186e-02 7.026573043724783085e-01 3.818973062331385560e-01 3.969839027377632945e-01 4.146468562007434855e-01 -5.672855711464502848e-03 -4.045603699877694526e-01 -3.694644259910199180e-01 -4.590574600746297751e-01 -4.782030426716248339e-01 -2.857905039210149600e-01 -5.363280261087283174e-01 -3.992759403679657648e-03 -4.109573896398427406e-02 -3.008395924117454046e-01 -2.021844064981417888e-01 -2.372748514998266889e-01 -1.453937731111726861e-01 -4.012696259377994679e-01 -5.910262689117107282e-01
-3.458502352088367870e-01 2.462792455145608808e-02 3.715645715287036605e-02 -1.398912104814380442e-01 4.032177490384306062e-01 2.494830968913804847e-01 1.139371751953023315e-01 -1.927759579369651699e-01 -4.459892852978798727e-02 -4.367011790050351894e-01 1.805032478359810955e-01 -3.541758559972938425e-01 1.561952788960185856e-02 1.465941190965728558e-01 -6.086968335674277641e-01 3.885174938251423349e-02 -1.958730023160926426e-01 -2.055734307717313747e-01 -2.113884547496953925e-01 -8.642421939711786294e-01
-2.320129765501550423e-01 7.297130046143692761e-01 4.473025734265950182e-01 3.519873216239748914e-01 7.229988584939184282e-01 -2.886386945168966656e-01 -1.420147493936784466e-01 -1.067744669298085203e-01 -3.698595265934134790e-01 1.693618974030848545e-02 1.367432712495320890e-01 6.073902144025644656e-02 3.077923460320781124e-01 3.693111695855429977e-01 -3.055150393384336027e-01 -1.015420745629588728e+00 3.708170862030621406e-02 2.429937102592968912e-01 -3.258475051409140955e-01 4.768071522456456268e-01
7.913017394187846221e-02 -6.659357817392316803e-02 -8.985663949035851972e-02 -1.104948998796057569e-01 -4.631274220980750173e-02 3.340219074678301148e-01 5.600662713713211449e-02 -2.179716561134394937e-01 -7.643691308223871106e-02 -6.841841544762978788e-01 -1.023666200781135072e-01 -4.681902142090430541e-01 1.284313512233764554e-03 9.558103633730727355e-02 -4.577951768447529046e-01 -1.046205283212461090e+00 -9.983292413653693798e-02 2.119347109988273803e-01 -4.650663721624857527e-01 4.253209362508361124e-01
2.542697579333521030e-01 4.403226165942228931e-01 4.315277765378530000e-02 3.123752978177590234e-01 -5.600402813687719444e-02 -6.069096210430604543e-01 1.534883668521477007e-01 1.511128723638538451e-01 -2.715541890382021650e-01 5.253204161784893467e-01 5.275500301271379699e-02 7.867200944761978954e-02 2.223265906256025048e-01 3.851508470764126724e-01 -2.650330319802142731e-01 -3.268617302676458669e-01 4.760758010888986869e-01 1.521482457774518404e-01 8.590321195179274893e-02 -1.078987395242834157e-01
9.546628167102673423e-02 -3.734909648457983566e-01 -3.214570647991683572e-01 -3.246302424985487711e-01 -3.022679736583213095e-01 -4.374661857755245409e-01 5.382173262281279846e-02 -2.367589322173852331e-02 -2.798167856444905843e-01 2.083623232790405289e-01 -1.036779759603201345e-01 -1.014070138895849960e+00 -1.977991161642219664e-01 -4.081628286119506344e-01 -6.623753496774883454e-01 -4.792841447219953199e-01 4.143757930003756917e-01 2.295087219055752525e-01 1.623964810535574732e-03 5.359585494025015384e-02
4.041889889323888041e-01 -9.808626502372921885e-02 -2.389814871177887712e-01 -2.592137309246350663e-02 -4.773374688345916050e-01 2.290737763495651613e-01 -2.158776742489751932e-01 -3.551539818085911460e-01 -3.204921457130716078e-01 -6.426694664260529377e-01 1.577076513140160952e-01 -1.872971442622250460e-01 1.438016936106844557e-01 2.470710910592851528e-01 -4.946656598866492338e-01 2.905852135091335775e-02 -1.497479008933944034e-02 -1.718666315527231092e-01 -1.580859551827744625e-01 -7.515681799965439058e-01
-2.497956997537043727e-02 -4.957894568199223140e-01 -2.580838404652687768e-01 -4.170562623620175380e-01 -1.697922631955564032e-01 -6.178830671800750185e-01 -7.871049085913470189e-02 -4.187793044757742722e-02 -4.583420636862121644e-01 4.147739628661658573e-01 1.348143712942937444e-01 -2.096576409331741830e-01 1.232963697106163881e-01 2.005598014770196280e-01 -4.490800755525314325e-01 -1.142293223452364725e-01 -1.253675013955147799e-01 -1.759675070476672820e-01 -2.750999618634313304e-01 -6.640037109822372052e-01
6.270066318317253640e-02 -3.931611672570440863e-01 -2.665919587313886896e-01 -3.085410433367747896e-01 -2.529902902082366567e-01 -4.153344668702051989e-01 -3.237676576556612340e-01 -1.274180415787221909e-01 -5.996442651246060018e-01 1.029324914415308545e-01 1.152624394598572577e-01 -1.045424382254281082e-01 2.014509603863122167e-01 3.107339189431166937e-01 -3.985336621033843674e-01 -5.808531466222748296e-01 -6.124690344009586784e-03 -1.317350319983091878e-02 -3.727949359308133648e-01 -6.205069968546994552e-02
1.906850502805814696e-01 4.319071472793292732e-01 6.160946831531195073e-02 3.104488724880945516e-01 -3.658355575883877331e-02 -1.051258023482310178e-01 1.615386045898768441e-01 -1.629726391809568214e-02 -1.107191277684559522e-01 -5.280261843873131078e-02 -3.006925507224958438e-01 2.481519849330256766e-01 4.327617249201143879e-01 4.373994375441666582e-01 2.405584482895592735e-01 -2.923402725026771343e-01 4.019843573642949419e-01 1.741433250952475476e-01 -1.971780656064776871e-02 -9.156639796296320299e-02
2.914123049456759373e-01 6.429192873090072702e-01 1.724409833511922341e-01 4.580506386672101304e-01 4.490041077003780606e-02 -3.237462898074350837e-01 1.666210076156353359e-01 3.906482628617893860e-02 -1.561581343399198740e-01 1.848314134316538238e-01 -4.901004902204200708e-01 -1.948869686525048217e-02 4.062899860818701692e-01 1.831064112770596497e-01 3.730934492394902269e-01 2.733833471542724269e-01 8.362264697236568844e-01 2.115628094444444995e-01 5.211121771164122229e-01 -5.716544312798743643e-01
2.229527665659050972e-01 6.914843939961282104e-02 -3.174170234295742299e-02 6.102345474723304408e-03 -1.225554012993565894e-01 2.023017085378780999e-01 5.128020698956846646e-01 5.284616730831517839e-02 1.899041197377145107e-01 -2.182590840468205950e-01 -2.603981699008128814e-01 -1.825774264532878943e-01 2.555452712985163966e-01 1.233054756134025903e-01 -9.960955784043601380e-03 -5.512886436976942583e-01 -4.388797182486026127e-02 3.977900797458746446e-02 -3.184221531544216277e-01 -1.145682208766034826e-01
7.440942954898846495e-02 1.142210547447125024e-01 -8.903468557808824624e-02 8.274491769556455156e-03 -5.514910158095717718e-02 -3.193268129852282894e-02 4.184669097942507743e-01 6.894013180218894199e-02 6.430987927811188110e-02 2.038566859182167068e-02 -1.311413765933714948e-01 -2.020955134372465212e-01 2.168537800788390146e-01 1.778094167136219372e-01 -1.696083552312780962e-01 -4.900764629365128577e-01 1.438157673415945137e-01 2.063404549577361746e-01 -1.532590017508280167e-01 2.632352527185077840e-02
1.767408133961327343e-01 6.384698948825306974e-02 -7.474719343420908879e-02 4.947343341898530200e-04 -1.020157454707772554e-01 1.220605407366431583e-01 1.772249058166169289e-01 -5.777557740457361923e-02 -4.930837890126613110e-02 -2.761913139589467492e-01 -2.253710106265404134e-01 -9.254701435556905720e-02 2.834657401398528176e-01 2.104296788275649976e-01 1.618499247147134334e-02 -2.319170007740936068e-01 8.892970016991449955e-02 -3.345024033215632242e-02 -1.498279704438294502e-01 -4.406924467678534074e-01
-2.327634952116498512e-01 -1.982036023054120355e-01 -1.196217613369769950e-01 -2.734587519354191865e-01 1.952360896149029634e-01 3.792656174260222723e-02 3.523697447071929556e-01 4.812642593475958963e-02 1.643036417721063791e-02 -1.094785175286572126e-01 -3.161874480560739609e-01 -5.535476252374635919e-01 6.508407986579603510e-02 -1.012992079236146314e-01 -1.257997531090098153e-01 -6.620075529958937555e-01 5.689978533108469572e-02 1.118827361526704978e-01 -2.900400784422348943e-01 1.175310623641009911e-01
8.214232744662876007e-01 1.121819689471802217e+00 2.389179749167854860e-01 9.264387555485293912e-01 -2.885156548443187363e-01 -1.419073682429522476e-03 6.173090615276275450e-01 1.531329222451502103e-01 2.566252561725335668e-01 2.540907355217265906e-02 1.444493381202933691e-01 2.135690843621889101e-01 3.627155987397027159e-01 5.268789552965527090e-01 -2.345234642047181739e-01 -1.650382393494133626e-01 4.943056198079632813e-01 1.917503186570435614e-01 1.565328089379170451e-01 -2.601601898149518144e-01
-6.630343166580729974e-01 -3.375165735483857121e-01 -3.557163277648664468e-02 -5.409815329927265548e-01 6.483422053407015273e-01 -6.115939642033334928e-02 5.478821897158947518e-01 1.505395149265431609e-01 1.486923758197539192e-01 8.915964520711468222e-02 2.403485737710978898e-01 7.292427964837385757e-01 5.405138015813080177e-01 9.122764276362979041e-01 -7.642028155925162380e-02 -6.765069710182924911e-01 6.878754955852716124e-01 4.424431024411499269e-01 1.543463723930662557e-01 4.844391426544320534e-01
-5.405460390801728465e-01 -4.864335269204889123e-01 -1.433473961420552167e-01 -5.724880198670994069e-01 4.060974243146677765e-01 -1.817246929932341826e-01 5.403417763034134014e-01 1.967930676778331112e-01 1.436850233520572118e-01 2.412329464723686756e-01 -6.096491051513128201e-02 -1.932001461809259579e-01 1.927705913445676988e-01 1.532861680954152039e-01 -2.223409655228942294e-01 -1.832639528832977760e-01 -3.005521826226494331e-01 -1.839671576424464772e-01 -4.303791196370827521e-01 -6.925789948516294370e-01
5.608158269880015867e-01 -7.918986483226145290e-02 -2.409983519650067130e-01 1.246521148101320531e-02 -6.748576765400409183e-01 2.569385076059862993e-01 1.693067900484789001e-01 -2.074524863139897979e-01 4.115664835812604672e-03 -5.328030664811347350e-01 -2.426566804676460465e-01 2.351236853962093698e-01 4.461093397911585767e-01 4.255163052575842708e-01 1.882602537204930426e-01 -2.745029149714086625e-01 3.112159085948458248e-01 1.528476995027148733e-01 -2.632817592751190983e-04 -2.284192581851358650e-01
-8.071580216560293730e-02 3.813358421961638989e-01 1.855674195748091004e-01 1.237661522644463719e-01 4.006044005170126265e-01 -6.655970420285168831e-01 1.463900938215407510e-01 1.383017008584805363e-01 -2.797123952001474567e-01 5.530645220036858323e-01 -7.336694199921036663e-01 -4.959254187836289463e-01 2.603213343006277602e-01 -2.280175720520991323e-01 3.236218569519920818e-01 -5.316271842365255518e-02 -1.294970926237481723e-01 -1.679518642216459301e-01 -2.459842188606969349e-01 -7.194509797764009340e-01
-2.794214285099087119e-02 6.473181769191392598e-02 -1.407199961671812966e-02 -5.197498258451459241e-02 1.332423423937719176e-01 5.323355120677286667e-02 4.193462103461814139e-01 -2.096487135073557551e-03 8.418799636240484330e-02 -8.034878909943651837e-02 -3.229266138048900170e-01 -2.858478040552990818e-01 1.875133043737341187e-01 4.870811903565691603e-02 -4.686253628049708020e-02 -4.853984246819709192e-03 3.347243598046263369e-01 7.683420760953012241e-02 1.139924521461791185e-01 -5.428082685094103299e-01
2.258864605614634979e-01 4.644112499468804334e-01 1.531174855001366242e-01 3.032321610678244683e-01 7.135489509280884546e-02 4.711723515098727999e-01 4.270687936500575099e-01 -5.108343872860417884e-02 2.365611921723746458e-01 -5.454946784062892906e-01 3.275733354442725842e-01 -8.510796627120358060e-02 1.208948154386396828e-01 3.441667069666851653e-01 -6.151150046756240775e-01 -2.217724230199200341e-01 3.572479081207002305e-01 1.074729684719692852e-01 7.362780880917436932e-02 -2.738735541960138908e-01
1.124030485544597197e-01 2.171962851052128829e-01 6.095857524842608621e-02 9.881689475462951400e-02 5.039116212386488686e-02 4.784808674928461292e-01 7.133010505587298322e-01 9.262794791754619395e-02 4.151677148624941527e-01 -4.076803357837410768e-01 -5.626165430944325418e-01 -6.301204146170578113e-01 1.552825359943322547e-01 -2.828466010726919944e-01 1.163668109065212897e-01 -8.920562843139687725e-01 2.967427290537391626e-02 2.200784268750129169e-01 -3.803749208591193365e-01 3.732231911592858165e-01
-2.659050461176056257e-01 3.352288734854571017e-01 1.615426019867946261e-01 7.881354656080577503e-02 5.292625433501453314e-01 -4.368631184185333138e-01 4.184294730590576439e-02 -3.199373606147151022e-02 -2.988947062872341909e-01 2.745804432439803433e-01 1.656302489759138297e-01 2.100966049339814679e-01 2.403518238945058227e-01 5.742471788859849768e-01 -2.881615402000313741e-01 -2.136651865665573635e-01 -1.307573651742860998e-01 -8.511304670794743454e-02 -2.768444263617811374e-01 -5.517381967858192571e-01
3.024597908676475433e-02 3.045845484996844155e-01 1.300704676008219152e-01 1.326235396238612529e-01 2.396091258939881952e-01 1.278803790098033133e-01 -8.105637730747741743e-02 -9.921836208311800298e-02 -1.934555310698177766e-01 -3.993084619339497543e-01 -2.017073516979051295e-01 1.011007737192010092e-02 3.555432352276858277e-01 2.618623824522869348e-01 5.874310367292462365e-02 -7.006203509694099996e-01 -2.819774286597683810e-01 1.281680243422120280e-02 -5.670270233046170727e-01 2.434414994279987532e-02
3.134956415580233968e-01 6.317192684420092075e-01 1.584097361077483335e-01 4.356093808886438157e-01 -2.894962721151544266e-02 5.368663018334607351e-02 3.682441900469545226e-01 8.381386700090487363e-02 1.073665001226096760e-01 -1.371800081386221892e-01 -2.962566991062468014e-01 1.787566907713951658e-01 3.643463616082196488e-01 3.076132076348067068e-01 2.120722149699224290e-01 -7.900406182388159948e-01 -4.214426672148328112e-01 -1.037571152550625098e-01 -6.455305584699428945e-01 -7.942244169287421274e-02
9.571921166760874455e-02 -4.123721055529382118e-02 -1.321764059962715621e-01 -4.982897335945499911e-02 -8.870141285557575639e-02 2.564783600308179201e-03 -3.662315144610003292e-01 -3.262993336912746178e-01 -4.553893216118727327e-01 -4.414550884372017148e-01 -4.058600956387758973e-01 -8.232915651014152680e-02 3.377394588472110160e-01 1.750199892337276908e-01 2.151237217894411136e-01 -1.075760883221928699e-01 3.634443511236179480e-03 -8.163859567492862124e-02 -2.006920276590513086e-01 -5.498120533883965599e-01
1.168808617899345925e-01 4.937442393244929895e-02 -1.095971982234922593e-01 -4.570687045137523941e-02 -2.061172632541324878e-03 5.973733964520937523e-01 6.404864827465999166e-01 -1.817833617032188487e-02 4.133725380098546287e-01 -5.820338211542716023e-01 1.995805248478962901e-02 -1.219859896594133186e-01 1.934467095070241116e-01 2.786428384293206939e-01 -3.372656791098538331e-01 -2.925454755824437592e-01 1.730729934260562264e-01 4.341848907402635904e-02 -1.353082677828235103e-01 -3.078303427348460519e-01
-2.006299279756477982e-01 -6.528087284580277316e-01 -3.821040866233719746e-01 -5.735560419849444758e-01 -1.698876514511238334e-01 -1.523010885493513711e-01 4.848392506670745061e-01 1.196408197730325085e-01 7.105339563067866737e-02 8.977863810037660375e-02 -1.198163857541419686e-01 -1.182147118763379884e-01 2.075888302450099032e-01 2.168613299045480669e-01 -2.137555960836922953e-01 1.678638205269598060e-01 6.273451084399495059e-01 2.116851373722462570e-01 3.361479599530060036e-01 -5.107553425565414251e-01
3.461648031690329752e-01 -1.037993308466828857e-01 -2.623166538990722718e-01 -3.653151830720317850e-02 -4.945112626950178836e-01 -2.702780569156390533e-01 4.505422324672598844e-01 1.662398026225657688e-01 4.045706501265952659e-02 3.912301372783066333e-01 6.525460731784604729e-02 -1.799523332873926573e-01 2.574221184423245989e-01 1.646123011333717745e-01 -3.538607693267595833e-01 -3.280930528902568089e-01 6.716310354538347349e-01 3.590229380983702145e-01 2.370523974493184971e-01 -1.220304121284765397e-03
1.635580801929303885e-01 -1.505859036657862804e-01 -2.422991429004622277e-01 -1.943465690568922655e-01 -2.591214130620822509e-01 -4.233429344421890672e-03 -6.822411380419562965e-02 -1.465719842064807932e-01 -2.520055165116689699e-01 -2.604272315426653384e-01 -2.608764250377564875e-01 1.040577930571675025e-01 3.475317464423079428e-01 3.870170887539129412e-01 1.182264522747911717e-01 -1.620937870501156508e-01 2.473145271389538546e-01 5.557879008143007393e-02 -6.685640400420740648e-02 -4.259094628008561201e-01
2.699642476780934053e-01 5.710186379177981664e-01 1.029899952561525861e-01 3.814240722098783953e-01 1.241164255205671162e-02 -4.426437737371650694e-01 -1.422497221359128039e-01 -1.297435669657154567e-01 -4.214816352459700433e-01 1.208956912774521164e-01 -2.092580671610548837e-01 -1.860967232439181274e-01 3.440130408848121046e-01 1.139377878671710143e-01 -2.347208427767814853e-02 -6.228233779290188732e-01 2.410144320508315896e-01 2.075487216112824884e-01 -1.487679001133552226e-01 1.277248390230142361e-01
2.444960953445047824e-01 -1.254095753077699715e-01 -1.975272656408070815e-01 -1.262700314376038191e-01 -2.763713070402325500e-01 8.413619873863673049e-02 2.568194695108955150e-01 -1.268597263286408983e-01 -8.098398861341865596e-03 -3.199640529375242792e-01 -9.487751930477375528e-02 -1.783595363482520790e-02 3.265960603232520576e-01 2.787151138446783971e-01 -4.959692043020494379e-02 -5.964331332392380780e-02 -3.259008151422796984e-01 -2.708069293343066675e-01 -4.127403250414318769e-01 -8.551953329962300732e-01
-1.043275955458340676e-01 -8.280123070299116872e-01 -4.060621136526503805e-01 -6.338767624212171548e-01 -2.968538642321495447e-01 -1.363201856208546559e-01 3.349286545553211147e-01 1.103677586296181456e-01 2.893997971896583588e-02 4.764601599740378446e-02 8.817846747608488744e-01 3.726780980679744726e-01 1.497465683299730177e-01 8.692245419996813549e-01 -1.032117676850124566e+00 -5.220594498247210780e-01 3.266437067525201354e-01 2.761263532107571805e-01 -1.038269047661083272e-01 1.453429155723912070e-01
5.234525246673650545e-03 -4.697111484759912414e-02 -9.109040415186686612e-02 -1.098330548808889306e-01 -3.960293927772480516e-02 5.718862796277516258e-01 1.015523118842387884e+00 1.444393284882365958e-01 6.824778255879242472e-01 -3.678482911657339205e-01 -5.327380437677549374e-02 -2.478165127554131097e-01 1.327671269100701990e-01 1.729035537990258886e-01 -2.610112029088105245e-01 -6.677121140171271563e-03 5.961029672906261734e-01 1.547411813386717072e-01 2.816636041669569046e-01 -3.688653902023378284e-01
-4.068212889629155837e-01 -2.973641756651153600e-01 -7.166243038233235940e-02 -4.097567034006706632e-01 3.331737268314893807e-01 1.036356813466135229e-01 1.521569665095101609e-02 -1.468153288835163939e-01 -2.225862520772473874e-01 -3.576597639187747424e-01 -4.208821505702762256e-01 7.972979213454031711e-02 4.051360409796674888e-01 3.007431918501707324e-01 2.938632376937327928e-01 -6.716383647690022940e-01 -3.725853344146518031e-01 -1.018693885418364559e-01 -6.024513622531537660e-01 -1.197656745728386818e-01
-3.723011881717367411e-01 -2.147456428872993872e-01 -2.883511092628199962e-02 -3.180058891791539000e-01 3.554910226521744709e-01 -1.299868319960291174e-01 2.440786823967338870e-01 3.980358935362009187e-02 -1.080775595596476235e-01 6.065730302751554115e-02 -2.654496585087959826e-01 -5.527138697669542466e-02 2.666863182450026626e-01 2.612178466361624318e-01 8.712680027469599242e-02 -6.398132498956755621e-01 1.586433634729972342e-02 1.277181138009548800e-01 -3.382094028656462137e-01 6.942312600414346502e-02
1.116595540435546749e-02 4.177918093861960891e-01 1.588704419522683209e-01 2.064285798306269293e-01 2.839181591698680118e-01 -3.128961608180735876e-01 9.393958467269258872e-03 -7.580614571236495014e-03 -3.951132921551465671e-01 1.555691129304231368e-01 -2.906418558867656099e-01 -3.606267886468086936e-01 2.022860946350492628e-01 1.157826131905556610e-02 -1.132164915926925225e-01 -8.203990394700142463e-01 -1.924753007943786343e-01 2.156602084886998227e-01 -4.661015447564452741e-01 1.391735661016941794e-01
4.220407214559001585e-01 1.007900881397491982e-01 -1.124981101845516085e-01 -6.725964362872038915e-03 -3.204781040431999850e-01 -2.834808424201436250e-02 1.828967763385028755e-01 -1.459200221485005833e-01 -8.700356210722914874e-02 -2.074443387177759002e-01 -5.322831732870890731e-01 5.269982210815771229e-01 5.940066238273141730e-01 6.025107275175534127e-01 5.946004538752724944e-01 -2.192954652339906274e-01 3.828432307399022294e-01 1.523040193471038029e-01 1.191760532320080695e-01 -2.187878319515338399e-01
-2.989784473850767288e-01 4.348957214282571648e-01 2.548209327875602392e-01 1.851164507014908811e-01 6.427564034451067609e-01 8.583089384571396252e-01 5.104744919475667775e-01 -1.310854140803267565e-01 3.931390071153335608e-01 -1.039083322700207646e+00 3.530414878382250321e-01 3.044741918069852060e-01 3.045749083915799127e-01 6.270074378180816588e-01 -4.721206561319035711e-01 2.386758723457714781e-01 9.235722269829013120e-01 3.116342304387234030e-01 4.805424998110704449e-01 -4.652578499968792469e-01
-2.641865863070059772e-01 3.034947754533164344e-01 2.088090034019310925e-01 3.853373358145542604e-02 5.404257412668099780e-01 8.068125840466822130e-02 -1.756919571393314450e-01 -2.481419690257165578e-01 -2.342838770212676280e-01 -4.597464787665797581e-01 5.922282219873949982e-01 -1.806924107380704636e-01 1.691154299002087247e-02 3.554392517975317745e-01 -9.533562578601622040e-01 -9.080011112811889329e-02 6.418123204044572372e-01 2.668261094946131617e-01 2.486707942365796176e-01 -2.404770438664100285e-01
2.164499364900026868e-01 5.215546794822077947e-01 1.458225825288751165e-01 3.153989877569745026e-01 1.005162055604976457e-01 3.407946220118154290e-01 1.204616534005621631e+00 3.009720350690222035e-01 7.491014070095931565e-01 -4.794281454843255658e-02 5.357300331043865493e-02 8.366656784678194736e-02 2.363183001055985388e-01 4.891939400139178051e-01 -3.270916540677275552e-01 1.576527629356176963e-01 2.626524847236011984e-01 1.104361773000439584e-03 5.757997362788508378e-02 -7.741121029416855315e-01
4.735338615894110065e-02 -1.265188650219592204e-01 -5.865681221938685158e-02 -1.747342135331982349e-01 -3.753345509222238974e-02 -3.198538420376126901e-01 1.156944900411525090e-01 2.266237466427844377e-02 -2.717175076887869412e-01 2.200817315471945146e-01 -2.379353208895570448e-01 -8.889644804921169596e-01 -8.302174172220808113e-02 -3.782557973181553956e-01 -4.229073396637350601e-01 -2.207104240515486981e-01 2.095069517512981871e-03 -5.883375235968052452e-02 -1.200908524507988129e-01 -4.585699038746814393e-01
-1.963715596849607142e-02 -1.776302302004896805e-01 -1.758310885753435748e-01 -2.221076142093254824e-01 -5.367924884810992142e-02 -3.868566603821586014e-01 4.311941446828994606e-01 1.733281961482048272e-01 -2.656561102399868091e-04 3.709859676523843963e-01 -3.779035539220096385e-01 -5.402126065272139233e-01 1.874376592245022288e-02 -1.280321066552632392e-01 -1.384369354994025580e-01 -4.917604904648594233e-01 -2.808429529865014151e-01 -6.182558808683547014e-02 -4.345075193416234605e-01 -3.051327989341484082e-01
6.085843058226909907e-02 4.819877192918743669e-02 -1.503419436456330388e-02 5.312914412870203135e-02 3.443903328632993976e-02 -3.858795409548457928e-02 -2.527787031706752452e-01 -2.391125583651612097e-01 -3.743598971450773916e-01 -3.494988918272839418e-01 4.491531266378076537e-02 -1.439474496403325421e-01 1.546468026229098069e-01 2.645557547149601785e-01 -3.516536756974207867e-01 -5.231021823592973963e-01 4.526033012461267990e-01 2.957199824602436689e-01 1.600539821928087525e-02 1.310303302124994351e-01
-9.411442676617129410e-02 2.002068169260758368e-01 1.026793020655859118e-01 -4.146601708648776224e-02 3.029801584047714380e-01 -5.379491985456718028e-01 1.619498652701203967e-02 2.326485277226175707e-02 -3.352584550966981602e-01 4.110778152260088358e-01 2.657182780395631605e-01 2.676578834854734246e-01 2.457594629830988087e-01 6.491719689599377840e-01 -4.089917473324752306e-01 -5.776112030816040743e-01 -1.253455438917112919e-01 6.481969064431379601e-02 -4.126191914652599380e-01 -4.993436703012332778e-02
2.127544903433868928e-01 -3.310454313132096121e-02 -1.138544027429830713e-01 -4.249639138449926024e-02 -2.094163689814685370e-01 4.659842346081721765e-02 3.625713180927722656e-02 -2.051458993163853550e-01 -1.520344365148193488e-01 -3.340181889003770999e-01 -8.927328099420468732e-02 -2.893851334407445686e-01 1.594825852690202606e-01 9.433819858301999151e-02 -2.848711619464641687e-01 -4.020727938394589862e-01 2.605124709591560839e-02 8.777971394593353516e-03 -2.192577637231183929e-01 -2.225266071681436808e-01
-9.171437317213967932e-02 -3.492010908081032983e-01 -1.165536784125989905e-01 -3.387685903789935393e-01 5.808091398651925308e-03 -1.098417546584009447e-01 -6.703575509275652711e-02 -2.138011478011778710e-01 -2.203011488576100407e-01 -1.880590359023976699e-01 -1.812181943342064394e-02 -2.736237744214236600e-01 9.643311717230099167e-02 1.369787682840556409e-01 -3.725560757757681030e-01 -4.060366551909517785e-01 -2.794625411878410293e-01 -1.119011283476852858e-01 -5.153297581570835950e-01 -4.207633669151457090e-01
-5.785201736234356629e-01 -3.822100433802470554e-01 -4.315940186030648579e-02 -5.622009412891064706e-01 5.577166653985584643e-01 -1.440120705341542406e-01 -1.110206070279639579e-01 -8.123252554221019328e-02 -3.915199297512746424e-01 -1.042645642496116826e-01 -2.467349358480938060e-01 -3.124128396995731194e-01 1.892840255857477505e-01 8.496295047108685938e-02 -1.321076500938771214e-01 7.604919798060999492e-02 6.938478208516900558e-01 2.874451159276248946e-01 3.924780231084237236e-01 -3.378605741290046094e-01
-1.973740825500256701e-01 -8.457485375115778026e-02 -8.591247183593024583e-02 -2.493318643202713791e-01 2.243511895866912575e-01 1.479345515102601372e-01 5.451022307745823081e-01 1.244832087059683789e-01 1.947334534200751421e-01 -1.188318300240060188e-01 -2.199595305500118003e-01 1.709401729140438975e-02 2.763000889761146883e-01 3.005708566777310353e-01 -2.817817035308717299e-02 -3.928674466511985486e-01 2.093189138493612711e-01 1.414326520257396524e-01 -1.459678286209740716e-01 -7.569395955200658443e-02
-3.501036995684714270e-02 7.534425513261419627e-02 -2.284975234935149313e-03 -3.288624842671469817e-02 1.088938013360356699e-01 -2.648608276610115442e-01 -7.748839233383331138e-02 -1.035209825972440295e-01 -3.828111879188038080e-01 -7.499646563094888863e-03 2.958323753821197055e-01 5.833949998683940485e-02 1.811699940510670959e-01 4.546041540615322063e-01 -5.364022186431488537e-01 3.828453489019154610e-01 4.949798931862980922e-01 -5.036019069151895233e-03 3.210064286594642713e-01 -8.821111030395105690e-01
4.630831681470990446e-01 -8.546785932845112066e-02 -2.475953526964898010e-01 -4.247181130905017254e-02 -5.251012677656579086e-01 -1.123419248597084114e-01 1.035390774627365784e-01 -7.467152204784743841e-02 -1.778433996486368518e-01 -2.196903679146057498e-02 -3.244919164559426639e-01 6.284495307180074097e-02 3.917404893362370633e-01 3.257212674347316761e-01 2.191341115598063327e-01 -3.414545231036574258e-01 3.083933359733380675e-01 1.947249996920135118e-01 4.284519267686071053e-02 -1.457725519059294983e-01
1.520303906455476028e-01 -3.648656948005725709e-01 -3.322772677049093959e-01 -2.974350993721704417e-01 -3.075409784946031566e-01 -1.404267191864469466e-01 6.509403455201636657e-01 3.048467169298463841e-01 1.559742727560445852e-01 3.032194068928893982e-01 1.833267252804522407e-01 -6.241073151680529563e-01 -1.333554520056712822e-01 -1.177621237297372114e-01 -7.590510229045106527e-01 -5.163570722147059477e-01 -2.757560952044150748e-01 -4.789428394858846749e-02 -5.535560652433293427e-01 -1.976525902615076657e-01
3.081045277496686774e-01 1.356036570209279146e-01 -6.476282733798247038e-02 2.518359313393708082e-02 -2.408032961565785279e-01 -1.442028195986956862e-01 3.600782143741230179e-01 9.264000303827864269e-02 -6.185473074721346831e-02 1.553495503600625938e-01 1.374708973152033720e-01 3.813198058224738229e-01 4.085314188626522069e-01 6.566575099063668430e-01 -1.819503671143184731e-01 -1.279013491186677953e+00 -1.935228672005653294e-01 2.359546140942433978e-01 -7.034642126482482105e-01 8.249572363355501814e-01
4.189484727410054399e-01 2.651857453731593095e-02 -2.161511898068698700e-01 3.841617934403190882e-02 -4.527919921046275609e-01 -2.916575595333651405e-01 -6.731954253885489292e-01 -4.155783120518650176e-01 -7.701539095448547423e-01 -3.240721386285612127e-01 -3.065531628441625633e-01 3.338802687875675468e-01 4.570382552578415858e-01 5.597478177170140956e-01 2.709311277293445785e-01 -1.197750031438973572e-01 5.788673971406732566e-01 2.093340993247661541e-01 2.888305967442625355e-01 -2.764392745165354937e-01
-6.100968715594924652e-02 6.934533764596459982e-01 2.512952107512315680e-01 3.406504568597283900e-01 4.676933076928747046e-01 -2.281451049870181769e-01 1.366192291594507946e-01 -3.235611739579916102e-02 -1.793400105669190059e-01 1.022554958493377547e-01 -2.071163113353248764e-01 4.512152900438823333e-01 4.840329982089725536e-01 6.286111322962544268e-01 2.087354178350979139e-01 -1.751846327520522939e+00 6.761277202489563987e-01 7.181438112866432855e-01 -1.584400620510270918e-01 1.680578415014964744e+00
9.195166029230674720e-01 3.107321334773526234e-01 -1.812136182978788534e-01 3.617427681286378149e-01 -8.349113556252446555e-01 -8.169483090898800315e-01 2.997018909788382590e-01 2.439305017647210028e-01 -2.315508980200423061e-01 8.428902548836573194e-01 -5.567120706777457517e-01 -1.118490262521924655e-01 3.281332307165044648e-01 1.151536997152743519e-01 4.094493328595139037e-01 -1.735045263508864011e+00 -5.179770566927341946e-01 1.921696289963307769e-01 -1.033409783773290291e+00 1.114409479281013970e+00
-7.305004087632793741e-03 1.668185213361569330e+00 8.336089571177927038e-01 1.069073598312235251e+00 9.544004672634274211e-01 -1.176686141304601196e-01 1.564621729603466349e+00 6.865589128428737364e-01 8.319433958159796472e-01 7.459381608504501715e-01 -1.513550321670932952e+00 -1.489675240057057426e+00 -4.294470476610123821e-02 -1.111009845553155850e+00 7.194860429735380203e-01 -8.979752965569109957e-01 9.492619766399849057e-01 6.648025536255353085e-01 2.870886402182093455e-01 8.478302236449918317e-01
1.631119997960548962e-01 3.408086814758756189e-01 5.803745109082235343e-02 1.275820295119391434e-01 6.631536512826305407e-02 7.329662750532099924e-01 -4.522655766154948243e-02 -3.972603210935853890e-01 -1.123860017470397488e-02 -1.111030068113421754e+00 -6.596167097319780570e-01 -1.354144001152858712e+00 -2.089627674737261354e-01 -7.975725860398179545e-01 -2.031959340450138485e-01 -4.399067616732337260e-01 7.822109613014482932e-01 4.586648775257124444e-01 2.894525016220871327e-01 2.137939829935257552e-01
7.010098873416169551e-01 1.024010747897034390e+00 1.574226704390387643e-01 8.327027192204294881e-01 -2.461096812052092075e-01 -6.669294455620748963e-01 8.372058042309350467e-01 5.205901170088127472e-01 2.120816903034288547e-01 1.065504239137593512e+00 -6.681531445276334136e-01 -1.808879167860468762e+00 -4.081867446129902044e-01 -1.094589883846387224e+00 -4.928244034115594197e-01 -1.583707829039519011e-01 1.032088901904799627e+00 4.966318206722893924e-01 5.452372858240149833e-01 5.231769611591624569e-02
4.971919899938846421e-01 7.055487263629132144e-01 1.300381142869475593e-01 6.060543449720935394e-01 -1.781973848706612795e-01 -4.383876168041334065e-01 8.968278703492137405e-01 4.037442334602679983e-01 2.859678681295164671e-01 7.220397342811724073e-01 -4.380416461366115066e-01 1.097862770995998938e+00 9.423197877545197443e-01 9.701734437754967466e-01 9.489204485796153277e-01 -4.091796922743277110e-01 -1.829932385791976923e-01 -1.463885265889175447e-02 -4.396035852261840904e-01 -2.789072543767090462e-01
-3.211952090072954791e-01 2.462750505329005801e-01 1.398247379826972892e-01 8.585462468810076131e-03 5.077512065991395263e-01 -1.363765621886052770e-01 3.858222587838334716e-01 8.690360691787310521e-02 -4.169145501292034761e-03 9.595935230834010121e-02 -3.215024304837270641e-01 -2.142129557293737108e-01 2.211264362761342361e-01 1.111361640671836154e-01 4.657423900529109040e-02 -3.908471890925491743e-01 -1.054871848956288716e+00 -4.949028167475747475e-01 -9.585471037492332425e-01 -8.729929002694606366e-01
1.989158410663214860e-01 7.463940940494939724e-01 2.903007749755636135e-01 5.219502248215823759e-01 2.129192900233786989e-01 -6.290074270779886234e-01 6.655934845309335879e-01 4.409546528345522076e-01 6.091691088113040942e-02 8.722790110740801239e-01 -4.516391236723942271e-01 -2.308595539122002549e-01 2.880208928997345930e-01 7.951816299120306741e-02 1.871649665930537887e-01 -2.310068783516519286e-01 -4.805842425820558428e-02 -5.912513132418327488e-02 -2.593016741461380281e-01 -4.605186506422800918e-01
9.196935090174526151e-01 1.575487162106422367e+00 4.455995806968470196e-01 1.253860685228575633e+00 -1.872686183766622547e-01 -1.037096756741920922e+00 2.114230951750836474e-01 3.187904275240842633e-01 -3.845516715586633216e-01 1.112966519315108371e+00 1.388180105489406346e-01 -1.001099424323656173e+00 -2.502073548221975807e-01 -3.689026052691747326e-01 -8.616098118250385962e-01 -4.827721410822145565e-01 2.960169046612698418e-01 1.465498029990045803e-01 -2.385782282419092459e-02 -5.725928137315949851e-02
-1.034724825239148327e+00 1.916604816868437977e-01 3.672035496234756224e-01 -2.361251380964563551e-01 1.318326718574827083e+00 -4.101532358574651316e-02 5.819934273190574547e-01 9.689302246668636542e-02 1.712732165398749284e-01 5.772844610663456499e-02 -4.462946310400939254e-01 1.041747332388291758e+00 9.199869071390265329e-01 9.016323005667525869e-01 8.827275251050054061e-01 -6.262935788979148710e-02 8.619359762499378963e-02 -1.183573792499098554e-02 -6.787565600768347140e-02 -5.941951276938307602e-01
-1.244698627957450954e-01 -5.081464331591066808e-01 -3.513021711716303730e-01 -4.039733230655189189e-01 -1.807220781067186421e-01 1.236785229041435230e-01 -3.582428243356111652e-03 -2.074830406746858147e-01 -2.128556577748217937e-01 -4.487721720809491055e-01 -4.468490095521281125e-02 2.476917274120978563e-01 3.947683868645408545e-01 4.683639951034598292e-01 5.065986815929790499e-03 -7.774889088372562984e-01 -1.522749237112221432e-01 7.473039693275895790e-02 -4.508683938236435762e-01 6.169800300274591587e-02
-4.510798057122730187e-01 6.192822139261573433e-01 4.076508746555582152e-01 2.212178801371929571e-01 9.038483787590068097e-01 -1.068230792579069194e-01 1.535873678940799514e-02 -1.041843225036084980e-01 -2.472354423570979065e-01 -3.857739450021313576e-02 1.649317992562565616e-01 5.809189292607758182e-01 5.209536967767246507e-01 7.413014536554285439e-01 -9.130898202113241213e-02 -1.575601646975939851e-01 6.784757048379976840e-01 2.433284594264207568e-01 3.533521035427377166e-01 -2.086862294758448366e-01
1.470438011089004737e-01 -2.078237194237554097e-01 -2.192152241765968901e-01 -2.171482102058746033e-01 -1.998561887395900460e-01 3.195866833091152159e-01 2.877703062380806420e-01 -2.600342431263513721e-02 6.174613231050077311e-02 -4.740521644243305133e-01 -5.060275188050510353e-01 -4.135897273556536358e-01 2.018992563107149529e-01 -1.342563928696128006e-01 1.827427259851886476e-01 -1.223455686674341236e-01 2.731204815995184054e-01 1.488379026234741553e-02 -4.772337359868851492e-02 -4.498224929488273127e-01
-5.342661799956442970e-01 -1.889805984028557206e-01 6.387552220244067935e-02 -4.536459173320451232e-01 6.586106425502412653e-01 -3.718401716856686301e-01 1.242289507787130987e-02 1.444964759252403974e-02 -2.870542886277118733e-01 2.725946131346573265e-01 -4.736833569618251749e-01 -6.051797585883378350e-01 1.137252766184924241e-01 -1.996532575659670239e-01 -1.763991338321549418e-02 -2.379580248677627408e-01 6.138721659845257361e-02 -2.412283019976574350e-02 -1.793454812130882425e-01 -4.426904140241721963e-01
2.015318817663636075e-01 1.565470800219447289e-01 -9.143677058859726869e-02 2.095933124890024535e-01 -1.976849330287010764e-01 2.839247223652411889e-01 -1.009268534940163664e-02 -1.515540562809323533e-01 -1.416723588708586334e-01 -5.463541263441474838e-01 -2.450944800125923195e-02 2.521173839251407145e-01 4.318436141215898916e-01 5.601758537689704998e-01 -5.118873235391481480e-02 -6.077555175070837867e-01 -1.867987570823796406e-01 8.237839209424796527e-02 -4.851372994278179140e-01 -1.435445385528144602e-02
2.845756210828404575e-01 -2.041041047413858778e-01 -2.967138178374091328e-01 -1.989437598987077727e-01 -4.839858370548867361e-01 2.255342307437525895e-02 -2.266780687965706254e-01 -2.424293082596025162e-01 -3.440160738194110723e-01 -4.843502009333354730e-01 2.242657465603772882e-02 5.612678207243504414e-01 5.839585835616023513e-01 7.447683467727896911e-01 8.023947497327865719e-02 -2.644839330389430754e-01 2.847643612663908752e-01 8.798536073048544848e-02 -1.055623985336651138e-02 -2.538962078185071913e-01
4.594784478688500595e-01 -2.622983782445262868e-01 -3.113215770902513224e-01 -1.563482202405547250e-01 -6.646359747216619152e-01 1.603113772759950650e-01 9.156130310554112528e-01 2.004099221303693723e-01 4.961707660131031705e-01 1.122169494543077961e-01 -5.611623364820541582e-01 -3.292478544146160147e-01 2.499413826976523700e-01 -5.048357415429546857e-02 3.275336096215074599e-01 2.682826838577556106e-01 1.717634093684781704e-01 -4.658235160940904507e-02 1.195877349271469298e-01 -9.063356842893750542e-01
5.083733188334511599e-01 -2.160949587206280331e-02 -3.173961720633686756e-01 6.800242343598066064e-02 -6.023007224400221959e-01 -3.027094285160920606e-01 2.030807594181513742e-01 -1.048350292173495235e-01 -5.481817362265137272e-02 -4.000788921939630455e-02 -6.165582814503646480e-02 -2.157495017170920626e-01 1.706472293498813020e-01 2.095182154406493302e-01 -3.088245185385870561e-01 -4.238313463817369176e-01 6.717813660627075523e-01 4.278122443626221627e-01 7.266175185936436798e-02 2.360927294303764024e-01
-8.908542051745887980e-02 2.366463678124656744e-01 3.782665151260942993e-02 4.480952523207368254e-02 2.621983623929015628e-01 -4.119294805189492592e-02 3.417615410980946455e-01 1.149565618517585514e-01 -4.837948476294869071e-02 -2.137172002046283659e-02 3.713400756346030840e-01 -8.254874279624343503e-01 -2.021267601445799478e-01 -3.102134584184017552e-01 -1.073437327204901148e+00 -1.941701047951006620e-01 2.404891144066173270e-01 -4.486497801930433571e-02 1.542562050338161517e-02 -3.380232578955561507e-01
5.532536816981623584e-01 -4.621350721864717070e-01 -4.075296647494064950e-01 -2.339771386875006409e-01 -8.249303143116553105e-01 6.159848346186972412e-01 -5.840542889694948503e-01 -6.861928519465079201e-01 -4.222754188624879834e-01 -1.246755785861032750e+00 -6.983691658793929058e-01 3.107237297863979508e-01 7.011440183656501013e-01 3.988104016372836513e-01 7.705560357462371002e-01 -9.861332836341824004e-01 -9.161715449549245882e-03 2.344329423186854722e-01 -4.730497174311152908e-01 4.842481009933450320e-01
-3.205187880338109530e-01 -4.666687757466949082e-01 -1.518491858333635425e-01 -5.349681353123263428e-01 2.216373512819242719e-01 4.784008180410244115e-01 1.156794183180123836e+00 2.707878859844039532e-01 7.882523018435023676e-01 -1.914134826046963167e-01 -4.088055655624835971e-01 -7.750054953761023047e-01 -3.326597491892108183e-02 -3.826875282863768102e-01 -2.120972739289829212e-01 -4.321408873358396074e-01 5.649656115353193231e-01 3.430262590176191839e-01 7.593884481992101143e-02 9.438461818542109860e-02
3.988690310314665366e-01 3.559824032488972945e-02 -1.553421366776071011e-01 7.527504251745736896e-02 -3.583921266809476092e-01 9.503875589290042836e-01 2.152241122587100763e-02 -4.470410683294194776e-01 1.161485234245581422e-01 -1.380843295270958171e+00 -5.959100675829426264e-01 -2.497464921629930501e-01 3.295760917546439739e-01 3.018456873804900575e-02 3.426841023240053685e-01 3.965352020508571829e-01 1.209866587537162363e+00 3.257761826288616547e-01 8.297981603447898147e-01 -5.197822918134974435e-01
1.419293907705791336e+00 -7.901295813532969170e-01 -9.197631199580890149e-01 -2.248002827960910999e-01 -2.046562651562237711e+00 4.178020931254655124e-01 5.888747286700020123e-01 1.219413615044622479e-01 2.607283155766018101e-01 -3.826189677920083243e-01 -8.161420404535710826e-01 -6.964546392785928575e-01 1.765230586049583161e-01 -3.518465078184777051e-01 3.863973837192393179e-01 -2.626523084160385935e-01 -2.160497649238341533e-01 -1.566224542441209400e-01 -3.763802675598399983e-01 -5.460862819146095060e-01
7.410388322480400414e-03 6.394423034183253085e-01 2.056785958990798857e-01 3.584552102422365882e-01 3.739684944153203738e-01 -7.293857377676700171e-01 -1.260309981667049606e-01 -4.503750564040492899e-02 -5.792553943007083816e-01 5.204295586814952079e-01 -1.343900645322873288e-01 4.492789690162024563e-01 5.330967730180679043e-01 5.737033247619561793e-01 1.429448663755044369e-01 -4.089519224367748618e-01 5.665628165434799524e-02 1.066264593059935151e-01 -1.705966399148236556e-01 -2.207080944074310547e-01
7.421762385415279217e-01 2.870444785796694154e-01 -1.986490044380046505e-01 3.575374859354092938e-01 -7.348570096525823825e-01 -7.221340031297249218e-02 -2.469389972766025676e-02 -9.497369802597621646e-02 -2.206298028617644513e-01 -2.110779216110329481e-01 -3.965058667711449658e-01 -1.082426793461777059e+00 -2.416432835289101244e-01 -4.672904487622276393e-01 -4.280780871099909568e-01 -8.762876622826294426e-01 3.094567223355216834e-01 2.226075687417910787e-01 -1.554077173596701555e-01 4.479091297354396151e-01
3.842716683550229662e-01 5.541573169662815379e-02 -8.220375938494260681e-02 5.563461328935673245e-02 -3.569482035558142474e-01 3.671684944528017525e-01 6.549415012911052880e-01 1.038349660275826314e-01 3.482833278427318602e-01 -3.294103027382617732e-01 -1.536650930789275615e-01 -8.814002866284476045e-04 2.435363754492147481e-01 3.534627171701603121e-01 -1.694310752111287677e-01 -1.164638532318549746e+00 -6.041172671087572388e-01 -6.304109141800401384e-02 -8.773040467581191271e-01 3.871785884411801382e-01
-3.012338086163176554e-01 -6.877321004900394108e-02 3.242394047445029681e-03 -1.804693381912795269e-01 3.714071057403152132e-01 -4.652413506836842183e-01 -3.455141627874273036e-01 -1.841450959041456004e-01 -5.526700102686095128e-01 -2.309999096074642766e-02 4.062207599196583363e-01 -7.469384021048877664e-02 1.314916083341558795e-01 4.515449213014243179e-01 -7.951025395563489084e-01 1.935630397545257120e-01 5.001661806970445490e-01 7.568792287491343806e-02 2.580144935755815383e-01 -6.787103900330855311e-01
5.981664250351942380e-01 2.496220373129285630e-01 -1.169111753619434119e-01 2.412494695981418080e-01 -4.910772568215054368e-01 2.449580111821955675e-01 4.589555215209944472e-01 2.665200344512050346e-02 1.627889313070867150e-01 -2.484771678466174971e-01 -2.933034795549250284e-01 -6.472553495197128637e-01 -6.060840958706376069e-03 -2.382201261291899408e-01 -2.241665698107051519e-01 -6.444249098403336262e-01 -2.408469110798912571e-01 -2.688466371335890281e-02 -4.634937821423096849e-01 -9.108542219006635077e-02
4.160549227494571012e-01 -2.068470434034153094e-01 -2.693790769933805951e-01 -1.041324498263646314e-01 -6.003658713852855211e-01 3.616042674213557073e-02 -6.198704392356196857e-02 -2.321083122829943057e-01 -2.435423528850946817e-01 -3.917575931909773601e-01 -6.549598171011123959e-01 -4.024066658826775944e-01 2.828812415095197652e-01 -1.169734537911506500e-01 3.048740367558266939e-01 -1.110505777434978469e+00 4.014163193898758752e-01 3.958439913543088662e-01 -1.592173268226153571e-01 7.691813876695983154e-01
1.996436268617607368e-01 4.656332702808615998e-01 5.912541417450439818e-02 3.078922004322797723e-01 8.520908466820623084e-02 7.535352321356357796e-01 1.060592446678894213e-01 -3.480650173747372178e-01 1.021891583999412628e-01 -1.041624815382491853e+00 -3.869020546844786912e-01 -8.375735553296432823e-01 -3.265362040600966465e-02 -3.188579452530988512e-01 -2.783539007714026514e-01 -3.350193287352866145e-01 -5.820420241092890690e-01 -3.044958792307926876e-01 -6.423726696188710727e-01 -6.602486735354589076e-01
3.690043151220000484e-01 6.592713532909458829e-01 1.548838853753192191e-01 4.517993780365717749e-01 -2.307625992157294123e-02 1.097886552986972575e+00 -4.306935632113489953e-01 -7.134637353802615323e-01 -1.983008842214662726e-01 -1.773101206650250061e+00 -9.380194679086042431e-01 -2.115099164900053064e-01 4.820388418732146629e-01 -5.997498525210634424e-02 7.817626339333056951e-01 6.503828142572943838e-01 2.447967221371950775e+00 8.182617786632846446e-01 1.791760045835807169e+00 -1.718122159343033473e-01
-8.044196085803541341e-02 -2.179395738619502865e+00 -1.128607923087792564e+00 -1.581101669544630717e+00 -1.098223124891444469e+00 -3.310543939844085570e-01 5.249739747001639367e-01 2.099978320680004618e-01 2.525129057248789999e-03 4.394967906430552462e-01 -1.565050472431008366e+00 -1.113370957241592407e+00 1.552935821703476105e-01 -8.646428685485543220e-01 9.145197007437088077e-01 -8.619588925467430718e-01 5.565279763153907489e-04 1.675680347188378549e-01 -3.719898123913879529e-01 3.037964250302969682e-01
-8.805778869905359629e-01 -6.091613558367731107e-01 -8.577415536689787789e-02 -7.368477091263053724e-01 7.942515090721120607e-01 -2.055060164689010982e-01 -1.233584059936887189e-01 -1.712962432273521518e-01 -2.936235721016620115e-01 -1.380296182917567505e-01 -4.595858355108184967e-01 5.236319903719097724e-01 6.637726395320738826e-01 5.628945290323521533e-01 5.844435702618298034e-01 -3.960980653060755530e-01 5.870273762306642551e-01 3.542179896887283075e-01 1.790146054622331895e-01 1.276909156515138588e-01
-7.253519897937807381e-02 3.035425630750528958e-01 2.559235170682121474e-01 1.298560678153339309e-01 3.902952623267580967e-01 -3.564178494448322909e-01 2.007144483985234540e-01 9.047048794256179471e-02 -1.308163934843164788e-01 3.010110720426292241e-01 -4.936573933064903885e-01 2.986893456437550443e-02 5.035522498362797750e-01 1.656487607741115864e-01 4.685357964551318255e-01 -8.893898019629031815e-02 -2.230424761026658653e-01 -2.256532930943664916e-01 -2.671187625801481613e-01 -7.851311312337442283e-01
-7.287543781439682622e-01 -1.446804743753726252e-01 1.724976105859641895e-01 -4.421867851336471200e-01 8.017230459680748655e-01 -4.691304174372736835e-01 3.909378021950871140e-01 1.909412055860173485e-01 -2.946599942043076625e-02 5.086891702113383040e-01 -2.668905814617571481e-01 -8.171377302829145595e-02 3.377609738842403675e-01 1.902908961249165642e-01 1.019185142681228173e-01 -5.947843088898601138e-01 1.705252932698511081e-01 2.451661962503275116e-01 -1.724022877563001765e-01 1.503822525987096870e-01
4.826714665308638463e-01 2.719457690071982320e-02 -1.803152478627058353e-01 1.265122204402862605e-01 -5.660605481193315969e-01 4.026034061472290038e-01 3.063494455066275712e-01 -1.034754959169849609e-01 1.588149339197108545e-01 -6.252514709015198902e-01 -7.621473051348275074e-02 -7.098357072840946747e-02 2.671275941703166179e-01 2.808299402685916490e-01 -1.893513462590967200e-01 -5.815440812847845198e-01 5.044481792537054421e-01 3.530828773357446160e-01 2.878407978679732582e-02 2.796138394581876296e-01
-5.304202218308278205e-01 -8.574697677867467727e-01 -3.299610435155452826e-01 -8.473920422644951600e-01 1.889598277543571847e-01 -4.423890998204525471e-01 3.412530610175752432e-01 1.547802122856835605e-01 -8.296130344030153148e-02 4.596832275907003496e-01 -4.324137038222351515e-01 -4.937488946847269911e-01 1.291044203683183178e-01 -1.157037901998757001e-01 -1.755055228383226029e-02 -7.022131973881353684e-01 3.529136343721813729e-01 2.991294502946107992e-01 -8.637675076631684545e-02 3.130175459298333296e-01
-3.364919594565821126e-01 -8.051819578155392509e-01 -3.512098912678640050e-01 -7.442615853561578287e-01 1.050685779217615939e-02 2.374944247676420428e-01 3.747780090940048270e-01 -2.199635313643097390e-02 1.457647312808114659e-01 -3.282237938156097878e-01 -2.939977070363346545e-01 -6.197358594323574277e-01 6.557652743469985501e-02 -1.834839354129061961e-01 -2.014111636410665651e-01 6.471886218784650424e-01 8.043580043301340465e-01 1.431848872148441532e-01 5.858534392125062107e-01 -1.002399728921484767e+00
-2.585141556161448806e-01 5.347003693529626123e-01 2.800944878467642174e-01 2.072408292565796895e-01 6.767484276312060176e-01 3.446514207776043559e-01 5.045919008670168848e-02 -2.136184463513396969e-01 -1.432911720747245821e-02 -6.616175565601388753e-01 1.756298288605068203e-02 -3.429020625157094271e-01 1.040433480161285229e-01 1.179947204894771784e-01 -4.235456826868377878e-01 -3.141572711056662137e-01 1.279559463579130196e-02 -9.072236790191298694e-03 -2.154098368038962763e-01 -2.854555058140983426e-01
5.731081126298368522e-01 6.265657780902145202e-01 1.311293759983591101e-01 5.298668744799830410e-01 -2.596394650446931518e-01 -3.775014079144047852e-01 9.377421621993786705e-02 2.238359677185613322e-02 -2.084227425643295217e-01 2.024349865359716949e-01 1.305852381785809202e-01 1.652650299525026123e-01 2.819660954788402174e-01 5.590485850536043300e-01 -3.221697805975157758e-01 -8.163022332097048528e-01 -2.339416611391137435e-02 1.020504911785257429e-01 -4.228129912715186123e-01 2.208536362800221919e-01
5.597788437485052837e-01 3.192172471822334878e-01 -8.701439605216047812e-02 2.668719087675682222e-01 -3.883664852614494567e-01 -1.370946972462289692e-01 -1.603473991224224626e-01 -1.447047689532880987e-01 -3.329268432600689387e-01 -1.735286349134042561e-01 -4.216108298981254277e-01 1.340242730210785826e-01 4.728492605639613156e-01 3.248241132383817842e-01 3.651576724750655867e-01 -1.901218808096538648e-02 7.808566179994184120e-01 3.194322275102969844e-01 4.165149721345290379e-01 -2.505118641346856800e-01
6.515626044393370286e-02 -1.197241226086587784e-01 -1.441787156992689334e-01 -1.369198755396983103e-01 -9.709270244319750942e-02 -1.860206431191271659e-01 2.282760939842807812e-01 3.700291811025270550e-02 -8.167640015294329314e-02 6.181315774962556353e-02 6.326993818695955674e-02 -1.398440912926066371e-01 1.726901639407111000e-01 2.509745305942596705e-01 -3.255557279931681203e-01 1.618090070395244440e-01 4.901756417657341380e-01 4.957671545728720153e-02 2.989453862016405727e-01 -6.352667058506151765e-01
1.219081946119850990e-01 -2.071741504104964715e-01 -1.880609613946077618e-01 -1.873887558281619736e-01 -1.759440020441206676e-01 -7.391449658026337521e-02 5.456265701180697258e-02 -9.463174728143650127e-02 -1.499869482133582843e-01 -1.444357290980978203e-01 5.421815184367893004e-01 5.495368473261977305e-02 1.763100105024615061e-01 5.462418363734572457e-01 -7.832544140903013874e-01 -6.255763109466175864e-01 -1.222488566005576205e-01 6.054528485958277084e-03 -4.537630273745461018e-01 -6.478750329387852891e-02
2.124457821235098409e-02 -1.354368255317110192e-01 -9.026789873403884279e-02 -1.655825221897390398e-01 -5.710490387885965025e-03 -9.907466283857957468e-02 5.187913797252433623e-01 1.464693775184201241e-01 8.205701675024898445e-02 1.160391489208879856e-01 -2.530168013190285947e-01 6.320006797522599307e-01 6.682446460186349801e-01 6.989205278627923512e-01 4.382380177041514946e-01 -5.643466179463295651e-01 2.509888622135759140e-01 1.924729665542169177e-01 -1.298619131899740875e-01 1.097719183155472789e-01
1.172392551393706545e-01 3.115741483598823136e-02 -8.984946901650643636e-02 4.686184445305975610e-03 -7.112991566289778023e-02 8.725144310737051323e-02 1.321270524394463908e-01 -1.513183939882558893e-01 -5.778400846504475052e-02 -3.338130246415207392e-01 -8.315945827038595528e-01 -1.822669779813114732e-01 4.357101283129864444e-01 -1.510219605514015462e-02 6.497358244884221534e-01 -4.156820218923101273e-01 -5.707435538439493694e-01 -2.448808152833319984e-01 -6.544327214894021250e-01 -5.561898063321151220e-01
2.933587650713130879e-01 -4.302179932520247552e-02 -1.516321232148394871e-01 -1.286974188385933693e-02 -3.359126009155528059e-01 -4.945842924421463560e-01 -3.590885801933563770e-01 -1.813631030201255934e-01 -5.848261480046548222e-01 1.265786987129322583e-01 2.813545558174140870e-02 -5.584896443471827343e-01 -2.754859707164372673e-02 -8.313949828618547033e-02 -5.522331683436814131e-01 -5.418417720377326496e-01 9.951482252199933543e-02 8.039499479157102835e-02 -2.292390483035817716e-01 -8.025008689719720367e-02
1.459793046158052165e-01 6.154754501929526889e-01 1.800720075507013240e-01 4.000087449230426695e-01 2.009127646087131569e-01 -3.442820827248257998e-01 9.943265252884797567e-02 7.048948755038866865e-02 -2.909661287679570219e-01 2.587709005515400618e-01 -2.414931397990422446e-01 -2.766693749128871782e-01 1.808801728865455094e-01 1.363534580620459624e-01 -1.086297295055249912e-01 -1.032642656994225971e-02 1.752709238369292155e-01 1.495647279938297491e-03 -6.533528359751350489e-03 -5.799478698517006592e-01
-4.395870480838229288e-01 2.390258099563959404e-01 2.098867348973513236e-01 -6.330710947779807918e-02 7.008900375807207705e-01 2.046213453538337501e-01 3.474309313577517155e-02 -1.679672796512021171e-01 -1.010386317508791265e-01 -4.700477578463829742e-01 -6.982351922396583532e-01 -5.065369097304476265e-01 2.526777167212916342e-01 -2.164022626786886172e-01 3.502312371718568906e-01 2.416010543629626417e-02 8.575305016405379566e-02 -1.183607960549393212e-02 -4.492046997470107439e-02 -6.872244879050540822e-01
-1.071137434453954679e-01 -8.092100986777828187e-01 -4.546840191903508410e-01 -6.664563266847034484e-01 -3.297033793538327040e-01 -1.216827781547414444e+00 -6.376317157076633046e-02 2.314785814871299641e-01 -5.965573959839368667e-01 1.102182676769918324e+00 1.516519068620283406e-01 1.372257964646228512e-01 3.529067992470875104e-01 5.123545560953690625e-01 -3.178642645020068880e-01 -1.410198316899398396e-01 8.208689083113265283e-01 3.255474060728845709e-01 3.671932747328365276e-01 -5.949558775330610061e-02
-9.934696140620584426e-02 -4.778501469518272038e-01 -2.621392829337718666e-01 -4.771335288380026407e-01 -1.172074088570358580e-01 -6.433434717647834589e-01 -1.855607201096928227e-01 -8.532707791368286665e-02 -5.003082780619807490e-01 4.091003752308415287e-01 6.300170617187758060e-01 2.680742089228449476e-01 1.760146307204408511e-01 7.390070167659068545e-01 -8.476305174846849866e-01 1.262012252155304548e-01 5.843235284710015520e-01 1.763869927816256733e-01 2.619800954940202375e-01 -5.195093408594287920e-01
-2.494580650147484313e-01 -1.554025810373330929e-01 -5.095856218503194701e-02 -1.853549809168310025e-01 2.364737528427934277e-01 -2.773108449429519118e-02 9.755275006496076651e-02 -1.399941584558503926e-01 -1.361181213934326562e-01 -1.523675991510809458e-01 -9.269540358982714112e-02 -5.789808487378903523e-01 -1.048718506390813876e-02 -8.734864245648607528e-02 -4.156438747646803988e-01 -4.788475698789065316e-01 3.002696915969450542e-01 1.506307011400176976e-01 -6.082007691944511102e-02 4.285893950596425528e-02
-3.731172368409586548e-01 -1.351646325788977976e-01 -1.825219606261389502e-02 -2.831242748576671131e-01 3.812629517378949839e-01 -5.887846142042509889e-01 6.380786070133970256e-02 6.667318935479411846e-02 -3.792414689025743746e-01 5.451200901707571322e-01 1.523958350964889352e-01 -2.904193791997095042e-02 2.470435697759749138e-01 4.156721025489481525e-01 -4.359047826550643823e-01 -3.347528532509022048e-01 3.793044757632054731e-01 1.367905743513956329e-01 8.959017367499191864e-02 -1.200370541699124771e-01
-2.899512604171086139e-01 7.860978946123658995e-01 4.239728468353168855e-01 3.219490639341391347e-01 8.396469121485651277e-01 -1.940563348570407687e-01 6.978204566696689648e-01 2.671537317352921104e-01 1.957236082783366249e-01 3.374017134661658202e-01 -7.749537305786246000e-01 -6.557968924199306660e-01 1.803799129821480052e-01 -3.239552708353118371e-01 3.698229054726910325e-01 -4.441033468674748796e-03 -1.785505422920595775e-01 -2.918488460608799073e-01 -2.412739757626710668e-01 -8.813451278345092454e-01
1.988546942008052321e-01 5.929699545972654251e-01 2.049965022676100701e-01 4.199842084340504877e-01 1.626867750260569401e-01 2.611457782847445008e-01 -4.441423126227460605e-01 -5.555173589157634817e-01 -4.173829477363066864e-01 -9.014465422587081278e-01 -7.915223229934914562e-02 4.375590889534356487e-01 5.158382926998583695e-01 6.213480177143804184e-01 1.490063754801588813e-01 -2.699681241479263138e-01 7.013872933377849339e-01 3.026458306069980120e-01 2.904259387910230195e-01 -3.527482800039127842e-02
5.362636468383527033e-01 3.789800142185706933e-01 1.397695202429083405e-02 2.713038064661861259e-01 -2.766592500753233819e-01 -3.188982717197270111e-01 -2.694958327428256251e-01 -2.456858930986240142e-01 -4.847376435003403761e-01 -4.161049610771622859e-02 -3.606726151540397551e-01 -9.637315169413414317e-02 2.606617673113680866e-01 2.362772535355003034e-01 4.911600990441111758e-02 -2.948244874305357421e-01 -1.120754120347760008e-01 -1.700504196552413139e-01 -3.039902386320539884e-01 -4.404069395375315166e-01
2.852397409611063250e-01 -1.581184746452249656e-01 -2.146285069353987829e-01 -9.796914537950809909e-02 -2.783227653112391731e-01 1.145305535683396603e-01 2.540761135536984128e-01 -2.771720507142382689e-02 -1.952994505992433627e-01 -1.483300679340418537e-01 7.652861853647943691e-02 -1.422856560911391344e-01 1.316166624914330840e-01 2.222975269099588536e-01 -3.914974594131523933e-01 -2.818800336341265589e-01 3.117390494407257240e-01 8.471202332208740970e-02 2.216200376562726948e-02 -2.879964508714413784e-01
2.082773539837852184e-01 -2.446801816641727134e-01 -2.272684806487687836e-01 -2.146348008178926015e-01 -2.577663290585228140e-01 3.216522352896963866e-01 -2.672873311921222794e-02 -1.925739423016325502e-01 -2.001626886484932921e-01 -6.478683901169237647e-01 -1.943063071372516659e-01 -2.400947745451319504e-01 2.268748795857212230e-01 7.253950008345806666e-02 1.960147627881769772e-02 -1.922987165721065650e-01 1.121083391831520504e-02 -4.039512016501491110e-02 -1.494675493165923963e-01 -5.796740731527989521e-01
1.166289455703693467e-01 1.379490451752870828e-01 3.007973723208880179e-02 -4.156624845629078996e-02 1.815806910432861063e-02 -1.823504260381021147e-01 -1.997301417099587861e-01 -2.506178533051914292e-01 -3.422383450340984457e-01 -2.724871205511282257e-01 6.781371213258399755e-02 2.586497886791683243e-01 3.958632512842921169e-01 5.050889024052312992e-01 -1.163452102201257554e-01 3.684250773357592434e-01 5.084418746237422404e-01 -1.865648894578433858e-02 4.121391771453605246e-01 -8.593745806195138837e-01
-2.918369536756857952e-01 1.259051769484233474e-01 7.309855919526760115e-02 -1.478474498957406125e-01 4.900649582536817928e-01 -2.120204960942974615e-01 -4.051998722545542275e-01 -2.368497963747778212e-01 -5.759553169091086167e-01 -2.569236120783796040e-01 -6.739911354099545893e-01 -3.923791932521788484e-01 2.371901981758995637e-01 -8.723324614707186897e-02 3.208554491700125744e-01 -5.541178105023331080e-02 8.848752428009125648e-01 3.671543570029882075e-01 4.444276506106459856e-01 -1.253503367947265412e-01
5.847133457426937353e-01 -4.241222696748904175e-01 -4.515446475658188574e-01 -1.687230803505709864e-01 -9.238915972386148034e-01 -1.804762448784789641e-01 5.581428473065305207e-01 1.931953558569976526e-01 1.029254176224778106e-01 2.320128719547552842e-01 1.338007801948081221e-01 -9.017891762694822955e-01 -1.824816870512631639e-01 -1.877392154151702464e-01 -8.895066311800770009e-01 -6.085210264033790173e-01 1.445708795186564921e-01 1.222822814724035673e-01 -2.127126881123963531e-01 5.155299018697651059e-02
-8.001924037769327924e-01 -4.272261112767832825e-01 -6.120551791224962401e-03 -6.068292792575540329e-01 6.747968300613035320e-01 -4.324194381587281866e-01 1.995620915230492676e-01 9.350315190161949397e-02 -1.702922395779324638e-01 3.161768477717771253e-01 -6.393258461257503855e-01 1.392904593995999141e-01 5.299300925353301883e-01 3.299483124649827959e-01 5.450525414936835400e-01 -8.367793212175775874e-01 5.394885169630165844e-01 3.698391933046185076e-01 -1.950440422025478959e-02 5.701411394081370432e-01
-2.413063744133792654e-01 2.732066750697609847e-01 1.892937088940390145e-01 5.291177145681857236e-02 4.551520252190821569e-01 2.463977687061563726e-02 -7.386691006461778564e-01 -5.081888784065080600e-01 -8.107480654422163369e-01 -6.996657347702078811e-01 -1.787551154607642245e-01 -9.221114582298477469e-01 -1.072148259240294499e-01 -3.266946654408038331e-01 -5.366903199828313431e-01 -8.417381093455586494e-02 5.826520499722934177e-02 -7.999481553406395662e-02 -1.525492517391296432e-01 -6.262047370628550658e-01
2.446735255727781888e-01 2.711292991752943804e-01 -2.964487748498081249e-02 1.302324856046328527e-01 -7.098952872340066889e-02 1.086623258400726266e-01 3.519845672883462062e-01 9.104086364296190559e-02 2.621573197402993216e-02 -1.672247876876738204e-01 2.558071755613495757e-01 7.503723160625795918e-01 6.137660595609680803e-01 9.054730349416331148e-01 -6.644776162172406908e-02 1.116154683872852549e-01 2.451810746107944694e-01 -7.497436075573993275e-02 6.343654148315046315e-02 -6.712152791282168796e-01
-1.566876477470928730e-01 -2.194680697822012638e-01 -1.677467020512694029e-01 -2.578768291473060859e-01 7.360342832154999348e-02 3.457145763708323050e-01 -5.813908010792501191e-02 -3.185862631103915099e-01 -1.646015397316215323e-01 -7.455425052893978055e-01 1.609285785796790713e-01 -9.604455545714545017e-02 1.614059431907453879e-01 3.205137463351244165e-01 -4.017079452366326686e-01 -2.785409872973532708e-01 1.452569774029138505e-01 3.042876487153661075e-02 -2.017722093791519955e-01 -2.613217963974127089e-01
