0.000000000000000000e+00 5.359342559015276009e-02 8.679621312072663408e-02 0.000000000000000000e+00 -3.736143528692437155e-02 0.000000000000000000e+00 2.329493335084907857e-01 -2.243015429821712536e-01 0.000000000000000000e+00 5.592223064651646869e-02 0.000000000000000000e+00 -6.738212358284000336e-01 -4.791962512788680018e-01 0.000000000000000000e+00 -1.508971322277141702e-01 0.000000000000000000e+00 8.608841437858477663e-03 -7.725870110477324193e-01 0.000000000000000000e+00 7.644999257883361432e-02
-1.242193473543635601e-01 2.471154620473163810e-01 4.159705234178068256e-01 -5.779323168444888692e-02 -5.634217164328229888e-02 -1.845807588640970276e-01 2.532746081607936128e-01 7.951931213284675615e-02 4.126112634602605023e-02 1.585324075892797016e-02 -5.202006572666790785e-01 -1.534131970211213003e-01 6.189927924253968428e-01 -3.034679677637674988e-01 -5.559324772981191209e-01 4.920348856495926348e-01 4.917474945448745416e-01 -4.213485929556944898e-01 -2.990319863697517566e-01 -7.142381932386314691e-01
-9.667688759670814425e-02 7.014744966652368685e-01 4.896598077088610834e-01 -5.020065941540401422e-01 -2.224702926340371145e-01 4.815104634398734151e-01 1.974724981332985629e-02 8.680250133515149402e-02 3.967856516432011205e-01 -5.190262474854659969e-01 -1.852397294065052102e-01 -5.315175441636935671e-01 3.608833499893271957e-01 7.517127675757262484e-02 -6.861257397664430879e-01 -8.904190230773136872e-01 -6.493972553135440862e-02 9.915902560702855029e-02 2.297391849602666708e-02 3.610198343417042599e-02
2.483079267423216607e-01 2.620759556599655538e-01 -1.187496020602733932e-01 -1.753339262444968683e-01 -3.898974985491028555e-02 1.587726839167649673e-01 -3.890314842025233144e-01 -6.026017561291601154e-01 6.175447071056306969e-01 3.720852290028937581e-01 -5.302033441594289354e-01 -2.620028676626022790e-01 4.226179630010456489e-01 -2.844412766100640200e-01 -4.297759849624957496e-01 1.524762453719203936e-01 -2.693953658484757874e-01 -1.100638319312009283e+00 2.813266832316321797e-01 2.007472534969883815e-01
-2.667742789129863568e-02 5.517141888664693905e-01 5.438202666440874328e-03 -5.533003622272850697e-01 1.106669229160083812e-01 -3.378552179611881146e-01 -5.413038599711850196e-01 -7.209402987407218522e-01 5.408803627478598886e-01 7.963593768037993126e-01 2.861196676792632232e-01 -4.511220777964910500e-01 -8.289782509293471824e-01 -1.990854856342957335e-01 -1.058027678165394114e-01 -3.272855836823456710e-01 -1.080726513060031868e-01 -4.252822289148258106e-01 7.398517596852777212e-02 -9.321529043856885410e-03
8.402038896295243031e-01 5.529875818600895609e-01 7.827770695010420610e-02 -2.161396502745394632e-01 -6.665128141586151855e-01 4.819935260085319029e-01 -1.391114729036344033e-02 1.305106700768984274e-01 4.926308061725096499e-01 -5.615234765856118582e-01 -7.500260726722171034e-01 1.032971002746131184e+00 3.868004054262847990e-01 -1.670166814974652914e+00 -2.836447136429746663e-01 -1.512159234082552928e-01 -3.471057721832881970e-02 -4.167414725769271189e-01 9.608677857950789769e-02 -6.686179925003515878e-02
4.439798493769778753e-01 -3.575375549879171722e-01 -1.054479447937796799e+00 2.599161450520848793e-01 5.733460400068117746e-01 9.010080985078182669e-01 4.883542754303966671e-01 -9.559798558685623782e-01 -2.438926497042495367e-01 -1.073576336384183261e-01 -7.796533342209075457e-01 -1.014436613875680404e+00 4.783426664357597891e-01 5.044082087978303264e-01 -1.102584487930001744e-01 5.858146587411665607e-01 9.298611774901542892e-01 -1.268111724024400866e+00 -1.000175985966287318e+00 -1.201383467392565796e-01
-5.506122770505065267e-01 8.148594459310694038e-01 -4.028237172845617470e-02 -9.193283204409274934e-01 4.866580888975862162e-01 7.784125089486881865e-01 1.755421824751788318e+00 5.904071122350862399e-01 -1.116984635831314243e+00 -1.285342421827552428e+00 -4.805587295849101936e-01 -1.209551504924417098e-01 2.729331123225560596e+00 3.309974570227314783e-01 -2.274421394972619748e+00 -5.679652634031598923e-01 -1.985754001683364800e+00 -1.739100623075523266e+00 1.679900314853742804e+00 1.413393859018319265e+00
1.568502145212872900e+00 2.641538284032308503e+00 -1.893606520214750510e+00 -2.757988624162817981e+00 1.981208615994958233e-01 8.652145390575968209e-01 5.983465785698920403e-01 1.527066571509917203e+00 2.969243731701488032e-01 -2.083025551623451044e+00 -1.194816230572754545e+00 -7.265300283601071607e-01 3.267270473261891794e+00 8.868059617666863570e-01 -2.131019684320235807e+00 -1.199613532728303067e-01 -3.492257071388391587e-01 6.310579287020217087e-01 7.371625430518486954e-01 -9.110454111237179520e-01
-2.645600848432346219e-01 -2.184978566402450806e+00 -1.600316831202673873e-01 2.235474738438728348e+00 4.609637429136739795e-01 -7.543568110899429024e-02 3.030772855820745626e+00 6.922024966527248191e-01 -2.607536320366346416e+00 -7.407832783233643248e-01 7.612650572838791652e-01 -2.039229438506667602e+00 1.075784476595435635e+00 2.201515015419547527e+00 -1.748044875073560434e+00 -1.224165585531475031e+00 1.504947774279245865e+00 1.089096102783817743e+00 -1.350112420853367468e+00 -5.345734195597612315e-01
-1.489266333660439257e+00 2.669711899172402703e+00 1.071957025323854840e+00 -2.745739024980370147e+00 2.861082246012339736e-01 -1.584356977669531430e+00 -1.795443754652618296e+00 2.272634380759270267e-01 1.793865340484570803e+00 1.200516140059505910e+00 1.294419840820476120e+00 -5.862243754112592686e-01 -2.844390154277483873e+00 -3.156248141980071420e-01 8.179024460906196836e-01 -1.989203370412845562e+00 1.043346358155013559e-01 3.411161574399923069e+00 5.599580677804159023e-01 -1.630930260514829477e+00
-1.753087867184089932e+00 1.761175011233901078e+00 2.070399822941037193e+00 -1.561026044264250956e+00 -2.529605860850809851e-01 1.082105184717091051e+00 6.070207143342741807e-01 3.254802500210736138e+00 9.285048155469336484e-01 -3.661473109748686561e+00 -2.514810238781440610e+00 3.320507093759316852e+00 2.723375190024915238e+00 -3.873808219559577992e+00 -8.809829736993864957e-01 6.070394528331593542e-02 1.215107228536296491e+00 -5.554166394534277851e-01 -1.231168068074512956e+00 -2.814038511554950439e-01
1.534298528773191395e+00 -4.545233761038901754e+00 1.465696122149012570e+00 5.674599222894635808e+00 -2.029155275941221248e+00 -4.321816118383502436e-01 2.056563934567495977e+00 1.269989520543284511e+00 -1.616083702684443013e+00 -8.981713770506480898e-01 -1.667063459161984618e+00 -4.198937689134104589e-01 9.887239655986381770e-01 -2.649304424861503859e-01 4.361205636789877715e-02 -1.974201583619069833e+00 -1.463807295926895735e+00 2.110825527030028681e+00 1.671010490723297881e+00 -6.701482060069360314e-01
3.472362441633940922e+00 3.879120475083919217e-01 -7.555919763159183455e-01 3.826433247302699625e-01 -2.071591239150346819e+00 -1.367238679097185994e+00 2.641950613408039494e+00 1.845232259331727853e+00 -2.281802876037592132e+00 -6.173029811222803254e-01 -7.167760633079084398e-02 -2.861978370531010007e+00 -2.025386027462206862e+00 1.807852484451290653e+00 1.286186479984288811e+00 -6.775087017985627069e-01 2.606329660520518399e+00 2.622954541367509051e+00 -1.974983642960495667e+00 -2.332217130093230839e+00
-1.717352370264109140e+00 2.037208816621964402e+00 1.550634298143719059e-01 -2.512032026675285579e+00 1.308016688545569295e+00 2.017628028839059784e+00 1.709111040108319157e+00 1.789351950616072662e+00 -2.921627678339390188e-01 -3.225927618639919725e+00 -1.608113689834115068e+00 2.432500207741998377e+00 2.063947402784230611e+00 -2.736208981811446339e+00 -8.800754071081571261e-01 3.001058447693898956e-01 -1.276462067014607626e+00 1.473055050500161611e+00 1.979017520629297699e+00 -2.013935996938164941e+00
1.970026102938558399e+00 2.202698218863048674e-02 -2.908406649559676538e+00 -3.590207211283114042e-01 7.792042592787484789e-01 8.127570150910200242e-02 5.132356647257019233e+00 4.915998927297915433e-01 -4.840207457412513570e+00 -7.828663004888013477e-01 5.450664588963779700e+00 3.507199371401466870e+00 -6.904815504465404707e-01 -2.892668322254587476e+00 -4.734236989897176784e+00 7.126884694339596926e+00 5.225600087296310647e+00 -9.880704408899376734e-03 -3.310939962204507481e+00 -6.642307836761668582e+00
1.331816109621586808e+00 -1.918071142235117099e+00 -2.148538112068161254e+00 1.997097364583036327e+00 9.804637757350871397e-01 -4.269058675854670248e+00 6.967005565818513713e-01 -1.992415359808256403e-01 -1.691174085700864138e+00 3.455097693637750655e+00 -9.383715132923200475e-01 1.751395298531720712e+00 8.382285708073544672e-01 -2.324598556078535605e+00 -4.801213960258433611e-01 2.238841934452205085e-01 -2.035637494397639191e+00 -4.949602924232960888e+00 9.628689250298387847e-01 3.450443423768399409e+00
-6.546084790687280996e-01 2.022749603541439178e+00 -1.077952356561181047e+00 -2.509045553675793183e+00 1.385588221802437570e+00 9.870571479347058030e+00 -2.601144339060996735e+00 -5.951169064604490799e+00 3.978585753407545500e+00 -3.188859178151787432e+00 -1.255366963668702374e+00 -8.008843044052955662e-01 -2.584001928122444891e+00 -7.166524655772588126e-01 2.644953842563208202e+00 8.635602485905316428e+00 9.821946520170323769e-01 -4.709863238636048166e+00 6.527689166942675369e-02 -4.000261532918874430e+00
2.257986741739314240e+00 6.559453236247987373e-01 -1.285887699872131917e-01 2.880214707234531740e-02 -1.658567927909992745e+00 1.124557041330026985e+00 1.844604564546466374e+00 -3.155421826565249166e+00 -2.194129337114996581e+00 1.450575758053144204e+00 5.279754957551175965e-01 2.477927054191913392e+00 -3.088380737430980627e+00 -3.826765781470576222e+00 1.337412729958949997e+00 -3.994673067041405456e+00 -3.908299757920588480e+00 -1.156408957962284267e+00 2.845672084659083723e+00 3.814252690926874578e+00
2.735838594386717837e+00 -2.655742960389320562e+00 -3.035613275633517461e+00 2.758562257120527939e+00 4.904885482810304453e-01 7.332286005970395371e-01 2.047894842335401311e+00 2.001829541657740741e+00 -1.062330951947939139e+00 -2.388480493619365319e+00 -1.748160218856007919e+00 -4.023565147183037816e+00 -1.333285322119064364e+00 2.760185793410417254e+00 2.089366962888596024e+00 2.624231063313484102e-01 -2.952465084330913925e+00 2.456542341792634421e+00 4.129153699836417779e+00 -2.557432400970903963e+00
1.553881247434381274e+00 -3.545037784410853821e+00 1.696553148550161261e+00 4.681933247095875217e+00 -2.252312840810037020e+00 -1.868524676059759138e+00 -2.599620024455834955e+00 3.259797369508528053e+00 3.584732890033276220e+00 -9.287980318499219345e-01 1.897201571532483033e+00 3.965794487628004461e+00 -1.247262908800333969e+00 -4.458848596852221569e+00 -1.369880767991498161e+00 1.617919537973128374e+00 -7.093068087832846702e-01 -2.127242919229332507e+00 7.433882363454832332e-01 -1.963515196365935578e-01
-4.010977072230764939e+00 3.243395150142840855e+00 4.438811651807323955e+00 -3.098484704549484103e+00 -4.452867534105551806e-01 1.360948744373770891e+00 -3.988148563809606806e+00 2.759673836344898046e-01 4.873241243449324855e+00 -1.228804220854341045e+00 -9.399079384474481103e+00 8.796314065578995089e-01 4.410112919120249053e+00 -2.622674576443064787e+00 3.558626079440423862e+00 -1.947127852773901768e+00 -1.522850271175481829e-01 2.849836157878270271e+00 6.224436376628887935e-01 -1.321636250787644462e+00
3.767909985609123158e+00 1.590868224332055714e-01 7.317504577721375414e-01 1.157103920682444276e+00 -3.518299063189250120e+00 -7.455109170880320768e-01 -2.249230085193445028e+00 -2.551290356992926611e+00 1.662256646630645207e+00 2.628493117014179870e+00 2.332795840965535383e+00 4.874794811868358835e+00 -1.378028047306265824e+00 -5.403027604386744898e+00 -1.726033452204859708e+00 4.332511841146711173e-01 8.764251951812059849e-01 -1.258715948738274415e+00 -1.008730491839444854e+00 1.516810066949267344e-02
-3.111025600009623471e+00 -7.428991765108023948e-01 -1.571640257234562910e+00 -4.090010593367727765e-01 3.972914110080254080e+00 -9.087895958297923515e-01 8.799138710405064456e-01 4.288995280390443532e-01 -6.212551226080900157e-01 3.620127486046789134e-01 -4.474835515294782518e+00 2.263705988342642472e-01 8.988975419274748191e+00 7.007564740889057342e-01 -4.053467835549953158e+00 6.611606846844915175e-01 3.084617278870002366e+00 -3.159224921029476274e+00 -3.720458430412593387e+00 1.253930646626097545e+00
-6.785734208680415769e+00 -1.910107361639300949e+00 3.305962953468364773e+00 1.193345924852445838e+00 3.110138638319933424e+00 -8.791303882547263360e-01 -4.322298783251111054e+00 -1.105093993589343571e+00 4.351098856499099554e+00 1.907527688799967258e+00 -5.955066001334725634e+00 -1.700082916321619342e+00 4.883686284047916715e+00 1.010126884605284658e+00 5.245316034728068066e-01 -1.358145939409475256e+00 3.466917866512029711e+00 2.457105335040079552e+00 -3.130542817134299494e+00 -1.720229848316982446e+00
-7.662702423005710806e+00 -5.811971827110162359e+00 5.517984689528966646e-02 4.161992451779537028e+00 6.693669875781210088e+00 -5.587374374417975353e+00 5.305116948806130051e-01 1.087026463301002721e+00 -1.429046889824565847e+00 3.523602088833950763e+00 -3.719018631213021120e+00 1.299772506604000677e+00 -4.073977215257648110e-01 -3.000623948112153716e+00 2.686551395913811646e+00 -4.838780469241587667e+00 -3.995271682657650647e+00 -4.928529777953779556e-01 2.889148208764586112e+00 4.002303679363320654e+00
-9.372884118889301952e-01 4.426655462889713122e-01 -8.125999369806446992e-01 -9.093949929103295471e-01 1.420618374195981248e+00 -5.812088073965463231e+00 1.935781668840685255e+00 2.550096171254456756e+00 -2.405630799766780736e+00 2.550831272558866658e+00 -2.695439830242153612e+00 -1.757837190954980588e-02 -1.229116641428732892e+00 -1.505605367857571597e+00 2.628307433135054438e+00 4.635281045364092023e+00 3.938019344058686588e+00 -3.609829258112124517e+00 -3.698142670237279273e+00 -1.719648905623254453e+00
-3.427611260583841801e+00 -9.064786564207965025e-01 2.570750347262023450e+00 8.537405488753357918e-01 9.785284864763197366e-01 4.399936692356309909e-01 4.111550385322582102e-01 -1.261761190320180415e+00 -3.664244978134261199e-01 6.157669095913149704e-01 -2.025485134571111789e+00 -2.105629609168048422e+00 -2.153327823008248210e+00 5.578521913425857903e-01 2.964475849014139186e+00 4.220520964208766657e+00 -1.022476716520395457e-01 -3.667987569436493178e+00 4.274237278115565197e-01 -9.978090973720715740e-01
-1.434597780734660377e+00 -5.685371360670582463e-01 -1.099368167615799807e+00 1.881714162846651051e-02 2.190948412360271824e+00 -2.723810779407448646e+00 -1.152448494235897680e+00 -3.330681063723726631e-01 7.383277036758267853e-01 2.444189591356513258e+00 3.021845499210581654e+00 1.641431086499606673e+00 -2.997904280482218464e+00 -2.205607214824808260e+00 -6.311225819814375582e-01 -1.317629689004020888e+00 3.492965564362325637e+00 -4.394095914892421351e-01 -3.830791978349556537e+00 6.546113132171789140e-01
5.383769212414168059e+00 1.081298136055419468e+00 1.587443854007885680e+00 9.111593750976898498e-01 -5.561671885858669562e+00 -2.456933537719291571e+00 4.993052080936857262e-01 1.377719037560203752e+00 -4.697768036382677925e-01 8.071159344772941280e-01 -2.072070467747110012e+00 1.976387075467061383e+00 3.212343975605461477e+00 -2.202432124559356996e+00 -1.610724115429836845e+00 3.431368160649711285e+00 3.271025722890971821e+00 -1.149230544322436209e+00 -2.579592403064820960e+00 -2.628476936306730405e+00
2.923538693235463448e-01 -3.910005968017786770e-01 -3.213944430000148955e+00 -4.442286114508622319e-01 2.387114904435589491e+00 3.516281012882221280e+00 2.073991400117999873e-01 -2.733621053002119883e+00 2.537897614641043686e-01 -7.406584271117390150e-01 9.898234051063778960e-01 -2.549124679969324347e+00 -5.934650810581223901e+00 6.263200678353635364e-01 3.559938934955220624e+00 4.818434003494604490e+00 4.932755184584774355e+00 -3.646837805595161797e+00 -4.641415697461589218e+00 -1.909279539144948856e+00
8.143240831749974928e-01 1.099459918165907268e+00 8.328631454438687465e-01 -5.435990452157566377e-01 -1.230653267297188602e+00 2.401766779557585441e+00 -9.445587444400993515e-02 -3.502945465317323759e+00 1.096191835523729896e-02 7.516185234841251672e-01 7.094742830302649406e-01 -1.902289345501233297e+00 -1.114319205168340599e+00 1.359395478660045065e+00 -1.068110424407526793e-01 -4.151475074163176515e+00 -2.480199980372112256e-02 5.343402382057297118e+00 6.566539745547360640e-01 -1.391993840430044260e+00
3.036954220609624500e-01 1.680501514219572057e+00 -2.523458984566637753e+00 -2.287258895460349439e+00 1.591502185334391140e+00 -1.230996143382941110e-02 -4.664545723799748411e-01 -1.765222071070929655e+00 4.027124727744837429e-01 1.410942205767005131e+00 -1.622872647349193453e+00 -2.860743438079649259e+00 1.112998100108062216e+00 2.408944839833705220e+00 5.166417655987298740e-02 -4.114117887016018216e+00 4.797144310595028993e-01 2.316534147297476753e+00 -7.561278996021565391e-01 8.893542887159808785e-01
1.124175911965601626e+00 1.013790625620943020e+00 -6.347609678168004699e-01 -8.085032200769188826e-01 -4.330488565837428694e-01 2.394740142476788680e+00 2.966428381601396436e-02 -1.649958681996321674e+00 5.038430634633914718e-01 -6.393869974086994201e-01 -5.092179933248408563e-01 -5.297672154989280235e-01 -1.698491215381472186e+00 -6.425865097772702761e-01 1.186029486916448938e+00 4.514025579186584647e-01 -2.307576407120814910e+00 -6.175724309953679381e+00 8.201871419071871117e-01 3.961712842252675060e+00
-1.017471473408410931e+00 2.633551735462755339e+00 1.310069190784194149e+00 -2.524701641895317650e+00 -2.790340934102912840e-01 2.096703854361765540e+00 -7.934394825314168287e-01 1.722410936689341643e+00 2.167244651505914721e+00 -3.169816555591692619e+00 1.074207091034983019e+00 -2.643876707123925307e+00 1.701647847452511519e-01 2.566158454736849670e+00 -1.323299446084915010e+00 -2.113495468075654582e-01 2.269823987485253713e+00 -1.504676429638063695e+00 -2.598166204205171415e+00 6.820286559377353175e-01
-2.803418876124345260e+00 2.517149672665944804e-01 -7.469940038313320763e-01 -1.109446498618410715e+00 2.969870103332539202e+00 -1.645621084373408483e+00 6.954217890148177705e-01 1.622131967565696442e+00 -3.610582738437571049e-01 -5.491448494415383103e-02 4.564766514075254689e-01 -4.480414295745947406e+00 1.391510338391716228e+00 4.649076097697260934e+00 -1.721498789309289235e+00 2.496370200443286169e+00 1.780367612620517459e+00 -1.081024952767290603e+00 -1.376600574087720963e+00 -1.969652802247509937e+00
4.864422535780560608e+00 -4.121157109401238916e-01 -5.629623674751647933e+00 2.497458467740104604e-01 6.743798835255928603e-01 4.368510705969842478e-01 -1.132472364968932776e+00 5.980296336362251886e-01 1.736307994908914409e+00 -8.345998990149847696e-01 -1.702287524023944620e-01 -3.552510810358178173e+00 -1.067396192369869601e+00 2.844154324759478492e+00 6.824051906262209588e-01 -5.120822333706336327e-01 -8.685388892635239610e-01 1.781942172768506083e+00 1.550912850947416377e+00 -1.471849633589321193e+00
2.293255790590451038e-01 1.323394499757348797e+00 -4.936477729698995343e-01 -1.323874504561512344e+00 2.388333401230298692e-01 -2.825178471735137364e+00 6.772591396476599357e-01 2.487011024089462730e+00 -3.807517077992432775e-01 2.367381199978071948e-01 4.011201905660692901e+00 -8.398832300567151687e-01 -6.417340425142326055e-01 1.214701925239207725e+00 -3.217742904627823641e+00 -1.092403193284060103e+00 2.021211168651691814e+00 1.748111872992605120e-01 -2.115532971794494621e+00 2.907717181401267559e-02
-1.651761932720721138e+00 -1.066307641088192426e+00 6.493579758175415106e-01 9.886243727175880736e-01 1.022952260846618611e+00 -4.519151899805335937e-01 3.624302515144922632e-01 -2.215983109986348065e+00 -7.778718960607235999e-01 2.035654534716655029e+00 4.427330465238315860e+00 -1.632188542539945719e-01 1.938797113570078334e+00 1.373192536386341978e+00 -5.698844686891257005e+00 -1.948366808856562660e+00 -9.887446278813271094e-01 3.988377319654102138e+00 1.908341879398192997e+00 -2.035697645296734581e+00
-1.123786700454241894e+00 -1.433034068686505735e+00 -3.089359252665095992e-02 1.297607891969100313e+00 1.219379727889531972e+00 -3.389779193869985718e+00 1.294388556603316642e+00 -4.328247572737207172e-01 -1.998016517025799299e+00 2.970240131298050645e+00 1.107706644088171100e+00 2.113486266173350003e-01 -2.042058439619114818e+00 -9.899887471533788119e-01 2.102977350236067688e-01 1.150644951378538838e+00 2.996257292388485816e+00 9.443858489000571677e-01 -2.324698880113308608e+00 -2.478495860817290453e+00
-2.324828551410984101e+00 2.245109945354542891e+00 3.643069580032539445e+00 -1.844385220561286953e+00 -1.095517613263361278e+00 2.319393985725049401e+00 -2.301351543539052358e+00 -4.532348535587053640e+00 1.968392382075589975e+00 1.714839046961674551e+00 -2.604040507018259287e-01 8.337893276564030121e-01 9.614879854402745840e-01 -1.196742992403770689e+00 -1.170341723812668322e+00 -2.864622350443492227e+00 7.155044788177379600e-02 -1.716678847348868775e+00 -1.080961659318118606e+00 3.149188111480332619e+00
3.391849945976827208e+00 6.757795265633393944e-01 -1.370601609002190857e+00 -1.367805316247817926e-01 -1.576309448592360329e+00 -4.286089586914805238e+00 -4.040916801389252910e+00 -3.852012347641343148e-01 3.262420451696527390e+00 3.953689572816777353e+00 -1.495520624058197523e+00 3.712263929028405407e+00 4.207544073400914186e+00 -3.554486594104618202e+00 -2.910994067598808854e+00 1.923604260450222148e+00 1.239054823269361894e+00 3.290803803869250643e+00 4.021769322122155654e-01 -4.777942352914172019e+00
1.801712343362703361e+00 -6.214054828764048466e-01 -8.307041009456475056e-01 9.733811244388044237e-01 -6.278910098748768931e-01 -1.731736163858875743e+00 5.067289414621807264e-01 2.152834649346073714e+00 -6.153810814443230748e-02 -3.972310691703684338e-01 4.331541781486508036e+00 1.533725094054207094e+00 -4.133160250204944930e+00 -2.196687990529299750e+00 -9.322185493782405574e-01 -5.518722049944284613e+00 -4.490257834770397527e-01 -4.749247424647426108e+00 -2.152003790584972709e+00 7.762766459165512778e+00
2.839212945262874932e+00 1.711423814294513734e+00 -1.237630589263989167e+00 -1.231490182910089048e+00 -1.308452147763726092e+00 6.549897732522063087e-01 -2.759564600949842461e+00 -2.172633053433170591e-01 3.278805994002781166e+00 -3.398393045236212662e-01 4.696414031194888761e-01 4.923290335786686400e-01 -1.918088954361167886e-01 -9.754815308006508090e-01 -8.102305400223004384e-01 -4.558030948918964320e+00 -3.854707215922611230e+00 3.211898873991013037e+00 3.859529003841172923e+00 7.305455142796317691e-01
-3.798312048298283727e+00 -1.922414992811233736e+00 3.183735191998311009e+00 2.046007367663472909e+00 8.052424221309713026e-01 -1.987702143609348715e+00 -3.744432193254499275e+00 -3.358240958154435685e+00 2.760039586155233593e+00 4.445961915883799520e+00 -1.313829695892025029e+00 1.209635165812919411e+00 2.112508769667766018e+00 -1.560517709172406509e+00 -1.238741374383865779e+00 -2.109288968962972910e-01 2.806259671187693705e+00 -1.197672997531187500e+00 -3.087311130562542250e+00 2.981685340319836230e-01
-3.598674535695231658e+00 -2.278834410896851903e+00 7.365943120490331397e-01 1.752908905117801286e+00 2.566507802975483088e+00 -4.375349563768830663e+00 -8.193943379410695282e-01 3.002965019580774886e+00 7.942893600599418846e-01 1.107537813375758740e+00 4.200302272183826346e+00 -5.077955703492867956e-01 -9.741510053026741778e-01 8.461156238540363805e-01 -3.111742751553041142e+00 -4.503038090636042767e+00 7.995346449954183754e-01 2.043523610989168571e-01 -1.765265091586885271e+00 2.804397167177106631e+00
1.331487652175933567e+00 7.129220711763596674e-02 -2.474591802579239719e+00 -3.414603119890469718e-01 9.534345585207757434e-01 -2.210940230024788011e+00 1.969751926773130268e+00 -4.489846531269620300e+00 -3.615049302672894704e+00 5.152546629741721951e+00 1.506703084636645373e+00 -4.236458988222160382e-01 4.078788500459769040e+00 1.438206217635897843e+00 -4.969622759854720684e+00 -1.914585544912721593e+00 -4.864441134225199193e+00 -6.015734035531349555e+00 3.044251017658067937e+00 6.121579775195040263e+00
5.971193192152859375e+00 -3.209029497594717562e+00 -1.839514383859510938e+00 4.519399125257721472e+00 -3.050968830805827814e+00 9.691322683232618251e-01 3.018737069477773538e+00 -1.683932469324483705e+00 -3.086073235557387662e+00 2.876147566645406717e-01 1.958174893427536034e+00 -4.791613983376967312e+00 -5.021049505153176717e+00 3.472832458129449851e+00 2.145446977881545703e+00 -5.221797495976003844e-01 -1.997533477416255865e+00 3.448728291568825099e+00 3.178428271726726262e+00 -2.780307363865255788e+00
1.505095694001292506e+00 1.388347753652456440e+00 2.201315210245056608e+00 -3.484424293537230488e-01 -3.021806020494242073e+00 -3.010862478394759290e+00 -3.693743788828930175e+00 -4.097740875731044952e+00 2.149493318003214526e+00 5.822642051828658794e+00 4.665096722861587608e+00 2.427964546178106864e-01 -1.688434635216921276e+00 -4.254982097317894230e-03 -3.022685510243471541e+00 7.593800261453873546e+00 -1.873696653121491307e-02 -3.061000423898980749e+00 1.375063559504495991e+00 -4.343100371684480265e+00
-5.368136459464141197e+00 2.732468461449134578e-01 4.344275453770635731e-01 -1.462529691350958672e+00 4.129884625921946828e+00 3.085748620408123255e+00 -2.194193190368675772e+00 3.219249981559103024e-01 3.494650558711328348e+00 -2.724685705637907684e+00 -3.242980742569234298e+00 1.782943508099158469e+00 -2.705386250619472133e+00 -4.037293104456076698e+00 4.139849217943601722e+00 4.536350819962594039e-01 -2.088641972266748414e+00 1.815520173693371708e+00 2.987741594648304577e+00 -2.281527924079251424e+00
-1.214879567933892401e+00 -4.386742500541841672e+00 -4.562709395680969671e+00 3.065963344680289637e+00 5.060097871958977755e+00 1.414611825353494501e+00 3.430238306476046661e-02 1.525352544996682935e+00 1.139164284813278805e+00 -2.466465667129289496e+00 -2.488834683112049806e+00 5.633320536472974371e-01 2.892382644805186587e+00 -8.618958082939869314e-01 -8.044971041738915307e-01 4.502045312357669804e-01 -7.719086488521795797e-01 -7.366705105548280841e+00 -9.788087969372889496e-01 4.987040966742002368e+00
1.078122299473939227e+00 -1.476302023472184366e-01 -5.523491151071579175e+00 -9.521898013787105652e-01 3.707555102628119048e+00 -3.060727503277574701e+00 -4.346589587012502420e+00 3.778500030394015274e-01 4.121862936008909628e+00 2.361753284054886048e+00 -1.600193302470375167e+00 3.187945228479297288e+00 -2.140902950348928080e+00 -4.947380899009379718e+00 2.237010782541616560e+00 3.393815956632717956e+00 -4.875188280848507638e+00 -2.449164541977424392e+00 5.423390418853701433e+00 -1.133700545468519172e+00
-3.100589356262851704e-01 9.492700258714418027e+00 -5.335851652893380148e+00 -1.134059862233120164e+01 4.040496339523800273e+00 9.056707197505448059e-01 -4.867198957376953850e+00 -3.782205417559549865e+00 4.592245512767935800e+00 2.530303095741324171e+00 9.261291389678980579e+00 4.790763198658455124e+00 -3.071421764093858808e+00 -3.979492592056357303e+00 -5.973151977940235113e+00 -8.009869175720462309e+00 1.199892733159818453e-01 9.699042487243353605e+00 7.429101582999231290e-01 -1.791607360901168455e+00
6.853345660110026216e+00 1.896483337881524900e+00 -4.565829772595433766e+00 -1.482081043224978245e+00 -1.995841793170085143e+00 -1.288977467661914389e+01 -7.374731412467725455e-01 9.340820193841418373e+00 4.599476401070375919e-01 3.171832794032963143e+00 1.541754348763520888e+01 3.361905732886478315e+00 -2.762530740010237906e+00 -6.237226260783038656e-01 -1.111296340971058072e+01 -1.060124363571971884e+01 -1.085744028798901439e+01 5.347921415759722130e+00 1.026774900341360208e+01 4.615390034357677251e+00
2.146687419531484731e-01 -9.392573855561252572e-01 -2.559765298579913750e+00 2.448476532548097828e-01 2.076354624480947209e+00 1.580525748994966895e+00 -9.339990241653236325e+00 3.002508570239066366e+00 1.122054613314816507e+01 -3.291113371772363294e+00 -2.801433992717258015e+00 9.936586051181004464e+00 7.298534154287762199e+00 -9.359554518627897224e+00 -4.607981559582738917e+00 7.595568772125427692e+00 -4.955709286355491017e+00 -2.444344746693441905e+01 1.637706017794037794e-01 1.283298388752549890e+01
-7.348032182383417599e+00 1.647122495221926552e+00 1.955416012799239267e+00 -2.923458621205750951e+00 4.592193019531551457e+00 1.083543435259155174e+01 7.036843699421785558e+00 -6.701957796889240093e+00 -6.060333272528025006e+00 -4.033987218866934121e+00 -5.927905120808711459e+00 -2.995407505851732655e-02 -4.432144384855435604e+00 -3.376363141697872550e+00 7.805375620838643336e+00 2.239790370998321123e+00 2.241058479888530020e+00 -1.653065614874239131e+01 -6.236434105440929798e+00 1.058438257338187327e+01
-5.228633847201579199e-01 3.646889060638921265e+00 8.922202088892001726e+00 -1.188960414092783635e+00 -6.757783478623763607e+00 -6.594412345573695156e+00 4.132118334620014544e+00 1.026294199513793970e+01 -2.703354023578547149e+00 -3.066055264849559592e+00 1.204124072549042168e+01 1.268565859966707787e+00 -9.864080024967327276e+00 -1.537969496633902811e+00 -2.641859249826812750e+00 3.132829592496980453e+00 3.265277373380023551e+00 -3.781008259594823784e+00 -3.375610871190333651e+00 -2.776067306668027479e-01
-1.106632318232868561e+00 2.885009655324415334e+00 -2.358176909048478986e+00 -3.870371180247946352e+00 2.677850521209257373e+00 6.528675822259187855e-01 -6.707842587640536536e+00 -6.749188206014882230e-01 7.292769974064301941e+00 4.588618046027309605e-01 -4.612418707240244053e+00 7.277509367162111609e+00 8.032149729035163332e+00 -6.884048949416836649e+00 -3.546596924659441097e+00 4.183785628727496153e+00 -6.183073303608326299e+00 -1.086122481526580685e+01 4.623535487182365955e+00 4.997727555850679515e+00
9.955013986927616632e-01 -1.538550573853151526e+00 1.758595069762774354e+00 2.570798505041803406e+00 -1.973541235867707355e+00 1.130965780785163233e+01 7.057973386857869791e+00 -6.463517547473861313e+00 -5.716120802559573555e+00 -4.538206514544337544e+00 4.206766071608023516e+00 -1.191307229091886910e-01 7.929938343671718570e+00 3.008984569799205921e+00 -1.030823660763181238e+01 -1.444605375028218841e+00 3.231499571264618842e-01 -5.316603894961240417e-01 -5.923457518748689310e-01 1.024741015169956748e+00
-1.627547950470309601e+01 1.641317842887048073e+00 1.200880119071517882e+01 -2.498688125854785280e+00 3.551709098622555683e+00 -9.200867737238745292e+00 7.155023152596697855e+00 1.096047995649383822e+01 -6.279935644365256309e+00 -1.663554658811842835e+00 2.584659534183486596e-02 -5.870356465302242199e-01 -8.320824836088092979e+00 -2.301420078206998010e+00 6.107196268762557168e+00 -4.223778627268091057e+00 -1.064125521885754377e+00 2.679432727532280012e+00 8.684963242920620274e-01 7.559100965119358584e-01
7.246999251414367293e+00 -5.352212261168606489e+00 -7.133187650869206919e+00 5.550496172048761778e+00 2.515794436124930700e-01 -3.929335316974865489e+00 1.823828384294309490e+00 1.978567867660036228e+00 -2.043448289426138320e+00 1.429328130665887597e+00 -1.242510665796601188e+01 -4.220682212573900749e+00 1.853248832310913530e+00 1.020042310492101256e+00 8.342119548429346665e+00 1.453685867359024897e+01 5.158563775334075174e+00 -4.279060660147792738e+00 -2.534789348950583499e+00 -9.278502588910431115e+00
7.592281030131350583e+00 2.450146922990330989e+00 4.448193814725501127e+00 9.222044945232776847e-01 -9.722621637030288255e+00 8.758814589624536850e+00 -8.250489310416426747e-01 -1.488144538149289353e+01 -8.752472382120836114e-01 4.685257183921874180e+00 -8.037066263428194191e-01 4.171454424642468517e+00 -1.102237280255121021e+01 -8.250313436720297489e+00 8.643681679255124095e+00 -3.716365956250702318e-01 1.152352993155979499e+00 8.426449939565065606e+00 1.337620456333202812e+00 -7.037897683054473497e+00
-1.283185913437552372e+01 2.281152887734358092e+00 -4.078822401619066618e+00 -6.863451076246450455e+00 1.364757308080027798e+01 -5.312469300524741422e-01 -2.772780996972023182e+00 -5.663081283077620043e+00 1.441861006960068803e+00 5.009193197375928719e+00 -7.962661582576387787e+00 -1.081198696428538053e+00 1.244852010600354930e+01 2.061915197589827109e+00 -3.885451581355895634e+00 -1.940689898498421551e+00 9.696184220635400308e+00 8.296209476446602338e+00 -8.034114787352173437e+00 -6.225290324027189293e+00
3.116369958372687599e+00 2.787464748240432666e+00 -6.090752488427906286e+00 -3.687288633063476873e+00 2.253317134553558532e+00 -1.403021098435444536e+00 -1.865355704972902817e+00 -3.977285598212188411e+00 7.651339956261700159e-01 4.426031884531079541e+00 9.275534041686508857e+00 5.562162115037946997e+00 -7.587927223410926736e+00 -6.022308666546824618e+00 -2.393876882815008322e+00 -6.603966821804242215e+00 6.633957679897964255e+00 1.323077227915099385e+01 -4.566716772549846759e+00 -6.116873056383904661e+00
1.587738939129942928e+01 8.240793545185514546e+00 -5.253839541509928601e+00 -5.794587715588938259e+00 -9.145374990957606087e+00 -1.345208912801506340e+00 4.062758673709912394e+00 -5.990485381493773076e+00 -5.985807040750051655e+00 5.597725103214931330e+00 -4.908624786644607774e+00 5.245258107791408442e+00 5.122807051996595362e+00 -5.747298757918102297e+00 -8.836802690034084584e-01 -5.455946175876200677e-01 -1.127316874694991000e+01 -8.860178335453392506e+00 9.233066842129876051e+00 7.627180913393617701e+00
-1.495078108825950558e+01 -1.414823683350949324e+00 6.605478576210968455e+00 -4.757828100379574709e-01 7.110201952558895755e+00 5.450020271309815811e+00 3.585890722596750679e-01 8.903880958466032780e+00 3.878126743961181067e+00 -1.165504433129123107e+01 -1.325201150451399101e+01 1.069257118330640211e+01 4.633010941672439653e-01 -1.492960328820330851e+01 9.247955825985904710e+00 1.808756713656350268e+00 -8.292132339060540147e+00 -2.662482088908932010e+00 8.429076051351655607e+00 4.770324524525425547e-01
-1.065227368809644126e+01 1.621156795570980336e+01 6.148162041687600388e-01 -1.937251349378540155e+01 7.354470390798732993e+00 -7.355020474955733079e+00 -4.796854197295270517e+00 2.872019799849268473e+00 4.123509731157939839e+00 3.926312907881043035e+00 2.867652361495351077e+00 -1.990770280933494618e+00 9.274212085674349737e+00 4.990817770477679716e+00 -1.016176212762037068e+01 1.306809691581703703e+01 1.749493513360777541e+01 5.764441333763852704e+00 -1.286580766882172711e+01 -1.697168604123654490e+01
-1.011986349064713409e+01 2.760984670425864262e+00 8.443055061473343059e+00 -2.992048771051829537e+00 1.568778421314403371e+00 9.434377850465157422e+00 1.690965910612247924e+01 -3.335072884954612960e+01 -2.421720226537977538e+01 1.785619034879708877e+01 8.456010608338212720e+00 -8.651109371504347445e-01 -9.437132896313295660e+00 -1.348650162476073278e-01 1.761827514859947708e-01 -4.702006594224497960e+00 1.424220296992200474e+01 2.967770644170713901e+00 -1.496428817122997934e+01 2.565337248766053069e-02
-3.252002821730750615e+00 -6.780297142161889390e+00 2.229847390835174892e+01 1.282649603283640793e+01 -1.449911027933285190e+01 -1.740314954225347677e+01 -2.136521547598093917e+01 -2.829112723746835201e+00 1.723436862677512593e+01 1.777674685942415422e+01 2.012727593281788430e+01 3.368462279027423012e+00 -3.031540795798374788e+01 -7.525479169906127197e+00 6.955767795040502577e+00 -1.026950844359029524e+01 2.997758621350583041e+01 1.114641243929804837e+01 -3.024228338437346153e+01 -2.769314393321421264e+00
-4.875255017029989979e+00 7.366048815450337850e-01 1.471648253911085780e+00 -1.431288672891443126e+00 2.957824020707875423e+00 1.045285345335714489e+01 1.649910296287955713e+00 -1.373226474853828982e+00 9.186213803530107747e-01 -7.540195406899829145e+00 6.227876386887521321e+00 1.946595071927497855e+01 2.473817077865662739e+01 -1.210207819285304431e+01 -2.663414912397837853e+01 1.850914575567236398e+01 7.233128439079181682e-01 -1.616376452196922742e+01 -2.677833458076225859e-01 -2.809943434005235385e+00
-2.241805004773536325e+01 -2.094977205919915519e+01 1.222019497589593584e+01 1.951985975192623357e+01 1.002731254702865371e+01 -8.198772864460678989e+00 -1.071516611792697748e+00 6.406350086906009711e-01 -7.451377176687794535e-01 6.121200496954354975e+00 1.504103190339517226e+01 3.028563894333902606e+00 -1.222376084325379253e+01 -3.094229014702174929e+00 -3.210806253819507461e+00 -2.976681581391925402e+00 3.171208573164264966e+00 7.681795684228990950e+00 -1.838441890687684266e+00 -4.587524364046565495e+00
1.274903867778754307e+00 -8.656178612002147332e+00 2.266615111681030115e+01 1.583509892105403516e+01 -1.860663700333400428e+01 -5.975979621283567411e+00 -3.960132110546735529e+00 1.624501607782242063e+00 3.265644861895503404e+00 3.633538102070092535e+00 1.315079970360974571e+01 -1.529488430044654379e+01 -2.415311295661634361e+01 1.207518538133481378e+01 9.250381041746811306e+00 2.122283774603404183e+01 -5.041705779304304968e+00 -1.981578862104142047e+01 5.252029058725798727e+00 -1.811944844830953638e+00
-2.815671520397042826e+01 -2.369453668059504636e+00 1.925013861780334068e+01 7.473238099497221398e-01 7.981153213210522068e+00 8.100803199216978001e+00 2.291089525862222942e+01 5.869360367662435074e+00 -1.972595140166929895e+01 -1.288648983720674224e+01 -5.586437836768264553e+00 9.241805628818942964e+00 1.663386182195637630e+01 -6.679523618878168811e+00 -9.857384937933071356e+00 5.287784634058673383e+00 -1.399097523321272618e+01 -5.164368747859888309e+00 1.471829731373398786e+01 1.977924561535216175e-01
3.001217753983085501e+01 4.720917107187861284e+00 4.013298975704880256e+00 4.391550789535049404e+00 -2.778347451508482280e+01 2.250921867606584215e+01 1.130355727573202174e+01 -1.121672954584047810e+00 -5.775351899816627110e+00 -1.820717016941447142e+01 7.011618018731213375e+00 7.110034883000002637e+00 1.149034185704757860e+01 -2.758948221425100211e+00 -1.576169479379443672e+01 -3.786184830034048154e+00 1.430800226646565809e+00 8.216190965060064855e+00 -9.249368513548406057e-03 -4.172750852319299320e+00
1.629655965179314236e+01 1.048810848163472365e+01 1.043788203523245350e+01 -3.448660215047050226e+00 -2.212759549663983094e+01 8.701739405577745279e-01 -5.363660139596836629e+00 -2.834505057482044421e+01 -2.104095554511519861e+00 2.200949722966960564e+01 1.177885389854128739e+01 -3.116680389674484886e+01 -1.820909482587599726e+01 2.960672157785182890e+01 6.170676872392324874e+00 -1.745901379475253989e+01 -2.460053477286196166e+00 -1.563005665037456815e+01 -6.279436349722654853e+00 2.629217423844059098e+01
-2.234187187094496707e+01 1.402098743175046103e+01 -1.116479975243006351e+00 -2.058010495922842509e+01 1.848458922558960538e+01 -1.066657579197305949e+01 -1.530381843637808714e+00 3.623614968810750181e+00 1.032319111476140694e-01 5.833066061999278240e+00 2.398462064715106123e+01 -1.928804974289123564e+00 -1.377184314250757602e+01 3.820795246532477929e+00 -9.055204285665780617e+00 -1.803384555031922964e+00 -5.332064789469070476e+00 1.578026207551976867e+01 9.714937067631138845e+00 -1.157050486016098390e+01
-1.043436843009395432e+01 -4.422348078884881240e+00 2.143687601501229523e+01 8.091607346802444312e+00 -8.199386457433554654e+00 -7.817393455415989623e-01 3.021926517884331531e+00 -6.889242029239078136e+00 -5.073625217434472923e+00 5.782463539800302144e+00 7.897189746650329134e+00 2.068370130653633510e+00 -5.301281187959948404e+00 -2.177387123170184680e+00 -2.858330671841134318e+00 -7.046350579274781367e+00 4.109733870119531396e+00 -9.708804434001141459e+00 -8.708956500065646367e+00 1.259367030482640004e+01
-1.046902448799301233e+01 9.377782894529155255e-01 1.103792605536078675e+01 -5.124453066426036818e-01 -2.607371884112645311e-01 -1.697976702806029525e+00 -1.219925947525915610e+01 2.232182675985898257e+00 1.314313238710666631e+01 2.923840347444549015e-01 1.485515384421896901e+00 7.256404587092850633e-01 -1.224668320890249085e+01 -4.369517995771252217e+00 8.028216279060842453e+00 -1.176274255991144768e+00 -6.561488284318001796e+00 -2.161573385294661520e+01 5.226938255276898371e-01 1.798613967950195658e+01
1.475913367732202630e+01 1.209833436461252099e+01 6.027168505918830910e+00 -6.729183417393839406e+00 -1.741919428661088531e+01 1.926006394823169288e+01 -1.222937274400476559e-01 -1.592196958318066402e+00 5.162843749960393858e+00 -1.446841160869638543e+01 2.939245017199751331e+01 1.083657051815373507e+01 7.192648217913956366e+00 -2.023333790327182857e+00 -3.098423646370158835e+01 2.964490747369196377e+00 -1.026313583689293019e+01 -5.799428828531342006e+00 9.983531639941272573e+00 2.253934022449698649e+00
1.071995617708256354e+01 -2.402336015087686683e+00 2.738050943473464471e+01 1.326959295258068394e+01 -3.034882049638289203e+01 3.219704704026824960e+00 -2.173817562278833049e-01 3.478180898207634897e+01 1.143499614335703818e+01 -3.046440730211619297e+01 2.905161761379737229e+01 1.938438898149280476e+01 -1.250744110252147756e+01 -1.653836108728203413e+01 -1.545311800853643724e+01 -2.937036542587433985e+01 5.098488608994037330e-01 -7.400275504297536777e+00 -1.021844545127413184e+01 2.922593842036085832e+01
-8.049118592354423285e+00 -5.694223827909110192e+00 -1.814486674948591505e+00 3.341300229365235186e+00 8.480296061423757692e+00 6.969005695877729067e+01 -6.284269882000372398e+00 -8.146566769353613680e+00 2.295459705611783008e+01 -5.005974144395893433e+01 2.100062557690223741e+01 5.847735432961111535e+00 1.364766807123620751e+01 2.819415588439542653e+00 -2.893266254804201409e+01 1.408698019832359272e+01 2.353335677656847835e+01 6.040758142698464184e+01 -3.121405999032445422e+00 -6.162926406861641482e+01
-4.758143366844677757e+00 -2.187233591346065609e+01 8.716397570637232306e+00 2.397905331145413754e+01 -1.635808173001762844e+00 4.282587308724653541e-01 2.065217848464392958e+01 3.836767539670848493e+01 -9.950287952317786733e+00 -3.226848343467705149e+01 1.379192049737488901e+01 7.643717786354908839e-01 -2.203303874658985251e+01 -4.016529980225482355e+00 5.732797932408324471e+00 -3.216311855416129362e+01 5.683961963966326181e+01 6.716072054434530259e+00 -6.520986961661382963e+01 1.688914676351242150e+01
-2.339836275673507870e+01 -1.940431023027697677e+01 2.518026982930969382e+01 2.135908806013979699e+01 3.459764317971795733e-01 5.415341728686120604e+01 2.621768733236914528e+01 -7.792267309077452353e+00 -1.487409662912437724e+01 -3.969179454487508707e+01 8.043080901065028598e+00 1.092026936636815115e+01 2.738365811050474941e-02 -9.723154712889792606e+00 -7.803044260071571259e+00 5.451527161726309600e+01 -1.194881285108325031e+01 -2.305573322893414456e+01 2.028994312162593516e+01 -2.593616790597200961e+01
-2.750027738027018032e+01 5.937339513589619422e+00 1.033186967927943911e+01 -1.025801750496550468e+01 1.395675453334066063e+01 -1.427139688400662187e+01 6.598798430198068665e+00 -1.850248955406274831e+01 -1.564164114352723978e+01 2.591104679193502491e+01 -1.528999185449471199e+01 -2.226907849971791364e+00 1.190991518787310888e+01 1.185543759161034716e+00 2.591524714011702368e+00 -2.768347540165642329e+01 3.420937886169271636e+00 -4.818996106903958321e+01 -2.447409350075457724e+01 6.020631319369977774e+01
-1.164277257822848455e+01 -1.199725066551311414e+01 3.076052140723020401e+01 1.837204650458162547e+01 -1.410545129047759794e+01 -3.427444090870615856e+00 1.942632533290573393e+00 -2.711546429189187535e+00 -3.343061524574892474e+00 4.731213472503743134e+00 -3.776863079805565349e+00 -4.134009977054690310e+00 -1.502611644404890257e+01 -1.561225495114655137e+00 1.478435826427157096e+01 4.058343000637009146e-01 2.852458742904783406e+01 1.409004912806370236e+01 -2.524713938999567731e+01 -1.393912618083925281e+01
-3.574022523952399411e+01 2.302979049708266857e+01 -2.045180716673887567e+00 -3.371331059967370436e+01 2.954611654576299529e+01 3.724142964972324776e+00 1.347013598106962462e+01 -1.771798690982480196e+01 -1.776864907742468702e+01 1.014967744554908435e+01 -1.700352248544364997e+01 7.049827525540544038e+00 3.868118726490028969e+00 -1.121539091078957995e+01 9.841331279382858455e+00 3.091295652086011714e+01 -1.617525038171897123e+01 -2.734979313346808283e+01 1.722326135939801262e+01 -3.103258386123391777e+00
2.875240084490444303e+01 3.514463284234644647e+01 -2.809813817863395258e+01 -3.680976414750890768e+01 -3.051561179311276906e+00 -1.171385298561984811e+01 -1.168030126794412027e+01 1.175339874046330380e+01 1.262075474468568537e+01 8.006483465069825778e-01 3.548746281827725557e+00 1.303469358773634568e+01 -2.545892437113918305e+01 -2.043989021710164877e+01 1.609840040056440458e+01 -5.947624987708633348e+00 -4.766645181589745484e+00 1.811205607351088887e+01 8.758938012182783339e+00 -9.890941169148186773e+00
-6.307057331547791357e+00 -1.150850879449606268e+01 -7.017794652358454677e+00 8.332766553403599730e+00 1.159768047427288984e+01 1.837633319682797861e+01 -1.201925767827404279e+01 -1.252783694735445508e+01 1.402805740696176606e+01 -4.368983450460519613e+00 -1.083572650654251568e+01 -9.916204688990895022e+00 -1.775559551521430279e+01 1.859518416595333123e+00 2.308608610999557698e+01 1.789172933045679414e+01 -1.484395673595894571e+01 1.686457500375766472e+01 2.510976752076706120e+01 -2.778104342637215041e+01
5.743537212619326482e+00 -1.826097482192809762e+00 -1.927056934964008761e+01 -2.040907759888986650e+00 1.087395121069185677e+01 1.601431364885256503e+00 1.236013592211532419e+01 -3.137055149538392929e+00 -1.293196492450006296e+01 4.020075065531847347e-01 2.430196253015659380e+01 2.615218752590235507e+00 -2.229852864011449043e+01 -3.301752337948546057e+00 -2.793003307677417446e+00 -3.226266269659621599e+01 -2.458498757897606080e+00 -3.170694698665044164e-02 -5.778319177102213544e+00 2.588681552253843066e+01
6.736851220855591293e+00 5.356495503973588868e+00 -2.872294585376576137e+01 -1.194318230045916174e+01 1.715314857257655845e+01 -1.047715665141144648e+01 1.143677737142674466e+01 3.201836548635724711e+01 -5.206947228459501531e+00 -1.782581472350282326e+01 -1.514532276776773045e+01 7.254718826316794100e+00 -1.674812924016173810e+01 -1.679213068019117117e+01 2.475662554939608029e+01 2.360255074715750823e+01 -1.253407315033830827e+01 -3.014590903309735026e+01 1.076990476925975493e+01 4.916067341747020869e+00
-2.794215101477183882e+00 -1.025923240227105460e+01 -9.358258631771935399e+00 7.293615149447731483e+00 1.046826794646755054e+01 -8.049539034758137035e+00 4.330796790551774578e+00 -4.326975447789434881e+00 -7.598045440555580399e+00 9.674045418080966741e+00 2.985631247055635740e+01 7.229112657263675246e+00 1.248283210962543599e+01 3.343769298447969884e+00 -3.536769261212496218e+01 -4.162173068265816056e+01 4.924460846518206480e+00 5.602594640898875156e+00 -1.427829083212578709e+01 2.855297399557837323e+01
4.072822471165907388e+01 -7.141812711515727941e+00 2.157768438422503543e+00 1.892226230776870821e+01 -3.431142561652151812e+01 -1.002123311542135831e+01 -3.198664735169792905e+01 5.993417894087468056e+01 4.802183480437905416e+01 -3.774708169992671714e+01 -3.001123500848196235e-01 -1.033585605262090468e+01 -1.301802741013643328e+01 6.410322647740179569e+00 1.074579421439258731e+01 1.274794556122024503e+01 1.503360091626877271e+01 4.136521712267636985e+01 -1.175603978616985151e-01 -4.480857527879988567e+01
-7.021992017875859915e+01 -1.621495681945453882e+01 5.286251550535018850e+01 1.360261626477932140e+01 1.614683845038799603e+01 9.287347497868154278e+00 -2.455607274266517592e+01 2.231842163854943273e+00 2.879524219014355779e+01 -7.894351033401460604e+00 -1.420860874622367298e+01 -2.884033265280767822e+01 1.198638615640991745e+01 2.908515608225982874e+01 3.291485187820559766e+00 2.702929946660605154e+00 -2.174323036313140634e+01 1.487341928701102844e+01 2.767550898315912278e+01 -1.328956704385508480e+01
9.484879448389415302e+01 4.634816774618487045e+01 -3.942887185164100305e+00 -2.401123122947158350e+01 -7.695561281599594849e+01 5.297746170133297028e+01 -6.387309803700726540e+00 -4.894311342630946626e+01 6.801716552368571200e+00 -3.967381206656619863e+00 -1.140890270450525534e+01 -7.040207398808241201e+00 2.880657206872158760e+00 4.583691725756581903e+00 6.825758245550824554e+00 4.637095938462521616e+01 -2.980806840919380463e+01 -6.986796664880310459e+01 2.321864119558840756e+01 1.906722271921283607e+01
-3.768177650614620067e+00 -4.027591352295442562e+01 -8.810052867719109670e+00 3.825169852567785256e+01 1.265841377864627937e+01 -1.198973622645681303e+01 -3.962755135390783323e+01 -3.607716075269861022e+01 2.782410261699895671e+01 4.083755275163633769e+01 -8.396433017354732797e+00 -4.219585204916173282e+00 -6.646554945592063746e+01 -1.763727078980535978e+01 5.952085834347363402e+01 3.853420604958933460e+00 -6.890555099822597640e+01 -6.246363807548586777e+01 5.471166128274228413e+01 5.032641581786064933e+01
-2.395296712436059750e+01 1.396281047616312776e+01 -5.825727466510607400e+01 -3.740608227306489653e+01 6.530369555493744826e+01 -1.031386694263393800e+01 -6.377691018660465971e+01 5.374973076323637855e+01 7.911182913081059098e+01 -3.067393315407346677e+01 6.874492898141213004e+01 4.691967267548243115e+01 -6.954365210071875936e+01 -5.107121959280016199e+01 -4.130203386094498441e+00 -1.777964331257923902e+01 3.615746252222693613e+01 1.068453562540437929e+01 -3.881693291951488334e+01 3.283841241104412667e+00
-4.590872533121599020e+01 2.689050517518897720e+01 6.232144017044289086e+01 -2.193429026945669236e+01 -1.366371819014608491e+01 4.632273717436191163e+01 5.845616279938191440e+01 3.309675838736617237e+01 -3.856164632730284580e+01 -6.782494596487829597e+01 -1.533067109479546986e+01 -1.169403530301855909e+01 -6.637704995005611863e+01 -1.143852930555017622e+01 6.567573240527730150e+01 -2.278185761070119852e+01 6.774181107276383784e+01 -2.614609106764674706e+01 -8.353753208261620955e+01 3.468807963137177097e+01
1.869228068883818494e+01 2.674129348783887394e+01 -2.668110938069896676e+01 -3.035027772045263106e+01 4.484651234795705044e+00 -8.569874226833755770e+00 -5.092501402481283890e+01 -6.108493759547412338e+01 3.326636898296546008e+01 5.867207098894701289e+01 1.793973072763756704e+01 -9.612413989760904443e+00 -2.084919931294465911e+01 8.224544684731174726e+00 2.115717761014004328e+00 -6.643994735732632329e-01 -1.674009248051240073e+00 -4.591885894297115911e+00 4.953184552248458550e-01 3.716680878071432215e+00
-9.331671304898786490e-02 -6.788807876644561645e+00 -6.006653043627007804e+00 5.373413972801604821e+00 5.383341827475663699e+00 -3.125042277049656647e+01 1.045798951641334895e+01 3.484403240762368625e+01 -8.634857475741220867e+00 -2.913635852008585658e+00 1.497926354018347084e+01 -3.185962787152277542e+01 -3.860006744735944295e+01 2.535071192163795928e+01 1.988748521156124482e+01 2.300943846984885077e+00 -1.009788094916871515e+01 7.898114226620498890e+00 1.354471697714062195e+01 -8.142138795701633569e+00
-3.706139263171835552e+01 -1.691523690516945067e+01 1.196144917742494762e+01 1.142935606447530716e+01 2.199480937309360939e+01 -2.333339928899319915e+01 -8.818911343536541381e+00 -5.957580729497166105e-01 2.989801766373267888e+00 1.979108183205933358e+01 2.374850650632259530e+01 -8.825384142262894471e+00 3.788300445562754248e+01 2.580798416020204300e+01 -4.954910071510609981e+01 9.690137866205261741e-02 6.284314353669524067e+00 2.478632086855386163e+01 8.263333000605533885e-01 -2.086677629140662305e+01
4.918954225572859684e+01 6.055258374552125389e+01 -2.514616496355806774e+01 -5.700950276080902768e+01 -2.369592431155999535e+01 -1.729879680846178047e+01 -6.745839985548491846e+00 6.875135509881548757e+00 4.708962208816503292e+00 8.857542365084151825e+00 -2.886565736680966054e+01 2.818411959585127846e+01 -1.145236070272758511e+01 -4.059090758843528590e+01 3.065382610565373511e+01 -2.724402061781995243e+01 -3.910102715694991016e+00 -4.542312594799328451e+01 -1.596003561029941942e+01 5.813671839050774537e+01
3.460174045804491527e+01 -4.003869957651324363e+00 -5.132280716613725957e+01 -1.430793462757422363e+00 1.306525334628222801e+01 2.047151490187459544e+01 -2.193573293204776675e+01 -5.059536104174600091e+00 2.690852689849914725e+01 -1.143549628970791865e+01 -3.719256470005403603e+00 -2.929918673626930570e+01 1.380463704006105097e+01 3.293646957245580609e+01 -6.657269039473630023e+00 1.794250363764166467e+00 2.260570707508373900e+01 5.819704508008248212e+01 -6.062540765815274568e+00 -4.984628008326996707e+01
9.513733509073277972e+00 -1.999028677141799215e-01 -6.152963978144752488e+00 9.964104496112845544e-01 -2.734251813886141580e+00 -7.609242476649379583e+00 -9.604395869960180221e+01 5.064144901514415409e+01 1.124035630500808338e+02 -2.832354206391853779e+01 5.130552874629240279e+01 -2.244973712069402794e+01 -4.198522490051677636e+01 2.413891173763237319e+01 -7.636869826499220970e+00 -1.361717995118354807e+01 -1.322498041308870320e+01 4.571449827006937916e+00 1.162904094233074659e+01 7.517122649052592642e+00
2.775068980045273292e+01 5.604039936809702915e+00 -7.917325116375057803e+01 -2.117251549524023702e+01 4.024057375583439011e+01 -1.121560739347557778e+01 2.967320397546225763e+01 3.769600257938950705e+00 -3.226404219816267016e+01 4.313639976378217611e+00 1.937661459062515590e+01 -3.338781990067791838e+01 -5.351867709756096758e+01 2.372681515702917210e+01 2.834520604495367024e+01 -1.912325448100533976e+01 -4.713160092468763906e+01 -4.706472202373892522e+00 4.265631732573733359e+01 2.161215244146891479e+01
-3.461213201059936750e+01 -2.983197098725586027e+00 7.426722203633346453e+01 1.547000527438980555e+01 -3.061889193090214079e+01 -1.319073549899087006e+01 -2.301636560315651892e+01 2.349136965226076867e+01 2.743497226028259206e+01 -6.698246686332954170e+00 5.336364226289401991e+00 4.884684402373777345e+01 3.405830673159377397e+01 -3.997033871536245186e+01 -3.503802945679409930e+01 -1.760444317571987582e+01 -1.018994338498756349e+02 2.606966620783200739e+01 1.086289571869482700e+02 -8.227147327258766962e-01
-3.376616300085673572e+01 1.493800186623831294e+01 7.617166329062251862e+01 -2.318757924249208457e+00 -3.393905731437411788e+01 4.206114372107940369e+01 -7.303044191224925896e+01 -4.319257121939136113e+01 7.466651311653920686e+01 4.470992638035760081e+00 1.353154556733817913e+02 -2.545104146023936309e+01 -7.990389853336101567e+01 3.853545780430108181e+01 -4.573186809327940239e+01 1.707023451055097851e+01 2.135084978920223620e+01 -6.613973080862834308e+01 -3.640883635425341680e+01 3.690244881152069922e+01
-1.821210005921608754e+01 -6.823303953237709329e+00 -7.850780973107687544e+01 -2.013279915665142994e+01 7.801479464028574284e+01 -5.253468071037132603e+01 8.404697083762684429e+01 3.046297312570769122e+01 -9.185045120286122255e+01 1.340519483234695208e+01 5.995960712999615083e+01 -6.900873887891988190e+00 -7.870076467961705902e+00 2.019021540068561293e+01 -4.276841767194645882e+01 -5.071154720414303085e+01 4.388436748623159644e+01 -2.816224224540414411e+01 -6.667555615187748685e+01 6.057714177251610721e+01
6.866664283516624323e+01 1.875937228593473449e+01 -1.476511088635842270e+02 -4.372157796034984045e+01 6.063988989086534787e+01 4.537820795526933892e+01 1.292024827623115790e+01 -8.516645795907831484e+01 -2.564787831078189484e+01 3.003279501792294326e+01 8.263085955409410133e+01 -4.692715116947283605e+00 -6.566422339162173216e+01 7.137089036750127846e+00 -1.538362428162784390e+01 -1.169725580180499946e+01 4.349907746988660762e+01 3.063466435245570096e+01 -3.914349112054806312e+01 -1.812441463881259196e+01
-2.878514950555848273e+00 -1.172708882333699076e+00 -5.219510365783326833e+00 -9.609145869895560077e-01 6.713040375064322163e+00 -7.406281901126425815e+00 -1.747394793282536796e+01 1.553524926860079169e+01 2.093623503646092843e+01 -5.314385867247791495e+00 -1.582579979406792461e+02 6.575771206067022945e+01 5.071572886052711482e+01 -9.574973631968397569e+01 8.427245869612133333e+01 -4.396193237942614473e+01 -2.407205412783878273e+01 -3.926923971634212762e+01 2.266259238886925154e+00 6.812836051443564145e+01
4.860487463195118352e+01 -7.825220555963514357e+01 6.188711002637911207e+01 1.117231674621763915e+02 -8.415519163897535293e+01 4.025966268750533317e+01 1.586951947900807447e+01 5.038901740552151232e+00 -4.136344075389460251e+00 -3.803285022754324274e+01 4.442833642486983337e+01 -1.185531043203467902e+02 1.545079594502458065e+01 1.384966938209896341e+02 -4.197552619117917772e+01 9.939955270977090152e+01 -5.046001551764679505e+01 -3.214155023979088810e+00 7.767090555786502648e+01 -7.622241838672273673e+01
-1.736686732462730376e+01 3.171884344234425512e+01 8.739146751611004404e+00 -3.485145989808007272e+01 5.308770269265006725e+00 1.515547878213251067e+02 -2.780466795242064748e+00 2.280877822983689285e+01 4.964852746391869687e+01 -1.418204713234621863e+02 1.250233192734111043e+02 7.194913617788530757e+01 6.646417929042064543e+01 -2.308486653461534743e+01 -1.599182405209740523e+02 -9.759504397411080845e+01 -5.609450936462064163e+01 -2.363527314743089391e+01 2.583020957217079072e+01 1.013228510252534420e+02
-1.274463701795063457e+02 9.564006475104417859e+01 1.128455024990790463e+02 -1.001015190904860646e+02 8.334263467218674393e+00 -2.851837316679704770e+01 -6.127132322844468604e+01 6.174576697640320333e+01 7.404492749376467486e+01 -2.233724184257234313e+01 -8.361925924528915743e+01 1.237897488955017593e+02 2.768651232990279709e+01 -1.428459645072858279e+02 3.809867923500661391e+01 4.938594357084720343e+01 -1.681603784896994824e+01 -1.996931232322451422e+01 2.493094089727846097e+01 -2.391260247068789369e+01
5.104085920054766135e-01 1.237226554503581326e+02 -7.770299392375333625e+00 -1.302432158204553048e+02 -1.705593434941691466e+00 4.572495602276389803e+01 -2.357452917129751668e+01 -4.071084500607928902e+01 2.509678792487511600e+01 -3.488751061787126240e+00 1.729705371097708877e+01 -1.242861440797413906e+02 -4.580904562544640868e+01 1.196352133566617368e+02 2.939139773953326085e+01 -2.960253410841427879e+01 1.203558136057955608e+02 6.654989949612405553e+01 -1.130619358573435846e+02 -3.678557433860689230e+01
-1.207387606162650151e+01 -8.913785441592536074e+01 3.995919439753463820e+01 1.008646012677643000e+02 -1.641523779269027727e+01 -2.182723372576730014e+01 6.818468397749239784e+01 1.430683151279851018e+02 -3.497644129542173630e+01 -1.004585978649795663e+02 -6.718204428379314663e+01 -1.042879070827376431e+01 5.498959255360332321e+01 8.425683589589544553e+00 1.112055997327939494e+01 1.305746654842645853e+02 -5.032293248945752850e+01 -1.200464702674298536e+02 5.225646493990724650e+01 -8.429486029300585770e+00
1.415666967667556797e+01 -6.022062026473796692e+01 7.483951106085378058e+01 8.767786784318141713e+01 -6.743112447745953375e+01 -7.911000347329982674e+01 1.784426315413281543e+02 1.055830656035775306e+01 -2.025101785315849554e+02 4.516548487799261125e+01 -8.440808257510381907e+01 9.449560798791314653e+01 -2.082817737940083092e+01 -1.266771060421754385e+02 7.912530346072952625e+01 -1.310776779678658386e+02 4.628555158833878025e+00 4.446868562443231809e+01 -2.627590056210871339e+01 7.069981565044083993e+01
1.097353971643525767e+02 9.008792221580991111e+01 -1.730094358443076032e+02 -1.140986073820631788e+02 4.284829192478019877e+01 1.323940733898239230e+01 4.838656515957863746e+01 1.449834024077259471e+02 -4.689267291915600211e+00 -1.293179357293591920e+02 4.914974582063154429e+01 9.032452516524463704e+01 -1.877960919343511819e+02 -1.351137671225181123e+02 1.036322890999828559e+02 1.126364107579505003e+01 -1.129515467112214822e+02 4.108471824426121799e+01 1.320518822472103579e+02 -3.564043631481870023e+01
-1.876439973466455413e+01 4.307498960393498066e+01 6.951787620073082508e+01 -2.959031984387127068e+01 -4.269597022082461280e+01 -9.465560858828702351e+01 2.539136671091012332e+01 -3.433279458578937948e+01 -6.081063951189165806e+01 1.029692273440452226e+02 1.745836766178044286e+01 -4.931410904919440696e+01 2.115652562309281848e+02 1.159277763292629260e+02 -1.804868090933539406e+02 2.683681117982141728e+01 1.568088812923496960e+02 6.498819829689315952e+01 -1.366706403851757443e+02 -8.392469434236134873e+01
1.623748868985654426e+01 1.328179880479841870e+02 -1.377952491118205103e+02 -1.728910170678333600e+02 8.857425699145207432e+01 1.680556221152686476e+02 2.137852575418239454e+01 -6.312510626468377239e+01 4.292758542261132959e+00 -8.822128319156355758e+01 1.781084836723277078e+02 -6.559820211771699405e+01 -2.814580629593454546e+02 3.342418285156082192e+01 8.245517042888209858e+01 -1.175732954921023321e+02 -3.818025806784034870e+01 -1.132730232276029056e+02 -2.365349288260536298e+01 1.880535907620382829e+02
-2.743325444533755331e+01 2.285397443144504948e+01 -1.794581901501208279e+02 -8.237006620183261418e+01 1.642366675076968647e+02 8.047322917328727954e+01 1.928915139526818336e+02 -8.100410813898363926e+01 -2.016622634254877084e+02 -1.292763101347799015e+01 1.013471072385090537e+02 -1.077273729167828975e+02 -1.183021171993000138e+02 1.037635061743905140e+02 1.761783895007797440e+01 8.771596880219070158e+01 1.709443227046614879e+02 -7.789966995091572244e+01 -1.763061050565887626e+02 -2.055163119022321538e+01
8.395082909652700209e+01 -4.172612710920709844e+01 -1.526514264445090419e+02 2.155358361790427324e+01 5.578927265410439418e+01 1.402237388299024872e+02 -9.959016892506252105e+00 1.575670159547858020e+02 9.281763875433472322e+01 -2.395638040805882270e+02 1.182791722565698933e+02 9.325026430255323362e+01 8.275283432805643713e+00 -6.363389375901586220e+01 -1.093682703941238401e+02 2.840193957758586052e+01 9.961423427130239361e+01 4.787426938780350838e+01 -8.176968226714336652e+01 -6.799220175958149071e+01
1.640447668660596889e+02 6.984050790998881553e+01 -7.312628216761926581e+01 -5.009545356731020149e+01 -7.979007044999373477e+01 -2.737432280259142772e+02 -4.058167616956756518e+01 -6.324191429247714069e+01 -4.785384374172237898e+01 2.762898060851298965e+02 -5.194057624302546117e+01 1.182270393450393726e+02 -7.012695975191287800e+01 -1.568745069006943993e+02 9.054322612295759143e+01 -6.905060882211144246e+01 6.161482864755689093e+01 -6.502419284104807673e+01 -1.005114347763576461e+02 1.038533367895408190e+02
-9.327072506644705641e+01 1.928395142464708556e+01 5.000382149094825479e+01 -3.005394688388114943e+01 3.521188298315765763e+01 2.589062551391351121e+02 6.333061565032747353e+01 -8.887676204052266371e+01 -2.279325689002419608e+01 -1.444812385735379507e+02 -4.862496848262441773e+01 3.035186864512357729e+01 1.215348830655995016e+02 -9.870789582105226501e+00 -5.963626319905947781e+01 8.626870198938392775e+01 -1.122188555404438581e+01 -1.220856745085793307e+02 -5.898713586487406291e-01 2.692032168752576027e+01
7.581676213409187426e+01 -1.441418667436192607e+02 -2.242864500523150539e+01 1.630563992819476766e+02 -3.507661956898805045e+01 3.769045415016952205e+01 8.094865347051903370e+01 -7.034581154184834872e+01 -9.391587433841331745e+01 2.030757339979021125e+01 -2.731564571318115853e+01 -6.726545569346407660e+01 -1.688046272128801206e+01 5.714041083336885407e+01 3.933910682445800688e+01 7.219459376939596496e+01 6.851237321525384516e+01 -1.971572778354104827e+01 -5.749894067597350755e+01 -4.801032350563122719e+01
-3.009596854892843609e+01 -8.497104695545870356e+01 -1.483786977807633356e+01 7.600312144349169330e+01 4.175409754232839532e+01 3.689318927806195081e+00 7.303680912828433236e+01 -3.385131737921204120e+01 -8.417837054052863266e+01 1.943735527789307937e+01 1.827026961808458907e+02 6.741867502153689884e+01 -7.127086107256336334e+01 -4.273772108924321600e+01 -9.693080466117004335e+01 1.885542443569875459e+01 -4.375045150441950170e+01 4.625804021507265773e+00 5.180105477782117873e+01 -1.705444918983971192e+01
-2.901630159629624828e+01 6.450385336037606976e+01 -1.155187597181846542e+02 -1.075429583926775763e+02 1.119700904683760001e+02 1.823384150414606708e+01 -8.523947884792313801e+00 -6.480329319260543741e+01 -4.720692472304692799e+00 3.719307576244749924e+01 7.870364841179110726e+01 1.223815891296057288e+02 2.338453471982101739e+00 -1.059316136050112505e+02 -7.411704437593063233e+01 5.553505081200047755e+01 4.873811658942712199e+01 3.959124211752121170e+01 -2.436239854893285184e+01 -8.049403954291827290e+01
3.136586957812482268e+01 -1.911406436319034015e+02 6.566060717594834273e+01 2.253926857425772710e+02 -6.611248740263459922e+01 -2.547844179558374478e+01 -1.015034763493090537e+02 1.012284017916824439e+02 1.280237804205225700e+02 -5.365038590293067244e+01 2.657869342600055163e+01 9.243468535426248422e+01 3.118724486587350953e+01 -8.039190366633384599e+01 -5.272137056735317628e+01 1.023617362759781884e+02 -4.036432196684047824e+01 -3.518868821879497233e+01 5.883879230551535500e+01 -5.360890090754702442e+01
2.760266622991603640e+02 -5.443520483734598514e+01 -1.512417387363003911e+02 8.559284716008291127e+01 -1.013872299320134829e+02 2.134308539830396683e+02 -4.583233352472636568e+01 -1.361769174581181119e+02 6.476694215152744505e+01 -6.303983590813877669e+01 -1.628778071417245883e+02 -3.737452991547158376e+01 2.787533113652108341e+02 7.551800869784571546e+01 -8.741809263623480319e+01 2.580777785864901261e+02 7.163372836229079610e+01 -1.780292180827251158e+01 -1.111713744874856147e+01 -2.014305722100218077e+02
-1.504257628877359032e+01 -4.258103898575897972e+01 1.143033190021101220e+01 4.350185744412157618e+01 5.782344289048525710e+00 1.523400347481041024e+02 -1.286434515024093628e+02 -2.660268960972780405e+02 9.726082166833666065e+01 9.546439565955493833e+01 4.468711965441845280e+01 -9.690202129327904856e+01 8.965144776189676179e+01 1.374584954749083181e+02 -1.025644032024339367e+02 7.427214580424868018e+01 6.356191968915963031e+01 7.507508589977332747e+01 -2.454940434835801710e+01 -1.249861780597620537e+02
5.557367987869271886e+00 2.258010612662709193e-01 1.316409610844845020e+02 3.918791341455079191e+01 -1.093440922665665767e+02 -5.109547366864999418e+01 -3.482655503073544878e+01 5.720023966816065553e+01 3.939527582890073631e+01 -1.839510450192497704e+00 -4.001642898064078935e+01 6.549877729796762971e+00 -7.074854548491566675e+01 -3.818638802445646974e+01 8.813864840501386766e+01 -1.821924988092529532e+02 -7.295163650337283201e+00 1.163797882498346752e+02 -6.680369381751324553e+00 5.583877848665212440e+01
-1.879517334329753453e+01 -1.525209142865860912e+01 -2.407033586173743700e+01 4.077164273795030880e+00 3.556515765150830077e+01 2.329384443883107565e+02 7.110689132943246449e-01 -8.277879509142417191e+01 3.709484231366584339e+01 -1.242837425212917424e+02 2.298221229426909673e+01 -4.235235780136069828e+00 -1.661330161335032640e+00 9.463948009660592575e+00 -1.768674425518046789e+01 -4.315438569869984775e+01 7.452253954093477262e+01 1.022272052236351527e+02 -5.900099562747998050e+01 -5.139404930716936803e+01
-1.179583096394211239e+01 -6.573939339111933577e+01 -1.175309140832162029e+02 3.131285540655512278e+01 1.074513749945779182e+02 9.247070134021579690e+01 3.457373399553188875e+01 7.984526969611173142e-01 -1.097592661506145717e+01 -7.836627800299176272e+01 2.594624810338889276e+01 -1.094815245660698650e+02 -7.054986402671117673e+01 9.951708006810170559e+01 4.123317754949032832e+01 1.114567794478716536e+02 -5.810202697999579158e+01 2.970068955322342052e+00 9.061844281180259486e+01 -9.037737332766243981e+01
-5.832901277300337917e+00 1.963538573168698065e+01 -3.016076334340962717e+01 -3.044238915322075201e+01 2.773559649231906477e+01 1.061783426292736436e+02 5.486426500520737193e+01 7.459209082541366342e+01 -7.218192727195360092e+00 -1.496115641435043813e+02 -1.234006337619028955e+02 -1.123885044286024026e+01 3.174285584128974236e+01 -1.215009479993825003e+01 7.560139171457640828e+01 9.823431597031981255e+01 2.147513151930901998e+01 -4.784722130607688939e+01 -1.000269141848179544e+01 -4.396978197923156984e+01
-7.184103493596744272e+01 7.237333897659059545e+00 8.669733511707432783e+00 -2.373307867125415882e+01 5.146587562315408348e+01 8.137739818788527657e+01 -1.497628579051450117e+02 -1.133539869145927952e+02 1.443765898076945575e+02 3.298350146675834083e+01 4.105699158109099045e+01 -5.918906661828633986e+01 -1.007261868407024537e+02 4.269362361983924359e+01 4.989689452338941322e+01 -5.121337473676027230e+01 1.081831172540725419e+02 4.620661679294135382e+01 -1.121184139371305974e+02 -2.199761383425398176e+00
8.699313449125499176e+01 2.877999351333320632e+01 -5.093917544173473999e+01 -2.142316787311456494e+01 -3.199855693431786463e+01 2.813841914332030569e+01 1.668846883016204004e+02 3.937744524813376668e+00 -1.641620503886359757e+02 -3.642530301343916221e+01 5.629155952911488470e+01 -3.432863144619349782e+01 -5.085788255715110751e+01 3.527748626674621590e+01 -3.784546754579372951e+00 6.209254629739498199e+01 5.037874009533200415e+00 1.874873981956876179e+01 1.679486780029625592e+01 -6.649393652557695589e+01
-5.995160576398546937e+01 -5.795979867764970095e+01 1.700347817427486063e+01 4.924311484182767629e+01 3.903784478667241586e+01 7.690726800218746462e+01 5.117790719513173769e+01 -8.369503085789823160e+01 -5.656940722718231029e+01 7.119770122253601397e-01 2.486318244867903360e+01 -6.911304941101558086e+01 6.999609628446373222e+01 9.774284532335005338e+01 -7.242109164057359294e+01 -8.285273878509482159e+00 8.175583270089241239e+01 -2.478693405066853472e+01 -9.380605564608752900e+01 2.092673207969611937e+01
-3.433154813227211832e+01 -3.171393085866776218e+01 3.436713423212300711e+01 3.384281212707467290e+01 2.695791740189441121e+00 4.839662835515312622e+01 -6.385241945553043763e+01 -5.906136527574000894e+01 6.229864944367653123e+01 1.134895967806542494e+01 -9.227149751643646880e+01 1.718623517036103010e+01 1.143097644150789804e+01 -3.920286610209079470e+01 6.473650254089245948e+01 -7.460257004765428235e+01 7.945325347146771833e+01 1.106063286626354909e+02 -6.996723945693905478e+01 -3.269971895768507864e+01
-5.567748295303628225e+01 -1.327037121642753625e+01 3.134809703008938442e+01 8.287062546431290144e+00 2.147365674349329367e+01 1.028390899532393732e+01 2.993113554061624626e+01 -6.560581564091941686e+01 -4.697871669647240367e+01 4.190271294163038363e+01 -6.455257806086319761e+01 -1.590984320344986713e+01 8.435795981873738469e+01 2.323898654061581581e+01 -1.409756571350498611e+01 -1.098583387829030755e+02 -1.051189192764935498e+00 -2.227319910918707180e+01 -3.396947413396983961e+01 1.070207800468592865e+02
9.371224469925019562e+00 -3.809839179308713852e+01 3.275761132150108779e+00 4.297101952989455498e+01 -7.874838209957452762e+00 1.158614264427460760e+01 -1.946018745721248067e+01 3.577330322265770945e+01 3.374103272171706180e+01 -3.693654694400939320e+01 7.612081402068007208e+01 -3.792177209634602519e+01 1.737921628135007523e+01 6.373026597388235359e+01 -7.416296744760988702e+01 -5.038825351226545024e+01 6.565380630839244702e+01 4.831438973191504971e+01 -6.722409679977644714e+01 -1.985336637999001841e+00
-2.417116809252343401e+01 -3.751878779802630248e+01 -1.100516302432233928e+01 2.942038550868700142e+01 3.092502542700582779e+01 -5.881509427011022240e+01 2.327805263615914555e+01 1.735288332286752322e+01 -3.435145654920130909e+01 3.252646479467611584e+01 4.558276693169978699e+01 -1.161378492682562102e-01 2.799048070320510107e+01 1.970000621696647514e+01 -6.002612389547483929e+01 1.554634312591043965e+01 -5.058926558484269975e+01 -2.868931543962127151e+01 4.857098497259446646e+01 1.269021235204262688e+01
7.541935384484022009e+00 -8.456507209591932472e-01 -6.529985963796610804e+01 -1.580400784429189898e+01 4.603828292625831864e+01 -8.078671128875247121e+01 3.279671911331612222e+01 3.100155390911653797e+01 -4.604671753683518176e+01 3.912043780378068902e+01 2.462939310261358727e+01 -4.543896254834446324e+01 -7.034120963983103536e+01 3.276623092025837991e+01 3.809889410994347969e+01 -3.964297304228598762e+01 -4.592451823519646581e+01 2.010323275848888258e+01 4.321691507447724945e+01 1.856589878929876036e+01
1.694806738027752280e+00 1.065205505403417163e+01 -5.474613370469167961e+01 -2.623798637893519725e+01 4.170184762664442957e+01 -1.380995882576206668e+01 -4.178675743699668743e+01 -3.624292892725072335e+01 2.958915253815565194e+01 4.262629952066217953e+01 8.106198899919975887e+00 -8.712176876421342797e+01 2.542593094516086438e+01 9.912900085447741105e+01 -2.210990305860978111e+01 -3.257366166646725247e+01 -7.798438055874881059e+01 2.545213532625329123e+01 7.972597424905180219e+01 1.044102427679107770e+01
5.253131778575605892e+01 -3.445788657018815826e+01 -8.677441483228459163e+01 2.474231841610649241e+01 2.852798491421298621e+01 -1.566931979344144388e+01 -3.459421712963385964e+00 7.222581717675396362e+01 2.059986478431642709e+01 -4.463106074762387010e+01 -3.733016704182165313e+01 3.824403428410516170e+01 7.695120106433871854e+01 -2.780619305918823159e+01 -3.365951809925723381e+01 -7.303985792889432105e+01 -9.015780714786595240e+01 -1.459449266884578655e+01 7.022339576178173104e+01 7.615650334203321847e+01
-9.868608836557282160e+00 -2.866144296788158741e+01 5.052217431120718061e+01 4.176779916660785119e+01 -3.032779178079375271e+01 -1.581790423076029350e+00 4.416507287841775309e+01 -1.375575096702372990e+00 -4.627390406799051448e+01 -3.784519254742565453e-01 5.199403571854215755e+01 3.739178230340676379e+01 -8.463386784191763823e+00 -2.810528660437986304e+01 -3.858915636915021707e+01 -1.292970792901664012e+01 1.512121651954630508e+01 2.420633342096492946e+00 -1.816602465812711742e+01 7.108504760518608911e+00
5.469106984983636721e+01 3.544752715711289426e+01 1.483328176349212946e+01 -1.803732890286502055e+01 -5.859826627896620010e+01 2.748555423948959131e+00 -4.025199862835256681e+01 9.883228705013381798e+00 4.547528325074370059e+01 -7.790008778817159474e+00 -5.779828807125072743e+00 -6.809353940288942475e+00 1.652443317980959492e+01 9.738841238132280864e+00 -8.690494264954280013e+00 5.308757789997552834e+01 9.078227491919913517e-01 -1.877871269551044975e+01 7.734241604083624821e+00 -2.913346928218282983e+01
4.023195524011288171e+01 8.183918193820267106e+01 -1.399261949593650556e+01 -7.810573539284033018e+01 -2.635979343234865979e+01 1.933056160415903690e+01 -1.110162841522000221e+01 4.809483007696805146e+01 3.083625861076313512e+01 -5.350728936062969865e+01 1.105459479805050726e+01 1.664957115563003498e+01 2.883892695780561155e+01 -6.428947917701022696e+00 -3.350945411737905033e+01 -4.485400385843472293e+01 5.584033819922396447e+01 6.832226248412696634e+01 -4.998718526419194319e+01 -2.188273188432327743e+01
-4.297650082379632153e+01 -6.487724033525019252e+01 1.484127010115257939e+01 6.021928716380010371e+01 2.724011961518151281e+01 1.906667404815756584e+01 -4.742616501363213644e+01 4.748303760811612761e+01 6.797322000301703326e+01 -5.078705540354530257e+01 -3.393982916171258069e+01 9.959896073210126488e+00 2.753473169459874370e+01 -1.171885867931342950e+01 4.740400612400309299e+00 4.590419390120108289e+01 -2.117877511049908179e+01 -1.546600763804148215e+01 2.993356177029143339e+01 -2.437704953050699785e+01
3.070298163936517710e+01 5.122192786945603160e+01 -1.738161375988364199e+01 -4.995883452589018248e+01 -1.426457290253758359e+01 2.519959578985116977e+01 2.107933792609784973e+01 1.445902047424436354e+01 -1.076247631951827799e+01 -3.354466287028738236e+01 5.773423023241166163e+01 2.668030151312855125e+01 -2.344694699915830327e+01 -1.977349958999967328e+01 -3.061264868077519097e+01 -5.287768790419891118e-01 2.452268609728773807e+00 -3.178794115349352012e+01 -1.147400970163640288e+01 2.512506002800436278e+01
1.033949820468848202e+01 -3.758862588446925201e+01 -2.414420291486215220e+01 3.490573883379448006e+01 1.330586778291820593e+01 4.133226581744064099e+00 -2.980645836294299400e+01 3.141987580586711815e+01 4.141463237474591352e+01 -2.668659463478967808e+01 -3.568495906753758273e+00 -1.011068131287991179e+01 2.379197807249636032e+00 9.748287409079507526e+00 1.156048425544941027e+00 2.870526155292408177e+00 3.502902449424147413e+00 -1.460812564575282302e+01 -6.889884204619203700e+00 8.488364090881953317e+00
-2.293807278461645183e+01 2.592079171855750985e+01 5.880796766595283032e+01 -1.584372328510278649e+01 -2.961169803551728563e+01 -3.737238568973372566e+01 2.002229545547262646e+01 -4.184757129199157433e+00 -3.143101806902205553e+01 3.264104960755499008e+01 3.731385286013500036e+01 1.114735289994732526e+01 -3.833734377789618719e+01 -1.325789367898117987e+01 -1.143734530982415176e+00 9.886214862926660629e+00 2.973395789139373857e+00 2.743033619236461274e+00 4.782849346617144559e-01 -1.104044527794230568e+01
-4.000108737262925729e+01 -2.781506415391887366e+00 2.958171411381234961e+01 1.004939282927070465e+00 9.366567465459054276e+00 -1.573957083889108333e+01 -1.021371476480572404e+01 1.643785674226849025e+01 1.154087348922009326e+01 3.571746214111995443e-01 3.020817322547526373e+01 4.627805944080684242e+01 1.467090511215581117e+01 -3.628993709776911203e+01 -3.974251112176375500e+01 8.671591499265336012e+00 6.872392482713555850e+00 -3.072064345431600785e+01 -1.343000588773157311e+01 1.644085451624573224e+01
-5.747167992751133170e+01 -5.092663745009310183e+00 2.958514436546196791e+01 -1.250980064810863990e+00 2.366884501498471849e+01 1.570860710683709982e+01 -6.725762006233843238e+00 3.611402598712637513e+01 2.179063804059710208e+01 -4.122266611321379770e+01 1.102583963344748064e+01 8.963201976635188917e-01 2.217896681627007638e+01 7.747164839112636869e+00 -2.733631713282708731e+01 -1.304397564137570598e+01 -1.343119384446368869e+01 1.597348126408935531e+00 1.106017817808064052e+01 9.526083333440134027e+00
4.840113746066502642e+01 2.708232550264786909e+01 6.625999402550748485e+00 -1.338261884015265757e+01 -4.642449950019308602e+01 -1.780627038319015654e+01 4.385927893406511124e+00 -2.706087837411148200e+01 -1.680356659109381567e+01 3.565705152474897233e+01 1.431526966159911751e+01 -1.200615456372638690e+01 -1.487880904871169463e+01 1.142851373127034087e+01 3.752034425772396986e-01 -2.334687017456815639e+01 1.841675325365025273e+01 7.026062475439029953e+00 -2.292247164176010088e+01 1.175719897756584764e+01
-1.037719902678891160e+01 -4.169091856968025311e+00 1.842454836007105801e+00 2.297800175724186822e+00 7.398921112554361024e+00 4.775136718308733208e+01 -1.791050665527248142e+01 -1.011556418926801015e+01 2.849778144067286334e+01 -2.988485730806827689e+01 8.436043751285329240e-01 2.876655705519365824e+01 -1.096563881322680167e+01 -3.318560121831053067e+01 5.864508055536090225e+00 1.007410404454830988e-01 2.539815959404069545e+01 1.869992447736006369e+01 -2.078749119114264587e+01 -1.716019390784425269e+01
3.043470496707204820e+00 1.437712400881329167e+01 2.301107412999597912e+01 -7.456978874884981678e+00 -2.160928223946117299e+01 -1.537951081057213720e+01 2.248831722311683023e+01 5.330975696567616495e+01 -1.164239649092391637e+01 -3.138777003165045087e+01 -9.832939892219924261e+00 7.577185128289738891e+00 7.638543322009783587e+00 -8.708474885999706316e+00 1.027276051779528743e+00 -4.298950643552672801e+01 -5.205954045820719855e+00 4.224321636452777540e+01 6.455056923496714560e+00 1.146372708457774836e+00
-6.245176154420880366e+00 1.057113839995174587e+01 7.341910983318140183e+00 -1.037945851943016073e+01 -1.236003987872056564e+00 2.224419741601402656e+00 -1.004844325872589295e+01 -4.603503798466594965e+00 1.004347385472607712e+01 2.346731517135596246e+00 -3.076503479277998210e+01 -5.933163050704266084e+00 4.367959591086178150e+00 -1.250253565354912499e+00 2.143144751805041537e+01 -3.786054447358435215e+00 -2.044798242012745249e+01 1.523271642710757412e+01 2.487798283762053231e+01 -8.259356895171217516e+00
-9.662202954782081576e+00 -6.763044778730840534e+00 7.255637172047344485e+00 6.678458406469508724e+00 2.616886402392894606e+00 2.877549262934047558e+00 9.153870038832105038e+00 -1.889049862103911792e+01 -1.379863331232475154e+01 1.212497967239142582e+01 3.637374965825830486e+01 1.496556103986837272e+01 -2.190335775708155963e-01 -6.614767306686079706e+00 -3.105821604760814481e+01 1.531232255016580446e+01 -1.963039922643059398e+01 1.566912993659805764e+01 2.908409889903078493e+01 -2.443046100382531449e+01
-2.470831843047419873e+00 -3.258882700740357308e+01 -1.763853446474850273e+01 2.805653699149885227e+01 1.808664488053068808e+01 -5.516822740961304206e+00 -6.827733658062693500e+00 2.077571772328131416e+01 1.202538068161643814e+01 -1.165772680558527341e+01 6.069587746380680215e+00 1.041485404675949766e+01 -2.424459651969771912e+01 -1.672792596438713986e+01 1.323577478326769175e+01 1.255867652052443439e+01 7.975463244309824340e+00 1.081420304464455917e+00 -4.518867874547070507e+00 -1.227416764446460995e+01
1.108369019978410108e+01 1.409075636074264715e+01 -7.418736287885213443e+00 -1.365385663115749182e+01 -3.895821007933089497e+00 9.951963036171344035e-01 3.108594273073033420e+01 1.686036271671559916e+01 -2.680246149139649958e+01 -1.625784613350757724e+01 -1.053979980034041031e+00 2.605584498081085609e+00 -9.021209228729286878e+00 -6.070761046579466580e+00 7.364037127145616424e+00 7.819784764863656257e+00 -4.402056765340755184e+00 3.844982125782642868e+00 7.860905483630815205e+00 -9.777856601695338767e+00
5.015421105134364232e+00 -4.624001118101415564e+00 8.476331352722452639e-01 6.486426664326174318e+00 -4.374236568103028411e+00 -1.032118612569900584e+01 1.589227605102599483e+01 2.053662451977677961e+01 -1.303140452016559436e+01 -9.014198439565753063e+00 1.041738482471929039e+01 6.345912501411235418e+00 -4.793556409816106090e+00 -5.777571433414106394e+00 -5.639740116689157645e+00 2.107103072180086301e+01 9.416099796155798174e+00 2.914596294904638007e+00 -3.136947379326199048e+00 -2.067887477127816354e+01
6.612578052352070301e+00 9.649536509576469578e-01 -3.421374877345541421e+01 -9.002181582682007743e+00 2.194344192845116126e+01 -2.484645980795515285e+01 9.577281312520689482e+00 1.514292798557742126e+00 -1.573122540293883453e+01 1.843128983731282133e+01 -4.658730940879983073e+00 -9.385832690224194863e+00 -1.206948881455301681e+01 4.497529637698921334e+00 1.343811569841963482e+01 4.731961526037051335e+00 -2.495893730237727315e+00 -1.344744148469457379e+01 2.385075282473884672e-01 6.458872992234788057e+00
7.576305104232842424e+00 -1.244487795641124350e+01 -1.935747005887914440e+01 9.446297764135298536e+00 1.009748171552880969e+01 1.918832604881185944e+01 -1.549451228865377317e+01 3.234969541227792789e+00 2.229717977623492331e+01 -1.743800495139268847e+01 -1.485864510810286987e+01 7.411789788000017198e-01 6.860277818090684931e+00 -3.252486590967683000e+00 6.066250303657247045e+00 1.640319917783943993e+01 -1.922834915498025987e+00 1.615423045401424007e+00 7.018299003950999371e+00 -1.515125362378079998e+01
-1.616539994802683955e+00 1.605731556231133172e+00 1.306236243398386065e+01 1.771839699830248804e+00 -9.127931592945460082e+00 -5.097333581797985680e+00 -6.781089517962894941e-01 -1.789926811514812144e+01 -5.528766161777264543e+00 1.834002801484407286e+01 5.850577438916986672e+00 2.302168394757157444e+01 -1.179691307437368408e+01 -2.618191906998303864e+01 2.668221222078896115e+00 7.083947342283893001e+00 -1.003607001236074936e+00 -2.017670941305730548e+00 2.505702314422837862e+00 -4.774856071042589356e+00
5.519219483138078530e+00 1.899369806153441864e+00 6.084561089701026049e+00 1.345604815419015443e+00 -9.297630307939840577e+00 -7.848614127922164840e+00 6.200794269357145616e+00 3.922539426367997795e+00 -7.051583714132543257e+00 2.840030066628280281e+00 -3.172750263349627886e+01 -1.420890398916170749e+00 9.338642262896524215e+00 -4.680330354295177742e+00 1.800965800392143379e+01 -2.981181584205569446e-01 5.742342409145201998e+00 6.086446127626393476e+00 -4.109844835008312103e+00 -5.603911597742907702e+00
-2.133460085519735205e+00 6.782531244157142147e+00 -1.864138947871792684e+00 -8.036488727432132606e+00 2.927556016671751582e+00 -2.601537616539678410e+01 4.129773586447733180e+00 1.325167922840208767e+01 -7.004779956713313105e+00 1.034590510668632213e+01 1.817085010989193705e+01 5.696301352465201973e+00 -7.043680732109472764e+00 -3.670057319658007078e+00 -1.009631929090355129e+01 -9.645357967391461784e+00 6.913857214675683815e-01 -1.157178274120293082e+01 -6.374430710610486273e+00 1.646819827909009248e+01
2.927529879175330763e+01 4.343127497740624676e+00 -5.290757949969078666e+00 1.856762064907824472e+00 -1.977676929613369339e+01 -2.204960282600425714e+01 5.012403816964129177e+00 1.307151108772700887e+01 -6.940549124691127503e+00 7.158224825865932672e+00 1.245854159806375705e+01 -1.481786656352493559e+01 9.782171019272206669e-01 1.836511582275418064e+01 -1.062688737097009550e+01 -1.089064221401924470e+01 -3.806999759754476464e+00 8.070927086484388724e+00 3.577194286080474850e+00 2.128303245471800054e+00
1.003688093747536314e+01 -8.011260965591608496e+00 4.460024971686615380e+00 1.229328212425789779e+01 -1.116530510567900514e+01 -3.014990555359764812e+01 -1.053576447548890904e+01 -4.396015026714077401e+00 2.035450037802198242e+00 2.867175295318668304e+01 -3.025446081300765755e+00 1.827313761074410348e+00 4.642199356557075163e+00 -1.888265205248427225e+00 -1.922440756524375738e+00 1.614157375405617145e+01 -2.053844548636848444e+01 -2.541283850753689233e+00 2.493193206864388500e+01 -1.054023803930347114e+01
-3.906448084065197612e+00 1.215982260768205236e+01 -8.558327360176457788e+00 -1.599117096364269841e+01 9.331144528374622382e+00 -3.299977171122862707e+00 -6.696100360840476995e+00 -5.035312102924144995e+00 4.914152735061568578e+00 7.070602879338411917e+00 -9.258502972972443956e+00 1.159610736953512777e+01 6.478853064987314170e+00 -1.313493259101960930e+01 1.140891902716913542e+00 -3.151119674410357518e+01 -2.330439623482493516e+01 4.030637567592526693e+01 2.764648406335007991e+01 -5.529118335973461917e+00
-3.022732808204575861e+01 -1.420003318173815465e+01 1.045507857504009408e+01 9.873044243330488356e+00 1.732835698329085261e+01 -1.575929840435606089e+01 2.698203566555222199e+00 1.517050209220434809e+01 -2.308660335471734104e+00 4.750261634669300514e-01 -1.729265656679225671e+01 4.266355768971493490e+00 3.691493308252534433e+01 1.141665034082872676e+00 -1.611888792547068050e+01 -7.689076278637908324e+00 -5.395707018039543001e+00 4.848049641514669439e+00 5.244785242978858619e+00 2.217735842991756634e+00
-3.402195884281422167e+01 1.062090819823644594e+01 2.539456931781449001e+01 -1.262280485225817550e+01 6.934428743325523392e+00 -1.414968391956299421e+01 -1.971441715560947827e+01 6.466030651806152996e+00 1.893964446902186793e+01 7.569301181358214947e+00 4.024817131572410389e+00 -2.454398453625970866e+00 -6.281771767012500618e+00 1.252766767916722701e+00 1.326904338981263587e+00 -4.872455112188491810e+00 9.091992372047373649e+00 2.140347639669599289e+01 -4.319207394407818867e+00 -1.422520987936137615e+01
5.189073994117711308e+00 1.908950504563655670e+00 -1.705884608998641028e+01 -5.388399313843978966e+00 9.411065062698932948e+00 -7.195187037158735421e+00 8.694336266003499514e-01 -1.541664919804238032e+01 -6.944375895088409578e+00 1.796554906783605432e+01 -8.930548519949756070e+00 1.047246697870971666e+01 -2.878302600430340807e-01 -1.380114451042556567e+01 6.354945725156381009e+00 5.126794579753468639e-01 -2.375764969904132329e+01 -6.810304176900522144e+00 2.302260684409550962e+01 5.909320773827845485e+00
-5.869253691768150816e+00 -1.776879245949282593e+00 8.699287871719862508e+00 2.893697988907936391e+00 -1.957361413801014027e+00 1.654414595403027377e+01 1.986546291384683727e+01 6.359632896662747115e+00 -1.409391779086253749e+01 -1.990735437748205783e+01 8.281898685467597332e+00 1.941865402850463695e+01 1.083694975278403838e+01 -1.535985393686065237e+01 -1.713434896085329839e+01 -1.639340902562432944e+01 -7.394196741753783719e+00 1.804150585862969081e+01 8.739069844707053392e+00 -1.147506734419788899e+00
-2.217529239078510628e+01 -2.297770245941162770e+01 -2.268730937331927322e+00 1.746429291866538946e+01 2.145370860044144834e+01 -2.680496526377260214e+00 -6.735945702394190882e+00 -1.240075931430521416e+00 6.211117246926940894e+00 3.518613464463647311e+00 -1.229365349613719793e+01 6.592614382967882491e+00 3.132966587797227120e+01 -1.544251224813307566e+00 -1.589321430877662422e+01 3.769292949573976426e+00 -1.335842066468132527e+00 1.636906791372464198e+01 7.257441714723673165e+00 -1.666458134257058177e+01
9.075176211839991680e+00 1.036744198579251197e+01 -4.835413384071364007e+00 -9.723223925421299541e+00 -4.233261836612032702e+00 -3.493950483704574594e+01 1.546883939736876634e+01 1.748942499268084916e+01 -1.987008652474602499e+01 1.349591988262355891e+01 7.163523637982678771e+00 -2.576849019566871846e+01 8.493848677684287196e+00 3.053510117085306419e+01 -1.150518883479784549e+01 5.857159379450820325e+00 -7.438012087879597445e+00 1.142376114796867448e+01 1.280724203449483412e+01 -1.409866291030407304e+01
1.499299963043446482e+01 7.285771625012475994e+00 7.106985837183606769e+00 -1.534427634901521120e+00 -1.826592352118283102e+01 -2.465677983754194003e+01 -1.120398174645180767e+00 -1.305982309082029724e+00 -5.286297129088401547e+00 2.121581016852512391e+01 1.887838140453852986e+01 1.510300608632497976e+01 -3.778039365273370009e+01 -2.203056471447780851e+01 1.334369076845086077e+01 1.402903811673978574e+01 -1.549452217706979340e+01 -3.993030810273745068e+00 1.887510826822158450e+01 -7.806872608098552213e+00
2.204970312718360503e+01 -2.389216933885575855e+01 -7.330956253283915203e+01 9.695434600739959663e+00 4.197663383131634873e+01 1.745225122262535322e+01 1.933999524370775447e+01 8.049617024086968442e+00 -1.290989418091500163e+01 -2.201796891100254783e+01 1.803035205121232565e+01 1.546945711217690089e+01 1.422507294836229796e+01 -7.690492056652271202e+00 -2.752551716056416353e+01 -6.445838433710333959e+01 2.474869215305765024e+01 3.859566027863710502e+01 -3.127550318445188182e+01 1.982334726223522736e+01
2.362703597902782349e+01 -9.576387985851265938e+00 -3.146949145325657060e+00 1.538084136251700151e+01 -1.602265967966832605e+01 -3.437092458141879803e+01 3.368134771236086067e+01 7.413083768707220145e+01 -2.225398137686623556e+01 -3.315786109738108678e+01 3.257063837787262628e+01 4.902624893640508219e+01 -2.093590148575176357e+01 -4.872333648624838531e+01 -1.343805925320055117e+01 -2.571219214812466802e+01 -2.132057301100921265e+01 -5.979343469479537099e+00 1.382969596146011426e+01 2.641874588280580127e+01
-3.844939280378327595e+01 2.600470210780844482e+01 3.492190336079242741e+01 -2.695621901930629960e+01 2.008699664969621157e+00 5.010557759195690153e+01 1.760077732832112574e+01 6.931186646037208909e+00 -2.679146206737665903e+00 -4.756013282442665968e+01 -2.245641809901568209e+01 3.062131981145663673e+01 3.119863173165021664e+01 -2.918899402656727204e+01 -8.949529375536336318e+00 2.841520786489222417e+01 -6.966284539569271850e+00 -2.480265834417454851e+00 1.424668386683884869e+01 -2.138608483392739146e+01
-2.843007913837198330e+01 4.477827187520116325e+01 2.092185425928344245e+01 -4.777241248627308323e+01 3.913608987233754277e+00 7.087023552575780982e+00 -3.126890426019704794e+00 -4.784613409213803692e+01 -8.414191493659615162e+00 3.244299120451532303e+01 -2.224261126239548503e+01 9.680883282850048843e+00 1.176982016698714162e+01 -1.300739780658524936e+01 7.637928028576498996e+00 2.770635629981750014e+01 1.001861907070152746e+01 -2.186410150104756767e+01 -9.139205422523822619e+00 -6.385173180392354375e+00
1.140095551383912564e+01 -3.586683262137879069e+01 -4.307847388723413218e+01 2.784600868075804314e+01 2.730332306768976380e+01 6.841873780243091119e+01 1.889504742968761164e+01 -4.449262188479789160e+01 -1.404025176799215302e+01 -2.160772040976207720e+01 1.828139151301203924e+01 4.624920004628250148e+00 -1.088690055775202303e+01 -3.613025785682527857e+00 -7.031546348213907116e+00 8.081269516801473429e+00 5.000143234297320660e-01 -1.883232454664347699e+01 -3.606461591133176547e+00 7.824922872300438037e+00
1.725212158415568453e+01 1.676344230930732238e+01 4.877284447849546467e+01 1.272172820793262327e+00 -5.390215171937835237e+01 7.489704157795563333e+01 -2.828969243393471800e+01 1.288384473989531998e+01 5.295974375890731523e+01 -6.976439889328786137e+01 2.707360599842393611e+01 -5.240557890220282067e-01 -9.548218590000855599e+00 4.426799027633053996e+00 -1.496251697083383903e+01 -3.319272735656525697e+01 -9.366440299855412377e+00 -2.332312502095428997e+01 -5.529631568095215499e+00 4.566599027187247373e+01
3.745986824022134698e+01 -1.066456989766520103e+01 -6.825439044131113064e+01 1.350510782602013071e+00 2.456623701487096767e+01 5.052816764580796161e+01 -5.615942005644091850e+00 2.215209229047653849e+01 2.571192571672206739e+01 -5.871220650773574334e+01 1.499917874154214736e+01 7.355096919953855661e+01 -5.880580133544400923e+01 -8.971105031649905470e+01 2.957556320581056042e+01 -1.078242241251788727e+02 7.906796845936628904e-01 4.961467542786173368e+01 -1.470509194303774159e+01 4.785366039118211035e+01
-2.900561840504952826e+01 -2.349906392752708406e+00 1.123895747168814729e+01 -1.853131178191439243e+00 1.500295502794731739e+01 6.080502977387025609e+00 4.900354478540768355e+01 1.847085455838384860e+01 -4.356545399968300103e+01 -2.279548044368192805e+01 -4.650130317477535868e+01 2.365642563108366403e+01 6.690901231362133217e+01 -1.805973451441989397e+01 -1.736047528714859212e+01 2.952999999989449265e+01 -1.127492663243752880e+01 -1.015115223773338755e+02 -9.515158332641435734e+00 5.691631013050740506e+01
4.362274151193309990e+01 -4.286340612628087854e+01 -5.853513500523725099e+00 5.433205573417457401e+01 -2.822363868732811554e+01 -1.731474904649420665e+01 -3.904619406635757883e+01 1.564339092168940226e+01 4.072481172854620723e+01 3.968128488933678089e+00 2.589283571435384346e+01 6.088836461967333413e+00 7.993965986556385239e+00 2.294657314177102059e+00 -2.839740940453352280e+01 2.492979576593738145e+00 4.297272555495226953e+01 -7.767309035501026582e-01 -4.386072203643307432e+01 -4.631928864773383836e+00
-1.450681263079369643e+01 -4.547376286949985058e+01 -2.763830942460891293e+01 3.550052558855042406e+01 3.680667208192437556e+01 3.982043590927787591e+01 3.817031706291921722e+01 2.918993050203505302e+00 -2.791177572236115978e+01 -3.722482556516293783e+01 -4.542326061892373446e+01 1.732230172313286687e+01 -1.437948398822092777e+01 -3.455528269252584295e+01 4.695105275978163917e+01 -3.924339632482028861e+01 4.314748790143817558e+01 -5.886438740526713786e+00 -5.652203271332854939e+01 3.354717588425859276e+01
2.180133587684242968e+01 5.825384334528681762e+01 3.581374491864781362e+01 -4.423306010646136599e+01 -4.981705351033910034e+01 -7.777915646648702364e+01 4.124140205956366856e+01 5.358405054802724266e+01 -4.748096563441084328e+01 1.811388143928617112e+01 -7.340741611608909523e+01 -5.388686093326433735e+01 6.374032263201155502e+01 5.437767439635886291e+01 1.188032151372439138e+01 -7.817132433402945502e+00 -1.792749546969711361e+01 2.231279747422811255e+01 2.315102996695306103e+01 -1.090483887200519497e+01
-6.781841837465449885e+01 1.586706715035383120e+01 8.112151172803397259e+00 -3.191706236715500111e+01 4.800328583642797753e+01 -5.084874264647923070e+01 7.801025901988118960e+00 4.871660974629466523e+01 -7.078980081792194845e+00 2.135650795700539728e+00 -2.699137587380506531e+01 1.782153165911086745e+01 -5.053349652361743161e+00 -2.759937745372577567e+01 2.447927871988075310e+01 1.530445842939603196e+01 6.074204606050360411e+01 1.147215448380102210e+01 -5.534032681977519985e+01 -2.589145322602506738e+01
1.515278176666582510e+01 2.324458515536331760e+01 -3.381056718683259188e+00 -2.090052117071061488e+01 -1.097938952142584768e+01 -2.004581447250885518e+01 5.815097381909612295e+01 2.014335069024725655e+01 -5.950389631046450489e+01 -3.367057371175325997e+00 1.568734257763063589e+01 -1.472229335641728554e+01 7.993356528687219686e+00 2.116211314306120173e+01 -1.876237817570984490e+01 -3.388682205096682054e+01 2.033307500095676090e+01 9.446958131368644729e+01 -2.548203897548846797e+00 -4.946747769987381815e+01
1.219057876157906151e+01 1.926129764903571484e+01 -3.474312571251828530e+01 -2.663561309915139930e+01 1.660569175629581906e+01 -3.445514581229894624e+00 -1.937591189729551688e-01 -2.873247845364877318e+00 -1.222758385637919165e+00 5.037362277011999012e+00 -2.347081692214115023e+01 2.344278459058464037e+01 -1.304388196448116943e+01 -3.475966649082103999e+01 2.757427175803932329e+01 -1.949521543145271352e+01 -3.366119043823987056e+01 3.397137367695101062e+01 3.979294087677636327e+01 -9.688898036446214945e+00
-5.367123971330833854e+00 2.979299452679650351e+00 -7.840184237620867691e+00 -6.702452866584511781e+00 1.047924354774389144e+01 -7.502729849405030293e+00 -8.661690934438134093e+00 5.172488898598452955e+00 8.905344052607771843e+00 2.477310015810451738e+00 -2.391119269390595647e+01 -2.285879104664754280e+01 1.126047060102959740e+00 1.719324087171085225e+01 1.944912825738036943e+01 -3.641728726215232115e+01 -2.289626334295113352e+01 1.646570207077981607e+01 1.906588197128103346e+01 1.732187724298230336e+01
-7.896011512313145353e+00 -7.328884248723938732e+00 -3.536356603142161603e+00 4.586774813745525314e+00 9.874019295048521272e+00 -3.759774398074605983e+01 -1.633591500429179444e+00 2.016816236980014310e+01 -2.042550243448809866e+00 1.466471521580194093e+01 1.144405878700877643e+01 -1.403888748305654488e+01 -3.231032520786841644e+01 7.648978482603677520e+00 1.664937842274547819e+01 -1.234078089023592817e+01 -2.179155518494953370e+01 -6.085414767463577235e+00 1.777776511511357427e+01 1.575464480762762776e+01
-2.626230342726315925e+01 1.496829791034863000e+01 2.063978963949197265e+01 -1.634753564152743266e+01 4.163829140257225170e+00 3.826820104329383909e+00 -2.425769961965207955e+01 3.192097015759762346e+00 2.737144032645946368e+01 -4.344261620611860941e+00 -3.606545687171068160e+00 1.545456741528978384e+01 6.099100131300311034e+00 -1.575180781026302768e+01 -3.385314354587548813e+00 -4.262459395099130965e+00 -8.993794998715188171e+00 7.317951469476617454e+00 1.045947598678266566e+01 -2.478804562567721970e+00
-8.593535952988933246e+00 -1.016126668734808369e+01 -1.255103951892012937e+01 4.686812390557300922e+00 1.773902566605744013e+01 -2.212389476571952329e+01 4.217470667499378933e+00 1.904413126703065728e+01 -4.393167584931893188e+00 2.588151485235794969e+00 -8.029438417901555880e+00 9.294860367111114741e+00 -1.700224804222859731e+01 -1.718564959922043656e+01 1.897872575967026876e+01 3.265125398577846028e+01 -7.885835736028171006e+00 -2.661753811742033804e+01 9.331105722274310565e+00 -5.511744886467526250e+00
-3.871371531310381187e+01 6.375292460830125130e+00 5.293318639661605651e+00 -1.515996200447060183e+01 2.711493581328920044e+01 7.366379895018824620e+00 1.613169755649434478e+01 -8.342787880907783560e+00 -1.689610584034686269e+01 -4.644160560375366620e-01 -2.180593060069585221e+01 3.664769576936538442e+01 7.724180711932972621e+00 -4.202316706240915067e+01 8.834336406752528958e+00 -3.234031679467504006e+01 -4.006613201133563962e+01 1.349313444651634342e+01 3.710711370982738799e+01 1.748185420641308241e+01
-2.060599520752679936e+01 -2.283425116130421273e+01 -2.200279689811590700e+01 1.200712870816432876e+01 3.584932158579070460e+01 1.710909015241196940e+01 3.388960170016245277e-01 -1.480578758355090407e+01 1.883658248017010817e-01 -2.288499802847139275e+00 -1.403092179595797440e+01 2.079899370682780635e+00 -5.359696114138415624e+00 -7.889798008397234774e+00 1.507853894369427650e+01 -2.372217829508527842e+01 -1.422875185109838014e+01 2.076116387778631278e+01 1.471436742151845678e+01 3.097765294421816140e+00
-2.262630987708074137e+00 -2.725358475182916074e+00 -2.802578863644450635e+00 1.563687881823693893e+00 4.375103087311133621e+00 1.126223083714234541e+01 -1.175450983951315642e+01 -2.472245241735920196e+00 1.476221947433099757e+01 -6.574870731542740820e+00 -2.417812625481795763e+01 -1.889374547863286580e+01 3.601908155767772346e+00 1.369505391638874769e+01 1.752963704591278926e+01 -4.441527251729543480e+01 -1.634217858930010081e+01 2.699157178371786969e+01 1.328153309095971046e+01 1.517989632943505640e+01
1.642276736661459235e+00 -5.571989667960137282e+00 -9.944609518256497083e+00 3.412409282658237508e+00 6.969022863204440199e+00 7.816535621518327481e+00 -2.889080507679500087e+01 -1.305156863567401615e+01 2.855364880527771021e+01 5.711717325919335231e+00 1.356242161801940149e+01 4.750560213766164885e+00 -8.164145390173814576e+00 -4.256441241441573098e+00 -5.402933000215668358e+00 5.911437905220482847e+00 -3.210269504131145535e+00 -3.393098248107866421e+00 4.079365241795867014e+00 -2.555374611193414136e+00
