0.000000000000000000e+00 1.126555260002755632e-01 2.490275900049425048e-02 0.000000000000000000e+00 1.208011886846958455e-01 0.000000000000000000e+00 2.912000245434109291e-01 -3.582005881583936145e-03 0.000000000000000000e+00 -8.216516156111952629e-02 0.000000000000000000e+00 -5.352974409289664726e-01 -5.662721770973417473e-02 0.000000000000000000e+00 -5.553331967271885050e-01 0.000000000000000000e+00 1.783732887835814684e-01 -2.702095262026175948e-02 0.000000000000000000e+00 -6.401421118798792387e-01
-6.423705876281808613e-02 7.929020767120192881e-02 5.084504570697286063e-02 -3.275821120632158023e-02 1.947261309675516472e-01 3.908830590093360230e-02 3.450236539101332323e-01 4.959799955087690337e-02 -4.939127473628785597e-02 -6.451025761344734988e-02 7.277143857774180657e-02 -4.106414822922346830e-01 6.017040163564241206e-02 -5.744912634903635157e-02 -4.736699620756428808e-01 3.696977225701961883e-02 2.525760961255907322e-01 2.424311630076789181e-02 -4.321892467223821532e-02 -5.905974250857896068e-01
-7.726385605002639156e-02 2.251573326349763648e-02 -3.905371133183967863e-02 4.995406275115981537e-02 1.259566878068856532e-01 -6.981032547780108288e-02 2.101323266378026522e-01 -7.749413479021488582e-02 1.175449644010381350e-01 -1.586616420248435633e-01 9.497498947724395540e-03 -4.521148202008010153e-01 -4.237161740548375799e-03 -2.250461647758145861e-02 -4.844407401443153183e-01 8.633898863105135546e-02 2.701941942286588128e-01 8.103750536257633974e-02 -7.101915398214814212e-02 -5.800038808085821174e-01
3.179214381140536144e-02 1.251572746067706188e-01 2.973174167897150999e-02 -3.940037355660401530e-02 9.969390606847870762e-02 -3.125348826532921981e-02 2.804248892261342330e-01 -1.793012259225944260e-02 3.366920935896842992e-02 -1.018806950460022370e-01 9.025800402577485726e-02 -3.664128444822150610e-01 5.093895637183060848e-02 -1.230910556036119985e-01 -4.609367738110367596e-01 3.693110001681702836e-02 2.569800755441090101e-01 -5.938145444352588287e-03 -3.552560117654822436e-02 -6.131646764454098397e-01
-9.286217223572604262e-02 3.145072181387799370e-02 -1.085779347810265638e-01 8.411468751631043239e-02 5.963653949125891779e-02 9.341293957065290379e-03 2.988835816088482034e-01 9.265122171022906541e-03 1.627099253133065457e-02 -9.490941284178333603e-02 4.615556213658643381e-02 -4.372442250981363743e-01 3.239426030982217597e-02 -4.146773992240450346e-02 -4.633186542117398443e-01 3.867804465615401477e-02 2.368928251120812900e-01 3.659911930279668990e-02 -8.023838519514686629e-03 -5.920643879399062337e-01
-1.998607211112316678e-02 1.972245072196086857e-02 -9.441084367462382332e-02 9.073585116589072408e-02 1.673309154398358589e-02 3.489138552060608300e-03 2.353943577977811730e-01 -1.364449020381955369e-02 2.185856435795741765e-02 -1.283710772592127347e-01 -1.349217256801921172e-02 -5.077752449153505321e-01 -3.020359860313255596e-02 6.176556833335666852e-02 -5.029396716543566015e-01 -1.674218511213168559e-02 1.723894219743635770e-01 -1.347793284750242737e-02 -3.419983989951545789e-03 -5.933898932213773625e-01
-4.671843551453823407e-02 7.053338232788816664e-02 -7.115876908921880961e-02 2.852168021151497632e-03 5.885357703140862290e-02 2.090361125396616310e-02 3.300230533233476371e-01 -1.787108982746411084e-02 -4.605248922680470203e-02 -8.400611672836012789e-02 -1.921601693818304757e-02 -4.287566894385029248e-01 9.003543440063155323e-04 -3.615401201241656703e-02 -4.456464344478696105e-01 2.551241099389411557e-02 2.682293057208871012e-01 2.569549124030189730e-02 -9.500961371306178294e-02 -5.420911007552270400e-01
4.909485638537659791e-02 1.315409331321750197e-01 4.710731272726279006e-02 -2.722246034366752193e-02 8.099083288762239097e-02 -6.118732790066927496e-02 3.101720987203837598e-01 -1.000577440139576585e-02 5.668562310994815223e-03 -4.711932960782108659e-02 1.392753148942741936e-01 -3.198556883707667220e-01 1.361937728985052887e-01 -1.610861184964730297e-01 -4.239472816398717758e-01 -6.539951808875260619e-02 1.101912701058465893e-01 -6.916887224041201598e-02 1.228193804106927911e-01 -6.695415970534893679e-01
-6.722366919032174426e-02 3.818727870636242500e-02 -9.057041352173128557e-02 7.578139379806628217e-02 2.783313925057050164e-02 3.732791122999661038e-02 3.316420052365085525e-01 8.359296348684269740e-02 -2.929532882763705853e-02 -9.933527148066247092e-02 7.551299350886059303e-02 -3.959159262436901527e-01 4.916533881490457725e-02 -1.004489441666811533e-02 -5.384513965759832876e-01 -5.297209600926927608e-02 1.631931725272561529e-01 -2.405503336706387579e-02 6.300036428302902003e-02 -5.455650022743021577e-01
6.661333277782729989e-02 1.730152056050247023e-01 1.113677296887140428e-01 -1.187728329634612501e-01 1.416660536851032659e-01 4.522508051309245825e-02 4.261563878954151008e-01 5.467437795835097814e-02 -1.504297886200502699e-01 -2.787799930578674368e-02 2.224130066000206962e-01 -2.967865026003029816e-01 1.941326882148531607e-01 -1.962142691282590667e-01 -4.783747967378493282e-01 -6.574678294343491020e-03 2.355534274322170774e-01 4.257954841512938404e-02 -4.384430247149402604e-02 -5.552487040075396729e-01
7.052146215892063363e-02 1.662186695454663798e-01 6.068890884873794078e-02 -4.627473952520258504e-02 1.397953789906231925e-01 7.473127978439954300e-02 3.885614973290345553e-01 5.285394229322509796e-02 -1.098794676104713208e-01 -5.911247048094343814e-02 -8.401864114544851936e-02 -5.673888218700516850e-01 -6.024837496022075745e-04 4.294635973068922086e-02 -4.466030375601770519e-01 1.608638085441901899e-01 4.261589604184851110e-01 1.615588366105302209e-01 -1.786231229519462393e-01 -5.459061515615186710e-01
2.441063525623692332e-01 3.645821134518448248e-01 2.851792252872775157e-01 -3.024757713232141820e-01 2.458409655085068424e-01 -1.193994176029232121e-02 2.767801306675249928e-01 3.390014569692288704e-02 7.460754199974627132e-03 -2.535963747009373215e-02 2.762733070135174260e-02 -4.546877341394551797e-01 2.799598028173083328e-02 -2.233318751773316624e-02 -4.734940182488552862e-01 3.069035254680305830e-02 2.395069548360844180e-01 1.044490039432865308e-03 -2.665562838616182539e-02 -6.347539375416491048e-01
-8.115006964465143469e-02 -9.742200773904211020e-03 -6.135997537436870680e-02 8.437973289417410871e-02 7.312395742537403098e-02 1.204456522179676858e-01 4.570694885925333240e-01 1.272967574022538795e-01 -1.074248757267964594e-01 -2.527703006971242228e-02 1.464212852978653001e-01 -3.507865602948617711e-01 1.251464652415474332e-01 -1.490757289002984098e-01 -4.570627189192810191e-01 4.852704738624535885e-02 2.625287322211889429e-01 2.720325622599679277e-02 -7.914686202695281336e-02 -5.871931919886574924e-01
-1.139510835542658918e-01 -1.837893564677332836e-02 -1.097914470553117000e-01 1.216629011592500059e-01 5.650058555023800694e-02 -1.257053397268387274e-01 1.523614656300075199e-01 -1.265956148607847442e-01 1.558593796374275198e-01 -1.824470970415247029e-01 -2.691093184924665815e-02 -5.259018286417151966e-01 -6.002900868695412728e-02 8.743492808074043721e-03 -5.479493432236050010e-01 2.014925226157513599e-02 1.582858307399129805e-01 -4.941620499913722264e-02 7.559084284023691314e-02 -6.865854280362923001e-01
-6.144427344457491919e-02 3.232030404524038197e-02 -1.549109446484821240e-02 4.867404677217458675e-02 1.498186287751785972e-01 -5.274427303427841468e-02 2.620460761038974074e-01 -3.027877819640367729e-02 5.385195958503716240e-02 -1.218132417249325611e-01 1.372261751140815278e-01 -2.917566936462875349e-01 2.021956546330310189e-01 -1.934350698136086399e-01 -3.763194599753228453e-01 -1.008756523706501873e-01 7.597578418587716542e-02 -1.244780072901507662e-01 1.269489813378903431e-01 -6.667108502849306007e-01
2.964637799462388479e-02 1.545618958517118446e-01 3.170809866837647623e-02 1.349290187476472752e-02 1.008443342131907505e-01 -9.975506855336842282e-02 1.679222060996939936e-01 -7.950477997388424867e-02 8.817523164228872889e-02 -1.101219227151484792e-01 7.105337592660360135e-02 -3.879152306373774284e-01 1.221966994209965490e-01 -8.861787799889792039e-02 -4.373019956040096190e-01 1.667982344492242308e-01 3.896873612840707768e-01 2.176525105862445464e-01 -2.454236591055760919e-01 -4.816142224679444972e-01
-2.457545329248925214e-02 4.819911779745782165e-02 1.539990625449235220e-02 2.109816653764796240e-02 1.545535931903369575e-01 9.406027561768788570e-02 3.764313758658833775e-01 1.042918238829593225e-01 -5.124616353858839346e-02 -4.628101678428929444e-02 7.730964495296646644e-02 -4.239455026634480483e-01 4.320135556201654820e-02 -7.086497590389881363e-02 -4.799590824075897211e-01 -9.828985966734771207e-02 1.195083078121596809e-01 -8.881659906525359027e-02 2.752414045410225829e-02 -5.818730730642918125e-01
1.061550247987798623e-01 2.207109777688812391e-01 1.012410173939770897e-01 -1.592687910545733387e-01 1.237428308710711022e-01 5.350661414004399818e-02 3.900493954774008065e-01 7.580522979938232597e-02 -9.340903515604628837e-02 6.022447960028348701e-03 3.175364326225320333e-02 -5.031432815874592457e-01 3.224822875773117326e-02 4.455387981931874242e-04 -4.976104305135570227e-01 3.534955025716204208e-02 2.592773796433081035e-01 4.782617455019561037e-02 -7.006976771689876760e-02 -5.898506097153737304e-01
7.626918607970216424e-02 1.264363265633793865e-01 3.843221197919050036e-02 -4.691393811405603076e-02 7.584592505133923301e-02 -1.327143545446599626e-01 1.817201129255987813e-01 -9.400571354589742912e-02 1.364748851558924558e-01 -1.173832103922120007e-01 2.649484969566117121e-01 -2.293971315364863872e-01 2.126030943182522781e-01 -2.437270605971499360e-01 -3.826561525076115911e-01 -3.710506051139764866e-03 1.135646048869198843e-01 -4.601926267130349024e-02 5.185536117806380241e-02 -6.851994663509767269e-01
-1.704896940106795378e-03 7.800239900421662709e-02 5.798881912068448719e-02 -3.402574360502822609e-02 1.232921987531715169e-01 -6.936995479688812249e-02 1.712460026373714417e-01 -1.129316357811757515e-01 1.296599742155706003e-01 -1.825303058459431249e-01 -4.354986825724788124e-02 -5.553835416096831734e-01 -8.517979923910648510e-02 5.451488293132497609e-02 -5.540509047578435764e-01 1.111839743596220315e-01 3.503090808108425547e-01 1.183285175432615827e-01 -1.642652587423722443e-01 -5.240894836561514891e-01
-4.995670020770041908e-02 6.236472453577365793e-02 2.697492799498821953e-02 9.027320499309952895e-03 9.065354259931471259e-02 2.901053621983649619e-02 2.811419932876700889e-01 2.922524973878277976e-02 5.335963438291236455e-02 -1.111399453566935536e-01 3.856378312068731162e-02 -4.365936123692627513e-01 2.354518488508635515e-02 -4.659843598349481392e-02 -4.890264507832465801e-01 -3.951891961194314851e-02 1.800804775672218971e-01 1.951307951086379139e-03 -7.668263589359736176e-03 -5.732092437087280556e-01
-3.147675943301200124e-03 1.142402011106865012e-01 4.254772625565979294e-02 2.608087617758540755e-02 1.774228212571990482e-01 1.549295066127666098e-01 4.545334675819512338e-01 8.727769440666309497e-02 -4.485958464757812403e-02 -1.136553176695752759e-01 1.021503846931840487e-01 -4.646094096840241994e-01 7.203411357088929101e-02 -6.468972930544564237e-02 -5.107562081514986918e-01 -6.194807152708797782e-02 1.859233863763685990e-01 2.836022447589183273e-02 -6.012667144189293850e-02 -5.549673343258388902e-01
6.004245783400165987e-02 1.365615997337703558e-01 9.823761885925590132e-02 -7.502543179597934153e-02 1.382734549012185066e-01 -2.045287084728585753e-02 2.125582957278321639e-01 1.003701272861681620e-01 4.587798902264771106e-02 -7.569292247547279584e-02 -6.303267852174691821e-02 -5.416471248600636113e-01 1.775550956380714251e-02 2.610864551141942047e-02 -5.135648272566428751e-01 -2.024270374984935839e-01 1.804434743476165948e-02 -1.283539814118776767e-01 1.235519413772075414e-01 -6.818243619693467039e-01
-7.480534078305986490e-02 1.327712784560482751e-01 1.113866942045414477e-01 -9.296017041062336339e-02 1.924861378419993330e-01 -1.578244745152653783e-01 8.809486549653097742e-02 -1.906989615111442105e-01 1.876350375772910528e-01 -1.500402966380024461e-01 1.392047530855483883e-01 -3.179313842150635616e-01 1.037003158702175243e-01 -1.507355350544107297e-01 -4.479813329518241849e-01 -8.062909762975710437e-03 1.974444615372356882e-01 1.031083988491034859e-02 5.271341749151828293e-02 -5.534523957606813926e-01
-2.694304817098027716e-01 -1.736905994347731352e-01 -2.769671342762616284e-01 2.192115590766528233e-01 8.719930537427969530e-02 1.206097256167546483e-01 2.159218978094628039e-01 -4.913904009862973127e-02 7.414006595108653397e-02 -2.116943943078695711e-01 8.256511187821391484e-03 -4.366214945472243758e-01 3.266629586615453495e-02 -5.336294594178382644e-02 -3.560520542680915557e-01 2.716228892552772223e-01 5.846481787228298144e-01 3.701872248829222167e-01 -4.677854808976429357e-01 -3.300474529400634349e-01
1.462931785299540766e-01 3.653414697359632646e-01 1.893419953199237948e-01 -2.216629572240959856e-01 1.922192950856498883e-01 3.449715354034141868e-01 7.572571593244943333e-01 2.385662471360176784e-01 -3.171807052603166088e-01 4.954122935731138100e-02 -6.638055328258113397e-02 -4.840750619095803842e-01 -2.400675624357945237e-03 -3.319614946967663904e-02 -3.896274046049014173e-01 1.720278303886149385e-01 3.050427937218919694e-01 1.147334734173686699e-01 -3.956537960352302791e-02 -5.985667783567258926e-01
1.775693384744790604e-02 2.655251125570632503e-02 3.778517995828594572e-02 3.425008782043251210e-02 7.678448764449871677e-02 -9.112563326461184388e-02 2.389321340021789419e-01 -7.126880630749150847e-02 9.141995067022741506e-02 -1.190665094700525117e-01 -1.833718605891089537e-02 -5.965801663730971871e-01 -6.028839599028712470e-02 2.038360229147447023e-02 -5.229662488902415696e-01 5.236838658550768688e-02 3.762778695658793304e-01 2.373097926834001614e-02 -1.482701316110321688e-01 -5.487562180521815547e-01
1.087031201098887789e-01 1.479890164341761127e-01 -1.920781384012054671e-03 5.775777997382016554e-02 5.519794471334301539e-02 1.699256047766269095e-02 2.374667199796380856e-01 -1.827366434395058525e-04 9.095538268464947729e-02 -1.920100240788257251e-01 1.550845053596634493e-01 -3.049678148020301682e-01 1.539801164908753406e-01 -2.031951149357372199e-01 -4.131735666606382584e-01 3.329023187746422974e-02 1.487479773049330822e-01 -1.026387162502552519e-02 4.737068385200331189e-02 -6.789977858824440826e-01
-1.726233858914582031e-01 -1.245154283189921635e-01 -2.053067982009706971e-01 1.970022554857496777e-01 -3.442510535306232689e-02 1.317939822588201915e-01 4.440744828748695028e-01 1.279674778483125830e-01 -1.092040518180878717e-01 -6.053624068433063887e-02 -4.557275609130347072e-02 -5.052574082764952346e-01 4.081171336122804000e-02 -4.008364574773905925e-02 -4.271840689081129461e-01 2.247162867404568429e-02 1.716924471479670256e-01 -2.001909844206380823e-02 1.282672496838316301e-02 -6.139998274682905155e-01
4.177330763400321362e-02 2.246724486722517233e-01 7.541043273067529751e-02 -1.348577074191450176e-01 1.782942478668873287e-01 1.482800375619878763e-01 4.569945935118238656e-01 1.130997105562659699e-01 -1.569359078908935112e-01 -3.898886610580683254e-02 9.491694147553528249e-02 -3.768663132710856623e-01 1.072647241383003214e-01 -1.526455678575243113e-01 -4.563082187912129162e-01 -1.363625875547314348e-01 4.459779592018153771e-02 -1.441422170103923428e-01 1.654175248655173347e-01 -7.009404793606497375e-01
1.830257208842302474e-01 2.909592999195764751e-01 1.612444904270286805e-01 -1.543989004836075207e-01 1.613685078041672549e-01 1.240398626420090994e-02 2.527787516396226009e-01 2.772977252392667957e-02 1.749322613078059876e-02 -9.614040258146015760e-02 1.874389790955873769e-01 -2.923991298640737924e-01 9.953330968239242071e-02 -1.286454038728918059e-01 -4.792374746121138562e-01 -7.146303100304583766e-03 1.777467253481088694e-01 -4.077432621472311391e-02 -5.447979346580658633e-03 -6.062585542671394823e-01
-1.762190765650183399e-01 -1.067808558283290521e-01 -2.004588866102141043e-01 2.197546919162342571e-01 -3.268892627386196792e-02 -2.177678232991957508e-01 1.116951146567194131e-01 -1.459450645949644521e-01 1.513460792970758861e-01 -1.054738162937918500e-01 2.476823016085324958e-02 -5.075636634411895276e-01 5.749438111820837083e-02 -5.478399641319325886e-03 -4.796234268562541980e-01 5.562548130706475302e-02 3.428259371395604438e-01 1.067128891135314256e-01 -1.086791939895742076e-01 -4.723102366242296624e-01
-9.357365237676698588e-02 -2.048774360350553991e-02 -5.251708738482385730e-02 1.514587635664162435e-01 1.007012251845299800e-01 -2.292411695029616669e-01 1.030987944008167345e-01 -1.365732490935258059e-01 2.067986063831954713e-01 -2.518716162989909080e-01 2.303606430778354364e-02 -4.381860496550478712e-01 8.981347121504754116e-02 -7.416352758024141734e-02 -4.819335706056029345e-01 2.433331588951883617e-01 5.391894146925134690e-01 2.804095385487674896e-01 -3.526355637095441309e-01 -5.220838357984061151e-01
-7.015389838950161772e-02 -2.638677012383913723e-02 -1.159837205782518338e-01 1.542370469423754165e-01 -4.998136748898553139e-02 -1.295621177628784593e-01 7.164907515356969125e-02 -2.391758752110628716e-01 2.437095795557328026e-01 -2.506371775131481239e-01 4.256688490115624335e-01 9.786550959439133113e-02 4.121268891621822084e-01 -5.349252936109883949e-01 -2.479575439113828605e-01 -1.232763700907417020e-01 3.225323943734390020e-02 -1.126966989124319751e-01 1.916961829594112099e-01 -7.424133966971868670e-01
-7.835184108120583912e-03 5.452981769051891414e-02 -3.900254797456348399e-02 5.029826847944096277e-03 1.027892636615889421e-01 -1.284905323013892375e-01 1.757960122028482397e-01 -1.547450789545609315e-02 8.824288923025459808e-02 5.995925139633401235e-03 5.807233225694946599e-02 -4.284409431840327520e-01 1.264728960138334912e-01 -5.938411751388844584e-02 -3.999741654617322006e-01 -1.538517560547599666e-02 1.093363846516675897e-01 -8.651119072343375904e-02 1.174041493117130297e-01 -7.055388881941733192e-01
1.326289621142945074e-01 3.144393645524576342e-01 1.750736686519628882e-01 -1.584439429129531063e-01 2.334812704633438818e-01 -1.571767217120245697e-01 1.227043065315986947e-01 -1.836678307419588596e-01 1.590064931059324560e-01 -1.211782129094020055e-01 1.981557742258543697e-01 -2.000837123613928292e-01 2.386473686055705923e-01 -2.862964143966401087e-01 -3.413777410444771010e-01 -1.567997732584033022e-01 5.491988840789024939e-02 -2.202822696576274275e-01 1.562226370567847133e-01 -7.185099165704433855e-01
1.109196809132180772e-01 2.472324971013138695e-01 1.166781253294306014e-01 -1.716189878247794676e-01 1.621478806311094922e-01 -9.075063825745044443e-02 2.379494432702065343e-01 -3.537637203972614219e-02 3.766004444338930113e-03 -4.720251016743719219e-02 4.779045292560939184e-02 -4.416004405729266336e-01 7.054924769697817899e-02 -4.004308466791266230e-02 -4.472602958044313293e-01 -2.055051239923808698e-02 2.741756685731538412e-01 2.488941468912556076e-04 -4.532726684466729938e-02 -5.336549624691799831e-01
-2.694839158196531484e-02 -1.893023513925909396e-03 -9.286105062704037502e-03 7.204099139535409535e-02 4.206386661914231911e-02 1.793279829483946375e-01 4.941078498828535559e-01 2.195362503750369898e-01 -2.208509673419326025e-01 8.624599993868511949e-03 1.025966869450261332e-01 -3.511347898481228524e-01 8.361705303986044502e-02 -1.364134820792189395e-01 -4.591257598101788906e-01 3.995095388996659780e-02 2.755427571438147094e-01 5.905701809190557622e-03 -8.575440155020476463e-02 -6.337070521245953270e-01
-1.956255686946564432e-01 -8.644095358863870815e-02 -1.594866611217932995e-01 1.442823551473085275e-01 1.427388582205807444e-02 -2.622840859415085935e-01 -6.069683125249358824e-04 -2.545391323827845276e-01 2.652196249009770579e-01 -1.828379467992548579e-01 6.429939265975895268e-02 -4.118669555639123958e-01 6.829017763772439464e-02 -2.727136374492526716e-02 -5.017002333998303865e-01 6.695582080426382143e-02 2.556238513487772424e-01 1.535110387353731676e-03 -7.788796459592017829e-02 -5.575047063366752598e-01
-1.363754650377848043e-01 -2.174702550293301784e-02 -8.608884201656968882e-02 1.300176008816734397e-01 1.571276272125585460e-01 1.092858608331197245e-02 3.733205381649896681e-01 9.930359948103938128e-02 -7.821344939952462605e-02 4.168096646104693659e-02 2.699046554879755422e-01 -2.360283660665413175e-01 2.663189585308776142e-01 -2.388103399267807458e-01 -4.084727027673325517e-01 -6.115972944121091104e-02 1.768605976669719304e-01 6.673737568700742473e-02 -9.658613272650293236e-02 -4.857637976382042089e-01
1.584991805871888704e-01 3.032742984464803504e-01 2.241071190657028256e-01 -2.054131545758883792e-01 2.113696662440853469e-01 5.200254953900583510e-02 4.322610161789488536e-01 5.432707569478019416e-02 -1.289125249671387308e-01 -2.622933427715529175e-02 1.264927965757931816e-01 -3.679774743672410420e-01 7.699470559520865676e-02 -7.805389874716658904e-02 -4.269357757351268656e-01 2.127486500177162843e-02 2.068332520117423523e-01 3.054652062662720560e-02 -3.973356860403429169e-02 -5.692256705944352957e-01
-1.607693000108764356e-02 9.152058526451331555e-02 6.502657531415551029e-02 -6.147721652412990734e-02 1.735280129436666818e-01 2.767909151687013292e-02 2.440272982873749053e-01 -3.970342464471837696e-02 9.478967852614256229e-02 -1.690709073584944766e-01 -5.129054305521893453e-02 -4.967072150623009219e-01 -5.110212232612842964e-02 1.851576867046236807e-02 -4.669102115776669892e-01 2.953058869732634317e-01 5.455636679811179945e-01 2.354580892177225993e-01 -3.488277041459761363e-01 -4.761562133223150028e-01
6.216271110086601936e-02 1.636968717712996291e-01 4.007043807723194989e-02 -6.428257660307734600e-02 1.083863980329660831e-01 3.392875563514448634e-01 5.991907442903385839e-01 2.539302813429259453e-01 -2.737085344062514247e-01 -4.779436643228232584e-03 1.300909084995839626e-02 -5.509320477735759614e-01 -6.444313670363382984e-02 -3.987325163268351513e-02 -5.768304676773310380e-01 -3.205632588478801032e-02 1.452253288665259490e-01 -1.253315165620764449e-01 7.914415619265985358e-02 -7.099150437622951948e-01
1.767183364783576349e-01 2.921338924837753592e-01 1.124570417146021073e-01 -1.485426679871864053e-01 1.503921261249557828e-01 -1.083502850705034687e-01 1.478474658039787282e-01 -1.587680004703669878e-01 1.572939351390178209e-01 -2.239341732987070732e-01 -1.730009281504693852e-01 -6.738110392763452250e-01 -1.858999280664745124e-01 1.860344935414847689e-01 -5.784135913045573840e-01 2.695787283226014006e-02 2.944981329234252487e-01 9.002754449074087950e-02 -1.226765160741044719e-01 -5.117144858561016862e-01
1.647604409482545523e-03 5.715045473940444376e-02 4.723822759571513763e-02 -2.923490229443368588e-02 1.022945271238701603e-01 2.865168942605202107e-02 2.934635830925295674e-01 -1.625253779725394782e-02 6.597970537253979029e-02 -1.020537298964651896e-01 1.443899491170170246e-01 -3.275739603358082119e-01 1.452623981933197639e-01 -1.733795403065047647e-01 -3.834818362431944849e-01 6.343978159051469334e-02 2.602133568006846365e-01 -2.069128778174500471e-03 -3.446230982528272063e-02 -6.051728060022183442e-01
-9.017784776791135104e-02 4.865403253231399827e-02 -7.443328945122512641e-02 7.740117202145965769e-02 1.049367241808318585e-01 -9.614192096810848104e-03 3.272682514458553626e-01 -5.231488356030183223e-02 3.726700142982368458e-02 -1.397506069915628035e-01 1.668222245206722465e-01 -3.391173556260138611e-01 4.552945206140776579e-02 -8.564135428610361589e-02 -4.915149342418423384e-01 2.515148698462735949e-02 2.332111722267573850e-01 -8.041381810897953175e-04 -9.693109358770712891e-04 -5.953116748731620556e-01
-9.225228307773947201e-02 -4.680611522709723915e-02 -1.170368130262812306e-01 1.180496837314697484e-01 5.071967315318994668e-02 6.821983697067358909e-02 3.966194244022868132e-01 7.549719088581544058e-02 -8.632202152616649804e-02 -6.578956966586786692e-02 6.485391162889413141e-02 -4.046685751598235181e-01 6.749225879902362446e-02 -2.838635135440985280e-02 -4.415621691494709400e-01 1.318140869046957042e-01 4.027462246839189075e-01 1.584528019174425983e-01 -2.102510804592772342e-01 -4.741399961734709123e-01
4.658140681757678286e-02 1.843109832873199294e-01 4.440673093749473999e-02 -2.982867729051968952e-02 1.166689075834028422e-01 4.779799501480552770e-03 2.924226856905438598e-01 -2.709475937766036083e-02 4.547095568513057073e-05 -1.304773313657143774e-01 1.247199145615844329e-01 -4.053831393395085914e-01 7.406533454478929357e-02 -6.232251662626053096e-02 -5.157524196351004342e-01 2.944423220076795161e-02 2.017971294208048827e-01 -1.850712992396304213e-02 2.364161683159694827e-02 -6.533146488638833516e-01
-4.457582196938034147e-02 1.152215323417215276e-01 2.932686216786892924e-02 -3.902495445936739193e-02 1.975436528690290849e-01 1.231140943774333522e-02 2.862825262551871863e-01 -9.358595383103742241e-03 2.181105518154527814e-02 -1.431551676798615280e-01 8.113385081735163817e-02 -3.651097767055439536e-01 1.233630840099929349e-01 -1.310451473835962111e-01 -4.079614779310216655e-01 1.081790533080025929e-01 3.540395831928975223e-01 1.293771080949612240e-01 -1.199793918462937758e-01 -5.180326221195128422e-01
-9.577489766419339245e-02 -7.567478707244319758e-02 -7.612524966045464136e-02 1.369156022002057105e-01 -8.019402775794257088e-03 2.120138860438118555e-02 3.693232746041261727e-01 1.146194921195292649e-01 -1.162773521537339705e-01 7.756043203409140885e-03 1.262078628287418847e-01 -2.842210812857987046e-01 1.826115730353743416e-01 -1.964358213894084049e-01 -3.621294440390451785e-01 -6.753561538546155874e-02 2.015232698720996474e-01 -1.738293059717091471e-02 -6.367294148433462475e-03 -5.529039141667022594e-01
-1.179484614422482147e-01 -2.642029722075305009e-02 -7.123387364306457692e-02 1.312902147998005753e-01 9.487186388510328305e-02 -3.335549702693962892e-02 3.284801719903397421e-01 1.066857419800466000e-01 -9.199675544832219831e-02 3.464712215142795593e-02 -1.340224686701870782e-01 -6.177477806714009034e-01 -9.728681199539487845e-02 1.898045607020736325e-01 -5.071198570513769655e-01 1.350630756241011539e-02 2.490957595947956571e-01 -6.291999785957107238e-02 -2.779284763790026633e-02 -5.793064422297168337e-01
-1.661876798070679659e-02 1.547856937458813587e-01 1.200688401186852799e-01 -1.065101707744363219e-01 2.068492070653478732e-01 -4.000949227341703968e-02 2.626992429738583268e-01 6.024894617063224211e-02 2.121938861367470355e-02 -1.001117180355151626e-02 7.196147687834170137e-02 -3.680107437510091173e-01 1.846916985381763243e-01 -1.685997655710538001e-01 -3.048620348078657782e-01 -1.149530133458491199e-01 8.881818258336426908e-02 -6.823673507370660307e-02 9.190005419151378585e-02 -6.203016931845725113e-01
1.377984503427796548e-01 2.546300739833134985e-01 1.277645155851083181e-01 -1.270832927649198085e-01 1.539639318774010668e-01 1.614063599059248066e-01 4.023471274656199581e-01 3.143986918025160754e-03 -3.844859373724357487e-02 -2.194463553146732415e-01 6.576806822906415551e-02 -3.242371326720459024e-01 7.264592386022780679e-02 -1.349130279804703902e-01 -4.465702478874003511e-01 6.489603282295013792e-03 2.011671737696550111e-01 1.584661687168573141e-03 -2.628789242884956370e-02 -5.453939991444535229e-01
1.213933016579059193e-01 2.279079002574582458e-01 8.521124664193638343e-02 -1.329439975479607405e-01 1.284645144298692254e-01 -1.163374415018579994e-01 1.365494083851369056e-01 -1.915876727474180585e-01 2.016698336381212153e-01 -2.190634592083588461e-01 5.181412689814868244e-03 -4.283437322648200318e-01 1.116036035943173549e-02 -7.872306108092527732e-02 -4.478500908752288123e-01 1.477184132111646342e-01 4.102917530653319433e-01 1.599853880884840318e-01 -2.286501612355814339e-01 -4.738135908619544590e-01
-1.733306921256340394e-01 -7.938571520544449034e-02 -1.278909105442971317e-01 1.597650771505921274e-01 3.385897211480622115e-02 -2.685610078155847291e-01 4.920477567846481826e-02 -1.789784031127491515e-01 2.162718081582650498e-01 -1.455541868282457518e-01 -1.436319077185058413e-01 -6.289991475678409216e-01 -6.685934109884295040e-02 1.045247132113574784e-01 -5.004000181584462581e-01 -2.692763153060689918e-01 -3.819210091683111763e-02 -2.025833743815114996e-01 1.761459347785755136e-01 -6.547124110175435163e-01
1.705105930070943687e-01 2.779413100347621901e-01 1.349484425080755279e-01 -1.433654325255799278e-01 1.067880297929813954e-01 -4.444160523844137289e-03 1.594405344602838337e-01 -5.972770814345827739e-02 1.202983760820947046e-01 -2.431519269834004071e-01 1.481430898999967771e-01 -3.366190606979454492e-01 5.973231056853542387e-02 -4.984899455446752115e-02 -5.252771048822028055e-01 1.646820372328329229e-01 3.774196203935438199e-01 1.696276730960901979e-01 -1.631417490603310760e-01 -5.412175389100044587e-01
-4.096929015620021097e-02 9.462435689455173105e-02 -5.931648180511511770e-02 4.838408443061348319e-02 1.102821471405386750e-01 -1.138195914241625362e-01 2.137919610876503618e-01 -1.062681085528602992e-01 9.703513544625140541e-02 -1.670439707783644145e-01 -6.010919971885209101e-02 -5.329475238192344921e-01 3.001555594076624894e-02 2.134908084482815827e-02 -4.805848034330350571e-01 2.890342502742526687e-01 5.180412394006441712e-01 2.779899104850654945e-01 -2.599479689166118712e-01 -3.972655619759498102e-01
-2.169444923902287270e-01 -8.804405130376123656e-02 -1.551524258208772933e-01 8.573813202394128807e-02 4.650010831255786681e-02 1.586748382163622600e-02 2.612413649699342755e-01 -6.537503975694072822e-02 6.847221712878862054e-02 -1.612446313198842573e-01 1.226346087829901926e-01 -3.756716604572774010e-01 6.821746665871902815e-02 -3.660814244979729293e-02 -5.085772129903944894e-01 1.090561014452789412e-01 2.609890398732790939e-01 6.212626545479936480e-02 -8.709394150313734539e-02 -5.532733640458863400e-01
-1.749157595096778872e-01 -9.533812101697902719e-02 -1.751075339997507918e-01 1.612541625521564659e-01 4.568316505916359543e-02 -8.928989248356249131e-02 1.430212884088257475e-01 -1.048013057580269997e-01 1.172689521579733940e-01 -2.295941295078361422e-01 1.113600290088888611e-01 -3.074577650817580943e-01 1.411089408596284400e-01 -1.791632436535692263e-01 -3.602719154174387484e-01 8.745657287933909785e-02 3.298335453775465553e-01 1.639472195667872612e-01 -1.641463346276700874e-01 -4.751027554215665472e-01
-3.658273727454616070e-02 9.563129187192007108e-02 1.717050399637840008e-02 1.641552996954331531e-02 1.319661842315232314e-01 -1.935820689791879767e-02 3.039986014944620618e-01 1.895648427085239868e-02 6.451890702257379040e-03 -6.343455200644138037e-02 2.002072549077147379e-01 -2.877992093181723221e-01 1.750107405456484133e-01 -1.685134816238856303e-01 -4.704925725864404495e-01 -5.079543963713958887e-02 1.585287464242166600e-01 -1.969241856171270733e-02 5.527594117361224468e-02 -5.764730105731914467e-01
-2.811444851768121062e-02 7.019393734567545839e-02 4.104917337504015301e-02 -3.278474409761502478e-03 1.870699461461557689e-01 4.979556931249634610e-02 3.856967888871424277e-01 3.219764517863547143e-02 -4.842134855832798401e-02 -6.829120271926862606e-02 -7.481518137732767748e-02 -5.896645376858270504e-01 -2.718624377908912537e-02 8.485508808067629416e-02 -5.495889990656739332e-01 1.880386446248853149e-01 3.830987005918631838e-01 1.801142733846500810e-01 -1.389324230216336387e-01 -4.611679240080072129e-01
9.084132977160069844e-02 1.938445166014293730e-01 1.271586959640099157e-01 -8.619425357413040834e-02 1.456772579864080708e-01 -3.700669016187482785e-02 2.649371956841660714e-01 2.484316401076597236e-02 3.783047763637378824e-02 -9.954584751390010977e-02 1.403920259286715877e-01 -2.770866638653148861e-01 1.876587302342115349e-01 -2.350914450656764743e-01 -3.941512246434412114e-01 1.674580754643267277e-01 3.934020318632527324e-01 1.361853245374875510e-01 -1.846739365740523442e-01 -4.931424179932477614e-01
1.390835305127959276e-01 2.126756974831603697e-01 1.349020083268064052e-01 -9.977802795238258082e-02 1.130282611381276253e-01 -6.624913867505383136e-03 3.056488942800353326e-01 2.460501403441919810e-02 -4.035046969973990483e-03 -6.842421894120573334e-02 2.437136341079252921e-01 -2.768853538532639602e-01 1.513604243585798537e-01 -1.709321449839701634e-01 -4.929046241785901561e-01 -7.716226585368771151e-02 1.405851128053730581e-01 -7.637701574528629744e-02 3.773802243313871541e-02 -6.068882922654321721e-01
1.903352590500420605e-01 3.094280121090378088e-01 1.838742458645144795e-01 -1.786116689540870328e-01 1.628322415181021054e-01 -6.006405749561329055e-03 3.059655978590948289e-01 -1.185028822958943996e-02 1.110006640249119360e-02 -8.380571779190233717e-02 -5.566740450402588025e-02 -5.911503984950073898e-01 -8.930154153367733660e-02 9.157623577789905656e-02 -5.273992502522408810e-01 -4.129505251452120218e-02 2.249631716701205597e-01 -3.210705823887859828e-02 -8.948737690405449835e-03 -6.319926001241719105e-01
7.740231429873013769e-02 1.536670832018101618e-01 3.067342736258327901e-02 -8.612714553042638554e-02 1.158042711164231492e-01 1.349637786444450316e-01 5.013970751926523084e-01 2.174445616090185662e-01 -2.707532883077239383e-01 1.740271729344691765e-02 1.608170518766230128e-01 -2.831358179995109303e-01 1.051359387975087795e-01 -1.837462391905828607e-01 -5.254539964653157647e-01 -6.638255540984246139e-02 1.513201628141040700e-01 -5.018309542429166825e-02 4.222866308939907110e-02 -5.993343356079976481e-01
-9.809256282603784349e-02 -9.277349836497916780e-03 -7.437114552573409476e-02 1.445913279941146157e-01 1.058359664149499668e-01 -2.014384972073042790e-01 1.211039562906286449e-01 -1.238557731956155400e-01 1.235560357610914067e-01 -1.003093396374062640e-01 1.103200870137160533e-01 -3.963116581502509339e-01 1.000735401107655104e-01 -1.217250621543373434e-01 -4.810251989957913810e-01 -1.231895391832462661e-01 7.666666932411456137e-02 -8.916622609193690374e-02 1.061429504751860431e-01 -6.859226031606886487e-01
-7.849281087198184403e-02 -9.611253409976247553e-03 -1.213816200623123731e-01 1.393846615574417802e-01 -1.156117266216802331e-02 4.501565863878969481e-02 3.292401776735187080e-01 2.666447569592958478e-02 -1.511856503081041025e-02 -1.158308898363606398e-01 6.525699632005055317e-02 -3.594150906041606586e-01 1.416926569795875501e-01 -1.543322313770720822e-01 -3.663028772920860487e-01 1.376479242523785673e-03 2.051978797683855493e-01 7.279426705307973783e-03 -2.911214983059925293e-02 -5.533092239667266599e-01
-3.127534496896777760e-01 -2.128197404976694129e-01 -1.816180327191281307e-01 2.567778491917117600e-01 9.544228272125790391e-02 1.218606647772957630e-01 4.166586659711933316e-01 1.565977963532353967e-01 -1.175611209151996017e-01 3.066325376208062226e-02 -9.755210883507409170e-02 -6.877905004474786921e-01 -1.433747131414789544e-01 2.215161892038315095e-01 -6.226135850756131518e-01 6.341934629504812626e-02 2.849931424453711615e-01 4.305139500114798373e-02 -4.408666089468099569e-02 -5.944494089933004544e-01
-1.178049148806621649e-01 -7.541274153656921109e-02 -7.914969278783955120e-02 1.595605178049885886e-01 7.469322603116282377e-02 6.178834121392408341e-02 4.244701995127138083e-01 6.986285318905106900e-02 -5.613500423964359887e-02 -7.742201280817953557e-02 2.748721890705022597e-01 -1.247204929135150020e-01 3.419848178004234462e-01 -3.895699885814442043e-01 -3.187106110380308888e-01 2.021895246239266419e-01 4.068030541363962804e-01 1.710723108839888318e-01 -1.971375532337292236e-01 -4.943956041850067762e-01
4.514586732085073412e-02 2.739095732134702033e-01 6.876154534598688528e-02 -1.099177897101415724e-01 1.552145965948839301e-01 -3.053103774278876498e-02 2.478963294518854998e-01 -3.643098134591592208e-02 1.107949092057501500e-01 -1.613513982346952147e-01 3.041743581063215962e-01 -5.458615680359835132e-02 4.361272304727425997e-01 -4.605689021828054397e-01 -1.788823616144021855e-01 9.851140831056887093e-02 3.675674993258432055e-01 8.448721510575654681e-02 -1.539000630995829844e-01 -4.790883753527504507e-01
-5.146822417216954243e-03 9.513939995018376450e-02 -8.720865773879612690e-03 5.027519036740167591e-04 1.067050442056414472e-01 -1.206505830907538546e-01 1.810702412925316862e-01 -1.006369244287374926e-01 8.767277727288866340e-02 -9.760693585095292502e-02 2.939571525039580413e-02 -3.710017291469275280e-01 1.051938243005195589e-01 -1.724961618376066042e-01 -3.997943062070189457e-01 -1.371134324882886113e-02 1.375629283642740563e-01 -1.170155553619440236e-01 9.993755368159829011e-02 -6.679101641611432383e-01
2.032880985764852488e-02 6.802863426962091342e-02 -5.618447403582505460e-03 6.050901891447716535e-02 2.961089572569351736e-02 -1.222866716006262705e-01 1.588187109583767131e-01 -6.729292757905402933e-02 7.963984939046482581e-02 -6.182186459665586775e-02 1.291284527424399475e-02 -5.062606738867759804e-01 -9.505046456153462553e-02 1.087402940106334259e-02 -5.953292477092126944e-01 -4.313609713285852798e-02 2.223407733110829565e-01 -8.007334904045371182e-03 -3.729111794124707890e-02 -5.696552650002782991e-01
1.198662561930906589e-01 2.412174915986660673e-01 1.310034635017959526e-01 -1.469870203975705836e-01 1.552454480008040039e-01 1.926180115285876931e-02 3.133223115946224269e-01 -1.516732469556375529e-02 2.357659067873382058e-02 -1.813141127621591409e-01 3.879307761215521067e-02 -4.810450649114498822e-01 3.864750959935282781e-02 -8.037499253123811527e-02 -5.165155420391430718e-01 -8.225974841576091934e-02 8.257228848852499192e-02 -6.659089099663680067e-02 8.886405753184742351e-02 -6.216777234546883024e-01
2.359946789407093432e-02 3.396910893793836372e-02 -4.009402337947047534e-02 1.656829909432512224e-02 2.461022583954050602e-02 7.795704447435071460e-02 4.258186695125218968e-01 1.326942968573200932e-01 -1.365938025538618039e-01 -3.143829719606572315e-02 1.047708123754025750e-01 -4.276914382055375108e-01 6.535627262599247311e-02 -3.898226825702013482e-02 -4.494328881835829570e-01 1.813903316490358963e-01 4.208700364565449714e-01 2.924622844225505669e-01 -3.267929232057043554e-01 -3.653270383917286424e-01
-1.178185926098288261e-01 -5.774952218198015075e-03 -1.379487915940466602e-01 1.034901320658965784e-01 1.108892274412226486e-02 -5.242457380140071871e-02 2.718420525352635009e-01 -7.916487395251600723e-02 9.584328214213326536e-02 -1.832002538300877004e-01 -1.239652273951084849e-01 -6.599010739709885165e-01 -1.367626301914964260e-01 1.149720943867790640e-01 -5.648746364956108712e-01 -8.867488776456410038e-02 1.426213458393625344e-01 -7.760523159882179445e-02 4.461924682903641026e-02 -5.664000519011271884e-01
4.451858881064311296e-02 1.265301450031837416e-01 -6.805070316034748587e-03 2.226958347561713847e-02 4.433467486469454960e-02 -8.739325411882636549e-03 2.254625651489110261e-01 9.536229680717933643e-03 6.005036155410412024e-02 -1.578160922211547246e-01 1.520379846144676028e-01 -3.051613410349563460e-01 1.331646635239921994e-01 -9.437152685562745502e-02 -3.887788362209004256e-01 -1.273138923081051366e-01 5.956867799254569884e-02 -5.941290971980513202e-02 8.916157587055939526e-02 -5.682469171631508997e-01
1.501763085674577558e-01 2.648104557368168299e-01 1.832688291313771534e-01 -2.113326481055361750e-01 1.781897876563549588e-01 7.976333473908350791e-02 4.352517089897570690e-01 1.264410957550767267e-01 -1.320043162333721376e-01 -3.354571392869881707e-02 -1.141957496531261496e-01 -6.170280623514570184e-01 -1.347362675462431825e-01 1.171285022356991501e-01 -5.223982927657180309e-01 5.682001517345623698e-03 1.530178069976002031e-01 -3.877309441130574741e-02 5.531707230247065454e-02 -6.622733627036384574e-01
-1.795814347365186012e-02 5.868991122167394048e-02 -1.163141020889568895e-02 2.848344623079265142e-02 1.145822118540404111e-01 1.836494737358066454e-01 4.390189466297581555e-01 6.100181693352865753e-02 -1.041246005189938040e-01 -1.018400911834332068e-01 7.296817146133752208e-02 -3.665073715836035806e-01 7.029480572228025137e-02 -8.612720158133146953e-02 -4.210026376818172822e-01 -1.546188351246727544e-01 -1.793515547341917316e-02 -1.573208996612752431e-01 2.114631753066011921e-01 -6.840266070315399460e-01
1.687082286271153198e-01 3.382833173928943005e-01 1.636216748036917745e-01 -2.199245200429412184e-01 2.225406602441855897e-01 -6.816283376236412228e-02 2.310948438179322162e-01 -3.165188228798232473e-02 4.756608595247423243e-02 -8.855470477238994165e-02 8.156761736420724274e-02 -3.968024141334766108e-01 9.749658361999051503e-02 -1.335410339024283299e-01 -3.985308548399372763e-01 7.342943309797871076e-02 2.471334728187709606e-01 8.646784230701345941e-02 -5.403547479610098375e-02 -5.983852716477484623e-01
-3.194632085054320558e-02 1.170216534100774614e-01 1.791656224014500504e-04 1.802451213954950685e-02 1.370994294829905591e-01 -4.197395199884698669e-02 2.412384729121800075e-01 -2.949681728626910374e-02 1.858515475350420304e-02 -1.300076781826385863e-01 -5.407794408642878359e-02 -5.490860093880827186e-01 -1.190020703790729273e-01 1.051366240193405410e-01 -5.736861784086113580e-01 -4.041975281240621498e-02 1.569471159521736436e-01 -6.355898823213472493e-02 3.845423084929641688e-02 -6.537075675244485851e-01
1.044287907459057474e-01 1.864494093323155188e-01 1.071179233132373287e-01 -1.067832595334366752e-01 1.358993827576241986e-01 -4.618424798337782133e-02 2.508414940789039371e-01 -3.286975368512276563e-02 2.759617456968583779e-02 -9.289691352554939330e-02 1.783005386400850489e-01 -2.390746931552946708e-01 1.966369286235319924e-01 -2.556802926517804941e-01 -3.649730562136118683e-01 1.092036537925843986e-01 3.561004596664228972e-01 1.605921068946388475e-01 -1.938456505077090497e-01 -4.894387168159839430e-01
1.182083065345861661e-01 1.918397752861633054e-01 9.878069562406129045e-02 -8.336076898133540358e-02 1.129156808599475481e-01 -7.937208748210156442e-03 3.090383541504741483e-01 -4.484941510087765704e-02 3.131465778914874210e-02 -1.383526232661372868e-01 -1.119273492406767934e-02 -5.190362368056686826e-01 -3.488212964415905726e-03 1.048090927234901493e-02 -4.943543311572144994e-01 7.639479596183143539e-02 3.239881329495917228e-01 6.941439242802913134e-02 -1.602073700693323888e-01 -5.149918218185156604e-01
4.308631163149661408e-02 1.626609935204979818e-01 8.512199333174452764e-02 -5.732541987421407165e-02 1.574077699650907047e-01 7.326546599272411309e-02 3.332082851308237892e-01 1.432725065545808335e-02 -1.165409100066596565e-03 -1.514869468449134282e-01 3.690690014811405517e-02 -4.752591149357837108e-01 4.676775379893014645e-02 -3.767321185440052761e-02 -4.626895639306635166e-01 4.154415159282702497e-02 3.022692717175087807e-01 8.856148095462501590e-02 -1.063591903680458362e-01 -5.537760902398535245e-01
6.037733691601825103e-02 1.627356912608661221e-01 3.421289934163669610e-02 -3.942903804673997259e-02 8.829549901537990519e-02 8.099214859407843914e-03 3.009512058638776355e-01 2.368656171200200430e-02 -7.781817879691326628e-03 -8.755292516865285923e-02 8.490029422984768370e-02 -3.889854092210094372e-01 7.036212873800809509e-02 -1.122604781676329044e-01 -4.485246581622241435e-01 1.405523374148116150e-02 1.830990503059580221e-01 -4.841775955090964201e-02 -4.627642428252212725e-03 -6.534904446187673743e-01
-2.006565243937312448e-01 -1.271493048259617065e-01 -1.504220340261958333e-01 1.693943437283109976e-01 7.319213267655380606e-02 1.418618436168041508e-01 4.138495548114977107e-01 2.039703363096781463e-01 -1.558003262770961406e-01 2.049689570153129248e-02 1.674846315684467291e-01 -2.763796577991757819e-01 1.601829279794531047e-01 -1.730141404974641639e-01 -4.436870141282995283e-01 2.493696531313257733e-02 2.665262191486181820e-01 9.445250879550355638e-02 -1.078882465630789517e-01 -4.821027990154442278e-01
4.553227576327744525e-02 1.368761238070705100e-01 1.425199468743001616e-02 -6.330894031546688283e-02 1.277816771990986922e-01 -6.507767519822277302e-02 2.156836108129359664e-01 -8.467283693898942920e-02 1.023196754843360701e-01 -1.697790563662283092e-01 3.051942024014745597e-02 -4.243814077009809282e-01 9.729624521953281202e-02 -1.023610721615829389e-01 -3.420179120349590707e-01 1.124350748845581310e-01 2.515052653275350325e-01 5.566993791686106891e-02 -4.091765553255208299e-02 -6.551088921386611919e-01
-9.636478995203411058e-02 -2.021002950067689319e-02 -9.224967927101745957e-02 1.070765588972773241e-01 6.693437023182188805e-02 8.106588896018095125e-02 4.172819182786595693e-01 1.085386062871560170e-01 -1.046671936869205399e-01 -1.598783449862213601e-02 2.975863594771989140e-01 -1.323110584668178991e-01 2.711455146870075938e-01 -3.434712948244390551e-01 -3.469550706907530979e-01 6.881354977331609335e-02 2.506753527485097166e-01 9.745395499993776689e-02 -8.998736721872195587e-02 -5.147728583081826459e-01
8.221734403629872567e-02 2.358751593587627982e-01 1.306593947988209381e-01 -1.844362092906466910e-01 2.019564676801169356e-01 -2.151070307167854134e-01 8.403267563917793392e-02 -2.087758021796526364e-01 2.321749746463477038e-01 -1.980131059182461684e-01 7.003812441740761563e-02 -4.709851531001836289e-01 -5.421688185129489024e-03 1.421246388352559453e-03 -5.581967467237249902e-01 6.277042594517050211e-02 2.484161224065281059e-01 3.766787609237560314e-02 -1.002822622097840344e-01 -5.887391172061441358e-01
-3.348022477984050060e-02 1.038634458124291088e-01 -3.131121490721889417e-02 -6.296744807054756310e-03 1.403250100364815678e-01 3.128057322162137999e-02 3.243356896213768770e-01 -1.094263486895842574e-02 1.867379150512540886e-02 -1.456175025772253329e-01 1.036520416492830859e-01 -3.743697553448205873e-01 1.150993677072630478e-01 -1.354834963932878833e-01 -4.064825608408720314e-01 -7.110123274364216206e-02 6.882784327113272704e-02 -1.024934210015310265e-01 1.262114392599927304e-01 -6.741620424803973499e-01
1.917109671198947984e-02 1.039214164746567332e-01 -5.860841173066223125e-02 4.191547748085001912e-02 3.222733666990544588e-02 -9.982057313067424498e-02 1.183138062840298210e-01 -1.074373935526078822e-01 9.855498362668696499e-02 -1.621507224474182385e-01 1.256629342122180248e-01 -3.845431679787947865e-01 1.031627526399869904e-01 -1.513576449613809882e-01 -4.565446365202990853e-01 -8.887719796723250743e-02 9.215110618971464329e-02 -1.418938095848868985e-01 1.222861373814075059e-01 -6.944636956543688289e-01
-7.894196806402549449e-02 -3.733498264203424788e-03 -5.277482703896198279e-02 4.319364592013282683e-02 -1.723720354190118320e-02 7.824756903683498244e-02 3.706106575274678017e-01 1.163908668363268645e-01 -8.835341380767346153e-02 -1.392643253127405500e-02 8.130083931083488535e-02 -3.605007689382386249e-01 5.655735748910159510e-02 -7.456143132138340346e-02 -4.739899553831444790e-01 1.032362730865378359e-01 3.397551892831700560e-01 9.857911057941488864e-02 -1.161765793455783458e-01 -5.016255462245341468e-01
-8.166907379570794226e-03 -2.685051497718653202e-02 -5.554167100628925463e-02 1.103403755517384371e-01 2.399218893438453959e-02 -1.475442380766551695e-02 2.242250878684564630e-01 -1.212334862404225860e-01 1.330374720173408132e-01 -2.131487242970554474e-01 1.121058642302674851e-01 -4.402065708594493643e-01 5.163678409415933812e-02 -4.352725595409875914e-03 -5.748292812439714794e-01 4.073007327406537315e-02 2.614255586244955687e-01 3.627282652694195642e-02 -4.595507473785832159e-02 -5.725125850702308394e-01
2.176689621906052058e-02 1.090199274684606201e-01 -6.242984293936518908e-02 4.716040256146675214e-02 3.764655119136971206e-02 5.112229003955964801e-02 3.763001863782575729e-01 8.798943267205008162e-03 1.523248390216357107e-02 -9.630381837280545254e-02 -6.652972402835530263e-02 -6.473856683336007833e-01 -7.138483881314058865e-02 9.775749608205133723e-02 -5.832184943119378406e-01 -1.394134760904587322e-01 1.138892850217229080e-01 -6.867814979284901644e-02 6.960501209897738961e-02 -5.904586714599903141e-01
-1.475023891632452899e-01 2.594399231800521843e-02 -8.357718293613926319e-02 5.890463453577032132e-02 9.669680203401083418e-02 -9.270386327316926245e-02 1.929863695344463670e-01 -2.004273610917181592e-02 6.429077563372816162e-02 -8.584258663238733544e-02 1.256321154032229159e-02 -5.001697898195203162e-01 1.888484126182429779e-02 -4.307240694708658335e-02 -4.856655406554460930e-01 8.732647664382661712e-02 3.367310247798851464e-01 1.019099207709470573e-01 -1.090973713735945427e-01 -4.992204916334286313e-01
2.648156102281105928e-02 1.476047371449733525e-01 2.955991167764343563e-02 -6.057730804162683724e-02 8.568681019203047700e-02 -2.181574970652545020e-01 5.679646086055392673e-02 -2.630441307746261836e-01 2.837837245989801027e-01 -2.116267602396885161e-01 9.914155190517684457e-02 -3.436834906613259188e-01 4.979086351683634226e-02 -1.698814157822471915e-01 -4.152674565232060688e-01 3.833799476560216524e-02 2.430144535557713648e-01 1.241661562143799025e-02 -2.186191483391482573e-02 -5.698337453503896644e-01
-6.282973544478712841e-03 5.105624056302299207e-04 7.268594268668222835e-02 -1.868880159573055658e-02 1.701402916827788880e-01 -5.997471101557171058e-02 2.074581445434495186e-01 -1.240423595324324779e-01 1.108379043095680527e-01 -1.704827830628558583e-01 -5.578859367818200798e-02 -5.507064761840789746e-01 -8.110861683410688916e-02 4.916670422248672900e-02 -5.468421648369917731e-01 9.020585424570026767e-02 2.772242030471696594e-01 9.793014924873374993e-02 -4.354495350888947652e-02 -5.076259072534353711e-01
2.796136970008787914e-01 3.367268700056847974e-01 1.549803067988695937e-01 -1.959649870642569958e-01 1.508927517307422361e-01 -2.722741999912970182e-02 3.682372991747422386e-01 1.739095335679515658e-02 -7.036432154220821633e-02 -6.998991676834759312e-02 1.331527985508606515e-01 -3.197702079527785513e-01 9.956179843403754892e-02 -1.074871189680933342e-01 -5.002928158227618605e-01 1.189506129853627192e-01 3.658950577389481484e-01 1.517885307219064839e-01 -1.894287709109340190e-01 -4.545166512100662359e-01
-3.904567942785749923e-03 7.277906674133595433e-02 -8.491574900784903956e-02 1.511611701129069417e-02 -1.335006883779982223e-02 -5.235900054833527578e-02 2.237357118808933898e-01 -1.243524417845263269e-01 1.571407661476170170e-01 -2.207897922641693655e-01 4.684459018088750482e-02 -4.904414286133250145e-01 2.675916968096811455e-03 -2.352556005306552511e-03 -5.570576370755162543e-01 2.492743904440556518e-02 2.856967479648105934e-01 2.481477449683907460e-02 -6.944544239162186994e-02 -4.825649267562082123e-01
-2.290850461057233195e-02 1.087312620388339590e-01 4.796276824858743126e-02 -4.703542452228980097e-02 1.119841066729981155e-01 -9.438978992947703872e-03 2.714180621718809694e-01 -1.095705933235099627e-01 5.187235285380034644e-02 -2.661208532726665466e-01 9.178913999777005284e-02 -3.986198222275800229e-01 7.229130964637600631e-02 -1.302229589534257548e-01 -4.276511928670795881e-01 1.799075497013484792e-01 4.605127851822566898e-01 2.261733187087797969e-01 -2.663467487343595397e-01 -4.113211320962684159e-01
-1.972659185424177064e-01 -5.981406232519075050e-02 -1.824182873870986987e-01 1.789265950240929437e-01 3.085108848772863399e-02 6.595840704976245472e-02 3.985569791747738400e-01 7.684936746872227109e-02 -4.797062574023086556e-02 -7.318983434314245418e-02 6.477524161741332609e-02 -3.946409120045722974e-01 5.528636670402047038e-02 -6.405969316599990915e-02 -4.297091402076023137e-01 4.801350283108941908e-03 2.136956215493702738e-01 -8.518837186378240556e-04 -1.741891561661692081e-02 -5.994989478971106678e-01
-3.801081917594024973e-02 -3.058000379479103303e-02 -5.040116505763640731e-02 1.455964632668612924e-01 -9.571636155907156662e-03 -8.401288715962078324e-02 2.596802495537812172e-01 6.247830308161425594e-02 -2.177683900999305422e-02 -8.648368592286986845e-03 2.554302701631558925e-01 -2.244108769818688731e-01 2.321995554665720052e-01 -2.451731162817523402e-01 -4.044849858063371828e-01 6.834205988481278915e-03 2.073376374343469108e-01 7.984641785758361809e-03 -1.467177657056768086e-02 -5.834534914834196284e-01
1.001890619191161957e-01 1.899050850243429456e-01 6.728983162508553328e-02 -1.011342751770907683e-01 9.388636114858081583e-02 -1.104510614104290966e-01 1.702227986307761620e-01 -7.486544356189114846e-02 1.073311378223203161e-01 -1.410282552021668023e-01 2.260074489735752756e-02 -4.440204245770146274e-01 3.270078820334891556e-02 -4.778865538318115974e-02 -4.888229467250270743e-01 -9.079266721105141991e-02 1.374999757959799451e-01 -2.091645597061921741e-02 1.772178050026816665e-02 -5.761457745703236766e-01
-3.917378496289077028e-02 1.035778192515847407e-02 -7.805945597799583691e-02 9.547739256731294089e-02 4.034113009122544669e-02 -9.659348699861228238e-02 2.000375115066585496e-01 -1.540413523285492359e-01 1.367178096625949746e-01 -1.895603240364448772e-01 1.758007788769777591e-03 -5.099293880294772929e-01 -3.285693540694917258e-02 4.139097203378364065e-02 -5.362346257774848191e-01 5.887352410489612997e-02 2.353309894302111072e-01 3.532836865913257379e-02 -2.243551543683503652e-02 -5.883205768922716850e-01
-9.060519784151611911e-02 -3.822687022422505132e-02 -1.242929479487862310e-01 1.319989370333444212e-01 4.933948923539271253e-02 6.391390108453229302e-03 2.293005142262812268e-01 -9.029326073705587485e-02 1.000091958809390669e-01 -2.186905495582802117e-01 1.934306292901903646e-02 -5.074687565124296196e-01 -1.883182254475598838e-02 1.225708914201757704e-02 -5.150975107505189055e-01 3.733876408000440239e-02 2.522539042603697546e-01 1.808880975002686090e-02 -4.410265332222156054e-03 -5.866732189283464516e-01
-1.362653985495142044e-02 1.577002322598681228e-01 6.334331663256526079e-02 -4.451437864575277792e-02 2.040319823653448661e-01 1.550903813393715858e-01 4.691005450490450812e-01 1.189337911763777428e-01 -1.474372108188427566e-01 -4.951590130669192985e-02 1.112999236821354820e-01 -4.037267403353915207e-01 1.068790628459884151e-01 -7.727563297193550118e-02 -4.708888774078106021e-01 -2.080967411960927826e-01 5.429528674523925735e-03 -2.003946759056574878e-01 1.402025750996009068e-01 -6.467572378782528997e-01
-4.211820574317085702e-02 5.864127579008170110e-02 -8.637325186338020919e-03 1.193882586946205630e-02 7.546920138065434103e-02 -7.513670113650992854e-02 1.961893823920612401e-01 -9.983013261762724300e-02 9.567000998801643286e-02 -1.503260889769245101e-01 9.140023873967355328e-02 -3.967712600749270235e-01 4.934454462679481457e-02 -5.917216639559044755e-02 -4.884894381693720145e-01 -4.603697152439277518e-02 1.460710346831017303e-01 -4.321707958204318301e-02 7.658665551633592194e-02 -6.088855168546903895e-01
9.584048143801038311e-02 1.979017563911802946e-01 4.007817670792980513e-02 -8.263214935070742340e-02 1.057126881182184203e-01 -1.743929315802668356e-01 1.286246861660720608e-01 -1.452573589918129682e-01 1.159585129850235347e-01 -1.431528471196628072e-01 1.915614353013629367e-01 -2.530870950517296603e-01 1.666209603942478690e-01 -2.302913579957810708e-01 -3.860671249051162435e-01 1.324950542598037073e-01 3.450943037123420098e-01 1.191037419752094956e-01 -1.587502493632420575e-01 -5.410793873451621439e-01
1.938149753179869289e-03 9.158378702179284514e-02 -6.911544504108887987e-02 1.162093157280178445e-02 2.827272373703623720e-02 1.574382248837741249e-03 3.309297947588423217e-01 9.704828049674175949e-02 -8.047089725549214090e-02 -9.902955943782917880e-03 1.556598376340536660e-01 -2.868693809184797439e-01 1.392056820682603946e-01 -1.828703614227744911e-01 -4.053398993367589576e-01 -1.197870683446745910e-02 2.213218149142450741e-01 4.623059014823267809e-02 -7.248411874475499395e-02 -5.636546647488861472e-01
-1.125021555020250252e-01 6.679447155016962623e-03 -6.137704149369025558e-02 4.151278618121953534e-02 1.290551423656009777e-01 2.694944006312317147e-02 3.544722616611865607e-01 5.383219160880529930e-02 -6.788529884730880315e-02 -4.619932024187253794e-02 -8.824943512122790379e-04 -4.892290016889302429e-01 -6.468292398432620716e-02 2.452030729563201006e-02 -5.370422883151310112e-01 -9.916318794819808935e-02 6.888225644583109708e-02 -1.044034870947303517e-01 9.599675775496047114e-02 -6.736980172112817522e-01
1.534369382205452020e-03 5.359798370907435661e-02 2.179109977049774327e-02 1.728040608967612579e-02 9.114623997776064024e-02 -2.489373580485283455e-01 7.755348376211723682e-03 -2.635658376695789729e-01 2.638365302157615888e-01 -2.389393465521968407e-01 2.073797269231598614e-02 -4.269107079482287181e-01 1.212894288447748797e-02 -7.823502702235717032e-02 -4.586050967875871520e-01 9.606681901207669849e-02 2.707924890250639760e-01 5.699219525603999026e-02 -6.662198283200737592e-02 -5.926485224364286264e-01
-6.797397182765663182e-02 -3.761887163618475582e-02 -1.199898992779299955e-01 1.325589668426764289e-01 -1.207551285953492592e-02 -1.939630614925325069e-01 1.736755381065622217e-01 -8.037976203064479963e-02 4.898161841188691801e-02 -4.731353064546366116e-02 -2.025989505445058292e-02 -4.934840903057002848e-01 -5.070831411677950706e-02 2.069680876364429767e-02 -5.137731218397589839e-01 -4.108802364143132602e-02 1.802901619931587263e-01 -6.878872578148469141e-02 -7.807409592437655754e-03 -5.809141935137386303e-01
-2.287696710608730019e-02 2.457950024040105041e-02 8.191138827861616650e-04 4.497403163595649345e-02 6.637322962635767987e-02 -1.324874292728679959e-01 1.817566152106824817e-01 -1.116711938877087418e-01 1.039530465356265504e-01 -1.406188166784816951e-01 2.714797851195038803e-01 -1.598811839153589653e-01 2.864500593614208168e-01 -3.441133609844685415e-01 -3.453141344965626192e-01 9.485978301375616595e-02 3.126454717144535600e-01 1.751253322900493403e-01 -1.450069127179131889e-01 -4.772138136505938988e-01
-1.026170209155906343e-01 -1.243323907684175250e-01 -1.014224270858424815e-01 2.100898028219691516e-01 -2.468519116862612217e-02 -1.581505470819798420e-01 1.912784824324013089e-01 -7.144354604094634020e-02 8.761782832252303088e-02 -1.177155885436366872e-01 6.159395286072127246e-02 -4.196409263559069402e-01 1.599018859844937857e-01 -1.373599947265722321e-01 -3.705726948136075505e-01 8.664064317088888967e-02 3.246145692008522987e-01 7.403072450844788710e-02 -1.676583178356831072e-01 -5.620742201602459964e-01
-1.539289868495880703e-02 8.320420542098241889e-02 -1.370788743969341382e-02 5.350691019583764252e-02 1.061298133150491707e-01 2.132427555071307879e-01 5.756298306746728821e-01 1.882396148109960476e-01 -2.794205272467897849e-01 6.662683535892499620e-03 1.653386142611493748e-01 -2.025411087182763525e-01 2.133601062733032905e-01 -2.783047509225888283e-01 -3.338507597889933121e-01 -6.013531662762570951e-02 8.320850526248643741e-02 -1.737252800845450196e-01 1.461930298072823542e-01 -7.398350014992840507e-01
8.643194608478893537e-02 1.150385772850855276e-01 5.553933360592701318e-02 -3.467646574826163675e-04 1.115013536462648724e-01 2.082507178410546167e-02 2.636752015581021458e-01 -1.465388065604230489e-02 5.715138367152401699e-02 -2.004532923804648314e-01 1.516722884317912856e-02 -4.934802953964294581e-01 4.727485423132909981e-02 -5.486532275465914182e-02 -4.915790113344427614e-01 -7.131670375925122651e-02 1.891344941106165023e-01 5.239591354772010073e-02 -6.660758524017208748e-02 -4.984420184889860050e-01
-1.217527050825611412e-01 -1.765961300225450670e-02 -1.059442467365314666e-01 9.302071765740589637e-02 3.919652885484646576e-02 4.578597072609523477e-02 4.205092213001945245e-01 1.926331760623611333e-01 -1.515293830480889115e-01 4.752140329655252238e-02 1.706922814423204038e-01 -3.621880612484150164e-01 1.832074826322628858e-01 -1.195122466022342234e-01 -4.317392275181818895e-01 1.563381349382593488e-01 3.939818568845508961e-01 1.675425436799120871e-01 -2.282036023880540387e-01 -4.330713220732455015e-01
-2.329078532964005618e-02 2.409353037903971123e-02 -5.737930572976189525e-02 5.712755505115876820e-02 1.879660055252314887e-02 -2.157948356858453362e-02 2.675166945171591482e-01 2.184196461743594109e-02 -7.642262565708601851e-02 -7.867240815758752559e-02 -5.652167080289671741e-02 -5.880152069633902689e-01 -4.613373009855742390e-02 -2.747175459880153714e-02 -5.592369669761232398e-01 2.098626317675791608e-01 4.598588148449351820e-01 1.443436542254518673e-01 -2.854368937373309434e-01 -4.446769661243293870e-01
-1.538064627858176103e-01 -2.330956416547259602e-01 -1.258181107187602010e-01 2.223188240697034357e-01 4.643418550025336239e-02 -2.531121207140916707e-01 -9.013646497798977197e-02 -2.179800785562610033e-01 3.501849175625798005e-01 -2.138836686803213816e-01 1.119674327484356247e-01 -3.328406016725052319e-01 1.120056509876372203e-01 -1.203408895934838102e-01 -4.465934500828827591e-01 -2.311676868920094774e-01 -3.519843330880403909e-02 -1.957313157374085122e-01 1.708519870238688620e-01 -6.302810530124944854e-01
2.422583701660607075e-03 -2.162373085686587759e-02 -8.724326971793801289e-02 1.136633684981848136e-01 -8.958888057483960221e-04 1.014398125797453393e-01 3.759865253908328819e-01 7.547653045015326190e-02 -7.190118020284580469e-02 -8.678745881381999538e-02 -1.532699559010793633e-01 -5.985288392562445603e-01 -1.486483251219951063e-01 1.265748672664036012e-01 -6.157882664945146800e-01 -2.710531558402039243e-02 2.401382316864100475e-01 8.736662052542146228e-02 -8.127875356607813795e-02 -4.706324467554379165e-01
-2.439347762664029473e-01 -1.288065651330653760e-01 -1.329108074882228707e-01 1.105928189811458268e-01 5.816558303517573719e-02 2.647455234846678440e-01 6.416834535797515393e-01 3.496785263053265314e-01 -3.481541184951996715e-01 7.474904837224205512e-02 4.037526694154136564e-01 -2.349959567164366936e-02 3.627781919641674957e-01 -4.163874547691048256e-01 -3.259778134776849523e-01 3.138778777252320684e-01 4.940946558119722054e-01 2.099951261775690747e-01 -2.751342031564859569e-01 -4.764157426723771294e-01
5.324216689094721927e-02 -1.123995394715641971e-02 -1.541800492965128833e-01 1.350848158383755049e-01 -1.056050513672985580e-01 -1.664083693647190609e-02 2.087281675983644336e-01 -5.847014125705128629e-02 1.462003287867846835e-01 -2.014500913245630409e-01 1.281710205334823938e-03 -4.745535398010788386e-01 9.637551324414114773e-03 2.419474035934104927e-02 -5.067120875105673994e-01 2.969282247316252787e-01 5.154425836001421679e-01 2.800640040632319527e-01 -2.492904674710463842e-01 -5.656442470324797300e-01
-9.896267303401592996e-02 3.661559000193092411e-02 -8.125333698483190592e-02 4.438286345142719580e-02 1.077270320718867191e-01 -1.792673024748291377e-01 1.790800995405242846e-01 -8.660997037013658251e-02 8.775551838235877422e-02 -7.949737072385533454e-02 3.623058644996943745e-01 -2.160568894036964949e-01 2.784761579497662121e-01 -2.761967440903039250e-01 -4.737045453416154350e-01 -7.772900668710777672e-02 2.348867970539963157e-01 8.930424870395414771e-02 -6.887749668806530945e-02 -3.982601254645108946e-01
2.672088998937428572e-01 3.507672513847142626e-01 1.430323327796227117e-01 -1.532670337559813301e-01 3.329259880128732779e-02 -2.257510137713219026e-02 3.444659488197333030e-01 6.749120407133410438e-02 -8.566025377683389452e-02 -3.433783457377034831e-03 1.266730008890550874e-01 -3.473502829158480187e-01 1.254039928278826155e-01 -1.938168988424831263e-01 -4.231429115692151854e-01 1.983966304553684279e-01 3.974140933237972351e-01 2.650962027463391602e-01 -1.401071363985819662e-01 -4.863005145125929296e-01
-1.204166393336391916e-01 -6.716093311322103576e-02 -1.623466110630333858e-01 1.294943831950179369e-01 8.724453591493097626e-03 1.361647246468368211e-01 4.486686500337511152e-01 2.058748259543926318e-01 -1.568369835258711931e-01 5.482447841189225235e-02 -4.929221869158728619e-03 -4.989641784032809446e-01 -1.230548814465447227e-02 9.227102872297526792e-03 -4.819244302232393862e-01 2.063970098754825122e-01 4.380872280409586761e-01 1.977459224495855261e-01 -2.555240397821574305e-01 -5.573669822351908776e-01
8.785445255651547214e-02 1.605258872098926370e-01 7.344399363912308687e-02 -6.109292613344892431e-02 1.067451417338849962e-01 2.513651967316050256e-02 2.747371357897487321e-01 -8.583309516668355399e-02 2.873582676031569832e-02 -2.161812663610781504e-01 1.380618905655402878e-02 -5.180633195204376040e-01 -7.876796736985502978e-02 2.867762694828708547e-02 -5.400490420755998944e-01 -8.738842683813854983e-02 1.931923685331295437e-01 6.309850615191531231e-02 -5.138618062085587718e-02 -4.575194767072511270e-01
-5.508672448022579327e-02 1.256026467660498885e-02 -5.572001771637494216e-02 1.336931720732610906e-01 2.443442393423525538e-02 -3.046723740840773936e-02 2.172872762098012056e-01 -8.378271012704238685e-02 1.209685097751835164e-01 -1.560854156212300170e-01 1.655638641477627515e-01 -1.924670541827716574e-01 1.949646997633791567e-01 -2.345109669063937807e-01 -2.903642510709523172e-01 1.949542234442343536e-01 4.876893079884936366e-01 1.769792000939341969e-01 -2.361724018210779874e-01 -5.050198082604797634e-01
4.963748027815086117e-02 1.335873840204191976e-01 -1.658913946005062534e-02 -1.723378927363638374e-02 -1.977893410143111153e-02 1.144792401428151724e-01 4.382172900214273414e-01 1.040600110559246894e-01 -1.017727225840070193e-01 -7.780715364746516871e-02 -1.601825657456075191e-01 -6.106275837449055555e-01 -1.006759154690254898e-01 1.327098460684649206e-01 -5.078775064115863547e-01 2.682585143342788303e-01 4.563658681384942239e-01 1.973164242236499222e-01 -2.257341498609083674e-01 -4.709882061938419628e-01
-1.092758493170131393e-02 5.453225171034481455e-02 -4.518228912152254251e-02 -8.184971023983633742e-03 8.550136561519518230e-02 2.465825456913239011e-01 5.395327665490774471e-01 2.471061437190336663e-01 -2.180448284201058906e-01 -7.065882480991172998e-03 -4.980925174333289407e-02 -5.072769191219346219e-01 -2.661774230071727032e-02 6.621901785693727616e-02 -4.718140452463127077e-01 -1.889270695442716308e-01 4.913510249099242722e-02 -1.553355667012274177e-01 1.333104109188375797e-01 -6.128401734727614292e-01
-2.482557654183440987e-01 -8.757395536523156221e-02 -1.400824829090486778e-01 1.778335479592887680e-01 1.342463940098650443e-01 1.938088559467625038e-01 4.886605725868270467e-01 1.522294611110149298e-01 -1.611542057812112294e-01 -7.739641816853506939e-02 -1.524017897669259491e-02 -5.977603756985052641e-01 -4.558661015575021791e-02 6.782929838493123587e-02 -6.608971959457201617e-01 8.174001531019242650e-02 3.138996628244378195e-01 1.423833717487883455e-01 -1.328494641382330366e-01 -5.142885174636927514e-01
-7.500340362937744920e-02 -5.033413689656367207e-02 -4.773101067263418873e-02 1.276161831295250515e-01 7.016021529601282336e-02 2.523006507753883243e-02 4.256391334545197580e-01 5.153750997941562717e-02 -1.235403596429501955e-01 -5.039369552626279947e-02 1.906479260679266874e-01 -2.477245912814489970e-01 2.990582654493252335e-01 -2.929590014791167984e-01 -3.253622502077647693e-01 5.660044705269577647e-02 3.023999770422751698e-01 6.147121323905267720e-02 -8.235538090486531348e-02 -5.934092566297246574e-01
-3.273533943262891821e-01 -3.536339831652183241e-01 -3.793280129665103084e-01 4.330440319010160355e-01 -1.206480862673216248e-01 -5.219698538349923367e-02 1.870134839112208847e-01 -1.028507289208005770e-01 9.371723470304199610e-02 -2.530313056881363654e-01 1.316787977869632864e-01 -2.608347528817867023e-01 1.763900128551154634e-01 -2.266067890729060452e-01 -4.034156482328129512e-01 1.729302041909550891e-01 3.513896525352491196e-01 8.711920088472428769e-02 -1.239603287580267055e-01 -6.160572337618358540e-01
-1.022732405840575884e-02 1.855613165307190560e-04 -3.035789836300762518e-02 4.599757229630772881e-02 1.082779599991359615e-01 -1.588453417410423396e-01 8.986079965347179566e-02 -2.477476008786685391e-01 2.266970519919338789e-01 -2.349904706275006694e-01 2.083686823684655354e-01 -1.851375890102131272e-01 2.565605017543728938e-01 -2.955525711232113717e-01 -2.625321038353397585e-01 7.410736711011438327e-02 3.872951929150423855e-01 9.229879715014294161e-02 -9.385087306920052164e-02 -4.993206562109180902e-01
-4.460272221950342120e-01 -3.226789538437446203e-01 -2.445690412447187323e-01 2.797133111765186531e-01 2.617685074783249188e-02 -1.126115646134593223e-01 2.893128207511309613e-01 1.279804725378498598e-02 -2.215207332444033006e-02 1.888366757336681911e-03 1.559250954997642158e-01 -2.492505803209086601e-01 1.542792172986606203e-01 -1.905651478640334462e-01 -3.363654501414284348e-01 -6.097020356359390825e-02 1.545474329572981698e-01 -6.789066613063157729e-02 1.258583824496794512e-01 -8.045956095107530404e-01
-2.651480455353380505e-01 -1.219458355675531597e-01 -2.468635639781790458e-01 2.011846833090052411e-01 -5.031119156707349049e-02 4.172428430739573146e-01 6.661867627858368834e-01 4.589860969260877166e-01 -4.475301667630920965e-01 6.950952885224973010e-02 3.084236393789642205e-01 -2.384590196195774392e-01 1.196441226627342758e-01 -2.837304994150425808e-01 -5.471742930845275854e-01 1.555304885142657495e-02 2.804879472677891394e-01 -4.526111550141853623e-02 -1.037256018615271072e-02 -6.858415974812774873e-01
-1.956205697342800476e-01 -1.706932015783653445e-01 -1.917110799899524598e-01 2.665345979931474929e-01 3.711094197350509050e-03 -5.349855642309295223e-02 3.006971522313950373e-01 -8.271074532221703302e-02 9.742220594207458284e-02 -8.971855184698747376e-02 8.682720340219191035e-03 -4.643319980604318498e-01 1.100819598941651933e-02 4.085324698712339275e-02 -5.202923381198165664e-01 -2.009671415343148582e-01 -3.314675210144410467e-02 -2.221832166729473812e-01 2.760230950341634459e-01 -7.134405342359972924e-01
-1.078481795598733306e-02 1.164925000344323863e-01 5.611219939409195501e-02 -4.535322081599638122e-02 1.957194534505022898e-01 6.518813732443239084e-02 3.441404643882188807e-01 -1.092990496673935247e-02 -3.115921375256690273e-02 -1.270837210260917227e-01 -1.717542607936724253e-02 -4.959332720696497110e-01 -1.094498657388048857e-01 9.887489846166075402e-02 -5.366368613250886987e-01 1.035675134169583012e-01 2.846712311013441798e-01 1.367592625812921181e-01 -1.022649501522069765e-01 -6.071445390150866928e-01
4.594348022563798928e-02 1.254359760767859433e-01 1.119719355157834662e-01 -4.835408671569951800e-02 1.802413695972921726e-01 -8.772659113221251137e-02 1.388291372092521070e-01 -1.687989158971026638e-01 2.144058698279161512e-01 -2.562530218814616512e-01 1.034661560013115378e-01 -4.228184878397228674e-01 5.359629623023499934e-02 -6.233146410250765823e-02 -4.823329008628805536e-01 -8.802317936413284194e-03 1.737613107399241796e-01 1.339981852860935296e-01 -3.779543527953196924e-02 -5.656698926033257857e-01
6.089327210626602205e-02 5.315366881696712009e-02 -9.029653492747408139e-02 1.199690962217207918e-01 -8.874181460176873426e-02 9.514181531080979914e-02 4.537650402181778730e-01 3.377584835647250844e-02 -7.275876775748507663e-03 -6.569547185922211541e-02 3.304622798827940855e-01 -5.717864463024247001e-02 3.966825981442083093e-01 -3.535795075832773304e-01 -2.748328052209918493e-01 6.732711783367092973e-02 2.908943652884019015e-01 1.282047694140622807e-01 -1.587829300247165787e-01 -5.466865082557854638e-01
1.472725777417666082e-01 2.374087561456529605e-01 1.497061199150160893e-01 -1.328733234884601488e-01 1.494632178136666989e-01 -9.432845393831421066e-03 2.441549485841392475e-01 1.714966307650612753e-01 -3.624167627812416304e-02 1.151583451308177408e-02 -1.060499027343606571e-01 -5.028139025669333684e-01 1.139733519088917263e-01 -1.204229367396324746e-01 -3.396493244465922934e-01 1.475454685135278374e-02 8.664002377655541376e-02 4.508444840566380729e-03 1.031240465191030076e-01 -6.735144735556649609e-01
-7.175216554672908531e-02 1.027051941718370998e-02 -1.134470526220458519e-01 1.031080292521678876e-01 1.057236208577899683e-02 2.417117341836184929e-02 3.530259347240837231e-01 1.804722828982128352e-02 -4.239773852406053534e-02 -8.449424491628493294e-02 2.350069245708134580e-01 -2.111124180967913211e-01 2.747481026831011253e-01 -2.892565361806392898e-01 -3.481436996938890305e-01 1.367065448594596000e-01 4.466575299201230864e-01 7.247362877229271416e-02 -2.051131001446349078e-01 -4.828043079775963253e-01
-3.769662149345280600e-02 8.499518399263342183e-03 -1.818579314467512476e-02 7.506682268244267708e-02 3.755973955352611554e-02 -1.389017322489013717e-01 1.521211795954780233e-01 -1.737042748142038073e-01 1.931994250155300019e-01 -1.913071494390097826e-01 9.659806884967701845e-02 -3.994699708447727593e-01 2.941736266677983519e-02 -1.050784059657282610e-01 -5.430469850983621338e-01 4.890282542267952726e-02 2.595434449037620217e-01 6.854161522381646554e-02 -5.612785554260349419e-02 -5.645632477204999278e-01
-1.294904731433617340e-02 6.843216607723016931e-02 7.763415547604759354e-03 -3.708445702461815596e-03 1.133632609761701243e-01 -2.153247443357967361e-01 3.017420369563472704e-02 -1.467690221368708747e-01 2.567191597322010521e-01 -9.612780381404413543e-02 1.930093182747948666e-01 -3.293783510996306507e-01 1.470158294727429427e-01 -1.719904377134232609e-01 -4.825963863546864907e-01 1.165170109700393725e-01 3.095105831675644126e-01 5.046496427299046461e-02 -6.600915966633608134e-02 -5.941951598451338246e-01
-8.182163062697414557e-02 5.000339434912232095e-02 4.128020552551571465e-02 4.421137564636815065e-02 1.877909243292399111e-01 9.960307883966527942e-02 3.670309126522834919e-01 9.426149306681003148e-02 -9.196210009875771529e-02 -9.452462150956486564e-02 1.160107966148680447e-01 -4.323917624128922887e-01 2.584873549584365549e-02 -3.992534905698033598e-02 -4.892941223544819973e-01 -2.530056531567529549e-02 1.530427162610518421e-01 -1.357293266329423487e-02 -2.274871106020461692e-02 -6.284319002258527131e-01
-1.222960169445021228e-01 -3.188962024593794409e-02 -1.138589564116724573e-01 6.827996484557889711e-02 5.719219664907473910e-02 -4.635230150038267133e-02 2.029903490909905350e-01 -1.195899384853346854e-02 1.854293120094882563e-02 -1.049128046702053618e-01 1.874781545446213005e-01 -3.201562995179818016e-01 1.619893506855494825e-01 -1.599879873108790707e-01 -4.765095307249938572e-01 9.139575288887291649e-02 2.555732507492964878e-01 6.028871986347712764e-02 1.033218902472071710e-02 -5.560639050324560628e-01
1.461668351638611973e-01 2.310884269510554700e-01 1.933504820370863797e-01 -1.190034839811364015e-01 1.972461218232292035e-01 -7.272554982386619793e-02 1.272873653705247909e-01 -1.386631076360877735e-01 1.958011933286435691e-01 -2.954857607800662755e-01 1.581651162769627250e-01 -3.657188120237576667e-01 8.216617828396224898e-02 -1.283027906623778192e-01 -5.167201322674068731e-01 4.128694740932908891e-02 2.648944288299181493e-01 7.793049853535769650e-03 -3.885552331259014419e-02 -5.879270889777009623e-01
5.396658892236330662e-02 1.532274894820518096e-01 1.347165275697953871e-02 -4.123388676238600586e-02 1.516109572880768586e-01 -8.200213417929287651e-02 1.502557537255073961e-01 -3.880729007908079176e-02 1.332300152669438909e-01 -1.819610065703626267e-01 1.120590511080850615e-01 -3.739423700671526407e-01 1.034228361814114872e-01 -1.392889889731253050e-01 -4.093568154125862835e-01 7.929485864044977239e-02 3.208860444406677059e-01 4.590290013252051188e-02 -1.195057931660887945e-01 -5.584855019736898463e-01
1.929822375092087039e-03 8.536950555052991163e-02 9.857642359690270417e-03 -1.614545748998707717e-02 1.068339008854860273e-01 5.002770903684081172e-02 3.477715440714437278e-01 9.897418850026194759e-02 -9.631116802711589542e-02 -3.520160040202922891e-02 1.237041838816831524e-01 -4.119314093507774888e-01 1.064228352679054135e-01 -1.266792282474300813e-01 -5.036595226804375658e-01 1.698464152624641899e-01 3.499437012132377567e-01 1.418279706082615776e-01 -1.499256245122064235e-01 -5.451774926138579502e-01
-5.706016989749693874e-02 1.257515408137322432e-01 -2.519963258099654907e-02 2.164470201397575636e-03 1.186278508800220066e-01 -2.311315456451965358e-02 3.074132267823219133e-01 1.070580514118991966e-02 -1.838900562287475171e-02 -8.323351086536655286e-02 1.580485280679240212e-01 -2.988139440544665404e-01 1.461571284202002330e-01 -1.932839932651634340e-01 -4.415836511822118782e-01 1.376295040599292627e-02 1.823275348596913314e-01 -1.496817771450024287e-02 3.532900013855617971e-02 -6.321329913528728195e-01
-5.682569434316757373e-02 5.746943293065163993e-02 -4.253229643885397815e-02 3.435966705203707949e-02 8.863993433232270069e-02 -3.025596453913490316e-02 2.517638946599421446e-01 -5.769665246396999542e-02 5.094448092257106153e-02 -1.638622457504029239e-01 1.171613588451307503e-01 -2.913914886942918225e-01 1.605141756190029134e-01 -2.426913156452128739e-01 -3.947544855389064078e-01 -6.811759100559586222e-02 1.367192236675038031e-01 -5.579470852187601304e-02 5.384851942960154625e-02 -6.027518066094648130e-01
-3.372268146849767556e-02 6.206881477570051764e-02 -2.893940049163890721e-02 1.876918742085289041e-02 1.015336068775316292e-01 -3.846041792972977602e-02 2.855023948306344428e-01 6.582512660708706928e-03 1.743372421005579681e-02 -6.038641463537338522e-02 4.497258238668221803e-02 -3.826946654341714660e-01 1.255580369529442630e-01 -1.320889607136384869e-01 -3.939139498687675434e-01 2.319896470070355321e-02 2.877144245720629212e-01 7.357304299030098527e-02 -1.125866065510975761e-01 -5.205847978344080307e-01
1.123578423192183318e-01 2.550553736828616302e-01 7.883685748553767580e-02 -1.419163250237271412e-01 1.699991339169298343e-01 -1.093258722719735003e-02 2.813947004804426832e-01 -7.626924914520254867e-03 5.569236413939003538e-02 -1.202475460391702056e-01 3.888654329343860239e-02 -4.218926974293477072e-01 -3.830620876208831738e-02 -2.086863280371310803e-02 -5.368782120100317190e-01 1.624126202894251025e-01 4.008009180264545668e-01 1.317929140860851223e-01 -1.798814675918461170e-01 -5.414882410790032852e-01
-7.946275479365643574e-03 4.011431609052701353e-02 -6.692807161082277995e-04 6.327391701676177149e-02 9.507311916228329551e-02 -1.176595617820466316e-01 1.684609793247298093e-01 -1.278123648423127867e-01 1.702615768824143616e-01 -1.325483677001582372e-01 6.278076950486674579e-02 -4.593682095312714986e-01 1.127905857293104441e-02 -3.017180793951077661e-02 -5.220677545929898189e-01 -4.456649893286278308e-02 1.648852162789524733e-01 -5.560477802187491214e-03 -6.615601947873722688e-03 -5.781698461486753926e-01
-1.073776960235858086e-02 1.041998887829576614e-01 2.727060846184051202e-02 -2.949480877701077947e-02 1.248726027701194535e-01 -4.019047969428574119e-02 2.114783392966527731e-01 -1.124605549764109980e-01 1.145117714511985768e-01 -2.093339495772577608e-01 2.463696446341482466e-02 -4.823251287661680653e-01 4.528850025881871882e-02 -1.657574477272449887e-02 -5.096972270608803868e-01 1.360590439145340641e-02 1.873567092792116640e-01 -3.051303088644055639e-03 -5.392041956046103590e-03 -6.308745174908646502e-01
2.390742455320046811e-03 1.330756487817769118e-01 9.182051049821221556e-02 -6.175691005124493704e-02 1.924804612079707988e-01 -1.109698522070854954e-01 1.608051782255255913e-01 -1.185265976491495649e-01 1.181450860617432180e-01 -1.718939418659398144e-01 3.853679272484901441e-02 -4.462893865064082588e-01 3.071527380426056220e-03 -5.726504805727872932e-02 -5.132667337452745393e-01 -1.733028441327127273e-02 1.891404765492745166e-01 -1.509490997294176545e-03 1.791471722830566271e-02 -6.121161444579172883e-01
-8.379217282341919204e-02 -3.573848581797380020e-02 -6.918814196505609915e-02 7.187545341069076499e-02 6.953453767804582131e-02 -9.311988141811028408e-02 2.837299922093525217e-01 -3.138706771800944123e-02 -2.772550269483602114e-02 -5.635322334672886874e-02 2.258733572642996068e-01 -2.915097861823506831e-01 1.969470520843341343e-01 -2.084220894310865879e-01 -4.078910409977022367e-01 1.732633642660023898e-01 4.464781548711981851e-01 1.757921062222727038e-01 -2.306138305550284595e-01 -4.537288756887333241e-01
-9.800891032955004467e-02 6.837002536238580286e-02 -4.969374223534901019e-02 -1.331138685457473533e-02 1.039764684097435471e-01 -1.556176321738917366e-02 2.128497870426025174e-01 -5.101906545573593049e-02 9.460573385280234004e-02 -1.621194370809605489e-01 9.204691925902443173e-02 -3.936867496158605872e-01 6.594518130401491596e-02 -6.465990842505875413e-02 -5.177225877641822294e-01 -7.669649005436002254e-02 5.926868025090525904e-02 -2.277225602786209779e-01 2.322649265421047882e-01 -7.528812312943494733e-01
-1.070975815306675349e-01 1.253326774854249259e-02 -8.215465564386251196e-03 2.199657732462671073e-02 7.301372682816424653e-02 -9.964586046111882645e-03 3.216821945265804228e-01 1.478339070285112494e-02 -1.241025895398239348e-02 -5.527243582970944868e-02 -3.945082443944969430e-02 -6.312631396143382201e-01 -7.741797179190604283e-02 1.000631929879700344e-01 -5.957677121021190958e-01 1.135649014306316096e-01 3.360619000420139724e-01 1.075161619365945648e-01 -2.114006183287508445e-01 -5.249111898100350393e-01
-5.693031256203964080e-02 3.819590849166818597e-02 -4.003386322443058809e-02 1.504745694822108570e-02 1.296311343785390702e-01 -1.541095625109311917e-01 7.994802584129848122e-02 -1.445977492592801505e-01 2.157213480460171695e-01 -1.773407092675525210e-01 4.577647723991020573e-02 -5.277226096837868141e-01 -2.330183967213877994e-02 2.950541899098461929e-02 -4.997672284152911426e-01 9.136489380227241774e-02 3.723898616564107478e-01 1.596960587283609012e-01 -1.483064578151960244e-01 -4.514534218804306942e-01
1.335635845441716651e-01 2.703381968771852994e-01 1.264382597398340802e-01 -1.298054912169205877e-01 1.127617138768200883e-01 -7.615510799110890988e-03 2.813876518204603272e-01 1.063548341691317872e-02 -2.170019103380697173e-02 -7.424098171836801541e-02 1.102912586843375481e-01 -4.224832941457401514e-01 1.190465323739272469e-01 -7.896291983132681935e-02 -4.664419911082161030e-01 6.904170017836952500e-02 2.439298246658848923e-01 1.923462006521701670e-02 -3.329085842897757525e-02 -6.304113693784801908e-01
-9.786010226335026263e-02 -1.102218897317389090e-03 -1.327656704608789484e-01 1.170229447274995782e-01 9.470302456785387180e-03 1.026882524495462828e-01 4.229738511454570471e-01 1.154915852148253319e-01 -1.269837279622377524e-01 -2.540904407369726226e-02 -4.598276823242582190e-02 -5.167303948490701293e-01 -4.039396171874162778e-02 -1.477064272352784924e-02 -4.831485270307234181e-01 4.517477117167213035e-02 2.186935465086518593e-01 1.751833854335693719e-02 1.532454253600116362e-02 -6.257345774719561549e-01
-1.673490900765772782e-01 -2.562478438183454776e-02 -1.622953038878571230e-01 1.155372107537312593e-01 4.370186120927523066e-02 -1.143037423863062368e-01 1.271916301447892361e-01 -1.137128589923017824e-01 1.979988615029488752e-01 -1.984794085949779796e-01 7.600175828299930714e-02 -4.002962504036011171e-01 -2.889613519783063023e-03 -2.552042705662835309e-02 -5.377507783665472774e-01 1.515429496032560386e-01 3.619756114731364494e-01 1.423806287521378611e-01 -1.495632941680092309e-01 -5.688165403480232030e-01
1.365660947559337868e-01 1.957731425368581801e-01 8.085102874142355289e-02 -1.049837457714291045e-01 1.291993387459572373e-01 1.331833643096829167e-01 4.721029507932468783e-01 1.441096060897797959e-01 -1.911007120438715789e-01 3.656120651180906622e-02 1.462613910346016177e-01 -3.409070545209870740e-01 1.763892578922413024e-01 -2.192096663381168098e-01 -4.462091716249144691e-01 5.134307598949283680e-02 3.098494825796538343e-01 9.399498505319879571e-02 -1.521468736524306531e-01 -5.050565745226450742e-01
-3.612970568698269797e-02 5.722007950358654060e-02 -3.281308840710746993e-02 3.553001092618580936e-02 1.178746081130535028e-01 5.590883045513435345e-02 3.378082061620454324e-01 6.847990167966595820e-02 -4.899743716473674293e-02 -8.725134986007275495e-02 -2.277872253673521308e-02 -5.208573603488105830e-01 1.650594404248154068e-02 -9.032118638865188620e-03 -4.443529796059009218e-01 -1.492135082053510919e-01 -2.020600812523154488e-02 -2.648667321226649829e-01 2.191763339126525656e-01 -7.835359325410518050e-01
9.783862678682603981e-03 1.161935714648471146e-01 2.733330963395767116e-02 -6.256387717051464792e-02 1.020658890384662926e-01 1.133783344245599956e-01 3.838276684438461928e-01 1.334764987707568462e-01 -9.033299051382026601e-02 -6.056328450788148188e-02 1.259635989251599308e-03 -5.178857660083131531e-01 -1.875279474006617819e-02 1.492763746741038178e-03 -5.608656963188781708e-01 -9.857946183216746705e-03 1.687073628692510319e-01 3.391782213700164639e-02 -1.117675725542466303e-02 -6.343247815120631738e-01
1.798771660430898423e-01 3.492361501451968220e-01 1.400473612082250296e-01 -2.370881140945290677e-01 1.644954466802226178e-01 9.836480791428735271e-02 3.447855432081416982e-01 8.283851665683736321e-02 -1.168106147636387843e-02 -6.777186310938691782e-02 3.073058240672169039e-01 -9.157920577221217995e-02 3.222044659866372118e-01 -3.553698328590910727e-01 -3.186970301882670054e-01 -1.917768368116446465e-01 4.154059648593738663e-02 -9.867643158939048975e-02 1.193224749943754270e-01 -6.479918521283257737e-01
4.814218789012739141e-03 6.266098316169682603e-02 -4.051062589599038755e-02 4.144999482762035808e-02 8.963998398199467255e-02 2.425552464679246040e-02 3.149452824332399370e-01 -2.063792419207816087e-02 -9.570862184417432139e-04 -1.151207274101355427e-01 -1.683670682590780177e-01 -7.517224350784508236e-01 -1.759540676099046186e-01 2.058206751683059887e-01 -6.369653058457898087e-01 1.517131287109683979e-01 3.590952856633863877e-01 1.057695996283442991e-01 -1.229543082767864393e-01 -5.758511099625515106e-01
-3.052256082849753860e-02 1.187871226636811189e-01 1.168719000056704302e-02 3.264933652362740461e-03 1.304347030982421218e-01 -3.829943175014851459e-02 2.891958374592325520e-01 -5.392071284974825351e-02 6.955654772656369444e-02 -1.245878480130160337e-01 -1.500664585710289045e-01 -6.711975892365829033e-01 -1.164280135174181330e-01 1.088282635619512162e-01 -5.124537884741549032e-01 -1.512147685937858393e-02 1.630451333938131298e-01 -4.365754053494165510e-02 6.994720248778285576e-03 -6.227384155458731696e-01
1.093476765338021739e-01 2.368012047435804901e-01 1.475191961989350542e-01 -1.373029300970329547e-01 1.860398016036524105e-01 -3.769119199729990821e-02 3.005693799172171055e-01 2.825315828035197124e-02 3.734906343627468484e-02 -6.550263848620875573e-02 1.578361788154603595e-01 -3.036622341297932626e-01 2.404143572798038697e-01 -2.223566070587000287e-01 -3.738439880989199993e-01 -1.237641468699609559e-01 4.716382631536331083e-02 -1.097096734069451518e-01 1.189263588099418179e-01 -6.644353390991432073e-01
4.872627152812812612e-02 1.492144300380219835e-01 7.800179543414796635e-02 -5.875521458575172495e-02 1.374189532497781807e-01 -2.660200464550275395e-02 2.106296411212393027e-01 -5.851437096260530407e-02 9.015691251310321841e-02 -1.538880808802884914e-01 5.342362173733023606e-02 -4.027751276766315391e-01 2.884000369163529365e-02 -5.036691314317240376e-02 -4.645486833941266935e-01 1.566472239606653272e-03 2.406787139523212382e-01 3.142376325759446698e-02 -2.643765205724137729e-02 -5.416667845973516249e-01
2.761119307605076900e-02 1.363377679183172264e-01 8.229722037133699319e-02 -6.950097484652049962e-02 1.431004074481203869e-01 5.533801663261800341e-02 3.790560369482250946e-01 5.180087585030866693e-02 -6.904274595855094954e-02 -7.417795748304953363e-02 5.045613496977325446e-02 -5.039670842585429744e-01 1.316954244953558173e-02 1.181421175829462655e-02 -5.347727554970326258e-01 -8.242838422584913838e-03 1.937296489686495538e-01 -6.674470524387042525e-04 -3.226882113587674350e-03 -6.034697379149974727e-01
-6.738836684343654793e-02 1.580886120002188144e-02 -1.421260906487975539e-01 1.060653251356218768e-01 4.133199499470052024e-02 9.663150976298648387e-03 3.317131211060467266e-01 3.294207503900863782e-02 -3.380090239963489535e-02 -3.892947325806284109e-02 8.556223451633221400e-02 -3.506405423482868988e-01 1.593382515399962562e-01 -1.721163117676843823e-01 -3.961298449371942199e-01 1.058468056659571804e-01 3.041130699858761166e-01 1.139300548301309945e-01 -1.118673332689101296e-01 -5.716789161902029459e-01
-9.198039090728575562e-02 7.314254761997815435e-02 1.179600045383591769e-02 1.083855044461109335e-02 1.398392640106704554e-01 -7.346789821944403609e-02 1.678030770908022218e-01 -7.010764130789283455e-02 1.341012295454236392e-01 -1.507480242961505290e-01 -2.341729421571459024e-03 -4.962733984183126390e-01 -1.626254361588137798e-02 1.698745405595392111e-02 -4.978963699971231116e-01 1.292160641652233544e-01 3.142567894733578338e-01 7.241837385930183224e-02 -1.208863434758968430e-01 -5.410097585893816063e-01
6.843602281487162764e-02 2.046326925005681752e-01 5.273395411781479220e-02 -8.581382684381794190e-02 1.639565199557984077e-01 -1.654789315147692924e-02 2.934397919294116641e-01 3.602727205328571519e-02 1.791779625512776586e-02 -4.896609971023604263e-02 2.904355141326494735e-02 -4.655435338544715584e-01 -2.366459842193892327e-02 2.641234804428183036e-03 -5.041383039328036775e-01 -1.228641368234457965e-02 2.071140095880452670e-01 -6.073120363724879289e-02 3.515788710675316064e-02 -6.517784773914989671e-01
1.394338712742474451e-01 2.765444775694126389e-01 2.601143353515874557e-01 -2.246439430777734114e-01 2.631814760603522485e-01 -1.828683271425399492e-01 1.939674173748727748e-01 -1.379138513280874223e-01 1.541223532336150892e-01 -1.181453605469371393e-01 1.619022809141404673e-01 -2.832886550787858670e-01 1.511823829057754032e-01 -2.033796911850120626e-01 -4.357582154227173654e-01 1.053114715474634394e-01 3.459091623147251271e-01 1.503930665645009934e-01 -1.697132369753711068e-01 -4.659074269279706582e-01
-2.240398133365607142e-02 1.631807927829080351e-01 7.833818261558006535e-02 -1.207458272281016209e-01 2.261266298705282840e-01 -1.180512213075951000e-01 1.399966320835022426e-01 -9.816745641290314239e-02 1.206273191927201005e-01 -1.241535883992297834e-01 1.329299226468708683e-01 -3.571567824672592373e-01 1.614122671043907165e-01 -1.720852115185849684e-01 -4.491244108906117805e-01 4.889160871443890000e-02 2.588707019806719689e-01 3.127670548480070839e-02 -7.187605446973507894e-02 -5.724094014178734424e-01
-1.207404128334062937e-01 -3.862853825766879301e-02 -6.159352914055434697e-02 1.028121680313514863e-01 7.336965891299766784e-02 6.461013187706655947e-02 3.752274688852504370e-01 1.368305180294024648e-01 -1.048977087926277474e-01 -1.173364468613258271e-02 -8.763762424978396859e-02 -5.670697954324928070e-01 -1.343375668178710958e-01 8.218368043638460407e-02 -5.516524218557028458e-01 1.634848471562831140e-01 3.345969423877728222e-01 1.482991755384690524e-01 -1.282806057240015174e-01 -5.747383382583448608e-01
8.760408909816587431e-02 2.231944236418501593e-01 1.105866198737721767e-01 -1.116994043170195516e-01 1.666127178709952417e-01 -6.256741821552659621e-02 2.950838006906673083e-01 -5.885211825135570202e-02 2.167901492414147507e-02 -1.120510733514001600e-01 1.373153034066182110e-01 -3.337127520961601368e-01 8.483191692784289306e-02 -1.375293218025942510e-01 -4.685857447576514678e-01 2.781925473500600210e-02 2.992054063887064630e-01 7.436342254346153813e-02 -6.172812815584789725e-02 -5.160182505349547588e-01
9.700912874308023626e-02 2.308224218431601527e-01 1.949608319178611215e-01 -1.889753605651907920e-01 2.925895155236342693e-01 -9.429424228057044222e-02 1.646763892546969921e-01 -7.865358213472949112e-02 1.457936495303945590e-01 -1.824443634766135247e-01 1.417847211489310366e-01 -3.290566220584072443e-01 1.031325937109049962e-01 -1.400974109814404622e-01 -4.433712374457461913e-01 1.507567760501494214e-01 3.911525156324056063e-01 1.699901609065722352e-01 -1.682063519923544248e-01 -5.110759688496616659e-01
-6.558119228122627486e-02 7.778676532999617699e-02 -1.946616046547899881e-02 2.700892981920594363e-02 1.254677650945958123e-01 -9.288005981360358820e-02 2.166510010733012637e-01 -2.673731880359694890e-02 5.039340571504202088e-02 -9.077008739882513888e-02 5.711469273679928987e-02 -4.142219392385232957e-01 3.279459771949763680e-02 -4.408615414178685549e-02 -4.866054743270997740e-01 5.378805801099528772e-02 2.686935399584386985e-01 1.521628389421854910e-01 -1.362309102873395794e-01 -5.064321908173968767e-01
-2.493568766029816697e-01 -1.273494019907048802e-01 -2.196215828332667985e-01 1.765443379331621543e-01 5.201779303352595252e-02 9.449650610322313238e-02 3.962954889414846971e-01 8.264233429711616286e-02 -5.641344355971927849e-02 -8.184011546013415794e-02 2.302540575637999631e-01 -2.495232686815084810e-01 2.496427514085175214e-01 -2.837465668285685805e-01 -3.714112814552880115e-01 1.706830881523652976e-01 3.942553086108755434e-01 1.346763081959265196e-01 -1.401963301972810050e-01 -5.391865151452852611e-01
-8.601024277190197354e-02 1.517685947933236634e-02 -4.901034126216625986e-02 4.809273137484643829e-02 6.703156523100484154e-02 1.255343516070361876e-01 4.021597120094135835e-01 6.924441520071533684e-02 -1.234751044640220591e-01 -1.398646729855685389e-01 1.002038088754158701e-01 -5.028389724992985421e-01 5.625975354115845400e-02 -7.149054114019755268e-02 -4.488749880012330995e-01 -1.270568845300937000e-01 6.735735753693683492e-03 -1.648213599979778676e-01 1.670298707794751758e-01 -7.679307641971412357e-01
-2.137438257464679969e-03 2.245220107000732435e-02 1.244411338978945389e-02 4.071926540790195281e-02 9.238993179921342613e-03 1.220803665692726386e-01 4.022347116860011673e-01 6.869160322668964314e-02 -7.516924853672554696e-02 -4.315609892391082669e-02 1.758810380998873102e-01 -2.399449839973962495e-01 2.170572140755679391e-01 -2.854403480037753793e-01 -3.315290932948850577e-01 -1.188114149350018300e-02 2.513095813133724987e-01 4.976806617934803612e-02 -2.972236229383496200e-02 -5.229209610413121379e-01
1.529000843907344503e-02 2.497820077794790927e-01 1.226567795399004096e-01 -1.347910077751836022e-01 2.407794151226667623e-01 -1.116527781344685832e-01 1.186987164264919348e-01 -2.255786987937316926e-02 1.485717878869090569e-01 -1.174724874813955350e-01 1.428999979642338602e-01 -3.369848998899215853e-01 1.255539788885837171e-01 -1.874226767837925411e-01 -4.413349424160935008e-01 -6.419593790834475511e-02 1.058845063353944516e-01 -1.157830653247518826e-01 1.504531850427844042e-01 -6.689390010698323952e-01
2.449746784476303230e-02 1.100721259518240569e-01 -4.257328953557767276e-02 3.128394039052274922e-02 7.146655859459340177e-02 -1.187985624330489300e-02 3.244066146741259593e-01 3.122855915927025966e-02 -7.483928225791751376e-02 -5.666031717641580034e-02 1.307742701757483861e-01 -3.969996027289422469e-01 9.164538193592322579e-02 -1.029289703071958328e-01 -4.854919512085702493e-01 -1.792422807579013844e-02 2.185918286320221726e-01 -4.970946146235627472e-02 -1.982466538545991225e-02 -6.200757068201689926e-01
-1.189134391625518497e-02 1.179985923457640418e-01 -1.148293428796077521e-03 -2.791086805741432170e-02 1.001272581130976808e-01 -5.380688475645047097e-02 2.067255386229501779e-01 -1.978105267069784137e-02 5.972395538192808162e-02 -1.059595195006899082e-01 1.160996535933341289e-01 -3.307154466680358174e-01 1.972639203398027785e-01 -1.873754843456153785e-01 -3.771870467824699480e-01 -2.541163756054619360e-02 1.870730705020579587e-01 -5.499968513403402648e-02 7.794837054098641138e-03 -6.270692197529972312e-01
1.452600390667756203e-01 2.700693744273681141e-01 2.294772870771280282e-01 -2.426646026906046916e-01 2.235848790073635128e-01 8.513324765728563781e-02 4.105838519702945111e-01 1.264514647351977494e-01 -1.302859776613737586e-01 -1.863146675474929015e-02 -4.605232656499394506e-02 -5.543122680891932053e-01 -1.229369196091858324e-02 3.462852468664966155e-02 -5.006833713372402794e-01 -8.147713592798430660e-02 1.068560623283690281e-01 -8.978708698073080419e-02 5.739011838172247693e-02 -6.337571158068161514e-01
2.914143178930485995e-02 1.706003124191155518e-01 5.464805839399823617e-02 -8.134278636555594688e-02 1.620050749888093944e-01 -9.608221379594385214e-02 8.430449493348365908e-02 -1.896961132810459361e-01 2.501003380710939972e-01 -2.659972224739289293e-01 -1.636149746900739388e-01 -7.157079661141753091e-01 -2.028081919461671712e-01 2.004915552329731843e-01 -6.109898146661721929e-01 1.333369781164900902e-01 2.633329083815109106e-01 1.677157063010351404e-02 -2.417591458896366577e-02 -6.564990618565724745e-01
-1.678475174215766086e-01 -6.831178825422223877e-02 -1.097824912866027236e-01 1.269908070667867817e-01 6.124051151796774256e-02 -4.016028289249301553e-02 2.565987264905961185e-01 -6.385536618650097807e-02 8.394078878606781036e-02 -1.847023262717049363e-01 1.161841210501982219e-01 -3.958335380119127334e-01 1.174238159828575323e-01 -1.466695361680001863e-01 -4.374392225137053725e-01 2.625757452072516873e-01 5.007477937360731435e-01 2.372476889986876725e-01 -3.171108631057834026e-01 -5.008622239563894629e-01
2.247467230840874963e-01 3.347804505441363543e-01 2.499973800415511149e-01 -2.356989012149869611e-01 2.466151841573860359e-01 -1.612983909539069394e-01 1.678687844597517853e-01 -1.548122022870331294e-01 1.244266181160313262e-01 -1.284645220976573243e-01 2.796350471495783196e-01 -1.220653097837743339e-01 3.865585341733766556e-01 -3.781431251372448510e-01 -2.944246111413755806e-01 -2.398612276492833040e-01 -3.427385811965000251e-02 -2.421923881034974135e-01 1.736313661285523169e-01 -7.228434873489667511e-01
2.145714990179768411e-01 3.750561774497367384e-01 2.455457610926658762e-01 -3.331632673807329303e-01 1.890845061871169186e-01 1.058410928501622023e-01 4.682008455321403639e-01 5.071239978605178444e-02 -6.797349814961958780e-02 -9.264066072320259471e-02 1.786295554527104756e-01 -2.963346640147022093e-01 1.903617614030370109e-01 -2.361556777224467218e-01 -3.714036532961970671e-01 -1.063038557128068717e-01 -9.156251504293833055e-03 -2.570899383033422581e-01 1.221801390985216285e-01 -7.581675478266395318e-01
6.864002118673667718e-02 1.545502977002075617e-01 7.472346963549095222e-02 -9.101634848012812862e-02 2.214390686957949661e-01 -2.483219215394410206e-01 4.606206254242437015e-02 -3.294440599870547826e-01 3.012115345125225274e-01 -2.048900274187279991e-01 3.200314653425748168e-01 -1.423141256841403690e-01 2.147170006799834496e-01 -2.671657266781269358e-01 -3.441684889647679269e-01 -3.780238554125847639e-02 3.667908128510618537e-01 2.802932255212315371e-01 -2.753716194428059705e-01 -2.613268304457361801e-01
-2.072407392035033324e-02 4.189251593881784808e-02 1.237392273991214375e-01 -9.890459998466889779e-02 2.135841955239437817e-01 -2.403656326979560220e-01 1.199524607116891212e-01 -2.042917765835244315e-01 2.369069605099941300e-01 -2.010904136869121617e-01 2.140219196195748963e-01 -3.353364526191150441e-01 1.663622877126259003e-01 -1.722230688344263960e-01 -4.410177991611923809e-01 1.273868299297192253e-01 2.509847775557420002e-01 -4.744569123194450344e-02 -1.862176839823579538e-02 -6.433904843434690157e-01
4.546371806962999362e-01 6.576171942285680139e-01 5.118998167437058822e-01 -6.247663455739038696e-01 3.644883292024621024e-01 2.520514114019063029e-02 3.512204419111398246e-01 8.625771271989478295e-02 -1.152340470780156972e-01 -5.679918746801939505e-02 2.207899513577255002e-02 -4.567689213980453133e-01 -9.062489207193993868e-02 8.634005991427468052e-03 -4.816270616971072838e-01 2.075158516901144667e-02 2.034308155551899921e-01 7.314745311449061260e-02 -1.692930911726558615e-02 -5.979232732980606091e-01
9.252245111763976460e-02 1.484781033876834966e-01 -8.280922050304040036e-03 -5.243429258182579628e-02 2.800344851913552646e-02 -1.319525713979134152e-01 8.771568862957895840e-02 -5.362722435425090056e-02 9.744853728745758725e-02 -2.080230281908611034e-01 1.759317893316175718e-01 -3.303048812453829308e-01 1.689757325221307727e-01 -1.770609414981632046e-01 -4.404679795718371427e-01 2.414138963250423917e-02 2.149817667988411229e-01 -1.007013977853694620e-01 -5.465578994993738893e-02 -6.404367619336011064e-01
5.241952380045848681e-02 1.803266531748832224e-01 2.008425360991490660e-01 -1.062732682280152496e-01 3.336309300076471529e-01 1.038674489157100506e-01 3.676722767894832766e-01 -7.951175191099105199e-02 -9.678496730192208408e-02 -2.314076775237431383e-01 2.197283579645071261e-01 -2.594303938081987670e-01 2.027424822081826949e-01 -3.224136036737528244e-01 -3.933354788528100610e-01 -9.602509834263667221e-02 2.353422262241887108e-01 -1.924712786403001002e-02 -1.172910420057473591e-01 -4.938797576197584971e-01
5.557679016529465388e-02 6.798126542338511769e-02 -3.780062580435716857e-02 4.839159247504719319e-02 -5.492044859899061771e-02 8.166493112617190242e-02 3.927702630272187356e-01 -2.355345667804143589e-03 4.816531124356773774e-03 -9.656371464261401250e-02 2.136009778936159564e-01 -3.109394229741024862e-01 1.865909731109360314e-01 -1.966703464239641375e-01 -4.832363560305596439e-01 3.013164047161162040e-01 4.828028153025893388e-01 2.254623256028130962e-01 -2.595164304890200668e-01 -4.527647642171052089e-01
