0.000000000000000000e+00 1.268057992811389145e-01 7.494305881589947461e-04 0.000000000000000000e+00 1.381253496168122485e-01 0.000000000000000000e+00 1.632488426021557748e-01 -1.501049199492114905e-01 0.000000000000000000e+00 -2.357025228943661066e-01 0.000000000000000000e+00 -4.881712188152655396e-01 -5.756816221984545345e-02 0.000000000000000000e+00 -5.366175247875510923e-01 0.000000000000000000e+00 2.647399134682079103e-01 8.275139902589238872e-02 0.000000000000000000e+00 -4.938559836795105573e-01
-1.324694440581629107e-01 1.498633321906316651e-01 1.956656221729647094e-01 2.925334845866726582e-02 3.462034663938972079e-01 6.962488265511890262e-02 1.688205539563348290e-01 -2.995376266408386612e-01 -1.080352589388888507e-01 -3.986016767574717679e-01 -2.899304519303638750e-01 -3.351648502975199118e-01 5.403941699694054801e-01 2.187279682033007044e-01 1.282621464212487516e-01 -1.963082194983397089e-01 3.343096867309254261e-01 5.401343401401225153e-01 2.101580079515221744e-01 -3.306804458272200042e-02
-1.806431853340438320e-01 2.387890370883229418e-01 3.742542305740116371e-01 1.655994726742530399e-01 4.998127172737635293e-01 9.989382553012207677e-02 2.546125683749699276e-01 -1.917572398244583309e-01 -4.340829656064669473e-02 -3.004367757239908010e-01 -2.538496584368285514e-01 -3.823964347464217650e-01 4.689234106362955012e-01 1.837694081115996692e-01 7.558061194906956493e-03 -2.316285894502254084e-01 3.465899686301920357e-01 4.905908596763337015e-01 1.511170996651439447e-01 -7.897606830341763473e-02
-7.138279792688671799e-02 1.392116761408004333e-01 1.271018012232802419e-01 5.887177432696254209e-02 2.333371693398182400e-01 -7.939923775024464170e-02 3.314354519428235335e-01 4.237536784691957326e-02 -2.733361316879918956e-02 -3.593669773848255644e-02 -2.709799659767699875e-01 -4.412794609706234827e-01 3.768087731395732276e-01 1.008564320597640784e-01 -9.815679067708792116e-02 -1.585833748305098823e-02 2.413859375908571636e-01 3.550162731984818354e-02 -4.273020302709443219e-03 -5.339121414671904597e-01
5.958467877878030616e-02 1.707849216917108337e-01 7.077451832736628146e-02 5.325442866603491421e-02 1.422288898990518857e-01 1.222926367801341063e-01 2.391068484722816134e-01 -2.236648870193404803e-01 -9.057940309683482072e-02 -3.165814401905052700e-01 -1.307307104949599896e-01 -4.719483963869471332e-01 1.650114670655350446e-01 4.931615675472855731e-02 -2.690312028231234831e-01 -2.466928523441248577e-01 3.060982679928264116e-01 3.697151134191682953e-01 1.531903831290419848e-01 -1.016785654883063383e-01
1.499152244313611271e-01 2.354147081223390003e-02 -2.655320712093578450e-01 -8.133761178982479301e-02 -2.426847517118855269e-01 -6.171233952625905517e-02 3.433923626525940964e-01 1.563818249694582108e-01 6.851122922133182080e-02 6.814313863837639929e-02 1.483649708953270752e-01 -5.398004407455538889e-01 -2.037133325071203149e-01 -8.667591251416606468e-02 -8.008607204837229210e-01 7.882264631076388306e-02 1.673785165655423401e-01 -6.714522931146610363e-02 7.561221914092627894e-03 -7.127352451204296280e-01
1.395733206528601278e-01 5.948412832094204794e-02 -2.159782467883947232e-01 -5.796306923386992938e-02 -1.641329281892099923e-01 -2.204405012300903605e-02 3.601977772016795587e-01 9.184366426618592594e-02 3.791332667767772363e-02 2.754921219475195415e-02 -2.202219689290002558e-02 -4.682645915417261162e-01 5.277731573354835226e-02 3.217314006938178789e-02 -4.547490317134996740e-01 -1.561261549030767970e-01 2.216698731100110453e-01 2.604734457476986509e-01 9.222849247092539116e-02 -3.259035844962422379e-01
9.614107758037182538e-02 7.409540863649469178e-02 -1.222762176592689098e-01 -5.420883873190466412e-02 -6.052016709486111173e-02 -8.265620447015020744e-02 3.782237414147835985e-01 1.648238748183313285e-01 9.576346792018392007e-02 1.136515253638790135e-01 -3.762486299024226932e-01 -3.188467087000567135e-01 6.859775810555301945e-01 2.235748708894355619e-01 3.264550824299141674e-01 -1.465929039554969004e-01 2.528068078751156689e-01 2.649073475873080508e-01 9.448998259320566528e-02 -3.065813131977467854e-01
6.988202230300354090e-02 4.525883528614240564e-02 -2.211978992182901116e-01 -8.843020418595629040e-02 -1.182849134720821566e-01 -6.229088263893747812e-02 3.288716538547991064e-01 1.615483220063537451e-01 3.407079646107501192e-02 5.375636307461136021e-02 -1.238505857225041112e-01 -3.796435736362808178e-01 3.574157354075012671e-01 1.697277870243702191e-01 -1.489918598302718000e-01 -1.341075795906419010e-01 2.902137018390986700e-01 3.040580666253089870e-01 1.390455115496996852e-01 -2.666481840676419579e-01
2.005887956957894680e-01 9.687827324221265357e-02 -2.554770175892458473e-01 -4.731704365598264628e-02 -2.157713462621803913e-01 -5.062183264330034904e-02 2.986764078352444618e-01 1.157512683624688649e-01 5.433621123322069507e-02 1.198022609316465314e-03 -1.506651776232535711e-01 -4.260491744216034493e-01 1.754384597846876948e-01 6.887284207547948733e-02 -2.577685291623023622e-01 -1.315425572640644136e-01 2.397256153870515882e-01 2.355621397815284290e-01 7.856032774608133484e-02 -3.062179806113317637e-01
2.063201047838850721e-01 -4.343882494647131887e-02 -3.683768083651016711e-01 -1.062085397339077308e-01 -3.212931754096764458e-01 -2.282638413537497468e-01 2.987936438503520642e-01 2.974389300898920285e-01 1.167667476742016153e-01 2.805066072024303137e-01 -2.009588249787999104e-01 -3.784410095856190481e-01 3.784372984385024896e-01 1.253223544174975612e-01 -8.066365467019606661e-02 -4.995841773076675763e-02 1.914747902555385961e-01 6.734125314950292762e-02 -4.806179621815218073e-03 -5.490099899726167409e-01
1.292850790147139495e-01 3.861315341232005732e-02 -2.298540899689861527e-01 -8.397178116136422288e-02 -1.891492949576597804e-01 1.870588702385568292e-01 1.974581791745416148e-01 -4.534768389325526394e-01 -1.222332281952590027e-01 -5.834781603641339132e-01 -1.774809195522824845e-01 -4.085806061026800995e-01 3.350042838061050299e-01 7.810224108687584266e-02 -1.542433167423103435e-01 -5.493700257266249942e-02 1.917462441495761949e-01 2.199767824306228525e-02 1.154113885443630583e-02 -4.322192386584515766e-01
-1.198969834519887645e-01 2.028329102628840253e-01 2.807293433743910382e-01 1.007760085666392358e-01 3.839435330303814231e-01 4.448453208270204684e-03 3.083251924390102983e-01 -1.441510772374673607e-02 1.205309621403078714e-02 -8.315455636459609390e-02 -1.730969354796815241e-01 -4.613006040614606729e-01 2.268996237175501529e-01 6.934470109563425910e-02 -2.408566086627659808e-01 -1.147716798460672732e-01 1.938372377149752968e-01 9.722502182011266703e-02 -8.495752664712363789e-03 -4.670590239737444360e-01
1.548619107694828301e-01 1.009066739698552817e-01 -1.052792752587741465e-01 -6.103054336552639347e-02 -5.728744918852323592e-02 -1.335324233229564228e-01 3.061431168273859305e-01 1.849438686323051917e-01 6.826586467911020806e-02 6.783768593194658414e-02 -5.587309815503009591e-02 -4.713660214725434172e-01 5.695916853180260642e-02 1.430447658427511093e-02 -4.342106208349100216e-01 -1.434412337676501670e-01 3.358154588532621387e-01 3.814288322361680805e-01 1.021440861391233607e-01 -1.602960131387288212e-01
1.504298969992682034e-01 2.817417289784207579e-02 -3.169461039310642048e-01 -1.158275678751115034e-01 -2.651943819512361245e-01 7.999801162471509297e-02 2.661351229436944577e-01 -1.167389393485179366e-01 -8.127961857861114997e-03 -2.480680217611942462e-01 -2.161747093355944616e-01 -3.493839011842080344e-01 4.887026145511397246e-01 1.829520592874611662e-01 6.633271533398824027e-02 -6.855531294366370987e-02 2.868444363649038653e-01 1.149111501810456265e-01 1.379164258633688855e-02 -4.412782831213190038e-01
-1.388177256532156512e-01 1.270234858084045015e-01 1.928897682351832232e-01 5.479196138417499751e-02 3.222299556933020392e-01 -7.678368787715601773e-02 3.058496730268217001e-01 9.353646302576701377e-02 2.064095662639300541e-02 4.533697616702488109e-02 -2.077729472253273535e-01 -2.732825122804370954e-01 4.946142332881028891e-01 1.932998343344004555e-01 3.367491807666350701e-03 -2.472315265903684556e-01 2.807646620836617979e-01 3.417779660140172204e-01 9.864580287437919870e-02 -1.304856446108847712e-01
-8.733559772108653863e-02 2.061085865390636374e-01 2.208630574616525510e-01 1.478033920280845750e-02 3.163933790424822146e-01 -1.565709114534978019e-01 4.117006177150980828e-01 3.365387285068229817e-01 8.574046674903754162e-02 3.065657184404005364e-01 -3.796261754694439938e-01 -3.710996408928374790e-01 6.659563441156123309e-01 1.893221389292130685e-01 2.632467045568545605e-01 -3.943674797747401262e-02 2.037717439347426773e-01 6.087654360430255762e-02 -3.669144697928394816e-04 -4.932381161741046238e-01
-2.118941636309516069e-02 6.812268761443802945e-02 6.371843418922493174e-02 2.137545303004925387e-02 1.153223577536577060e-01 2.158904203139770661e-01 1.907207012195172302e-01 -2.707404122293260995e-01 -1.204369984645877606e-01 -4.862152626292670643e-01 5.508983651694776551e-02 -4.730763870858278874e-01 -2.249235619182632373e-02 -6.829825392921896887e-02 -5.183791257320704560e-01 -3.170608695534485877e-01 3.249730425533771117e-01 4.456912756036104928e-01 1.906751478810309597e-01 -3.288162587052184671e-02
-1.591467634491957883e-01 2.514209077143011450e-01 3.926656593051530697e-01 1.663748174317034312e-01 5.323897859267425758e-01 -6.660174020143236340e-02 4.106622342083388610e-01 2.358560188976960570e-01 8.475253757293878254e-02 1.670430103971666247e-01 -1.958917173404776113e-01 -4.712711885242968357e-01 3.183546494592932041e-01 9.455937847877075864e-02 -1.240947735544118552e-01 -3.471847271847104954e-01 3.923942010460937380e-01 6.404131829122690078e-01 2.205378633184380543e-01 1.433823398422889306e-01
-6.716230620855412337e-05 1.074952086741338547e-01 5.570134816760695384e-02 7.925041200001324559e-02 1.435832812491263100e-01 3.464393133663827284e-01 1.773519379322827660e-01 -5.269761380208297652e-01 -1.371794330071908208e-01 -7.381505981449653087e-01 1.760698748290981386e-01 -5.250244311726753876e-01 -1.009688670171740021e-01 -2.195792648991622131e-02 -7.048472536479749584e-01 -4.445352231770698104e-02 1.619269912825694324e-01 -2.284460889324102517e-04 6.520016836109195080e-02 -5.506624890341356160e-01
3.798397674965708903e-01 -1.063815996548018727e-01 -6.546194430533551767e-01 -2.387990533515529923e-01 -7.131442476860661017e-01 -7.625468888415645741e-02 3.800524938929219498e-01 1.259450321283703544e-01 5.720651095297080851e-02 6.613131684591253001e-02 -4.492778135939069495e-01 -2.848885770265214834e-01 7.768675297554172854e-01 3.014323377766184864e-01 4.053130033019909373e-01 -2.457107367586303937e-01 3.372294542691393060e-01 4.675315015131720209e-01 1.577754061880803360e-01 -5.833827824851023358e-02
-3.725310062060113725e-02 4.897756126205895372e-02 -5.991539811475050936e-03 -9.308888204620391349e-03 8.810428865851871461e-02 2.557243844103009311e-01 2.423536578496069405e-01 -3.173744998621936819e-01 -1.030873338336657785e-01 -4.979995595988192525e-01 1.305649567610434048e-02 -5.353572933007693102e-01 -6.169396479883004769e-02 -3.829396334816348446e-02 -5.637276656495928684e-01 -2.325615283759480956e-01 3.651446784769337151e-01 4.768310173361449134e-01 1.677210397450929480e-01 -5.994057316388873291e-02
-9.196996227965346937e-02 1.256174601070669528e-01 1.375212325196218666e-01 6.628103198745032010e-02 2.747185495111015840e-01 -8.774877116212848743e-03 3.239903076069035048e-01 3.904269413910912978e-02 1.347546697479252119e-03 -7.600254744868008283e-02 -7.710447820148408349e-02 -4.751446662178347990e-01 1.565917107506308859e-01 5.159395454654780444e-02 -3.142144077142047798e-01 -2.317515405321079469e-01 3.486865275131965092e-01 4.523342636358734237e-01 1.469549700585185970e-01 -6.652169198654522830e-02
2.106492263653198804e-01 2.337032846570624711e-02 -3.313671400822639224e-01 -9.275933263279517726e-02 -2.920033113149294035e-01 -4.115800509225825410e-02 2.930051756388068473e-01 3.772871341601535811e-02 6.767115699209085358e-03 -4.548166900731935580e-02 -1.517340739143123174e-01 -4.157341017219584045e-01 2.457064850566016423e-01 1.195833254684922353e-01 -2.015108322843965627e-01 1.412713696784931861e-01 1.532284968420000726e-01 -2.365299959750604142e-01 -1.168995873304024824e-01 -8.776054441333200895e-01
-1.807938611421453651e-02 9.173806043905323448e-02 6.402596400307397628e-02 5.448131416656991355e-02 1.185725380578346866e-01 -1.298107156462279255e-01 3.117248628538624722e-01 1.176139150903486447e-01 3.142052895769797960e-02 7.299654675536570991e-02 -1.353435029966874870e-01 -4.229233151105968314e-01 2.372813170690014073e-01 6.842325157340008179e-02 -2.191643845354180331e-01 -1.024173594834351525e-01 2.508263983339804049e-01 2.157744764097093704e-01 7.938600019627914395e-02 -3.560561636586523360e-01
-5.698750306782285335e-02 1.201812301284494733e-01 8.557292038468916617e-02 2.215372961898311524e-02 1.988487180664325893e-01 -1.887158671965787626e-01 3.871594493861508779e-01 2.637566239793978085e-01 1.224901284442349303e-01 2.477349399090487125e-01 -6.338035692339218097e-02 -4.261519096848022103e-01 2.365196950845872559e-01 9.816948518709167626e-02 -2.715985549139758315e-01 -1.465558336487646773e-01 2.283131591958970363e-01 2.239045980691147519e-01 4.568292701549628299e-02 -3.512754591671891635e-01
6.413888009662313539e-02 1.007075658923519829e-01 -1.277499731434549868e-01 -8.085352476388141252e-02 -5.758106479263286337e-02 5.081450162328510212e-02 2.442691296727954320e-01 -2.118547161138718826e-01 -1.186404861930257931e-01 -3.243755424265024612e-01 -2.328218118441608697e-01 -4.231595976287593208e-01 3.389790913510913328e-01 1.216087522789324471e-01 -7.591240540584090479e-02 -2.269544766786060208e-01 2.913796397609774158e-01 3.868079410709893695e-01 1.502451722660241851e-01 -1.330914092605033350e-01
4.412099250618535529e-02 1.121378965336712885e-01 5.773658187589283952e-02 5.877413365646073917e-02 1.251029856656330763e-01 1.076465540802448162e-01 2.386914738762869193e-01 -2.066542188955751147e-01 -1.219258380560536981e-01 -3.266758892224700395e-01 -6.981255876913196323e-02 -3.995937430101338395e-01 2.668273030508001020e-01 5.840135657758915855e-02 -2.313373411190304541e-01 -2.585873764293173949e-01 3.209661797907044645e-01 5.362165619812808703e-01 1.977687207212714959e-01 -4.444310362460390795e-02
9.516750349048204438e-02 9.977500002510676647e-02 -2.366934495773117542e-01 -4.800508847371684484e-02 -1.268643512863765477e-01 1.898048135369708594e-02 2.866773463139958844e-01 -5.998251656424272854e-02 -3.830009859544778600e-02 -1.168705802376815706e-01 -2.444882598783100214e-01 -4.631317740051459353e-01 4.248295662598888800e-01 1.585686277013074186e-01 -6.468624933781672026e-02 -1.432256489910891384e-01 2.588156054902078784e-01 3.123365019363745221e-01 1.144003417997100647e-01 -2.132368855698082988e-01
-1.943599286132947634e-01 1.615545394907420829e-01 2.942124813574518161e-01 1.321994215070826650e-01 4.656688165034512106e-01 1.037829722207316840e-01 3.430667427384931356e-01 -1.666120654751831187e-01 -1.061027169096003114e-01 -2.682556020261365193e-01 -3.878179095535108645e-01 -3.291193174319901882e-01 6.690813115411724521e-01 2.198814748351246573e-01 3.214240375618411805e-01 -1.516510981388782819e-01 1.586718094941676482e-01 1.692407794924228881e-01 5.624297746136235066e-02 -4.340233252761239169e-01
9.791751674246179649e-02 1.247315096479563734e-01 -1.012007306105962706e-01 -4.316506399139159733e-02 -4.009434157609594040e-02 1.808434139617214886e-01 1.567927924130931294e-01 -3.361939915915185262e-01 -1.381793019025970015e-01 -5.023230074518902910e-01 -2.252459811562065872e-01 -3.882100728473746321e-01 4.677342478226443889e-01 1.371922286141621650e-01 -9.880836559004180231e-04 -5.022887887226189507e-01 4.488556187037119338e-01 8.697261459047727072e-01 2.566642125399937746e-01 4.478712700736146579e-01
2.035688043507129508e-01 -5.725832475374240116e-03 -3.620423360370740307e-01 -9.757635911317134869e-02 -3.335069584275195953e-01 2.595878576777155833e-01 1.295946455213316251e-01 -4.623207506731196181e-01 -1.760919774483580280e-01 -6.611639840197413021e-01 -6.659471054536102164e-02 -4.524989120470194748e-01 1.580175895040951684e-01 6.580763356154803456e-03 -3.249864712821426416e-01 -1.743174039732470204e-01 3.512031621850073559e-01 3.597551630149868340e-01 9.640929401609410476e-02 -1.310158216652441976e-01
1.387601485898237730e-01 2.640426375436870365e-02 -2.942521390966664208e-01 -1.032758619787774168e-01 -2.258452922416313846e-01 5.577824625069716102e-02 3.071937288122338350e-01 -5.057017521063415094e-03 1.599435007932029432e-02 -8.951502414504022842e-02 -8.709518197826092434e-02 -3.933015319732525716e-01 2.028986055972990532e-01 9.816383082443788655e-02 -2.888939764638052132e-01 6.665308397759880932e-02 1.849086203305464193e-01 -1.172148184729609743e-01 -5.309528574432238746e-02 -7.363602728760192395e-01
-7.342416357344776212e-02 1.200761826420978368e-01 1.195235856698307064e-01 2.382496182036103125e-02 2.438080962402742469e-01 -1.449487743886958557e-01 3.680272768117500704e-01 2.167600742425239424e-01 4.569520973741866138e-02 1.398183245378915029e-01 -2.721896852318032023e-01 -3.719308723746386769e-01 4.917297498976626047e-01 1.889694061517940837e-01 6.460914451190968855e-02 1.000172661614798231e-03 1.895273202688791403e-01 -7.327790528641658918e-03 -1.319253057603216039e-02 -6.637279846980725928e-01
5.807179107441717142e-02 1.230934925379559564e-01 3.012919716889062016e-02 2.855502503457546873e-02 5.514370209282807439e-02 -1.845734638511205630e-02 2.930062083110689941e-01 2.708909679972855422e-02 6.247626557328142538e-02 -4.194781579324856347e-02 7.469666637349176019e-02 -5.193164574981905535e-01 -1.249329633325784172e-01 -7.315611244614012021e-02 -6.895420057446599582e-01 -5.880261509880741616e-02 2.875255662570819215e-01 1.860979456141377275e-01 7.366734164990515477e-02 -4.201611627209789201e-01
3.202805491689500461e-02 1.376098667722676638e-01 -2.377655791196168350e-02 2.120372009939252428e-02 1.110405743186615030e-01 1.838124946341650190e-01 1.948340106257513415e-01 -3.478874989053976630e-01 -1.129180305858848432e-01 -5.112344847830189165e-01 -3.290761484343478482e-01 -3.197388423548047642e-01 6.285775732958133188e-01 2.325631265559536254e-01 2.218880908258855089e-01 3.273918404840930885e-02 2.301731344492148335e-01 -8.091440359949908512e-03 -3.255848576653877502e-02 -6.625935181098207005e-01
1.310839992034942281e-01 -1.660117643769587481e-02 -2.507110824470139554e-01 -1.038381656032371370e-01 -2.028294393953566366e-01 -1.020327986118349343e-02 2.837614117262870495e-01 -3.529521703154957224e-02 5.056880082782206492e-02 -1.315123757140217453e-01 -4.323639932992791035e-01 -3.041572618200729661e-01 7.292104263260976715e-01 2.693915717348256411e-01 3.269881019930820920e-01 -3.846144721082088158e-01 3.405111929304480145e-01 5.798516524981609521e-01 2.087919158293966571e-01 1.402174252705353785e-01
2.648213319788015885e-01 -1.755057457367310836e-02 -4.894661941441264541e-01 -1.531977088526665365e-01 -4.238229344617257532e-01 1.109728094596789116e-01 2.772360484169257844e-01 -1.501024841912890762e-01 -7.308660375124489961e-02 -3.023138212423086557e-01 -3.993415551548523679e-01 -2.732280092473675648e-01 7.504561318207225717e-01 2.482861848997303111e-01 3.429666941118143519e-01 5.389621663484969738e-02 1.292442105474315983e-01 -1.427449321861358478e-01 -3.132993470958381210e-02 -6.961279609836044102e-01
5.910082173021326962e-02 -1.392134930477584298e-02 -2.673566271777956249e-01 -9.502283057369673158e-02 -1.512388317773341040e-01 8.187480339402877783e-02 2.507921419772405902e-01 -1.419274758919334689e-01 -1.452647233972926416e-02 -2.327941978222720643e-01 6.561113959983705390e-02 -4.427140007383784659e-01 5.625087086481239673e-02 -1.095385055377599837e-02 -4.530382996051081079e-01 -1.643695742380729963e-01 3.154389990148254164e-01 3.562294656326551179e-01 8.888562961525925399e-02 -1.760654907405721226e-01
-2.552146246211616787e-01 1.993777349013725053e-01 2.972189993785039341e-01 1.420509844970836710e-01 5.103578306110593266e-01 7.372387636339409328e-03 2.119595363109388619e-01 -1.790460921091639734e-01 -1.069785482840469593e-01 -2.388415097208766991e-01 -1.102174400743198418e-01 -4.770842446009475046e-01 2.477453875702168018e-01 1.111156357564143937e-01 -2.318633962751039390e-01 -1.519059023087140359e-01 2.702627856728131439e-01 2.613974298835097798e-01 1.088825519268054598e-01 -2.435582949118643703e-01
1.943273980494680253e-01 -1.694452459784721865e-02 -3.046908030774344023e-01 2.130350128908004709e-02 -2.893961598937092039e-01 5.905678113119903344e-03 3.840769440675551039e-01 4.754852622011398328e-02 -3.722087073800810220e-02 -4.935556532368463173e-02 -4.373857431074520408e-01 -4.445431167038075837e-01 6.155198610671572812e-01 2.588580316119362679e-01 2.762897075301634642e-01 -3.683625796215311277e-01 3.248099206744262668e-01 5.143003563937986744e-01 2.030944481245530453e-01 1.572927893894887630e-02
-9.961673378731526751e-02 2.202198410404275497e-01 2.557753593321085983e-01 2.132087086486912086e-01 4.271045353184084181e-01 -8.453548739019170477e-02 3.093867963563747825e-01 9.166923114806033168e-02 -5.306212342567965395e-02 7.957300898220062702e-02 -4.663854896895541224e-01 -2.672228183592998962e-01 7.951843283334205648e-01 2.985545328630481166e-01 4.164968156054763559e-01 -1.977222314171058204e-01 4.322122135181936664e-01 5.378705508498129451e-01 2.651943497827095042e-01 -7.448935292431824173e-02
1.426787719436534985e-01 -4.742795118214380989e-02 -3.548510694773268082e-01 -1.329711958844723707e-01 -1.978213244073440957e-01 5.578708284667015238e-02 3.197131892291769084e-01 -3.718617542836653161e-02 -7.160206358773144042e-02 -2.086741268441441588e-01 -8.364967136474149578e-02 -4.674842666726239382e-01 2.001106554556621731e-01 1.426523468769590186e-01 -2.609503197910910122e-01 -1.727349239364560640e-01 2.791131538311332760e-01 1.668150137724784265e-01 2.122607861772983495e-02 -4.227388819745698245e-01
1.532521662587115474e-01 9.666719545697412264e-02 -1.424877488662680547e-01 -1.434509733327730130e-01 -1.732839405889275708e-01 2.995124172767850146e-01 2.045754632009916529e-01 -5.188085827163102515e-01 -6.630758505844275286e-02 -6.804290741952505606e-01 -6.264912330883719294e-02 -5.654798453136680170e-01 -5.709029527875791876e-02 -5.058414265321094228e-02 -6.233317226960581880e-01 -4.130721239592012317e-01 4.977781697871166422e-01 9.056142029681869543e-01 3.702092470706262461e-01 4.261152335896161159e-01
2.368425929021809595e-01 4.340891161022573941e-02 -2.384373929772146128e-01 1.183541523028935200e-02 -2.855799245022492827e-01 1.164638140263847682e-01 2.376592039123789912e-01 -3.640764381019226947e-01 -1.208292215425728067e-01 -5.505247742399070887e-01 3.425452879064058154e-01 -5.153421351872421452e-01 -5.241461449283919549e-01 -2.200310168115592324e-01 -1.116226982993905104e+00 -3.329677244313593576e-01 2.524805761816825145e-01 5.128637916247142936e-01 2.107299629089779136e-01 4.709515103648642675e-03
2.211022271200512868e-01 1.392879421439868204e-01 -2.756167983768771923e-01 -1.120900259483501582e-01 -1.435646458257390234e-01 -1.146459752802874432e-01 3.081376921090931420e-01 2.103298904464279140e-01 5.310213901235619205e-02 5.485005689207153590e-02 -6.728022521068006967e-02 -4.103834033230160938e-01 1.234136304399170991e-01 2.419394758072994367e-02 -2.780565840761293206e-01 -5.505752189410056952e-01 4.000504248207572555e-01 9.270120212130938953e-01 3.236654945980797504e-01 4.697633968277885042e-01
1.320408809127965877e-01 6.265305426082512508e-02 -2.040434961467065544e-01 -1.260783181183291746e-01 -1.492129408116109890e-01 -1.838825627099530124e-02 1.505166586392960026e-01 -8.333305510082045231e-02 5.151047234809789932e-02 -1.747750610505897084e-01 5.483480870121743012e-02 -4.932125284778327567e-01 -5.406932256341062670e-02 2.581386401397665897e-02 -5.773815980428668171e-01 -1.503022840239263691e-01 3.195688891237689067e-01 3.569235364570825242e-01 1.039151253386013801e-01 -1.476334136512932049e-01
2.558094944224178491e-01 -6.042131720908477943e-02 -4.394377412053899201e-01 -9.200333735600751961e-02 -4.317769824568205017e-01 -6.815358242317683807e-03 3.470564613304404356e-01 7.821950654407973380e-02 2.451267591515358946e-02 -3.151034153175479025e-02 2.415097289015630255e-02 -4.757019342863973432e-01 -2.347991065331045402e-02 -2.493938201326970083e-03 -4.915417729084289866e-01 -3.906788335625700492e-01 3.942948808352803036e-01 7.068851744669368831e-01 2.840123603787940709e-01 2.296625847121633868e-01
7.253912638790868672e-02 9.830728179326654603e-02 -1.664802045866494232e-02 4.253960814328777360e-03 7.983518862854362130e-02 -1.440270457664492576e-01 4.087250662299194981e-01 2.527152839271814000e-01 9.595986820908494752e-02 2.159578021296117145e-01 -2.266787088095076064e-01 -3.922671655715277428e-01 3.491288303361014811e-01 1.507924814519470691e-01 -2.857091807823688989e-02 5.735855762236935496e-02 2.000484639535957399e-01 -6.470729590783902418e-02 -3.086129351517266639e-02 -6.807362683609030629e-01
6.392086356890487597e-02 7.806756687039467790e-02 -8.081485010019281989e-02 -2.516100696590221897e-02 6.618104944005581691e-03 -2.178413499440296289e-02 3.148792408293080158e-01 2.419020113721542103e-02 2.638124806461714100e-02 -7.267621283054968850e-02 -1.935991484806330598e-02 -5.159692595060775266e-01 -2.989414209926544164e-03 4.671667997761932978e-03 -5.331803741583047707e-01 -2.082440865667913310e-01 3.305715076972573496e-01 4.216040546733194061e-01 1.738446814576476707e-01 -7.667389288960502203e-02
1.051137847539860559e-01 2.127665619708229983e-02 -2.492506515116222343e-01 -8.691668374117542117e-02 -1.557610584006030585e-01 -7.019110647846245332e-02 2.113974681759722141e-01 -3.055641166072022713e-02 -2.004124622122906846e-02 -9.598694130206339437e-02 -2.485665418902455182e-01 -3.282478860161163192e-01 4.986224565284879118e-01 1.699132914382862625e-01 4.517051442182840049e-02 4.458325768760323937e-02 2.035702380271666723e-01 -5.058179437762047592e-02 -4.684524202161352568e-02 -6.493491580774024552e-01
6.216312890421842041e-02 7.691527409173164187e-02 -9.842259023884596114e-02 1.376858883586093776e-02 3.229127215208377200e-04 -5.936573671757100490e-02 3.268571343842276433e-01 1.029168514272100488e-01 3.885506005561117915e-02 3.379638851581270864e-02 -1.903953352672506649e-01 -4.053602360889180800e-01 3.255007388068816843e-01 1.082198144061446571e-01 -1.089203955842858312e-01 -7.405389580011906281e-02 1.991210274254742729e-01 1.949201349873175282e-02 3.071891534610019653e-02 -5.403716919523412487e-01
2.455777020922076392e-01 -3.222146713446624733e-02 -4.672034548094438633e-01 -1.314419498317496993e-01 -4.360245398781523174e-01 -2.215032928715381100e-01 3.977570065779296726e-01 3.314879902714528703e-01 9.245206455248108912e-02 3.078742470240691809e-01 -2.310438574083856222e-01 -4.101694948613885394e-01 3.651966310758960610e-01 9.008246310463680073e-02 -4.816400204136933594e-02 1.003450277968839233e-01 1.743411849483860743e-01 -3.615635705255457188e-02 -1.127360519220982349e-02 -6.976812539657133438e-01
3.516382155414043420e-01 -1.335702103029469956e-01 -6.872517457156398502e-01 -2.368201280710741652e-01 -7.138200634024910451e-01 1.673919204246326342e-01 1.731523370834571196e-01 -3.542665539022172849e-01 -1.625752799686427663e-01 -5.033513482459387456e-01 8.170564988770653847e-02 -5.031457408631471173e-01 -8.258750005636289471e-02 -4.985834926783642984e-02 -6.333764491635889282e-01 1.890582513308434187e-01 1.034753085148829577e-01 -3.854656517903599644e-01 -1.110403166481441217e-01 -9.963903219514376186e-01
4.307130001394807173e-01 -1.497056577888848106e-01 -8.128815284799946195e-01 -2.825319832656721375e-01 -8.566925837713192937e-01 -2.343516275733342480e-01 3.956575378089775552e-01 4.053665614999603650e-01 1.492718001746202172e-01 4.080264498824079933e-01 -8.060719153992784713e-03 -4.662168171619598955e-01 4.867829167687712233e-02 7.385210097529473772e-03 -4.566957276510645314e-01 -3.198695372851839691e-02 1.815022293025017330e-01 5.315486099035260370e-02 2.447685477424489664e-02 -5.447134716407291410e-01
3.179982366857508902e-02 1.150032535890622432e-01 -5.111824003337443745e-02 -1.662444047100133937e-02 1.379671339286046156e-02 -2.365933032262541869e-01 3.468689859443236934e-01 3.588251525664065134e-01 1.377801451434450819e-01 3.526232137147646273e-01 -1.027371178286999864e-01 -4.572914700660218879e-01 1.576924255652452644e-01 3.856045981234865888e-02 -3.170744576548450988e-01 -9.294253732458231110e-02 3.150973059461231740e-01 3.020756703104213736e-01 1.309219900460579789e-01 -2.857969984286931053e-01
6.874247065981528571e-02 8.508088034131594535e-02 -8.438278099363177853e-02 -3.726253545527759281e-02 -5.324472862009921315e-02 1.987853124259899296e-01 1.687246656560910385e-01 -3.909075359876996170e-01 -1.747659175876512261e-01 -5.585439489697832105e-01 -3.659935806433105565e-01 -2.837398442074444693e-01 6.573982600054586456e-01 2.666658764362242473e-01 2.616650636432213961e-01 -5.107507883430519868e-01 5.095434605486448554e-01 1.015511344978287767e+00 3.592112347286129381e-01 5.647307114320778698e-01
-2.788102945780339126e-01 3.129250345077368989e-01 5.614881928974755354e-01 2.174622738999932303e-01 7.722155286602928603e-01 -1.669503978448883541e-01 3.712173816751214717e-01 2.528325415142237964e-01 1.020683737501204558e-01 2.539989670746374273e-01 -5.356234641240131822e-03 -4.754174209119090277e-01 6.161435855607658163e-02 4.510868482989792427e-02 -4.442669387788051871e-01 -1.467895057240791168e-01 2.415239144003823724e-01 2.738651892901494689e-01 9.460379076988389979e-02 -2.632407590475414616e-01
3.459410770398579915e-02 1.258575524661041389e-01 5.797028790747767862e-02 4.236253784243652898e-02 1.603820371223841357e-01 2.637257178610582509e-01 1.780912898130661837e-01 -4.410968040497210696e-01 -1.710620743724640125e-01 -6.446611056175770571e-01 -1.269621990931266708e-01 -3.407074969860533487e-01 3.285952829260080921e-01 1.158204878982727060e-01 -9.423213304303799942e-02 2.185484927564289859e-01 1.020365978588878841e-01 -3.086174286407424860e-01 -1.024736961127531293e-01 -1.008847165049971739e+00
-2.450274948828556898e-01 2.451902887976953882e-01 4.862222913723700524e-01 1.537349476319492814e-01 6.731255098350312771e-01 -1.477440661790300203e-01 3.757949178276185354e-01 2.793170322692849483e-01 1.059509846927534776e-01 1.635547000202905721e-01 7.020385010733845577e-02 -6.158707496724442620e-01 -1.027033916257812374e-01 -5.292401559198600669e-02 -7.104526914063712395e-01 5.771980417878191938e-02 8.272708462269898200e-02 -2.554350003950561776e-01 -7.414564244502776236e-02 -8.135928488335290032e-01
-2.529530952491608753e-01 1.994355141488000360e-01 3.801430744486791191e-01 1.940703104515667243e-01 5.827392963017631322e-01 -6.473079939653569870e-03 2.839246538197361391e-01 -3.224869610460379815e-02 9.002768332672928669e-03 -1.370512927974201767e-01 -2.147436819717516154e-01 -3.562671076137146065e-01 4.534446145042569931e-01 1.407620779386757337e-01 -2.307023155997706132e-03 -1.250418781088413755e-01 2.672193102715965107e-01 2.185438975694164176e-01 3.534399463155525611e-02 -3.885245586821265973e-01
3.857351347757505544e-01 -6.696373944305299142e-02 -6.133873577436672608e-01 -2.196858015822076293e-01 -6.631842896970873147e-01 -3.968989095641203280e-01 5.018966861018157033e-01 7.143983613350296524e-01 2.459459198810948766e-01 7.094325487187536083e-01 -1.406613710986254207e-01 -4.026163155152958639e-01 2.071186263200340549e-01 5.961603426530944633e-02 -2.353473134614673112e-01 2.134083910817519136e-02 2.436166004158573373e-01 3.022488623615060543e-02 -1.261617330418983440e-02 -5.606309893132397359e-01
2.356393258686332315e-01 2.337034157885155283e-02 -3.818664803693052612e-01 -1.447191479600737352e-01 -3.158070197769723975e-01 4.095490418134615368e-02 2.719718159412554126e-01 -1.680824789795232477e-01 -8.311040631481685093e-02 -2.947833981623834143e-01 -3.153298472085280801e-01 -3.267388409221321233e-01 6.164430426871169155e-01 2.051116851740077962e-01 1.586947519029486275e-01 -1.751668192544358349e-01 4.312411053941775374e-01 4.613492729559239836e-01 1.386286406920712311e-01 -7.683419234670674225e-02
4.121586892056187945e-02 9.730594394249907075e-02 -7.357568575143809408e-03 4.583709152978958368e-02 7.139091871309144466e-02 -4.798932858336678320e-02 2.275318567435467842e-01 -7.087817457045317987e-03 1.492522492664169823e-02 -1.056888918860556248e-01 -3.430561036636479155e-01 -2.928872218858835641e-01 7.305838299358660137e-01 3.016989586599260198e-01 3.027443364132084147e-01 -5.211990950828140345e-01 4.448218473213417790e-01 8.551613667105664174e-01 3.413577765182731483e-01 4.996862021062271619e-01
-4.188668747331961151e-01 2.448658195234859614e-01 6.815149418371762025e-01 2.822814593383132231e-01 8.784335914398945233e-01 -8.992497383691552826e-02 3.386350959643679714e-01 9.778622478123050188e-02 -8.539857936087375673e-03 2.502178005277787276e-02 8.516589748481795397e-03 -4.869167686479835000e-01 1.373357828714234785e-01 3.474443104272176286e-02 -4.349968940358979186e-01 -3.429179937649275978e-01 3.822159608823192389e-01 6.098598207241365809e-01 2.756020941855216733e-01 1.982732589273301094e-01
-5.920377707903348025e-02 1.377246963193308193e-01 1.651394628061430558e-01 6.635108376147486053e-02 2.367317727139424122e-01 6.182237133422181785e-02 3.241135303106540411e-01 5.326405417210008930e-03 -2.589868708138010067e-02 -9.442884295837883357e-02 8.842390220056678407e-02 -5.173955826782958844e-01 -1.302195124453843778e-01 -5.248781912477357148e-02 -7.016868834979965719e-01 1.207613343943469697e-01 1.668894694120839906e-01 -1.540272804731005751e-01 -5.902733112739393107e-02 -7.737647233677937830e-01
2.168290076549155704e-02 1.655849241791889637e-01 6.781664643511015056e-02 6.255126055364219895e-03 1.689396346466977283e-01 -2.202789650887816003e-02 2.874055819930524391e-01 1.165826032688057484e-02 -1.425666062738004114e-02 -6.959493355713547436e-02 4.986474630421988685e-02 -5.328961687775364275e-01 -1.219740837222442753e-01 -1.808262862457896136e-02 -6.360549204712292459e-01 -2.375660829591488277e-01 2.901305593008269845e-01 4.175327051873215511e-01 1.113154730908339635e-01 -9.380795767239324956e-02
1.761853433284389925e-01 2.524095432109882409e-02 -3.558802079186501599e-01 -1.179804794775071997e-01 -2.844947527895030914e-01 -3.944992164945087532e-01 5.238126956386326416e-01 7.128119264983846515e-01 2.422411648561455522e-01 7.577648034706465641e-01 -3.537616717347728534e-01 -2.546066118090406505e-01 6.922243261734495334e-01 2.600058382825085057e-01 2.483907960395359826e-01 -4.137652967216448041e-01 3.685925822070792446e-01 7.110621499131287715e-01 2.237247968454112446e-01 2.481526643302796042e-01
1.070423893710186480e-01 7.632667217782150570e-02 -9.796635997366379134e-02 -2.946631747054311370e-02 -9.189424253809468091e-03 1.228153794446277258e-01 3.342176892807077748e-01 -1.576274394151676861e-01 -5.392861148659603560e-02 -2.348225948871813518e-01 -3.940304305808665641e-01 -3.262893384077052428e-01 7.480606697625433732e-01 2.573646515061148721e-01 3.253261158671862940e-01 -3.295547876654841835e-03 7.165012814301285893e-02 -1.800362874908776889e-01 -8.148030654377035054e-02 -7.845276909157794520e-01
-3.060124255763344014e-02 1.558833144185012842e-01 1.383012374234698916e-01 6.586762704470908170e-02 2.280861725815433450e-01 -2.501641299534687057e-01 3.568151248185382207e-01 3.873501657492967043e-01 1.760415565720709064e-01 3.483578059592188358e-01 -1.726040683806257525e-01 -4.602385605639364163e-01 1.126250636557223628e-01 6.692728771999843784e-02 -3.201090379552353760e-01 -4.499207034051261878e-01 3.406611442701723558e-01 7.530025846064940520e-01 2.477809069392655772e-01 2.852978391227735111e-01
-1.453820796304218510e-03 1.523995492505865190e-01 -1.001594198823106685e-02 -6.032513770489078553e-02 2.928273451547038983e-02 2.915747063672282507e-02 2.271255524498948519e-01 -1.081194011172397496e-01 -3.214981795857801972e-02 -2.363347938189813702e-01 -2.692526096030246618e-01 -3.759186037891123489e-01 4.562329074732146550e-01 1.714487128668831240e-01 5.401578566090176059e-02 1.117989209763605440e-01 1.374370174085199070e-01 -1.857941464160207667e-01 -4.648096883767867393e-02 -8.321821553371677727e-01
1.437362252616088965e-01 3.504164908095980940e-02 -2.737513241814810150e-01 -1.409687697395734240e-01 -2.229500163815934244e-01 1.340409279189914982e-01 2.568608224414254959e-01 -1.993751863189465179e-01 -6.768086703398407122e-02 -3.912397807880214629e-01 -2.839248421999709393e-01 -3.626790939741287856e-01 5.002374285057407111e-01 1.451361123995393299e-01 9.261473865382927051e-02 -2.666518482404737211e-01 4.112131828745620998e-01 5.514014388449577364e-01 1.719739649042306140e-01 5.550841592525163071e-02
-1.242944441807295741e-01 2.220126867663939629e-01 2.391750834947942717e-01 6.230345034812030669e-02 4.045186000700432549e-01 -1.455227365578800613e-01 3.118648724466273614e-01 1.719714693847900766e-01 4.287473790470572310e-02 1.482602979584826675e-01 -5.648541677813483097e-02 -4.014469408259865313e-01 1.822609169962863540e-01 3.846438391660367273e-02 -3.344658606972154002e-01 -3.409553898673408634e-01 3.478057891160920012e-01 5.603247252677012735e-01 2.076270099492071863e-01 9.758627552031190477e-02
1.391640266378599833e-01 9.274160812597244397e-02 -8.833446868850619582e-02 -3.656612812475229513e-02 -3.810923843494004593e-02 1.277674575120886329e-02 2.686234070063973078e-01 1.645822302177007979e-02 6.018153555513235109e-02 -1.166518802254643689e-01 5.870340807951079931e-02 -5.160283524456173998e-01 -8.844155077336890436e-02 -8.326090018914655833e-02 -5.852711734946143274e-01 -2.287854955430137227e-01 2.783541597678459434e-01 3.410511306505473739e-01 1.929978185918435618e-01 -2.448575506256494283e-01
3.597136954966972944e-02 1.473070863847999457e-01 -1.652575171684398173e-02 3.295809452950060336e-02 8.898816770806368404e-02 -1.645063208580269803e-03 3.495239606284674116e-01 3.559647020997579181e-02 -2.300494081047809239e-02 -6.362067630309936606e-02 -3.015222339974892307e-01 -3.956927451877015334e-01 4.249955398865431500e-01 1.363650000369467929e-01 4.999105021499786194e-02 -5.024624603778624077e-02 3.810326969591938395e-01 1.691958493814222364e-01 -5.491449330651348992e-03 -4.216419653844237780e-01
-3.261023854896157037e-02 1.192317845153495481e-01 1.664427809560851679e-01 1.434036407041963668e-01 2.427728758927718278e-01 1.847323457184414999e-02 1.542448520241307408e-01 -2.064856781936997843e-01 -1.746290386060834685e-02 -3.018397295180431095e-01 6.101248027680664099e-02 -6.198772093746512946e-01 -3.614885885612393879e-01 -1.511983633651746706e-01 -7.823259620554288141e-01 -1.697498901179895769e-01 2.992654111032772568e-01 2.984693508314411603e-01 5.721707164314925043e-02 -2.489537504531075807e-01
-8.317034330101595596e-02 1.570188220095722342e-01 2.370651577801341225e-01 1.398708022055127620e-01 3.178597951988146320e-01 -1.427288029489705568e-01 3.321702757085565616e-01 6.187081279054419680e-02 6.864485795668008594e-02 3.129601287020594702e-02 1.155210880653206873e-02 -4.574968190815530966e-01 1.077089465623644882e-01 -7.467845705462480832e-03 -3.885408975427976919e-01 -1.344624782661612006e-01 2.401292622755928086e-01 2.849826526722565867e-01 1.766601436612707521e-01 -2.429703188228742594e-01
1.850468871182823355e-02 1.667919735761630995e-01 9.079316035662716999e-02 7.886421831624608469e-02 1.581812906427236820e-01 -3.717467763994154739e-02 2.713275809373766334e-01 2.357204708247614966e-03 6.558387235820495320e-02 -6.111641154424921757e-02 -1.100240136612177927e-01 -4.988403478665637270e-01 1.071787319850559250e-01 -1.534081196547881776e-03 -4.025927423732440502e-01 -2.555192249057293419e-02 2.296319712087204479e-01 1.283291338838480344e-01 8.720633573824754237e-02 -4.622304940758658054e-01
8.428722621148926342e-02 1.234645808553961888e-01 -3.077032805177771016e-02 -4.076419481822687874e-02 1.750067323275829659e-02 5.972945336832165969e-02 1.660112978617540591e-01 -1.677727244143510099e-01 -3.526197560004150355e-02 -3.261379195926896180e-01 -2.428078932249254640e-01 -3.032567957498174538e-01 5.126528550554212416e-01 1.953031694540180163e-01 5.601313648523961741e-02 1.503081802648867926e-01 1.250088667748719407e-01 -2.005692769193141156e-01 -8.207274698283630043e-02 -8.934850059174451742e-01
2.184396671531294021e-01 6.137324922050188536e-02 -2.768880702488785706e-01 -8.100236424685430814e-02 -2.284638456881551427e-01 -9.777851632420926642e-02 2.142890816137650867e-01 2.177492696362286900e-02 -5.165713750365436008e-02 5.409393569448944783e-04 -1.901531130916601642e-01 -5.275615875880653727e-01 2.164139962457566069e-01 9.081490153211246863e-02 -2.356187763796332435e-01 9.243164777538864785e-03 2.366055732887774044e-01 8.710393083730588737e-03 3.592163892707653239e-03 -6.330412692642333194e-01
1.842693725978526709e-03 1.435376963405135542e-01 -4.000612097863768396e-02 1.631446431763180702e-02 8.325263682950390098e-02 -1.573742819737304344e-01 2.835490184860323115e-01 1.437893006301562415e-01 1.596592117529437027e-02 1.004139946613864659e-01 -7.992489706219650658e-02 -4.258556205884868051e-01 1.508930315956704127e-01 1.212499129542239651e-02 -3.677373720476830865e-01 -2.371406889273101060e-01 3.411773114201377965e-01 4.663870753036167827e-01 2.012388321471704211e-01 -6.855092340855600819e-02
1.177048168179629928e-01 7.735680925330619406e-02 -1.371735454593523140e-01 -8.737945412958933455e-02 -1.101132787902334431e-01 -3.799801631542229496e-02 3.762478745227999521e-01 1.896615880113222130e-01 3.128285564072756653e-02 7.934910612907247751e-02 -2.580633793479987226e-01 -4.275248550840818895e-01 3.338636171504751893e-01 1.556628499169254165e-01 -1.296787015308636382e-01 -1.236624351123080945e-01 1.680296724941500452e-01 1.650802053280767678e-01 9.392408168743496266e-02 -3.997063930319472158e-01
2.093163688534663280e-01 -3.488215726394322536e-02 -3.466086975576619933e-01 -1.053814208522894091e-01 -3.058342978572198279e-01 -6.915300711863442418e-02 3.686841359545633412e-01 1.799540559068958379e-01 6.421499598632994521e-02 8.420015531085117688e-02 -2.092927721553601295e-01 -3.833790575456141880e-01 3.926084347547786346e-01 9.619014487007902792e-02 -4.836377227027169323e-02 -1.783642170576393848e-01 2.926460435423607898e-01 3.708094849301541429e-01 9.849892057974952986e-02 -1.811473523915353712e-01
2.298277994972220892e-02 9.661299505278411748e-02 -4.325717805225347268e-02 -1.538732711490953600e-02 5.453316119108019000e-02 -8.530743136750452982e-02 3.762920592432218436e-01 1.468345367503157972e-01 7.223769214015393625e-02 7.275409810097577257e-02 -2.416648951669047030e-01 -3.683198406236858902e-01 4.731806626308317498e-01 1.613763228826829710e-01 2.219112944962037259e-02 -6.910177857112934086e-02 2.505700944366593963e-01 1.956867252703929638e-01 6.363340219275660792e-02 -3.842057204875934384e-01
7.035645011107478919e-02 7.216831623578671973e-02 -2.079464757582548673e-01 -7.783473288577635874e-02 -1.083041320990790202e-01 5.270599992329290384e-02 2.638334928187310857e-01 -1.737486899815579022e-01 -1.102395227371692765e-01 -2.686076950121059070e-01 -4.117995466992972753e-02 -5.040289067038277171e-01 1.174943356394533844e-02 5.333532327447126908e-03 -4.156889826586719350e-01 2.570838203461156546e-05 1.681887324760212854e-01 -2.260292036509836677e-02 2.821920150301045205e-02 -6.363435676060228419e-01
1.598191068057444042e-01 3.043659234989776891e-02 -2.421268050122493409e-01 -1.221803116763758995e-01 -1.829369540294975005e-01 -1.620415813084575413e-02 2.871763867474270149e-01 6.768912458206201299e-02 7.379117954506386745e-02 -7.153035080073293084e-02 -1.855757078131614890e-01 -3.512043427231800186e-01 3.414225841956581853e-01 8.552338153836364087e-02 -8.671291102270452245e-02 -3.010582577683834637e-02 1.571050519898833098e-01 3.403927762100208976e-02 -4.294197903433469299e-02 -5.663125731155335130e-01
-5.810039489715805583e-03 1.287169967689703598e-01 1.047643063955645826e-02 -5.971177948961461923e-02 9.869242963597327223e-02 8.503325265012157130e-02 2.668695033953999429e-01 -9.076794171017839308e-02 -4.566784255919378865e-02 -2.236961224202895782e-01 1.725737509525387958e-02 -5.077605340380074717e-01 -7.947034351577608735e-02 3.636975078595561239e-05 -6.353048943832491080e-01 -9.250947197005274236e-02 2.317455010087491885e-01 1.600341936392495334e-01 5.654399128654732931e-02 -4.090105698703525583e-01
-7.580461590059349442e-02 1.788599944876522740e-01 1.704521539772843042e-01 7.678895474886235362e-02 3.192998090777715570e-01 -3.106738595636704958e-01 4.249277058853469513e-01 5.053372610695203715e-01 2.460900706988692899e-01 5.066590410227030938e-01 -1.265836552277911642e-01 -3.714330218733533640e-01 3.163866129283339768e-01 1.006678893549138448e-01 -1.494547822794558833e-01 -2.569868461610521626e-01 3.010659491204333849e-01 4.615209178922338173e-01 1.946824097387953034e-01 -1.469136013858531320e-01
-1.190725985257061470e-02 1.349486174155977158e-01 5.089328449032703289e-02 2.319043687249891170e-02 1.634001241537945126e-01 -1.448072916502786966e-01 3.574616822141604144e-01 2.107458588629086971e-01 6.748331989058353741e-02 1.144066399336888806e-01 -5.932602517414503618e-02 -4.923503017460033049e-01 2.057735296485154186e-01 1.283926825385636739e-01 -3.675576859231766136e-01 -2.855883580510137909e-01 2.594105644884859840e-01 4.542139365679191965e-01 1.709779587092052078e-01 1.634437188930998319e-02
9.197735237757143079e-02 1.002669047439747607e-01 -9.522158570011665657e-02 -2.321612781998740396e-02 -3.851093679125491831e-02 -9.503236301205972292e-02 3.064291115006337884e-01 8.762171464014635591e-02 1.489753935887318248e-02 2.850832356671002821e-02 -1.403003513046286177e-01 -3.846364218552138503e-01 3.999108487416244695e-01 1.347851996853779710e-01 -8.435081096908736420e-02 -9.028065982410549140e-02 2.234478799829023588e-01 1.832238887484531897e-01 1.166317389862508713e-01 -4.014420951022547590e-01
-6.610563840940501812e-02 2.299718473821377451e-01 2.362143943354221287e-01 5.601538125463939588e-02 3.254917538372913421e-01 8.812151187757379794e-03 3.486181569021775117e-01 -2.686562403883942934e-02 -2.996589516371690742e-02 -8.563453632357380385e-02 -1.780792572235915805e-01 -4.055563977356430594e-01 3.175434548300225535e-01 1.408749386198098474e-01 -1.372244567686403405e-01 -5.885849601507550655e-03 2.367365854071533104e-01 1.335900200680322780e-01 1.116325716247557193e-01 -4.891621526875347126e-01
-1.378741115843337139e-01 1.154062336553589169e-01 2.393916102437713134e-01 8.072968623269378974e-02 3.473847063486468767e-01 1.752008760424023370e-01 2.656886671920625775e-01 -1.375011011040805364e-01 -1.895556719771413628e-02 -2.795328347820560388e-01 -3.568326742093272386e-02 -3.491518998628675985e-01 2.346437976558897187e-01 3.109598473789110251e-02 -2.570391120079621450e-01 -3.919480126930331432e-01 3.422049510778260029e-01 5.892940879732320170e-01 2.002664917163620717e-01 1.944796084753701026e-01
1.700454937667361111e-01 8.337516072479975171e-02 -2.236491493275176712e-01 -6.948978024781238272e-02 -1.872681423970308234e-01 -1.740843789225637595e-01 3.317815527988001167e-01 2.888636276144705417e-01 9.141257401732941212e-02 1.621687521413139876e-01 -1.415148996685625382e-01 -4.964324469491459002e-01 1.819713546594793896e-01 5.857695999771295181e-02 -2.861812911081979549e-01 -3.207336374728771977e-01 3.553880938772477349e-01 6.289528620213720167e-01 1.983012557578410773e-01 1.054288162642892934e-01
8.558648651173494937e-02 8.517609653113099311e-02 -2.197529657606313302e-01 -9.491103973183519227e-02 -5.946102679505749916e-02 -2.768005452458929261e-01 4.670080024243283279e-01 6.587386586650820774e-01 1.656095142323654179e-01 5.836306192123082992e-01 -2.572862385379542927e-01 -4.213745458888794038e-01 4.687075571917116990e-01 1.872269486504684888e-01 -4.439777817690229722e-02 -1.148566372388482026e-01 1.507618171464152057e-01 1.997741133944212211e-01 9.516668105872386207e-02 -4.611506532064802988e-01
-8.364567024042249277e-02 8.553889904237212127e-02 1.232065816638810152e-01 5.447406625039376976e-02 2.198649092036059072e-01 1.226431229623196062e-01 2.457709045272811754e-01 -1.566067306292201755e-01 -1.297877274148460658e-01 -2.871980695575960807e-01 -2.516781963927575694e-01 -3.865240515949008859e-01 5.629635014536900073e-01 1.787083962234741197e-01 2.230213298358278695e-01 -3.594033572209164029e-02 2.117335855506909392e-01 6.321636918568407371e-04 4.331787481487365393e-02 -6.090622934201128658e-01
1.861986776135718946e-01 3.409907055638481538e-02 -3.672357879573653339e-01 -9.417618734600177732e-02 -2.505455986250053058e-01 -7.552763197681722218e-02 2.663522101573415624e-01 4.011053784553325618e-02 -3.867244106138213733e-02 1.354132254293580195e-03 2.898407014898249368e-02 -5.811466850553169694e-01 -1.000646069599627763e-01 -5.911918866369372805e-02 -6.667313403182492104e-01 -1.543439192448227137e-01 3.518174231352081960e-01 1.940776643874442264e-01 4.245698557872277373e-02 -2.868250627890027715e-01
-1.561236961925908107e-01 1.978142712506746337e-01 2.630029137551811447e-01 1.334020612741861067e-01 4.335479044593664733e-01 -9.359423680517697797e-02 3.785446503889804970e-01 2.113627694839329552e-01 1.037687997506650806e-01 9.784191392712010549e-02 -3.351644599694471038e-01 -3.321690190208334004e-01 6.490814905218742492e-01 2.369137867427761057e-01 2.595479355855658810e-01 -6.786119338187131256e-02 2.606351830998083763e-01 1.894925916109811703e-01 3.417887618056920929e-02 -3.502891533845957084e-01
-1.667404266696012882e-01 9.553126923178835439e-02 1.438571607061773783e-01 4.732810790956028246e-02 3.206059638213504259e-01 -3.924720960649044632e-02 3.070289860780834323e-01 -4.882874223109195250e-02 -7.672572104198885357e-02 -9.959575576531752572e-02 -1.001857517334484582e-01 -4.839473286284666220e-01 1.542381350935319029e-01 8.076627040165847149e-02 -3.751141953501841986e-01 -1.230687508022498683e-01 1.891649323592652920e-01 1.932755369425288583e-01 1.098369350720053983e-01 -3.871577687847264082e-01
3.661544085790191527e-01 -1.041007493064628753e-02 -4.412827672310086213e-01 -2.125815751335336234e-01 -5.253655703693327350e-01 -5.807027158592287935e-03 3.710216428455394011e-01 1.910056294167906954e-01 7.242019376424313482e-02 7.073003897802569717e-02 -5.179211389283620848e-02 -5.360549974268271622e-01 6.434609931455309573e-02 7.798946436589457298e-02 -4.683648502587972606e-01 -3.267602540805304712e-02 3.017055921286379006e-01 1.528923075095489081e-01 5.642953559934647118e-02 -4.043504778317824622e-01
-4.008089065798307871e-02 7.098801315369897280e-02 1.720725915693180341e-01 1.135858593061844224e-01 2.378596550183192659e-01 3.449716026652565604e-01 8.519402539884118886e-02 -6.182602746231433688e-01 -2.445115873623438796e-01 -9.062813823471824737e-01 -3.709540314640297209e-03 -5.163273924913944768e-01 -8.468373921500016444e-02 -6.788366311781036944e-02 -5.262335352560715274e-01 -2.565594656173318944e-01 2.848666871472085860e-01 5.350568155132349180e-01 2.183862921712885208e-01 -2.189752735182903809e-03
3.171885133990833272e-01 -1.547465736917167933e-01 -6.105019174678021354e-01 -2.114341837485141651e-01 -6.513487061800293798e-01 -6.318382729413168919e-02 3.176931601694626961e-01 7.764052597266259126e-02 8.922883726307426211e-02 2.556073289559539219e-02 -1.075746574939173278e-01 -4.576043749897972801e-01 3.031162165416128595e-01 1.910429153473208186e-01 -1.858682088640438157e-01 -3.108490230562805934e-01 4.499544592018714928e-01 5.697464488548191763e-01 1.547656804664209740e-01 4.339556360170643279e-02
1.482235316099118558e-02 1.631309002298786393e-01 1.196620545558797488e-01 1.001360712759697819e-01 2.154523616662954444e-01 -6.634080450427609632e-02 2.799808814319405537e-01 8.382778756099153183e-02 6.422869341381987063e-02 2.282126474682699691e-02 -4.231077249190428047e-01 -4.276867768558052507e-01 5.095220751271982706e-01 2.090931344719444140e-01 1.162885280324246762e-01 -1.369355854577920806e-01 3.164954818317046170e-01 4.003279924607189288e-01 1.323168359128258920e-01 -1.775026751905773581e-01
-5.830435530014016487e-02 8.771603819713884309e-02 1.261626625355245224e-01 2.018220845083745427e-02 2.109589598200939387e-01 -1.196519865934273508e-01 2.890178547758094352e-01 9.111034817886606851e-02 6.309695913169421910e-02 6.676372723832658951e-02 -2.094286101139884448e-01 -4.330974028159347289e-01 2.852042563960677235e-01 1.700076932015586739e-01 -1.170942378784805282e-01 -2.341121466178594235e-01 2.921722666623292053e-01 3.687182875165694318e-01 1.767621820688261292e-01 -1.849946085240022631e-01
-1.240375663187042871e-01 1.115030324563148906e-01 9.676172135049723733e-02 -6.811768211394621242e-02 2.694675309852634371e-01 2.574088424885548343e-02 2.929154885481560222e-01 -9.058332259299500810e-03 3.290422978870843895e-02 -1.013744544861065744e-01 -1.051855295520128936e-01 -4.483769472503875697e-01 1.766589219836312841e-01 6.438782491321201618e-02 -3.328910586238267300e-01 -2.389715885048054045e-01 2.413909951533940446e-01 3.817288438375335824e-01 1.364681441472614942e-01 -1.930676458704703169e-01
5.414510020645414701e-02 7.221789345557247386e-02 -2.037741402620784625e-01 -4.941588401062178837e-02 -7.955015484783548030e-02 -5.301672459719715402e-02 2.768420356662739668e-01 1.207098704959007757e-01 4.257106590827254566e-02 -9.876985359783832519e-03 -9.810784745029031695e-02 -5.376285677115288930e-01 3.947663344614965597e-02 1.994735416736093114e-02 -4.976436655553244659e-01 -1.654836626985189407e-01 4.088828860433978418e-01 5.197439662538397842e-01 1.609141405206553910e-01 2.075865381535979548e-03
-2.459020774480653176e-02 1.706076159447235674e-01 1.334977767426680506e-01 2.976086778187526233e-02 1.810219753564659417e-01 1.831489189273152046e-02 3.257081583455857521e-01 -6.060080492600813939e-02 -2.880663461532947250e-02 -2.012434495249585953e-01 -1.066863272781346655e-01 -4.392644451546505180e-01 1.715941382745932997e-01 9.550936276031879446e-02 -2.981772289142684551e-01 8.923449298538038699e-02 1.620976785103036277e-01 -8.408537139571706232e-02 4.738411018814218945e-02 -6.678480782216450473e-01
1.655592478308750559e-01 1.484140079118339006e-01 5.812699690961703469e-02 1.512885367266080250e-01 3.485279706271771777e-02 -7.758575874585615928e-03 1.551457181791637552e-01 -9.871832357216414611e-02 3.558141869634268151e-02 -1.888147142395052158e-01 2.504183265927142910e-02 -5.118473166767465443e-01 -6.342250787672398804e-02 -2.117925065157109932e-02 -5.541028983947811071e-01 -3.629199173149570967e-01 4.017810478388852413e-01 6.076493051758484754e-01 2.149319466725924666e-01 1.300929700385204391e-01
-2.914020224864632275e-02 9.846652756386085892e-02 -6.778074698176879409e-02 -1.103835102005484500e-02 6.759559034180677439e-02 -2.297962516508294528e-01 4.627621653443486638e-01 4.043109856723283713e-01 1.797080589324364930e-01 3.541706242839449681e-01 -1.499832459282712249e-01 -3.440472129402679657e-01 3.058875057596095459e-01 1.563783515232087251e-01 -1.213101557553334653e-01 -2.070211464111881561e-01 2.272820420883597536e-01 3.069350547188571809e-01 1.312712994030201530e-01 -2.368966646266320308e-01
-1.612394214735682618e-01 1.825259378053275539e-01 2.420064613114659147e-01 8.236519330030560304e-02 4.137868935228951051e-01 -1.283959704901980192e-01 3.876768987542678624e-01 2.160379254628936874e-01 9.588774793592727552e-02 2.040236032281218526e-01 -3.628049997935096638e-01 -3.055028813261096987e-01 6.268796257115933912e-01 2.595952161372867550e-01 2.153868445096202011e-01 -8.883662038390538473e-02 2.812100087124511649e-01 2.565305537422429283e-01 1.278136048992636609e-01 -3.068010815666755153e-01
1.155506685225197727e-01 -1.197966150848535360e-02 -3.354220340459726502e-01 -1.169577610068581464e-01 -2.241408752466157173e-01 4.820761932765914304e-02 3.078356926942514837e-01 -3.987346892303171575e-02 -6.596855712479733624e-03 -1.706136516614942811e-01 -3.872882065269842577e-01 -3.599131060519313863e-01 6.316622970098075829e-01 2.844514822289166966e-01 2.592405617395338036e-01 8.536808288511560372e-02 1.972963479587422908e-01 -1.526062749279464559e-01 -1.012743170588480540e-01 -7.570067535411577619e-01
9.568609444560691180e-02 8.340694842799625808e-02 -9.020587740609450900e-02 -1.921985725094067093e-02 -4.042856291319595063e-02 -2.089151612636387934e-01 3.550341065775577398e-01 3.754439684291597246e-01 1.381139864790247584e-01 2.944933801203210577e-01 3.426723088433014652e-02 -4.647393647132996297e-01 -2.791062832893898005e-02 -1.530265418579601633e-02 -5.281464666316442180e-01 -3.817344578244552533e-01 3.475337333819078500e-01 6.782308480070466938e-01 2.528662466931640984e-01 1.743345319964016982e-01
8.294390536201903807e-02 1.541489054645137080e-02 -1.437914305169739060e-01 -2.657216386937158448e-02 -7.303203301883086362e-02 1.520957438502387182e-01 2.127234114361157280e-01 -2.493972315333107814e-01 -1.000323179376248067e-01 -4.110427285201794789e-01 3.015416512286131501e-02 -5.152765380356510994e-01 -9.990915715913079032e-02 -3.662421928294355700e-02 -6.317586368225689419e-01 -2.796419997636508115e-02 2.899038208513001202e-01 1.601274971641079570e-01 5.507245226334691462e-02 -4.695291475084260591e-01
-1.128130410104350168e-01 2.250987171198099435e-01 3.052921003242093922e-01 9.710349323998321291e-02 4.382355400701401504e-01 1.065396646127207692e-01 1.923738810791390808e-01 -2.108000413498012926e-01 -3.911766098307853379e-02 -3.362663876190519208e-01 -2.214513147124791692e-01 -3.660671455966621468e-01 4.457033225356228368e-01 1.850632965868435620e-01 1.551199017237611666e-02 1.180459543654421017e-01 1.854683176647157206e-01 -1.154784105288218232e-01 -5.865376834659916105e-02 -7.334368700247482220e-01
1.723875687648984412e-01 1.830161073703109875e-02 -2.824386757175529339e-01 -6.181984402384823468e-02 -2.782581580227291296e-01 8.539743653763789966e-02 2.425598105289032691e-01 -2.028093578334274893e-01 -2.274925539419639028e-02 -3.162009612903357025e-01 -2.274465577254396464e-01 -3.525195632612899699e-01 5.031616024852539892e-01 1.626897915797169136e-01 6.474852638857439557e-02 -5.439368886678027509e-02 2.518313585388856080e-01 1.462784666507757070e-01 1.951946915447200226e-02 -4.316139687025228877e-01
1.651471196291584009e-01 7.287082633564431755e-02 -2.183963005491296738e-01 -8.202213372721006701e-02 -1.623791578504510946e-01 1.252055727232125049e-01 2.656021490850026812e-01 -1.774868597074767129e-01 -7.532206771707156134e-02 -2.957911038556334526e-01 -2.155545587318785095e-01 -3.420252099332920515e-01 4.723032619583962255e-01 1.740309879320296738e-01 -8.133849161892858781e-03 -8.064600696986459760e-03 1.610530487505766328e-01 -5.255762874834235543e-02 -2.931941821998644560e-02 -6.815845485440886753e-01
2.109352266754780381e-01 4.029898822398648300e-02 -2.934132417833800743e-01 -8.838421761420811595e-02 -2.883173677813977154e-01 2.474731627421922486e-01 1.187987564985867051e-01 -5.040682157129124930e-01 -1.567883105505547547e-01 -6.749589242520841470e-01 -2.269371143903797239e-01 -3.533505748482085318e-01 4.509013155840774223e-01 2.010599054730259350e-01 2.682627867966783097e-02 3.942920016587972420e-02 1.322337897659247030e-01 -1.921699659637550739e-01 -1.026339407426989370e-01 -7.086275311990669623e-01
4.035230906689743491e-01 -1.103213278534511121e-01 -6.926006038616192573e-01 -3.011214377356937755e-01 -6.786655982312417290e-01 1.123153911867115148e-02 1.981971479908145040e-01 -1.767836577300325451e-01 -7.362493511928570877e-02 -2.689506566064678861e-01 6.041038252023142596e-02 -5.750169001961238369e-01 -1.683775036891177468e-01 -1.294886260392359989e-01 -7.623928551413166055e-01 -1.253911357376068236e-01 2.361105550558580124e-01 2.287163617317881648e-01 7.005298130658740852e-02 -3.510968455030831215e-01
1.032309696422467615e-01 7.016376994250092536e-02 -1.079591714480152842e-01 -7.160172575638666659e-02 -8.174049750452699881e-02 -4.612935082742960352e-02 3.037084149378730391e-01 1.282342310641873540e-02 -1.677148514589174577e-02 -6.174076053739224745e-02 1.835225706753911556e-01 -6.741519347865294609e-01 -4.437521643487343792e-01 -1.749867173772441664e-01 -9.595196310054512345e-01 -2.347757700912740941e-01 3.396219213576328055e-01 3.983885603563510625e-01 1.386664863017255112e-01 -1.265279554101874371e-01
1.224933480893463864e-02 7.224254581171335454e-02 5.036494609719201210e-03 5.394041211225792526e-02 8.030998218248874831e-02 8.217207357655353928e-02 3.378853413292155494e-01 -6.544170952622548054e-02 -7.485385308736185184e-02 -1.776829100745077328e-01 6.135848773478552731e-02 -5.760553116625780623e-01 -1.096381248184359336e-01 -4.518017533025767141e-02 -6.485767986659347617e-01 2.917539060825809494e-01 9.363069538388479884e-02 -4.280491526603713015e-01 -1.280243479402914109e-01 -1.110951916080613167e+00
1.167834942066449527e-01 9.197352461538367552e-02 -6.590963445656042308e-02 7.562801492063467301e-03 -5.189126197151090053e-02 8.639597872364073936e-03 3.462722349654532294e-01 8.010916283531743787e-02 2.362529848269492166e-02 -3.833282866490086288e-02 -1.341663153575067824e-02 -4.704096741065094123e-01 6.416472853398827447e-02 5.634153873543744362e-02 -4.204473298841954199e-01 2.667018889867951437e-01 9.960664406033112317e-02 -3.784290951649612045e-01 -1.336198408973625351e-01 -1.019521979252719479e+00
1.003308631432507786e-01 5.116845141239014655e-02 -2.411899945153546110e-01 -1.028548868109316616e-01 -1.269371712774298167e-01 8.113291076427896209e-02 2.641305457514628308e-01 -1.018318208425904869e-01 -2.662866284920448190e-02 -2.029892914608021903e-01 1.465728599176869262e-01 -5.915969514720669231e-01 -2.443338271271495166e-01 -1.164172101133268689e-01 -7.925856994842898073e-01 -1.970814383472190567e-01 2.677090781191750479e-01 3.181906429784212564e-01 1.426179018417640665e-01 -2.037404491619818070e-01
1.364436174671994628e-01 4.652542300094113931e-02 -2.617209615920932375e-01 -1.089899795231599466e-01 -1.506785949280616821e-01 -9.547520005614937647e-03 2.668894169577269437e-01 -1.008865452183614619e-02 3.278265751386587323e-02 -1.508630997248001093e-01 -1.081167136599428813e-01 -4.862540652269304320e-01 1.681914589427679074e-01 8.814106384411335426e-02 -3.451203400691229550e-01 -3.353079311236641380e-01 3.972371638724220277e-01 6.861723176453224937e-01 2.432200072302923566e-01 1.560049239714692559e-01
-5.691992420162968191e-02 1.539651043535008590e-01 1.513740807721793979e-01 9.652455679866359106e-02 2.311782991012957256e-01 -3.698954407701086911e-02 3.123195723027711312e-01 -1.207616454043262608e-02 -3.572800411610700666e-02 -6.552335607369945414e-02 -1.113191627513068077e-01 -5.018479699413302964e-01 6.998351612652456422e-02 6.339929746204114869e-02 -3.383535951448128909e-01 -3.103512863979338565e-01 3.492234682279732327e-01 4.693134655245028153e-01 1.619674763422676023e-01 2.529154990599252750e-02
-6.150257481273243426e-02 1.740378109701301024e-01 2.474226239318308707e-01 8.509769839004935332e-02 3.225856015564430024e-01 -3.931081680786827071e-02 2.252341684487084161e-01 -3.500911095219961383e-02 1.773860334825929502e-02 -1.099706666516766795e-01 -4.533835808855374294e-02 -4.500164267655864525e-01 7.162126606274429874e-02 -2.194697724405947348e-03 -4.336824330090460755e-01 -1.952059652332793216e-01 2.837383353001298736e-01 3.872772552094634335e-01 7.746983403237045485e-02 -1.169734278225738333e-01
-2.060494535581875453e-01 1.560596123123022816e-01 2.533842522784832685e-01 1.104135820610728652e-01 4.804026558021763926e-01 2.577955196807824034e-02 2.967613632572803084e-01 -4.103153349626696700e-02 -1.088819476783474405e-02 -1.547357759486782669e-01 5.220221496205487699e-02 -4.449043713209691053e-01 -5.968884685607966922e-02 5.825662757363250788e-03 -5.051573154110164943e-01 -1.013296720796074968e-01 2.357915423018268342e-01 1.714069346795359661e-01 3.947830818817353593e-02 -3.790877031461703517e-01
8.131460491865591389e-02 5.336081570932900420e-02 -1.532757317791388074e-01 -5.551473364183891895e-02 -9.601059933901000265e-02 1.406151531705678859e-01 1.788497805748545666e-01 -2.671423280454094940e-01 -9.163893915771370580e-02 -4.281039218600852236e-01 -2.163944634414074475e-01 -3.649385226164510998e-01 4.003850849260209288e-01 1.045315068173397755e-01 1.768943940420486527e-02 -1.586099647058242801e-01 3.087999685971233310e-01 3.265370906819081709e-01 1.414523188201145532e-01 -1.882277042267520573e-01
-1.668637721721610290e-01 2.306904872693180675e-01 3.320211838248572911e-01 1.327626301555976662e-01 4.565964402684309364e-01 2.702296328320266672e-01 1.369786208266362826e-01 -5.922744763509457666e-01 -1.909675597502613065e-01 -7.183000518883805308e-01 1.752266425299298103e-03 -4.861620323347061179e-01 -2.945637226691977251e-02 -8.204631695678102354e-03 -5.216620721167257724e-01 2.074776242768735790e-01 8.261775750440794597e-02 -3.574112387445518846e-01 -1.491298755721919833e-01 -1.040781053419416846e+00
2.062077549835549806e-01 7.157484353076125350e-02 -2.718759632009145055e-01 -1.033879116107243451e-01 -2.137417796964966310e-01 2.402561941442787063e-01 1.954518232376325493e-01 -3.717117575404100815e-01 -9.315399924696318723e-02 -5.815043832878937780e-01 -3.833450269027432467e-01 -3.074341275382954652e-01 6.901829651166514479e-01 2.371486492315067474e-01 3.066178180947143339e-01 -2.387161098996371800e-01 2.849595050662043216e-01 4.419121823976148167e-01 1.465810697900464254e-01 -9.461313945363897249e-02
-6.406379661985268925e-02 1.555560832933855220e-01 1.353019330899859762e-01 3.158316127091822384e-02 2.734195037630529068e-01 -8.398793407335146399e-02 3.030068749743502488e-01 4.676638551677982092e-02 2.433276403949970190e-02 2.665379416551497127e-03 -1.755452869177925590e-01 -3.957641675449110608e-01 3.346360001613623014e-01 1.292474928027037284e-01 -1.176088368936491213e-01 -1.981598811060017729e-01 3.261354908730216273e-01 4.160508723237626993e-01 1.679534828417474368e-01 -1.031382595661926027e-01
4.333379477084025044e-01 -1.017968792803427003e-01 -7.426875335134255351e-01 -2.613218843913627798e-01 -7.731916843675925577e-01 1.306709378260590693e-01 2.011838586710442689e-01 -2.479090545849126082e-01 -8.998976644141334913e-02 -4.098629133252016388e-01 1.745019771888881854e-01 -5.691212511238875615e-01 -2.807345178425031396e-01 -1.281570736438354396e-01 -8.332573360197391699e-01 1.670900044109435711e-02 1.801486229824523777e-01 -6.202599327176155919e-02 -1.637107731622179652e-02 -6.697141488975182355e-01
1.863502712631759928e-01 2.784786732228708428e-02 -2.858763123774355486e-01 -9.848129688079869382e-02 -2.604451744958328208e-01 -2.678750220550983885e-01 4.658837829565838362e-01 5.215851494282419676e-01 2.057777561854308157e-01 5.132617750266191825e-01 -1.606598370594073677e-01 -3.901301943853764387e-01 3.340067824513881511e-01 1.146452891324681589e-01 -1.052079680811189577e-01 1.981875796523985545e-01 1.195590413602592994e-01 -3.579773174988929441e-01 -1.530342896042053424e-01 -1.030152830966381217e+00
1.117040670061736074e-01 9.072676553372213681e-02 -1.486533861503614162e-01 -1.044266080684161241e-01 -1.374717805618349553e-01 1.930942767200651555e-01 1.915979927563588869e-01 -2.968393619444033016e-01 -1.013240579831397453e-01 -4.389485372363335913e-01 -1.377540223023455968e-01 -4.715014659864003033e-01 2.530489146274617629e-01 6.195550138721652583e-02 -3.085384202659489095e-01 -1.775340408975139839e-01 3.207030396018472618e-01 3.597797640762360194e-01 1.845976484786328031e-01 -1.793811882695753590e-01
3.874661093397334111e-01 -1.998377221170582196e-01 -9.496185478631326005e-01 -3.893801785666533011e-01 -9.169991733151438007e-01 -7.861568231375901106e-02 4.190910316049792916e-01 3.428378771274931403e-01 1.966219062145160290e-01 2.469339788239699740e-01 -1.983127747117642836e-01 -4.298774897632816616e-01 2.856397767696114420e-01 6.734463876720755970e-02 -2.351020909064527320e-01 -2.778772223766479144e-01 3.914857069386028510e-01 4.987255876013858558e-01 1.281323795480848182e-01 1.014794314493999705e-02
2.072763867873773092e-01 -4.215426673303657168e-02 -4.509888834503130717e-01 -1.435049622955989479e-01 -4.125646518221395831e-01 -4.553645567691685381e-01 3.843113186758848054e-01 6.463973908975458871e-01 2.689198669366451022e-01 7.815322355840811364e-01 1.503421280028276463e-01 -6.003424179026857210e-01 -3.480106416059094432e-01 -1.351746331732823769e-01 -9.090369483526273831e-01 -2.089859836322429665e-01 2.837026663169494589e-01 4.502088602246868687e-01 2.712226475096468081e-01 -4.077771315243461370e-02
3.339320472482249641e-02 1.284692988328354213e-01 7.280601331937057441e-02 6.402636269248603018e-02 1.356909285236774787e-01 3.883153182699972811e-02 2.794084664745432600e-01 -8.817512262260426836e-02 -9.364351390520314622e-02 -1.896700177250522645e-01 6.383430522596708623e-02 -4.751831550366832357e-01 -4.848401638722804607e-02 -6.141715598424501987e-02 -5.544043176997316413e-01 1.611008359679824697e-01 2.230916852392275662e-02 -2.898041397997321855e-01 -9.992041489471316373e-02 -9.197221765982457331e-01
2.547555121909249667e-02 1.252184181643521688e-01 1.988714662836275210e-02 -1.682514457468716612e-02 1.468428338533796507e-01 -7.588329516852318490e-02 3.484461280924318616e-01 1.964181371959087541e-01 1.046836676918561915e-01 1.132133333638445510e-01 8.981093609186871496e-02 -5.402820831134650392e-01 -1.487976441493701896e-01 -2.779072615273744939e-02 -7.001688843805705664e-01 -3.204366806202557649e-01 3.254406387765770847e-01 4.168017196878184283e-01 1.362110809822207613e-01 -4.743499081431556963e-02
3.423808334840258011e-02 8.052720680179925594e-02 -4.655203866444221350e-02 2.067350602702524784e-02 6.231221527329498105e-02 -2.289556056576240173e-01 3.789697139923117186e-01 3.740461612956303417e-01 2.078714658734673315e-01 2.937241074560305032e-01 -3.288678874374598160e-01 -4.318946032063838980e-01 4.894578304713589345e-01 1.687604811350931211e-01 6.092922710344522708e-02 -2.250063212584640648e-01 3.388075723686837515e-01 3.467179349554731504e-01 1.298400703937138689e-01 -1.395581993459951986e-01
-6.885891593912120412e-02 2.011204787582814846e-01 2.726136923515707355e-01 1.211669936326090352e-01 3.552481607306334777e-01 -1.351306309430900243e-01 4.089337950736474658e-01 2.571458205786691376e-01 3.346601072656583270e-02 1.920218767857700404e-01 -4.071597252670210998e-01 -3.167598031744275344e-01 6.688522780170396143e-01 2.428436016048622359e-01 3.410373997301314741e-01 -7.511410448862627931e-02 2.282851070007018701e-01 3.519280292096227392e-02 -1.746376422428824737e-02 -4.814165433235106373e-01
-1.613741221846542173e-01 1.205398697688175313e-01 2.189972626198595784e-01 1.130880509276998985e-01 4.254619926003896935e-01 -4.413907343782119130e-01 4.847213700673673742e-01 6.885595779536105576e-01 2.827245263397869524e-01 7.464181675854056897e-01 -4.315218857248359630e-01 -2.468168679726702730e-01 7.533285147777359914e-01 2.965761772519785455e-01 4.134125529936810151e-01 -2.318200598627431774e-02 2.420986787609503421e-01 6.805612587729983898e-02 1.969821297960901163e-02 -4.465515194153427680e-01
-1.689734894595552872e-02 7.123424050854901268e-02 -4.432449219795847606e-02 -1.500905909377950320e-02 3.506751094924120959e-02 1.316074902135105362e-01 2.705511148716475689e-01 -1.822523916289572055e-01 -2.906541797181939890e-02 -3.002790238208514761e-01 -4.137833060284110132e-01 -3.530218413492748897e-01 6.424722451555624492e-01 2.438591292074279160e-01 2.490642072546307151e-01 1.806014265150404641e-02 1.991516741375695121e-01 -7.342472728661603165e-02 -1.363307616196847427e-02 -6.213644181870574545e-01
-2.810932186903610241e-01 2.561646060751679443e-01 5.665184579225031047e-01 2.438434923256950215e-01 7.547197886227762220e-01 -3.490278458050468657e-01 4.098564903223590461e-01 5.810488359504798472e-01 2.207509135658897725e-01 5.250919652751229183e-01 -2.439531182776401574e-01 -3.867010462252375436e-01 4.724073732085057875e-01 1.821148750659336568e-01 3.048404957187084152e-02 -7.013856593072340107e-02 1.929323442392190113e-01 1.918664579802101255e-02 5.830917598669896340e-03 -5.239801925875204880e-01
-8.545013219490546486e-02 1.257771730702445245e-01 9.221633629032782720e-02 7.546707432586574615e-02 2.316820161121425636e-01 -4.130799546059666372e-01 4.271568274269919030e-01 6.171573949402262560e-01 1.930885300620010236e-01 6.782230405061786538e-01 5.481489642200973456e-02 -5.866786231373768423e-01 -1.562337247769971516e-01 -4.311369451751752291e-02 -6.572265974353986850e-01 6.570926996368403605e-02 1.759832115805917141e-01 -1.171518329710181106e-01 -1.087256288861679354e-01 -7.053740959642564867e-01
2.178724084164333774e-01 -2.198986003828480584e-02 -3.636744422628527262e-01 -1.519844183296144013e-01 -3.541883083018998457e-01 -1.688358009967769191e-01 3.949318063120752509e-01 3.089520776809152602e-01 1.126736375299451642e-01 2.218159222604418057e-01 -2.122861223632834804e-01 -3.653188976690489032e-01 3.214446767671057525e-01 1.034127550432990261e-01 -1.085922231046834441e-01 -2.791781580452890044e-02 2.415284246182477501e-01 1.453789750492957000e-01 3.137952175967547580e-02 -4.806975269831044173e-01
-1.221895396321896199e-01 2.042326714576253588e-01 2.610118591262852172e-01 1.140601273055841386e-01 3.958557978714148939e-01 -2.707202910303885268e-01 4.343275716418193988e-01 5.031477913791776446e-01 1.864253510585697493e-01 4.843606197242746880e-01 -2.376776640439769439e-01 -3.873831008282236366e-01 3.745079095154618121e-01 9.680685582282871904e-02 -2.931731266508283418e-02 5.124215067524828804e-02 1.772563371783195119e-01 -1.145073470964116935e-01 -5.533921978390017593e-02 -7.274418905019675030e-01
1.434861465355235510e-01 5.204295086830547368e-02 -2.008672984940155504e-01 -4.028424757482847868e-02 -1.166455677273428998e-01 -1.416110052311710110e-01 4.021755785923651350e-01 2.653191549278896000e-01 8.629017924514194304e-02 2.266901349537823185e-01 -7.669604397353474434e-02 -4.361377036243363481e-01 1.333167708579130195e-01 4.274854335099055602e-02 -3.395028387477624365e-01 1.844053256901609372e-01 1.314676571030947427e-01 -2.163282313940510793e-01 -2.888127605145499044e-02 -9.061790230307785743e-01
7.712699890660346114e-02 6.397421195634291069e-02 -1.659592054780097414e-01 -7.002173609829845380e-02 -1.389477539967426956e-01 -6.010150843989058023e-02 3.047101559418339267e-01 1.045268811807076037e-01 6.381338835148356314e-02 5.250460014009541987e-03 -1.754281361746721779e-01 -3.637234880558166683e-01 3.926077506178863308e-01 1.592637126411240167e-01 -3.738354447727501584e-02 -1.913294594694912032e-01 3.379406364603088075e-01 4.007017876110090526e-01 1.403000154724828030e-01 -1.073540711523114088e-01
3.249249496297214601e-01 2.605069005180399300e-03 -4.706100024712026042e-01 -1.515816172423857522e-01 -4.551535008070566324e-01 -1.901397858963294746e-02 2.513647511583367300e-01 -1.703991379575412260e-02 1.044599850867368104e-02 -8.558541076853713736e-02 -2.499834706930612327e-01 -4.057499097340475092e-01 3.587002819428329325e-01 7.316106636633497307e-02 -2.995399982583227261e-02 -1.097092247492560818e-01 1.828124622522471765e-01 1.415184048057384902e-01 7.416390822923341064e-02 -4.011370088728999361e-01
3.619335489961218733e-02 1.291167329342766679e-01 3.484420979751208514e-02 -8.977055343290204700e-03 1.121090819029952335e-01 -5.132545079882546574e-02 2.787756256390549470e-01 -1.879064814472326123e-03 -3.797691724176398276e-02 -7.627338965092626821e-02 -6.243700523542876357e-02 -3.994591971318467438e-01 2.077882226931662690e-01 9.230481630563806827e-02 -3.239462864107534035e-01 2.101350567288021998e-01 1.841585670850423573e-01 -2.153448057520074843e-01 -7.484321871717014574e-02 -8.720332304116837907e-01
-2.077907716033097762e-02 1.812129842026692361e-01 1.105554074601621806e-01 5.586032010103476886e-02 2.307378210628490134e-01 1.532694669809480693e-02 2.764952423662565550e-01 -3.715049021391843287e-02 -2.768798382131378022e-02 -1.246640528412340659e-01 -2.708985136878111488e-01 -3.664760525868829277e-01 5.079119466367039148e-01 1.871686089166528510e-01 8.408412570589957058e-02 -3.076091192919887529e-01 3.331866438702580924e-01 5.131166600477163886e-01 1.782911871427671491e-01 2.249135391547935070e-02
-1.145661883045338558e-01 1.830891624080080993e-01 2.415935042143360356e-01 9.267607145562851978e-02 3.654030030325635670e-01 1.455644888350978161e-01 2.123582023959693643e-01 -2.412242027230770414e-01 -7.137569192433118603e-02 -3.816222220473680649e-01 -3.566986792344742363e-02 -4.328540496411306671e-01 1.261760547704817714e-01 6.062911203168493135e-02 -3.592386967749700566e-01 -8.279351915963430175e-02 2.673073040737931616e-01 1.802829493443952602e-01 5.074650638956801352e-02 -3.899082931607922298e-01
1.267331975855375548e-01 8.991648279153199863e-02 -1.283482110634068252e-01 -1.972934853588850443e-02 -5.053399355778299268e-02 4.458124177167407942e-02 2.561077990337781163e-01 -1.261132134996051646e-01 -3.804164470780775631e-02 -2.155254835243430589e-01 -2.088348288263551233e-01 -3.772998871178992464e-01 4.272316398646746061e-01 1.555629770034167858e-01 -3.486642561320316136e-02 -6.160084124721240673e-02 2.342462387881645292e-01 1.276718982293888749e-01 4.926322178780000866e-02 -4.430763024315804155e-01
8.239676255585420828e-02 5.340597132185076479e-02 -1.383907611388466019e-01 5.471712295474884247e-03 -7.959698353213633115e-02 -2.833646478386702555e-02 3.105941691642187807e-01 1.038466981446908299e-01 5.311125776086261796e-02 1.913523706620498532e-03 8.311624258897531980e-03 -5.254621637643757115e-01 -4.693559045129908069e-02 1.233311228844555241e-02 -5.263012825922970261e-01 -7.755632682014942936e-02 2.564435670715649040e-01 1.339563746966883628e-01 3.006106843284332697e-02 -4.002229371693877269e-01
-2.164920800834280179e-01 1.074563853859372420e-01 1.712604729322768637e-01 4.263512070475090898e-02 3.543596460155475913e-01 -7.657266095087912616e-03 3.084381034569720348e-01 -7.009946083455971533e-02 -2.874362172494347029e-02 -1.656579736551308524e-01 -1.640523677064189279e-01 -4.576495722503309271e-01 2.754034333769941334e-01 9.287570010648484031e-02 -2.259762263724757192e-01 -1.877475095926755544e-01 2.626397747104934899e-01 3.031848420303363545e-01 1.083466143680330285e-01 -2.340727125948053877e-01
1.981177759331399779e-01 -7.721901692970903341e-02 -4.579836859675375793e-01 -1.847219033430028967e-01 -4.330158479000731919e-01 -4.328590143686125713e-03 3.296915930968523645e-01 6.472370618971952372e-02 -1.729462574618177706e-02 -2.468939862598953927e-03 -2.709817551361418664e-01 -3.500811150286730067e-01 5.725347737946057114e-01 2.556915594292840099e-01 8.311861239431203585e-02 -1.457883578399040425e-01 1.859415635165800051e-01 2.811623693148933012e-01 6.600480326502677908e-03 -2.920121086083667938e-01
-5.466504012138166668e-02 2.023568473968346826e-01 1.340316374321588733e-01 1.171786955069329950e-01 2.999825263479692361e-01 -2.442037600290675181e-01 3.188741157473880539e-01 1.621980891489012422e-01 3.689493725865543999e-02 1.197942477451980070e-01 -3.483976897487638946e-01 -3.764872311701518703e-01 4.319618008518457120e-01 1.158429209917204439e-01 7.437629445381238602e-02 -2.208283827722611059e-01 2.425559103149932116e-01 1.322045419677963518e-01 5.400602585347289569e-02 -3.463495911914823977e-01
-7.011550860864700085e-02 2.228047984322482078e-01 2.870989651397514164e-01 1.220657487625523008e-01 4.272918692419739872e-01 -9.508651887432197081e-02 2.427894652621611637e-01 5.841320130165801594e-02 -5.519474956483391009e-02 -4.143751080640383638e-02 -2.324556375688655308e-01 -3.822056430373547697e-01 2.807304426616602511e-01 -1.039014477987634799e-02 -1.418981275556747690e-01 -1.880264927630499461e-01 2.478811704815930550e-01 2.490954375410996680e-01 8.017335841833063415e-02 -3.034965733203974225e-01
1.194237900923190709e-01 1.136639896539545780e-03 -3.516165827588389470e-01 -1.543155898497524103e-01 -2.072989269957664082e-01 1.929674092309142594e-02 2.249851253243364824e-01 -1.133102765261476408e-01 -7.466749577921036329e-02 -2.202165047494694661e-01 -9.307919544381598742e-02 -4.798193606853520810e-01 1.865141076991343183e-01 8.813324883887858896e-02 -3.147978884856141857e-01 -1.037040627377669721e-01 2.709487308283390350e-01 2.592605150491088528e-01 1.112025716721934676e-01 -2.361019270866862030e-01
1.671004369160901115e-01 6.606802705906034134e-02 -2.293188080038235377e-01 -1.241987781360755494e-01 -1.330909984253116629e-01 5.030824788910999434e-02 2.878265363007828648e-01 -1.589091188475247329e-02 -7.525841618826084600e-02 -1.151003136922175984e-01 -6.098930860017455491e-02 -5.014366482522200075e-01 8.583751328525626723e-02 1.700681126092433437e-02 -4.637170089869186995e-01 -1.814882669835145013e-01 3.005232135075224242e-01 4.000848028861287986e-01 1.581746963904884229e-01 -1.209740023782462648e-01
2.881551045539206823e-01 -1.348221969684322563e-02 -4.801084291786558711e-01 -1.854346709300783991e-01 -4.941287130337241873e-01 -6.128081547887007791e-02 4.581151006411265381e-01 1.079225135647320505e-01 1.097240675213077832e-02 1.301582915063357049e-01 -2.859761425416630642e-02 -3.977950551586058037e-01 2.479742532135009170e-01 1.100791620805247617e-01 -2.365035597444801740e-01 -5.025200794885822941e-02 1.653989804343548864e-01 -3.340045940790919987e-02 -2.127708513115322830e-02 -6.041815220105541950e-01
-2.454998080196219012e-02 5.484471549546359598e-02 -2.983087882239703753e-02 -2.171608277182610763e-02 6.894329566361384609e-02 1.471817216369050163e-01 3.005343385589703264e-01 -2.128305740222860565e-01 -9.092736962347786056e-02 -3.141925103748125503e-01 -7.671350157014414362e-02 -3.919157033436588278e-01 2.439890839870128558e-01 3.755377125127204452e-02 -2.751232645681778721e-01 -5.067277129452192330e-01 4.459363168764561847e-01 7.347646684711452991e-01 2.344362722537960964e-01 3.202350451007546228e-01
-1.434216269279627032e-01 1.537709690714566813e-01 1.970444543737855381e-01 1.114282887747387735e-01 3.809343436031874530e-01 -6.553049917860568827e-03 3.503013012297948037e-01 1.207891339450845730e-02 -6.406707905576719542e-02 -8.388538959206331969e-02 1.216284165964695019e-01 -4.872415581189505351e-01 -1.605052253906983917e-01 -1.278468926128520367e-02 -7.198652552620350420e-01 -9.829065642825243754e-02 2.285644157016491484e-01 1.312727244144260563e-01 4.037339893865816987e-02 -4.384871122519188313e-01
-1.342538502214432605e-01 6.522964884417925546e-02 1.609290193626684573e-01 5.476292078660268542e-02 3.076874857786341400e-01 -2.042102914952030612e-02 2.227637310919462488e-01 -9.777097653043165248e-02 -1.290542947132386487e-02 -1.927238333778540924e-01 -2.209689862227656731e-01 -4.886770158960964672e-01 3.359111355289883249e-01 2.009469665590723486e-01 -8.878699489197058869e-02 -2.859981306078664964e-01 3.206748327954559441e-01 5.247454704839173978e-01 2.252080739859421699e-01 -6.751151447351982915e-02
-6.555891697235721738e-02 4.452494021367135041e-02 6.514057470487391588e-02 1.032424305345738397e-01 1.948302672181778938e-01 2.046733370063129054e-01 4.008786768279613000e-01 -2.066973615978444923e-01 -3.911543448640809190e-02 -3.305201705210668583e-01 -2.010001585639584476e-01 -5.301647307327144176e-01 2.117448233216342179e-01 4.730587933730139027e-02 -1.876496260620568179e-01 2.267736120672042555e-02 2.288244258774197459e-01 1.157895932424343466e-01 3.371548476501182862e-02 -5.518007334383485674e-01
4.464970460206089259e-02 -1.007372242817894253e-01 -2.740882895633877658e-01 -8.360730022810976270e-02 -1.650084386978951934e-01 1.534763030238158188e-01 1.949267890606028730e-01 -2.375123379184982952e-01 -1.023847176931249603e-01 -5.007323635738719636e-01 -2.068612801415307401e-01 -3.733233100222269618e-01 3.510294643411142612e-01 9.889418720583588451e-02 -1.045505215272574534e-01 -2.077648225713542574e-01 2.681854229156486746e-01 4.959466297338959162e-01 2.548005887192254515e-01 -2.371124498733429009e-02
6.861617069631964494e-02 1.551109802293830497e-02 -1.170150616431170909e-01 -7.239790969410096755e-02 -2.962948315836205077e-02 -1.248609578982543822e-01 3.925522877355969165e-01 1.899189237715396827e-01 7.344288541447252516e-02 1.950623348018306891e-01 -7.808577343584063857e-02 -4.308842365559084064e-01 1.474173561820436851e-01 4.065330373999291591e-02 -3.174491991998525942e-01 4.469552186145819839e-02 1.508414353831325494e-01 -1.263743690734336622e-01 -4.500548462672734895e-02 -7.468977387937565382e-01
1.553379410564954266e-01 4.495138630257417695e-02 -2.495576719864274484e-01 -1.111595031794694322e-01 -2.484497827479961451e-01 -2.312502381809926344e-02 3.874248464525530400e-01 1.035655864531047354e-01 4.905052481808733211e-02 1.085894458792382999e-03 2.782286623268295789e-02 -4.962623507188801408e-01 -1.969535738360339572e-03 -7.379961853769670399e-03 -5.313179942488109875e-01 -3.651341683684230510e-01 3.545127622435201853e-01 6.387093351330079827e-01 2.258624068204513891e-01 1.594360620775077120e-01
-9.558719590038290692e-02 2.863327747208822549e-01 2.534830726412514723e-01 1.145769586713988319e-01 4.198121849952519136e-01 -8.462204719692083266e-02 3.804633884542979461e-01 2.504177998008231265e-01 7.352590501738365258e-02 2.057894116918663752e-01 -1.289499402595135069e-01 -4.122465238987143565e-01 2.589887515793469208e-01 9.642931497561421650e-02 -1.996508113122514860e-01 -1.287848856898655137e-01 2.236538590254709968e-01 1.997212515248877329e-01 1.095455476074441714e-01 -3.370385422691665744e-01
1.369134739301793857e-01 2.777293443593747274e-02 -2.262221804060307873e-01 -3.246262472200023286e-02 -1.634788774721114279e-01 -5.677300174315202605e-03 3.471446229620119839e-01 1.063692368293349677e-01 -1.615686576111888956e-03 -2.309888158166725769e-03 -2.590963348802359234e-01 -4.616422045694055787e-01 3.964715517752549490e-01 1.416516759669135817e-01 -3.753928628593097838e-02 -7.806698859804539481e-02 2.999844296139426159e-01 3.422157170519666280e-01 1.368212997782088935e-01 -2.274690072823336850e-01
-6.320927996195058185e-02 1.134824474248406767e-01 9.234297810592706490e-02 4.050542234711793782e-02 2.379965547685076732e-01 -1.234671360714439392e-01 3.806117029061729662e-01 3.299822810444500987e-01 1.007931585036024869e-01 2.209375076500321167e-01 -2.715951094976183922e-01 -3.827311073423360077e-01 4.066215011204141749e-01 1.174049402359521599e-01 -6.766557231663145044e-02 2.055899882983538984e-02 2.510608637442752755e-01 8.240418102003155276e-02 3.459168257171964939e-02 -5.173258371109049625e-01
-2.229570614059429856e-01 2.664060423248790221e-01 3.740626206499194639e-01 1.285563171003897276e-01 5.288107956381943309e-01 1.792882159095669781e-01 1.268437612680553550e-01 -4.492205223462285568e-01 -1.635449687414549103e-01 -5.807164193150861076e-01 -4.310866661535234234e-01 -2.639500554569093049e-01 7.973751291647090955e-01 3.301584599721906210e-01 4.017832382325480789e-01 -7.819347394040805643e-02 2.671429549236216672e-01 1.539385536502095864e-01 3.692382226738670503e-02 -3.780767418878493435e-01
2.082766831117113804e-01 4.020136164800128253e-02 -2.968757416708530106e-01 -1.164947867369204859e-01 -2.514103650959669811e-01 2.245360258009395371e-01 1.063096808127051707e-01 -4.992884743608951847e-01 -1.646928833018911353e-01 -6.211514125835760902e-01 -3.244874420035504525e-01 -3.549156963865135461e-01 5.971678374469011619e-01 2.326588483622917258e-01 1.632620358160686846e-01 -2.586134132785872231e-01 2.548131994938762079e-01 3.392563052292600911e-01 1.223522024289482313e-01 -1.424716714206537560e-01
-2.223987624606888480e-01 1.149320144206819605e-01 3.244377324680916552e-01 1.290991240791457551e-01 4.590940391897370132e-01 -2.347369389884901014e-01 4.265832524654856184e-01 4.215198104615874297e-01 1.576430096383687474e-01 4.218242075107228595e-01 1.740108848410152897e-01 -5.558950609284381006e-01 -3.281317627009583404e-01 -1.170548188165260184e-01 -8.922664625834458851e-01 1.618900675815440060e-01 1.749387622025312949e-01 -1.348082526658405111e-01 -1.276340206938939015e-03 -8.372863642200426559e-01
1.313537619253198757e-02 1.129452446884875449e-01 2.806812804106587761e-02 5.747018849627749670e-02 1.350487258720918238e-01 -7.784250918158650001e-02 3.064402935305424736e-01 1.610940506608393996e-01 6.578567046130415208e-02 1.087036761866534834e-01 -1.632724345844524250e-01 -4.038135886168491284e-01 3.572324860546312597e-01 1.311138443171628865e-01 -1.096833555229060342e-01 -3.115388215691339280e-02 2.631942666234716177e-01 2.023753402221869779e-01 7.709753600859504952e-02 -3.939288471117143309e-01
3.468565334008656964e-01 -2.752015769349715202e-02 -4.599948087408424202e-01 -1.821021626009586281e-01 -4.958112709842455446e-01 -2.196635905877934725e-02 2.919821883620613567e-01 2.674470918549873635e-02 6.167891115308523145e-03 -5.895158210258164000e-02 -1.195858490847485217e-01 -4.704122350510500650e-01 2.113309678130327607e-01 8.213898849052869711e-02 -3.314806659571973846e-01 -5.313710078146808430e-02 2.899586355439938146e-01 1.338660171791145881e-01 5.033166771583527654e-02 -4.364836757470169637e-01
-4.198286711881470123e-02 1.008876361375576486e-01 7.874931885709920976e-02 6.024481286776771360e-02 1.872781379352317366e-01 2.150117474791196637e-02 2.747684257793859275e-01 -8.850446023311413224e-02 -7.077110723690245575e-02 -1.777979631415066708e-01 1.280542537889754473e-01 -6.336244494931847493e-01 -3.435264107668828393e-01 -1.165378114143457988e-01 -8.805309359521765744e-01 -8.265093011935156775e-02 2.643828419712868638e-01 2.408918131931251927e-01 9.470129011577196887e-02 -3.389758218941438250e-01
1.340676446554983636e-01 -2.322617916276203953e-02 -3.776582929140146483e-01 -9.922609967376871953e-02 -2.608726442461908324e-01 1.230604703773304082e-01 1.667465621745614357e-01 -2.980135030682247166e-01 -4.630066740480893311e-02 -4.008839905180527907e-01 3.901666833069916684e-04 -5.072718717396041965e-01 4.866912819060353890e-02 1.697813866050418286e-02 -4.951145709284130447e-01 -3.910446760677536160e-01 4.384198868245092751e-01 8.975658577614685774e-01 3.477754908509942400e-01 3.480934285825891261e-01
2.545718884275274263e-01 -5.214389214093638480e-02 -3.744161160727336179e-01 -1.748693373499974613e-01 -3.599860565845782179e-01 4.948721403981028860e-03 2.433172078301387153e-01 -8.484464234247510173e-02 -5.606920579021253820e-02 -2.284294734438986341e-01 -1.177034165637760310e-01 -4.443618226533767590e-01 2.095581145941819157e-01 -3.347048796064289178e-03 -3.054824440564769539e-01 7.811901289242323410e-02 1.925188869897018484e-01 -1.337165787681393603e-02 -2.563695035990246063e-02 -6.573894989852431259e-01
-1.851126738726718013e-01 2.008423315550536548e-01 4.093057493231276878e-01 1.607629111336688899e-01 5.158270332364194299e-01 1.649757496001859891e-01 2.554783911948874664e-01 -2.204186362970277924e-01 -5.996065537473720813e-02 -4.003817019788722398e-01 -1.357546417996386701e-01 -3.975799608883486269e-01 2.708309926740584683e-01 1.374186702075489153e-01 -1.287046495940470381e-01 -7.600889795438856011e-02 2.712357617639618579e-01 1.606372587333961821e-01 2.484062005246580329e-02 -3.971675968648550881e-01
6.707300564182616665e-02 4.532755717983174421e-02 -1.614213625318491330e-01 -9.029078657156876242e-02 -2.720598202361120682e-02 3.062936922363518333e-02 2.500960633929218413e-01 -1.308432586450203328e-01 -7.379696057739225379e-02 -2.011203255728125638e-01 -4.386382865268892428e-01 -2.718626173372665766e-01 8.079898822422397764e-01 2.750327672340058260e-01 4.365066809048753216e-01 -2.282113889222239789e-01 3.309671711476529499e-01 4.817914905551232141e-01 1.730462284325476330e-01 -4.984574995128132624e-02
1.768460308708186823e-01 8.248855275710856305e-03 -3.223794957633002167e-01 -9.243432400355326706e-02 -2.878222546884484645e-01 -3.208255700078482819e-02 2.851530569241371160e-01 -1.444079090495064416e-02 -1.863283735619855955e-02 -1.014825580283918449e-01 -1.976327810672559582e-01 -4.090151170789549928e-01 3.863106724061277086e-01 1.360515076145307201e-01 -1.085039872757081331e-01 -7.784557222506746643e-02 2.497587436715823783e-01 2.719447093968569429e-01 1.198534993841747498e-01 -3.447538239003138938e-01
1.281153312052744075e-01 3.583483531145209566e-03 -2.655760955879536422e-01 -8.236421990404381444e-02 -1.834878653695624640e-01 -4.531610603573835161e-02 3.248866556415520579e-01 1.114158048761041270e-01 2.470291059690043686e-02 4.771698599435943156e-02 -8.410671780604669912e-02 -4.094552267607530771e-01 2.656287299846590844e-01 9.715939065339501690e-02 -2.226766633649797933e-01 2.333140445963874376e-02 2.044507031636775829e-01 -9.778925570861352057e-03 -9.391496194440379641e-04 -6.221654310579337599e-01
1.493696045248362747e-01 4.932351298988613131e-02 -1.801898368725435573e-01 -1.379335748125243982e-02 -1.277257213358788668e-01 2.274310632110150207e-02 2.006965113275397394e-01 -1.736667046459959285e-01 -9.547903280924915914e-02 -2.705994069329766272e-01 -1.568060055173080558e-01 -4.361929569500537229e-01 3.022926021821789044e-01 5.739215360974631031e-02 -1.010203807068504600e-01 -3.619531472801137406e-01 3.997306181537537695e-01 6.152903723065092922e-01 1.794824265746274849e-01 1.974793164060868467e-01
-9.957684128757539332e-02 1.320502564104394094e-01 2.272014967796073537e-01 7.533991380121828063e-02 3.643153769322634572e-01 -1.150106379735290896e-01 3.823443875338706777e-01 2.117528567428324238e-01 1.142085085050206505e-01 1.951253799656057497e-01 -4.014321407806850650e-02 -5.428704394827420510e-01 -6.662650868993802433e-02 -6.607803895981764764e-02 -5.504615953997041844e-01 -9.936136376683989135e-02 2.298210193040657323e-01 1.554547222705219278e-01 3.703908815824552558e-02 -4.520910620586648943e-01
2.506794392200825672e-01 1.121309497661385213e-03 -4.232034350807487577e-01 -1.683911416721005638e-01 -4.418123445485905298e-01 5.806489675870241465e-03 2.324034588276125413e-01 -7.440388077589371596e-02 -1.624590847824510659e-02 -1.577498409682169256e-01 -3.799777016390007423e-01 -2.737646821318032719e-01 6.239328915576605183e-01 1.826122225284441680e-01 2.550227398122417166e-01 -4.768408195461938948e-01 4.542713925721932888e-01 8.699168115457579509e-01 2.936080693919216889e-01 4.182974803119359208e-01
4.615285695561582302e-01 -1.101233784065919485e-01 -7.380074708185382359e-01 -2.054631584290998181e-01 -7.704916096488625410e-01 2.801793485566531072e-02 2.792600581063635068e-01 -6.769913552814553481e-02 -5.396248690965839423e-02 -1.874712919985709325e-01 -1.108093819383138279e-01 -4.197474821490822516e-01 2.561286087101864450e-01 1.008800045355122132e-01 -2.400538881103372324e-01 3.352337972884172901e-02 1.210279480975098854e-01 -1.275651923864130066e-01 -3.339347003495640731e-02 -7.227059224356504608e-01
1.177656564338449563e-01 5.365413325008434181e-02 -1.318067148502416741e-01 -6.099959735705116903e-02 -8.104843791764393401e-02 3.002952746144169072e-02 2.803147427187312468e-01 -4.216361988697801821e-02 -7.113475942873651731e-03 -1.300492355441397740e-01 7.050371865463861409e-02 -5.936298765655869669e-01 -1.466260599087763628e-01 -7.432559552649209422e-02 -6.973329341446092844e-01 -9.730563875563369436e-03 2.213884247948242068e-01 3.478735717294909047e-02 -1.987823650892071858e-02 -5.513657676250143247e-01
7.693145775164071665e-02 8.590732443415520503e-02 -9.587914201001560000e-02 -4.623414946241000134e-02 -6.215961234760651599e-02 3.465251457536266955e-02 2.679090349237011059e-01 -1.975924574603961717e-02 -2.745748228090957518e-02 -1.251075175063980915e-01 -1.709660030051264601e-02 -4.804812977058778301e-01 3.890647702158808730e-02 -6.986612269297046152e-03 -4.647333743954640273e-01 -2.457693587599615315e-01 3.525093221312992631e-01 5.375315778853048121e-01 1.922928818997052813e-01 1.204005213218239945e-02
7.075479896834969973e-03 1.763978310140200123e-01 1.316235254154585199e-01 6.010152747178641730e-02 1.926306433792674966e-01 6.374344791592778670e-02 2.747303400455130551e-01 -8.526631738621169576e-02 -5.675293498364773759e-02 -2.635247686103437403e-01 -1.089180282383246795e-01 -3.674013972230650849e-01 3.340541198440559190e-01 1.366077922813409840e-01 -1.816629310694554411e-01 4.779897045729458727e-02 1.970622252212472503e-01 -1.291771150400700396e-01 -7.571539329996339329e-02 -6.653991023559920892e-01
2.567931329379984917e-01 1.892474637741678456e-02 -3.647057995312959489e-01 -1.473970743819552065e-01 -3.680357183043909131e-01 -1.585779747866762068e-01 3.858837516787845257e-01 2.890437035831174284e-01 1.001148478756829774e-01 1.968365452298775908e-01 -1.713883274290394776e-01 -3.606493124493218017e-01 4.280511798649749844e-01 9.546728428948074441e-02 -8.682184641893041233e-02 -1.346254018242309392e-01 2.973998611759217647e-01 3.574166685963665602e-01 7.556306354764344424e-02 -2.173383668314047279e-01
1.210649119873033475e-01 9.203728533515682930e-02 -7.112936681129430894e-02 1.523540363188061186e-02 -6.350148927280821476e-02 9.664637144480074660e-02 1.921596368261568322e-01 -1.619307100676805056e-01 -3.248034379774846457e-03 -3.238517293235030903e-01 -3.920739696269478491e-01 -3.177852336922386001e-01 6.560489041565374935e-01 2.011241080692882099e-01 2.655405306508183960e-01 -1.595497870796366846e-01 2.773072737607827354e-01 1.880639980743910034e-01 7.613933200540994040e-02 -3.362202504738411868e-01
1.100627769309476811e-01 3.027003237569633048e-02 -1.751343676211388756e-01 -9.067964669651526477e-02 -1.488911571828073488e-01 -1.110067846958202320e-01 3.817241585304537166e-01 2.378785774493344662e-01 7.936045556525114786e-02 2.077350163939589989e-01 -8.636622215290129523e-02 -4.164698342483050264e-01 2.043805887984561365e-01 7.491372870753761071e-02 -2.556035906958740722e-01 -1.859682418517623892e-01 2.115975270477336578e-01 3.231459750659131380e-01 1.350711189325429773e-01 -2.447638855345484477e-01
-2.259654859989024961e-02 -7.857974254149829862e-03 -1.573489121790195844e-01 -1.187828599038936450e-01 1.603280989393194439e-02 -1.166991758583719313e-01 3.716892533424331346e-01 1.372528389793776782e-01 5.223386509071950567e-02 1.047162339052651048e-01 -2.086274626369119811e-01 -3.607008424615084086e-01 4.099463842110688816e-01 1.555034338091187407e-01 1.353608551885945865e-02 -9.121077336361334276e-02 1.910140982753892325e-01 1.213858523107580190e-01 1.750770467665359320e-02 -4.435574891197410774e-01
-5.387142654089083216e-02 1.308335356798956406e-01 8.128364513934477342e-02 1.279169999472601696e-02 2.838543250096096093e-01 -8.197543707987151040e-02 2.640925710388255521e-01 -6.521452446008083048e-02 -9.148018887815340117e-02 -1.079346654252647808e-01 -2.499236394617339874e-01 -1.297106503811444878e-01 7.011175824065511986e-01 3.086236816087253310e-01 2.543072442572814063e-01 -1.810263249514627582e-01 4.169324769136370512e-01 4.833150417538444321e-01 2.234587898215003032e-01 -1.860967892080911401e-02
2.103493398275804727e-01 -8.544489384599185389e-02 -6.683214544335515095e-01 -3.297303123879675169e-01 -5.718688527830271262e-01 1.211722214059793579e-01 2.984408600058973127e-01 -1.870144306750176622e-01 -1.013689256827312729e-01 -2.804646751303984109e-01 -1.801062430493793054e-01 -4.780039576143812474e-01 1.762977996744256870e-01 1.276246317431864452e-01 -2.382955527298699638e-01 -6.797041585859063539e-02 2.511379295394127742e-01 1.698767458331820746e-01 6.746295969657099822e-02 -3.757639106796824002e-01
-2.714226208638699511e-02 1.576742166676968482e-02 -3.712060970184120900e-02 -3.657519740640351180e-02 1.495363318247859841e-01 3.562396840729022962e-01 1.191444494586349767e-01 -6.251525564649854649e-01 -1.715843763397344179e-01 -8.248898215575829473e-01 -6.079763502593501512e-01 -1.987244418959979442e-01 1.100792525794534349e+00 4.030025026558951562e-01 7.951538771513745330e-01 -6.824616048140533242e-02 2.353110249423586153e-01 1.445186516613940486e-01 5.004861359381473918e-02 -4.594815706124102950e-01
1.399291261336624986e-02 1.617498695928517582e-01 1.144172480045289875e-01 9.992889522144710046e-02 2.137042613386119227e-01 -1.703213064323059189e-01 4.118708642415851440e-01 3.009341240113179161e-01 1.105474520275238903e-01 2.349930615047395865e-01 -3.407931004455443391e-01 -3.115119931033183409e-01 7.677366112745284132e-01 2.212359742776754401e-01 3.477054210543533697e-01 2.150317742152282330e-01 1.503623233963570782e-01 -3.767199761473050135e-01 -1.938399571210414896e-01 -9.961357680164395489e-01
