0.000000000000000000e+00 0.000000000000000000e+00 0.000000000000000000e+00 0.000000000000000000e+00 0.000000000000000000e+00 0.000000000000000000e+00 0.000000000000000000e+00 0.000000000000000000e+00 0.000000000000000000e+00 0.000000000000000000e+00 0.000000000000000000e+00 0.000000000000000000e+00 0.000000000000000000e+00 0.000000000000000000e+00 0.000000000000000000e+00 0.000000000000000000e+00 0.000000000000000000e+00 0.000000000000000000e+00 0.000000000000000000e+00 0.000000000000000000e+00
0.000000000000000000e+00 0.000000000000000000e+00 2.946388391444386759e-02 3.759115121345889265e-02 1.727764593959090211e-01 0.000000000000000000e+00 0.000000000000000000e+00 4.958532528134282358e-02 9.282026514141786255e-02 -4.285704540955736358e-02 0.000000000000000000e+00 0.000000000000000000e+00 -1.159102166273117684e-01 -1.718295615461142289e-01 -3.942988245683829440e-01 0.000000000000000000e+00 0.000000000000000000e+00 6.842110335388454367e-02 -9.333699706249234951e-02 -5.513838620728526152e-01
0.000000000000000000e+00 -1.987814329820878356e-01 0.000000000000000000e+00 0.000000000000000000e+00 4.030002914663107783e-01 0.000000000000000000e+00 -1.337973909206469081e-02 0.000000000000000000e+00 0.000000000000000000e+00 -5.762745070483640819e-02 0.000000000000000000e+00 -4.936807648595569753e-01 0.000000000000000000e+00 0.000000000000000000e+00 -4.080535690510488367e-01 0.000000000000000000e+00 2.907856039249454572e-01 0.000000000000000000e+00 0.000000000000000000e+00 -4.974368864957848246e-01
0.000000000000000000e+00 0.000000000000000000e+00 0.000000000000000000e+00 0.000000000000000000e+00 -5.908362037554917845e-02 0.000000000000000000e+00 0.000000000000000000e+00 0.000000000000000000e+00 0.000000000000000000e+00 2.649769615781832899e-02 0.000000000000000000e+00 0.000000000000000000e+00 0.000000000000000000e+00 0.000000000000000000e+00 -4.969292838968710768e-01 0.000000000000000000e+00 0.000000000000000000e+00 0.000000000000000000e+00 0.000000000000000000e+00 -3.647157615300514744e-01
0.000000000000000000e+00 9.943197142844006908e-02 0.000000000000000000e+00 0.000000000000000000e+00 2.110886172106135050e-01 0.000000000000000000e+00 1.036985141576625413e-01 0.000000000000000000e+00 0.000000000000000000e+00 -1.944002300108604864e-03 0.000000000000000000e+00 -5.468447986202635835e-01 0.000000000000000000e+00 0.000000000000000000e+00 -3.667360329699254629e-01 0.000000000000000000e+00 2.534513065401050036e-01 0.000000000000000000e+00 0.000000000000000000e+00 -6.279081018138238379e-01
0.000000000000000000e+00 1.129332928918809764e-01 4.068850873371354128e-03 4.034540513178190568e-02 1.258755118129422923e-01 0.000000000000000000e+00 3.651252006398801320e-01 -2.717900595412115622e-02 2.897904729517877462e-02 -1.011806833231030933e-01 0.000000000000000000e+00 -4.706462468024299461e-01 3.615288646531207573e-02 1.914007916588093480e-02 -4.951241524549866990e-01 0.000000000000000000e+00 1.161392537948928855e-01 3.086227290574202267e-03 -3.111011643576470920e-02 -5.438791290809563694e-01
-2.580493853639670432e-02 4.190178043978918382e-02 0.000000000000000000e+00 0.000000000000000000e+00 4.521120127126039556e-02 -5.113214077371621737e-03 2.830286072471085435e-01 0.000000000000000000e+00 0.000000000000000000e+00 -1.048902873004173980e-01 -4.087618933876496080e-02 -5.395091236387797862e-01 0.000000000000000000e+00 0.000000000000000000e+00 -4.833489562771395853e-01 -1.711528948650632709e-02 1.704780391700198849e-01 0.000000000000000000e+00 0.000000000000000000e+00 -6.028262462656122089e-01
0.000000000000000000e+00 9.567416199931227938e-02 1.124866156329734981e-02 1.145534812248691706e-02 8.833437291277733416e-02 0.000000000000000000e+00 2.910894241266216986e-01 -3.454017900654304113e-02 -2.804678867975936296e-02 -9.429032411648327616e-02 0.000000000000000000e+00 -5.032259219348530488e-01 -2.378714030922748912e-02 -2.574443432079526542e-02 -5.154551090025423221e-01 0.000000000000000000e+00 1.897635512500569777e-01 6.802198835467771973e-03 1.690787811870139365e-02 -5.978119686492602280e-01
-2.216046919789393943e-02 7.828777307068328362e-02 0.000000000000000000e+00 0.000000000000000000e+00 9.561402347106923161e-02 -4.104405633070532834e-03 2.637386893127715570e-01 0.000000000000000000e+00 0.000000000000000000e+00 -7.604505173410862351e-02 -1.182373876372293936e-02 -5.166828802496568063e-01 0.000000000000000000e+00 0.000000000000000000e+00 -4.946301410684141864e-01 -2.229379174145385261e-03 1.982821701139317327e-01 0.000000000000000000e+00 0.000000000000000000e+00 -6.168960114781537607e-01
0.000000000000000000e+00 8.999345528748665946e-02 0.000000000000000000e+00 0.000000000000000000e+00 9.161102426928366405e-02 0.000000000000000000e+00 3.153273125245770747e-01 0.000000000000000000e+00 0.000000000000000000e+00 -1.027864507928145793e-01 0.000000000000000000e+00 -5.050470095510600776e-01 0.000000000000000000e+00 0.000000000000000000e+00 -4.935856036673937908e-01 0.000000000000000000e+00 1.891062843284866679e-01 0.000000000000000000e+00 0.000000000000000000e+00 -6.061883022948916233e-01
0.000000000000000000e+00 1.072102334492075204e-01 1.147437579426831798e-02 1.192726573612669025e-02 8.910981956285272954e-02 0.000000000000000000e+00 3.072902513582695949e-01 -4.443828286461032340e-04 2.738942687732190493e-03 -8.665227757186812207e-02 0.000000000000000000e+00 -4.998930605332665977e-01 1.310393567256106645e-03 -4.235686933459601074e-03 -4.949662962518803222e-01 0.000000000000000000e+00 1.990876868507187036e-01 4.620647816635915436e-03 -1.692892229823109856e-03 -6.001299669057448272e-01
-3.913269156003298423e-03 9.810195007577421356e-02 0.000000000000000000e+00 0.000000000000000000e+00 9.904252307698509228e-02 1.763367115740590088e-02 3.037110116628203849e-01 0.000000000000000000e+00 0.000000000000000000e+00 -9.006794953901424428e-02 -9.544938520919150904e-04 -5.020741414973501904e-01 0.000000000000000000e+00 0.000000000000000000e+00 -4.946870286536133032e-01 -1.908116929646199583e-02 1.901960608141649856e-01 0.000000000000000000e+00 0.000000000000000000e+00 -6.022128703468626609e-01
0.000000000000000000e+00 9.170932847843402125e-02 -1.704147281732631275e-02 9.582914851537435719e-03 7.658641521072664937e-02 0.000000000000000000e+00 2.956934864112580885e-01 -2.854275658824450591e-03 1.553873771572972760e-02 -9.926766357011646003e-02 0.000000000000000000e+00 -4.926161597035180195e-01 5.652273430262798673e-04 1.106859498775846287e-02 -4.970932582675142153e-01 0.000000000000000000e+00 2.108216026513647923e-01 1.862154755308994061e-02 1.815855452719184610e-02 -5.936238140554725984e-01
-2.521181910112936866e-02 9.326178532721866865e-02 0.000000000000000000e+00 0.000000000000000000e+00 9.056333157170042003e-02 -1.624715955409222756e-03 2.986428434511703700e-01 0.000000000000000000e+00 0.000000000000000000e+00 -1.018087003535975005e-01 -2.459575616741754150e-02 -5.052120882104773614e-01 0.000000000000000000e+00 0.000000000000000000e+00 -5.086162199036833309e-01 -1.521567572976573537e-02 2.179628199888414553e-01 0.000000000000000000e+00 0.000000000000000000e+00 -5.968291360975782611e-01
0.000000000000000000e+00 1.042538859409038454e-01 4.098188884111089898e-03 -3.953187028082297272e-03 1.024730831575977469e-01 0.000000000000000000e+00 3.016082663191319013e-01 1.221319855317670386e-02 2.186054276819475103e-02 -9.606460094201839384e-02 0.000000000000000000e+00 -4.986539114440945997e-01 2.204840614748963465e-02 8.159406894952600867e-03 -4.630238688556405635e-01 0.000000000000000000e+00 2.224144134186357147e-01 -5.177393025384901398e-03 2.713460902576765935e-03 -6.293047305942615077e-01
-5.693312010770459897e-03 1.019331399897122209e-01 0.000000000000000000e+00 0.000000000000000000e+00 8.045345930858271988e-02 3.420759721477913823e-02 3.412087939656216484e-01 0.000000000000000000e+00 0.000000000000000000e+00 -9.580830051112375345e-02 4.149155536645375564e-03 -4.884401086948445547e-01 0.000000000000000000e+00 0.000000000000000000e+00 -5.178968420308421861e-01 1.678146062236517480e-02 2.214855785938671384e-01 0.000000000000000000e+00 0.000000000000000000e+00 -6.011559279842694226e-01
0.000000000000000000e+00 9.647069752535637754e-02 0.000000000000000000e+00 0.000000000000000000e+00 8.954063674181422794e-02 0.000000000000000000e+00 3.185867692834246090e-01 0.000000000000000000e+00 0.000000000000000000e+00 -9.048461435799168284e-02 0.000000000000000000e+00 -5.076810354743438447e-01 0.000000000000000000e+00 0.000000000000000000e+00 -4.999751979118103318e-01 0.000000000000000000e+00 2.129913970095058118e-01 0.000000000000000000e+00 0.000000000000000000e+00 -6.058342171636346141e-01
-6.054540316234244268e-05 9.161533574871305596e-02 -6.674329684458782733e-03 -8.555643984831714371e-03 9.653123560978878193e-02 9.329032222638776461e-03 3.054179761567499818e-01 -2.497736203106024587e-03 -1.535447442045596161e-02 -8.614715805019579342e-02 -4.144839254210150314e-02 -5.010109953907273539e-01 3.862717664574688570e-03 2.260751258008899395e-02 -5.203944064969634464e-01 4.138880327222637170e-03 2.102937377652042139e-01 2.283591144089279143e-02 1.477826432068670565e-02 -5.929148379823173665e-01
0.000000000000000000e+00 8.789379248427775515e-02 0.000000000000000000e+00 0.000000000000000000e+00 9.495107286174321592e-02 0.000000000000000000e+00 2.822496675354616014e-01 0.000000000000000000e+00 0.000000000000000000e+00 -7.949907522096236190e-02 0.000000000000000000e+00 -4.964286515638215436e-01 0.000000000000000000e+00 0.000000000000000000e+00 -4.806189950281284928e-01 0.000000000000000000e+00 2.118799324319219635e-01 0.000000000000000000e+00 0.000000000000000000e+00 -5.935332667970462106e-01
0.000000000000000000e+00 9.261664335528826952e-02 0.000000000000000000e+00 1.657522555491613286e-02 8.854131915390922591e-02 0.000000000000000000e+00 3.065764673357466163e-01 0.000000000000000000e+00 1.339462382542687055e-02 -1.028124438205207936e-01 0.000000000000000000e+00 -4.988878353164691859e-01 0.000000000000000000e+00 -8.982759364428575741e-03 -4.918579470196310921e-01 0.000000000000000000e+00 2.085292954695734946e-01 0.000000000000000000e+00 2.456171160491394962e-03 -6.093738141137762243e-01
-4.167195637535316480e-03 1.059485828255212619e-01 6.571102524985746388e-03 0.000000000000000000e+00 8.269748894391108773e-02 9.939060988027912519e-03 2.924405612324922354e-01 -1.697527517135245974e-03 0.000000000000000000e+00 -8.994708114570765245e-02 9.505560033214385807e-03 -4.932842945761712339e-01 3.263392891667992856e-03 0.000000000000000000e+00 -4.980646856821787094e-01 2.051332106326638795e-03 2.156388426805305458e-01 8.568220236739577250e-03 0.000000000000000000e+00 -5.960073989158843899e-01
0.000000000000000000e+00 9.399883018317410632e-02 0.000000000000000000e+00 0.000000000000000000e+00 9.004026856102885501e-02 0.000000000000000000e+00 3.073726594951117219e-01 0.000000000000000000e+00 0.000000000000000000e+00 -1.049506924369590782e-01 0.000000000000000000e+00 -4.989791778966866098e-01 0.000000000000000000e+00 0.000000000000000000e+00 -4.997769951486226714e-01 0.000000000000000000e+00 2.053039262064014214e-01 0.000000000000000000e+00 0.000000000000000000e+00 -5.969205343001365849e-01
-1.994984293244371487e-02 8.906426187548147078e-02 0.000000000000000000e+00 1.193902739050955140e-02 9.216910015965920633e-02 -1.473793982640513207e-02 2.899464033774213356e-01 0.000000000000000000e+00 2.221388556536880651e-02 -9.903647374401679249e-02 -1.214054259456404453e-02 -4.956294902767243715e-01 0.000000000000000000e+00 9.397823698256448782e-03 -5.060561813879143056e-01 1.107050753723900528e-02 2.101963296026936601e-01 0.000000000000000000e+00 -8.457902574651230895e-03 -6.079567710230806554e-01
0.000000000000000000e+00 8.794218942468065570e-02 -1.079491254638625247e-02 0.000000000000000000e+00 9.130913300311918612e-02 0.000000000000000000e+00 3.027968950564707273e-01 1.793242506004528005e-03 0.000000000000000000e+00 -9.257312817856207243e-02 0.000000000000000000e+00 -4.933068645878332936e-01 -3.049242750463675329e-03 0.000000000000000000e+00 -5.063058460419088691e-01 0.000000000000000000e+00 2.085563026287619581e-01 1.071205725046888227e-02 0.000000000000000000e+00 -6.018344431731733613e-01
1.723080564991123081e-02 9.673221425252380434e-02 0.000000000000000000e+00 -1.248413880521648256e-02 1.038928696490562936e-01 -2.994346636482087681e-02 2.754992733382312653e-01 0.000000000000000000e+00 2.082227549432095690e-02 -1.078068816032134586e-01 2.563311324588226497e-03 -4.862902843213619541e-01 0.000000000000000000e+00 -2.163271454309328469e-03 -4.960928055927701363e-01 -1.269897489686350189e-02 1.915198186049376916e-01 0.000000000000000000e+00 1.517743387974003141e-02 -6.163114169154642052e-01
0.000000000000000000e+00 1.060876585825807072e-01 1.955388416708148634e-03 0.000000000000000000e+00 8.821745222254764873e-02 0.000000000000000000e+00 2.974612149477386946e-01 -1.160534556883244944e-02 0.000000000000000000e+00 -9.371633845484048098e-02 0.000000000000000000e+00 -4.942192240179639207e-01 1.717598747518156097e-02 0.000000000000000000e+00 -4.810852034070355332e-01 0.000000000000000000e+00 2.048120708811458635e-01 -9.820473493964041248e-03 0.000000000000000000e+00 -6.075015753807382346e-01
0.000000000000000000e+00 8.429119611101346110e-02 0.000000000000000000e+00 0.000000000000000000e+00 1.015381669059228359e-01 0.000000000000000000e+00 2.985464458126021459e-01 0.000000000000000000e+00 0.000000000000000000e+00 -9.458466285810046559e-02 0.000000000000000000e+00 -4.978594872305524000e-01 0.000000000000000000e+00 0.000000000000000000e+00 -4.835350534809361722e-01 0.000000000000000000e+00 1.974814187007718769e-01 0.000000000000000000e+00 0.000000000000000000e+00 -6.024241060169770456e-01
-1.435913179090924675e-02 9.744349411065933442e-02 4.528511445275773539e-03 0.000000000000000000e+00 9.546667052135339449e-02 1.212628411688016633e-02 3.021476110060775100e-01 4.086813547404585106e-03 0.000000000000000000e+00 -9.966860377331748788e-02 1.880349601817111679e-03 -4.872154681253874076e-01 5.949512256391797232e-03 0.000000000000000000e+00 -5.058185830894171842e-01 -5.075990059446493577e-03 2.127470693716449202e-01 1.111490227786223958e-02 0.000000000000000000e+00 -6.118364138210182768e-01
0.000000000000000000e+00 9.017068519970342089e-02 0.000000000000000000e+00 0.000000000000000000e+00 9.073970986003961070e-02 0.000000000000000000e+00 2.930804215870412843e-01 0.000000000000000000e+00 0.000000000000000000e+00 -9.666492845473398376e-02 0.000000000000000000e+00 -4.885644302765501101e-01 0.000000000000000000e+00 0.000000000000000000e+00 -5.194655813932267385e-01 0.000000000000000000e+00 2.085541000766774067e-01 0.000000000000000000e+00 0.000000000000000000e+00 -6.189197504104723135e-01
0.000000000000000000e+00 8.274429392334234357e-02 -1.033762768902342713e-02 0.000000000000000000e+00 9.547112813230558548e-02 0.000000000000000000e+00 2.995837223458229226e-01 3.968656993404021463e-03 0.000000000000000000e+00 -9.644386401528246000e-02 0.000000000000000000e+00 -5.080407895931166040e-01 2.736065435742108393e-04 0.000000000000000000e+00 -4.983296325076969069e-01 0.000000000000000000e+00 2.049425943910008763e-01 -1.072015855047250658e-02 0.000000000000000000e+00 -6.015565880812123734e-01
0.000000000000000000e+00 8.588401704908089906e-02 0.000000000000000000e+00 0.000000000000000000e+00 1.141175432961426678e-01 0.000000000000000000e+00 2.841633570403706011e-01 0.000000000000000000e+00 0.000000000000000000e+00 -8.512323614069913780e-02 0.000000000000000000e+00 -4.916493786892957019e-01 0.000000000000000000e+00 0.000000000000000000e+00 -5.024853978333025939e-01 0.000000000000000000e+00 2.160872570604564502e-01 0.000000000000000000e+00 0.000000000000000000e+00 -6.236670213707166122e-01
0.000000000000000000e+00 9.578783421207823223e-02 8.455652391858116401e-03 1.377341494331586758e-02 1.029874219476130393e-01 0.000000000000000000e+00 3.046262675658213959e-01 3.701422083562089325e-03 -1.998118656777740816e-03 -8.023087685139623781e-02 0.000000000000000000e+00 -4.929606223109474494e-01 6.959185987940037614e-03 -4.383443989864452446e-04 -5.006750812865365940e-01 0.000000000000000000e+00 2.008801948860301778e-01 2.913636789874420041e-03 1.634172579937835093e-03 -5.928114452928672229e-01
7.283878713724082146e-03 9.081191378476280440e-02 0.000000000000000000e+00 0.000000000000000000e+00 1.006699432016260193e-01 4.232049940210477063e-04 3.092405134064627470e-01 0.000000000000000000e+00 0.000000000000000000e+00 -1.107664712058998302e-01 -1.901973824503959409e-03 -4.877876850802927988e-01 0.000000000000000000e+00 0.000000000000000000e+00 -5.131733249634740091e-01 -1.231191418731596675e-02 1.981751023713526905e-01 0.000000000000000000e+00 0.000000000000000000e+00 -6.090570449137171494e-01
0.000000000000000000e+00 8.269713094424141486e-02 -8.802414680928170344e-04 2.621070004866240741e-03 9.084405457427292829e-02 0.000000000000000000e+00 2.978840726791085469e-01 2.004734514813962930e-03 8.838599790591343194e-03 -1.006746251820206106e-01 0.000000000000000000e+00 -4.989565393365305024e-01 6.125713596898793925e-03 1.011687722013685647e-03 -4.901024407511042069e-01 0.000000000000000000e+00 2.026942238950245889e-01 9.834795417452711630e-03 1.388165830978736054e-02 -5.949289690765873218e-01
0.000000000000000000e+00 9.854947117560582115e-02 0.000000000000000000e+00 0.000000000000000000e+00 9.030547810317715585e-02 0.000000000000000000e+00 3.056273505291209891e-01 0.000000000000000000e+00 0.000000000000000000e+00 -9.432958110486183712e-02 0.000000000000000000e+00 -4.973853872456618919e-01 0.000000000000000000e+00 0.000000000000000000e+00 -5.030568943885151967e-01 0.000000000000000000e+00 2.092087714956333000e-01 0.000000000000000000e+00 0.000000000000000000e+00 -5.992505805012618980e-01
0.000000000000000000e+00 9.056743215668981717e-02 0.000000000000000000e+00 0.000000000000000000e+00 9.336725132519840820e-02 0.000000000000000000e+00 2.977454074924943961e-01 0.000000000000000000e+00 0.000000000000000000e+00 -8.881577054921310777e-02 0.000000000000000000e+00 -4.909430583869098808e-01 0.000000000000000000e+00 0.000000000000000000e+00 -5.068881532532912848e-01 0.000000000000000000e+00 2.052865241416217956e-01 0.000000000000000000e+00 0.000000000000000000e+00 -6.076471757190654577e-01
0.000000000000000000e+00 9.179007243551134954e-02 0.000000000000000000e+00 0.000000000000000000e+00 9.465750079130817729e-02 0.000000000000000000e+00 3.046438546553053017e-01 0.000000000000000000e+00 0.000000000000000000e+00 -8.818809769038267465e-02 0.000000000000000000e+00 -4.931072577542841562e-01 0.000000000000000000e+00 0.000000000000000000e+00 -5.025509365649035720e-01 0.000000000000000000e+00 2.003416408333417442e-01 0.000000000000000000e+00 0.000000000000000000e+00 -5.969977973616111822e-01
0.000000000000000000e+00 9.124475848205970685e-02 0.000000000000000000e+00 0.000000000000000000e+00 1.104871284073965371e-01 0.000000000000000000e+00 3.053913281795956891e-01 0.000000000000000000e+00 0.000000000000000000e+00 -1.049669142346966177e-01 0.000000000000000000e+00 -4.949483526107705811e-01 0.000000000000000000e+00 0.000000000000000000e+00 -5.040828948934612530e-01 0.000000000000000000e+00 2.012748557190170151e-01 0.000000000000000000e+00 0.000000000000000000e+00 -6.050426093148979501e-01
-1.873936996880500375e-02 9.008075743288992965e-02 0.000000000000000000e+00 1.854297309766754845e-02 9.741067164029157399e-02 1.878855480071487533e-02 3.120756841160008954e-01 0.000000000000000000e+00 -3.447800565074837613e-03 -8.995069273476731520e-02 -7.205840121529728803e-04 -5.034349568253783103e-01 0.000000000000000000e+00 -2.389185049678297767e-03 -4.944594703642958833e-01 -5.861343385332108864e-04 2.031363104105081696e-01 0.000000000000000000e+00 4.708459337701743214e-03 -6.021331482311574890e-01
0.000000000000000000e+00 9.089431595905453354e-02 -6.550569042858179689e-03 0.000000000000000000e+00 8.332682119935209963e-02 0.000000000000000000e+00 2.920442827765852845e-01 1.077509236255180282e-02 0.000000000000000000e+00 -8.539440799855535502e-02 0.000000000000000000e+00 -5.006009031551564847e-01 -2.108310300299678312e-03 0.000000000000000000e+00 -4.993593267881268338e-01 0.000000000000000000e+00 1.966238395335261901e-01 6.346900124474749022e-03 0.000000000000000000e+00 -5.943900145909635224e-01
0.000000000000000000e+00 9.163680785866221146e-02 0.000000000000000000e+00 -7.709721586763501611e-03 1.068591759371440991e-01 0.000000000000000000e+00 3.003063211014374012e-01 0.000000000000000000e+00 -4.906346137364139826e-03 -9.152208868592057178e-02 0.000000000000000000e+00 -4.967576136200883008e-01 0.000000000000000000e+00 1.579148310787278561e-04 -4.931052189108750539e-01 0.000000000000000000e+00 1.981787805569276972e-01 0.000000000000000000e+00 -2.559116927533836364e-03 -6.029661231489370499e-01
0.000000000000000000e+00 9.510565316042837725e-02 0.000000000000000000e+00 0.000000000000000000e+00 9.210553215500193180e-02 0.000000000000000000e+00 3.007593809744814606e-01 0.000000000000000000e+00 0.000000000000000000e+00 -9.336110512512156567e-02 0.000000000000000000e+00 -4.975088155232247344e-01 0.000000000000000000e+00 0.000000000000000000e+00 -4.978696111134062741e-01 0.000000000000000000e+00 2.065116454002253465e-01 0.000000000000000000e+00 0.000000000000000000e+00 -6.025077055448380126e-01
0.000000000000000000e+00 9.250735734488044204e-02 0.000000000000000000e+00 0.000000000000000000e+00 9.680411673880563728e-02 0.000000000000000000e+00 2.955390448174814999e-01 0.000000000000000000e+00 0.000000000000000000e+00 -8.786919568400025637e-02 0.000000000000000000e+00 -4.918072536434156539e-01 0.000000000000000000e+00 0.000000000000000000e+00 -5.002666975379684855e-01 0.000000000000000000e+00 1.969911928894361730e-01 0.000000000000000000e+00 0.000000000000000000e+00 -6.023228283510704273e-01
2.229330957220669769e-03 9.498620634125398698e-02 -3.896307255399584189e-03 0.000000000000000000e+00 1.049699812640202262e-01 1.218370029843699950e-02 3.110919023153536633e-01 1.814901184943637155e-02 0.000000000000000000e+00 -8.622687804713791149e-02 -4.004320348147088864e-03 -5.010419304467939039e-01 -9.863468086148186910e-04 0.000000000000000000e+00 -4.951859793907911200e-01 -4.674920858053883965e-03 2.061434800848670756e-01 6.495608663747553385e-03 0.000000000000000000e+00 -6.035866457932704821e-01
0.000000000000000000e+00 9.584480708414624961e-02 0.000000000000000000e+00 0.000000000000000000e+00 9.540296908741842385e-02 0.000000000000000000e+00 2.997841117777704789e-01 0.000000000000000000e+00 0.000000000000000000e+00 -9.881637081279467938e-02 0.000000000000000000e+00 -4.802111161212016532e-01 0.000000000000000000e+00 0.000000000000000000e+00 -4.983602275896243383e-01 0.000000000000000000e+00 2.064149287462407056e-01 0.000000000000000000e+00 0.000000000000000000e+00 -6.035155822976731033e-01
-1.651753501358481022e-02 9.429374953830443884e-02 -7.880402093333528299e-03 1.381045951686151949e-02 8.054704628853409654e-02 -6.833738705457440520e-03 2.961818341784766551e-01 1.123253779618260846e-02 1.450305674203488347e-02 -1.029788329885834436e-01 -8.754525755812207072e-03 -4.974186168598727087e-01 1.819101979567207608e-02 1.288086797957346645e-02 -4.941631685448416023e-01 3.480224600844722405e-02 2.316853237142010580e-01 1.991410800698081504e-02 -2.691132534871130966e-02 -5.897277375433733759e-01
0.000000000000000000e+00 1.003951464281565148e-01 0.000000000000000000e+00 0.000000000000000000e+00 9.376187042255720860e-02 0.000000000000000000e+00 2.906484908951645352e-01 0.000000000000000000e+00 0.000000000000000000e+00 -8.606696077828204783e-02 0.000000000000000000e+00 -5.052652526559109347e-01 0.000000000000000000e+00 0.000000000000000000e+00 -5.067904198657089410e-01 0.000000000000000000e+00 2.104291170311101133e-01 0.000000000000000000e+00 0.000000000000000000e+00 -6.075649926471689000e-01
0.000000000000000000e+00 8.446213826871219743e-02 0.000000000000000000e+00 5.843711310580209685e-03 9.600962574590569953e-02 0.000000000000000000e+00 3.097557131243334760e-01 0.000000000000000000e+00 6.576146180736459380e-03 -9.607146150541083507e-02 0.000000000000000000e+00 -4.948338533132904393e-01 0.000000000000000000e+00 -2.376205524483247788e-03 -4.966548900712343673e-01 0.000000000000000000e+00 2.022866189709208451e-01 0.000000000000000000e+00 7.581194460247034361e-03 -5.980738375424634601e-01
0.000000000000000000e+00 9.117606846853568148e-02 0.000000000000000000e+00 0.000000000000000000e+00 1.015221854637203408e-01 0.000000000000000000e+00 3.040267960149054538e-01 0.000000000000000000e+00 0.000000000000000000e+00 -9.467515217513533532e-02 0.000000000000000000e+00 -5.010316699163155363e-01 0.000000000000000000e+00 0.000000000000000000e+00 -5.035606130534866498e-01 0.000000000000000000e+00 2.061508997881344729e-01 0.000000000000000000e+00 0.000000000000000000e+00 -6.013301456477950779e-01
0.000000000000000000e+00 9.795908829079059965e-02 0.000000000000000000e+00 1.723491332667121453e-03 9.671144564707084834e-02 0.000000000000000000e+00 2.984053986732839725e-01 0.000000000000000000e+00 -3.389622706397994907e-03 -9.202793656885392692e-02 0.000000000000000000e+00 -4.857040928875900332e-01 0.000000000000000000e+00 4.666053254519211130e-03 -5.070612909642396859e-01 0.000000000000000000e+00 2.078423428323873112e-01 0.000000000000000000e+00 8.924291312697948259e-03 -6.072323457362126531e-01
-7.485128994733011853e-03 8.776831033761153811e-02 3.673373814826232271e-03 0.000000000000000000e+00 8.954924096017881363e-02 -4.373633606965342605e-03 2.854046379587831805e-01 5.908128506361937093e-03 0.000000000000000000e+00 -9.468198875038261186e-02 -1.419453234917522101e-02 -5.090086918437286556e-01 8.075207642301209660e-04 0.000000000000000000e+00 -5.007053274182665659e-01 -7.901598652960809682e-03 2.090295170544236858e-01 1.534023318665005652e-03 0.000000000000000000e+00 -6.121895222267870196e-01
0.000000000000000000e+00 8.157864702659585465e-02 0.000000000000000000e+00 0.000000000000000000e+00 1.040983063674486286e-01 0.000000000000000000e+00 3.002341318265498438e-01 0.000000000000000000e+00 0.000000000000000000e+00 -9.472132876136296620e-02 0.000000000000000000e+00 -4.942052399174886035e-01 0.000000000000000000e+00 0.000000000000000000e+00 -4.950734080330626563e-01 0.000000000000000000e+00 2.039593337282541163e-01 0.000000000000000000e+00 0.000000000000000000e+00 -5.993340984230712820e-01
-2.329547332852559272e-02 8.508423339144283171e-02 -4.624767329283332486e-03 1.973519509973890515e-02 8.341032035339759898e-02 1.069855704588839641e-02 3.000025372230342713e-01 -2.515230770993972034e-03 -6.990770255904414296e-03 -9.877019388838563507e-02 2.423887770751736309e-02 -4.882457668135890549e-01 4.529341580657015622e-03 -1.757191480580942017e-02 -4.924582502821932550e-01 6.983537678869340681e-03 2.089363509848977396e-01 2.221608487241029991e-03 -6.934104975032889459e-03 -5.940077171003005363e-01
0.000000000000000000e+00 9.283230955571085408e-02 0.000000000000000000e+00 0.000000000000000000e+00 9.535479039018968095e-02 0.000000000000000000e+00 2.976462642056976748e-01 0.000000000000000000e+00 0.000000000000000000e+00 -9.673546441603969592e-02 0.000000000000000000e+00 -4.953902167666270895e-01 0.000000000000000000e+00 0.000000000000000000e+00 -4.989457118929485624e-01 0.000000000000000000e+00 2.074134564391045821e-01 0.000000000000000000e+00 0.000000000000000000e+00 -6.097957353783216572e-01
0.000000000000000000e+00 8.807077167823733344e-02 0.000000000000000000e+00 8.273431870868996202e-03 9.929625961251352384e-02 0.000000000000000000e+00 3.043008465322936118e-01 0.000000000000000000e+00 3.297148450872108925e-03 -1.021664956879519415e-01 0.000000000000000000e+00 -4.930594810001893147e-01 0.000000000000000000e+00 -3.791294090775008344e-03 -5.046735608577884724e-01 0.000000000000000000e+00 2.100165805804229124e-01 0.000000000000000000e+00 2.864260129947595636e-03 -6.098275959325357709e-01
8.481054435379841577e-03 9.591542013843797065e-02 3.002507184766582855e-03 0.000000000000000000e+00 9.733225014450605506e-02 4.834624463685439910e-03 3.071667555595519739e-01 9.450016960054288123e-03 0.000000000000000000e+00 -9.059307784637320171e-02 -1.193469173296431499e-02 -5.007284650841208329e-01 -1.747581540982260512e-04 0.000000000000000000e+00 -5.054766550404352632e-01 -1.032573893946552371e-03 2.101681662797138250e-01 5.883461023565564850e-03 0.000000000000000000e+00 -5.983589179170484273e-01
0.000000000000000000e+00 9.542544256513348089e-02 0.000000000000000000e+00 -7.270741956754084648e-05 1.005668574188541692e-01 0.000000000000000000e+00 2.916953196888045774e-01 0.000000000000000000e+00 -9.028991070917612161e-04 -9.450731651456238669e-02 0.000000000000000000e+00 -4.935229287866427783e-01 0.000000000000000000e+00 -2.332934513385485215e-03 -5.004909218380090286e-01 0.000000000000000000e+00 1.990883733025728963e-01 0.000000000000000000e+00 2.269259509237653814e-03 -6.054608465416040364e-01
0.000000000000000000e+00 9.547545392228712346e-02 0.000000000000000000e+00 0.000000000000000000e+00 9.488555755604943798e-02 0.000000000000000000e+00 2.984391904212970181e-01 0.000000000000000000e+00 0.000000000000000000e+00 -9.292598435753397779e-02 0.000000000000000000e+00 -5.052311857305029630e-01 0.000000000000000000e+00 0.000000000000000000e+00 -4.971374988185959243e-01 0.000000000000000000e+00 2.016565817102586033e-01 0.000000000000000000e+00 0.000000000000000000e+00 -5.917372451844287173e-01
0.000000000000000000e+00 9.774464218371427260e-02 0.000000000000000000e+00 0.000000000000000000e+00 9.685056754657114797e-02 0.000000000000000000e+00 3.070101718872689234e-01 0.000000000000000000e+00 0.000000000000000000e+00 -9.637270911473756752e-02 0.000000000000000000e+00 -4.995453130745229342e-01 0.000000000000000000e+00 0.000000000000000000e+00 -5.042758948967660526e-01 0.000000000000000000e+00 2.051428323703614054e-01 0.000000000000000000e+00 0.000000000000000000e+00 -6.020201979965671413e-01
0.000000000000000000e+00 9.794005886127143956e-02 0.000000000000000000e+00 -6.023244227158757597e-04 8.162632678981401879e-02 0.000000000000000000e+00 2.962888577389958811e-01 0.000000000000000000e+00 -1.147533304429824291e-05 -9.721449675693975834e-02 0.000000000000000000e+00 -4.959830090366165178e-01 0.000000000000000000e+00 4.580689891306010536e-05 -4.943268721645356356e-01 0.000000000000000000e+00 1.980600243218423873e-01 0.000000000000000000e+00 1.025817387891107303e-03 -5.950437351678508069e-01
7.908304405772410145e-03 9.435225517739105616e-02 0.000000000000000000e+00 0.000000000000000000e+00 9.493676707299830708e-02 6.847780968157436525e-03 3.019621986754137399e-01 0.000000000000000000e+00 0.000000000000000000e+00 -9.447740907938703692e-02 -8.924704451306275654e-03 -5.108746101061781841e-01 0.000000000000000000e+00 0.000000000000000000e+00 -5.087382747268145433e-01 5.988251312356392478e-03 2.075664366979428910e-01 0.000000000000000000e+00 0.000000000000000000e+00 -5.977456299305653475e-01
0.000000000000000000e+00 8.497647967411657566e-02 -1.726477116427238426e-03 2.062228208613225804e-03 1.050315155101773090e-01 0.000000000000000000e+00 2.999952036613156570e-01 1.826329054891292700e-03 1.898339912916238714e-02 -9.435960447976815546e-02 0.000000000000000000e+00 -4.908561077932230288e-01 4.074148095670901415e-03 -1.379258510670886007e-02 -4.953990655574380120e-01 0.000000000000000000e+00 2.003769030062109990e-01 1.595032841040135846e-02 -3.291212633292579792e-03 -5.952650182000120971e-01
0.000000000000000000e+00 8.480448956047149933e-02 0.000000000000000000e+00 0.000000000000000000e+00 9.611607304104646810e-02 0.000000000000000000e+00 2.881726932850470768e-01 0.000000000000000000e+00 0.000000000000000000e+00 -7.911863140279846995e-02 0.000000000000000000e+00 -4.856004660870463785e-01 0.000000000000000000e+00 0.000000000000000000e+00 -5.120634314123949649e-01 0.000000000000000000e+00 1.969350306713653631e-01 0.000000000000000000e+00 0.000000000000000000e+00 -6.080911803237528668e-01
0.000000000000000000e+00 9.972279005357448378e-02 -3.909769435239062244e-03 0.000000000000000000e+00 8.917389468696745869e-02 0.000000000000000000e+00 2.890136960236243668e-01 -5.579784677380745204e-03 0.000000000000000000e+00 -9.215580874014747681e-02 0.000000000000000000e+00 -4.847440987394494583e-01 -3.835161711438981637e-03 0.000000000000000000e+00 -4.973953562701678432e-01 0.000000000000000000e+00 2.088936884066275035e-01 -6.148031789384713827e-03 0.000000000000000000e+00 -6.011812763833092044e-01
0.000000000000000000e+00 8.544655992860085425e-02 0.000000000000000000e+00 0.000000000000000000e+00 9.149554247379468319e-02 0.000000000000000000e+00 3.038090045838729991e-01 0.000000000000000000e+00 0.000000000000000000e+00 -8.554615286577375854e-02 0.000000000000000000e+00 -4.873224710042701746e-01 0.000000000000000000e+00 0.000000000000000000e+00 -5.004474368483265989e-01 0.000000000000000000e+00 1.952990537587593056e-01 0.000000000000000000e+00 0.000000000000000000e+00 -6.011345244536810961e-01
0.000000000000000000e+00 9.356911652217263231e-02 5.183463341532221040e-03 2.455446961080198949e-03 9.581985536443463070e-02 0.000000000000000000e+00 2.968577711598012758e-01 -4.703918334908008085e-03 -1.687680029466659577e-03 -1.010015149359543146e-01 0.000000000000000000e+00 -4.907688105540404244e-01 -2.568067730413373714e-03 -8.577962072377078029e-03 -5.013195788461285440e-01 0.000000000000000000e+00 2.066657363047519347e-01 5.814473279026662576e-03 -5.894595048954189530e-04 -6.057913941152640591e-01
0.000000000000000000e+00 9.788127892892607707e-02 0.000000000000000000e+00 0.000000000000000000e+00 9.044517481017008698e-02 0.000000000000000000e+00 3.082838729284753665e-01 0.000000000000000000e+00 0.000000000000000000e+00 -9.693091018284716309e-02 0.000000000000000000e+00 -5.003798287638718811e-01 0.000000000000000000e+00 0.000000000000000000e+00 -4.923175791765739828e-01 0.000000000000000000e+00 2.064272932732252597e-01 0.000000000000000000e+00 0.000000000000000000e+00 -6.043376341385796602e-01
0.000000000000000000e+00 8.524492001997222013e-02 0.000000000000000000e+00 -3.334142574635532742e-04 9.639609508341107080e-02 0.000000000000000000e+00 3.051192450838680625e-01 0.000000000000000000e+00 5.720118106859426420e-03 -1.002702485348484773e-01 0.000000000000000000e+00 -4.942102054324392091e-01 0.000000000000000000e+00 2.233056040419773187e-03 -5.026659772529438186e-01 0.000000000000000000e+00 2.078574599130256217e-01 0.000000000000000000e+00 -2.707747352590227346e-03 -6.038900687873971496e-01
0.000000000000000000e+00 9.959933385876129641e-02 0.000000000000000000e+00 0.000000000000000000e+00 9.203656353260158962e-02 0.000000000000000000e+00 3.065579383490221188e-01 0.000000000000000000e+00 0.000000000000000000e+00 -9.974897352011784235e-02 0.000000000000000000e+00 -4.931330479241959330e-01 0.000000000000000000e+00 0.000000000000000000e+00 -4.933390391101851735e-01 0.000000000000000000e+00 2.011257347946389662e-01 0.000000000000000000e+00 0.000000000000000000e+00 -6.051629590394438374e-01
2.086821928674022220e-03 8.674177141644193179e-02 -5.498149804212919267e-03 -1.462033139530732190e-03 9.768298841784037179e-02 1.107012309807729918e-03 2.918557503088101135e-01 8.265043213923569526e-03 -2.376022719005536736e-03 -7.971556403468110785e-02 -6.058309317617861268e-04 -4.802642525373186921e-01 7.708951473475084137e-03 7.936572437927330928e-04 -5.037331204524958528e-01 5.543308593585039891e-03 2.094588946519677364e-01 1.395783843215632480e-02 2.557953574666906472e-04 -5.891156898909928330e-01
0.000000000000000000e+00 8.663571024263881648e-02 0.000000000000000000e+00 0.000000000000000000e+00 9.663001368631728150e-02 0.000000000000000000e+00 2.871570171901907109e-01 0.000000000000000000e+00 0.000000000000000000e+00 -9.246268688452347062e-02 0.000000000000000000e+00 -5.008162085713270262e-01 0.000000000000000000e+00 0.000000000000000000e+00 -4.908316264691852671e-01 0.000000000000000000e+00 2.177232781077658996e-01 0.000000000000000000e+00 0.000000000000000000e+00 -6.030747657739692347e-01
0.000000000000000000e+00 9.700220136125735360e-02 0.000000000000000000e+00 0.000000000000000000e+00 9.033107456055838869e-02 0.000000000000000000e+00 2.906394473383626109e-01 0.000000000000000000e+00 0.000000000000000000e+00 -9.010140738263952565e-02 0.000000000000000000e+00 -4.969609442952596656e-01 0.000000000000000000e+00 0.000000000000000000e+00 -4.995842003829965572e-01 0.000000000000000000e+00 1.880537930440305816e-01 0.000000000000000000e+00 0.000000000000000000e+00 -5.898002935958381876e-01
0.000000000000000000e+00 1.030596895854681561e-01 0.000000000000000000e+00 5.135526124316034530e-03 9.527706091960846946e-02 0.000000000000000000e+00 2.954530244224523039e-01 0.000000000000000000e+00 -5.189554114837322679e-03 -9.028234842559264284e-02 0.000000000000000000e+00 -5.021380909471389042e-01 0.000000000000000000e+00 -5.828840572319208581e-03 -4.957526076293582440e-01 0.000000000000000000e+00 2.027669945416240294e-01 0.000000000000000000e+00 -2.886938794228308472e-03 -5.941215320188154569e-01
1.130984537037450777e-03 8.995810814854317272e-02 -2.513564525289649701e-03 0.000000000000000000e+00 8.975470919465540487e-02 8.708067246556799174e-03 3.051762177879862037e-01 1.350181706798093267e-02 0.000000000000000000e+00 -9.353210938466102742e-02 -2.108296931807129154e-02 -5.093724387150971866e-01 -1.228481104708939453e-03 0.000000000000000000e+00 -4.982824124149322631e-01 2.997643754608477623e-03 2.056541343421711132e-01 -7.810443538139645939e-03 0.000000000000000000e+00 -6.223444414022148985e-01
0.000000000000000000e+00 8.946831469569140050e-02 0.000000000000000000e+00 -4.262513398035749218e-03 9.655743241605667382e-02 0.000000000000000000e+00 2.945082853529404909e-01 0.000000000000000000e+00 -8.773834135526778488e-03 -9.272973652396718225e-02 0.000000000000000000e+00 -4.999488829435763670e-01 0.000000000000000000e+00 7.420786605532416272e-03 -5.072015105815717018e-01 0.000000000000000000e+00 2.122956076783710511e-01 0.000000000000000000e+00 -5.653789386113897142e-03 -5.994559981601952359e-01
0.000000000000000000e+00 8.996183325051049229e-02 0.000000000000000000e+00 0.000000000000000000e+00 1.031082152294187093e-01 0.000000000000000000e+00 2.907297160345374554e-01 0.000000000000000000e+00 0.000000000000000000e+00 -8.204202150809387917e-02 0.000000000000000000e+00 -4.958437373412816207e-01 0.000000000000000000e+00 0.000000000000000000e+00 -5.103579165254896743e-01 0.000000000000000000e+00 1.971615857956355577e-01 0.000000000000000000e+00 0.000000000000000000e+00 -5.882238945808948571e-01
-1.675937592799918094e-02 8.193627660132681012e-02 -5.314259263585787742e-03 8.929485871853387255e-03 8.646922788407097882e-02 -1.393380060316034945e-02 3.013816852366423271e-01 -1.927737130690947327e-03 1.772560714046247585e-02 -1.040369775429815374e-01 1.767727950709318402e-02 -4.857787553920836499e-01 -1.600292706999702393e-03 -1.144165860166843768e-02 -4.930094751220224780e-01 -3.219880631377531471e-03 1.961161836522495594e-01 3.154009257221698087e-03 -9.243434328627783865e-05 -6.014221384004385662e-01
0.000000000000000000e+00 1.077436304682962559e-01 0.000000000000000000e+00 0.000000000000000000e+00 8.641963715420408754e-02 0.000000000000000000e+00 3.124004049472168254e-01 0.000000000000000000e+00 0.000000000000000000e+00 -9.307777664751426538e-02 0.000000000000000000e+00 -4.951176086459205816e-01 0.000000000000000000e+00 0.000000000000000000e+00 -5.020939323076538674e-01 0.000000000000000000e+00 2.118984242954907726e-01 0.000000000000000000e+00 0.000000000000000000e+00 -6.079202123118293555e-01
-1.336315567152010497e-03 9.540284697738647679e-02 -1.095099000924916119e-02 -5.337584575222695249e-03 9.596178552611168977e-02 -4.032202083919033536e-03 3.030217809819204522e-01 -4.424415480200467182e-03 9.605164031911700082e-03 -1.031508418690134793e-01 4.742880896976072944e-03 -4.921128784078933616e-01 -2.384111384343780282e-03 -1.237885145309692257e-02 -4.945203067154791410e-01 -8.093998517044133020e-04 2.092926178721853658e-01 6.708297516631920622e-03 -7.842896908096877451e-04 -6.067532847877281643e-01
0.000000000000000000e+00 9.552072267366752689e-02 0.000000000000000000e+00 0.000000000000000000e+00 1.094901053399649493e-01 0.000000000000000000e+00 3.088271223437607516e-01 0.000000000000000000e+00 0.000000000000000000e+00 -9.357808906666660598e-02 0.000000000000000000e+00 -4.949332978479851763e-01 0.000000000000000000e+00 0.000000000000000000e+00 -5.119823818704772878e-01 0.000000000000000000e+00 2.070845556301706969e-01 0.000000000000000000e+00 0.000000000000000000e+00 -5.926906014059126759e-01
0.000000000000000000e+00 1.022477637961115154e-01 0.000000000000000000e+00 0.000000000000000000e+00 9.810549026887256663e-02 0.000000000000000000e+00 2.965170182790838327e-01 0.000000000000000000e+00 0.000000000000000000e+00 -9.592835722242670782e-02 0.000000000000000000e+00 -4.959547011075974288e-01 0.000000000000000000e+00 0.000000000000000000e+00 -5.009653188289185932e-01 0.000000000000000000e+00 2.044584819265201914e-01 0.000000000000000000e+00 0.000000000000000000e+00 -5.958051251543720062e-01
-2.668517782728321158e-02 7.800237893603843842e-02 0.000000000000000000e+00 2.512218929509896226e-02 9.593165432004355231e-02 1.695296494755996197e-02 2.993231291959684293e-01 0.000000000000000000e+00 -1.399290364411550497e-03 -9.150204807077899627e-02 -2.431930381821485396e-02 -5.128579275424739459e-01 0.000000000000000000e+00 1.711190783144361446e-03 -5.086018168033888953e-01 -5.287028133829781498e-03 1.944914204416688663e-01 0.000000000000000000e+00 -1.581350020235030261e-03 -6.047455423723032686e-01
0.000000000000000000e+00 9.570878615180036797e-02 -1.264133989015176797e-03 0.000000000000000000e+00 9.049324045334984634e-02 0.000000000000000000e+00 2.941749636712130966e-01 7.586369516024737622e-03 0.000000000000000000e+00 -9.076151178513441886e-02 0.000000000000000000e+00 -4.947632764516258774e-01 -5.971245101241796222e-03 0.000000000000000000e+00 -5.065554435546673062e-01 0.000000000000000000e+00 2.037700538650758231e-01 4.886698200230053107e-03 0.000000000000000000e+00 -6.046206046659451383e-01
0.000000000000000000e+00 9.443645906639128174e-02 0.000000000000000000e+00 0.000000000000000000e+00 9.141105589624899663e-02 0.000000000000000000e+00 2.986338703976696984e-01 0.000000000000000000e+00 0.000000000000000000e+00 -1.087466210676894529e-01 0.000000000000000000e+00 -4.912019599407689285e-01 0.000000000000000000e+00 0.000000000000000000e+00 -5.184483756069474536e-01 0.000000000000000000e+00 1.975912121291301948e-01 0.000000000000000000e+00 0.000000000000000000e+00 -6.003597621018270658e-01
0.000000000000000000e+00 8.498826104563615702e-02 -7.513503485543120836e-03 -7.294123626077704883e-03 9.319309656346626280e-02 0.000000000000000000e+00 3.017119181171493136e-01 -1.339234954504235978e-03 6.215327895772229487e-03 -1.021796424784927465e-01 0.000000000000000000e+00 -4.931177049102725696e-01 -2.718966661962293318e-03 -8.539701031863317776e-05 -5.089299432888596542e-01 0.000000000000000000e+00 2.165172042290315901e-01 1.471109366723877265e-02 4.370839062458760013e-03 -6.107496871087397805e-01
0.000000000000000000e+00 1.036296269976194895e-01 0.000000000000000000e+00 0.000000000000000000e+00 9.237244686237566782e-02 0.000000000000000000e+00 2.803177856236468979e-01 0.000000000000000000e+00 0.000000000000000000e+00 -9.443293926316220777e-02 0.000000000000000000e+00 -4.955027902536956463e-01 0.000000000000000000e+00 0.000000000000000000e+00 -5.110458623679420276e-01 0.000000000000000000e+00 1.927922080891971979e-01 0.000000000000000000e+00 0.000000000000000000e+00 -5.886397727181708062e-01
0.000000000000000000e+00 9.937155489999019431e-02 0.000000000000000000e+00 0.000000000000000000e+00 9.118727397033715709e-02 0.000000000000000000e+00 2.979566026941589119e-01 0.000000000000000000e+00 0.000000000000000000e+00 -9.159459976754504018e-02 0.000000000000000000e+00 -4.968524952000611949e-01 0.000000000000000000e+00 0.000000000000000000e+00 -5.146334532307611509e-01 0.000000000000000000e+00 2.011210242756230615e-01 0.000000000000000000e+00 0.000000000000000000e+00 -6.040381555594032115e-01
0.000000000000000000e+00 8.165470636517155323e-02 -1.551753077972281222e-02 -1.133381890807137575e-02 9.120751703736965088e-02 0.000000000000000000e+00 3.006925275056673841e-01 -3.867046471131791417e-03 2.549949847807467598e-03 -9.930223243098658392e-02 0.000000000000000000e+00 -4.979857728960238594e-01 -1.002854046352794938e-02 -5.576892767805737353e-03 -5.013189369967980813e-01 0.000000000000000000e+00 1.977477459181167518e-01 -3.263972766749211399e-03 -6.582299888755204637e-03 -6.053295633756592409e-01
0.000000000000000000e+00 1.018072596755377479e-01 0.000000000000000000e+00 0.000000000000000000e+00 8.382110052280813961e-02 0.000000000000000000e+00 3.055465993449003048e-01 0.000000000000000000e+00 0.000000000000000000e+00 -9.175437832124705428e-02 0.000000000000000000e+00 -4.902992677804963173e-01 0.000000000000000000e+00 0.000000000000000000e+00 -4.978987011156652542e-01 0.000000000000000000e+00 2.022381568564990129e-01 0.000000000000000000e+00 0.000000000000000000e+00 -6.003690656733127184e-01
0.000000000000000000e+00 9.513763431836065598e-02 0.000000000000000000e+00 0.000000000000000000e+00 9.031000250193066403e-02 0.000000000000000000e+00 3.005677441952905316e-01 0.000000000000000000e+00 0.000000000000000000e+00 -9.606337469615441882e-02 0.000000000000000000e+00 -5.018185503059625630e-01 0.000000000000000000e+00 0.000000000000000000e+00 -5.002013948478152283e-01 0.000000000000000000e+00 1.935899275003435116e-01 0.000000000000000000e+00 0.000000000000000000e+00 -5.907845881452602477e-01
-1.404727166955642079e-02 7.500574499382108018e-02 -1.146233369935083582e-02 0.000000000000000000e+00 9.647814472013492570e-02 5.264967095834101676e-03 3.031359235204115210e-01 -1.874638739114703120e-03 0.000000000000000000e+00 -9.314270035768125455e-02 7.724982611037036970e-03 -4.887609485371630091e-01 4.544454501020412512e-03 0.000000000000000000e+00 -5.007772740819201873e-01 1.248557973943620510e-02 2.239934465938637209e-01 1.389440362899618114e-02 0.000000000000000000e+00 -6.125675659555964714e-01
0.000000000000000000e+00 7.103887112080803368e-02 0.000000000000000000e+00 1.010379629517230496e-02 9.333213962578733314e-02 0.000000000000000000e+00 3.010022947320281639e-01 0.000000000000000000e+00 -6.515253486125251528e-03 -9.675334963608961392e-02 0.000000000000000000e+00 -4.941181289334143911e-01 0.000000000000000000e+00 -8.191431561090247934e-03 -5.051730620952075146e-01 0.000000000000000000e+00 1.999283504272647838e-01 0.000000000000000000e+00 8.725662847501609171e-04 -6.076336607261532130e-01
-1.998993304855352371e-02 8.477109492690271253e-02 -8.427254701294753514e-03 0.000000000000000000e+00 9.730981284043185853e-02 -4.539281842540564271e-03 2.972904538779184702e-01 2.414323379423552809e-04 0.000000000000000000e+00 -9.740373060013142459e-02 -8.535038100699873787e-03 -4.968476237477089108e-01 6.910312384384137419e-03 0.000000000000000000e+00 -4.980126693282222461e-01 -7.963468551287518696e-03 2.004392052602360919e-01 8.621365109407110733e-04 0.000000000000000000e+00 -6.076715600819889707e-01
0.000000000000000000e+00 1.017848135833950701e-01 0.000000000000000000e+00 0.000000000000000000e+00 9.061815455468817671e-02 0.000000000000000000e+00 2.835391938410697366e-01 0.000000000000000000e+00 0.000000000000000000e+00 -8.963663854910287887e-02 0.000000000000000000e+00 -4.958821631652677309e-01 0.000000000000000000e+00 0.000000000000000000e+00 -4.990909865953468416e-01 0.000000000000000000e+00 2.044089505906713511e-01 0.000000000000000000e+00 0.000000000000000000e+00 -6.050836267640040678e-01
-3.129442809063050224e-02 7.317459461403216792e-02 -7.818196453565670612e-03 1.313908874142482794e-02 8.266706247654037609e-02 6.564380419950244586e-03 3.056185616136289362e-01 -1.883235148871373159e-03 4.838637430363261320e-03 -1.042097407279797827e-01 2.380449287124894800e-03 -4.921787585174975388e-01 -9.042448821169503728e-03 -9.634262576976984627e-03 -4.978304118409405121e-01 2.003758220177099397e-02 2.200040795713895381e-01 1.532683445788975141e-03 -1.274916908282285218e-02 -5.920171897116008886e-01
0.000000000000000000e+00 9.153588248556809859e-02 0.000000000000000000e+00 0.000000000000000000e+00 9.990384559165525757e-02 0.000000000000000000e+00 2.964673125627821371e-01 0.000000000000000000e+00 0.000000000000000000e+00 -9.986792286906530369e-02 0.000000000000000000e+00 -5.042621999964994606e-01 0.000000000000000000e+00 0.000000000000000000e+00 -4.947149407718740566e-01 0.000000000000000000e+00 2.044683808383688794e-01 0.000000000000000000e+00 0.000000000000000000e+00 -6.093550297228372825e-01
-5.763763509763357266e-03 1.004851146127782313e-01 0.000000000000000000e+00 0.000000000000000000e+00 9.082682278813462851e-02 -1.366308022840889008e-02 2.888652330364638310e-01 0.000000000000000000e+00 0.000000000000000000e+00 -8.985491455570075725e-02 -1.287877657976371250e-02 -4.985286944829133149e-01 0.000000000000000000e+00 0.000000000000000000e+00 -5.071477676281407332e-01 -1.313028808437686958e-03 1.965451364752216490e-01 0.000000000000000000e+00 0.000000000000000000e+00 -5.980509296688283349e-01
0.000000000000000000e+00 8.673191401299271130e-02 2.974594059157698814e-04 0.000000000000000000e+00 1.051589997977098317e-01 0.000000000000000000e+00 2.981745899784762899e-01 -3.540045118241895786e-04 0.000000000000000000e+00 -9.697873516526298032e-02 0.000000000000000000e+00 -4.957840102191189424e-01 7.067756302541970334e-03 0.000000000000000000e+00 -4.946600477901301751e-01 0.000000000000000000e+00 1.967333630340718786e-01 4.018836168233091109e-03 0.000000000000000000e+00 -5.942075477725032862e-01
-1.247449952223889796e-02 9.530162643439143988e-02 0.000000000000000000e+00 8.659983937662485420e-03 9.419129493025005240e-02 -2.923743537988961021e-03 2.950774269064768696e-01 0.000000000000000000e+00 2.692876036279575128e-03 -9.608902210973724323e-02 -2.251939428259333055e-03 -4.912750956993791052e-01 0.000000000000000000e+00 -2.091934743235414340e-03 -5.003557863102281456e-01 1.178285186004931519e-02 2.167483483060374805e-01 0.000000000000000000e+00 -7.687962369556963597e-03 -6.052933993777708244e-01
0.000000000000000000e+00 9.675396837160223085e-02 4.244082603767917322e-03 0.000000000000000000e+00 1.050785703340276489e-01 0.000000000000000000e+00 2.940131030998628381e-01 -3.005670282181180548e-03 0.000000000000000000e+00 -9.296263591188896891e-02 0.000000000000000000e+00 -4.891545658741230929e-01 2.553757504303486373e-03 0.000000000000000000e+00 -4.949650928149932905e-01 0.000000000000000000e+00 2.127906501958758412e-01 1.576566986427852674e-02 0.000000000000000000e+00 -5.966644483797383103e-01
-2.213153255949096981e-02 7.863404148480684919e-02 0.000000000000000000e+00 9.816528109085462597e-03 8.862281228713281278e-02 4.598071714824493450e-04 3.040628573867759643e-01 0.000000000000000000e+00 4.402121601364704720e-03 -8.978644766725576987e-02 -3.948498467975193257e-03 -4.912532765924536582e-01 0.000000000000000000e+00 -4.050728336411500187e-03 -5.028684314835532021e-01 4.397619292927726527e-03 2.073130624878079531e-01 0.000000000000000000e+00 -1.245206489105911765e-02 -5.903826760936068396e-01
0.000000000000000000e+00 1.087978475888060209e-01 1.372392112447235780e-02 0.000000000000000000e+00 1.002406541413166097e-01 0.000000000000000000e+00 2.948305180386722180e-01 6.043298381314143354e-03 0.000000000000000000e+00 -9.731318296269604595e-02 0.000000000000000000e+00 -4.849819780117351486e-01 9.415150001689387080e-03 0.000000000000000000e+00 -5.027219089615714287e-01 0.000000000000000000e+00 1.887740110245162140e-01 -4.980109046787558127e-03 0.000000000000000000e+00 -6.120537843782958287e-01
0.000000000000000000e+00 8.844786357078475436e-02 0.000000000000000000e+00 2.442734167929670828e-03 1.002937668558579049e-01 0.000000000000000000e+00 2.941515182401790440e-01 0.000000000000000000e+00 -5.681712443169084983e-03 -9.469573963107312531e-02 0.000000000000000000e+00 -4.960191320414981675e-01 0.000000000000000000e+00 -1.019921630612382474e-02 -4.855956414978991331e-01 0.000000000000000000e+00 2.165989566794634114e-01 0.000000000000000000e+00 -5.552291936315300463e-03 -6.113774985944707696e-01
-9.440563449498434040e-03 8.451337685474138994e-02 -7.063884265675572996e-03 0.000000000000000000e+00 9.013146302694537149e-02 6.905549745134347862e-03 2.946722417754967238e-01 1.088998189294254973e-02 0.000000000000000000e+00 -8.354092500374153685e-02 -1.319228931189679946e-02 -5.022934638016426367e-01 -7.097825661486311354e-03 0.000000000000000000e+00 -5.064508349623257910e-01 -8.993050845620282827e-03 2.015336396099390581e-01 5.161672936193042321e-03 0.000000000000000000e+00 -5.902058888243634227e-01
0.000000000000000000e+00 1.071763736457673755e-01 0.000000000000000000e+00 7.877272767174484797e-03 6.880197641308466450e-02 0.000000000000000000e+00 3.039079999202277116e-01 0.000000000000000000e+00 1.252558239926183925e-04 -1.053233909867201390e-01 0.000000000000000000e+00 -4.979413543435504685e-01 0.000000000000000000e+00 -1.175936880462781498e-02 -5.036611187572760384e-01 0.000000000000000000e+00 1.897725652195602353e-01 0.000000000000000000e+00 -3.104826349233828775e-02 -5.928363593907814977e-01
0.000000000000000000e+00 1.045750484646430500e-01 0.000000000000000000e+00 0.000000000000000000e+00 8.656599558259485405e-02 0.000000000000000000e+00 3.049963538149392805e-01 0.000000000000000000e+00 0.000000000000000000e+00 -1.023512041861942834e-01 0.000000000000000000e+00 -5.053271010731309465e-01 0.000000000000000000e+00 0.000000000000000000e+00 -4.903619594407789828e-01 0.000000000000000000e+00 2.062262344432699290e-01 0.000000000000000000e+00 0.000000000000000000e+00 -5.986890945541829545e-01
0.000000000000000000e+00 9.483831957477564800e-02 -1.040388028010250966e-03 1.125742022462656103e-02 8.966291056642997082e-02 0.000000000000000000e+00 3.080220137899324917e-01 7.845914166972233622e-03 -5.500318741178235674e-05 -1.020091589394770820e-01 0.000000000000000000e+00 -5.028412977849414656e-01 3.958585908603972150e-03 -1.045919101319173032e-02 -4.852054215035433993e-01 0.000000000000000000e+00 2.160043753689057655e-01 9.549326675093498806e-03 5.783000219922564480e-03 -6.165582407259319053e-01
1.276032035747637350e-03 9.388788069215121823e-02 0.000000000000000000e+00 0.000000000000000000e+00 8.972729502808768354e-02 4.180471043034953912e-03 3.081809349657066988e-01 0.000000000000000000e+00 0.000000000000000000e+00 -8.939337965578747491e-02 -2.473606392449168370e-04 -4.986452373734001631e-01 0.000000000000000000e+00 0.000000000000000000e+00 -5.007933074283964503e-01 -2.476548701336147434e-03 2.133425298513081658e-01 0.000000000000000000e+00 0.000000000000000000e+00 -6.093099077162990040e-01
0.000000000000000000e+00 9.981555718411733169e-02 2.770275455547036719e-03 -4.371558793450309142e-03 9.668825907472756997e-02 0.000000000000000000e+00 2.960803207209850019e-01 -9.843009682257708448e-03 -1.092657975422787683e-02 -1.024700518897612156e-01 0.000000000000000000e+00 -5.029176529822378949e-01 -5.149633705345746035e-04 -2.065340729747340391e-03 -5.024833205479755094e-01 0.000000000000000000e+00 2.086341635612072587e-01 8.015488124169500503e-03 3.607373358567785362e-03 -5.989644683915138490e-01
-3.182150480940923280e-03 8.053682624144153923e-02 0.000000000000000000e+00 0.000000000000000000e+00 9.357784665897143916e-02 6.141336767206142210e-04 2.989318593673562230e-01 0.000000000000000000e+00 0.000000000000000000e+00 -1.042763519142730216e-01 -8.721184780995212826e-03 -4.960718103049260863e-01 0.000000000000000000e+00 0.000000000000000000e+00 -5.097453892329468772e-01 -3.155672528694867390e-03 2.109384538434646572e-01 0.000000000000000000e+00 0.000000000000000000e+00 -6.207771585902633893e-01
0.000000000000000000e+00 9.915662223880371273e-02 0.000000000000000000e+00 1.475402310769452930e-03 8.846776342127131432e-02 0.000000000000000000e+00 2.994939094838401927e-01 0.000000000000000000e+00 1.031315555190721184e-02 -9.185507520232666367e-02 0.000000000000000000e+00 -4.967348543134501582e-01 0.000000000000000000e+00 1.323341853888339997e-02 -4.921991548133426431e-01 0.000000000000000000e+00 1.949905011911604591e-01 0.000000000000000000e+00 -6.444879738530488213e-03 -6.033134638348451873e-01
3.478199772956129185e-03 9.221492179317737625e-02 3.195250573674784933e-03 0.000000000000000000e+00 1.018988630776813537e-01 -4.786118686082538667e-03 2.899747858672544476e-01 -9.475054782869573103e-03 0.000000000000000000e+00 -8.560368526292257141e-02 3.306142226164945908e-03 -4.882467995606604161e-01 -7.477010883037880744e-03 0.000000000000000000e+00 -4.941604793065977330e-01 -2.805920404523798081e-03 1.903608830076810310e-01 1.051214375140521393e-02 0.000000000000000000e+00 -6.058639880489908869e-01
0.000000000000000000e+00 1.036975092074216842e-01 0.000000000000000000e+00 6.302235961093821497e-03 9.894809127769566004e-02 0.000000000000000000e+00 2.922711412086179683e-01 0.000000000000000000e+00 6.671140019991243786e-03 -9.837591391411397435e-02 0.000000000000000000e+00 -4.964850444864786772e-01 0.000000000000000000e+00 -1.370005366871490139e-02 -4.968644132339781749e-01 0.000000000000000000e+00 2.140064750607030830e-01 0.000000000000000000e+00 3.233325645725791848e-04 -6.164088155280323944e-01
-2.299146625437322334e-04 1.028523210333879834e-01 0.000000000000000000e+00 0.000000000000000000e+00 9.285484635208549054e-02 8.757846009976939967e-04 3.038056274526030887e-01 0.000000000000000000e+00 0.000000000000000000e+00 -1.041273237029401444e-01 -1.160602872181735329e-02 -4.937198630823794177e-01 0.000000000000000000e+00 0.000000000000000000e+00 -4.989931350724655101e-01 8.395255016186897647e-04 1.971968478661751123e-01 0.000000000000000000e+00 0.000000000000000000e+00 -6.004488447436596710e-01
0.000000000000000000e+00 8.988353766523368704e-02 0.000000000000000000e+00 0.000000000000000000e+00 9.597901915705010778e-02 0.000000000000000000e+00 2.974543230173954944e-01 0.000000000000000000e+00 0.000000000000000000e+00 -9.865042607665609753e-02 0.000000000000000000e+00 -5.033015810350420782e-01 0.000000000000000000e+00 0.000000000000000000e+00 -4.941630178781278859e-01 0.000000000000000000e+00 2.025176594882924230e-01 0.000000000000000000e+00 0.000000000000000000e+00 -5.982154484879230738e-01
0.000000000000000000e+00 8.477970599660303308e-02 -1.410914330164827210e-03 0.000000000000000000e+00 9.821336219805411327e-02 0.000000000000000000e+00 2.979914751685379115e-01 1.917193606933221411e-02 0.000000000000000000e+00 -8.769572134847412881e-02 0.000000000000000000e+00 -4.783425978902250408e-01 1.965408855317606757e-03 0.000000000000000000e+00 -5.034765964242321479e-01 0.000000000000000000e+00 1.978399587483689881e-01 1.521569515018297500e-03 0.000000000000000000e+00 -5.967853948429930888e-01
-2.036426380248677545e-02 8.455966145328960848e-02 0.000000000000000000e+00 0.000000000000000000e+00 8.602305785846910136e-02 1.359430881312040026e-02 3.174245815779889179e-01 0.000000000000000000e+00 0.000000000000000000e+00 -9.569054770691580447e-02 -1.281291032862656200e-02 -5.008137173201757664e-01 0.000000000000000000e+00 0.000000000000000000e+00 -5.037227384191603763e-01 2.565231662492060190e-03 2.027063655588354218e-01 0.000000000000000000e+00 0.000000000000000000e+00 -5.934477900751385926e-01
0.000000000000000000e+00 1.040316662777979323e-01 0.000000000000000000e+00 -2.938077171262873551e-03 9.498448285681654335e-02 0.000000000000000000e+00 2.990749664921689144e-01 0.000000000000000000e+00 1.037539020138131089e-02 -8.600572093069898394e-02 0.000000000000000000e+00 -5.105055927568619145e-01 0.000000000000000000e+00 -5.132590007177619852e-03 -4.984611580969454114e-01 0.000000000000000000e+00 2.055006602529878545e-01 0.000000000000000000e+00 -5.879164762158365157e-03 -6.066911129200346364e-01
1.037257565572349480e-02 8.889472221760708059e-02 9.067722316580210246e-04 0.000000000000000000e+00 9.798262589965058000e-02 1.202252071162397684e-02 2.959318689229541999e-01 -4.393910619698428860e-03 0.000000000000000000e+00 -9.566639415601679852e-02 -1.393732511047470791e-02 -5.020189369028489335e-01 -5.816882812001196099e-03 0.000000000000000000e+00 -5.055708544232684343e-01 9.632632188137157242e-03 2.161325418954093691e-01 2.093111085056756360e-02 0.000000000000000000e+00 -6.006585902249153008e-01
0.000000000000000000e+00 9.552631277707010482e-02 0.000000000000000000e+00 0.000000000000000000e+00 8.430604332869769124e-02 0.000000000000000000e+00 3.032720853258773497e-01 0.000000000000000000e+00 0.000000000000000000e+00 -9.684258154443627087e-02 0.000000000000000000e+00 -4.882872305444722061e-01 0.000000000000000000e+00 0.000000000000000000e+00 -5.034383382856860711e-01 0.000000000000000000e+00 2.125283373895203443e-01 0.000000000000000000e+00 0.000000000000000000e+00 -6.041658464896741965e-01
-3.395936789226762509e-02 6.809139016250645438e-02 0.000000000000000000e+00 2.621789187896369014e-02 8.667189002077688165e-02 -2.441064941492910798e-02 2.839682236195022469e-01 0.000000000000000000e+00 1.261136985849926895e-02 -9.521835483169191483e-02 -1.210726201171312411e-02 -5.030128988327076112e-01 0.000000000000000000e+00 7.616680117512729387e-03 -4.977207921520890310e-01 2.466741357871827384e-03 2.037434573529458004e-01 0.000000000000000000e+00 -9.422425872219756388e-03 -5.947364272079337377e-01
0.000000000000000000e+00 9.590172605718318144e-02 0.000000000000000000e+00 0.000000000000000000e+00 9.754929897512473747e-02 0.000000000000000000e+00 3.032136727308497592e-01 0.000000000000000000e+00 0.000000000000000000e+00 -9.903509304763249976e-02 0.000000000000000000e+00 -4.973989631388391341e-01 0.000000000000000000e+00 0.000000000000000000e+00 -4.969896139625996634e-01 0.000000000000000000e+00 2.185577598699361690e-01 0.000000000000000000e+00 0.000000000000000000e+00 -6.071577907461730428e-01
0.000000000000000000e+00 9.316255483841683060e-02 0.000000000000000000e+00 1.165719821494918922e-02 9.100291865309620420e-02 0.000000000000000000e+00 2.996381643607157752e-01 0.000000000000000000e+00 -6.588513643700518937e-03 -9.505303850482721417e-02 0.000000000000000000e+00 -5.049295522773226130e-01 0.000000000000000000e+00 -8.380393756869087239e-04 -4.971149767211670012e-01 0.000000000000000000e+00 1.990046975103750004e-01 0.000000000000000000e+00 5.855974961861641452e-03 -6.006449262421877933e-01
0.000000000000000000e+00 9.975182970109079672e-02 0.000000000000000000e+00 0.000000000000000000e+00 9.321728492872714822e-02 0.000000000000000000e+00 2.970958971476973520e-01 0.000000000000000000e+00 0.000000000000000000e+00 -9.989025889509668688e-02 0.000000000000000000e+00 -4.944062418627439559e-01 0.000000000000000000e+00 0.000000000000000000e+00 -5.046661420470273107e-01 0.000000000000000000e+00 2.105201961588210602e-01 0.000000000000000000e+00 0.000000000000000000e+00 -6.099202864658629375e-01
2.543406444977395001e-04 9.169399729741091465e-02 4.721250911088260144e-03 0.000000000000000000e+00 1.044861033264058575e-01 6.241547341793872786e-03 3.042167895074052719e-01 4.337439389747461092e-03 0.000000000000000000e+00 -8.820822233382324962e-02 1.041286361981624137e-03 -4.998873701742401754e-01 6.556484984302728310e-03 0.000000000000000000e+00 -4.961034735139471241e-01 4.685688743861584661e-03 2.097623404437275185e-01 -4.610646549837758151e-03 0.000000000000000000e+00 -5.941049531961486441e-01
0.000000000000000000e+00 9.498589083131696309e-02 0.000000000000000000e+00 0.000000000000000000e+00 9.893496690678406369e-02 0.000000000000000000e+00 3.030264822901258537e-01 0.000000000000000000e+00 0.000000000000000000e+00 -9.762605910432173295e-02 0.000000000000000000e+00 -4.941103119483745143e-01 0.000000000000000000e+00 0.000000000000000000e+00 -4.954980998844623619e-01 0.000000000000000000e+00 2.066010229431170520e-01 0.000000000000000000e+00 0.000000000000000000e+00 -6.065744836738647949e-01
0.000000000000000000e+00 1.081657894552429250e-01 -7.258531515677067378e-03 0.000000000000000000e+00 8.899081777037462504e-02 0.000000000000000000e+00 3.011143266863773316e-01 7.055755789243064492e-03 0.000000000000000000e+00 -9.056694337954314389e-02 0.000000000000000000e+00 -4.859242729968510366e-01 -7.595176122033310898e-03 0.000000000000000000e+00 -5.066609552138080508e-01 0.000000000000000000e+00 1.915550804361349502e-01 -6.423034599189634750e-03 0.000000000000000000e+00 -6.055629371253551385e-01
0.000000000000000000e+00 8.207353381185053531e-02 0.000000000000000000e+00 0.000000000000000000e+00 9.130119036646786035e-02 0.000000000000000000e+00 2.970112929410886338e-01 0.000000000000000000e+00 0.000000000000000000e+00 -9.057826858024066452e-02 0.000000000000000000e+00 -4.881569827464428135e-01 0.000000000000000000e+00 0.000000000000000000e+00 -5.001917480885469391e-01 0.000000000000000000e+00 2.071672134755318806e-01 0.000000000000000000e+00 0.000000000000000000e+00 -6.064259386621905223e-01
-1.439299385490389223e-02 7.784115660479826171e-02 0.000000000000000000e+00 -4.293124406973738288e-03 8.826033432352797803e-02 6.156442460782311429e-03 2.975671152271694431e-01 0.000000000000000000e+00 2.259549703181572451e-03 -9.231061931391355835e-02 -1.850658724958953449e-02 -5.020245572518224897e-01 0.000000000000000000e+00 9.057839445456529123e-03 -5.105310142805534745e-01 1.546535145609674068e-02 2.192715655381547724e-01 0.000000000000000000e+00 -9.403317003424022796e-03 -6.024351395693309241e-01
0.000000000000000000e+00 9.025261340148132971e-02 -4.117522642478820341e-03 0.000000000000000000e+00 8.973193193065595596e-02 0.000000000000000000e+00 2.923266723660340460e-01 -5.207960240811986864e-03 0.000000000000000000e+00 -9.934494148289726989e-02 0.000000000000000000e+00 -5.008508517980211350e-01 1.131097363553381675e-02 0.000000000000000000e+00 -4.852444897907735033e-01 0.000000000000000000e+00 1.941537423070935076e-01 2.795818825194394848e-03 0.000000000000000000e+00 -5.874906216431270423e-01
-1.934214091734688667e-02 9.118608515377563117e-02 0.000000000000000000e+00 2.002700349933980717e-02 9.798640724162981097e-02 -3.069364264957527219e-02 2.815513667718604340e-01 0.000000000000000000e+00 3.578700138479341125e-02 -1.003175150211511601e-01 -5.253860879716101134e-04 -4.937860560971160107e-01 0.000000000000000000e+00 4.426797102736770156e-03 -5.131273063846923943e-01 -2.129110937346970212e-02 1.934132280708195650e-01 0.000000000000000000e+00 1.891791322578461818e-02 -6.075476774176171713e-01
0.000000000000000000e+00 1.095311767085735133e-01 0.000000000000000000e+00 0.000000000000000000e+00 9.394617060902871186e-02 0.000000000000000000e+00 2.993918769825264503e-01 0.000000000000000000e+00 0.000000000000000000e+00 -9.671873240226729063e-02 0.000000000000000000e+00 -4.913944704206613112e-01 0.000000000000000000e+00 0.000000000000000000e+00 -5.004640648038145567e-01 0.000000000000000000e+00 1.996418780421411188e-01 0.000000000000000000e+00 0.000000000000000000e+00 -5.978978552101663624e-01
-2.311891205491065082e-02 7.676460213229222007e-02 -4.994740759140432057e-03 4.208330288473956238e-03 1.077649255229291975e-01 1.600962223285824770e-02 3.198646502958126248e-01 -4.165486800567129444e-03 -1.203259590602506757e-02 -9.951087540451107605e-02 -2.157081425308928196e-03 -5.000567521720585829e-01 -1.001477489312600083e-02 -1.778621594620888660e-02 -4.967906990931443834e-01 4.163993781023903745e-02 2.424703175782648990e-01 -2.498197575560481831e-03 -3.136965618935244615e-02 -5.914569265746936200e-01
0.000000000000000000e+00 9.887651579143441616e-02 0.000000000000000000e+00 0.000000000000000000e+00 8.575524413657092948e-02 0.000000000000000000e+00 2.977407352696703757e-01 0.000000000000000000e+00 0.000000000000000000e+00 -1.044789872105681416e-01 0.000000000000000000e+00 -4.875819865351454507e-01 0.000000000000000000e+00 0.000000000000000000e+00 -5.022714513274030290e-01 0.000000000000000000e+00 2.049622955730550922e-01 0.000000000000000000e+00 0.000000000000000000e+00 -6.093312654891572810e-01
0.000000000000000000e+00 9.289702274849101493e-02 0.000000000000000000e+00 0.000000000000000000e+00 9.384039891216991447e-02 0.000000000000000000e+00 2.977714192677753946e-01 0.000000000000000000e+00 0.000000000000000000e+00 -9.141489647006700858e-02 0.000000000000000000e+00 -4.877050240975548956e-01 0.000000000000000000e+00 0.000000000000000000e+00 -5.010187063445555866e-01 0.000000000000000000e+00 2.098462905782377541e-01 0.000000000000000000e+00 0.000000000000000000e+00 -6.135636825112110726e-01
-3.991264723191596461e-03 9.066513787749602704e-02 -2.362827536847286747e-03 0.000000000000000000e+00 8.934081220925754740e-02 -4.754996366871381414e-03 2.871431253383833759e-01 -1.462898351027316912e-02 0.000000000000000000e+00 -9.202707865808272547e-02 -2.161584584775492687e-02 -5.154739099354828102e-01 -2.207049382895202166e-02 0.000000000000000000e+00 -5.036799664123682296e-01 1.621743202445894566e-02 2.168990966661500375e-01 1.904599718121857341e-02 0.000000000000000000e+00 -6.003376138352374269e-01
0.000000000000000000e+00 9.233201068503534004e-02 0.000000000000000000e+00 -2.795399256513632878e-03 1.088323529545674739e-01 0.000000000000000000e+00 3.019340425105088710e-01 0.000000000000000000e+00 2.387887877034527463e-03 -8.884843973491284019e-02 0.000000000000000000e+00 -4.971417671310993658e-01 0.000000000000000000e+00 -7.243438390889178277e-03 -5.002914122124590968e-01 0.000000000000000000e+00 1.958076782749024192e-01 0.000000000000000000e+00 -3.129342470229677046e-03 -5.931030457424797397e-01
0.000000000000000000e+00 8.861008981976843668e-02 -2.516636846884170910e-03 0.000000000000000000e+00 1.025193149082185007e-01 0.000000000000000000e+00 2.878610377611682813e-01 -7.339995208084006822e-03 0.000000000000000000e+00 -9.563307140961133102e-02 0.000000000000000000e+00 -4.944719210428439315e-01 1.541287129330714753e-02 0.000000000000000000e+00 -5.028610199273236825e-01 0.000000000000000000e+00 1.947509826403401867e-01 5.229044171225894107e-03 0.000000000000000000e+00 -6.027570151093595285e-01
-8.791396453230652594e-03 8.985919402462751171e-02 0.000000000000000000e+00 -1.960695545041558907e-03 9.403410004258956623e-02 3.879101280852692568e-02 3.210013204018621336e-01 0.000000000000000000e+00 -2.134866248633367561e-02 -8.863339281133397751e-02 3.732998585943945666e-03 -4.954642215398515348e-01 0.000000000000000000e+00 3.106345937394261111e-03 -4.928840626701576078e-01 -3.106820852759848567e-02 1.913169153478621876e-01 0.000000000000000000e+00 2.648438580367947978e-02 -6.114087193649322405e-01
0.000000000000000000e+00 9.500451853820529591e-02 0.000000000000000000e+00 0.000000000000000000e+00 9.912371143011605712e-02 0.000000000000000000e+00 2.972109119669977262e-01 0.000000000000000000e+00 0.000000000000000000e+00 -9.586379947820225511e-02 0.000000000000000000e+00 -4.999467286391624521e-01 0.000000000000000000e+00 0.000000000000000000e+00 -4.988438491292732646e-01 0.000000000000000000e+00 2.109497307022611678e-01 0.000000000000000000e+00 0.000000000000000000e+00 -6.044574789697009232e-01
0.000000000000000000e+00 9.873265337378384077e-02 0.000000000000000000e+00 2.205796460346512097e-03 9.873762286981666025e-02 0.000000000000000000e+00 3.028229979708586539e-01 0.000000000000000000e+00 -4.292859281860552691e-03 -9.094202439139420502e-02 0.000000000000000000e+00 -4.972967111084053426e-01 0.000000000000000000e+00 -8.636528078686294546e-03 -4.936844554959978204e-01 0.000000000000000000e+00 2.060573190794290355e-01 0.000000000000000000e+00 3.230951286633804501e-03 -6.008479477557129300e-01
-9.322118094660462526e-03 8.944208323664096238e-02 -5.778568893874515625e-04 0.000000000000000000e+00 9.674315285208405502e-02 5.797755701096903545e-03 3.001057828631463198e-01 -3.280370440724201392e-03 0.000000000000000000e+00 -9.323497391950467950e-02 -3.592846132224112535e-03 -4.920453345791659938e-01 8.058946815988291684e-04 0.000000000000000000e+00 -5.028694264218351861e-01 -1.160029762221425655e-03 2.014447333828670306e-01 -3.829123821579044629e-03 0.000000000000000000e+00 -6.035675335490501281e-01
0.000000000000000000e+00 9.810957566428142596e-02 0.000000000000000000e+00 -4.051383972246906662e-03 9.353822677851826584e-02 0.000000000000000000e+00 3.090844417553874068e-01 0.000000000000000000e+00 5.491456992334413020e-03 -1.062277894594558514e-01 0.000000000000000000e+00 -4.972165267558564250e-01 0.000000000000000000e+00 -1.348966559709756721e-02 -5.001755447265040511e-01 0.000000000000000000e+00 2.043658378895811256e-01 0.000000000000000000e+00 -1.949854535445176475e-06 -6.019828075702025050e-01
0.000000000000000000e+00 9.334682520747478174e-02 0.000000000000000000e+00 0.000000000000000000e+00 9.337041652213258491e-02 0.000000000000000000e+00 3.016549205979424109e-01 0.000000000000000000e+00 0.000000000000000000e+00 -1.016102086059377657e-01 0.000000000000000000e+00 -4.975890437212704964e-01 0.000000000000000000e+00 0.000000000000000000e+00 -5.015184079384054083e-01 0.000000000000000000e+00 2.064367956864478770e-01 0.000000000000000000e+00 0.000000000000000000e+00 -6.015327069799951687e-01
0.000000000000000000e+00 9.814441926555789175e-02 0.000000000000000000e+00 0.000000000000000000e+00 9.954960782373410699e-02 0.000000000000000000e+00 3.067018491631023358e-01 0.000000000000000000e+00 0.000000000000000000e+00 -9.104597984549923917e-02 0.000000000000000000e+00 -5.087609803705961387e-01 0.000000000000000000e+00 0.000000000000000000e+00 -4.918383719535411314e-01 0.000000000000000000e+00 1.987457111126729459e-01 0.000000000000000000e+00 0.000000000000000000e+00 -5.931989316142565194e-01
1.031009747027766647e-02 9.110530896549362545e-02 0.000000000000000000e+00 0.000000000000000000e+00 9.032436287948671094e-02 -4.719217137823089256e-03 3.004359701780121017e-01 0.000000000000000000e+00 0.000000000000000000e+00 -9.296323371403915348e-02 -1.786984978141889849e-02 -5.072393712757798934e-01 0.000000000000000000e+00 0.000000000000000000e+00 -5.087126627435040183e-01 1.014531331378647379e-02 2.296419887154903250e-01 0.000000000000000000e+00 0.000000000000000000e+00 -6.048401912698673222e-01
0.000000000000000000e+00 9.624098149231151422e-02 6.936543872350667272e-03 0.000000000000000000e+00 1.046643373892413159e-01 0.000000000000000000e+00 3.010154933905022645e-01 6.312946955710209591e-03 0.000000000000000000e+00 -7.828376309087201057e-02 0.000000000000000000e+00 -5.039036799014483536e-01 4.182500335341699307e-03 0.000000000000000000e+00 -5.041977163963600184e-01 0.000000000000000000e+00 2.132823992765338350e-01 2.909239771213990768e-03 0.000000000000000000e+00 -5.999889715927472222e-01
7.219177756840436042e-03 1.121194816213967604e-01 0.000000000000000000e+00 0.000000000000000000e+00 9.927378402875623731e-02 -6.585924967694089735e-03 2.977471246503977653e-01 0.000000000000000000e+00 0.000000000000000000e+00 -9.998916598255150334e-02 -1.402236267183624811e-02 -5.152051561586866724e-01 0.000000000000000000e+00 0.000000000000000000e+00 -4.966154448773945074e-01 9.607910061696922632e-04 2.058662603073315445e-01 0.000000000000000000e+00 0.000000000000000000e+00 -5.977908228931398948e-01
0.000000000000000000e+00 9.060051250455473937e-02 0.000000000000000000e+00 0.000000000000000000e+00 1.026398917292605656e-01 0.000000000000000000e+00 3.145198446878719190e-01 0.000000000000000000e+00 0.000000000000000000e+00 -9.682782876868319122e-02 0.000000000000000000e+00 -4.896609285701509218e-01 0.000000000000000000e+00 0.000000000000000000e+00 -5.042528691870140634e-01 0.000000000000000000e+00 2.066756771924551095e-01 0.000000000000000000e+00 0.000000000000000000e+00 -6.018535359049047573e-01
0.000000000000000000e+00 7.778792243666857176e-02 -8.304387072203767151e-03 -7.724851981272158608e-03 8.970556315192930452e-02 0.000000000000000000e+00 2.963136024173118610e-01 1.807535016889516913e-02 1.284865149981640788e-02 -8.873286140181411985e-02 0.000000000000000000e+00 -4.941237127615534241e-01 -5.969888412796492752e-03 -1.254207226588137380e-02 -5.110465269875813510e-01 0.000000000000000000e+00 2.053101380555405475e-01 2.402347343892262052e-02 1.774726763342418696e-03 -5.957944884687563780e-01
-1.120855662317624471e-02 8.519498550180801266e-02 0.000000000000000000e+00 0.000000000000000000e+00 9.032151626060479221e-02 9.920276716216218718e-03 3.013383268642805257e-01 0.000000000000000000e+00 0.000000000000000000e+00 -8.413905299105357838e-02 -6.775804408453402899e-03 -5.046057427153333164e-01 0.000000000000000000e+00 0.000000000000000000e+00 -4.968161129053838554e-01 -1.386091817807885967e-03 2.070515020282634455e-01 0.000000000000000000e+00 0.000000000000000000e+00 -6.032797984187961982e-01
0.000000000000000000e+00 9.850710581360325180e-02 0.000000000000000000e+00 0.000000000000000000e+00 8.209011651849616731e-02 0.000000000000000000e+00 3.038630611442859619e-01 0.000000000000000000e+00 0.000000000000000000e+00 -1.045555265241608911e-01 0.000000000000000000e+00 -4.927018244832852556e-01 0.000000000000000000e+00 0.000000000000000000e+00 -5.042848799279310290e-01 0.000000000000000000e+00 2.064887930680762151e-01 0.000000000000000000e+00 0.000000000000000000e+00 -6.064110941953544387e-01
0.000000000000000000e+00 9.836822163703148880e-02 0.000000000000000000e+00 0.000000000000000000e+00 8.961323006623830856e-02 0.000000000000000000e+00 3.020349823914632026e-01 0.000000000000000000e+00 0.000000000000000000e+00 -9.562590016557413752e-02 0.000000000000000000e+00 -4.974070090767421792e-01 0.000000000000000000e+00 0.000000000000000000e+00 -4.970356783445247228e-01 0.000000000000000000e+00 2.116639220369952168e-01 0.000000000000000000e+00 0.000000000000000000e+00 -6.034818073022951701e-01
-5.666102331736032338e-02 6.495658390410374849e-02 0.000000000000000000e+00 3.036707294288080311e-02 7.366628876622691169e-02 1.472482140759810362e-02 3.027296834933564940e-01 0.000000000000000000e+00 -1.078447431163683488e-02 -8.987515001727869324e-02 8.635537614025814990e-03 -4.948904275096989713e-01 0.000000000000000000e+00 -9.353567986705453585e-03 -4.928333757229015899e-01 1.092759805525070002e-02 2.081035133187474351e-01 0.000000000000000000e+00 -3.724892920564257248e-03 -6.067525010365194538e-01
0.000000000000000000e+00 9.980803163193820160e-02 5.777204589926445560e-03 0.000000000000000000e+00 1.091999117532341107e-01 0.000000000000000000e+00 2.998611704453970073e-01 -2.257277974542553668e-03 0.000000000000000000e+00 -9.812471407851333649e-02 0.000000000000000000e+00 -4.977795727711640805e-01 3.278652848528942378e-03 0.000000000000000000e+00 -4.954485826097759227e-01 0.000000000000000000e+00 1.951724875042689933e-01 1.133279012375107593e-02 0.000000000000000000e+00 -5.922089012537035124e-01
0.000000000000000000e+00 9.794183881826451499e-02 0.000000000000000000e+00 1.846340495340712158e-04 8.354078161988279239e-02 0.000000000000000000e+00 3.000589664834002468e-01 0.000000000000000000e+00 -3.418151841619668403e-03 -9.392780127733507678e-02 0.000000000000000000e+00 -5.017372959740213911e-01 0.000000000000000000e+00 4.199326227635163944e-03 -4.995903896995259608e-01 0.000000000000000000e+00 1.953081573264706661e-01 0.000000000000000000e+00 -6.510687097555675588e-04 -6.053862066685518073e-01
0.000000000000000000e+00 8.821540764244535648e-02 -5.133624973288812218e-03 0.000000000000000000e+00 9.233215627626702171e-02 0.000000000000000000e+00 2.994889160108126225e-01 2.217675967369743886e-03 0.000000000000000000e+00 -9.552129381303378630e-02 0.000000000000000000e+00 -4.976055275828060176e-01 7.926901247209489076e-03 0.000000000000000000e+00 -4.965223573953194691e-01 0.000000000000000000e+00 2.012087321079196467e-01 5.211958366296508792e-03 0.000000000000000000e+00 -6.005614676482868841e-01
0.000000000000000000e+00 9.679328215718915884e-02 0.000000000000000000e+00 0.000000000000000000e+00 9.430334421368091746e-02 0.000000000000000000e+00 2.964934418206657818e-01 0.000000000000000000e+00 0.000000000000000000e+00 -9.455015381318117307e-02 0.000000000000000000e+00 -4.972964140645576014e-01 0.000000000000000000e+00 0.000000000000000000e+00 -4.985972901694057380e-01 0.000000000000000000e+00 2.098876435852579381e-01 0.000000000000000000e+00 0.000000000000000000e+00 -6.099127444522711716e-01
0.000000000000000000e+00 9.429144511875246770e-02 0.000000000000000000e+00 -4.311420814368889000e-03 1.021208218144929875e-01 0.000000000000000000e+00 2.966461875233698531e-01 0.000000000000000000e+00 -1.530621839447229848e-03 -9.027641692516819028e-02 0.000000000000000000e+00 -4.907922222980185545e-01 0.000000000000000000e+00 3.852577388434403824e-04 -4.999449405809475167e-01 0.000000000000000000e+00 2.118948481611181156e-01 0.000000000000000000e+00 -3.621557020992875048e-03 -5.966809438915151587e-01
0.000000000000000000e+00 9.312369474367446220e-02 0.000000000000000000e+00 0.000000000000000000e+00 1.010596399248299554e-01 0.000000000000000000e+00 2.997634501107669380e-01 0.000000000000000000e+00 0.000000000000000000e+00 -8.975552733237017466e-02 0.000000000000000000e+00 -4.996486213250625474e-01 0.000000000000000000e+00 0.000000000000000000e+00 -5.000577447743432824e-01 0.000000000000000000e+00 2.086179797301740413e-01 0.000000000000000000e+00 0.000000000000000000e+00 -6.067966485170385171e-01
-2.290848961731042563e-02 8.024583264493109769e-02 0.000000000000000000e+00 1.869641233925290261e-02 8.472127589019909366e-02 -1.016917912737551333e-02 2.806405944640490979e-01 0.000000000000000000e+00 7.872832207120736975e-03 -8.322836259205636245e-02 -3.556037633360161366e-03 -5.007016082182046413e-01 0.000000000000000000e+00 2.962440439186919683e-03 -4.979683985035163740e-01 3.123442303568615963e-02 2.181919449061567595e-01 0.000000000000000000e+00 -1.913449320525210592e-02 -5.983258343986477268e-01
0.000000000000000000e+00 8.916736167598751650e-02 1.117130935085524669e-03 0.000000000000000000e+00 9.876381377602702627e-02 0.000000000000000000e+00 3.034578923890713376e-01 3.061050531254524368e-03 0.000000000000000000e+00 -1.009945429665141253e-01 0.000000000000000000e+00 -4.987429246756764356e-01 4.465153131900773641e-04 0.000000000000000000e+00 -4.966555112507560765e-01 0.000000000000000000e+00 1.954203689540143785e-01 2.603267514796000354e-03 0.000000000000000000e+00 -6.035832804057867929e-01
0.000000000000000000e+00 9.679028443065182397e-02 0.000000000000000000e+00 2.120160455970152100e-03 8.904130011469034434e-02 0.000000000000000000e+00 3.004414261720695922e-01 0.000000000000000000e+00 -1.407266318396679580e-03 -9.439024754558213159e-02 0.000000000000000000e+00 -4.992580513411654097e-01 0.000000000000000000e+00 7.839238673823323636e-04 -5.075885071250593183e-01 0.000000000000000000e+00 2.024112353424387389e-01 0.000000000000000000e+00 5.072015817651472601e-03 -6.143380235643547405e-01
0.000000000000000000e+00 9.191163369956989460e-02 -7.335188847602764316e-03 0.000000000000000000e+00 8.169011275218822365e-02 0.000000000000000000e+00 3.078274289859290191e-01 4.448910723491900435e-03 0.000000000000000000e+00 -9.174647179599405844e-02 0.000000000000000000e+00 -4.884750430775823271e-01 -7.579610237451284843e-03 0.000000000000000000e+00 -5.067805272214017664e-01 0.000000000000000000e+00 2.058043384097156814e-01 3.511788896337563696e-03 0.000000000000000000e+00 -5.964950671713568076e-01
-5.419845981485853920e-03 9.752179736010649358e-02 0.000000000000000000e+00 7.042144925386439533e-03 8.939738034394315025e-02 1.040411880052952501e-02 3.044349971103507135e-01 0.000000000000000000e+00 -8.076823074490997040e-03 -9.396867256135819912e-02 -1.091463131551423382e-03 -5.022394335677687893e-01 0.000000000000000000e+00 -4.073024088037770392e-03 -5.086778857511812246e-01 3.771424403295087213e-02 2.210488279144525170e-01 0.000000000000000000e+00 -2.858599888046434168e-02 -5.971291704973130665e-01
0.000000000000000000e+00 8.254824113039203881e-02 -1.903877420345416460e-02 0.000000000000000000e+00 8.365763714445736965e-02 0.000000000000000000e+00 2.965266389828347116e-01 -6.257142730775894050e-03 0.000000000000000000e+00 -9.487110534894444003e-02 0.000000000000000000e+00 -5.081039816018415589e-01 -1.849909059317392940e-02 0.000000000000000000e+00 -4.963976721486068056e-01 0.000000000000000000e+00 1.980775667413391117e-01 3.131057908509215365e-03 0.000000000000000000e+00 -5.921940707238120272e-01
-1.247187010969246206e-03 9.160753242654866291e-02 0.000000000000000000e+00 0.000000000000000000e+00 8.765482903176186058e-02 -2.744521481138087471e-03 2.850294520859742997e-01 0.000000000000000000e+00 0.000000000000000000e+00 -7.560403571068824435e-02 -2.337099470655963455e-03 -4.949062862168893684e-01 0.000000000000000000e+00 0.000000000000000000e+00 -5.136848104538135340e-01 8.433445904980235198e-04 2.219498498348771998e-01 0.000000000000000000e+00 0.000000000000000000e+00 -6.051683848511891783e-01
0.000000000000000000e+00 1.092986942908030362e-01 3.813424483556148402e-03 0.000000000000000000e+00 9.177054524606409469e-02 0.000000000000000000e+00 3.048830938803128721e-01 5.898433655899841185e-04 0.000000000000000000e+00 -9.482057384565149849e-02 0.000000000000000000e+00 -5.020194946117826351e-01 -4.458491919486775104e-03 0.000000000000000000e+00 -5.068863281493364292e-01 0.000000000000000000e+00 2.130582313297667285e-01 1.121446612929527346e-02 0.000000000000000000e+00 -6.176567301311471914e-01
0.000000000000000000e+00 9.394842415443166450e-02 0.000000000000000000e+00 0.000000000000000000e+00 9.768249291476233109e-02 0.000000000000000000e+00 3.047268499605589320e-01 0.000000000000000000e+00 0.000000000000000000e+00 -1.083060262394304196e-01 0.000000000000000000e+00 -5.112578615329920195e-01 0.000000000000000000e+00 0.000000000000000000e+00 -4.920027568560327302e-01 0.000000000000000000e+00 2.152450889095427200e-01 0.000000000000000000e+00 0.000000000000000000e+00 -6.112194883226441666e-01
0.000000000000000000e+00 9.006150794033834783e-02 -9.031221378372248330e-04 -1.612898596473049534e-04 1.010362634310231350e-01 0.000000000000000000e+00 2.990631087875341154e-01 8.303530807849370671e-03 -1.919520187079661738e-04 -9.708362972109424449e-02 0.000000000000000000e+00 -4.810114538158100084e-01 3.478572593927709618e-04 -2.336576860136926025e-03 -5.039882937408185493e-01 0.000000000000000000e+00 2.086599087533477226e-01 6.332039931496164301e-03 -7.769736014562687171e-04 -5.994909718078283989e-01
-2.950839459619899238e-03 9.482646778959509526e-02 0.000000000000000000e+00 0.000000000000000000e+00 9.633729837293704412e-02 -4.343153769136966560e-04 3.031594154230550786e-01 0.000000000000000000e+00 0.000000000000000000e+00 -8.847165118991802413e-02 -1.128428932331843049e-02 -4.958906299067237788e-01 0.000000000000000000e+00 0.000000000000000000e+00 -5.055620661718961406e-01 1.734483472730799372e-03 1.999821133113096616e-01 0.000000000000000000e+00 0.000000000000000000e+00 -6.004409471327506465e-01
0.000000000000000000e+00 1.085366977364883301e-01 7.318632475340740122e-03 0.000000000000000000e+00 9.627808806679871712e-02 0.000000000000000000e+00 2.926143792534477428e-01 3.859314364182487092e-03 0.000000000000000000e+00 -9.248797254132198886e-02 0.000000000000000000e+00 -4.951158988178525622e-01 -2.912146198496664423e-03 0.000000000000000000e+00 -4.952520888852166014e-01 0.000000000000000000e+00 2.033970534414921705e-01 8.809921635198839779e-04 0.000000000000000000e+00 -6.061702428836974743e-01
-2.508527250790310720e-02 8.476547378105207808e-02 0.000000000000000000e+00 1.728084774784505173e-02 7.753371620080172499e-02 3.067132646666331092e-02 3.142117235019823429e-01 0.000000000000000000e+00 -1.266647891006265902e-02 -8.415664308379548764e-02 -3.778629873576146159e-02 -5.150131239901152291e-01 0.000000000000000000e+00 1.583448190284426210e-02 -5.061517607379286687e-01 -7.766773287681424942e-03 1.777294164541897703e-01 0.000000000000000000e+00 5.946238676486569411e-03 -6.053200065327892787e-01
0.000000000000000000e+00 8.528149638798725174e-02 -3.929335879838545716e-04 0.000000000000000000e+00 9.289689030402463465e-02 0.000000000000000000e+00 2.975759086438697909e-01 -1.629590774371730486e-02 0.000000000000000000e+00 -9.572462842837810293e-02 0.000000000000000000e+00 -4.945389083543888509e-01 -4.368299690597557405e-04 0.000000000000000000e+00 -5.052416778077111204e-01 0.000000000000000000e+00 2.244201136716765244e-01 -1.415111050973427362e-02 0.000000000000000000e+00 -6.225949461182943567e-01
0.000000000000000000e+00 1.058241925356067092e-01 0.000000000000000000e+00 -1.965271691508479676e-02 9.040652839105034477e-02 0.000000000000000000e+00 3.082239839925791092e-01 0.000000000000000000e+00 -3.137683383554510687e-03 -9.619064588745815381e-02 0.000000000000000000e+00 -5.130807707925810757e-01 0.000000000000000000e+00 -3.864309293229682522e-03 -4.975470328897904082e-01 0.000000000000000000e+00 2.111354733146877660e-01 0.000000000000000000e+00 -1.471714462182991887e-02 -6.007416626174961749e-01
0.000000000000000000e+00 8.455464351617680840e-02 0.000000000000000000e+00 0.000000000000000000e+00 8.937279451068586011e-02 0.000000000000000000e+00 2.924872004332251807e-01 0.000000000000000000e+00 0.000000000000000000e+00 -1.020778083506088257e-01 0.000000000000000000e+00 -5.016979234138324584e-01 0.000000000000000000e+00 0.000000000000000000e+00 -4.994406265353618646e-01 0.000000000000000000e+00 2.317600625264603920e-01 0.000000000000000000e+00 0.000000000000000000e+00 -6.002216663612063297e-01
0.000000000000000000e+00 8.741935965407540698e-02 1.449600331389789632e-03 0.000000000000000000e+00 1.030130311815353056e-01 0.000000000000000000e+00 2.908830490615315068e-01 -5.869768100916568539e-03 0.000000000000000000e+00 -9.081527365277056174e-02 0.000000000000000000e+00 -4.992715550243205236e-01 -2.958975722823204910e-03 0.000000000000000000e+00 -4.865023450402071181e-01 0.000000000000000000e+00 1.983902450595117495e-01 6.628566773087697823e-03 0.000000000000000000e+00 -5.935224801241099080e-01
0.000000000000000000e+00 8.599356785760832456e-02 0.000000000000000000e+00 0.000000000000000000e+00 9.613443992537858140e-02 0.000000000000000000e+00 2.995780582974666983e-01 0.000000000000000000e+00 0.000000000000000000e+00 -9.868982791543748356e-02 0.000000000000000000e+00 -4.909699353153425538e-01 0.000000000000000000e+00 0.000000000000000000e+00 -5.071969728641555486e-01 0.000000000000000000e+00 2.016654521360574104e-01 0.000000000000000000e+00 0.000000000000000000e+00 -5.971589152812203372e-01
-2.498854361124677476e-03 8.591615159244934963e-02 5.019886596949687044e-03 0.000000000000000000e+00 1.011251011576527747e-01 5.590880818273054678e-03 3.149536149262106011e-01 1.930925703156095852e-03 0.000000000000000000e+00 -8.702250790947393955e-02 -3.088024224731931826e-03 -5.085087621880188813e-01 -8.762065922151856048e-03 0.000000000000000000e+00 -4.988955327411954133e-01 3.315351388700754545e-03 2.103416491808637601e-01 1.134777497942586824e-02 0.000000000000000000e+00 -6.015846403721059055e-01
0.000000000000000000e+00 1.020743660929127189e-01 0.000000000000000000e+00 -5.825299487045991140e-03 9.759202517864370985e-02 0.000000000000000000e+00 3.095685061931000570e-01 0.000000000000000000e+00 -4.514662216588975069e-03 -1.015831069845865159e-01 0.000000000000000000e+00 -4.902449372873970979e-01 0.000000000000000000e+00 -8.431195436513608948e-03 -4.991269890197372328e-01 0.000000000000000000e+00 2.113997521130134838e-01 0.000000000000000000e+00 -6.017156673188385312e-03 -6.093557030479875847e-01
1.487028151116532790e-02 1.006600537653967731e-01 0.000000000000000000e+00 0.000000000000000000e+00 1.085161854152333072e-01 1.065132339919886914e-02 3.090596189798212601e-01 0.000000000000000000e+00 0.000000000000000000e+00 -9.917368126461995059e-02 -8.745575308970224629e-03 -4.980057839360902405e-01 0.000000000000000000e+00 0.000000000000000000e+00 -5.008576848592443120e-01 -4.830055674327200614e-03 1.986667501464122743e-01 0.000000000000000000e+00 0.000000000000000000e+00 -6.045207724720214060e-01
0.000000000000000000e+00 9.608558588154569868e-02 -1.305836882659390172e-02 0.000000000000000000e+00 7.812216188525153426e-02 0.000000000000000000e+00 3.108080761467286735e-01 2.903145303940131081e-03 0.000000000000000000e+00 -1.007244137068379342e-01 0.000000000000000000e+00 -4.925271439186105216e-01 3.775164620803995140e-03 0.000000000000000000e+00 -4.931603532544275859e-01 0.000000000000000000e+00 2.071875173494608646e-01 6.998904752168100610e-03 0.000000000000000000e+00 -5.977919907452716730e-01
-2.541258826744787619e-02 7.699752275948172631e-02 0.000000000000000000e+00 3.092886267083565233e-02 8.631728851614792197e-02 -1.664843878270245298e-02 2.813041589212775806e-01 0.000000000000000000e+00 1.805059656852713024e-02 -1.074335476061884925e-01 -5.718035484664523577e-03 -4.932193734389216377e-01 0.000000000000000000e+00 -1.687359261155997473e-03 -4.989750759344726561e-01 9.304460546834919868e-03 1.989798897070575723e-01 0.000000000000000000e+00 -5.585567093802168773e-03 -6.093904153213252073e-01
0.000000000000000000e+00 9.723064742359326107e-02 0.000000000000000000e+00 0.000000000000000000e+00 8.751251221191573559e-02 0.000000000000000000e+00 2.929905048515320520e-01 0.000000000000000000e+00 0.000000000000000000e+00 -8.201862103027472706e-02 0.000000000000000000e+00 -4.931856508647792792e-01 0.000000000000000000e+00 0.000000000000000000e+00 -4.899701906537891061e-01 0.000000000000000000e+00 1.982767570790791578e-01 0.000000000000000000e+00 0.000000000000000000e+00 -6.003456119567859295e-01
0.000000000000000000e+00 8.604267463764771195e-02 -7.125468681001738760e-03 -7.412253407594509083e-04 8.893275214505902415e-02 0.000000000000000000e+00 3.013158255509714167e-01 -1.621245672214594209e-03 -4.736153568231742800e-03 -1.017860078829812415e-01 0.000000000000000000e+00 -5.069047274098538169e-01 9.031206670591391400e-03 -1.378435730092125982e-03 -4.916995895073301148e-01 0.000000000000000000e+00 2.049000074260277360e-01 1.908796264654510216e-02 5.797526572418958482e-03 -5.904485064014420859e-01
0.000000000000000000e+00 9.181599828612915792e-02 0.000000000000000000e+00 0.000000000000000000e+00 8.819443694231265951e-02 0.000000000000000000e+00 3.031008367050211372e-01 0.000000000000000000e+00 0.000000000000000000e+00 -9.736942408475128541e-02 0.000000000000000000e+00 -5.059036807484921239e-01 0.000000000000000000e+00 0.000000000000000000e+00 -4.985342344668159398e-01 0.000000000000000000e+00 2.136578157686004620e-01 0.000000000000000000e+00 0.000000000000000000e+00 -6.105657439401603881e-01
0.000000000000000000e+00 8.060562310811066056e-02 0.000000000000000000e+00 4.029391607337712462e-03 9.868044180271025312e-02 0.000000000000000000e+00 3.025282126595234544e-01 0.000000000000000000e+00 2.283782464001243503e-03 -1.011982477754230919e-01 0.000000000000000000e+00 -4.946145182157289932e-01 0.000000000000000000e+00 1.497237448449716818e-03 -5.112717492591909441e-01 0.000000000000000000e+00 1.808804138710305154e-01 0.000000000000000000e+00 -6.635111452374978583e-03 -5.977732966510552748e-01
0.000000000000000000e+00 8.933808078154485688e-02 7.124522134329003102e-03 0.000000000000000000e+00 7.998991703205325654e-02 0.000000000000000000e+00 2.956422319402750021e-01 9.863011212614212347e-03 0.000000000000000000e+00 -6.748596779617666019e-02 0.000000000000000000e+00 -4.917429486767669888e-01 2.915915389976193525e-03 0.000000000000000000e+00 -4.960805050652605241e-01 0.000000000000000000e+00 2.015527819874331772e-01 5.383886264694917080e-03 0.000000000000000000e+00 -5.952822979686650529e-01
7.942675393649685500e-03 1.097474018830541104e-01 0.000000000000000000e+00 0.000000000000000000e+00 9.748102964233391898e-02 3.567726640719442576e-03 3.125262950232483017e-01 0.000000000000000000e+00 0.000000000000000000e+00 -1.003144302980653602e-01 -1.889147748990818720e-02 -5.061553299448720011e-01 0.000000000000000000e+00 0.000000000000000000e+00 -5.050360913413489694e-01 6.570996030472189831e-03 2.147756430204738054e-01 0.000000000000000000e+00 0.000000000000000000e+00 -6.097734107094122669e-01
0.000000000000000000e+00 8.282171085455848625e-02 -3.516634442990135712e-03 -5.638604351398254430e-03 1.027352016452802441e-01 0.000000000000000000e+00 2.848576941380048799e-01 -5.860264388980317152e-03 1.437725293703192783e-03 -9.250869547054435538e-02 0.000000000000000000e+00 -4.956486067935089723e-01 -7.374197386968238573e-03 3.559197846410474750e-03 -5.072141201117360554e-01 0.000000000000000000e+00 2.178770028681908943e-01 -4.010576944125508747e-03 5.023771296489619106e-03 -6.066547722132823450e-01
8.492837298943952534e-03 1.052242584428253330e-01 0.000000000000000000e+00 0.000000000000000000e+00 8.838714649590023731e-02 -1.118608814243421054e-02 2.948005801010022964e-01 0.000000000000000000e+00 0.000000000000000000e+00 -1.042891868426958912e-01 -6.575696666976954367e-03 -4.868806503184188728e-01 0.000000000000000000e+00 0.000000000000000000e+00 -5.023489208999166733e-01 3.806334538781371707e-03 2.074584965217411703e-01 0.000000000000000000e+00 0.000000000000000000e+00 -5.926532718092272223e-01
0.000000000000000000e+00 8.780867617065667152e-02 2.512924936499761567e-03 2.177760193846154345e-03 9.254724788936513624e-02 0.000000000000000000e+00 2.939190702442533443e-01 2.304212524907849752e-04 4.244398917950374488e-03 -9.294135415954481172e-02 0.000000000000000000e+00 -4.979130279018822436e-01 1.034989139327241459e-02 -3.557020593402730746e-03 -4.967973650314765899e-01 0.000000000000000000e+00 2.029634560449800063e-01 2.878171935019613065e-03 7.461711013970828178e-03 -5.986254136432568318e-01
-1.895202285429079675e-02 8.200460659491191906e-02 0.000000000000000000e+00 0.000000000000000000e+00 8.939757505871155641e-02 3.892299872185998877e-03 3.015105911594754273e-01 0.000000000000000000e+00 0.000000000000000000e+00 -1.109459718737433459e-01 1.530820674844401638e-02 -4.880687545659141424e-01 0.000000000000000000e+00 0.000000000000000000e+00 -5.039316857535200977e-01 -1.999583593080684913e-03 1.873947811078396919e-01 0.000000000000000000e+00 0.000000000000000000e+00 -5.985085598937935902e-01
0.000000000000000000e+00 8.080439992748575384e-02 0.000000000000000000e+00 6.242534812653226933e-03 1.109804222004166507e-01 0.000000000000000000e+00 3.022254494674693759e-01 0.000000000000000000e+00 1.364195260414522923e-02 -1.017770847371871346e-01 0.000000000000000000e+00 -5.043053364494557433e-01 0.000000000000000000e+00 1.468385599805691229e-03 -4.919888032550633894e-01 0.000000000000000000e+00 2.075336551175237521e-01 0.000000000000000000e+00 -7.031126392836827693e-03 -6.082338373787441466e-01
8.171372052865912700e-03 1.005484936424543979e-01 0.000000000000000000e+00 0.000000000000000000e+00 1.053365148572906751e-01 3.371548262075532969e-03 2.909617125066781829e-01 0.000000000000000000e+00 0.000000000000000000e+00 -8.262669143128513471e-02 -8.048442625862442870e-03 -5.002573594253824085e-01 0.000000000000000000e+00 0.000000000000000000e+00 -5.072939579445849834e-01 4.626266219695309226e-03 1.985351881796273976e-01 0.000000000000000000e+00 0.000000000000000000e+00 -6.074867395129049941e-01
0.000000000000000000e+00 9.845974107303123724e-02 0.000000000000000000e+00 0.000000000000000000e+00 1.061704042550570548e-01 0.000000000000000000e+00 3.073326291072052130e-01 0.000000000000000000e+00 0.000000000000000000e+00 -9.420925134565910630e-02 0.000000000000000000e+00 -4.763664256309151357e-01 0.000000000000000000e+00 0.000000000000000000e+00 -4.971458631887344382e-01 0.000000000000000000e+00 1.957091660804100297e-01 0.000000000000000000e+00 0.000000000000000000e+00 -6.159882247209846895e-01
0.000000000000000000e+00 9.146734588082112982e-02 0.000000000000000000e+00 0.000000000000000000e+00 9.677369537105558195e-02 0.000000000000000000e+00 2.954902920870930427e-01 0.000000000000000000e+00 0.000000000000000000e+00 -9.979970722970858688e-02 0.000000000000000000e+00 -4.835870510715611359e-01 0.000000000000000000e+00 0.000000000000000000e+00 -5.026779718926315255e-01 0.000000000000000000e+00 1.897188032648756129e-01 0.000000000000000000e+00 0.000000000000000000e+00 -5.934205780941188557e-01
