0.000000000000000000e+00 0.000000000000000000e+00 0.000000000000000000e+00 0.000000000000000000e+00 0.000000000000000000e+00 0.000000000000000000e+00 0.000000000000000000e+00 0.000000000000000000e+00 0.000000000000000000e+00 0.000000000000000000e+00 0.000000000000000000e+00 0.000000000000000000e+00 0.000000000000000000e+00 0.000000000000000000e+00 0.000000000000000000e+00 0.000000000000000000e+00 0.000000000000000000e+00 0.000000000000000000e+00 0.000000000000000000e+00 0.000000000000000000e+00
0.000000000000000000e+00 0.000000000000000000e+00 0.000000000000000000e+00 8.922616732187121924e-02 1.094864710023478599e-01 0.000000000000000000e+00 0.000000000000000000e+00 0.000000000000000000e+00 1.893292611972824946e-01 -3.695813959845144492e-01 0.000000000000000000e+00 0.000000000000000000e+00 0.000000000000000000e+00 -1.271463969809405459e-02 -1.784115559692844299e-01 0.000000000000000000e+00 0.000000000000000000e+00 0.000000000000000000e+00 -1.692797012025167858e-01 -2.975584000303955756e-01
-5.143835900635695263e-02 -1.439397252756662859e-01 6.205498695667997777e-02 0.000000000000000000e+00 8.541219393258928094e-03 2.672743860976523750e-02 1.715098991902723191e-01 -1.011107457392153852e-01 0.000000000000000000e+00 -4.641477187920528547e-01 2.615813850359576254e-01 -3.322865865210987701e-01 2.842382962071766939e-03 0.000000000000000000e+00 -4.777160507664660050e-01 -4.521922076975790072e-02 9.451958967114708343e-02 2.125802768676476190e-02 0.000000000000000000e+00 -4.911229495465069816e-01
-8.156437904266171379e-02 2.229268852603757955e-02 0.000000000000000000e+00 2.103478512398278960e-03 8.527607916564988733e-02 -1.381588692355218417e-01 1.784290162208948538e-01 0.000000000000000000e+00 -1.548903689954451990e-02 -3.066820649788101205e-01 -9.954968375056709451e-03 -5.660056016165944115e-01 0.000000000000000000e+00 -3.535861120813291181e-02 -6.073557377277272185e-01 1.159172629459237214e-01 1.682984524029572382e-01 0.000000000000000000e+00 -5.872440577194305150e-02 -5.606208161457270078e-01
0.000000000000000000e+00 -6.653241047386124207e-02 8.297621846967372095e-02 0.000000000000000000e+00 -4.783102402382738427e-02 0.000000000000000000e+00 3.334172039621706163e-01 3.501075242089882189e-02 0.000000000000000000e+00 -1.203042178268986934e-01 0.000000000000000000e+00 -5.087518380241111693e-01 5.584940583771358380e-02 0.000000000000000000e+00 -2.824186779273784031e-01 0.000000000000000000e+00 1.702521371241101089e-01 -6.306946527212865805e-02 0.000000000000000000e+00 -6.306295839851048246e-01
0.000000000000000000e+00 -2.143124669441152930e-02 0.000000000000000000e+00 2.036564467071412532e-02 -9.226575274611747979e-02 0.000000000000000000e+00 3.756328558082348001e-01 0.000000000000000000e+00 6.044757195958677665e-02 3.586085505765340686e-02 0.000000000000000000e+00 -2.690213034455659624e-01 0.000000000000000000e+00 -1.403218538923481640e-01 -3.543136770322314333e-01 0.000000000000000000e+00 2.554517490051468886e-01 0.000000000000000000e+00 -1.467163329329093935e-01 -5.674504660450513382e-01
0.000000000000000000e+00 8.183315462289117437e-02 3.815843786833519533e-03 0.000000000000000000e+00 2.012751198611116565e-02 0.000000000000000000e+00 3.294778438300582368e-01 -5.809551136477306144e-02 0.000000000000000000e+00 1.837534855942378476e-02 0.000000000000000000e+00 -4.177919599336403778e-01 6.140644349309322403e-02 0.000000000000000000e+00 -4.427636230180312382e-01 0.000000000000000000e+00 1.429175284933291434e-01 3.253408327017114077e-02 0.000000000000000000e+00 -6.240752929375592561e-01
-5.065821527251457984e-02 5.128864418956507326e-02 0.000000000000000000e+00 7.243800090096703947e-02 1.642413992988905891e-01 6.504745130490725835e-02 3.352362453867759884e-01 0.000000000000000000e+00 2.086864931390137665e-03 -1.634047484775932868e-01 -2.272071906536606012e-02 -5.121441909563274608e-01 0.000000000000000000e+00 2.774374831202557762e-02 -6.071081880344660897e-01 4.377822593362483417e-02 1.778338646461321559e-01 0.000000000000000000e+00 3.431279384179818787e-02 -6.366135401267615235e-01
0.000000000000000000e+00 6.889529945286067270e-02 4.164587393979918284e-02 0.000000000000000000e+00 1.402963424230911915e-01 0.000000000000000000e+00 2.999363679252139980e-01 6.894300337077854945e-02 0.000000000000000000e+00 -2.738014246103444294e-02 0.000000000000000000e+00 -5.414474755040473708e-01 -6.141938739508738532e-03 0.000000000000000000e+00 -5.009895182069932229e-01 0.000000000000000000e+00 1.999401277043209579e-01 6.583889374257021962e-03 0.000000000000000000e+00 -5.978208168301915038e-01
0.000000000000000000e+00 1.262156915463243656e-01 0.000000000000000000e+00 -2.174837657460738580e-02 1.357859168776313630e-01 0.000000000000000000e+00 2.556212176786600287e-01 0.000000000000000000e+00 2.846109229577926253e-02 -1.200761248817211607e-01 0.000000000000000000e+00 -5.044474019194959968e-01 0.000000000000000000e+00 -1.019627974185355335e-02 -4.927882432253791745e-01 0.000000000000000000e+00 2.107674564192124900e-01 0.000000000000000000e+00 1.067287581251950140e-02 -5.702222881723003622e-01
-2.489810560894187286e-02 1.003282889913849896e-01 -1.896844439157105086e-02 0.000000000000000000e+00 8.719475319079425524e-02 -1.139655173943743618e-02 3.154785659324854663e-01 -1.763737814585261687e-02 0.000000000000000000e+00 -8.494670110302120214e-02 1.377210915321449517e-03 -4.911746769704677940e-01 -4.290995546139817970e-03 0.000000000000000000e+00 -5.065406129266980528e-01 2.270572137898509493e-02 2.085799245915410938e-01 1.699207722976603385e-04 0.000000000000000000e+00 -6.300716731852950003e-01
0.000000000000000000e+00 8.305615742303362747e-02 0.000000000000000000e+00 -1.957361916528668061e-02 1.105423420898864889e-01 0.000000000000000000e+00 2.944322546713670774e-01 0.000000000000000000e+00 4.121498606555978883e-02 -1.065902909184578140e-01 0.000000000000000000e+00 -5.075850573758776685e-01 0.000000000000000000e+00 1.185264115972357868e-02 -4.920968736123817466e-01 0.000000000000000000e+00 2.329628041601080335e-01 0.000000000000000000e+00 -5.056690495766175825e-02 -5.581789977112951995e-01
-9.726132575206377501e-03 9.913054898473826204e-02 1.853795104510800804e-02 0.000000000000000000e+00 9.545950357145696619e-02 4.345081676466282065e-03 3.272995955175627691e-01 3.646894500558186397e-03 0.000000000000000000e+00 -7.825738124297826337e-02 3.853736278727919184e-02 -4.727308435504060657e-01 -4.659165846130488425e-02 0.000000000000000000e+00 -5.709971162857989668e-01 4.205740400368176979e-02 2.170262901967976443e-01 2.472759968892413590e-02 0.000000000000000000e+00 -5.988881572727564606e-01
0.000000000000000000e+00 1.124231163127005217e-01 0.000000000000000000e+00 0.000000000000000000e+00 1.180639582066911331e-01 0.000000000000000000e+00 2.772516050022550416e-01 0.000000000000000000e+00 0.000000000000000000e+00 -1.140495638266701139e-01 0.000000000000000000e+00 -4.649925080094354790e-01 0.000000000000000000e+00 0.000000000000000000e+00 -5.032758565020419850e-01 0.000000000000000000e+00 2.105531167490515554e-01 0.000000000000000000e+00 0.000000000000000000e+00 -5.888010961569428714e-01
0.000000000000000000e+00 6.667040636195697978e-02 0.000000000000000000e+00 3.093378482022924106e-02 7.583263978649286419e-02 0.000000000000000000e+00 3.184064735020033510e-01 0.000000000000000000e+00 1.435913818607421032e-02 -8.531662357648783779e-02 0.000000000000000000e+00 -4.363928703367431772e-01 0.000000000000000000e+00 -3.418889181703312075e-02 -5.002149225747168915e-01 0.000000000000000000e+00 1.644908575850867472e-01 0.000000000000000000e+00 3.142992309457301459e-02 -6.175316551103404716e-01
-1.384659083789793396e-02 1.100834782415026497e-01 0.000000000000000000e+00 0.000000000000000000e+00 6.676953936620458330e-02 -4.155414401076099051e-02 2.958967137608751741e-01 0.000000000000000000e+00 0.000000000000000000e+00 -6.744343439026816156e-02 -3.118644687031058710e-02 -5.326976592921247589e-01 0.000000000000000000e+00 0.000000000000000000e+00 -4.852551540449211442e-01 -1.314120591168062985e-02 1.749971016837279236e-01 0.000000000000000000e+00 0.000000000000000000e+00 -6.147919762721475445e-01
0.000000000000000000e+00 1.229249355794410081e-01 8.735606975256493545e-02 -9.129721167873519616e-02 2.013701525873837217e-01 0.000000000000000000e+00 3.346739628974045866e-01 7.034900673520989162e-04 -2.365196351859134849e-02 -6.348421444902578592e-02 0.000000000000000000e+00 -4.850804362200051845e-01 -1.087201624930560218e-02 -3.704544097112576206e-02 -4.992282041617377430e-01 0.000000000000000000e+00 2.191355580920165136e-01 3.790403162344834626e-02 -4.137493607592114542e-02 -5.667434204638935880e-01
5.257207435338283330e-02 1.267264940649359961e-01 0.000000000000000000e+00 0.000000000000000000e+00 4.373261173663371693e-02 -5.854442426070163158e-03 3.244967522995741427e-01 0.000000000000000000e+00 0.000000000000000000e+00 -8.686472394901925687e-02 -3.324554748078294153e-02 -5.452498572765238638e-01 0.000000000000000000e+00 0.000000000000000000e+00 -5.192280786459736452e-01 -1.840458278063919831e-02 2.138240773316977816e-01 0.000000000000000000e+00 0.000000000000000000e+00 -5.582343967976508559e-01
0.000000000000000000e+00 9.118623639849834928e-02 0.000000000000000000e+00 0.000000000000000000e+00 1.037021919565582762e-01 0.000000000000000000e+00 3.281872049343488307e-01 0.000000000000000000e+00 0.000000000000000000e+00 -9.838347767920894993e-02 0.000000000000000000e+00 -5.431648585992415734e-01 0.000000000000000000e+00 0.000000000000000000e+00 -5.623763171207551981e-01 0.000000000000000000e+00 1.983524433625269145e-01 0.000000000000000000e+00 0.000000000000000000e+00 -6.042392339755324748e-01
-5.336849756289765989e-02 8.023612205646356299e-02 0.000000000000000000e+00 0.000000000000000000e+00 1.568161364081972209e-01 1.575065534124647088e-02 2.947707024529566677e-01 0.000000000000000000e+00 0.000000000000000000e+00 -1.210019136616491131e-01 5.562105834031844109e-02 -4.952067953853813154e-01 0.000000000000000000e+00 0.000000000000000000e+00 -5.476407546810982963e-01 2.852827783305856429e-02 1.945870748058859401e-01 0.000000000000000000e+00 0.000000000000000000e+00 -6.142034737246844234e-01
0.000000000000000000e+00 1.139848346054320449e-01 1.776650003175696962e-02 -1.504471642100464746e-02 1.135929259490299492e-01 0.000000000000000000e+00 2.798300678019243759e-01 -2.955263843008105670e-03 -9.877036164840313770e-03 -1.001019333783471771e-01 0.000000000000000000e+00 -5.049684986396865138e-01 -6.336927270213005281e-02 8.002136058090532356e-04 -5.124419776398355664e-01 0.000000000000000000e+00 2.549879614253822702e-01 3.773684327993268722e-02 -4.485434490393685331e-02 -5.576704812731543282e-01
-4.835242260461550257e-02 6.079909510884989876e-02 0.000000000000000000e+00 0.000000000000000000e+00 1.028628277697724164e-01 6.269115411081570277e-02 3.414410381833596908e-01 0.000000000000000000e+00 0.000000000000000000e+00 -1.042584198759305969e-01 -7.615549684340998035e-03 -4.933511883914100671e-01 0.000000000000000000e+00 0.000000000000000000e+00 -5.209485404921777585e-01 -3.333034506535337456e-03 1.891808878925410053e-01 0.000000000000000000e+00 0.000000000000000000e+00 -6.129367102044207538e-01
0.000000000000000000e+00 7.844709892636769766e-02 1.065400123746296224e-02 0.000000000000000000e+00 9.762511674008118867e-02 0.000000000000000000e+00 2.801500835941297951e-01 -1.130509131032559830e-03 0.000000000000000000e+00 -1.258379590404496984e-01 0.000000000000000000e+00 -4.682634182410731483e-01 -2.993583933585432927e-02 0.000000000000000000e+00 -5.330919211717476403e-01 0.000000000000000000e+00 1.835784614121304115e-01 -1.844114995323818673e-02 0.000000000000000000e+00 -6.118733039890954517e-01
1.286016924133848507e-03 2.801035025817287527e-02 0.000000000000000000e+00 4.819557978821731314e-02 4.515767493237026614e-02 -4.574405384159026949e-02 2.746595991262307801e-01 0.000000000000000000e+00 8.072871473066612485e-03 -8.811139263507958286e-02 1.804320931983708146e-02 -5.039436303941891016e-01 0.000000000000000000e+00 -1.284232197636354933e-02 -4.997816327016330051e-01 1.318076959386461737e-02 2.142065884905714479e-01 0.000000000000000000e+00 -1.318385504882119488e-02 -6.079115201647024014e-01
0.000000000000000000e+00 9.786826575262401462e-02 1.756287158685169644e-02 0.000000000000000000e+00 1.419594713687756249e-01 0.000000000000000000e+00 3.015930231184630883e-01 -4.621305741584725083e-03 0.000000000000000000e+00 -1.025029055360753699e-01 0.000000000000000000e+00 -4.746176198995232243e-01 1.327974738992985029e-02 0.000000000000000000e+00 -4.884633062233350032e-01 0.000000000000000000e+00 1.925185592577465243e-01 7.252801741861079204e-03 0.000000000000000000e+00 -6.035393877783129524e-01
0.000000000000000000e+00 8.113568748031697864e-02 0.000000000000000000e+00 0.000000000000000000e+00 9.324289281765282822e-02 0.000000000000000000e+00 2.652345452302214412e-01 0.000000000000000000e+00 0.000000000000000000e+00 -1.315627609339899973e-01 0.000000000000000000e+00 -4.957042841661644106e-01 0.000000000000000000e+00 0.000000000000000000e+00 -4.901936926371939784e-01 0.000000000000000000e+00 2.035327884662901932e-01 0.000000000000000000e+00 0.000000000000000000e+00 -5.960188353756750157e-01
-6.265311091344532603e-03 1.196902240054306815e-01 1.315493264798661861e-02 0.000000000000000000e+00 1.316567002331343605e-01 -7.557651422593616650e-03 2.843811563456473124e-01 4.470185893828075574e-03 0.000000000000000000e+00 -1.089547861166706016e-01 2.941379265129287143e-02 -4.935752274435793452e-01 -1.275250035087640080e-02 0.000000000000000000e+00 -5.088977271594371521e-01 1.084218904840879120e-02 2.218883959513939796e-01 -9.566780142463034847e-03 0.000000000000000000e+00 -5.931087093535962751e-01
0.000000000000000000e+00 5.892861227239384186e-02 0.000000000000000000e+00 3.884437975709491980e-02 6.967356364256319101e-02 0.000000000000000000e+00 2.942707719058175186e-01 0.000000000000000000e+00 5.673978460621890117e-03 -1.008838505642696837e-01 0.000000000000000000e+00 -4.718258638033547281e-01 0.000000000000000000e+00 -5.123872682070151896e-03 -4.709001915561957796e-01 0.000000000000000000e+00 2.299397248443193209e-01 0.000000000000000000e+00 4.740764790732385561e-03 -5.864117609133052689e-01
0.000000000000000000e+00 7.272593680937022853e-02 0.000000000000000000e+00 0.000000000000000000e+00 1.056129930513262094e-01 0.000000000000000000e+00 2.664052582873407404e-01 0.000000000000000000e+00 0.000000000000000000e+00 -9.748388271119490245e-02 0.000000000000000000e+00 -4.951939492582631552e-01 0.000000000000000000e+00 0.000000000000000000e+00 -5.058502199549815836e-01 0.000000000000000000e+00 2.060468894529563499e-01 0.000000000000000000e+00 0.000000000000000000e+00 -5.884889564661566208e-01
0.000000000000000000e+00 8.256748396887143848e-02 -4.620394224455195639e-03 0.000000000000000000e+00 1.087187516088320843e-01 0.000000000000000000e+00 3.023793848939397844e-01 1.189900526726857082e-02 0.000000000000000000e+00 -9.985468678178362201e-02 0.000000000000000000e+00 -4.732518200990241120e-01 -4.264747673831875002e-03 0.000000000000000000e+00 -4.812273864580307037e-01 0.000000000000000000e+00 2.148366840097856167e-01 -1.327141524715514005e-02 0.000000000000000000e+00 -6.149281103602173282e-01
0.000000000000000000e+00 8.329989610237531483e-02 0.000000000000000000e+00 1.321954736303869102e-02 1.117399191196042779e-01 0.000000000000000000e+00 2.659815578327435759e-01 0.000000000000000000e+00 2.360518357876117621e-02 -1.068302875300310567e-01 0.000000000000000000e+00 -5.132080255405124802e-01 0.000000000000000000e+00 1.628992616336383953e-02 -4.869167464328038042e-01 0.000000000000000000e+00 2.376474159150651078e-01 0.000000000000000000e+00 -3.249799033814121385e-02 -5.832134238421058381e-01
-2.396217024806294310e-02 2.918780824977855459e-02 1.169139495530263292e-02 0.000000000000000000e+00 8.626810543069809989e-02 5.214919228939605966e-02 3.517079686055743504e-01 4.254435546457054074e-02 0.000000000000000000e+00 -1.090788970295942378e-01 -2.954234460717060015e-02 -5.310768392697639007e-01 -3.632464756900494890e-02 0.000000000000000000e+00 -5.227235818080301355e-01 6.987089466868048881e-02 2.485832014533047862e-01 2.985168098628582234e-02 0.000000000000000000e+00 -6.115997331677368587e-01
0.000000000000000000e+00 9.294569965539634104e-02 0.000000000000000000e+00 0.000000000000000000e+00 8.294392862567205593e-02 0.000000000000000000e+00 2.443323262878418223e-01 0.000000000000000000e+00 0.000000000000000000e+00 -8.758376231207454232e-02 0.000000000000000000e+00 -5.091056040923199744e-01 0.000000000000000000e+00 0.000000000000000000e+00 -5.065627373210904727e-01 0.000000000000000000e+00 2.139928678485271130e-01 0.000000000000000000e+00 0.000000000000000000e+00 -5.714438892797848446e-01
0.000000000000000000e+00 9.932242918428144107e-02 0.000000000000000000e+00 0.000000000000000000e+00 9.953746441613885165e-02 0.000000000000000000e+00 2.945983002920714022e-01 0.000000000000000000e+00 0.000000000000000000e+00 -8.909580049432594406e-02 0.000000000000000000e+00 -4.919510250861761080e-01 0.000000000000000000e+00 0.000000000000000000e+00 -5.190188490969834811e-01 0.000000000000000000e+00 1.807153828662510509e-01 0.000000000000000000e+00 0.000000000000000000e+00 -5.947282344944497812e-01
0.000000000000000000e+00 8.139517951927965900e-02 0.000000000000000000e+00 2.567945019331968615e-02 4.940463588176957632e-02 0.000000000000000000e+00 3.357046293581891216e-01 0.000000000000000000e+00 -4.658064917984357234e-02 -6.570530994195078467e-02 0.000000000000000000e+00 -4.879483680797170320e-01 0.000000000000000000e+00 -2.512459827473148555e-02 -4.831919871787569987e-01 0.000000000000000000e+00 2.224206623561400531e-01 0.000000000000000000e+00 -2.555310206565034742e-02 -6.014170152257285462e-01
0.000000000000000000e+00 1.163754846937861964e-01 0.000000000000000000e+00 0.000000000000000000e+00 9.883650760040829653e-02 0.000000000000000000e+00 2.962489011270517669e-01 0.000000000000000000e+00 0.000000000000000000e+00 -1.154870733382942771e-01 0.000000000000000000e+00 -4.970762697647262418e-01 0.000000000000000000e+00 0.000000000000000000e+00 -4.921117171963171888e-01 0.000000000000000000e+00 2.018482104488227014e-01 0.000000000000000000e+00 0.000000000000000000e+00 -6.191114509781384667e-01
0.000000000000000000e+00 1.251358022497348899e-01 0.000000000000000000e+00 0.000000000000000000e+00 9.445207767202307148e-02 0.000000000000000000e+00 3.162538286845671398e-01 0.000000000000000000e+00 0.000000000000000000e+00 -1.021684712947143470e-01 0.000000000000000000e+00 -4.848361271141942153e-01 0.000000000000000000e+00 0.000000000000000000e+00 -4.624063273555437670e-01 0.000000000000000000e+00 1.929268554433316296e-01 0.000000000000000000e+00 0.000000000000000000e+00 -6.081919624680960368e-01
0.000000000000000000e+00 6.919383126463470035e-02 0.000000000000000000e+00 0.000000000000000000e+00 8.078333687106638294e-02 0.000000000000000000e+00 3.222996602663083521e-01 0.000000000000000000e+00 0.000000000000000000e+00 -9.348542144403064469e-02 0.000000000000000000e+00 -4.934410897803524487e-01 0.000000000000000000e+00 0.000000000000000000e+00 -5.031153411173167056e-01 0.000000000000000000e+00 2.110171605620352608e-01 0.000000000000000000e+00 0.000000000000000000e+00 -6.019741727232255091e-01
5.506913818108317982e-02 1.009188555903725720e-01 0.000000000000000000e+00 0.000000000000000000e+00 4.996927986066552335e-02 -3.189103510682841924e-03 2.894330680183901383e-01 0.000000000000000000e+00 0.000000000000000000e+00 -8.974893042723217085e-02 2.519616224167831042e-02 -4.828990468195893948e-01 0.000000000000000000e+00 0.000000000000000000e+00 -5.040748426404352278e-01 -2.777119910150772919e-02 1.892460810306916819e-01 0.000000000000000000e+00 0.000000000000000000e+00 -5.898003075957596320e-01
0.000000000000000000e+00 1.234123841034463348e-01 0.000000000000000000e+00 0.000000000000000000e+00 9.899126660327063620e-02 0.000000000000000000e+00 2.672744207697556607e-01 0.000000000000000000e+00 0.000000000000000000e+00 -8.202980340576604412e-02 0.000000000000000000e+00 -4.847621245865993411e-01 0.000000000000000000e+00 0.000000000000000000e+00 -5.081335632000655300e-01 0.000000000000000000e+00 1.589452404732260571e-01 0.000000000000000000e+00 0.000000000000000000e+00 -6.129731699849232385e-01
2.248710169644637519e-02 1.084922100782306498e-01 0.000000000000000000e+00 -3.986213422515287597e-02 8.736159243954556841e-02 -1.613889312671160786e-02 3.052290472097993757e-01 0.000000000000000000e+00 -2.706831089154034670e-03 -1.023710615247622191e-01 -1.015314365926060086e-03 -4.939632930514658571e-01 0.000000000000000000e+00 -2.501396254809647168e-02 -5.093292039263511706e-01 5.527548048261424901e-02 2.613323715688443127e-01 0.000000000000000000e+00 -2.646259186438921010e-02 -6.193261567699364090e-01
0.000000000000000000e+00 1.043231815708138277e-01 -1.228226167168259761e-02 0.000000000000000000e+00 1.055515065147816650e-01 0.000000000000000000e+00 3.395108010672205356e-01 2.174257395504072127e-02 0.000000000000000000e+00 -7.685485145567266807e-02 0.000000000000000000e+00 -5.128215394300156271e-01 -1.037270679985404995e-02 0.000000000000000000e+00 -5.571986406196572927e-01 0.000000000000000000e+00 2.011918702409138671e-01 4.718253086401620611e-03 0.000000000000000000e+00 -5.875188100183108553e-01
0.000000000000000000e+00 9.491553307383703009e-02 0.000000000000000000e+00 0.000000000000000000e+00 8.787346970662825163e-02 0.000000000000000000e+00 3.293503289220899299e-01 0.000000000000000000e+00 0.000000000000000000e+00 -8.585191813744344480e-02 0.000000000000000000e+00 -4.902067205188685439e-01 0.000000000000000000e+00 0.000000000000000000e+00 -4.955010762132357471e-01 0.000000000000000000e+00 2.010855834830559685e-01 0.000000000000000000e+00 0.000000000000000000e+00 -6.269430218431278901e-01
0.000000000000000000e+00 9.619237004933764434e-02 3.253221111143153599e-02 0.000000000000000000e+00 1.378159690851608055e-01 0.000000000000000000e+00 3.265807352217640624e-01 9.996923626846392075e-03 0.000000000000000000e+00 -1.249061701649595707e-01 0.000000000000000000e+00 -4.782023790869321389e-01 1.011779805247625674e-02 0.000000000000000000e+00 -4.839111098233213060e-01 0.000000000000000000e+00 2.357474718794485558e-01 -7.388910025383374491e-03 0.000000000000000000e+00 -5.686785066328199356e-01
6.413659796555179482e-02 9.609789866109187673e-02 0.000000000000000000e+00 8.940035106739263951e-03 7.422789042082361677e-02 5.009452924136654356e-02 3.371608812488967044e-01 0.000000000000000000e+00 -1.936847396534280286e-02 -1.085957301857084778e-01 3.779055094056490982e-02 -4.367038785953185620e-01 0.000000000000000000e+00 -2.465831355575199418e-02 -4.883287514708981036e-01 3.094983522739899913e-03 1.887314852308419610e-01 0.000000000000000000e+00 3.262568505864188451e-02 -6.104028097304035061e-01
0.000000000000000000e+00 7.676276373555061816e-02 2.581579144977665108e-02 0.000000000000000000e+00 1.274518894856193074e-01 0.000000000000000000e+00 2.947220769837127219e-01 2.170847937036243097e-02 0.000000000000000000e+00 -9.864816872762816047e-02 0.000000000000000000e+00 -4.880336010911968114e-01 -3.986581283382789609e-02 0.000000000000000000e+00 -5.143473638755486910e-01 0.000000000000000000e+00 2.027848442705852683e-01 -1.020894843918202823e-02 0.000000000000000000e+00 -5.806154081791182753e-01
-7.031284000539953991e-03 9.318210078065876367e-02 0.000000000000000000e+00 0.000000000000000000e+00 1.138797931567784999e-01 -3.936957713877091425e-02 2.903128068079135482e-01 0.000000000000000000e+00 0.000000000000000000e+00 -7.448760123025101321e-02 3.423773213070957500e-02 -4.658200904016692734e-01 0.000000000000000000e+00 0.000000000000000000e+00 -4.872914346306706501e-01 -2.690111041935703412e-03 1.908536511015253290e-01 0.000000000000000000e+00 0.000000000000000000e+00 -5.945374542788980365e-01
0.000000000000000000e+00 8.404775902361044659e-02 0.000000000000000000e+00 0.000000000000000000e+00 9.155125707891012543e-02 0.000000000000000000e+00 3.124982333718401284e-01 0.000000000000000000e+00 0.000000000000000000e+00 -9.506872937551305580e-02 0.000000000000000000e+00 -4.967195152657103985e-01 0.000000000000000000e+00 0.000000000000000000e+00 -4.833692265176166569e-01 0.000000000000000000e+00 1.901692640040230642e-01 0.000000000000000000e+00 0.000000000000000000e+00 -5.873673874039970766e-01
-3.934827221098147892e-02 6.519921513003912317e-02 0.000000000000000000e+00 1.423610631888226272e-02 8.857023622596651991e-02 3.780079000504634953e-04 3.347198232662811912e-01 0.000000000000000000e+00 -2.632171807008860248e-02 -9.192045407057566897e-02 6.147068482745942503e-02 -4.685770437654595000e-01 0.000000000000000000e+00 -1.307315605290268121e-02 -5.363779128551635633e-01 -3.356135467691919588e-02 2.114086630928093125e-01 0.000000000000000000e+00 -2.515613528690160972e-05 -5.573735606700923606e-01
0.000000000000000000e+00 1.172937921154783153e-01 1.579917252530585806e-02 0.000000000000000000e+00 1.171565913376148710e-01 0.000000000000000000e+00 2.975849946267607460e-01 -1.620310647912158106e-02 0.000000000000000000e+00 -1.145427559276055163e-01 0.000000000000000000e+00 -5.413299416048851231e-01 4.958133385152239947e-04 0.000000000000000000e+00 -5.353292375129926617e-01 0.000000000000000000e+00 1.756155871243288424e-01 -1.640587425064303148e-02 0.000000000000000000e+00 -6.145683979588177914e-01
-3.643800298380830971e-02 7.949778239318321116e-02 0.000000000000000000e+00 0.000000000000000000e+00 1.294799619579176386e-01 2.319526533755945918e-02 3.102134958596672876e-01 0.000000000000000000e+00 0.000000000000000000e+00 -1.195617305479698134e-01 -5.301727803526046917e-03 -4.766549221506495293e-01 0.000000000000000000e+00 0.000000000000000000e+00 -4.712387547970166013e-01 2.403388734335221762e-03 1.885084437662091772e-01 0.000000000000000000e+00 0.000000000000000000e+00 -5.910258784952377997e-01
0.000000000000000000e+00 1.110116005436343478e-01 0.000000000000000000e+00 0.000000000000000000e+00 1.110802883595211621e-01 0.000000000000000000e+00 3.170517554438239127e-01 0.000000000000000000e+00 0.000000000000000000e+00 -1.028985627529049179e-01 0.000000000000000000e+00 -4.811481390166901240e-01 0.000000000000000000e+00 0.000000000000000000e+00 -4.851995384129286215e-01 0.000000000000000000e+00 2.304070795421518936e-01 0.000000000000000000e+00 0.000000000000000000e+00 -5.916145857290328047e-01
8.748798351704181742e-03 8.450493562222903543e-02 0.000000000000000000e+00 1.215499218505738076e-02 7.843060266076959386e-02 6.474474926717673981e-03 3.188688753914644680e-01 0.000000000000000000e+00 -8.761585659684262631e-03 -8.117028683422405910e-02 1.352988998426576418e-02 -4.587160811219877510e-01 0.000000000000000000e+00 -4.138467837721412912e-02 -4.809537457201878974e-01 2.006654609170894360e-02 1.928749859178846560e-01 0.000000000000000000e+00 -1.869052854330211996e-03 -5.985282239332668786e-01
0.000000000000000000e+00 1.321927892578970698e-01 -2.564410397246240023e-02 0.000000000000000000e+00 1.097428691787699501e-01 0.000000000000000000e+00 2.841381924554811089e-01 -1.237661901209625298e-02 0.000000000000000000e+00 -1.241839049253630894e-01 0.000000000000000000e+00 -5.230315903697545510e-01 -1.765097644778316696e-02 0.000000000000000000e+00 -5.112109622801828124e-01 0.000000000000000000e+00 2.186778677943810867e-01 -9.413640490887852097e-04 0.000000000000000000e+00 -5.633121617721335017e-01
-2.326219010583147756e-02 6.746338522674173721e-02 0.000000000000000000e+00 8.593701168159042711e-03 8.332869680763047016e-02 -1.509392777898096137e-02 2.562631031686484762e-01 0.000000000000000000e+00 4.787917066132939270e-02 -8.515341321263406038e-02 4.937643255155116026e-03 -4.608716283911263312e-01 0.000000000000000000e+00 -1.019409463171018840e-02 -4.990826175552059984e-01 -1.408692788431293447e-02 2.151209587436036241e-01 0.000000000000000000e+00 -1.834757791943562519e-02 -5.890723836245970180e-01
0.000000000000000000e+00 6.803042887226981583e-02 3.240745289352137473e-03 0.000000000000000000e+00 1.089494960044130462e-01 0.000000000000000000e+00 3.111500337941019434e-01 2.389674127552378693e-02 0.000000000000000000e+00 -6.329825224005189432e-02 0.000000000000000000e+00 -4.733705415879819745e-01 -3.842687664608109011e-02 0.000000000000000000e+00 -4.856289549629021485e-01 0.000000000000000000e+00 1.857106517454023276e-01 -3.348645188335944156e-02 0.000000000000000000e+00 -6.209630915475100599e-01
1.632535872438837382e-02 1.254373465079089978e-01 0.000000000000000000e+00 -9.624282209799888896e-03 1.132128628449819568e-01 1.732702219353155978e-02 2.953156593959647691e-01 0.000000000000000000e+00 4.106604857978094630e-02 -1.954674788815866371e-01 6.723262192051183798e-03 -4.385849913976384018e-01 0.000000000000000000e+00 -4.332455812933071193e-02 -4.524951401764548686e-01 -9.266969109279783040e-04 1.751441963558029724e-01 0.000000000000000000e+00 -3.871384623452837209e-02 -5.885836039544898313e-01
0.000000000000000000e+00 1.228884087450553414e-01 0.000000000000000000e+00 0.000000000000000000e+00 1.064727798427868161e-01 0.000000000000000000e+00 2.584911406320041238e-01 0.000000000000000000e+00 0.000000000000000000e+00 -1.369028256075905947e-01 0.000000000000000000e+00 -5.195955633922424433e-01 0.000000000000000000e+00 0.000000000000000000e+00 -5.321485468767792604e-01 0.000000000000000000e+00 1.290445618129947292e-01 0.000000000000000000e+00 0.000000000000000000e+00 -5.738741696122631186e-01
0.000000000000000000e+00 1.163505073734954348e-01 6.462084966040407275e-02 -1.253561371953222300e-02 1.566113392262773185e-01 0.000000000000000000e+00 3.109587313434721279e-01 -2.739432059341158354e-02 2.131042395401667316e-02 -1.087888455174048641e-01 0.000000000000000000e+00 -5.244956574389623150e-01 -9.791281536932438384e-03 1.359272160901898313e-02 -5.374202336740298014e-01 0.000000000000000000e+00 1.614484893953683220e-01 4.230197620815904364e-02 5.193987375169496767e-03 -5.500050109835444845e-01
-8.377120986594258079e-02 4.649022198950798074e-02 0.000000000000000000e+00 0.000000000000000000e+00 1.766223441891196511e-01 -5.566287381998482470e-02 2.761888538701470219e-01 0.000000000000000000e+00 0.000000000000000000e+00 -5.942296788498583476e-02 -1.243197025121237434e-02 -4.754865746516916958e-01 0.000000000000000000e+00 0.000000000000000000e+00 -4.694930103012489586e-01 -3.595289262776150963e-02 1.770536513269528600e-01 0.000000000000000000e+00 0.000000000000000000e+00 -5.897737233986921623e-01
0.000000000000000000e+00 6.723979476012496848e-02 3.125474844676751768e-02 2.116829297528250234e-02 1.284295970303631074e-01 0.000000000000000000e+00 2.899603925253034786e-01 -7.160134379390711845e-03 2.826757332352574509e-02 -1.183971011130478951e-01 0.000000000000000000e+00 -4.579914551581710791e-01 4.816052222568414920e-02 -2.239666829554350438e-02 -4.488175811888102107e-01 0.000000000000000000e+00 1.791083947886002170e-01 2.137071859936146359e-02 1.418770919394214680e-02 -6.002368871841121667e-01
0.000000000000000000e+00 8.533585350057698582e-02 0.000000000000000000e+00 0.000000000000000000e+00 9.162960836085035088e-02 0.000000000000000000e+00 3.095099421847434251e-01 0.000000000000000000e+00 0.000000000000000000e+00 -9.443508989736250359e-02 0.000000000000000000e+00 -4.942709591238304556e-01 0.000000000000000000e+00 0.000000000000000000e+00 -5.219744009101676685e-01 0.000000000000000000e+00 1.811544171009034088e-01 0.000000000000000000e+00 0.000000000000000000e+00 -5.998467365283730590e-01
0.000000000000000000e+00 1.754670528296998488e-01 8.970828588588582175e-02 -9.828090484362311807e-02 2.361239104649723863e-01 0.000000000000000000e+00 3.166072957361014684e-01 2.972439144691947643e-02 -4.256608049007944844e-02 -6.708516677635589787e-02 0.000000000000000000e+00 -5.241019931297860035e-01 -7.111865025907342097e-02 3.780411994278862903e-02 -5.399896955656244835e-01 0.000000000000000000e+00 1.938289900595261683e-01 2.990141400291751461e-02 -2.480445280203594227e-03 -5.838834271918554863e-01
4.192935698985625348e-02 1.329855654063651360e-01 0.000000000000000000e+00 0.000000000000000000e+00 7.486365590322469066e-02 6.630818115061463958e-04 2.603736778935109575e-01 0.000000000000000000e+00 0.000000000000000000e+00 -1.095357729660446922e-01 2.114466855058327877e-02 -4.934176788977717165e-01 0.000000000000000000e+00 0.000000000000000000e+00 -4.935724348898508640e-01 -3.497707952179507362e-02 2.093627256913483115e-01 0.000000000000000000e+00 0.000000000000000000e+00 -5.627700109190806321e-01
0.000000000000000000e+00 1.154880428018563304e-01 0.000000000000000000e+00 0.000000000000000000e+00 1.030875022813715625e-01 0.000000000000000000e+00 2.961263101234891670e-01 0.000000000000000000e+00 0.000000000000000000e+00 -1.036366337285729022e-01 0.000000000000000000e+00 -5.411162346778926047e-01 0.000000000000000000e+00 0.000000000000000000e+00 -5.097719366113361295e-01 0.000000000000000000e+00 1.677791880215332709e-01 0.000000000000000000e+00 0.000000000000000000e+00 -6.375583988638764410e-01
0.000000000000000000e+00 9.991131940475701800e-02 0.000000000000000000e+00 -5.599840140043581792e-03 1.025463914770774615e-01 0.000000000000000000e+00 3.559671915321437341e-01 0.000000000000000000e+00 -8.060618955628352789e-02 -8.296822478069637574e-02 0.000000000000000000e+00 -5.136156172203669712e-01 0.000000000000000000e+00 -6.634707100571315269e-03 -5.177633945172089858e-01 0.000000000000000000e+00 2.195413222381672469e-01 0.000000000000000000e+00 -3.148740803564559904e-02 -5.752526179126286054e-01
0.000000000000000000e+00 8.929194637856509298e-02 0.000000000000000000e+00 0.000000000000000000e+00 6.593470516136193393e-02 0.000000000000000000e+00 3.033720960278399881e-01 0.000000000000000000e+00 0.000000000000000000e+00 -9.943731153988723259e-02 0.000000000000000000e+00 -4.745282346708035726e-01 0.000000000000000000e+00 0.000000000000000000e+00 -5.083794986993687148e-01 0.000000000000000000e+00 2.097718001449331848e-01 0.000000000000000000e+00 0.000000000000000000e+00 -5.837694079868793740e-01
9.638108322137940720e-03 9.940724928521024739e-02 0.000000000000000000e+00 0.000000000000000000e+00 8.898961724343096291e-02 1.370295116873412877e-02 3.156063408269214055e-01 0.000000000000000000e+00 0.000000000000000000e+00 -1.197893507771471827e-01 -2.290058183659711422e-02 -4.806742564273129847e-01 0.000000000000000000e+00 0.000000000000000000e+00 -5.036992961281798742e-01 1.194022977998469848e-03 1.973252848175661711e-01 0.000000000000000000e+00 0.000000000000000000e+00 -5.884941435370203422e-01
0.000000000000000000e+00 8.658545623339813924e-02 1.650177586681412373e-02 -7.122378231329023167e-03 1.323267620382886922e-01 0.000000000000000000e+00 2.739364171038084494e-01 -4.780354411133189152e-02 6.040700439687878009e-02 -1.353524348842358171e-01 0.000000000000000000e+00 -4.874265640391512444e-01 -2.540612449533869235e-02 -3.478072531510433777e-03 -5.167156458397048624e-01 0.000000000000000000e+00 1.910244888508264849e-01 2.695357781301432887e-02 -1.705909178642046192e-02 -5.837475628048657272e-01
0.000000000000000000e+00 1.156955354849773937e-01 0.000000000000000000e+00 0.000000000000000000e+00 1.047742197893171689e-01 0.000000000000000000e+00 2.700910060346586317e-01 0.000000000000000000e+00 0.000000000000000000e+00 -7.945637492019527737e-02 0.000000000000000000e+00 -4.494844864794005357e-01 0.000000000000000000e+00 0.000000000000000000e+00 -4.888284702429923079e-01 0.000000000000000000e+00 1.847272363547451390e-01 0.000000000000000000e+00 0.000000000000000000e+00 -5.787429221082590614e-01
0.000000000000000000e+00 9.792128097594984815e-02 0.000000000000000000e+00 0.000000000000000000e+00 7.494063610411196008e-02 0.000000000000000000e+00 2.730906927392269257e-01 0.000000000000000000e+00 0.000000000000000000e+00 -6.923247088781372960e-02 0.000000000000000000e+00 -4.945628847067577438e-01 0.000000000000000000e+00 0.000000000000000000e+00 -4.947458020507330967e-01 0.000000000000000000e+00 2.163355151989250214e-01 0.000000000000000000e+00 0.000000000000000000e+00 -6.124665253322637559e-01
0.000000000000000000e+00 8.790953309571236662e-02 -1.279663531831664106e-02 0.000000000000000000e+00 7.939853669714871942e-02 0.000000000000000000e+00 3.023639289357215043e-01 -1.844398348839059940e-02 0.000000000000000000e+00 -1.280628450961942000e-01 0.000000000000000000e+00 -5.202885620599271288e-01 -3.241033125336264392e-02 0.000000000000000000e+00 -5.354376274943001279e-01 0.000000000000000000e+00 2.002398547276024732e-01 -1.128559688011033721e-02 0.000000000000000000e+00 -6.051145489275129297e-01
-8.661771789735768501e-03 1.260726136378559903e-01 0.000000000000000000e+00 -1.933687720708363034e-02 1.064655486466992707e-01 2.824618202024263298e-03 2.960524466211307826e-01 0.000000000000000000e+00 2.593945678959804022e-03 -1.164551566595117965e-01 1.748109651103110784e-02 -4.761920146801172371e-01 0.000000000000000000e+00 -3.005672676738354449e-02 -4.921622516921652091e-01 1.839998322570197964e-02 1.853195452474679372e-01 0.000000000000000000e+00 3.544385085485173698e-02 -6.365425175716388217e-01
0.000000000000000000e+00 7.773973182935881021e-02 1.656848167950456321e-02 0.000000000000000000e+00 9.507827403826436818e-02 0.000000000000000000e+00 2.876351581133506086e-01 -1.627315883942254474e-02 0.000000000000000000e+00 -1.381499322869383650e-01 0.000000000000000000e+00 -4.831658938361436673e-01 -4.629963324264425167e-03 0.000000000000000000e+00 -4.709840899386983359e-01 0.000000000000000000e+00 2.016292555238446416e-01 -1.988220045349618423e-02 0.000000000000000000e+00 -6.280386970752105391e-01
-4.433402773553127285e-03 3.000834135677366704e-02 0.000000000000000000e+00 1.515149348784200836e-02 7.614469702064145806e-02 3.309112413040153633e-03 2.945113185116348120e-01 0.000000000000000000e+00 2.381895756504239306e-02 -1.315427658199709027e-01 3.351438675928800071e-02 -4.456075382582935784e-01 0.000000000000000000e+00 -4.188877711348257954e-02 -4.872245028986986748e-01 7.320258930451477297e-02 2.154332596771366404e-01 0.000000000000000000e+00 1.730646972529571032e-02 -6.611005716951637856e-01
0.000000000000000000e+00 9.110638879958232739e-02 3.564498358721104182e-02 0.000000000000000000e+00 1.106993028727234485e-01 0.000000000000000000e+00 3.108157586053091892e-01 2.034237546456988191e-02 0.000000000000000000e+00 -7.164873718024694638e-02 0.000000000000000000e+00 -4.851463556761453910e-01 5.699969001783272704e-02 0.000000000000000000e+00 -4.616889357925711979e-01 0.000000000000000000e+00 1.792977637214965281e-01 -2.394049807533734156e-02 0.000000000000000000e+00 -6.269171425801706166e-01
0.000000000000000000e+00 9.398502630192309693e-02 0.000000000000000000e+00 0.000000000000000000e+00 1.134916027105437181e-01 0.000000000000000000e+00 2.935119015324016423e-01 0.000000000000000000e+00 0.000000000000000000e+00 -1.227483382444643778e-01 0.000000000000000000e+00 -4.888365623456502052e-01 0.000000000000000000e+00 0.000000000000000000e+00 -4.769784736864335906e-01 0.000000000000000000e+00 1.958678470662739701e-01 0.000000000000000000e+00 0.000000000000000000e+00 -5.858456803231339993e-01
0.000000000000000000e+00 8.134015002999694932e-02 7.109273325291842749e-02 -6.177665075482530188e-02 1.313106863440643424e-01 0.000000000000000000e+00 2.961845941813058269e-01 8.042678962378989327e-02 -4.255780087505982301e-02 -8.660731403589842781e-02 0.000000000000000000e+00 -5.372722238544186402e-01 -5.894049550627885464e-02 6.629427914455368609e-02 -5.547405977126607102e-01 0.000000000000000000e+00 2.635371805925731947e-01 -1.302498397855052920e-02 -8.429114270058032932e-03 -5.526764697570918372e-01
0.000000000000000000e+00 7.050355675064623462e-02 0.000000000000000000e+00 0.000000000000000000e+00 7.945497565166755038e-02 0.000000000000000000e+00 2.278767682131786487e-01 0.000000000000000000e+00 0.000000000000000000e+00 -1.125112806454382497e-01 0.000000000000000000e+00 -5.028676897780839372e-01 0.000000000000000000e+00 0.000000000000000000e+00 -4.622945757274922740e-01 0.000000000000000000e+00 2.003203179572138892e-01 0.000000000000000000e+00 0.000000000000000000e+00 -6.281167479126079645e-01
-4.464914381065625965e-02 5.446413295017300121e-02 0.000000000000000000e+00 0.000000000000000000e+00 1.541798069799495408e-01 -2.235266999409805944e-02 3.232717893279293264e-01 0.000000000000000000e+00 0.000000000000000000e+00 -7.287466118990992836e-02 -9.931875725027412838e-03 -4.860673011925026321e-01 0.000000000000000000e+00 0.000000000000000000e+00 -4.647414997827266081e-01 1.000000381446865781e-02 1.408067510528935862e-01 0.000000000000000000e+00 0.000000000000000000e+00 -6.282591310697483999e-01
0.000000000000000000e+00 6.846143901658441333e-02 6.459103593228623930e-02 0.000000000000000000e+00 1.591787486263092355e-01 0.000000000000000000e+00 2.665953462988728262e-01 6.614269138884600746e-03 0.000000000000000000e+00 -7.590168885756612416e-02 0.000000000000000000e+00 -5.155926254239338036e-01 -7.004888465905243985e-03 0.000000000000000000e+00 -4.811905989015786145e-01 0.000000000000000000e+00 1.705128820552405944e-01 6.409795527833260509e-02 0.000000000000000000e+00 -5.665831461423231907e-01
0.000000000000000000e+00 5.487554607529650241e-02 0.000000000000000000e+00 0.000000000000000000e+00 5.797203762553476691e-02 0.000000000000000000e+00 2.621794566965864881e-01 0.000000000000000000e+00 0.000000000000000000e+00 -1.494707844616552928e-01 0.000000000000000000e+00 -5.305737369446620333e-01 0.000000000000000000e+00 0.000000000000000000e+00 -5.187496581752871760e-01 0.000000000000000000e+00 1.885344286158424643e-01 0.000000000000000000e+00 0.000000000000000000e+00 -5.651300581313164484e-01
6.299509485665852337e-02 1.233078336164070976e-01 0.000000000000000000e+00 0.000000000000000000e+00 6.310615320642518067e-02 -5.807170753887917758e-02 2.536337133168941049e-01 0.000000000000000000e+00 0.000000000000000000e+00 -4.975271404515804741e-02 8.146554468859347475e-02 -4.655818844382393906e-01 0.000000000000000000e+00 0.000000000000000000e+00 -5.251959887909191105e-01 -4.884136068645934803e-02 1.867636716003609199e-01 0.000000000000000000e+00 0.000000000000000000e+00 -5.798265377820439603e-01
0.000000000000000000e+00 9.819314384718404176e-02 0.000000000000000000e+00 0.000000000000000000e+00 9.616489554103044290e-02 0.000000000000000000e+00 2.857896510580149041e-01 0.000000000000000000e+00 0.000000000000000000e+00 -1.368928694796384959e-01 0.000000000000000000e+00 -5.067566651566023372e-01 0.000000000000000000e+00 0.000000000000000000e+00 -5.097200493136744281e-01 0.000000000000000000e+00 2.209635350161641143e-01 0.000000000000000000e+00 0.000000000000000000e+00 -5.919724110872240930e-01
-4.071676378311132882e-02 6.395986765478567371e-02 0.000000000000000000e+00 -1.413752926431112444e-02 1.180786539668607638e-01 3.355985074647818006e-02 3.254345142987944417e-01 0.000000000000000000e+00 -1.276253394621448475e-02 -9.042740383661868053e-02 -1.158089279848014200e-02 -4.649824961436342385e-01 0.000000000000000000e+00 -3.500737091033003651e-02 -4.651008391971816480e-01 7.541305603472882660e-03 1.767493955711121334e-01 0.000000000000000000e+00 1.614127126829400377e-02 -6.226094947749295505e-01
0.000000000000000000e+00 7.194289710745123412e-02 0.000000000000000000e+00 0.000000000000000000e+00 8.715256718099118061e-02 0.000000000000000000e+00 2.903730713788689743e-01 0.000000000000000000e+00 0.000000000000000000e+00 -1.443451839261611636e-01 0.000000000000000000e+00 -5.249417772327817922e-01 0.000000000000000000e+00 0.000000000000000000e+00 -5.091568104231126712e-01 0.000000000000000000e+00 2.215919232442012388e-01 0.000000000000000000e+00 0.000000000000000000e+00 -6.050501054318830896e-01
0.000000000000000000e+00 9.076971355203587721e-02 0.000000000000000000e+00 0.000000000000000000e+00 7.502250918364868071e-02 0.000000000000000000e+00 3.019192091558728919e-01 0.000000000000000000e+00 0.000000000000000000e+00 -1.017911543498354748e-01 0.000000000000000000e+00 -4.954501468241055973e-01 0.000000000000000000e+00 0.000000000000000000e+00 -4.969465322760295845e-01 0.000000000000000000e+00 1.694494834736842426e-01 0.000000000000000000e+00 0.000000000000000000e+00 -5.959970620852799161e-01
-3.388476249131568835e-02 9.959426723128081416e-02 -1.528777157418129487e-02 0.000000000000000000e+00 1.409120197897824056e-01 6.048240284791667198e-02 3.402977929865054763e-01 4.186246350827990681e-02 0.000000000000000000e+00 -1.121376972561781427e-01 -4.427056448922747633e-02 -4.740964186685985293e-01 -3.165366761505103432e-02 0.000000000000000000e+00 -4.647581660128441428e-01 -3.458569067299852723e-02 1.691265827495092855e-01 -2.126471226095594247e-02 0.000000000000000000e+00 -6.055589169654772563e-01
0.000000000000000000e+00 9.735495269072791391e-02 0.000000000000000000e+00 1.733080593507388759e-02 9.669091806813455425e-02 0.000000000000000000e+00 2.697513753171093542e-01 0.000000000000000000e+00 2.142570924855532327e-02 -1.323308953726285153e-01 0.000000000000000000e+00 -4.794717619774072070e-01 0.000000000000000000e+00 -2.065320672568319790e-02 -5.454866292749227519e-01 0.000000000000000000e+00 1.644501009964056681e-01 0.000000000000000000e+00 1.467589820118690713e-02 -6.294102319099426079e-01
0.000000000000000000e+00 1.417961382981499097e-01 0.000000000000000000e+00 0.000000000000000000e+00 1.004961617525431949e-01 0.000000000000000000e+00 3.198364009329165425e-01 0.000000000000000000e+00 0.000000000000000000e+00 -1.124672158913548048e-01 0.000000000000000000e+00 -5.050012269510892882e-01 0.000000000000000000e+00 0.000000000000000000e+00 -4.960743262901246564e-01 0.000000000000000000e+00 1.993128633759197188e-01 0.000000000000000000e+00 0.000000000000000000e+00 -6.087388842212418938e-01
0.000000000000000000e+00 1.178703586799766251e-01 0.000000000000000000e+00 0.000000000000000000e+00 1.040739724876926231e-01 0.000000000000000000e+00 2.902773122531082661e-01 0.000000000000000000e+00 0.000000000000000000e+00 -1.117065458162709857e-01 0.000000000000000000e+00 -4.572356632494257722e-01 0.000000000000000000e+00 0.000000000000000000e+00 -4.930359439797995513e-01 0.000000000000000000e+00 1.780018236710931845e-01 0.000000000000000000e+00 0.000000000000000000e+00 -5.595011000167957604e-01
1.237905491171099187e-02 1.204293747689790806e-01 0.000000000000000000e+00 0.000000000000000000e+00 1.249581180734653518e-01 -3.042397392382562016e-02 2.951919594294905580e-01 0.000000000000000000e+00 0.000000000000000000e+00 -1.075303945138773865e-01 2.654661535198594643e-02 -4.768710927798556209e-01 0.000000000000000000e+00 0.000000000000000000e+00 -5.144594372946136307e-01 3.069987017814793193e-03 1.792609623665661900e-01 0.000000000000000000e+00 0.000000000000000000e+00 -6.000215137984457048e-01
0.000000000000000000e+00 8.241122832398915798e-02 2.909974113667211128e-03 0.000000000000000000e+00 8.809386956332439234e-02 0.000000000000000000e+00 2.539696726353084522e-01 -9.365946677221344968e-03 0.000000000000000000e+00 -1.228618111492915249e-01 0.000000000000000000e+00 -4.831984600961334864e-01 1.143541155633750334e-03 0.000000000000000000e+00 -4.869874203105309385e-01 0.000000000000000000e+00 2.009320862465107382e-01 -1.670817562848479765e-02 0.000000000000000000e+00 -6.198941374206972110e-01
1.617426837780384929e-02 1.358992129113798242e-01 0.000000000000000000e+00 0.000000000000000000e+00 1.133353170812965161e-01 2.086384820868670935e-04 2.885529252956512414e-01 0.000000000000000000e+00 0.000000000000000000e+00 -1.272153361560024731e-01 -3.232759226257721219e-02 -4.718832284258993037e-01 0.000000000000000000e+00 0.000000000000000000e+00 -4.726118844677905662e-01 3.226962178362111078e-02 1.842104326474713061e-01 0.000000000000000000e+00 0.000000000000000000e+00 -6.628568251017351587e-01
0.000000000000000000e+00 1.068744723882930486e-01 7.515774777303899090e-02 -4.382140265851932476e-02 1.408754021156091440e-01 0.000000000000000000e+00 3.001212399949622078e-01 -8.290805724807052968e-02 3.984987849109432323e-02 -1.845587404473685023e-01 0.000000000000000000e+00 -5.004337869627246693e-01 -3.974974828095865359e-02 1.879748436685976104e-02 -5.299441313245795149e-01 0.000000000000000000e+00 1.997014603603593508e-01 -8.253897005907037676e-02 6.315745967258770688e-02 -6.189025967119066163e-01
6.691977665593237812e-02 9.802028830354864164e-02 0.000000000000000000e+00 0.000000000000000000e+00 4.258005071067164082e-02 -9.686570458588143751e-02 2.710644955180313009e-01 0.000000000000000000e+00 0.000000000000000000e+00 -3.496279035685204151e-02 -2.633732110592947734e-02 -5.133936581600518911e-01 0.000000000000000000e+00 0.000000000000000000e+00 -4.770789915442416596e-01 4.071807491515779670e-02 2.036176431753276284e-01 0.000000000000000000e+00 0.000000000000000000e+00 -5.971031692131567592e-01
0.000000000000000000e+00 7.122674022297753593e-02 -2.430317303534098444e-02 4.025539344941284764e-02 5.851990856387554590e-02 0.000000000000000000e+00 2.505777276481457871e-01 -1.426925230895732810e-02 1.170241408404297002e-02 -1.300348255572360001e-01 0.000000000000000000e+00 -4.699881896353187427e-01 2.287293986039007701e-02 -4.475902417481782136e-03 -4.978135456297452244e-01 0.000000000000000000e+00 1.974014536038806444e-01 2.970201813216633013e-02 -4.344960592824551743e-02 -5.656692040750733730e-01
0.000000000000000000e+00 7.538269541649340877e-02 0.000000000000000000e+00 0.000000000000000000e+00 8.723456478240733392e-02 0.000000000000000000e+00 2.649258690373195169e-01 0.000000000000000000e+00 0.000000000000000000e+00 -1.287772866575840891e-01 0.000000000000000000e+00 -5.067524571818704526e-01 0.000000000000000000e+00 0.000000000000000000e+00 -4.815564161323055981e-01 0.000000000000000000e+00 1.832684199903568956e-01 0.000000000000000000e+00 0.000000000000000000e+00 -6.044968947772311196e-01
0.000000000000000000e+00 1.281254930307502427e-01 2.327335944273233731e-02 -2.394536272330185372e-02 1.442829856750433848e-01 0.000000000000000000e+00 2.859571758238756978e-01 2.568404821605715579e-03 -1.007378238048735851e-02 -1.090560667877918388e-01 0.000000000000000000e+00 -4.767772156685371465e-01 7.880334436608201973e-03 -4.754093847976639461e-03 -4.720990757479947564e-01 0.000000000000000000e+00 1.497181865449867533e-01 -2.061812069062797168e-02 4.220646992891801536e-02 -6.416202712725584956e-01
0.000000000000000000e+00 9.130545216556706922e-02 0.000000000000000000e+00 0.000000000000000000e+00 7.653949263301551564e-02 0.000000000000000000e+00 3.090375002501017376e-01 0.000000000000000000e+00 0.000000000000000000e+00 -8.332381633352523020e-02 0.000000000000000000e+00 -5.301742437791537865e-01 0.000000000000000000e+00 0.000000000000000000e+00 -5.042235652753143116e-01 0.000000000000000000e+00 2.017354371596797313e-01 0.000000000000000000e+00 0.000000000000000000e+00 -5.918588450910406973e-01
0.000000000000000000e+00 7.913352303371791463e-02 2.774448817170547740e-02 0.000000000000000000e+00 1.070733515388355706e-01 0.000000000000000000e+00 3.135451010955516149e-01 -2.859998940263669409e-02 0.000000000000000000e+00 -1.100657229550314198e-01 0.000000000000000000e+00 -4.995469252707219754e-01 3.807315518628276441e-02 0.000000000000000000e+00 -4.788845216819296868e-01 0.000000000000000000e+00 2.003533119174626120e-01 -1.846409464216528309e-03 0.000000000000000000e+00 -6.148878880947518111e-01
-1.363837645178828800e-02 8.666662239154471203e-02 0.000000000000000000e+00 0.000000000000000000e+00 1.199727934398937129e-01 1.186910494586459683e-02 2.847661060562121094e-01 0.000000000000000000e+00 0.000000000000000000e+00 -1.204174340563578249e-01 2.608292015874559208e-02 -4.592530916862170853e-01 0.000000000000000000e+00 0.000000000000000000e+00 -4.980687463470555576e-01 -2.954040690477075307e-02 2.001097350265928776e-01 0.000000000000000000e+00 0.000000000000000000e+00 -6.005754021328502112e-01
0.000000000000000000e+00 9.867226980933190006e-02 1.075590567545096042e-02 0.000000000000000000e+00 7.682767766476145122e-02 0.000000000000000000e+00 2.845924161084990578e-01 -1.751132677346516758e-02 0.000000000000000000e+00 -1.050602778861547404e-01 0.000000000000000000e+00 -5.181686178456120784e-01 -5.354223800690337265e-02 0.000000000000000000e+00 -5.485278641357415053e-01 0.000000000000000000e+00 2.037665527671183030e-01 -3.350848582859183855e-02 0.000000000000000000e+00 -6.107130310509976123e-01
0.000000000000000000e+00 5.384065882301979078e-02 0.000000000000000000e+00 0.000000000000000000e+00 9.464966230811028280e-02 0.000000000000000000e+00 2.604384677874945209e-01 0.000000000000000000e+00 0.000000000000000000e+00 -1.164232221373438236e-01 0.000000000000000000e+00 -4.849655949864924431e-01 0.000000000000000000e+00 0.000000000000000000e+00 -4.484849332216494511e-01 0.000000000000000000e+00 1.737821497765788537e-01 0.000000000000000000e+00 0.000000000000000000e+00 -6.231477339221122014e-01
0.000000000000000000e+00 1.360187653176647693e-01 -1.678689307824242707e-02 -3.793409699104059729e-02 9.178277806487215862e-02 0.000000000000000000e+00 2.655546544397070496e-01 -7.799075459704646329e-02 8.266025552199472715e-02 -1.756002772788020638e-01 0.000000000000000000e+00 -5.261356704307728060e-01 4.138643329801974802e-03 -5.615849576090063688e-03 -5.036079333897495180e-01 0.000000000000000000e+00 1.473310495340675041e-01 -2.395590574161959863e-02 2.764650589320460233e-02 -6.413311992337299428e-01
-2.103605382909406324e-02 8.290852775434914834e-02 0.000000000000000000e+00 0.000000000000000000e+00 1.285938648297232922e-01 3.778426388324115925e-02 3.230321056804509317e-01 0.000000000000000000e+00 0.000000000000000000e+00 -1.643274333287628175e-01 -2.799801148804208217e-02 -4.637981775037139376e-01 0.000000000000000000e+00 0.000000000000000000e+00 -4.234473496809817994e-01 1.000952829772553537e-02 2.298474805331114645e-01 0.000000000000000000e+00 0.000000000000000000e+00 -6.188253743482932112e-01
0.000000000000000000e+00 7.812922328935521799e-02 -3.840768434872093851e-02 3.662076949662401021e-02 5.835193215217399088e-02 0.000000000000000000e+00 3.437554519690589339e-01 9.645227875608359397e-03 -4.228825249189271940e-02 -3.554426110161346131e-02 0.000000000000000000e+00 -4.874545582579015712e-01 -1.026889693048336875e-02 3.012023016869712355e-02 -5.154200719713194490e-01 0.000000000000000000e+00 2.189609694489736136e-01 6.604362098411700743e-02 -6.330118048194291469e-02 -4.903161981040693451e-01
0.000000000000000000e+00 8.355814063741506814e-02 0.000000000000000000e+00 0.000000000000000000e+00 7.752658712856848322e-02 0.000000000000000000e+00 3.270055999593461937e-01 0.000000000000000000e+00 0.000000000000000000e+00 -6.602995590888754984e-02 0.000000000000000000e+00 -4.854868987982375317e-01 0.000000000000000000e+00 0.000000000000000000e+00 -5.204374482092249954e-01 0.000000000000000000e+00 2.076936900221266757e-01 0.000000000000000000e+00 0.000000000000000000e+00 -6.340088222502757720e-01
9.877163988617458645e-02 1.808958977505938925e-01 5.042114306936364837e-02 -8.227101759189683894e-02 1.332579862838629836e-01 8.174399912068132379e-02 3.907236970267476961e-01 7.131243729615611981e-02 -7.100480958105567786e-02 -7.159303469903717521e-02 1.534554715966535143e-01 -2.893718256015815893e-01 1.935143387704826579e-01 -2.174864422904383698e-01 -3.992535400578656191e-01 6.835852362827610218e-02 2.554960745987485682e-01 -2.992866946267505601e-02 -2.199111346276990189e-02 -6.303506879448690370e-01
0.000000000000000000e+00 8.473146285118927923e-02 0.000000000000000000e+00 0.000000000000000000e+00 6.282107548831898647e-02 0.000000000000000000e+00 2.915527931585618071e-01 0.000000000000000000e+00 0.000000000000000000e+00 -1.043023593863287857e-01 0.000000000000000000e+00 -5.264650385080225092e-01 0.000000000000000000e+00 0.000000000000000000e+00 -5.198915797844634312e-01 0.000000000000000000e+00 2.306641293517761593e-01 0.000000000000000000e+00 0.000000000000000000e+00 -5.981262194147837219e-01
0.000000000000000000e+00 1.289050505066844932e-01 -2.647512769566387481e-03 0.000000000000000000e+00 8.952612544607130296e-02 0.000000000000000000e+00 2.874092132310737679e-01 2.177722747483541721e-02 0.000000000000000000e+00 -9.200842941140931208e-02 0.000000000000000000e+00 -5.406751125378850276e-01 4.929495898826340150e-02 0.000000000000000000e+00 -4.501319312429336028e-01 0.000000000000000000e+00 1.895194805753103173e-01 5.745422322070938004e-02 0.000000000000000000e+00 -5.679694053982963231e-01
0.000000000000000000e+00 6.802541121696684123e-02 0.000000000000000000e+00 7.938116508989043890e-03 8.209573256647614836e-02 0.000000000000000000e+00 2.883407353531533546e-01 0.000000000000000000e+00 -2.805105064374403129e-02 -1.300255996931480862e-01 0.000000000000000000e+00 -5.399311074825323686e-01 0.000000000000000000e+00 5.888775689621796039e-03 -4.949568482740394071e-01 0.000000000000000000e+00 1.669308710778932003e-01 0.000000000000000000e+00 -4.627614857757676031e-04 -6.025623932857471221e-01
0.000000000000000000e+00 1.220928294854255192e-01 1.010818001290032797e-02 0.000000000000000000e+00 1.104472634306402773e-01 0.000000000000000000e+00 3.173199383204202140e-01 4.285490688215430610e-02 0.000000000000000000e+00 -1.124053266018697483e-01 0.000000000000000000e+00 -5.050493094863645060e-01 7.951316485289371128e-03 0.000000000000000000e+00 -5.011000984735206609e-01 0.000000000000000000e+00 1.952743670283421107e-01 3.751212657588241794e-02 0.000000000000000000e+00 -5.556404682396759442e-01
0.000000000000000000e+00 1.092940527103057058e-01 0.000000000000000000e+00 1.978106351708414437e-02 1.146145922334942807e-01 0.000000000000000000e+00 3.050611603316752962e-01 0.000000000000000000e+00 9.452216468633579255e-03 -1.255620431514223589e-01 0.000000000000000000e+00 -4.714484286551475778e-01 0.000000000000000000e+00 -5.426958508941120973e-02 -4.806572495382142596e-01 0.000000000000000000e+00 2.088110353915561268e-01 0.000000000000000000e+00 2.751791151649401329e-03 -5.863947533367803722e-01
2.098645130589693944e-02 1.499030796327723292e-01 3.897266462469703430e-02 0.000000000000000000e+00 1.360123855654819247e-01 -2.564477030974386673e-02 3.182326665514763619e-01 5.722121813732342077e-03 0.000000000000000000e+00 -7.624910579984012227e-02 3.198206615480449211e-02 -4.591931969529429169e-01 -2.463064186570197711e-03 0.000000000000000000e+00 -5.167295925222040731e-01 -9.764269832143736630e-03 1.596365408092479954e-01 -2.349866993435022200e-02 0.000000000000000000e+00 -6.229101934651914974e-01
0.000000000000000000e+00 9.881101109761386558e-02 0.000000000000000000e+00 0.000000000000000000e+00 9.977012680029764824e-02 0.000000000000000000e+00 3.196611695080309179e-01 0.000000000000000000e+00 0.000000000000000000e+00 -8.575529598534090137e-02 0.000000000000000000e+00 -4.540250797734937671e-01 0.000000000000000000e+00 0.000000000000000000e+00 -4.692977703092272579e-01 0.000000000000000000e+00 1.814166827102942081e-01 0.000000000000000000e+00 0.000000000000000000e+00 -6.141442906296383786e-01
-2.296389675323201596e-02 1.132412941113346144e-01 0.000000000000000000e+00 -2.964846579057864306e-02 1.675877563441164897e-01 1.104366136940458133e-02 2.774302326193306412e-01 0.000000000000000000e+00 2.376788547411840327e-02 -1.348128161908822009e-01 8.208804899278362988e-02 -4.368911584073428278e-01 0.000000000000000000e+00 -4.150920486156688127e-02 -4.957469796741524881e-01 1.029569206984573201e-02 2.219649816196014869e-01 0.000000000000000000e+00 7.151640508248000017e-03 -6.063104327993142917e-01
0.000000000000000000e+00 1.031053106756869425e-01 8.879158952639756852e-03 0.000000000000000000e+00 1.082155263660996986e-01 0.000000000000000000e+00 2.606114055356606451e-01 9.069810538518373322e-03 0.000000000000000000e+00 -1.467843711585764543e-01 0.000000000000000000e+00 -4.962254241004162569e-01 -2.693483453205568548e-04 0.000000000000000000e+00 -4.880919892269457439e-01 0.000000000000000000e+00 2.038340537437494104e-01 -4.380835672003208225e-02 0.000000000000000000e+00 -6.377921755333200160e-01
0.000000000000000000e+00 9.862890441721258727e-02 0.000000000000000000e+00 0.000000000000000000e+00 8.276212165207780247e-02 0.000000000000000000e+00 3.092022062231590263e-01 0.000000000000000000e+00 0.000000000000000000e+00 -1.154596277252824404e-01 0.000000000000000000e+00 -5.119189022267266465e-01 0.000000000000000000e+00 0.000000000000000000e+00 -5.329544312395479988e-01 0.000000000000000000e+00 2.275925591153986627e-01 0.000000000000000000e+00 0.000000000000000000e+00 -6.281850525554577569e-01
0.000000000000000000e+00 1.004850125187054799e-01 2.327510897736305776e-02 -9.825736144536580466e-03 1.007430564648064825e-01 0.000000000000000000e+00 2.580927371877440590e-01 -1.196784398183933958e-02 2.169355615979334795e-03 -1.187355296965556528e-01 0.000000000000000000e+00 -5.203496408895083025e-01 -2.793176749758861585e-02 1.070391677622494278e-02 -5.084546339642334045e-01 0.000000000000000000e+00 1.496434285769110695e-01 -1.110745118069391413e-01 1.139824099878010283e-01 -7.017746131102516882e-01
-6.588150174245147039e-03 8.613330683048368852e-02 0.000000000000000000e+00 0.000000000000000000e+00 1.292194978509721703e-01 -1.183550317509643110e-02 2.771674877649388802e-01 0.000000000000000000e+00 0.000000000000000000e+00 -9.681576636813933601e-02 -3.296234485828625216e-02 -5.174464440508594887e-01 0.000000000000000000e+00 0.000000000000000000e+00 -5.000929695406364228e-01 5.058811649461988913e-02 2.203175187841391325e-01 0.000000000000000000e+00 0.000000000000000000e+00 -6.249525203023281739e-01
0.000000000000000000e+00 1.144002126655206258e-01 9.446395420553514721e-02 -6.586839830185690914e-02 1.814475381598973924e-01 0.000000000000000000e+00 3.200364226085665176e-01 3.966425288077815581e-02 -2.961603954481877021e-02 -1.034926493057722885e-01 0.000000000000000000e+00 -4.876251887987844702e-01 -1.109532991149834828e-02 1.207890253536684708e-02 -5.233237891585923451e-01 0.000000000000000000e+00 1.971762029976598107e-01 -1.714906183570597334e-02 1.978605870566186795e-02 -6.149299197322022348e-01
0.000000000000000000e+00 7.818571213938092790e-02 0.000000000000000000e+00 0.000000000000000000e+00 5.211589366992407102e-02 0.000000000000000000e+00 3.382753703753212937e-01 0.000000000000000000e+00 0.000000000000000000e+00 -3.702635346917371173e-02 0.000000000000000000e+00 -4.477402962292863497e-01 0.000000000000000000e+00 0.000000000000000000e+00 -5.041278303764634705e-01 0.000000000000000000e+00 1.889925950933817045e-01 0.000000000000000000e+00 0.000000000000000000e+00 -5.846008491192654644e-01
-8.996374860763838022e-02 -1.332691851787057291e-02 -9.568486336362125311e-02 7.923714053635944055e-02 6.413204806438106698e-02 -3.198840916446434035e-02 3.852262962942758495e-01 7.399584367888997760e-03 -7.014950339556803860e-02 -4.036793072770061830e-02 4.318512808474775366e-02 -4.585616698658118162e-01 2.092832059363855524e-02 -5.040414864495974118e-02 -5.330803629746528882e-01 -7.423752148248791149e-02 1.644916674371267318e-01 -2.922479998580156113e-02 -3.022108456152770156e-02 -5.347800557827127044e-01
0.000000000000000000e+00 8.532890131573840631e-02 0.000000000000000000e+00 0.000000000000000000e+00 1.161892351476994240e-01 0.000000000000000000e+00 3.033791102271258810e-01 0.000000000000000000e+00 0.000000000000000000e+00 -9.003106933087796915e-02 0.000000000000000000e+00 -4.901848019455685712e-01 0.000000000000000000e+00 0.000000000000000000e+00 -4.754851360711390695e-01 0.000000000000000000e+00 1.936216062823854778e-01 0.000000000000000000e+00 0.000000000000000000e+00 -5.928010125726388413e-01
0.000000000000000000e+00 9.758264418749314217e-02 2.909397129821240588e-02 0.000000000000000000e+00 1.292796605299809942e-01 0.000000000000000000e+00 2.819685918743349839e-01 -1.771654269806598181e-02 0.000000000000000000e+00 -9.886348497591970763e-02 0.000000000000000000e+00 -4.890193996503628404e-01 -1.851296140003936760e-02 0.000000000000000000e+00 -5.145208349968634076e-01 0.000000000000000000e+00 2.223292631463192615e-01 -3.620841154313766269e-03 0.000000000000000000e+00 -5.511468389641954735e-01
0.000000000000000000e+00 4.001973065032118915e-02 0.000000000000000000e+00 6.171676192116408444e-02 6.745432330791194253e-02 0.000000000000000000e+00 3.160313462279404906e-01 0.000000000000000000e+00 -5.574581931770557219e-02 -8.464495028133391108e-02 0.000000000000000000e+00 -4.918208166475808718e-01 0.000000000000000000e+00 -7.112210134075558701e-03 -4.955275073007056053e-01 0.000000000000000000e+00 1.982340814802896478e-01 0.000000000000000000e+00 -3.106120718219212984e-02 -6.108571056563673052e-01
0.000000000000000000e+00 1.260938270296525776e-01 8.173073959485387119e-02 0.000000000000000000e+00 1.723175597529917336e-01 0.000000000000000000e+00 2.248976952344790836e-01 -3.675539871490846044e-02 0.000000000000000000e+00 -1.665836406657116298e-01 0.000000000000000000e+00 -4.214611075728486034e-01 -9.218640747414852399e-02 0.000000000000000000e+00 -4.594006268771003709e-01 0.000000000000000000e+00 2.497102572967971612e-01 -2.720564382807607456e-02 0.000000000000000000e+00 -5.294684619671280457e-01
5.951534853814486464e-02 6.586359160283035419e-02 0.000000000000000000e+00 8.494497048249988191e-02 7.636195854419833284e-02 -1.128050796762777308e-01 2.351687452818077007e-01 0.000000000000000000e+00 -2.072478165341024720e-03 -5.627189756402478649e-02 -2.470062545951055150e-02 -5.711377957454050192e-01 0.000000000000000000e+00 2.455218894283188458e-02 -5.318111120118655943e-01 -7.325211939895708013e-03 2.309608999826024134e-01 0.000000000000000000e+00 -3.517153889971005865e-02 -6.646593785038202862e-01
0.000000000000000000e+00 1.143332972697403693e-01 -6.062000545422575881e-02 0.000000000000000000e+00 5.390200706416365534e-02 0.000000000000000000e+00 2.501484842584441037e-01 6.027507581572028039e-04 0.000000000000000000e+00 -5.045719763787451240e-02 0.000000000000000000e+00 -5.632152268423656905e-01 2.466308594691580397e-02 0.000000000000000000e+00 -5.064449580389163152e-01 0.000000000000000000e+00 1.962278007253700496e-01 2.267794188742441874e-04 0.000000000000000000e+00 -5.696034222546766390e-01
0.000000000000000000e+00 1.129838333175209319e-01 0.000000000000000000e+00 0.000000000000000000e+00 1.356090383910709407e-01 0.000000000000000000e+00 3.118766121727364338e-01 0.000000000000000000e+00 0.000000000000000000e+00 -7.910249171686065117e-02 0.000000000000000000e+00 -4.589149034851117137e-01 0.000000000000000000e+00 0.000000000000000000e+00 -5.305415137075246701e-01 0.000000000000000000e+00 2.512620507729411146e-01 0.000000000000000000e+00 0.000000000000000000e+00 -6.312537545555054752e-01
0.000000000000000000e+00 9.613019477567513738e-02 -3.910865754422775814e-02 0.000000000000000000e+00 3.311092961778841492e-02 0.000000000000000000e+00 2.776082546331261613e-01 -1.176178133305687268e-02 0.000000000000000000e+00 -1.618003888922803779e-01 0.000000000000000000e+00 -5.015069290535631996e-01 4.320770852305556159e-02 0.000000000000000000e+00 -4.782175535323190396e-01 0.000000000000000000e+00 2.028680955516329598e-01 -3.257681175561857878e-02 0.000000000000000000e+00 -6.387775438088608704e-01
-9.570588808788120516e-02 2.177429396356841962e-02 0.000000000000000000e+00 6.582581334992024247e-02 1.238693757017464425e-01 2.409830189053734778e-02 3.125700468544712063e-01 0.000000000000000000e+00 7.628172818762669546e-03 -1.382252978954555678e-01 3.787187895844984151e-03 -4.771654647007569916e-01 0.000000000000000000e+00 -3.218900473119169769e-02 -4.708603755994402729e-01 5.242748104236448492e-02 1.850160569164313595e-01 0.000000000000000000e+00 -1.372263384773708336e-02 -6.440063129814856957e-01
0.000000000000000000e+00 1.032058711161750464e-01 -2.104421000335048378e-02 0.000000000000000000e+00 1.002046971278045678e-01 0.000000000000000000e+00 3.083751956312681397e-01 1.926944538023701858e-03 0.000000000000000000e+00 -1.047315876153906422e-01 0.000000000000000000e+00 -5.129951560762189278e-01 -6.555791886242046812e-04 0.000000000000000000e+00 -5.308023546288505035e-01 0.000000000000000000e+00 1.998932672736898897e-01 -1.749344220112161730e-02 0.000000000000000000e+00 -6.189601100440258463e-01
0.000000000000000000e+00 7.526558665023549977e-02 0.000000000000000000e+00 2.020770651795326944e-02 9.059483133909809749e-02 0.000000000000000000e+00 3.124011858128538099e-01 0.000000000000000000e+00 -1.705229442723432340e-02 -1.246485298172681083e-01 0.000000000000000000e+00 -5.011146461836510912e-01 0.000000000000000000e+00 3.657435541778029237e-03 -5.205166537102488000e-01 0.000000000000000000e+00 1.860379414508154527e-01 0.000000000000000000e+00 1.189366688314305587e-02 -5.827936544437971600e-01
3.705998678697970672e-02 1.014938866355721420e-01 -7.647269630116677527e-03 0.000000000000000000e+00 7.292715420418741101e-02 2.668722884032739828e-02 3.036927030662767701e-01 1.661769923525165463e-02 0.000000000000000000e+00 -1.147877313371302860e-01 -1.754489862057605556e-02 -5.212041552492651109e-01 -1.652755700247295761e-02 0.000000000000000000e+00 -5.151650570769633619e-01 -9.329562972351973689e-04 1.848631446500073050e-01 1.576844114262907284e-02 0.000000000000000000e+00 -6.022617781172575624e-01
0.000000000000000000e+00 1.335104993112444238e-01 0.000000000000000000e+00 0.000000000000000000e+00 1.040832909325601491e-01 0.000000000000000000e+00 2.835586867703417946e-01 0.000000000000000000e+00 0.000000000000000000e+00 -1.083151511941922163e-01 0.000000000000000000e+00 -5.119367049724016239e-01 0.000000000000000000e+00 0.000000000000000000e+00 -5.041557186829555004e-01 0.000000000000000000e+00 1.880916323913479626e-01 0.000000000000000000e+00 0.000000000000000000e+00 -6.180567863896846426e-01
0.000000000000000000e+00 8.647683987476091627e-02 -1.272910206166413122e-02 0.000000000000000000e+00 9.865780891552887455e-02 0.000000000000000000e+00 3.192459124415645833e-01 1.436583661960765326e-02 0.000000000000000000e+00 -7.259167285629047894e-02 0.000000000000000000e+00 -4.970956528055737733e-01 -8.256523006276636489e-02 0.000000000000000000e+00 -5.819992547203732824e-01 0.000000000000000000e+00 1.762690309343684092e-01 7.083832127892517733e-03 0.000000000000000000e+00 -5.910180612191552330e-01
-1.787258016811058350e-02 5.113480609889255873e-02 0.000000000000000000e+00 1.101126927164192137e-02 5.943886689513252358e-02 -3.211953143121774185e-02 2.253450049773750297e-01 0.000000000000000000e+00 1.170263363165947867e-02 -1.201111672686835941e-01 6.813335474364995425e-02 -4.312338963726695673e-01 0.000000000000000000e+00 -7.577449758007429037e-02 -5.087733588387374217e-01 7.610803524379813889e-02 2.948121240720901204e-01 0.000000000000000000e+00 -3.665522779519722607e-02 -5.793318662464703728e-01
0.000000000000000000e+00 1.389432301624026200e-01 -4.658455304648971562e-04 0.000000000000000000e+00 1.200288856125136666e-01 0.000000000000000000e+00 3.002721379513374478e-01 -2.847808806407999688e-04 0.000000000000000000e+00 -1.218889359144315343e-01 0.000000000000000000e+00 -4.760986156139189740e-01 1.784515958771294014e-02 0.000000000000000000e+00 -4.532529450614184996e-01 0.000000000000000000e+00 1.996737348948466051e-01 1.993543137750998506e-03 0.000000000000000000e+00 -5.734291842725275368e-01
0.000000000000000000e+00 1.316958181095026492e-01 0.000000000000000000e+00 -7.629912379644072234e-03 1.327756109342607405e-01 0.000000000000000000e+00 2.428511565858804122e-01 0.000000000000000000e+00 1.537737370955664581e-02 -9.419329590284829246e-02 0.000000000000000000e+00 -4.983486389973180719e-01 0.000000000000000000e+00 -2.762010073557673480e-03 -5.105380668269156041e-01 0.000000000000000000e+00 1.838318926410134058e-01 0.000000000000000000e+00 -2.495129690761742347e-02 -5.763854600651356908e-01
0.000000000000000000e+00 9.839018154374706837e-02 1.189635996037257185e-02 0.000000000000000000e+00 1.068170883261889692e-01 0.000000000000000000e+00 2.975934185413194322e-01 1.543966330202335008e-02 0.000000000000000000e+00 -8.029363712698377176e-02 0.000000000000000000e+00 -4.644468090854207976e-01 3.108228032492824089e-02 0.000000000000000000e+00 -4.821683093791667152e-01 0.000000000000000000e+00 2.098858420305328432e-01 1.093288948802164165e-02 0.000000000000000000e+00 -5.885158298000119359e-01
-7.114198573963306793e-02 7.775319500909567971e-02 0.000000000000000000e+00 0.000000000000000000e+00 1.708778228961811974e-01 -4.498391139809843758e-02 2.833431623550974887e-01 0.000000000000000000e+00 0.000000000000000000e+00 -8.796662076822386878e-02 -3.876445592448724692e-02 -4.936807886692911596e-01 0.000000000000000000e+00 0.000000000000000000e+00 -4.818608254248696876e-01 3.937435644779078980e-02 2.126906846161747133e-01 0.000000000000000000e+00 0.000000000000000000e+00 -6.296536487092094792e-01
0.000000000000000000e+00 9.045505398744466130e-02 0.000000000000000000e+00 5.510399641349287940e-03 9.814598412012719153e-02 0.000000000000000000e+00 3.067694128965092748e-01 0.000000000000000000e+00 -2.517737172012884592e-02 -9.002289613936803603e-02 0.000000000000000000e+00 -4.727880500410172049e-01 0.000000000000000000e+00 -3.019875077527870572e-02 -4.984356919070082048e-01 0.000000000000000000e+00 1.551690644736841984e-01 0.000000000000000000e+00 4.074777764122196333e-02 -6.101168908050925710e-01
-3.221435276675192749e-02 1.039016186263090613e-01 -1.175253571978443490e-02 0.000000000000000000e+00 1.399493178373551749e-01 -3.187686066431008602e-03 2.929311786100694537e-01 3.337389173667698779e-03 0.000000000000000000e+00 -1.052308310646882100e-01 -7.260075951380715042e-03 -5.037307391265654077e-01 -3.053735158641596170e-02 0.000000000000000000e+00 -5.451971198389258255e-01 -2.902762603716139977e-02 2.150324274412304670e-01 -2.328776942255226037e-02 0.000000000000000000e+00 -6.024561740044790392e-01
0.000000000000000000e+00 9.813007605841385372e-02 0.000000000000000000e+00 -6.711672643246390305e-03 1.109445427120532429e-01 0.000000000000000000e+00 3.299297776145281302e-01 0.000000000000000000e+00 -1.215144223222709707e-02 -1.155266377339553285e-01 0.000000000000000000e+00 -4.810306668735148672e-01 0.000000000000000000e+00 -1.463567522138215990e-02 -5.169025461844614089e-01 0.000000000000000000e+00 1.829602375935392156e-01 0.000000000000000000e+00 5.483657128724082896e-03 -6.060792492534288201e-01
0.000000000000000000e+00 9.835097090932931607e-02 0.000000000000000000e+00 0.000000000000000000e+00 7.355676893171209096e-02 0.000000000000000000e+00 3.091754239516394942e-01 0.000000000000000000e+00 0.000000000000000000e+00 -1.183085885983520269e-01 0.000000000000000000e+00 -4.945500095634937643e-01 0.000000000000000000e+00 0.000000000000000000e+00 -4.999815199604284999e-01 0.000000000000000000e+00 1.669544206431391176e-01 0.000000000000000000e+00 0.000000000000000000e+00 -6.096114126565086444e-01
0.000000000000000000e+00 5.320560364286923416e-02 0.000000000000000000e+00 0.000000000000000000e+00 2.679231776640043916e-02 0.000000000000000000e+00 2.880728214965663780e-01 0.000000000000000000e+00 0.000000000000000000e+00 -1.199467238387674356e-01 0.000000000000000000e+00 -4.853486454605217548e-01 0.000000000000000000e+00 0.000000000000000000e+00 -4.937821374325640500e-01 0.000000000000000000e+00 1.882046895159723565e-01 0.000000000000000000e+00 0.000000000000000000e+00 -5.936175931430717201e-01
-2.641680156253454689e-02 7.694648127779518676e-02 0.000000000000000000e+00 -4.408980270104743970e-03 1.176562083402055425e-01 -4.925615070624322217e-02 2.553863788152722636e-01 0.000000000000000000e+00 9.387699834096612309e-03 -8.915892874031966508e-02 3.480358261776528295e-02 -4.758657173459857059e-01 0.000000000000000000e+00 -3.221101505556789660e-03 -4.991622866956414994e-01 2.408095058449076162e-03 2.121055772932178285e-01 0.000000000000000000e+00 -3.762668062402850511e-02 -5.944691332786227189e-01
0.000000000000000000e+00 1.090386688497200496e-01 -2.493451828385703783e-02 0.000000000000000000e+00 9.974842618176388287e-02 0.000000000000000000e+00 2.946794632206397591e-01 2.684041520779401405e-02 0.000000000000000000e+00 -8.776001928245726058e-02 0.000000000000000000e+00 -5.142226834917474898e-01 -9.096777205251156684e-03 0.000000000000000000e+00 -5.131319985145723628e-01 0.000000000000000000e+00 2.042872899943178611e-01 -1.731675490558647057e-02 0.000000000000000000e+00 -6.237162323092807492e-01
0.000000000000000000e+00 8.538855514035073591e-02 0.000000000000000000e+00 0.000000000000000000e+00 1.026032273574240400e-01 0.000000000000000000e+00 3.019697386574026754e-01 0.000000000000000000e+00 0.000000000000000000e+00 -9.734422445971176174e-02 0.000000000000000000e+00 -4.942659020981600149e-01 0.000000000000000000e+00 0.000000000000000000e+00 -5.166332213198252532e-01 0.000000000000000000e+00 2.019127917581465259e-01 0.000000000000000000e+00 0.000000000000000000e+00 -5.679734637916553641e-01
0.000000000000000000e+00 8.170005903000117364e-02 0.000000000000000000e+00 0.000000000000000000e+00 1.031857632396098734e-01 0.000000000000000000e+00 3.398563587874195435e-01 0.000000000000000000e+00 0.000000000000000000e+00 -5.873837075037528083e-02 0.000000000000000000e+00 -4.829470576861857323e-01 0.000000000000000000e+00 0.000000000000000000e+00 -5.184760759656334983e-01 0.000000000000000000e+00 2.051154138206554844e-01 0.000000000000000000e+00 0.000000000000000000e+00 -5.826757425032255133e-01
-4.416002273404341649e-02 7.552550118978813842e-02 -2.235736508147679463e-02 0.000000000000000000e+00 9.659170149401784256e-02 3.982357420699560863e-03 2.768721732317265261e-01 -2.140319970191769880e-02 0.000000000000000000e+00 -1.443684849386910329e-01 -2.868420546091782035e-03 -4.764158359032834023e-01 -5.368891882730413012e-02 0.000000000000000000e+00 -5.185957426691084615e-01 1.904166891424195068e-02 1.965018840891219198e-01 3.374213600747423547e-02 0.000000000000000000e+00 -5.994294486168275649e-01
0.000000000000000000e+00 9.773343138790441254e-02 0.000000000000000000e+00 1.074643373513615822e-02 8.890104609690951953e-02 0.000000000000000000e+00 3.305966342699712124e-01 0.000000000000000000e+00 -2.165717730074447761e-02 -5.241492414030549801e-02 0.000000000000000000e+00 -4.543018319326133647e-01 0.000000000000000000e+00 -3.206828362093450818e-02 -4.719727642496031050e-01 0.000000000000000000e+00 2.214458561599156328e-01 0.000000000000000000e+00 -2.664523933063457986e-02 -5.840222708853383127e-01
0.000000000000000000e+00 1.189660248434383644e-01 0.000000000000000000e+00 0.000000000000000000e+00 1.036277700541270025e-01 0.000000000000000000e+00 3.228066185515595099e-01 0.000000000000000000e+00 0.000000000000000000e+00 -1.055239454573591307e-01 0.000000000000000000e+00 -5.115579939480713323e-01 0.000000000000000000e+00 0.000000000000000000e+00 -5.008131175835622839e-01 0.000000000000000000e+00 2.191447216344260818e-01 0.000000000000000000e+00 0.000000000000000000e+00 -5.834369320971708461e-01
1.745689602696202936e-02 1.180562746029849008e-01 -1.634028422746891356e-03 0.000000000000000000e+00 8.457001769964275772e-02 3.054740738354325483e-02 3.252720049007736813e-01 4.081948684208267647e-02 0.000000000000000000e+00 -5.799685134224510236e-02 2.529552220233599255e-02 -4.764853849219696236e-01 -4.211242257550009555e-02 0.000000000000000000e+00 -5.344406538143851026e-01 1.254693803643784633e-04 1.708173620806729964e-01 2.473931156183113017e-02 0.000000000000000000e+00 -5.692841261346458515e-01
0.000000000000000000e+00 1.167788121070556240e-01 0.000000000000000000e+00 -3.204373502266977952e-02 1.203161885669654790e-01 0.000000000000000000e+00 2.578972173014453251e-01 0.000000000000000000e+00 2.224052274264414625e-02 -1.426528907857506634e-01 0.000000000000000000e+00 -4.464054093706348869e-01 0.000000000000000000e+00 -1.768236516221656160e-02 -4.431895873973203948e-01 0.000000000000000000e+00 1.391682143596575938e-01 0.000000000000000000e+00 1.805526242135778447e-02 -6.083233801076314284e-01
0.000000000000000000e+00 9.579970739211229880e-02 -6.152965245970194730e-02 0.000000000000000000e+00 2.697613061859525929e-02 0.000000000000000000e+00 2.948385980636262227e-01 -1.078128795223008522e-02 0.000000000000000000e+00 -9.519478019397739632e-02 0.000000000000000000e+00 -5.067148679595089300e-01 -2.789149781120792496e-02 0.000000000000000000e+00 -5.268733694787856026e-01 0.000000000000000000e+00 1.759496113859568556e-01 -2.755318679677729379e-02 0.000000000000000000e+00 -6.082275785766354526e-01
0.000000000000000000e+00 6.315684098020191151e-02 0.000000000000000000e+00 0.000000000000000000e+00 3.079011815368934424e-02 0.000000000000000000e+00 3.118353727642818041e-01 0.000000000000000000e+00 0.000000000000000000e+00 -1.275605609258070594e-01 0.000000000000000000e+00 -5.190285816245597816e-01 0.000000000000000000e+00 0.000000000000000000e+00 -5.238230163071813106e-01 0.000000000000000000e+00 1.785798631530548797e-01 0.000000000000000000e+00 0.000000000000000000e+00 -6.226573815648847043e-01
0.000000000000000000e+00 1.322201246288005061e-01 0.000000000000000000e+00 4.864969970930368461e-03 1.397947927513346067e-01 0.000000000000000000e+00 2.856329719380283350e-01 0.000000000000000000e+00 5.883421495939514072e-03 -1.369412939202542256e-01 0.000000000000000000e+00 -4.644010791688031325e-01 0.000000000000000000e+00 -2.502409743049052726e-02 -4.832811509530451910e-01 0.000000000000000000e+00 2.524685907213791713e-01 0.000000000000000000e+00 -3.579729146426434416e-02 -5.542942019266280385e-01
-2.835590025730882688e-02 8.755874774331974530e-02 4.464292186250559680e-02 0.000000000000000000e+00 1.579683293550339374e-01 1.006372809973227200e-02 2.941580212221838186e-01 1.268284765387480729e-02 0.000000000000000000e+00 -1.014996822139704463e-01 -2.150879653329304531e-02 -4.732858075306818901e-01 1.637034869125999353e-03 0.000000000000000000e+00 -4.905676708426600086e-01 2.561808411803726676e-02 2.282827205378653024e-01 -2.099057430691990411e-02 0.000000000000000000e+00 -6.030690234933326899e-01
0.000000000000000000e+00 8.297296670457585122e-02 0.000000000000000000e+00 3.026453964463084526e-02 8.764621922722481973e-02 0.000000000000000000e+00 3.245984460618730472e-01 0.000000000000000000e+00 -1.818333034636678176e-03 -7.574176142430198710e-02 0.000000000000000000e+00 -5.015933944278075929e-01 0.000000000000000000e+00 -6.310989472349554791e-03 -5.103420204571929020e-01 0.000000000000000000e+00 1.921301303022281415e-01 0.000000000000000000e+00 2.844298002024401792e-03 -5.736640731403058746e-01
4.334449661677645949e-02 1.130536724835440598e-01 4.417918804543525396e-02 0.000000000000000000e+00 9.149001780909041259e-02 3.713103027129432097e-03 3.205715257025580911e-01 -4.594201595649388334e-03 0.000000000000000000e+00 -1.119440958797246199e-01 6.713025033397146402e-02 -4.373356392994446895e-01 -1.259506418714698497e-02 0.000000000000000000e+00 -5.440274070088207958e-01 -4.743005210624509811e-04 1.900028204786436414e-01 1.735829364629826177e-02 0.000000000000000000e+00 -6.097841078089796252e-01
0.000000000000000000e+00 1.272868701547047732e-01 0.000000000000000000e+00 1.618998920632468835e-02 1.142023819023221115e-01 0.000000000000000000e+00 2.836176338630744809e-01 0.000000000000000000e+00 1.129592262621092504e-02 -1.306411255997007859e-01 0.000000000000000000e+00 -4.831774852382849650e-01 0.000000000000000000e+00 -6.360135351024949826e-03 -5.319365316461029947e-01 0.000000000000000000e+00 1.873517480794368306e-01 0.000000000000000000e+00 1.415098535725401591e-03 -5.829067979433737445e-01
-7.395276005291687160e-02 9.740368039179156390e-02 0.000000000000000000e+00 0.000000000000000000e+00 1.387979124409788323e-01 1.651639333189581019e-02 3.363436554148798163e-01 0.000000000000000000e+00 0.000000000000000000e+00 -1.025045071043902273e-01 -2.917522959469871779e-02 -5.212246713255556108e-01 0.000000000000000000e+00 0.000000000000000000e+00 -5.159409161008287059e-01 -3.737232228966930192e-02 1.934792562538477367e-01 0.000000000000000000e+00 0.000000000000000000e+00 -5.613087349039522778e-01
0.000000000000000000e+00 1.226853139534546944e-01 0.000000000000000000e+00 0.000000000000000000e+00 9.048540841639940435e-02 0.000000000000000000e+00 3.229118531999383146e-01 0.000000000000000000e+00 0.000000000000000000e+00 -9.846250954599621019e-02 0.000000000000000000e+00 -4.267188321848807697e-01 0.000000000000000000e+00 0.000000000000000000e+00 -4.689806172912492910e-01 0.000000000000000000e+00 1.576282686036878933e-01 0.000000000000000000e+00 0.000000000000000000e+00 -6.043979407730102338e-01
0.000000000000000000e+00 1.269282144514468635e-01 1.902916076557513089e-02 -2.697769148883364179e-02 1.142581220142901144e-01 0.000000000000000000e+00 3.777374133175302462e-01 7.914828674273782783e-02 -5.350651054749301638e-02 -5.451768262054841607e-02 0.000000000000000000e+00 -5.002970131562229916e-01 -2.492985081425568017e-02 4.008981166660675194e-02 -5.352926089171123891e-01 0.000000000000000000e+00 1.899340977657120455e-01 -3.723892108196732303e-02 4.843500655663740898e-03 -6.383682030438381227e-01
0.000000000000000000e+00 8.700066894933249084e-02 0.000000000000000000e+00 0.000000000000000000e+00 6.807802648570639159e-02 0.000000000000000000e+00 3.094634912783740255e-01 0.000000000000000000e+00 0.000000000000000000e+00 -9.073327971025063610e-02 0.000000000000000000e+00 -5.106708447069991941e-01 0.000000000000000000e+00 0.000000000000000000e+00 -4.847853340771243191e-01 0.000000000000000000e+00 2.029785505379501642e-01 0.000000000000000000e+00 0.000000000000000000e+00 -5.744561544193522717e-01
-2.394206027130122566e-02 1.195160769404211565e-01 2.287888858734975564e-02 0.000000000000000000e+00 1.263996475294149324e-01 4.754270505074514007e-03 3.359273647625273806e-01 -1.634771745953324251e-02 0.000000000000000000e+00 -9.838283642753992142e-02 4.384581522636400719e-02 -4.574128702129973134e-01 -1.300573666265737033e-02 0.000000000000000000e+00 -4.845623347184257468e-01 2.186553701996966914e-02 1.814237144813145020e-01 -4.782609761929768749e-02 0.000000000000000000e+00 -6.510668404989399249e-01
0.000000000000000000e+00 1.122415959107293526e-01 0.000000000000000000e+00 -5.825734100930017763e-03 1.215698423090999097e-01 0.000000000000000000e+00 2.294713380749223153e-01 0.000000000000000000e+00 1.936707977733460873e-02 -1.078132562436543707e-01 0.000000000000000000e+00 -5.094275808169940190e-01 0.000000000000000000e+00 -2.308262123928957535e-02 -4.928710738621044363e-01 0.000000000000000000e+00 1.969358833175248735e-01 0.000000000000000000e+00 -4.896650724125218776e-03 -5.878922523106950848e-01
0.000000000000000000e+00 1.019667249136418097e-01 3.491200585458130445e-02 0.000000000000000000e+00 9.447675994568498214e-02 0.000000000000000000e+00 2.899874534610090149e-01 -3.951615404393524211e-02 0.000000000000000000e+00 -1.371934025315917349e-01 0.000000000000000000e+00 -4.956402344613742295e-01 -1.093774335455680730e-02 0.000000000000000000e+00 -5.024095927296258202e-01 0.000000000000000000e+00 2.188381863675067929e-01 -3.945358259887814245e-02 0.000000000000000000e+00 -6.406052420783164836e-01
0.000000000000000000e+00 1.227822411436844952e-01 0.000000000000000000e+00 -2.276955471677550788e-02 1.359914518457748245e-01 0.000000000000000000e+00 3.309250333513344966e-01 0.000000000000000000e+00 -6.126144311714230850e-03 -6.529341568762221659e-02 0.000000000000000000e+00 -5.139087608910437588e-01 0.000000000000000000e+00 2.809880581779371223e-02 -5.199780472089806649e-01 0.000000000000000000e+00 1.795180325262789867e-01 0.000000000000000000e+00 -1.063662658755206575e-02 -5.988018353630959467e-01
-1.436753254850869389e-02 1.183255596630271855e-01 -2.463282669553610790e-02 0.000000000000000000e+00 8.822199640052397207e-02 -2.819520850886227809e-02 3.122050427076664691e-01 4.724528491859376206e-02 0.000000000000000000e+00 -6.130029101970192740e-02 -4.494991426369893128e-02 -5.534887126145708880e-01 -1.517305467312311112e-02 0.000000000000000000e+00 -4.626610380009016366e-01 -3.723146421697385439e-03 1.649701212872315970e-01 -1.271432532634970622e-02 0.000000000000000000e+00 -6.049862263880991797e-01
0.000000000000000000e+00 1.048198431547134324e-01 0.000000000000000000e+00 -5.688532850656012607e-02 1.012540846164522584e-01 0.000000000000000000e+00 3.100065227890516084e-01 0.000000000000000000e+00 1.177854378248096613e-02 -1.098034538766011620e-01 0.000000000000000000e+00 -4.704478893040138221e-01 0.000000000000000000e+00 -1.969111002738234417e-02 -4.887753790776330765e-01 0.000000000000000000e+00 2.078729360042034235e-01 0.000000000000000000e+00 -9.699506118922847364e-03 -6.147200279572175852e-01
2.067048859807942701e-02 1.452225451243977783e-01 -1.702123541414113719e-02 -3.342873239717711331e-02 9.590588404773278675e-02 -4.558474264476980453e-02 2.856314303330304005e-01 1.821529055598729990e-02 -2.186139826970293770e-02 -7.349403529044698513e-02 8.215771263288318416e-03 -4.179634934109177080e-01 2.371231814514096481e-03 -1.156557928262832297e-01 -4.587316318419014660e-01 2.491122814398238350e-01 5.225569771769575933e-01 2.410389573127824647e-01 -2.884067026936889544e-01 -4.805352543955039857e-01
0.000000000000000000e+00 8.385466404471628166e-02 0.000000000000000000e+00 0.000000000000000000e+00 1.140976498906359771e-01 0.000000000000000000e+00 3.130029325368955395e-01 0.000000000000000000e+00 0.000000000000000000e+00 -1.051851780418238402e-01 0.000000000000000000e+00 -4.639399681384028251e-01 0.000000000000000000e+00 0.000000000000000000e+00 -4.265941558396842415e-01 0.000000000000000000e+00 2.412758467475328017e-01 0.000000000000000000e+00 0.000000000000000000e+00 -5.690614351721576814e-01
0.000000000000000000e+00 6.586100805131722691e-02 0.000000000000000000e+00 3.000679572353504888e-03 6.028466975251108723e-02 0.000000000000000000e+00 3.187664466867828894e-01 0.000000000000000000e+00 1.862569843428281413e-02 -9.021882357032251498e-02 0.000000000000000000e+00 -5.200164189495823930e-01 0.000000000000000000e+00 4.177148181237314017e-02 -5.119738173089533051e-01 0.000000000000000000e+00 2.607456484273915076e-01 0.000000000000000000e+00 -5.733408466806774045e-02 -5.446103722249741041e-01
7.141514870055173936e-02 1.537747852021379980e-01 3.927957792558485484e-02 0.000000000000000000e+00 7.587385274534379220e-02 3.069511573113378397e-02 2.530274748312552613e-01 4.359738907159947663e-02 0.000000000000000000e+00 -1.115969747460362066e-01 1.163868101631780963e-02 -4.693467418274067660e-01 -8.204048332450364356e-03 0.000000000000000000e+00 -5.080631247173093001e-01 7.420866282627497715e-03 1.933953234612264538e-01 -6.065415410549203357e-03 0.000000000000000000e+00 -6.426947458710281502e-01
0.000000000000000000e+00 9.808529379639914503e-02 0.000000000000000000e+00 -2.569134025728819770e-02 1.142005960852903040e-01 0.000000000000000000e+00 3.198547905528337232e-01 0.000000000000000000e+00 -2.782948122006249220e-03 -8.581767910602501603e-02 0.000000000000000000e+00 -4.663004851308175658e-01 0.000000000000000000e+00 -6.728969282180853606e-02 -4.763683754324496422e-01 0.000000000000000000e+00 2.644080343521709731e-01 0.000000000000000000e+00 -4.956411807101049338e-02 -5.900453275159963651e-01
0.000000000000000000e+00 6.185651838459680502e-02 0.000000000000000000e+00 0.000000000000000000e+00 1.209688928120783158e-01 0.000000000000000000e+00 3.440279304972359009e-01 0.000000000000000000e+00 0.000000000000000000e+00 -8.120591112793144883e-02 0.000000000000000000e+00 -4.757569284692654277e-01 0.000000000000000000e+00 0.000000000000000000e+00 -4.893435076942601603e-01 0.000000000000000000e+00 1.591943748575980477e-01 0.000000000000000000e+00 0.000000000000000000e+00 -6.064957888127789909e-01
0.000000000000000000e+00 1.252120239783982847e-01 0.000000000000000000e+00 -2.146723504991374445e-02 1.043420497665735469e-01 0.000000000000000000e+00 2.916365770812275882e-01 0.000000000000000000e+00 8.618798040892342027e-03 -9.674485759110169891e-02 0.000000000000000000e+00 -5.068490107795470268e-01 0.000000000000000000e+00 4.883609975642146106e-02 -5.365092074868540450e-01 0.000000000000000000e+00 2.281483829457330859e-01 0.000000000000000000e+00 -3.061823416478417006e-02 -5.854971979083720690e-01
-4.185923069870858826e-02 8.161875562503220771e-02 3.400304352405673046e-03 0.000000000000000000e+00 1.137571618920525524e-01 6.345725344979222249e-02 3.707859020060975674e-01 1.419940801703687555e-02 0.000000000000000000e+00 -1.073215605320940597e-01 5.836912451359323878e-02 -4.995098773522264057e-01 2.295042709958324684e-02 0.000000000000000000e+00 -5.444733650182524975e-01 5.473239904613411491e-03 2.046679405328798995e-01 -1.641704173371134196e-02 0.000000000000000000e+00 -6.051164993599721376e-01
0.000000000000000000e+00 3.811441858517969350e-02 0.000000000000000000e+00 0.000000000000000000e+00 6.653524777412858637e-02 0.000000000000000000e+00 3.129183757957774148e-01 0.000000000000000000e+00 0.000000000000000000e+00 -1.071645054676738512e-01 0.000000000000000000e+00 -4.901808764734393864e-01 0.000000000000000000e+00 0.000000000000000000e+00 -4.492993162538289065e-01 0.000000000000000000e+00 1.372556023325340879e-01 0.000000000000000000e+00 0.000000000000000000e+00 -5.999647057295030006e-01
-6.299435348676582502e-02 1.708665799796643681e-03 0.000000000000000000e+00 6.220324138987588791e-02 7.923311856439742284e-02 4.819632593601579085e-02 3.315727086327310280e-01 0.000000000000000000e+00 -1.670749931579221248e-02 -1.517443542995408345e-01 -1.829910040050599512e-02 -5.320511684986877210e-01 0.000000000000000000e+00 2.579690763103645312e-02 -5.036415891861983907e-01 2.214522357096394486e-02 1.893430043374235150e-01 0.000000000000000000e+00 3.778825951553245466e-02 -5.689344685494270859e-01
0.000000000000000000e+00 1.403085581928321945e-01 -5.706529986521628392e-03 0.000000000000000000e+00 1.423875839251956821e-01 0.000000000000000000e+00 2.907593005618902549e-01 4.096671433536510504e-02 0.000000000000000000e+00 -7.577789001887186293e-02 0.000000000000000000e+00 -4.318663992562083997e-01 -6.173355951109970458e-03 0.000000000000000000e+00 -4.517862173836134643e-01 0.000000000000000000e+00 2.121549834421526948e-01 5.505653212767297813e-03 0.000000000000000000e+00 -5.478346426346621945e-01
2.918625402075542691e-02 1.254776684037659518e-01 0.000000000000000000e+00 -6.371650953677596152e-02 1.067584463327678201e-01 -1.236594021247590033e-02 2.889055626095983209e-01 0.000000000000000000e+00 3.215516834492248600e-03 -9.399794531161907718e-02 -1.501328399397828389e-02 -5.029955440210234219e-01 0.000000000000000000e+00 3.291251232812184013e-02 -5.147058467694551886e-01 2.079823494290068686e-03 1.615221525141564141e-01 0.000000000000000000e+00 5.219622561104153569e-02 -5.865717322633915431e-01
0.000000000000000000e+00 1.243946102519582209e-01 1.074901353257963314e-03 0.000000000000000000e+00 1.230456481832821192e-01 0.000000000000000000e+00 2.659871982964006065e-01 -2.199867029575951899e-02 0.000000000000000000e+00 -1.270976209785380506e-01 0.000000000000000000e+00 -4.829027263413087634e-01 -3.965842150660413984e-02 0.000000000000000000e+00 -5.355621998940074402e-01 0.000000000000000000e+00 1.969133191265740601e-01 1.841852205820301847e-02 0.000000000000000000e+00 -6.225075532539318113e-01
5.433113208877449890e-03 1.341418587972954268e-01 0.000000000000000000e+00 -3.827520544329286734e-02 1.321971661986656443e-01 -2.762245620172459892e-02 2.658232740998808241e-01 0.000000000000000000e+00 4.246751295501197815e-02 -1.210658053288177216e-01 1.828316646397425138e-02 -4.845159314897241609e-01 0.000000000000000000e+00 -1.419446066877709869e-02 -4.905930553783391379e-01 1.387417176247509112e-02 2.240237574654170283e-01 0.000000000000000000e+00 -1.749116967349217955e-02 -5.751296019889410305e-01
0.000000000000000000e+00 1.050574855875867630e-01 0.000000000000000000e+00 0.000000000000000000e+00 1.389592146866698297e-01 0.000000000000000000e+00 2.961915995350825614e-01 0.000000000000000000e+00 0.000000000000000000e+00 -1.236751269927409413e-01 0.000000000000000000e+00 -5.202832814887369262e-01 0.000000000000000000e+00 0.000000000000000000e+00 -4.897224472632512593e-01 0.000000000000000000e+00 1.627254244953306173e-01 0.000000000000000000e+00 0.000000000000000000e+00 -5.962185319282090612e-01
-6.193214669972424424e-02 4.460088680603051942e-02 -4.819589135061562446e-02 8.444566867745303962e-02 8.116769113750188502e-02 6.443324815913351045e-02 4.079513667270705524e-01 1.002853517915334725e-01 -9.448458424180436466e-02 -4.183899985703899704e-02 2.039925209456618441e-02 -5.210436285433519554e-01 -3.419810415089420685e-02 2.859896985943072290e-02 -5.240609937017757236e-01 1.319014666953791104e-03 1.819479914281642852e-01 -1.391059361307632469e-02 8.952443987853643537e-03 -6.021165451693237802e-01
0.000000000000000000e+00 1.113421949905229191e-01 0.000000000000000000e+00 0.000000000000000000e+00 1.386541521978594815e-01 0.000000000000000000e+00 3.096118681724620014e-01 0.000000000000000000e+00 0.000000000000000000e+00 -1.225756227313495178e-01 0.000000000000000000e+00 -5.002246683826339080e-01 0.000000000000000000e+00 0.000000000000000000e+00 -5.183493955049920388e-01 0.000000000000000000e+00 2.162989188871413115e-01 0.000000000000000000e+00 0.000000000000000000e+00 -5.749814892510626274e-01
0.000000000000000000e+00 1.083269898723626945e-01 -2.072698602705763671e-02 -6.692721514881982969e-03 7.835122799562571627e-02 0.000000000000000000e+00 2.940249433988336158e-01 -9.350290425085635779e-03 4.375430949815045656e-02 -1.402901946197919469e-01 0.000000000000000000e+00 -4.782125388392657328e-01 2.572508146086757361e-02 -3.243196455952819524e-02 -4.670398496303440061e-01 0.000000000000000000e+00 2.434072321629318636e-01 5.300367256050186882e-02 -5.321119868806318404e-02 -5.197529470052740797e-01
9.619718536398953745e-02 1.627532419770269800e-01 0.000000000000000000e+00 0.000000000000000000e+00 5.074131953866719419e-02 -2.791071088333747785e-02 2.738543782111961256e-01 0.000000000000000000e+00 0.000000000000000000e+00 -9.146036913131921908e-02 6.550576595004031777e-02 -4.225892322110366139e-01 0.000000000000000000e+00 0.000000000000000000e+00 -5.392614251340485110e-01 -3.243365475894744582e-02 1.919704840306545868e-01 0.000000000000000000e+00 0.000000000000000000e+00 -6.083045045942679918e-01
0.000000000000000000e+00 1.368066187202704731e-01 0.000000000000000000e+00 -1.996987135513559122e-02 1.085488851132561799e-01 0.000000000000000000e+00 2.857331135516895104e-01 0.000000000000000000e+00 4.121876549029876435e-02 -1.115002456932350783e-01 0.000000000000000000e+00 -4.579914813705362464e-01 0.000000000000000000e+00 -3.840772298720174227e-02 -4.689316370579092452e-01 0.000000000000000000e+00 2.331267839171778655e-01 0.000000000000000000e+00 -8.420883194140195427e-02 -5.898554399328981290e-01
-1.705967125560044206e-02 8.158925553555651522e-02 -2.330840987092843916e-02 0.000000000000000000e+00 8.025884237332775450e-02 1.006164949224941929e-01 3.591874968585938577e-01 6.495587546095349385e-02 0.000000000000000000e+00 -1.408401226361393199e-01 -1.721997303423127706e-02 -5.229895706825909985e-01 -3.394014028540246614e-02 0.000000000000000000e+00 -5.198765301953730544e-01 -2.110959922758338589e-02 1.883203238323976070e-01 -4.210464115334153212e-02 0.000000000000000000e+00 -6.069693622616961770e-01
0.000000000000000000e+00 8.353621090698429286e-02 0.000000000000000000e+00 0.000000000000000000e+00 1.086471572250724965e-01 0.000000000000000000e+00 2.979144132660888622e-01 0.000000000000000000e+00 0.000000000000000000e+00 -9.246685979609400863e-02 0.000000000000000000e+00 -5.097207118952210569e-01 0.000000000000000000e+00 0.000000000000000000e+00 -5.492270460110013630e-01 0.000000000000000000e+00 2.251594662000299119e-01 0.000000000000000000e+00 0.000000000000000000e+00 -5.850283877033780611e-01
-6.908503903537743622e-03 1.011709599591686104e-01 0.000000000000000000e+00 -1.901526572829563555e-02 9.235594346436090674e-02 4.312691008692214056e-03 2.694527271131337276e-01 0.000000000000000000e+00 -1.981159068986579688e-02 -9.709343854926061335e-02 -4.604249620957973771e-03 -4.670079185958866952e-01 0.000000000000000000e+00 -6.602738868851365517e-02 -4.769849163003589965e-01 -5.206641498154691849e-02 1.726668079305336556e-01 0.000000000000000000e+00 -4.234209430209051606e-04 -5.524375570377811906e-01
