0.000000000000000000e+00 0.000000000000000000e+00 0.000000000000000000e+00 0.000000000000000000e+00 0.000000000000000000e+00 0.000000000000000000e+00 0.000000000000000000e+00 0.000000000000000000e+00 0.000000000000000000e+00 0.000000000000000000e+00 0.000000000000000000e+00 0.000000000000000000e+00 0.000000000000000000e+00 0.000000000000000000e+00 0.000000000000000000e+00 0.000000000000000000e+00 0.000000000000000000e+00 0.000000000000000000e+00 0.000000000000000000e+00 0.000000000000000000e+00
-3.448431244911012161e-01 2.502611298631307046e-01 0.000000000000000000e+00 -4.423972878555417210e-01 0.000000000000000000e+00 1.244444483461013690e-01 -8.340236679138118836e-02 0.000000000000000000e+00 -1.131492601893039351e-01 0.000000000000000000e+00 7.053554589031185706e-02 -6.770252556369605879e-01 0.000000000000000000e+00 3.839588258813755872e-01 0.000000000000000000e+00 9.231991684952201016e-03 2.253961882129618122e-03 0.000000000000000000e+00 2.573233777780727372e-01 0.000000000000000000e+00
-3.113916379797282419e-02 3.137875265481765430e-01 1.827950002428617785e-02 1.527068547959467837e-01 0.000000000000000000e+00 8.661298794880953889e-01 -4.190751160862813962e-01 -2.976488283664390222e-01 3.062334156939108265e-01 0.000000000000000000e+00 -6.153534066462679197e-01 -2.313153035910281985e-01 1.658623104694307848e-01 3.534815054271344126e-01 0.000000000000000000e+00 -8.367077571727481178e-02 -6.632004560784214853e-01 -5.610306592417522165e-01 -2.811780617741511668e-01 0.000000000000000000e+00
7.868857098791327831e-02 0.000000000000000000e+00 -1.180621794849416178e-01 0.000000000000000000e+00 0.000000000000000000e+00 4.582997240055575183e-02 0.000000000000000000e+00 -5.458199064810520529e-02 0.000000000000000000e+00 0.000000000000000000e+00 -1.055753888224100656e+00 0.000000000000000000e+00 4.515034356262682680e-01 0.000000000000000000e+00 0.000000000000000000e+00 -5.599411008906234333e-01 0.000000000000000000e+00 3.917178362703989392e-02 0.000000000000000000e+00 0.000000000000000000e+00
2.961799309556115145e-01 0.000000000000000000e+00 0.000000000000000000e+00 3.228591172882848692e-01 2.175616838576010514e-01 -1.853414290049259505e-01 0.000000000000000000e+00 0.000000000000000000e+00 3.176422344408607046e-01 4.790233326349208065e-01 -4.682622269073974386e-01 0.000000000000000000e+00 0.000000000000000000e+00 -3.393861888729046150e-01 -5.077066034486213963e-01 -9.650905033881236328e-01 0.000000000000000000e+00 0.000000000000000000e+00 -1.181001356042754580e-01 4.248389354374221827e-01
-1.950076273460633058e-01 1.172705874149103100e-01 -2.466507773673012605e-01 -5.203973124512311088e-01 -2.089386554005223384e-01 1.948793204968892745e-01 4.160600035135826325e-01 2.447652856655224973e-01 1.317055418312056969e-01 -3.825512019322151458e-01 -3.945124690712368265e-01 -3.997864272837043376e-01 1.110893195346005086e-01 -1.403622534743096673e-01 -3.724014152347860374e-01 1.311826825275048403e-01 -7.834629218127583949e-02 -8.215251698315884088e-02 2.370249456151690415e-01 -4.200333946318983713e-01
2.762991190284419529e-01 0.000000000000000000e+00 -3.504384654408692623e-01 -5.403645466972309963e-01 -5.352949062510801159e-01 3.098557401150362489e-01 0.000000000000000000e+00 -3.047750659677012086e-02 2.281888572592045417e-01 -2.384616956340679383e-02 -5.221911461332526816e-01 0.000000000000000000e+00 6.611578673773952364e-01 4.302411279185874293e-01 -1.348525259926378617e-01 -1.143206116901054475e-01 0.000000000000000000e+00 -1.037800781811011319e-01 -6.141621769008698273e-02 -2.280225222073229419e-01
-2.232967210426292648e-02 -3.826381168311800973e-01 -6.962984481278444715e-01 -7.640454300685810551e-01 -4.325202436296041175e-03 -1.624999695066817740e-01 3.114603396060279250e-01 -2.377141718102604162e-01 -4.800509843017771172e-01 -2.088395191523286509e-01 -4.709253874352695157e-02 7.550155622912102515e-02 5.935916612160283545e-01 3.320923509365925064e-01 -7.863136221046855834e-01 -8.664139240697345257e-02 -2.704865417078989864e-01 -6.110898020737868253e-01 -4.976426834650925501e-01 -4.155734126442649501e-01
0.000000000000000000e+00 1.532117664128712364e-01 0.000000000000000000e+00 -2.133408614965072447e-02 0.000000000000000000e+00 0.000000000000000000e+00 3.834232821600205288e-01 0.000000000000000000e+00 1.551684202618197617e-01 0.000000000000000000e+00 0.000000000000000000e+00 -8.475059978806335215e-01 0.000000000000000000e+00 3.834155609782473606e-01 0.000000000000000000e+00 0.000000000000000000e+00 -1.422066717780174627e-01 0.000000000000000000e+00 3.990707498835895928e-01 0.000000000000000000e+00
0.000000000000000000e+00 6.757659248896846771e-01 3.501896489476715169e-01 0.000000000000000000e+00 -4.159300601239317441e-01 0.000000000000000000e+00 3.016979989335611401e-01 -1.033862145118188969e-02 0.000000000000000000e+00 -9.773616393678725978e-02 0.000000000000000000e+00 -2.701491107262761759e-01 1.696374631865334159e-01 0.000000000000000000e+00 -7.359502388822544150e-01 0.000000000000000000e+00 -6.373989754846695055e-01 -4.937838216594959140e-01 0.000000000000000000e+00 1.615709675920344868e-01
0.000000000000000000e+00 0.000000000000000000e+00 -2.386959580277779880e-01 -2.518382045351163501e-01 5.252583988592852970e-02 0.000000000000000000e+00 0.000000000000000000e+00 -4.045674571435926570e-01 -2.829697060897893857e-01 -2.822772881964144553e-02 0.000000000000000000e+00 0.000000000000000000e+00 6.178796689951476795e-02 -2.846062784786050903e-01 -1.054613442857066152e+00 0.000000000000000000e+00 0.000000000000000000e+00 4.701903766053063816e-01 9.200682029972275799e-01 1.381904481613352997e-01
1.136281163503974206e-01 1.679134157816914996e-01 0.000000000000000000e+00 0.000000000000000000e+00 0.000000000000000000e+00 -1.767074577171387495e-01 3.747944411065728954e-01 0.000000000000000000e+00 0.000000000000000000e+00 0.000000000000000000e+00 -4.203548981344187307e-01 -5.481255769849140425e-01 0.000000000000000000e+00 0.000000000000000000e+00 0.000000000000000000e+00 -6.133623425826898456e-01 1.401137667179339907e-01 0.000000000000000000e+00 0.000000000000000000e+00 0.000000000000000000e+00
3.118647558032691114e-01 -1.213502377609036870e-01 -1.565946059226927534e-01 0.000000000000000000e+00 0.000000000000000000e+00 3.982104299459877650e-01 -2.560994751049054385e-01 -4.112846292002769744e-01 0.000000000000000000e+00 0.000000000000000000e+00 -2.048879200455734351e-01 -9.043756625871222088e-01 -2.557850408440844880e-01 0.000000000000000000e+00 0.000000000000000000e+00 -3.673704366150385425e-01 5.952172658618748446e-03 -3.188384233045862826e-02 0.000000000000000000e+00 0.000000000000000000e+00
-6.217605013097428357e-02 -1.671522097525973138e-01 0.000000000000000000e+00 1.950540448429373130e-01 4.888798861201817947e-01 7.589419464474550514e-02 1.682786124976601849e-01 0.000000000000000000e+00 2.032365606346567266e-01 3.938231497003988335e-02 -1.687624234029838077e-01 -8.912255229678901491e-01 0.000000000000000000e+00 2.262782180949599597e-01 1.652370178815781854e-01 8.320629275938334901e-02 1.766744433511852341e-01 0.000000000000000000e+00 1.168596623553533609e-01 -5.282592738485315520e-01
0.000000000000000000e+00 0.000000000000000000e+00 -1.300866730678639782e-01 -1.510264006997081854e-01 7.192069378850372841e-02 0.000000000000000000e+00 0.000000000000000000e+00 -1.045848106139037476e-01 1.687823792172984672e-01 2.570895683707732915e-01 0.000000000000000000e+00 0.000000000000000000e+00 7.352771712058994158e-01 6.373371250396753229e-01 -5.286533562626347660e-01 0.000000000000000000e+00 0.000000000000000000e+00 -9.793962173648691760e-02 -2.845314413075228366e-04 -3.569237070555171809e-01
0.000000000000000000e+00 0.000000000000000000e+00 -5.301342580658669618e-02 0.000000000000000000e+00 1.723478827894690257e-01 0.000000000000000000e+00 0.000000000000000000e+00 -2.308796136970860391e-01 0.000000000000000000e+00 1.650643511821920928e-01 0.000000000000000000e+00 0.000000000000000000e+00 3.046485606583913541e-01 0.000000000000000000e+00 -9.408681850205611319e-01 0.000000000000000000e+00 0.000000000000000000e+00 -1.016216302412945582e-01 0.000000000000000000e+00 -4.445812323807571964e-01
1.468199767119939270e-01 0.000000000000000000e+00 -1.283879981443535045e-01 0.000000000000000000e+00 0.000000000000000000e+00 4.853391038991296258e-02 0.000000000000000000e+00 -2.264441538723734049e-01 0.000000000000000000e+00 0.000000000000000000e+00 -9.669391356339339660e-01 0.000000000000000000e+00 4.470085779153945005e-01 0.000000000000000000e+00 0.000000000000000000e+00 -4.045080263140838350e-01 0.000000000000000000e+00 -1.420557332227100900e-01 0.000000000000000000e+00 0.000000000000000000e+00
1.333536307474778304e-01 0.000000000000000000e+00 -2.484890519825780075e-01 -2.784289033678274961e-01 -9.531007966425933398e-02 2.444686871318342281e-01 0.000000000000000000e+00 -2.350141822309148587e-01 1.003247805422666228e-01 -1.216000369599842812e-02 -6.616688231333536230e-01 0.000000000000000000e+00 2.571258948705583691e-01 -3.339181510571839762e-01 -5.325266354432106608e-01 -1.030677740361055639e-01 0.000000000000000000e+00 1.732216861217948101e-01 4.745873901949462237e-01 4.562944734383789225e-03
-7.925617292456824114e-02 0.000000000000000000e+00 -3.074945894098304322e-01 -3.677140487961806370e-01 -1.019809056501655431e-02 2.320089287258382815e-01 0.000000000000000000e+00 -1.988822190586201077e-01 1.364967416064094829e-01 5.109922033150807175e-02 -5.772083807279272394e-01 0.000000000000000000e+00 5.193097939192169443e-01 2.184410876962607495e-01 -2.204768502507862271e-01 7.842903831479663967e-02 0.000000000000000000e+00 -1.918493829930746630e-01 -1.492777702895731196e-02 -5.201789080215157846e-01
0.000000000000000000e+00 1.141997168562029763e-01 -3.016874617975239675e-04 0.000000000000000000e+00 1.343222214329751751e-01 0.000000000000000000e+00 -3.516440624406614868e-01 -4.647373926879564410e-01 0.000000000000000000e+00 4.602068681393200467e-01 0.000000000000000000e+00 -5.438600493151777293e-01 -5.908170571487245115e-02 0.000000000000000000e+00 -4.397807901513385298e-01 0.000000000000000000e+00 -1.200206735155018439e-01 -1.971329174120151906e-01 0.000000000000000000e+00 -3.061278454281772810e-01
1.348684827552830146e-01 0.000000000000000000e+00 -1.018473328454923416e-01 1.414353432498403201e-02 6.134744556599810300e-02 5.311595864106219977e-01 0.000000000000000000e+00 -1.109372334643046187e-01 2.818967793837954816e-01 -1.619434027670710041e-01 -3.927547627906983752e-01 0.000000000000000000e+00 2.152274539603615811e-01 -3.374489832651234034e-01 -7.394596614412668467e-01 1.196291758935974503e-02 0.000000000000000000e+00 3.471286360647569125e-01 7.765980266313283753e-01 1.087676433722992164e-01
0.000000000000000000e+00 7.104614329372951897e-02 0.000000000000000000e+00 0.000000000000000000e+00 1.355495944269168862e-01 0.000000000000000000e+00 2.906365430259116867e-01 0.000000000000000000e+00 0.000000000000000000e+00 -9.588165381445035162e-02 0.000000000000000000e+00 -4.410090057061624158e-01 0.000000000000000000e+00 0.000000000000000000e+00 -4.956928685854557481e-01 0.000000000000000000e+00 3.155865601965803791e-01 0.000000000000000000e+00 0.000000000000000000e+00 -7.043095136592317784e-01
0.000000000000000000e+00 5.897274937184066035e-01 5.841091634643708064e-01 4.044157447309575937e-01 0.000000000000000000e+00 0.000000000000000000e+00 -9.001565960485832796e-02 -4.827429715159950452e-01 -3.128718666706536422e-01 0.000000000000000000e+00 0.000000000000000000e+00 -3.848010519547627739e-01 5.117977198395664562e-01 8.305861127120997001e-01 0.000000000000000000e+00 0.000000000000000000e+00 -1.631130048070689731e-01 -1.477807190645941127e-03 4.407432922743982351e-01 0.000000000000000000e+00
-4.504920702542550837e-01 0.000000000000000000e+00 0.000000000000000000e+00 4.984039222995227669e-02 6.560787747026844974e-01 -3.381883180022758895e-01 0.000000000000000000e+00 0.000000000000000000e+00 2.071836390700582675e-01 6.229142748961775666e-01 -1.739160014416596178e+00 0.000000000000000000e+00 0.000000000000000000e+00 -8.239705453430600235e-01 2.221168349230671080e-01 9.553385651096863995e-01 0.000000000000000000e+00 0.000000000000000000e+00 3.725812729700932469e-01 -1.100411830454194329e+00
0.000000000000000000e+00 0.000000000000000000e+00 -1.190586523300337651e-01 0.000000000000000000e+00 2.105938560255637970e-01 0.000000000000000000e+00 0.000000000000000000e+00 -1.927262340357003001e-01 0.000000000000000000e+00 1.525626763072728820e-01 0.000000000000000000e+00 0.000000000000000000e+00 4.197802890159922917e-01 0.000000000000000000e+00 -9.304325123479898485e-01 0.000000000000000000e+00 0.000000000000000000e+00 -2.144789385596029274e-01 0.000000000000000000e+00 -3.953896748305191222e-01
0.000000000000000000e+00 0.000000000000000000e+00 -3.417389862730403627e-02 0.000000000000000000e+00 1.846475914565971488e-01 0.000000000000000000e+00 0.000000000000000000e+00 -2.556945477381070142e-01 0.000000000000000000e+00 2.248262744875176855e-01 0.000000000000000000e+00 0.000000000000000000e+00 3.002262578983879160e-01 0.000000000000000000e+00 -8.357101441754155591e-01 0.000000000000000000e+00 0.000000000000000000e+00 -1.537268535615737008e-01 0.000000000000000000e+00 -3.641095432563600243e-01
1.861220427291552237e-01 0.000000000000000000e+00 -4.711652187164282884e-02 0.000000000000000000e+00 0.000000000000000000e+00 1.636494236578221739e-01 0.000000000000000000e+00 -2.190035596138260043e-01 0.000000000000000000e+00 0.000000000000000000e+00 -9.204366374792203320e-01 0.000000000000000000e+00 3.554297474815621971e-01 0.000000000000000000e+00 0.000000000000000000e+00 -4.496491715429483671e-01 0.000000000000000000e+00 -1.166267683733668570e-01 0.000000000000000000e+00 0.000000000000000000e+00
7.020665927652795790e-02 0.000000000000000000e+00 -7.285297250313138573e-02 -1.254434488324424612e-01 0.000000000000000000e+00 2.491568122149673270e-02 0.000000000000000000e+00 -3.719543925733167500e-01 -1.984925147202569462e-01 0.000000000000000000e+00 -5.125834681800913728e-01 0.000000000000000000e+00 7.319580054681087411e-01 4.936151129086367995e-01 0.000000000000000000e+00 -2.665167443155280758e-01 0.000000000000000000e+00 1.473560507275622766e-01 3.165303011937138922e-01 0.000000000000000000e+00
1.284934143516563987e-01 0.000000000000000000e+00 7.703913089582972717e-03 0.000000000000000000e+00 0.000000000000000000e+00 1.320722291971721252e-01 0.000000000000000000e+00 -1.720746103607557198e-01 0.000000000000000000e+00 0.000000000000000000e+00 -9.871516319260815742e-01 0.000000000000000000e+00 3.589386705952787304e-01 0.000000000000000000e+00 0.000000000000000000e+00 -3.749020254416843279e-01 0.000000000000000000e+00 -1.533653558484485147e-01 0.000000000000000000e+00 0.000000000000000000e+00
1.622515372174438142e-01 0.000000000000000000e+00 -7.168618152947685285e-02 0.000000000000000000e+00 0.000000000000000000e+00 1.528775906574584009e-01 0.000000000000000000e+00 -1.845006523448893820e-01 0.000000000000000000e+00 0.000000000000000000e+00 -9.472384204450428058e-01 0.000000000000000000e+00 3.801436476535567932e-01 0.000000000000000000e+00 0.000000000000000000e+00 -4.083712256181869504e-01 0.000000000000000000e+00 -6.307443545560174891e-02 0.000000000000000000e+00 0.000000000000000000e+00
5.089221109309033375e-01 7.834729096323174435e-02 0.000000000000000000e+00 0.000000000000000000e+00 -3.494864183837018690e-01 1.504295586787038341e-02 3.321133417991864456e-01 0.000000000000000000e+00 0.000000000000000000e+00 -1.086136957060949149e-01 -4.011763533342198595e-01 -5.406482571691448857e-01 0.000000000000000000e+00 0.000000000000000000e+00 -5.374281836839633897e-02 -7.090143229542693604e-01 9.863596343773371744e-02 0.000000000000000000e+00 0.000000000000000000e+00 2.449492451119509306e-01
0.000000000000000000e+00 -6.578242106678580670e-02 -3.719298208071132317e-01 -4.366303956599889013e-01 0.000000000000000000e+00 0.000000000000000000e+00 5.268563920891762287e-01 3.954225790996036549e-01 3.797300307032992484e-01 0.000000000000000000e+00 0.000000000000000000e+00 -9.033141696522987152e-01 -1.303727785490652324e-01 2.616783864367409063e-01 0.000000000000000000e+00 0.000000000000000000e+00 1.559146224144545290e-01 3.999378154609963820e-01 7.466036290291442334e-01 0.000000000000000000e+00
0.000000000000000000e+00 1.135948082420888128e-01 0.000000000000000000e+00 -8.320965582055511733e-02 0.000000000000000000e+00 0.000000000000000000e+00 2.456610243804956406e-01 0.000000000000000000e+00 6.839169951321717733e-02 0.000000000000000000e+00 0.000000000000000000e+00 -8.300091117655593598e-01 0.000000000000000000e+00 3.357058150758073234e-01 0.000000000000000000e+00 0.000000000000000000e+00 -1.984641823653654491e-01 0.000000000000000000e+00 3.910553175129197201e-01 0.000000000000000000e+00
0.000000000000000000e+00 1.792927617288334885e-01 0.000000000000000000e+00 -6.359994002177950245e-02 0.000000000000000000e+00 0.000000000000000000e+00 2.765370869615680349e-01 0.000000000000000000e+00 1.206788235589613956e-01 0.000000000000000000e+00 0.000000000000000000e+00 -7.488956815211117446e-01 0.000000000000000000e+00 2.851397530233721889e-01 0.000000000000000000e+00 0.000000000000000000e+00 -1.734612791063168402e-01 0.000000000000000000e+00 4.275411284795076483e-01 0.000000000000000000e+00
0.000000000000000000e+00 1.243027025711623268e-01 9.650221952815518645e-02 0.000000000000000000e+00 0.000000000000000000e+00 0.000000000000000000e+00 1.006890609409555742e-01 -1.595140252256397329e-01 0.000000000000000000e+00 0.000000000000000000e+00 0.000000000000000000e+00 -1.029117611345178762e+00 -3.517029579992783095e-01 0.000000000000000000e+00 0.000000000000000000e+00 0.000000000000000000e+00 -5.368997830553432493e-01 -4.506344846285235128e-01 0.000000000000000000e+00 0.000000000000000000e+00
-3.005254418075661849e-02 0.000000000000000000e+00 5.634047217884885494e-02 0.000000000000000000e+00 1.966271373660657962e-01 -6.374072149969789436e-01 0.000000000000000000e+00 -1.663155933625170280e-01 0.000000000000000000e+00 7.297212818151735947e-01 -9.845690523931771576e-02 0.000000000000000000e+00 4.095181435974548645e-01 0.000000000000000000e+00 -9.293531930642180416e-01 -6.803003055530945642e-02 0.000000000000000000e+00 -1.396007732691429692e-01 0.000000000000000000e+00 -3.897914551105878811e-01
-9.365016514075772402e-01 -4.347275422647942089e-03 0.000000000000000000e+00 0.000000000000000000e+00 1.138136252888193090e+00 -9.897881281508207341e-01 2.092266481511736442e-01 0.000000000000000000e+00 0.000000000000000000e+00 9.649493579723815717e-01 3.370103857558370830e-03 -6.031847785535537909e-01 0.000000000000000000e+00 0.000000000000000000e+00 -4.372937242927363855e-01 5.601278311293145240e-03 2.781796844407282698e-01 0.000000000000000000e+00 0.000000000000000000e+00 -6.475111085420275359e-01
0.000000000000000000e+00 1.965814235275576971e-01 1.196793754429340689e-01 0.000000000000000000e+00 0.000000000000000000e+00 0.000000000000000000e+00 1.720764010297467783e-01 -7.524355747578662101e-02 0.000000000000000000e+00 0.000000000000000000e+00 0.000000000000000000e+00 -1.165260424000727157e+00 -3.646581771863157684e-01 0.000000000000000000e+00 0.000000000000000000e+00 0.000000000000000000e+00 -4.579082417454506393e-01 -4.301101445298984305e-01 0.000000000000000000e+00 0.000000000000000000e+00
0.000000000000000000e+00 -3.487838684254268573e-01 -3.818672043249813353e-01 -1.726686921822601639e-01 4.422986510803526006e-01 0.000000000000000000e+00 3.568248622621216226e-01 3.006957422822766346e-01 5.050003399276455918e-01 2.184956937307498404e-01 0.000000000000000000e+00 -9.393159757341507099e-01 -1.702089758914357986e-01 9.822829153325934870e-02 -6.890650623521993312e-02 0.000000000000000000e+00 2.980607123239591427e-01 3.083249651839533589e-01 4.482632092595712492e-01 -3.639923380242878759e-01
2.267104158275297099e-01 0.000000000000000000e+00 1.926373496162303023e-01 1.738488961221918983e-01 0.000000000000000000e+00 -3.720928962505269388e-01 0.000000000000000000e+00 -7.185744484758707085e-01 -8.106234770354591168e-01 0.000000000000000000e+00 -1.103999759295893224e+00 0.000000000000000000e+00 2.887453371879947217e-01 -2.816642217488006805e-01 0.000000000000000000e+00 -2.183068434128913327e-01 0.000000000000000000e+00 8.348721948554700678e-02 3.048086739576623128e-01 0.000000000000000000e+00
0.000000000000000000e+00 -8.808061995212267126e-02 0.000000000000000000e+00 1.931791636985112914e-01 3.308835472286270063e-01 0.000000000000000000e+00 8.951470345475885659e-02 0.000000000000000000e+00 2.786775192415492652e-01 2.786994915243323767e-01 0.000000000000000000e+00 -6.901037610230014163e-01 0.000000000000000000e+00 2.524052731479154987e-01 -1.702540181033526112e-01 0.000000000000000000e+00 -3.170184722485687723e-01 0.000000000000000000e+00 5.261446392430422225e-01 1.507311951133651906e-01
0.000000000000000000e+00 0.000000000000000000e+00 -5.063616992400037098e-02 0.000000000000000000e+00 2.350661685518268540e-01 0.000000000000000000e+00 0.000000000000000000e+00 -1.833593595382635166e-01 0.000000000000000000e+00 7.630488498464388369e-02 0.000000000000000000e+00 0.000000000000000000e+00 3.243264407352754453e-01 0.000000000000000000e+00 -8.606640725220113808e-01 0.000000000000000000e+00 0.000000000000000000e+00 -1.676438328492295127e-01 0.000000000000000000e+00 -3.939691621320420833e-01
0.000000000000000000e+00 0.000000000000000000e+00 -5.705226390653657387e-02 0.000000000000000000e+00 2.457415101770472343e-01 0.000000000000000000e+00 0.000000000000000000e+00 -1.902290256375903377e-01 0.000000000000000000e+00 1.782523895519544377e-01 0.000000000000000000e+00 0.000000000000000000e+00 3.312345169632391340e-01 0.000000000000000000e+00 -9.616129661318881805e-01 0.000000000000000000e+00 0.000000000000000000e+00 -1.920180332273522250e-01 0.000000000000000000e+00 -4.320165733007908515e-01
0.000000000000000000e+00 0.000000000000000000e+00 -1.541834436569740896e-01 -2.545780209420011042e-01 -1.746780952584686686e-02 0.000000000000000000e+00 0.000000000000000000e+00 -4.527889723597697813e-01 -2.880857333725581615e-01 -1.075813604023417858e-02 0.000000000000000000e+00 0.000000000000000000e+00 2.767519519798794514e-01 -9.711957120223962958e-03 -8.801411626395394538e-01 0.000000000000000000e+00 0.000000000000000000e+00 6.081361315593573902e-02 4.474042737922298008e-01 -1.200674632904202010e-01
0.000000000000000000e+00 2.922550107610897285e-01 0.000000000000000000e+00 -2.411020157173295597e-01 -1.240656690048079491e-01 0.000000000000000000e+00 5.627181706395636973e-02 0.000000000000000000e+00 2.616884901504070715e-01 3.436544091185498861e-01 0.000000000000000000e+00 -6.676044066975551639e-01 0.000000000000000000e+00 1.275695849370686585e-01 -1.795738812331188206e-01 0.000000000000000000e+00 -2.565397118691760681e-01 0.000000000000000000e+00 4.293805227002156499e-01 1.146279309733894414e-01
0.000000000000000000e+00 0.000000000000000000e+00 0.000000000000000000e+00 1.312519251067940651e-01 2.714510053065328776e-01 0.000000000000000000e+00 0.000000000000000000e+00 0.000000000000000000e+00 2.697950713826791080e-01 3.388359470212072289e-01 0.000000000000000000e+00 0.000000000000000000e+00 0.000000000000000000e+00 -5.332975747170848324e-01 -1.280528275993221055e+00 0.000000000000000000e+00 0.000000000000000000e+00 0.000000000000000000e+00 1.331380327409948661e-01 -3.621491731144670934e-01
-5.718523924109110146e-01 1.705538134387663274e-01 1.180640815429697121e-01 1.286039352094582033e-01 6.885573398812576684e-01 -1.447745555485320801e-01 1.311176989896992162e-02 -3.738180076229040139e-01 -3.322219613074559597e-01 6.447992794988657850e-02 4.098359402945969121e-01 -8.306776839045832972e-01 -2.291892358036256849e-01 6.257863534689363239e-02 -6.190564545414594111e-01 -5.705084897969925350e-01 7.129683134134982003e-01 4.082355870752586990e-01 8.399386472431680239e-02 -4.708443675025699160e-01
1.022051568546090833e-01 -7.305576543232650266e-01 -9.577149230264310198e-01 -6.229305233614401693e-01 2.657947699508224071e-01 1.043930890931684896e+00 5.153424225330861530e-01 3.426514150289903249e-01 5.182574991447416179e-01 -9.311689843242755282e-01 6.746062478719527800e-02 -1.387536119884106967e+00 -1.567008513075593412e-01 7.460527287660456697e-01 6.575041792185538636e-01 6.217771491350994051e-01 -3.750055351779384427e-01 2.939624695575152047e-02 7.997910299076386176e-01 -1.903223447189625883e-01
-9.994548726729061139e-01 1.586405933217042985e-01 0.000000000000000000e+00 -1.846027860700638901e-01 8.935506238771228071e-01 -8.103228245725381251e-01 4.343796727372943867e-01 0.000000000000000000e+00 -2.602300171857702682e-01 4.663803548457977066e-01 -1.417270129818261060e+00 3.785010412758359477e-01 0.000000000000000000e+00 -1.171572936438841861e+00 -6.732438962865506804e-01 5.122824482721011208e-01 -1.293809942797015944e-01 0.000000000000000000e+00 4.995644040524067075e-01 -5.272565343649427971e-01
0.000000000000000000e+00 0.000000000000000000e+00 -1.279551834819692147e-01 0.000000000000000000e+00 1.909561903072037881e-01 0.000000000000000000e+00 0.000000000000000000e+00 -1.980785243369556636e-01 0.000000000000000000e+00 1.682636603779583684e-01 0.000000000000000000e+00 0.000000000000000000e+00 3.720305416120817110e-01 0.000000000000000000e+00 -9.455844659662926421e-01 0.000000000000000000e+00 0.000000000000000000e+00 -1.783688965660074066e-01 0.000000000000000000e+00 -4.472449453537813979e-01
-2.422542912265015780e-01 0.000000000000000000e+00 0.000000000000000000e+00 0.000000000000000000e+00 4.251938870176120155e-01 -1.479472136826076589e+00 0.000000000000000000e+00 0.000000000000000000e+00 0.000000000000000000e+00 1.600191060597275117e+00 2.609605001266961821e+00 0.000000000000000000e+00 0.000000000000000000e+00 0.000000000000000000e+00 -3.500377718980386188e+00 -1.273787468242944199e+00 0.000000000000000000e+00 0.000000000000000000e+00 0.000000000000000000e+00 8.309489829671211636e-01
-7.704345943015182829e-01 0.000000000000000000e+00 0.000000000000000000e+00 -1.251440377618415478e-01 8.200006236823207395e-01 -1.572149295687040871e-01 0.000000000000000000e+00 0.000000000000000000e+00 3.087552242725504770e-01 5.224700040536043311e-01 -5.132276902757108017e-01 0.000000000000000000e+00 0.000000000000000000e+00 -6.353922378500452828e-01 -8.537523936303332839e-01 -5.632009596003783036e-01 0.000000000000000000e+00 0.000000000000000000e+00 1.114758512301964599e-01 1.690994726652482738e-01
8.007606324397049669e-01 0.000000000000000000e+00 -1.049570785894524683e-01 0.000000000000000000e+00 -6.234867661884226919e-01 3.281386468743230922e-01 0.000000000000000000e+00 -2.204326770739666042e-01 0.000000000000000000e+00 -2.403187474479782648e-01 -5.998835923023938532e-01 0.000000000000000000e+00 3.856861005037340306e-01 0.000000000000000000e+00 -3.537236659240877712e-01 -7.058304846783445274e-01 0.000000000000000000e+00 -9.430364569460554514e-02 0.000000000000000000e+00 2.799588021710714969e-01
-2.929645308051504471e-01 5.854243615602684747e-02 2.041898685364135213e-01 2.909785105159543028e-01 5.978393429444525120e-01 2.127780233847868241e-01 3.607129378222180827e-01 9.153238241020705823e-02 7.431721394944741654e-02 -2.739874210312738811e-01 -3.173520519026098996e-01 -5.597278247231868287e-02 2.720066112532257274e-01 -1.918492961236215044e-02 -5.637696946883774540e-01 -6.871377161249574428e-01 4.337326527287919120e-01 1.288011119550367956e-01 -1.248901464021527352e-01 -1.752290943046826976e-01
0.000000000000000000e+00 0.000000000000000000e+00 -1.131598641205080191e-01 0.000000000000000000e+00 1.650056569748964419e-01 0.000000000000000000e+00 0.000000000000000000e+00 -1.817008242113386796e-01 0.000000000000000000e+00 1.126427751183886883e-01 0.000000000000000000e+00 0.000000000000000000e+00 3.408998551745635042e-01 0.000000000000000000e+00 -9.441490451239866744e-01 0.000000000000000000e+00 0.000000000000000000e+00 -2.174827368718193765e-01 0.000000000000000000e+00 -4.077471739181098842e-01
0.000000000000000000e+00 0.000000000000000000e+00 -3.678270370292853475e-02 0.000000000000000000e+00 1.589071024808156873e-01 0.000000000000000000e+00 0.000000000000000000e+00 -1.440062796349780294e-01 0.000000000000000000e+00 2.205610519928558610e-01 0.000000000000000000e+00 0.000000000000000000e+00 3.541863761680783540e-01 0.000000000000000000e+00 -8.285328693867348715e-01 0.000000000000000000e+00 0.000000000000000000e+00 -6.743339521013967663e-02 0.000000000000000000e+00 -5.428047533381948897e-01
0.000000000000000000e+00 0.000000000000000000e+00 -2.488774803493402077e-01 -2.838905963838995739e-01 0.000000000000000000e+00 0.000000000000000000e+00 0.000000000000000000e+00 -3.180311701637376087e-01 -4.870557538085851235e-02 0.000000000000000000e+00 0.000000000000000000e+00 0.000000000000000000e+00 1.150998090527527884e+00 1.434641001156761630e+00 0.000000000000000000e+00 0.000000000000000000e+00 0.000000000000000000e+00 2.490394272126782160e-01 5.999901478332871907e-01 0.000000000000000000e+00
0.000000000000000000e+00 0.000000000000000000e+00 -2.825006792621893581e-01 -3.156025601957689330e-01 -4.486308580690617775e-02 0.000000000000000000e+00 0.000000000000000000e+00 3.596668026941861052e-01 7.980027787943636541e-01 7.356729368470358299e-01 0.000000000000000000e+00 0.000000000000000000e+00 5.468412968509489547e-01 3.366903040769710920e-01 -6.472374182332853998e-01 0.000000000000000000e+00 0.000000000000000000e+00 -1.690623397162216157e-01 -1.483413540928494867e-01 -5.793011266988423724e-01
-1.551692368961479496e-01 0.000000000000000000e+00 0.000000000000000000e+00 1.839650955188078252e-02 2.654527509065235380e-01 4.453440613803142378e-01 0.000000000000000000e+00 0.000000000000000000e+00 3.181487559782937291e-01 -1.102937130130950960e-01 -8.193565480492901454e-01 0.000000000000000000e+00 0.000000000000000000e+00 -7.108148908084599427e-01 -5.928863705719037425e-01 3.083797408698516485e-01 0.000000000000000000e+00 0.000000000000000000e+00 2.733122525811908510e-01 -5.306944402413511508e-01
0.000000000000000000e+00 5.365191395136000851e-01 5.761674321075148653e-01 3.540404138227657427e-01 0.000000000000000000e+00 0.000000000000000000e+00 4.110749507733432173e-01 2.255827413512724866e-01 2.337972733774097422e-01 0.000000000000000000e+00 0.000000000000000000e+00 -3.630796402344841356e-01 6.322116226233214231e-01 9.218052269553340672e-01 0.000000000000000000e+00 0.000000000000000000e+00 -7.909646712614631925e-02 6.580763113649405749e-02 4.951995285679245962e-01 0.000000000000000000e+00
-3.320553280229794346e-01 0.000000000000000000e+00 4.951155085002176270e-02 0.000000000000000000e+00 5.252071432731508782e-01 1.679555764979513144e-01 0.000000000000000000e+00 -2.028119854611879214e-01 0.000000000000000000e+00 -8.443237894990490711e-02 -2.266521992523031770e-01 0.000000000000000000e+00 3.582792742777841655e-01 0.000000000000000000e+00 -7.136888506525367326e-01 7.053621747592336844e-02 0.000000000000000000e+00 -1.211742407400824145e-01 0.000000000000000000e+00 -4.675618469973298330e-01
0.000000000000000000e+00 0.000000000000000000e+00 1.878264610741072482e-01 4.543166007482144497e-01 5.365185099029834426e-01 0.000000000000000000e+00 0.000000000000000000e+00 -1.803548978949048032e-01 1.378402950034031405e-02 1.561825801835495242e-01 0.000000000000000000e+00 0.000000000000000000e+00 6.160080296503126496e-01 3.821758921753722893e-01 -6.078690939068499555e-01 0.000000000000000000e+00 0.000000000000000000e+00 1.297083776241554909e-01 3.546780298743721915e-01 -1.817820035864576300e-01
0.000000000000000000e+00 1.121169387347820678e-01 0.000000000000000000e+00 0.000000000000000000e+00 8.268541829698713985e-02 0.000000000000000000e+00 2.599028539139889293e-01 0.000000000000000000e+00 0.000000000000000000e+00 -7.337221291123577349e-02 0.000000000000000000e+00 -3.695768111080860452e-01 0.000000000000000000e+00 0.000000000000000000e+00 -6.522786259870982928e-01 0.000000000000000000e+00 9.323759376487671113e-02 0.000000000000000000e+00 0.000000000000000000e+00 -4.758920501433375749e-01
1.524026868827533521e-01 7.855044706482451622e-02 -6.826896505078440536e-02 0.000000000000000000e+00 -7.576115028895834269e-02 7.138508478452967321e-01 -3.267420983143949353e-01 -5.785070221607343521e-01 0.000000000000000000e+00 -2.527450229423255923e-01 -1.088590284113228890e-01 -7.109971880230627761e-01 -1.349326919376831468e-01 0.000000000000000000e+00 -2.767301803949761552e-01 -2.201704344951010694e-01 5.543189972546275213e-02 -6.611999007421762165e-02 0.000000000000000000e+00 -2.727841672007290108e-01
0.000000000000000000e+00 0.000000000000000000e+00 -1.835026617534544213e-01 -9.019153947146306416e-02 1.622536997526113911e-01 0.000000000000000000e+00 0.000000000000000000e+00 -9.729752190792809174e-02 7.936952942778961739e-02 2.309508063836412384e-01 0.000000000000000000e+00 0.000000000000000000e+00 3.938009056593230195e-01 9.343148932756087377e-02 -8.937377289890712229e-01 0.000000000000000000e+00 0.000000000000000000e+00 -3.928760043961145032e-02 9.528213544073947661e-02 -3.328578119411099157e-01
0.000000000000000000e+00 4.625159716467491799e-02 0.000000000000000000e+00 0.000000000000000000e+00 1.000055447896294469e-01 0.000000000000000000e+00 3.280892651777957414e-01 0.000000000000000000e+00 0.000000000000000000e+00 -2.106111705705033810e-01 0.000000000000000000e+00 -5.709175793775616015e-01 0.000000000000000000e+00 0.000000000000000000e+00 -4.689561822659576995e-01 0.000000000000000000e+00 2.022083840500520369e-01 0.000000000000000000e+00 0.000000000000000000e+00 -5.721409073021188618e-01
-1.998350817599146567e-01 1.220635858851113698e+00 7.023814999502664413e-01 0.000000000000000000e+00 -6.332537444998251885e-01 -6.243672978199153734e-02 1.862288938329534072e-01 -6.809159179330885603e-02 0.000000000000000000e+00 7.099381332396945132e-02 4.410608868682645012e-01 -1.044885176546587413e+00 -3.446691992418967621e-01 0.000000000000000000e+00 -4.622902727848491877e-01 -4.621163231563872875e-01 5.895717881180270736e-02 -9.732313681516341353e-02 0.000000000000000000e+00 -5.003266657676067042e-02
0.000000000000000000e+00 9.227092718828699969e-02 0.000000000000000000e+00 -5.195337132217385523e-02 0.000000000000000000e+00 0.000000000000000000e+00 2.273045178013917700e-01 0.000000000000000000e+00 1.056217578835324938e-01 0.000000000000000000e+00 0.000000000000000000e+00 -8.457724035559804898e-01 0.000000000000000000e+00 3.534978618469054035e-01 0.000000000000000000e+00 0.000000000000000000e+00 -8.926848352914704132e-02 0.000000000000000000e+00 4.572885415042794999e-01 0.000000000000000000e+00
4.710774163981921170e-01 0.000000000000000000e+00 0.000000000000000000e+00 1.577508871956088132e-01 -1.492854255822767540e-01 3.486134966496431398e-01 0.000000000000000000e+00 0.000000000000000000e+00 4.025434017746138959e-01 9.102112460879782652e-02 -6.081213511175193043e-01 0.000000000000000000e+00 0.000000000000000000e+00 -6.157292562786549350e-01 -7.412168435348213125e-01 -5.240724831768639458e-02 0.000000000000000000e+00 0.000000000000000000e+00 2.528137085701524511e-01 -2.678422761084586767e-01
1.862749247634802319e-01 0.000000000000000000e+00 -1.036944164501011623e-01 0.000000000000000000e+00 0.000000000000000000e+00 2.693611633783469239e-01 0.000000000000000000e+00 -2.240532182030946784e-01 0.000000000000000000e+00 0.000000000000000000e+00 -9.690980461689283620e-01 0.000000000000000000e+00 3.820057891906903924e-01 0.000000000000000000e+00 0.000000000000000000e+00 -4.312331634728072682e-01 0.000000000000000000e+00 -1.204928306252229658e-01 0.000000000000000000e+00 0.000000000000000000e+00
-1.542885669150970140e-01 1.135522579201519999e-02 0.000000000000000000e+00 -2.699824118006080576e-03 3.151720122289688453e-01 1.643855563677111831e-01 3.252223340216085501e-01 0.000000000000000000e+00 1.988454143660806084e-02 -2.916820653309225575e-01 3.685458934658392138e-01 -7.553691877406965016e-01 0.000000000000000000e+00 3.037052660763198131e-01 -4.906127348897891816e-01 -5.233500793365244430e-01 2.407571599510556215e-01 0.000000000000000000e+00 -1.698640111090632954e-01 -2.409504131891002099e-01
-4.341972435407952524e-01 -1.364229206725924848e-01 2.380971144419297136e-02 2.313445615996920501e-01 8.740001526985753388e-01 1.061375235706647491e-01 1.510987612449580242e-01 -5.444326447293591081e-02 1.158437097120328385e-01 2.321983697013594444e-02 -1.973650037462476026e-01 -8.610541759141754348e-01 4.133049910052633558e-01 9.428050894624367961e-01 6.369669371425124016e-01 -1.005861858600760467e-01 2.584156923577420328e-01 8.520438482066836072e-02 9.880908099553659119e-02 -4.735865604239889448e-01
0.000000000000000000e+00 0.000000000000000000e+00 0.000000000000000000e+00 5.603490273173616226e-02 2.202811976681966488e-01 0.000000000000000000e+00 0.000000000000000000e+00 0.000000000000000000e+00 3.907029576880640120e-01 4.243315814085690252e-01 0.000000000000000000e+00 0.000000000000000000e+00 0.000000000000000000e+00 -5.253518449788536770e-01 -1.259613748363745955e+00 0.000000000000000000e+00 0.000000000000000000e+00 0.000000000000000000e+00 1.786631218509950325e-01 -3.003210447608770095e-01
0.000000000000000000e+00 0.000000000000000000e+00 0.000000000000000000e+00 1.018151427700147577e-01 2.481235898177152344e-01 0.000000000000000000e+00 0.000000000000000000e+00 0.000000000000000000e+00 3.459127875680914066e-01 4.270018517132322389e-01 0.000000000000000000e+00 0.000000000000000000e+00 0.000000000000000000e+00 -5.004094731766072224e-01 -1.293683623624474643e+00 0.000000000000000000e+00 0.000000000000000000e+00 0.000000000000000000e+00 2.929053343793506237e-01 -2.127573757259349219e-01
-2.667556503419061253e-01 2.322157069471147972e-02 -2.058546381476920178e-02 0.000000000000000000e+00 4.004196547671485806e-01 5.448379931271640775e-01 -3.170597193294599769e-01 -4.508723657572130117e-01 0.000000000000000000e+00 -1.166750567485559525e-01 1.606763937634446138e-01 -1.020415058312996504e+00 -3.251765138144244727e-01 0.000000000000000000e+00 -2.161209052132931907e-01 -9.869384490135426624e-01 1.325784811587797651e-01 2.015591734602542595e-02 0.000000000000000000e+00 4.107510219675669649e-01
0.000000000000000000e+00 0.000000000000000000e+00 -1.769294365941152247e-01 -2.087828046998205234e-01 0.000000000000000000e+00 0.000000000000000000e+00 0.000000000000000000e+00 -4.180963596739996624e-01 -2.212445719914720443e-01 0.000000000000000000e+00 0.000000000000000000e+00 0.000000000000000000e+00 1.169337593054470048e+00 1.358696851024996155e+00 0.000000000000000000e+00 0.000000000000000000e+00 0.000000000000000000e+00 2.299790945978012757e-01 6.432489781428859521e-01 0.000000000000000000e+00
0.000000000000000000e+00 0.000000000000000000e+00 -2.765116362759245661e-01 -3.222702480851799001e-01 0.000000000000000000e+00 0.000000000000000000e+00 0.000000000000000000e+00 -3.051289394097001506e-01 -1.483156158572682126e-01 0.000000000000000000e+00 0.000000000000000000e+00 0.000000000000000000e+00 1.074516699211599091e+00 1.287984716589471335e+00 0.000000000000000000e+00 0.000000000000000000e+00 0.000000000000000000e+00 2.024975162555839592e-01 5.644731884241306341e-01 0.000000000000000000e+00
7.152316509619545126e-01 0.000000000000000000e+00 0.000000000000000000e+00 2.255710778251492354e-01 -3.774433736172302933e-01 -2.551387352582699664e-01 0.000000000000000000e+00 0.000000000000000000e+00 1.951138098762051909e-01 5.060545834093586048e-01 -2.306878107221344565e-01 0.000000000000000000e+00 0.000000000000000000e+00 -6.328430582911748203e-01 -1.088721488705008733e+00 -1.743744622553209167e+00 0.000000000000000000e+00 0.000000000000000000e+00 -1.136662701562402011e-02 1.261568209713765043e+00
-9.030551820489794990e-01 1.474512792661670790e+00 1.086010027484557883e+00 2.593014004345847168e-01 2.873867973228270978e-02 -1.427468298616472314e-02 -6.730963784280084017e-01 -4.997843253443253753e-01 1.497799288763372316e-01 8.001562603762994996e-01 6.236900378098229059e-01 -3.184976528682096353e-01 3.117251907404799405e-01 3.651777927505202026e-01 -9.849426453995389075e-01 -5.442515079629193231e-01 2.296154087429415069e-01 8.311300332859937468e-02 6.869894278774262009e-02 6.767031501747011735e-03
-2.102651717709141110e-01 0.000000000000000000e+00 0.000000000000000000e+00 1.595252484948228577e-01 5.015828394718285788e-01 -3.843893094065635729e-01 0.000000000000000000e+00 0.000000000000000000e+00 2.361574215749361605e-01 7.553063462914220150e-01 -6.859385015224068738e-01 0.000000000000000000e+00 0.000000000000000000e+00 -6.248704684080406135e-01 -8.463831030257177312e-01 -4.019886321641589766e-01 0.000000000000000000e+00 0.000000000000000000e+00 3.306003166088614109e-01 2.124317861997632728e-01
8.586894152315587281e-01 0.000000000000000000e+00 -5.001292448366740501e-02 0.000000000000000000e+00 -7.442084231994107180e-01 -1.151817049774629537e-01 0.000000000000000000e+00 -1.389120396955175751e-01 0.000000000000000000e+00 2.517508399613782588e-01 -2.668741905012451676e-01 0.000000000000000000e+00 3.165167934281711837e-01 0.000000000000000000e+00 -5.455744457192547303e-01 -6.601111543872739684e-01 0.000000000000000000e+00 -6.760438044422056869e-02 0.000000000000000000e+00 2.110759938299872074e-01
0.000000000000000000e+00 0.000000000000000000e+00 7.653538566039910784e-03 9.760289653379455865e-02 2.785113378911328041e-01 0.000000000000000000e+00 0.000000000000000000e+00 -2.974521864170921459e-01 -8.220088946174299027e-02 9.273048266846627141e-02 0.000000000000000000e+00 0.000000000000000000e+00 6.857004406226910875e-01 5.616176469640521418e-01 -5.136626117041385164e-01 0.000000000000000000e+00 0.000000000000000000e+00 -1.965368423370481565e-01 6.440847888243839137e-04 -3.981482373073090830e-01
0.000000000000000000e+00 0.000000000000000000e+00 0.000000000000000000e+00 1.006303630706217728e-01 2.293920035687299352e-01 0.000000000000000000e+00 0.000000000000000000e+00 0.000000000000000000e+00 3.838168696727897733e-01 4.369796040847904184e-01 0.000000000000000000e+00 0.000000000000000000e+00 0.000000000000000000e+00 -4.460057479918962398e-01 -1.267896755608620696e+00 0.000000000000000000e+00 0.000000000000000000e+00 0.000000000000000000e+00 1.837711170879627043e-01 -2.206804441481416967e-01
1.971179785395155148e-01 0.000000000000000000e+00 -1.559649486038841570e-01 0.000000000000000000e+00 0.000000000000000000e+00 1.370049706352209073e-01 0.000000000000000000e+00 -1.409335975974649879e-01 0.000000000000000000e+00 0.000000000000000000e+00 -9.872151769403215704e-01 0.000000000000000000e+00 5.734769998383688616e-01 0.000000000000000000e+00 0.000000000000000000e+00 -4.413434453969816151e-01 0.000000000000000000e+00 -7.726116134800742330e-02 0.000000000000000000e+00 0.000000000000000000e+00
-3.932195934943233384e-01 5.606080003159488179e-01 0.000000000000000000e+00 -5.613958350073325887e-01 -2.984321333026488388e-01 -1.369492134060792399e-01 -3.672349655683542213e-01 0.000000000000000000e+00 7.323159600313366990e-01 1.118614833115241014e+00 -1.188849082339290320e+00 1.388073650942295290e-01 0.000000000000000000e+00 -8.567425325905402289e-01 -4.993905934136763092e-01 -1.927612978612336658e-01 1.992739049095990089e-01 0.000000000000000000e+00 -9.989395675043122313e-02 -4.773497732919655401e-01
-9.376922193501693314e-01 -4.219325133184370635e-01 -9.499344276303381407e-02 1.265810248963452067e-01 1.490077414535653677e+00 8.726687987366879562e-02 -1.814793635361977020e-01 -7.202421651020206594e-01 -7.063189971481217411e-01 -3.110536414958752216e-01 6.295929868118871342e-02 -3.158124596230432735e-02 4.573854218596403176e-01 2.917236652824518051e-01 -7.260382951760948611e-01 -9.003247950855973736e-01 -1.300858958482710992e-01 -5.486898755038979170e-01 -6.879956998069127749e-01 9.878374600153580487e-02
-4.768750026391409547e-01 0.000000000000000000e+00 0.000000000000000000e+00 6.163678570545454150e-02 6.329673201937099369e-01 -5.285477388857366954e-01 0.000000000000000000e+00 0.000000000000000000e+00 1.459000712855926529e-01 7.118386752372518611e-01 -1.542497920063206518e+00 0.000000000000000000e+00 0.000000000000000000e+00 -7.978146139205897214e-01 -3.454649950367694178e-02 -8.270624187609877387e-01 0.000000000000000000e+00 0.000000000000000000e+00 1.970753136622346302e-01 4.977976089897078182e-01
0.000000000000000000e+00 0.000000000000000000e+00 0.000000000000000000e+00 7.703525175881023590e-02 1.677351285820730675e-01 0.000000000000000000e+00 0.000000000000000000e+00 0.000000000000000000e+00 3.887344337916874837e-01 3.699822774807466352e-01 0.000000000000000000e+00 0.000000000000000000e+00 0.000000000000000000e+00 -5.420692321853777251e-01 -1.291279700165962607e+00 0.000000000000000000e+00 0.000000000000000000e+00 0.000000000000000000e+00 2.309221138244693661e-01 -2.256988679497219097e-01
-4.678427464446073269e-01 0.000000000000000000e+00 0.000000000000000000e+00 0.000000000000000000e+00 7.129546071226755544e-01 -8.041172203550379649e-01 0.000000000000000000e+00 0.000000000000000000e+00 0.000000000000000000e+00 8.505879173727819431e-01 1.488937837482925852e+00 0.000000000000000000e+00 0.000000000000000000e+00 0.000000000000000000e+00 -2.315715543329379233e+00 -9.988572685050154387e-01 0.000000000000000000e+00 0.000000000000000000e+00 0.000000000000000000e+00 5.280757804907667552e-01
5.964479029954907752e-01 0.000000000000000000e+00 0.000000000000000000e+00 2.053876046393722510e-01 -2.600474490767561431e-01 9.153012723751315916e-01 0.000000000000000000e+00 0.000000000000000000e+00 5.296305127693015091e-01 -3.857342268471902758e-01 -8.035798582493349773e-01 0.000000000000000000e+00 0.000000000000000000e+00 -6.404672002504911976e-01 -5.721047370011718147e-01 6.711201056293470968e-01 0.000000000000000000e+00 0.000000000000000000e+00 1.201739484655360707e-01 -9.580147015871979255e-01
0.000000000000000000e+00 0.000000000000000000e+00 -1.030743705117581621e-01 0.000000000000000000e+00 1.837792859896916486e-01 0.000000000000000000e+00 0.000000000000000000e+00 -2.506907975301077562e-01 0.000000000000000000e+00 2.053407023892879768e-01 0.000000000000000000e+00 0.000000000000000000e+00 3.871539745997498172e-01 0.000000000000000000e+00 -9.467715185601477401e-01 0.000000000000000000e+00 0.000000000000000000e+00 -1.636373398144988778e-01 0.000000000000000000e+00 -4.392372834206109133e-01
0.000000000000000000e+00 0.000000000000000000e+00 -2.259512661008218903e-01 -2.555601575576072482e-01 0.000000000000000000e+00 0.000000000000000000e+00 0.000000000000000000e+00 -3.420127199458411482e-01 -3.130018641959874115e-01 0.000000000000000000e+00 0.000000000000000000e+00 0.000000000000000000e+00 1.150367205579129637e+00 1.346568370797260217e+00 0.000000000000000000e+00 0.000000000000000000e+00 0.000000000000000000e+00 2.727634344116268150e-01 6.359693569090140164e-01 0.000000000000000000e+00
0.000000000000000000e+00 0.000000000000000000e+00 -3.354222410908224705e-01 -3.465659385705945894e-01 0.000000000000000000e+00 0.000000000000000000e+00 0.000000000000000000e+00 -3.929722741704323452e-01 -2.610805465310795936e-01 0.000000000000000000e+00 0.000000000000000000e+00 0.000000000000000000e+00 1.198208247145873262e+00 1.356995034663164734e+00 0.000000000000000000e+00 0.000000000000000000e+00 0.000000000000000000e+00 3.553225592742661476e-01 7.417374221370914844e-01 0.000000000000000000e+00
1.578221302078661181e-02 9.443961558597148420e-02 0.000000000000000000e+00 0.000000000000000000e+00 1.181419243098996985e-01 -9.832875492817721996e-04 2.645451693816180949e-01 0.000000000000000000e+00 0.000000000000000000e+00 -7.586052940795551258e-02 -1.953399671536197868e-01 -5.804054553408478645e-01 0.000000000000000000e+00 0.000000000000000000e+00 -2.675076807110936539e-01 -1.836228927182114834e+00 -1.195396436000581430e-02 0.000000000000000000e+00 0.000000000000000000e+00 1.379161840862164423e+00
-2.051267813238504545e-01 5.630939198365233489e-01 1.801799708707437775e-01 -2.075030975028804847e-01 -2.195515448585467211e-01 -2.276597476420398614e-01 2.915377971092539822e-01 -6.755865709763140270e-01 -1.115181033639987884e+00 -6.751586646129963398e-01 -1.223914005311236508e+00 -2.230056379451171855e-01 -9.350914060659781812e-02 -6.237459644843300621e-01 -1.142614683517712004e-02 1.448440811200102374e-01 -1.038170047876012747e+00 -7.388832048053731727e-01 1.781964997361886738e-01 4.379887329782544692e-01
-5.722273529250989643e-01 -4.009304365628839628e-01 -3.558136325594418725e-01 -4.144485518797528384e-02 1.087867993950758727e+00 1.694985288101840348e+00 1.012097191889121117e-01 3.398863257976808550e-03 5.291665411420329868e-01 -1.202511375540977312e+00 3.196683102442943181e-02 -2.083609909745582356e-01 -4.902601498188988716e-01 -1.090397378607584233e+00 -1.514688459015626654e+00 2.365950075585516454e-01 -3.136068173480528465e-01 -2.385039754585373817e-01 2.739855820999161362e-01 -2.069999180134062255e-01
1.440620719293579377e-01 0.000000000000000000e+00 0.000000000000000000e+00 1.006249899919876845e-01 1.370352946331516164e-01 -4.465576625142614331e-01 0.000000000000000000e+00 0.000000000000000000e+00 2.671140576157798874e-01 7.428106740576088107e-01 -1.489983321955899331e+00 0.000000000000000000e+00 0.000000000000000000e+00 -7.789374600644659585e-01 -4.962821999840438814e-03 1.482256471140717957e-01 0.000000000000000000e+00 0.000000000000000000e+00 2.263802044470990538e-01 -4.165523216317703059e-01
-2.914980261336542755e-01 2.090648986647710428e-01 1.002359334295202936e-01 9.667515056255396311e-02 3.869895996836759111e-01 -1.165328293161036755e-01 -8.828278250260909732e-02 -3.203166764463001859e-01 -1.392978032759079055e-01 2.522186503121550682e-01 -4.645715842976205767e-01 -4.321408472648956001e-01 -3.356869457351405184e-01 -6.853377836853071781e-01 -5.816463574929020552e-01 -1.731435862316868524e-01 -2.660196158762548890e-01 -1.156806859524988074e-01 3.949606961963872953e-01 2.217442506861719009e-01
3.472133643290200578e-01 -6.189500551994685518e-01 -5.082004974072226178e-01 0.000000000000000000e+00 3.166666007531612204e-01 1.216701506300678359e-01 -4.480030619423005511e-01 -5.735317418419071389e-01 0.000000000000000000e+00 4.505996148171376725e-01 -4.328480496750263806e-01 -1.443485154734323039e+00 -4.752484479725433975e-01 0.000000000000000000e+00 6.914288415905485152e-01 -7.456202859625276069e-01 -1.287065498767708538e-01 -1.505136580424554227e-01 0.000000000000000000e+00 4.127274795001029672e-01
-1.754280529556978330e+00 0.000000000000000000e+00 1.110858096655348154e-01 0.000000000000000000e+00 1.917367341089265098e+00 1.046436884776376225e-01 0.000000000000000000e+00 -2.848292601348583197e-01 0.000000000000000000e+00 4.750767147183519723e-02 -1.761316560769132789e+00 0.000000000000000000e+00 4.553992589376570921e-01 0.000000000000000000e+00 8.274556070148325615e-01 1.620591055228268185e-01 0.000000000000000000e+00 -1.567055690212200147e-01 0.000000000000000000e+00 -6.240248035628350731e-01
7.348499015932443701e-01 -2.137809571833717004e-01 0.000000000000000000e+00 4.593132925777959064e-01 0.000000000000000000e+00 -4.325174527499237587e-01 4.871937363239806640e-01 0.000000000000000000e+00 -2.387031279150234053e-01 0.000000000000000000e+00 -5.686754851436575109e-01 -5.459470784645179542e-01 0.000000000000000000e+00 -1.389202532143574975e-01 0.000000000000000000e+00 -1.844159657012472975e-02 -1.736985271484771942e-01 0.000000000000000000e+00 3.970810667649120607e-01 0.000000000000000000e+00
0.000000000000000000e+00 -4.271004657883579192e-01 -3.027611651714491314e-01 0.000000000000000000e+00 5.210782027883198442e-01 0.000000000000000000e+00 -1.011755874198710936e-02 -1.950475239274030437e-01 0.000000000000000000e+00 1.482727262653349976e-01 0.000000000000000000e+00 -1.384473495453983904e-01 2.645768630590049075e-01 0.000000000000000000e+00 -7.902929028755416585e-01 0.000000000000000000e+00 3.217599369194146242e-01 8.333183303802652042e-02 0.000000000000000000e+00 -7.521758864768817165e-01
7.866655500965706871e-01 -2.763903418661948774e-01 0.000000000000000000e+00 5.086293950610119019e-01 0.000000000000000000e+00 3.582502763858786965e-01 6.249687099783274302e-02 0.000000000000000000e+00 3.033822819850752195e-01 0.000000000000000000e+00 -7.242839586941997032e-01 -4.428876200463718882e-01 0.000000000000000000e+00 -2.327984762063888269e-01 0.000000000000000000e+00 -1.279835989211505431e+00 4.655760416746402286e-01 0.000000000000000000e+00 -5.382274515435001572e-01 0.000000000000000000e+00
2.996735390042624680e-01 0.000000000000000000e+00 0.000000000000000000e+00 1.966086884970307258e-01 0.000000000000000000e+00 5.010231056146324802e-01 0.000000000000000000e+00 0.000000000000000000e+00 4.585043777801532938e-01 0.000000000000000000e+00 -1.476301710236671783e+00 0.000000000000000000e+00 0.000000000000000000e+00 -8.050798202023279337e-01 0.000000000000000000e+00 -3.994811524476993836e-01 0.000000000000000000e+00 0.000000000000000000e+00 1.117499677668161578e-01 0.000000000000000000e+00
1.998608226276129274e-01 0.000000000000000000e+00 -1.476319905098019691e-01 0.000000000000000000e+00 0.000000000000000000e+00 1.795072841872447367e-01 0.000000000000000000e+00 -1.395130771370411693e-01 0.000000000000000000e+00 0.000000000000000000e+00 -9.319588653216532848e-01 0.000000000000000000e+00 4.093185852855822371e-01 0.000000000000000000e+00 0.000000000000000000e+00 -4.049999631911871401e-01 0.000000000000000000e+00 -9.030925158214833659e-02 0.000000000000000000e+00 0.000000000000000000e+00
1.493857274278147795e-01 0.000000000000000000e+00 -1.019741908964358623e-01 0.000000000000000000e+00 1.082240206110314518e-02 -3.253454897158595260e-01 0.000000000000000000e+00 -1.496165179531439571e-01 0.000000000000000000e+00 5.250542171378917988e-01 -9.951818288491287579e-01 0.000000000000000000e+00 4.691305200609132142e-01 0.000000000000000000e+00 6.737933932663464631e-02 5.532459659999557910e-01 0.000000000000000000e+00 -2.068555113719328931e-01 0.000000000000000000e+00 -9.350518162218731666e-01
1.643120456126528905e-02 1.832061734842041212e-01 0.000000000000000000e+00 -3.102509221041125503e-02 0.000000000000000000e+00 -4.158202022936292042e-01 4.752871606334105881e-01 0.000000000000000000e+00 -2.513122575437167217e-01 0.000000000000000000e+00 -9.552443699737344085e-01 -2.858503073669040884e-01 0.000000000000000000e+00 -3.682844863722841700e-01 0.000000000000000000e+00 1.271926975455937470e+00 -8.509742208416060105e-01 0.000000000000000000e+00 1.324638130142085979e+00 0.000000000000000000e+00
0.000000000000000000e+00 2.800306468470303844e-01 0.000000000000000000e+00 -1.934217713275221961e-01 -2.152976799305986455e-01 0.000000000000000000e+00 -2.839316879798481352e-01 0.000000000000000000e+00 6.778297314400598683e-01 8.895434255299915494e-01 0.000000000000000000e+00 -2.672694668525761874e-01 0.000000000000000000e+00 -2.589601920215723885e-01 -9.086097625546255552e-01 0.000000000000000000e+00 7.603661590944594817e-01 0.000000000000000000e+00 -6.443160874718927289e-01 -1.539878521158438263e+00
0.000000000000000000e+00 0.000000000000000000e+00 -2.567377316839661305e-01 -2.901042665771275675e-01 0.000000000000000000e+00 0.000000000000000000e+00 0.000000000000000000e+00 -3.004099490553080454e-01 -2.389369705485331619e-01 0.000000000000000000e+00 0.000000000000000000e+00 0.000000000000000000e+00 1.107734420133611231e+00 1.228396779033855912e+00 0.000000000000000000e+00 0.000000000000000000e+00 0.000000000000000000e+00 3.017485587907929312e-01 6.116650323535047784e-01 0.000000000000000000e+00
0.000000000000000000e+00 0.000000000000000000e+00 -2.040778798966852714e-01 -3.160253145231438077e-01 0.000000000000000000e+00 0.000000000000000000e+00 0.000000000000000000e+00 -3.812528278822895911e-01 -2.208476415528925207e-01 0.000000000000000000e+00 0.000000000000000000e+00 0.000000000000000000e+00 1.093302178173268135e+00 1.299622060717815275e+00 0.000000000000000000e+00 0.000000000000000000e+00 0.000000000000000000e+00 1.468515409267501792e-01 5.143025581658956513e-01 0.000000000000000000e+00
0.000000000000000000e+00 1.380222545443275939e-01 0.000000000000000000e+00 -8.189547465410609850e-02 0.000000000000000000e+00 0.000000000000000000e+00 3.519872056250132886e-01 0.000000000000000000e+00 9.671374093863602250e-02 0.000000000000000000e+00 0.000000000000000000e+00 -7.477674794275183112e-01 0.000000000000000000e+00 3.119610478464476255e-01 0.000000000000000000e+00 0.000000000000000000e+00 -1.482923937884393917e-01 0.000000000000000000e+00 4.999044672371542042e-01 0.000000000000000000e+00
1.607214206066698847e-01 0.000000000000000000e+00 2.271952265941561133e-02 0.000000000000000000e+00 0.000000000000000000e+00 1.711210570373574991e-01 0.000000000000000000e+00 -2.284807966310113403e-01 0.000000000000000000e+00 0.000000000000000000e+00 -8.910487129083927149e-01 0.000000000000000000e+00 4.653262763737988084e-01 0.000000000000000000e+00 0.000000000000000000e+00 -3.525044957313274163e-01 0.000000000000000000e+00 -1.007862951632270132e-01 0.000000000000000000e+00 0.000000000000000000e+00
4.442118346064238277e-01 0.000000000000000000e+00 -3.495950778312186813e-01 -4.594083074765632491e-01 -5.464259240779137938e-01 -1.513212775571086688e-01 0.000000000000000000e+00 6.309974634489179390e-02 4.654922931735024361e-01 6.483185530631957461e-01 -9.359969746470816476e-01 0.000000000000000000e+00 5.207129654039185374e-01 1.922853908967115943e-01 3.082682681510316991e-01 -6.110389215655380735e-01 0.000000000000000000e+00 2.316540585115837159e-01 5.978598894537101582e-01 5.379045099277416364e-01
0.000000000000000000e+00 -3.921319181229789286e-01 -1.786101731558765171e-01 -7.374532928888480332e-02 5.550723799490270283e-01 0.000000000000000000e+00 1.614662625718568112e-01 4.479278308029522870e-01 8.557478116339471974e-01 5.755667562709758656e-01 0.000000000000000000e+00 -1.192765506522872165e+00 -2.630722566936416484e-04 9.011583513364823661e-01 7.121495668209906205e-01 0.000000000000000000e+00 -1.148319502668317060e+00 -6.761511729910129054e-01 2.246839649291689778e-01 7.280449391731372843e-01
0.000000000000000000e+00 3.032198269904167187e-01 0.000000000000000000e+00 0.000000000000000000e+00 1.475853377216525264e-02 0.000000000000000000e+00 3.844440784819409540e-01 0.000000000000000000e+00 0.000000000000000000e+00 -2.837452512341542832e-02 0.000000000000000000e+00 -6.822241824469192917e-01 0.000000000000000000e+00 0.000000000000000000e+00 -6.377947804505629259e-01 0.000000000000000000e+00 8.818330253952071096e-02 0.000000000000000000e+00 0.000000000000000000e+00 -5.148238864491561095e-01
0.000000000000000000e+00 0.000000000000000000e+00 0.000000000000000000e+00 -1.909133235159192754e-01 -2.922316473020601935e-01 0.000000000000000000e+00 0.000000000000000000e+00 0.000000000000000000e+00 -6.276154325964733438e-03 8.368605622528008103e-02 0.000000000000000000e+00 0.000000000000000000e+00 0.000000000000000000e+00 -4.364059684698331498e-01 -1.201276868366329298e+00 0.000000000000000000e+00 0.000000000000000000e+00 0.000000000000000000e+00 2.239336402820248650e-01 -2.167425022944008406e-01
0.000000000000000000e+00 4.381598900904045690e-01 2.109032480523255759e-01 0.000000000000000000e+00 0.000000000000000000e+00 0.000000000000000000e+00 2.443849851914914884e-01 9.594676971274347654e-02 0.000000000000000000e+00 0.000000000000000000e+00 0.000000000000000000e+00 -1.010890854292664454e+00 -3.442508578737524250e-01 0.000000000000000000e+00 0.000000000000000000e+00 0.000000000000000000e+00 -6.116209379907792121e-01 -4.102461600774311989e-01 0.000000000000000000e+00 0.000000000000000000e+00
1.599299831563129604e-01 0.000000000000000000e+00 4.103068236192070062e-02 5.143015578483048356e-02 0.000000000000000000e+00 -2.182038853452082927e-01 0.000000000000000000e+00 -3.398576962705579518e-01 -3.635407143432977661e-01 0.000000000000000000e+00 -1.128322019447256963e+00 0.000000000000000000e+00 3.666658882088049687e-01 -2.140012536943838861e-01 0.000000000000000000e+00 -1.078107525294002000e-01 0.000000000000000000e+00 -2.705885907315244698e-02 3.076070159156470973e-01 0.000000000000000000e+00
1.627265191577657588e-01 7.727679738997564329e-02 0.000000000000000000e+00 0.000000000000000000e+00 0.000000000000000000e+00 2.551543055062818754e-03 2.394382855237498497e-01 0.000000000000000000e+00 0.000000000000000000e+00 0.000000000000000000e+00 -3.742962747462627582e-01 -6.224744526319987425e-01 0.000000000000000000e+00 0.000000000000000000e+00 0.000000000000000000e+00 -5.587115750188679231e-01 9.428442619549821935e-02 0.000000000000000000e+00 0.000000000000000000e+00 0.000000000000000000e+00
9.658022266595785166e-02 8.836217389630811325e-02 0.000000000000000000e+00 0.000000000000000000e+00 0.000000000000000000e+00 -9.954479632696246194e-02 2.651584154650769021e-01 0.000000000000000000e+00 0.000000000000000000e+00 0.000000000000000000e+00 -4.870189619049898333e-01 -6.263601952690239782e-01 0.000000000000000000e+00 0.000000000000000000e+00 0.000000000000000000e+00 -4.851675949528841403e-01 6.809894117075857012e-02 0.000000000000000000e+00 0.000000000000000000e+00 0.000000000000000000e+00
3.391019680106040490e-01 -1.418701927188804612e-01 -1.568025931356052671e-01 2.693206268910495679e-02 -7.324611733335931185e-02 1.905997066274854254e-02 1.932220818169064769e-01 -3.809005482562734524e-01 -4.875159859575559640e-01 -3.644811502362681477e-01 -1.949658977693261019e-01 -1.182381252890524759e-01 1.968233156199165057e-01 -1.440352625960492627e-01 -7.550889383988641512e-01 -2.895953744971104804e-01 -7.962883192406941535e-02 -2.706472667406563115e-01 -2.431253108167655830e-01 -2.554290273990916793e-01
-4.731865186696062597e-01 3.187897454324402635e-01 4.170559427531469465e-01 3.943091439593104930e-01 6.092664750212972713e-01 8.725116110377102441e-01 -3.568378082839011034e-01 2.061232557522421072e-01 1.206582773118607843e+00 4.332739401079647723e-01 -6.297133780006189951e-01 -2.299359181002286756e-01 3.808265747402029833e-01 2.236685283689004433e-01 6.294669945942454881e-02 6.415007809107466930e-01 6.615153967182468842e-02 -1.547984159901913404e-01 -1.358157118838564936e-01 -1.273460336968794904e+00
-2.625641402038656480e-01 -7.797942215354044526e-01 -2.298772132061044360e-01 5.198606573129330721e-01 1.396168249254653881e+00 -4.456846374348971684e-01 -7.063424956783600495e-01 -3.576548141699361083e-01 6.057581197323762545e-01 1.637000321395499780e+00 -8.366073950065668896e-01 -4.723807714796793844e-01 1.070945780344894627e-01 -1.059811256616916830e-01 1.830991006339005023e-01 -7.459987341211199441e-03 4.061727895467278637e-01 1.941652823555623797e-01 5.732098237029439880e-02 -7.323426428733678106e-01
-1.150139346276621621e+00 -1.533312825242305055e-01 0.000000000000000000e+00 0.000000000000000000e+00 1.401141681278828655e+00 -8.828914475308350385e-01 3.402756971824719145e-01 0.000000000000000000e+00 0.000000000000000000e+00 7.065881979752830500e-01 1.427390517052124386e+00 -2.237618018237133022e-01 0.000000000000000000e+00 0.000000000000000000e+00 -2.141447037449989654e+00 3.620699588629536225e-01 2.342465000753843340e-01 0.000000000000000000e+00 0.000000000000000000e+00 -1.000780086037418748e+00
0.000000000000000000e+00 1.973024224300691520e-01 0.000000000000000000e+00 0.000000000000000000e+00 -4.453182050169190997e-02 0.000000000000000000e+00 2.779528627373613059e-01 0.000000000000000000e+00 0.000000000000000000e+00 -1.030377485292570949e-01 0.000000000000000000e+00 -5.479645586236878696e-01 0.000000000000000000e+00 0.000000000000000000e+00 -4.400665462253135485e-01 0.000000000000000000e+00 6.994855095289004288e-02 0.000000000000000000e+00 0.000000000000000000e+00 -5.007320300757849285e-01
0.000000000000000000e+00 2.041564610212118214e-01 7.576960815276495564e-02 -1.100105823273047206e-01 0.000000000000000000e+00 0.000000000000000000e+00 3.292407449020655630e-01 -3.005807636800109095e-02 9.040147117920990794e-02 0.000000000000000000e+00 0.000000000000000000e+00 -8.347606550421251548e-01 2.123845549819786127e-02 2.383820285603849287e-01 0.000000000000000000e+00 0.000000000000000000e+00 -3.306328198584973510e-01 -1.535862269967815386e-01 1.601612597784490555e-01 0.000000000000000000e+00
0.000000000000000000e+00 2.039127026387657637e-01 0.000000000000000000e+00 -3.057328030402101104e-02 0.000000000000000000e+00 0.000000000000000000e+00 3.825879140562346570e-01 0.000000000000000000e+00 1.459923148491139577e-01 0.000000000000000000e+00 0.000000000000000000e+00 -7.420957237377431293e-01 0.000000000000000000e+00 4.207374277958216835e-01 0.000000000000000000e+00 0.000000000000000000e+00 -1.143012160995467708e-01 0.000000000000000000e+00 3.365269261611077978e-01 0.000000000000000000e+00
0.000000000000000000e+00 1.586409188827820893e-01 0.000000000000000000e+00 -7.645076712255023665e-02 0.000000000000000000e+00 0.000000000000000000e+00 2.503485069676641972e-01 0.000000000000000000e+00 1.629591469883195920e-01 0.000000000000000000e+00 0.000000000000000000e+00 -8.501256427545045291e-01 0.000000000000000000e+00 2.562197682824953748e-01 0.000000000000000000e+00 0.000000000000000000e+00 -1.743584192361900542e-01 0.000000000000000000e+00 2.948459298927135208e-01 0.000000000000000000e+00
0.000000000000000000e+00 6.232075243059347763e-02 -6.113400979272778368e-01 -8.768734786979023310e-01 -4.451848183151586591e-01 0.000000000000000000e+00 -3.270416480846663476e-02 2.769831743409251201e-02 3.876425302020436447e-01 4.661123063044408932e-01 0.000000000000000000e+00 -1.255735034820599227e-01 6.364673565402145794e-01 6.219238061233363091e-01 -4.378815443654909823e-01 0.000000000000000000e+00 1.894048705896392848e-01 8.082129331141163497e-02 1.788731436671560093e-01 -3.906488924106171767e-01
1.591303556783229267e-01 7.933994404238349507e-02 0.000000000000000000e+00 0.000000000000000000e+00 -2.387123307942563832e-02 3.481065514860164356e-01 3.425251558718047651e-01 0.000000000000000000e+00 0.000000000000000000e+00 -4.226596364973247422e-01 -7.916402053386459858e-01 -6.454241478297301216e-01 0.000000000000000000e+00 0.000000000000000000e+00 3.836569986927658715e-01 -5.334852873161064490e-01 1.147099687599295870e-01 0.000000000000000000e+00 0.000000000000000000e+00 -4.175307436782682569e-03
-3.368064621442251605e-02 -2.030601312142968906e-01 -5.196841202444232310e-01 -4.977599924725729652e-01 0.000000000000000000e+00 1.040349380947776625e+00 -9.927200997815437411e-01 -8.901428978232338585e-01 4.613705896320918765e-02 0.000000000000000000e+00 -8.682011633313402310e-02 -9.192001553485387166e-01 -2.345314415682359099e-01 1.106922423930382926e-01 0.000000000000000000e+00 -6.110729699290984307e-01 3.450930405738530382e-01 3.053581390637359338e-01 2.105170917395564334e-01 0.000000000000000000e+00
4.173578327310155656e-01 2.085663317547996887e-01 -4.550746486415258585e-01 -7.403858388157957826e-01 -9.164125691913306282e-01 -2.881798339363178529e-01 1.342700446892857391e+00 9.381967906450766614e-01 4.188069413493916149e-01 -3.404903720540506384e-01 -2.640565329121418170e-01 -1.246371962182935000e+00 -3.393651906620546166e-01 2.281110042488359024e-01 5.217673636531761083e-01 -2.998592556049857749e-01 1.812255793397859749e-01 4.288733418349622850e-01 7.110423305142100636e-01 1.439659221060736183e-01
6.652156103270159271e-01 -1.076516947097772459e+00 -5.891944196671609069e-01 3.706361172630298628e-01 6.933867173339562928e-01 1.759621845044960775e-01 -5.305020844585870421e-01 2.012549761563916240e-01 1.223340404430629524e+00 1.237318693329578334e+00 2.583700310372393782e-01 -6.480713661182946339e-01 -7.556985064161908516e-01 -1.023344411436110324e+00 -1.346241710222644938e+00 4.530099741760194032e-01 -1.094841723723280591e+00 -9.912784162836447699e-01 -1.254716789808484889e-01 3.545233478787851444e-02
1.182710817316855012e+00 -2.801222496720969235e-01 -3.449499527116787756e-01 0.000000000000000000e+00 -7.169576703878398627e-01 -2.048567203041226303e+00 6.190758777069549357e-01 3.526882614205044675e-01 0.000000000000000000e+00 1.649470712828041030e+00 8.914714422214277123e-01 -2.036652982961476344e+00 -1.063725654528728359e+00 0.000000000000000000e+00 -5.591416079982219900e-02 2.680628231543574769e-01 -1.115191492220854119e+00 -9.063118124322993019e-01 0.000000000000000000e+00 3.245398253804110400e-01
0.000000000000000000e+00 0.000000000000000000e+00 -2.121249948847462596e-01 -2.602347046173466572e-01 0.000000000000000000e+00 0.000000000000000000e+00 0.000000000000000000e+00 -3.924023253089153340e-01 -2.982616609037376798e-01 0.000000000000000000e+00 0.000000000000000000e+00 0.000000000000000000e+00 1.171461604088275488e+00 1.316881183836683844e+00 0.000000000000000000e+00 0.000000000000000000e+00 0.000000000000000000e+00 2.738598340628240480e-01 6.485132455630300274e-01 0.000000000000000000e+00
3.467744582997517311e-01 0.000000000000000000e+00 0.000000000000000000e+00 2.367743445483720677e-01 0.000000000000000000e+00 4.176119324480283557e-01 0.000000000000000000e+00 0.000000000000000000e+00 3.965896164615320685e-01 0.000000000000000000e+00 -1.493984420794680412e+00 0.000000000000000000e+00 0.000000000000000000e+00 -7.595526478670538983e-01 0.000000000000000000e+00 -1.978196935116255939e-01 0.000000000000000000e+00 0.000000000000000000e+00 2.053707086154697159e-01 0.000000000000000000e+00
2.083133437203386340e-01 0.000000000000000000e+00 0.000000000000000000e+00 5.301389716869105151e-02 0.000000000000000000e+00 4.634108635453663139e-01 0.000000000000000000e+00 0.000000000000000000e+00 4.119613456725146894e-01 0.000000000000000000e+00 -1.559341967303570664e+00 0.000000000000000000e+00 0.000000000000000000e+00 -8.245017514085227761e-01 0.000000000000000000e+00 -1.474975300096549036e-01 0.000000000000000000e+00 0.000000000000000000e+00 2.476269080178149506e-01 0.000000000000000000e+00
3.942097135315897338e-01 0.000000000000000000e+00 0.000000000000000000e+00 2.402700056797156813e-01 0.000000000000000000e+00 4.344167649631032746e-01 0.000000000000000000e+00 0.000000000000000000e+00 3.701147627033798959e-01 0.000000000000000000e+00 -1.321590161909456107e+00 0.000000000000000000e+00 0.000000000000000000e+00 -5.462263561976035131e-01 0.000000000000000000e+00 -3.298119235596237986e-01 0.000000000000000000e+00 0.000000000000000000e+00 1.607478743670714139e-01 0.000000000000000000e+00
1.019369211013609750e-01 2.055722319481619875e-01 0.000000000000000000e+00 0.000000000000000000e+00 0.000000000000000000e+00 -1.643339982774529029e-01 3.606665357032332042e-01 0.000000000000000000e+00 0.000000000000000000e+00 0.000000000000000000e+00 -4.326740299311913063e-01 -6.430269036785329906e-01 0.000000000000000000e+00 0.000000000000000000e+00 0.000000000000000000e+00 -5.497183744629232649e-01 1.007051623256479678e-01 0.000000000000000000e+00 0.000000000000000000e+00 0.000000000000000000e+00
-2.969600127633643671e-01 -1.215537945073828785e-02 -5.655648733469638423e-02 0.000000000000000000e+00 5.182207000460420376e-01 9.877834541314769456e-01 -7.245063076466562446e-01 -8.825298704271110628e-01 0.000000000000000000e+00 -2.179428738952495781e-01 -6.291833526601480209e-01 8.658932283251924433e-02 3.842549678310465677e-01 0.000000000000000000e+00 -3.935248937558221138e-01 1.409128043742966241e-01 6.085309544963508621e-01 2.626000896429280806e-01 0.000000000000000000e+00 -1.040635148898740869e+00
0.000000000000000000e+00 0.000000000000000000e+00 5.503644970594956387e-01 9.641480117327397847e-01 8.273296440329186430e-01 0.000000000000000000e+00 0.000000000000000000e+00 -4.084640414266047515e-01 -3.027075209682572043e-01 -2.760273104234120534e-02 0.000000000000000000e+00 0.000000000000000000e+00 5.366194654895836136e-01 4.375393609626090918e-01 -5.426521675336333228e-01 0.000000000000000000e+00 0.000000000000000000e+00 -1.431376877353664478e-01 -1.342277672056058080e-02 -4.634246910900906569e-01
0.000000000000000000e+00 1.123481822469193647e-01 0.000000000000000000e+00 0.000000000000000000e+00 1.438834730026086750e-01 0.000000000000000000e+00 2.074291751480066837e-01 0.000000000000000000e+00 0.000000000000000000e+00 -8.000810482557590975e-02 0.000000000000000000e+00 -4.687424665344777086e-01 0.000000000000000000e+00 0.000000000000000000e+00 -5.651353091108344273e-01 0.000000000000000000e+00 1.009739268528721395e-01 0.000000000000000000e+00 0.000000000000000000e+00 -6.073752296023834374e-01
0.000000000000000000e+00 1.150268143392006448e-01 0.000000000000000000e+00 0.000000000000000000e+00 1.041206989529363941e-01 0.000000000000000000e+00 2.610832138989283568e-01 0.000000000000000000e+00 0.000000000000000000e+00 -1.364754809389171764e-01 0.000000000000000000e+00 -4.122895359869624410e-01 0.000000000000000000e+00 0.000000000000000000e+00 -6.059766013480379909e-01 0.000000000000000000e+00 3.173124074759461344e-01 0.000000000000000000e+00 0.000000000000000000e+00 -6.338162599743546455e-01
0.000000000000000000e+00 1.504952038709772288e-01 0.000000000000000000e+00 0.000000000000000000e+00 6.081981199794153636e-03 0.000000000000000000e+00 2.815693642281970610e-01 0.000000000000000000e+00 0.000000000000000000e+00 -6.079409428335039167e-02 0.000000000000000000e+00 -5.138549867576454044e-01 0.000000000000000000e+00 0.000000000000000000e+00 -5.230144811896252355e-01 0.000000000000000000e+00 1.530173993588726522e-01 0.000000000000000000e+00 0.000000000000000000e+00 -5.320085025427654379e-01
2.513437699918054380e-02 1.657668918546098269e-01 0.000000000000000000e+00 0.000000000000000000e+00 0.000000000000000000e+00 -5.272066394643459136e-02 2.620686735949726009e-01 0.000000000000000000e+00 0.000000000000000000e+00 0.000000000000000000e+00 -3.942285682772003752e-01 -6.450326067328355784e-01 0.000000000000000000e+00 0.000000000000000000e+00 0.000000000000000000e+00 -5.374507276212965312e-01 1.203104826044622266e-01 0.000000000000000000e+00 0.000000000000000000e+00 0.000000000000000000e+00
2.057706518498312875e-01 2.277094500069207772e-01 0.000000000000000000e+00 -8.923995525696770681e-02 -2.345126056585803420e-01 3.921902713788281702e-01 2.365604730377419695e-01 0.000000000000000000e+00 1.184088600479640818e-01 -2.932990089632737662e-01 -5.892911307174975022e-02 -4.449721628332512502e-01 0.000000000000000000e+00 -3.214392976673118019e-02 -5.241716970542839027e-01 -2.506600964992855007e-01 -1.127867806034440340e-02 0.000000000000000000e+00 2.154264166405253644e-01 -1.559490588583956061e-02
0.000000000000000000e+00 -1.027497713665360690e-01 -1.473303717266510882e-01 0.000000000000000000e+00 2.370451380411273123e-01 0.000000000000000000e+00 9.286392656485892294e-02 -2.063647167815872985e-01 0.000000000000000000e+00 4.082532983055818521e-02 0.000000000000000000e+00 -1.102850783302846471e+00 -3.731674033108924871e-01 0.000000000000000000e+00 2.405275462384126595e-02 0.000000000000000000e+00 -1.725925035470634028e-01 -2.286206672872560519e-01 0.000000000000000000e+00 -2.604661411129927662e-01
1.693083659972019206e-01 0.000000000000000000e+00 -1.270052695571167178e-01 -6.163776913473788255e-02 0.000000000000000000e+00 2.077564903790566353e-01 0.000000000000000000e+00 -1.841376140160315145e-01 5.717077975897752462e-02 0.000000000000000000e+00 -7.949717682886486836e-01 0.000000000000000000e+00 5.874284579631399161e-01 2.035018212876930077e-01 0.000000000000000000e+00 -1.902040218415174122e-01 0.000000000000000000e+00 6.145293389909982362e-02 3.548987311446797355e-01 0.000000000000000000e+00
0.000000000000000000e+00 1.462792470588225036e-01 0.000000000000000000e+00 2.342311448965388176e-02 0.000000000000000000e+00 0.000000000000000000e+00 2.720664712718920963e-01 0.000000000000000000e+00 1.124945968044508415e-01 0.000000000000000000e+00 0.000000000000000000e+00 -9.013481206458567874e-01 0.000000000000000000e+00 3.085613248756721161e-01 0.000000000000000000e+00 0.000000000000000000e+00 -1.226160081228025722e-01 0.000000000000000000e+00 4.331401490592773906e-01 0.000000000000000000e+00
-3.951943559310802656e-02 2.353469240632580783e-01 8.102027266317851639e-02 0.000000000000000000e+00 0.000000000000000000e+00 5.329275616966372420e-02 2.664493984065213761e-01 -2.947314058550980220e-02 0.000000000000000000e+00 0.000000000000000000e+00 -6.832518381975323241e-01 -2.494220476971070466e-01 2.040851973880093151e-01 0.000000000000000000e+00 0.000000000000000000e+00 -7.632514200615087008e-01 1.421164803411389121e-01 1.602460285335656209e-01 0.000000000000000000e+00 0.000000000000000000e+00
0.000000000000000000e+00 8.470162898264252394e-02 -2.904824475594868227e-01 -3.173207578695619868e-01 -1.409086389448586107e-01 0.000000000000000000e+00 4.827671001594243672e-01 3.525972894972274063e-01 3.266743837361538172e-01 -6.125536490184697869e-02 0.000000000000000000e+00 -4.435288013265020757e-02 2.166534317455038050e-01 -7.311463295895020975e-03 -7.990855893309214419e-01 0.000000000000000000e+00 1.006791849828931329e-01 1.237123057379794638e-01 2.572695035943434183e-01 -3.825182255594351544e-01
0.000000000000000000e+00 0.000000000000000000e+00 -1.113039148615942719e-01 0.000000000000000000e+00 1.231192863232070112e-01 0.000000000000000000e+00 0.000000000000000000e+00 -1.381973199705587019e-01 0.000000000000000000e+00 1.253980938702104753e-01 0.000000000000000000e+00 0.000000000000000000e+00 4.267746496929722966e-01 0.000000000000000000e+00 -9.026876445668344795e-01 0.000000000000000000e+00 0.000000000000000000e+00 -1.005388907763934414e-01 0.000000000000000000e+00 -4.287542151283728065e-01
0.000000000000000000e+00 0.000000000000000000e+00 -1.886753813619094222e-01 -1.984992763172835628e-01 0.000000000000000000e+00 0.000000000000000000e+00 0.000000000000000000e+00 -2.820312975510613773e-01 -2.044863442457808822e-01 0.000000000000000000e+00 0.000000000000000000e+00 0.000000000000000000e+00 1.039948740810327177e+00 1.273204865823910126e+00 0.000000000000000000e+00 0.000000000000000000e+00 0.000000000000000000e+00 2.080080980381400768e-01 6.763808962323081264e-01 0.000000000000000000e+00
0.000000000000000000e+00 0.000000000000000000e+00 -1.757486433466903253e-01 -1.299873646864796173e-01 0.000000000000000000e+00 0.000000000000000000e+00 0.000000000000000000e+00 -3.523609759655811913e-01 -1.847088165935615589e-01 0.000000000000000000e+00 0.000000000000000000e+00 0.000000000000000000e+00 1.097650641515107939e+00 1.369728481901933748e+00 0.000000000000000000e+00 0.000000000000000000e+00 0.000000000000000000e+00 3.255011860909555743e-01 6.287927374372102030e-01 0.000000000000000000e+00
5.329935253382918070e-01 0.000000000000000000e+00 0.000000000000000000e+00 2.675754577938104228e-01 -1.575047911030539316e-01 -4.890069164623775388e-02 0.000000000000000000e+00 0.000000000000000000e+00 3.918418806306075974e-01 4.297637414587546223e-01 7.508977477469760409e-01 0.000000000000000000e+00 0.000000000000000000e+00 -4.170198752867929626e-01 -2.001599428822391502e+00 6.189273785285857032e-01 0.000000000000000000e+00 0.000000000000000000e+00 3.423886766518325353e-01 -7.435653808934817866e-01
0.000000000000000000e+00 0.000000000000000000e+00 -5.176233206309016621e-02 0.000000000000000000e+00 1.797827480112673681e-01 0.000000000000000000e+00 0.000000000000000000e+00 -1.874714687816718406e-01 0.000000000000000000e+00 1.066086351885020267e-01 0.000000000000000000e+00 0.000000000000000000e+00 3.383679402257879221e-01 0.000000000000000000e+00 -9.026241274899340361e-01 0.000000000000000000e+00 0.000000000000000000e+00 -9.601817800775494516e-02 0.000000000000000000e+00 -4.607272670688981608e-01
0.000000000000000000e+00 1.813984507880780639e-01 0.000000000000000000e+00 -1.001318990588473679e-01 0.000000000000000000e+00 0.000000000000000000e+00 2.543076775733235650e-01 0.000000000000000000e+00 6.652085198572751934e-02 0.000000000000000000e+00 0.000000000000000000e+00 -8.055487813585348045e-01 0.000000000000000000e+00 3.729507087725149050e-01 0.000000000000000000e+00 0.000000000000000000e+00 -1.990319408008228430e-01 0.000000000000000000e+00 3.852453945042845773e-01 0.000000000000000000e+00
0.000000000000000000e+00 -1.458470238933810004e-01 2.425415439960218744e-01 6.622092650195208208e-01 7.426588609911959349e-01 0.000000000000000000e+00 8.557292981146304989e-01 3.199135645115520621e-01 3.045449379322564057e-02 -5.278439869389852657e-01 0.000000000000000000e+00 -7.980265651043345621e-01 -3.119482177248459331e-01 -1.181270140796217005e-01 -2.977775395719364226e-01 0.000000000000000000e+00 2.628983321665821771e-02 1.233723094496456951e-01 4.827997525866990491e-01 -9.106106287699221313e-02
3.761692913103039659e-01 -4.751142396479333119e-01 -4.516225653264312467e-01 6.748274005614543491e-02 2.758271098261690923e-01 -2.035907333361720806e+00 3.168399481872045120e-01 -7.570579211684191900e-02 -3.857416615062999043e-01 1.605953948297425216e+00 1.329745715765292324e+00 -2.432203619107759174e+00 -1.124373265473504357e+00 4.656231052640963375e-01 1.683158260611444801e-01 -7.420364878299681721e-02 -1.452180579204475630e-01 4.138543181069317400e-01 1.061070280426628099e+00 5.706776849125148043e-01
3.877004601651343751e-01 0.000000000000000000e+00 0.000000000000000000e+00 2.548565994631710185e-01 0.000000000000000000e+00 5.167255655590492491e-01 0.000000000000000000e+00 0.000000000000000000e+00 4.401874896690982641e-01 0.000000000000000000e+00 -1.426141935962297991e+00 0.000000000000000000e+00 0.000000000000000000e+00 -7.374028892985380335e-01 0.000000000000000000e+00 -2.886195954456179935e-01 0.000000000000000000e+00 0.000000000000000000e+00 2.331907247454098331e-01 0.000000000000000000e+00
3.616680854268358170e-01 0.000000000000000000e+00 0.000000000000000000e+00 2.350323872441382744e-01 0.000000000000000000e+00 5.194939954767338053e-01 0.000000000000000000e+00 0.000000000000000000e+00 4.836026609697180456e-01 0.000000000000000000e+00 -1.487442302340637790e+00 0.000000000000000000e+00 0.000000000000000000e+00 -7.983386844812185856e-01 0.000000000000000000e+00 -2.853798401772215665e-01 0.000000000000000000e+00 0.000000000000000000e+00 1.706976798626815284e-01 0.000000000000000000e+00
2.780746800102196215e-01 0.000000000000000000e+00 0.000000000000000000e+00 1.397616132055517213e-01 0.000000000000000000e+00 4.898693509959508585e-01 0.000000000000000000e+00 0.000000000000000000e+00 3.920632133726431046e-01 0.000000000000000000e+00 -1.528575387240992622e+00 0.000000000000000000e+00 0.000000000000000000e+00 -8.074937549682005278e-01 0.000000000000000000e+00 -4.168899778998682581e-01 0.000000000000000000e+00 0.000000000000000000e+00 3.164371258432766010e-02 0.000000000000000000e+00
2.044600766763967348e-01 0.000000000000000000e+00 -7.020926524427685556e-02 0.000000000000000000e+00 0.000000000000000000e+00 1.479055152081077962e-01 0.000000000000000000e+00 -2.352444730141024787e-01 0.000000000000000000e+00 0.000000000000000000e+00 -9.649128149457353310e-01 0.000000000000000000e+00 4.333192129340015519e-01 0.000000000000000000e+00 0.000000000000000000e+00 -3.831109423669378233e-01 0.000000000000000000e+00 -4.971086678476408643e-02 0.000000000000000000e+00 0.000000000000000000e+00
1.018501580708159659e+00 0.000000000000000000e+00 2.559210289360197566e-02 2.281898617084138770e-01 -6.839995663881298649e-01 2.455603092757758232e-01 0.000000000000000000e+00 -1.480700348990650062e-01 1.591150849529467393e-01 4.804126045552944979e-02 4.253309897683498209e-01 0.000000000000000000e+00 9.884501046765979959e-01 1.126297903287968083e+00 -5.952618581147423038e-01 -2.816791954627011485e-01 0.000000000000000000e+00 -1.292691243794449329e-01 2.757911334151037785e-02 -9.360954636002009888e-02
0.000000000000000000e+00 9.525436276539361868e-02 0.000000000000000000e+00 0.000000000000000000e+00 9.202166191899055492e-02 0.000000000000000000e+00 3.840800194593235739e-01 0.000000000000000000e+00 0.000000000000000000e+00 -2.014658592015793337e-01 0.000000000000000000e+00 -4.170538832886441227e-01 0.000000000000000000e+00 0.000000000000000000e+00 -5.670331097093935790e-01 0.000000000000000000e+00 1.933865389325170880e-01 0.000000000000000000e+00 0.000000000000000000e+00 -6.165535948591355231e-01
0.000000000000000000e+00 1.144371768010393475e-01 0.000000000000000000e+00 0.000000000000000000e+00 1.366206268056380790e-01 0.000000000000000000e+00 3.596882756644437240e-01 0.000000000000000000e+00 0.000000000000000000e+00 -9.332060857551445487e-02 0.000000000000000000e+00 -4.371266079811965133e-01 0.000000000000000000e+00 0.000000000000000000e+00 -5.249313996109704616e-01 0.000000000000000000e+00 2.153841461664078860e-01 0.000000000000000000e+00 0.000000000000000000e+00 -5.456315527022883582e-01
8.497537406254065950e-02 5.879930458895774592e-01 4.064583453551332548e-01 1.225065519557873711e-01 -3.203272713291498430e-01 1.776799556138002611e-01 7.118566044609392351e-02 -2.562353382557838732e-01 -1.078527837420528712e-01 -1.440896267710149448e-01 -7.252689039976287222e-02 -4.166014508591361354e-01 2.030572841643726034e-01 1.321432912816520311e-01 -3.837942574773287596e-01 2.985380974695972522e-01 -2.133704766714825674e-01 -9.678128965216850621e-02 3.083963186871342965e-01 -2.925055174980184525e-01
-5.870030549034368494e-01 0.000000000000000000e+00 -3.575621528946609784e-04 0.000000000000000000e+00 7.977937527755805114e-01 -1.530330167393975649e-01 0.000000000000000000e+00 -2.539538048260648884e-01 0.000000000000000000e+00 3.076502063713565938e-01 -1.098442507589443506e+00 0.000000000000000000e+00 4.510126540455776656e-01 0.000000000000000000e+00 1.436000314329808347e-01 -3.125171920339208653e-01 0.000000000000000000e+00 -6.295415543634913513e-02 0.000000000000000000e+00 -1.045222241948101094e-01
0.000000000000000000e+00 0.000000000000000000e+00 2.599744549674036509e-02 1.263260115216579826e-01 2.953098615105336222e-01 0.000000000000000000e+00 0.000000000000000000e+00 -1.310406540313756585e-01 1.524070343503510228e-01 3.183454960416423063e-01 0.000000000000000000e+00 0.000000000000000000e+00 5.910845588583685251e-01 4.799298495689603983e-01 -6.281712580062722706e-01 0.000000000000000000e+00 0.000000000000000000e+00 4.416028164694645319e-01 9.130729644235016096e-01 2.031174551746663948e-01
-1.278671136440694966e-01 2.964300344619374972e-01 1.923311268644240235e-01 0.000000000000000000e+00 0.000000000000000000e+00 -1.041241657428026157e-01 3.008160252842168036e-01 2.544706291903901796e-02 0.000000000000000000e+00 0.000000000000000000e+00 -6.884210532643844083e-01 -3.302931136130977108e-01 1.211216077749803499e-01 0.000000000000000000e+00 0.000000000000000000e+00 -6.471893697844952609e-01 2.383523572677220259e-01 1.179269282503868088e-01 0.000000000000000000e+00 0.000000000000000000e+00
0.000000000000000000e+00 2.709509797677912002e-01 -3.282540583767276643e-02 -2.081466888614051935e-01 -2.346514257024208128e-01 0.000000000000000000e+00 1.616879508711819846e-01 1.005832816897692800e-01 3.478383233485432546e-01 2.850160645450138808e-01 0.000000000000000000e+00 -2.474712453277990998e-01 2.052870648129144493e-01 7.355505185260798051e-02 -6.907792381778934399e-01 0.000000000000000000e+00 -9.108358785230620258e-01 -7.000957160324984274e-01 1.076291827573420123e-01 4.252414338822882445e-01
1.778274458708110073e-01 0.000000000000000000e+00 0.000000000000000000e+00 9.757471364783001921e-02 0.000000000000000000e+00 4.345099136821086727e-01 0.000000000000000000e+00 0.000000000000000000e+00 3.991183938277150234e-01 0.000000000000000000e+00 -1.457366588509966254e+00 0.000000000000000000e+00 0.000000000000000000e+00 -7.659752474091431340e-01 0.000000000000000000e+00 -3.837394014200252168e-01 0.000000000000000000e+00 0.000000000000000000e+00 8.376938740576644893e-02 0.000000000000000000e+00
3.067083606801460083e-01 0.000000000000000000e+00 0.000000000000000000e+00 1.981217488995724307e-01 0.000000000000000000e+00 3.622818080978446598e-01 0.000000000000000000e+00 0.000000000000000000e+00 2.970645412635252725e-01 0.000000000000000000e+00 -1.406596876867757917e+00 0.000000000000000000e+00 0.000000000000000000e+00 -6.953707439195436768e-01 0.000000000000000000e+00 -2.690628753421692165e-01 0.000000000000000000e+00 0.000000000000000000e+00 1.635249643946955489e-01 0.000000000000000000e+00
2.839934935215671086e-04 0.000000000000000000e+00 0.000000000000000000e+00 1.866331283643959671e-01 3.106544414365607354e-01 2.304663750531568689e-02 0.000000000000000000e+00 0.000000000000000000e+00 4.058080409105402908e-01 4.880678057079238519e-01 -8.166172296725964230e-01 0.000000000000000000e+00 0.000000000000000000e+00 -6.880204756168647462e-01 -6.341025859554518807e-01 -5.648726156957151190e-01 0.000000000000000000e+00 0.000000000000000000e+00 1.332087054620179623e-01 2.073846402369356190e-01
0.000000000000000000e+00 0.000000000000000000e+00 0.000000000000000000e+00 1.528591156767005466e-01 2.855687908086200766e-01 0.000000000000000000e+00 0.000000000000000000e+00 0.000000000000000000e+00 2.392773607679207215e-01 2.929725457627182506e-01 0.000000000000000000e+00 0.000000000000000000e+00 0.000000000000000000e+00 -4.543359001171372591e-01 -1.254625321236602531e+00 0.000000000000000000e+00 0.000000000000000000e+00 0.000000000000000000e+00 2.256389663892332809e-01 -2.504947014518805193e-01
0.000000000000000000e+00 0.000000000000000000e+00 0.000000000000000000e+00 8.180760268684041103e-02 2.031318505742695790e-01 0.000000000000000000e+00 0.000000000000000000e+00 0.000000000000000000e+00 3.051883206493811174e-01 3.527195479301311609e-01 0.000000000000000000e+00 0.000000000000000000e+00 0.000000000000000000e+00 -4.871642859727127184e-01 -1.252379518869993102e+00 0.000000000000000000e+00 0.000000000000000000e+00 0.000000000000000000e+00 3.055341757383390755e-01 -1.830913477110877874e-01
1.953459535693740368e-01 0.000000000000000000e+00 -5.494986450236437336e-02 0.000000000000000000e+00 0.000000000000000000e+00 1.918024346158066495e-01 0.000000000000000000e+00 -2.170005161497674528e-01 0.000000000000000000e+00 0.000000000000000000e+00 -9.245657501282560364e-01 0.000000000000000000e+00 4.080401520684658334e-01 0.000000000000000000e+00 0.000000000000000000e+00 -4.257266259308996603e-01 0.000000000000000000e+00 -9.865725598050634204e-02 0.000000000000000000e+00 0.000000000000000000e+00
3.697464686725459027e-01 0.000000000000000000e+00 -8.371790085338413900e-02 0.000000000000000000e+00 -1.835657562337971727e-01 4.896497229766485493e-01 0.000000000000000000e+00 -2.657840913240933078e-01 0.000000000000000000e+00 -3.208858409164201397e-01 -3.518448090904611192e-01 0.000000000000000000e+00 3.332271841752730279e-01 0.000000000000000000e+00 -5.604629234605422727e-01 -3.109145629315236414e-01 0.000000000000000000e+00 -9.746294426262343269e-02 0.000000000000000000e+00 -7.465968439661521683e-02
1.352641989793389454e-01 6.861750318290310569e-02 0.000000000000000000e+00 0.000000000000000000e+00 0.000000000000000000e+00 -1.155699658129712426e-01 3.291275034153502421e-01 0.000000000000000000e+00 0.000000000000000000e+00 0.000000000000000000e+00 -4.702725739729696208e-01 -5.773282038690147333e-01 0.000000000000000000e+00 0.000000000000000000e+00 0.000000000000000000e+00 -5.512538716040166209e-01 1.703925008868801549e-01 0.000000000000000000e+00 0.000000000000000000e+00 0.000000000000000000e+00
2.135494688294814480e-01 -2.629754664485449422e-02 -5.382472161793746407e-02 2.990603323001407576e-02 0.000000000000000000e+00 -3.125797693754259754e-01 4.600457088109104475e-01 1.001280710651071271e-01 -6.288746035470822726e-02 0.000000000000000000e+00 -3.546981825573004010e-01 -4.486818620772402566e-01 2.432560848005873577e-01 2.712286625793328687e-01 0.000000000000000000e+00 -4.234746880044030215e-01 7.078260102776876006e-02 4.955448824498948079e-02 1.364172917179673206e-01 0.000000000000000000e+00
3.516227383671479134e-01 -3.730804773106086158e-02 0.000000000000000000e+00 2.912460756390710115e-01 4.723393173116530175e-02 -3.371675396651178658e-01 6.682500039530625546e-01 0.000000000000000000e+00 -3.531602451581635771e-01 -2.743368622679498436e-01 -3.383779960903116057e-02 -6.671013077326554130e-01 0.000000000000000000e+00 1.620753030413480678e-01 -1.592041772017833423e-01 -2.011456453216488027e-01 -8.860427400927362029e-02 0.000000000000000000e+00 2.193958990149974531e-01 2.806959187464377892e-02
0.000000000000000000e+00 3.304406419771229175e-01 6.858066828077453991e-02 0.000000000000000000e+00 0.000000000000000000e+00 0.000000000000000000e+00 2.150827179121017618e-01 -9.890996187764775072e-02 0.000000000000000000e+00 0.000000000000000000e+00 0.000000000000000000e+00 -1.024718662789271262e+00 -3.201349427903120159e-01 0.000000000000000000e+00 0.000000000000000000e+00 0.000000000000000000e+00 -4.096803804782285230e-01 -4.287090472962512555e-01 0.000000000000000000e+00 0.000000000000000000e+00
-4.304737697539480212e-01 3.601828749039517330e-01 0.000000000000000000e+00 -3.668214715168151563e-01 0.000000000000000000e+00 1.802507001778468343e-01 1.125956098721036386e-01 0.000000000000000000e+00 2.483353687946557031e-01 0.000000000000000000e+00 1.917336201664507911e-01 -8.753976278203818850e-01 0.000000000000000000e+00 4.405080929562061876e-01 0.000000000000000000e+00 -1.057356326236901789e-01 -9.257302739993512886e-02 0.000000000000000000e+00 4.656991791906886502e-01 0.000000000000000000e+00
0.000000000000000000e+00 1.502923815336851820e-01 4.059552412914629177e-02 0.000000000000000000e+00 0.000000000000000000e+00 0.000000000000000000e+00 1.026050102850299961e-01 -1.053543974136058881e-01 0.000000000000000000e+00 0.000000000000000000e+00 0.000000000000000000e+00 -1.061776648824221070e+00 -3.673874034533141653e-01 0.000000000000000000e+00 0.000000000000000000e+00 0.000000000000000000e+00 -4.642354396390143689e-01 -4.295975763438905082e-01 0.000000000000000000e+00 0.000000000000000000e+00
1.149125917654741647e-01 1.397544238790906224e-01 0.000000000000000000e+00 0.000000000000000000e+00 0.000000000000000000e+00 -4.599776598450604215e-02 2.746339105333727160e-01 0.000000000000000000e+00 0.000000000000000000e+00 0.000000000000000000e+00 -4.394457815808667234e-01 -6.124190826048625524e-01 0.000000000000000000e+00 0.000000000000000000e+00 0.000000000000000000e+00 -5.216805537854237729e-01 9.205343787114410314e-02 0.000000000000000000e+00 0.000000000000000000e+00 0.000000000000000000e+00
2.128427084262073943e-01 -4.176928117076633695e-02 0.000000000000000000e+00 1.926675929761209327e-01 7.342307903930241075e-02 -4.009584511554233899e-01 3.418905327104985736e-01 0.000000000000000000e+00 -9.431972603713061065e-02 2.554102050707806049e-01 -5.633759457785147973e-01 -3.460066876632346689e-01 0.000000000000000000e+00 -3.357751820473288129e-01 -3.906826413916521523e-01 -2.896649924391995756e-01 7.032114992165405809e-01 0.000000000000000000e+00 -5.856169595903076841e-01 -1.203531714998119062e+00
0.000000000000000000e+00 -1.134471201675837371e-01 -1.061864235862307465e-01 0.000000000000000000e+00 3.406332345502810499e-01 0.000000000000000000e+00 1.333173624865145346e+00 6.981114498067525487e-01 0.000000000000000000e+00 -9.800572730718466463e-01 0.000000000000000000e+00 -4.832890857610753765e-01 4.331616660104430083e-02 0.000000000000000000e+00 -5.252946899585377860e-01 0.000000000000000000e+00 -2.142431963844739218e-01 -3.320063421045346685e-01 0.000000000000000000e+00 -2.197964473051210454e-01
0.000000000000000000e+00 0.000000000000000000e+00 -5.420794313038519718e-02 0.000000000000000000e+00 3.100805644459017074e-01 0.000000000000000000e+00 0.000000000000000000e+00 -1.867237464572736316e-01 0.000000000000000000e+00 1.808536997254716894e-01 0.000000000000000000e+00 0.000000000000000000e+00 3.223871689300291110e-01 0.000000000000000000e+00 -9.287884960429141357e-01 0.000000000000000000e+00 0.000000000000000000e+00 -1.614454136203344325e-01 0.000000000000000000e+00 -3.864064441324405741e-01
0.000000000000000000e+00 0.000000000000000000e+00 -1.184548715455850110e-01 -1.606739034925170340e-01 0.000000000000000000e+00 0.000000000000000000e+00 0.000000000000000000e+00 -3.525400683204415464e-01 -2.354984341734755737e-01 0.000000000000000000e+00 0.000000000000000000e+00 0.000000000000000000e+00 1.041495651279216617e+00 1.302036996825283399e+00 0.000000000000000000e+00 0.000000000000000000e+00 0.000000000000000000e+00 2.364139917019199288e-01 5.615779840967203285e-01 0.000000000000000000e+00
0.000000000000000000e+00 0.000000000000000000e+00 -4.163607424335200591e-01 -4.099632888941758257e-01 0.000000000000000000e+00 0.000000000000000000e+00 0.000000000000000000e+00 -4.723740483865247475e-01 -3.327012779059730363e-01 0.000000000000000000e+00 0.000000000000000000e+00 0.000000000000000000e+00 1.263684007171493651e+00 1.419608785359922187e+00 0.000000000000000000e+00 0.000000000000000000e+00 0.000000000000000000e+00 1.731151228155851374e-01 4.896983000497184269e-01 0.000000000000000000e+00
0.000000000000000000e+00 2.016050713017101814e-01 0.000000000000000000e+00 -8.573953557647258361e-02 0.000000000000000000e+00 0.000000000000000000e+00 2.258701002532813029e-01 0.000000000000000000e+00 -4.304761605139698077e-02 0.000000000000000000e+00 0.000000000000000000e+00 -8.218877314607969664e-01 0.000000000000000000e+00 3.751452871515095766e-01 0.000000000000000000e+00 0.000000000000000000e+00 -1.768332521212485908e-01 0.000000000000000000e+00 4.605115700621373320e-01 0.000000000000000000e+00
1.280391703817185811e-01 0.000000000000000000e+00 -6.115918610001329359e-02 0.000000000000000000e+00 -1.362924618236507901e-02 2.539307422636607470e-01 0.000000000000000000e+00 -2.236875869320475441e-01 0.000000000000000000e+00 -1.084696092857860700e-01 -9.066300743286287434e-02 0.000000000000000000e+00 3.649723502007048426e-01 0.000000000000000000e+00 -8.202455387909948215e-01 1.706843914029393394e-02 0.000000000000000000e+00 -2.137601204002935740e-01 0.000000000000000000e+00 -4.588413129706822580e-01
0.000000000000000000e+00 0.000000000000000000e+00 -3.665530327665376259e-02 -5.877486227599516833e-03 2.059678654634606587e-01 0.000000000000000000e+00 0.000000000000000000e+00 -1.737507921830223345e-01 9.035104180388091322e-02 2.043280061993841268e-01 0.000000000000000000e+00 0.000000000000000000e+00 6.305034826671527259e-01 5.482022213752173467e-01 -5.533787181786891107e-01 0.000000000000000000e+00 0.000000000000000000e+00 -2.571843663838401239e-01 -1.209838395329527749e-01 -4.912977331682258919e-01
0.000000000000000000e+00 0.000000000000000000e+00 -9.242907622618892760e-02 0.000000000000000000e+00 1.112817469114386476e-01 0.000000000000000000e+00 0.000000000000000000e+00 -2.902940554699623421e-01 0.000000000000000000e+00 1.870310561160660190e-01 0.000000000000000000e+00 0.000000000000000000e+00 3.558599316261746859e-01 0.000000000000000000e+00 -9.335115741887505258e-01 0.000000000000000000e+00 0.000000000000000000e+00 -1.807329497863743861e-01 0.000000000000000000e+00 -4.224802053704159732e-01
0.000000000000000000e+00 0.000000000000000000e+00 -1.096562247902816978e-01 0.000000000000000000e+00 2.128278019567687029e-01 0.000000000000000000e+00 0.000000000000000000e+00 -2.734851525761917146e-01 0.000000000000000000e+00 1.677141270536640083e-01 0.000000000000000000e+00 0.000000000000000000e+00 2.883832807760240979e-01 0.000000000000000000e+00 -9.230591818102319435e-01 0.000000000000000000e+00 0.000000000000000000e+00 -1.712956064339035689e-01 0.000000000000000000e+00 -4.041305534231407481e-01
0.000000000000000000e+00 0.000000000000000000e+00 -1.621146200177760732e-01 0.000000000000000000e+00 1.939763827928198958e-01 0.000000000000000000e+00 0.000000000000000000e+00 -2.132767153928639692e-01 0.000000000000000000e+00 1.522143806622462125e-01 0.000000000000000000e+00 0.000000000000000000e+00 3.054759783632811088e-01 0.000000000000000000e+00 -9.739751258479039109e-01 0.000000000000000000e+00 0.000000000000000000e+00 -1.463940712396821775e-01 0.000000000000000000e+00 -3.822933003290627796e-01
3.569836358209851207e-02 1.251102910437483506e-01 0.000000000000000000e+00 -5.483744120462234056e-02 0.000000000000000000e+00 -4.004076073524455714e-01 3.947736545718181222e-01 0.000000000000000000e+00 -2.017551526616631064e-01 0.000000000000000000e+00 -3.809257309434874728e-01 -6.000072770443487524e-01 0.000000000000000000e+00 6.705769882772119606e-02 0.000000000000000000e+00 -2.619405724501233101e-01 5.763688422860260840e-02 0.000000000000000000e+00 2.604643548033895861e-01 0.000000000000000000e+00
