0.000000000000000000e+00 0.000000000000000000e+00 0.000000000000000000e+00 0.000000000000000000e+00 0.000000000000000000e+00 0.000000000000000000e+00 0.000000000000000000e+00 0.000000000000000000e+00 0.000000000000000000e+00 0.000000000000000000e+00 0.000000000000000000e+00 0.000000000000000000e+00 0.000000000000000000e+00 0.000000000000000000e+00 0.000000000000000000e+00 0.000000000000000000e+00 0.000000000000000000e+00 0.000000000000000000e+00 0.000000000000000000e+00 0.000000000000000000e+00
2.240823983748075343e-01 2.214647855981130842e-01 1.657706003470098555e-01 1.327272422695802701e-01 2.315622228528730828e-02 -2.551513838577732507e-01 -3.944746132390047899e-02 9.964747182692854088e-02 3.693746505181512430e-03 -3.319878178745007680e-01 1.008558603714818647e-01 -2.861194015495526211e-01 -3.816104307275419716e-02 -3.925258995571108134e-01 6.478368723115565664e-02 -5.367196491108214285e-03 4.158226290660907432e-02 -1.591875911453800863e-01 -3.344079520617471157e-01 -3.083042830411267254e-02
0.000000000000000000e+00 2.976133492273558834e-01 -4.200427929836696855e-02 1.439535987546111950e-01 4.830654509346078707e-02 0.000000000000000000e+00 1.845991122910811688e-02 -1.172543816414238910e-01 -4.552599929563470593e-01 -3.905752682797085373e-02 0.000000000000000000e+00 -5.636458921886909890e-01 9.833597303692791225e-02 -5.411848050017925571e-02 -1.787762902249175612e-01 0.000000000000000000e+00 2.598307929167165686e-01 1.787911231663429079e-01 1.202807895640624070e-01 -4.335229695585878784e-01
1.342680000706423793e-01 -3.168057123413207943e-02 0.000000000000000000e+00 6.997697892479468051e-02 -3.556230527958056942e-02 2.304826705695420253e-02 4.853743100231782126e-01 0.000000000000000000e+00 4.424722920190746200e-02 8.112529959474687469e-03 2.422670027550954952e-01 -4.118585000762918780e-01 0.000000000000000000e+00 -7.081071225950370807e-02 -3.783961950865868396e-01 -2.837748773128795365e-01 -4.245484105398844576e-02 0.000000000000000000e+00 8.637734012700765129e-02 -7.233931220137713725e-01
2.508711805020361063e-02 0.000000000000000000e+00 0.000000000000000000e+00 1.614321624810406419e-01 -1.408473187462739862e-01 -2.845509970526337584e-01 0.000000000000000000e+00 0.000000000000000000e+00 -3.580283432656933829e-01 1.098085808962411536e-01 6.012017433874476957e-01 0.000000000000000000e+00 0.000000000000000000e+00 2.870645000904360478e-01 -1.474196008480545550e-01 -9.813756018435057515e-02 0.000000000000000000e+00 0.000000000000000000e+00 -8.196765883907730643e-02 -6.309240706503729257e-01
-1.293816693284995378e-01 0.000000000000000000e+00 7.334632339151161973e-02 0.000000000000000000e+00 1.247082637191310184e-02 -2.206341679232499409e-01 0.000000000000000000e+00 6.986873032651941262e-03 0.000000000000000000e+00 -3.415368618193996841e-01 5.097901975261290852e-01 0.000000000000000000e+00 -2.868806429687497661e-01 0.000000000000000000e+00 -1.297321630638620937e-01 -3.559381484206248780e-01 0.000000000000000000e+00 1.687698713534271644e-01 0.000000000000000000e+00 -7.245035990194330644e-01
6.916794873595519255e-02 0.000000000000000000e+00 0.000000000000000000e+00 0.000000000000000000e+00 7.218985415354342572e-02 -2.270274500817842656e-01 0.000000000000000000e+00 0.000000000000000000e+00 0.000000000000000000e+00 -3.596094119970058012e-01 4.388751155606238630e-01 0.000000000000000000e+00 0.000000000000000000e+00 0.000000000000000000e+00 -3.594821908731458959e-02 -2.442450895667808708e-01 0.000000000000000000e+00 0.000000000000000000e+00 0.000000000000000000e+00 -8.482454842407980422e-01
1.385912001580950625e-01 2.960764321072530958e-01 0.000000000000000000e+00 0.000000000000000000e+00 1.521270957324352691e-01 1.182689439617959359e-02 3.740136481200063145e-01 0.000000000000000000e+00 0.000000000000000000e+00 1.568737715475729821e-01 -1.690801024030854915e-01 -7.059854616364866775e-01 0.000000000000000000e+00 0.000000000000000000e+00 -5.142440861293410270e-01 7.829337282880784177e-02 2.497880263193757444e-01 0.000000000000000000e+00 0.000000000000000000e+00 -4.536853115090319077e-01
0.000000000000000000e+00 1.602120646020122607e-01 -9.468480566037500157e-02 0.000000000000000000e+00 1.727854193429772534e-01 0.000000000000000000e+00 5.142080085090546815e-01 -1.209880150207087585e-01 0.000000000000000000e+00 -1.564814564655714058e-01 0.000000000000000000e+00 -4.726497790900651141e-01 3.436184934652666834e-02 0.000000000000000000e+00 -4.179458866904585679e-01 0.000000000000000000e+00 3.272868722531274699e-01 -8.633383369047974154e-03 0.000000000000000000e+00 -6.164661267393590771e-01
-1.585083513768464070e-01 1.224290579431248083e-01 1.033151650333951899e-01 0.000000000000000000e+00 0.000000000000000000e+00 4.902837649586505586e-02 3.166665367563589184e-01 1.290196612413949395e-01 0.000000000000000000e+00 0.000000000000000000e+00 7.075222645209138239e-01 1.142596651694761795e-01 -3.289081909445206175e-01 0.000000000000000000e+00 0.000000000000000000e+00 7.999263009038953820e-01 7.326795480437509056e-01 -2.984182225190016302e-01 0.000000000000000000e+00 0.000000000000000000e+00
-4.086688268528372858e-01 -2.044418537801710178e-01 -9.057230451175315999e-02 -4.283962785371326354e-01 0.000000000000000000e+00 1.276140744319600173e-01 4.721354704354714382e-01 -2.364798626420201999e-01 -6.140416692924788311e-02 0.000000000000000000e+00 -8.850019236650469301e-02 -5.654621113479996186e-01 -2.934272953082288637e-01 -7.872875234460697813e-01 0.000000000000000000e+00 1.901699342041728857e-01 3.264483935315587448e-01 -4.022603182575417713e-01 -7.150030119500397907e-01 0.000000000000000000e+00
0.000000000000000000e+00 7.966171956221224093e-02 5.354254182090487091e-02 9.533063916970499485e-02 1.589747895026757257e-02 0.000000000000000000e+00 3.150143417868843665e-01 -5.460226179724948503e-01 -1.198561718777158225e+00 7.301186775155129594e-01 0.000000000000000000e+00 -4.880472861792611861e-01 -5.705176635206199443e-04 3.741888963530173862e-02 -5.145397026274574070e-01 0.000000000000000000e+00 1.189054882933443802e-01 -3.540451327117563607e-02 9.447611352845314281e-02 -6.751453656049382079e-01
-9.349103107644683719e-02 0.000000000000000000e+00 0.000000000000000000e+00 -4.754632597825059204e-02 6.897631920761983226e-02 -3.969664231380964359e-01 0.000000000000000000e+00 0.000000000000000000e+00 -3.887700349058569871e-01 -1.357376036185251045e-01 7.897591324408603786e-01 0.000000000000000000e+00 0.000000000000000000e+00 6.668310970147982575e-01 -4.873574960010005341e-01 -2.255589170144928490e-01 0.000000000000000000e+00 0.000000000000000000e+00 -2.722336339190911669e-01 -4.875647990425707734e-01
2.806206695031057685e-01 3.193288081971707992e-01 7.794145252477052699e-02 5.115230372312330465e-01 0.000000000000000000e+00 1.318690103165395811e-01 3.518709851104698250e-01 -1.424950133745730291e-02 -4.249055957472656908e-02 0.000000000000000000e+00 3.283769580767101903e-01 -2.320537622426906976e-01 -3.674230495840199451e-01 -4.444071383277655718e-01 0.000000000000000000e+00 2.728608680418984078e-02 2.530057847658485626e-01 -2.340581366083662740e-01 -7.196191214605973663e-01 0.000000000000000000e+00
0.000000000000000000e+00 1.446983398339924676e-01 -3.968782706402981114e-02 -6.931873322023762718e-02 1.701267477932726369e-01 0.000000000000000000e+00 3.775672111497203609e-01 -9.767204581193747459e-02 -2.939486220947770678e-01 1.882722585348483024e-01 0.000000000000000000e+00 -4.678794767463554938e-01 -5.075161665237504227e-02 9.932446628267144195e-04 -4.876279078327041550e-01 0.000000000000000000e+00 2.789507496900093253e-01 -6.820728324372665741e-02 -5.612795860951089177e-02 -5.481891674487319177e-01
-4.531064212644382583e-03 8.334582870520421127e-02 0.000000000000000000e+00 0.000000000000000000e+00 7.397408894199038187e-02 4.198082885162388728e-02 3.406151228087809790e-01 0.000000000000000000e+00 0.000000000000000000e+00 -4.430000457443586392e-02 6.770954485076819893e-03 -4.522634443061957499e-01 0.000000000000000000e+00 0.000000000000000000e+00 -4.948373796578230954e-01 4.219235083873501546e-02 1.987669991640957090e-01 0.000000000000000000e+00 0.000000000000000000e+00 -5.719294418997414864e-01
0.000000000000000000e+00 6.243226561051935797e-02 7.116265922064471394e-02 1.152712688973030475e-01 0.000000000000000000e+00 0.000000000000000000e+00 2.966015222511557137e-01 -3.155590701746464888e-02 -1.124375184385369708e-01 0.000000000000000000e+00 0.000000000000000000e+00 -4.642579371099410657e-01 -3.248147117160854469e-01 -6.922434804764627803e-01 0.000000000000000000e+00 0.000000000000000000e+00 2.156641845681815661e-01 -3.406716430891451597e-01 -8.323003109801210275e-01 0.000000000000000000e+00
-1.630800735365997567e-01 0.000000000000000000e+00 -6.882863577992875959e-02 -3.098148373336759298e-01 2.145304193974924833e-01 -3.817136444813445384e-01 0.000000000000000000e+00 1.233897779952333879e-01 -1.580809782378298778e-01 -2.318696745316967123e-01 5.962333409871034551e-01 0.000000000000000000e+00 -7.192620236597376815e-01 -1.092325545435348877e+00 6.830200752560482425e-01 -2.904102706952469970e-01 0.000000000000000000e+00 -3.252272018635328776e-01 -1.031091782118300548e+00 -7.747181724399765379e-02
6.819103812968518863e-01 5.991335803404447269e-01 0.000000000000000000e+00 6.494265503699828690e-01 1.113056937400329072e-01 -6.182543823937596272e-01 -1.639500801068564662e-01 0.000000000000000000e+00 -5.710633536490515860e-01 -1.373553131702512087e-01 1.304094505755724331e-01 -4.096603594612537314e-01 0.000000000000000000e+00 1.725799217250846285e-01 -5.347833563186046302e-01 -6.745983681967163692e-01 -3.069659420879956024e-01 0.000000000000000000e+00 -6.456345768961961884e-01 -6.071958941141024635e-01
2.273815654385460960e-01 2.798427423385974611e-01 0.000000000000000000e+00 2.401974810613167755e-01 8.592037143126446397e-02 3.811178088482525261e-01 5.849721456055615443e-01 0.000000000000000000e+00 3.414278766192747616e-01 -5.564771101226878569e-02 -6.475152925327105624e-01 -9.876222559639022958e-01 0.000000000000000000e+00 -5.915784361843275940e-01 -5.465550059672038552e-01 4.081973311075596245e-01 5.278612344877566809e-01 0.000000000000000000e+00 3.120951687983447020e-01 -4.824461667629142969e-01
-1.975086242614666476e-01 0.000000000000000000e+00 -4.608660772232239244e-01 -1.217765669766726733e+00 7.934218821879897021e-01 -3.764800682554032552e-01 0.000000000000000000e+00 2.816874645837494917e-01 2.948229999034395199e-01 -5.704943558108752644e-01 7.225935839059455246e-01 0.000000000000000000e+00 7.484226611135447182e-02 8.288321803847243929e-01 -5.835433284854845137e-01 -2.932379293004697685e-01 0.000000000000000000e+00 -1.059417827722182598e-01 -5.428691949233377390e-01 -4.131274454701801546e-01
-1.272568267831057920e-01 0.000000000000000000e+00 0.000000000000000000e+00 -1.530761989242470922e-01 1.280301796636219847e-01 -3.923878211156489604e-01 0.000000000000000000e+00 0.000000000000000000e+00 -3.198241987109012863e-01 -1.674188190671026255e-01 6.803058950060183463e-01 0.000000000000000000e+00 0.000000000000000000e+00 6.586706989398906087e-01 -4.916927207348821272e-01 -2.715551090667224221e-01 0.000000000000000000e+00 0.000000000000000000e+00 -2.338558018931133908e-01 -6.283261385765476215e-01
-1.339663444861863284e-01 0.000000000000000000e+00 0.000000000000000000e+00 -1.453320476697176344e-01 1.175451688889814494e-01 -4.120161000998781575e-01 0.000000000000000000e+00 0.000000000000000000e+00 -3.584807420253544041e-01 -1.368809441749885836e-01 6.492736151861699945e-01 0.000000000000000000e+00 0.000000000000000000e+00 5.590193002566350433e-01 -3.997478470102849846e-01 -2.533013809353619750e-01 0.000000000000000000e+00 0.000000000000000000e+00 -2.554808531630503587e-01 -6.141492629457544483e-01
-4.452337759142945342e-03 9.921052604594407520e-02 0.000000000000000000e+00 0.000000000000000000e+00 9.359044334545889299e-02 -1.440533762646222654e-02 2.935916500994444345e-01 0.000000000000000000e+00 0.000000000000000000e+00 -1.215455291224000756e-01 -1.699348198286514816e-02 -5.016828905529038263e-01 0.000000000000000000e+00 0.000000000000000000e+00 -5.122452396301641064e-01 1.640972128423424242e-02 2.221230965911413224e-01 0.000000000000000000e+00 0.000000000000000000e+00 -5.559929087095993872e-01
0.000000000000000000e+00 1.282701304074978510e-01 0.000000000000000000e+00 3.090629775036017601e-02 8.764906309345649182e-02 0.000000000000000000e+00 2.930689049306160476e-01 0.000000000000000000e+00 -6.820158843978330054e-02 -2.625014512006653561e-02 0.000000000000000000e+00 -4.921521552272264399e-01 0.000000000000000000e+00 -1.012318439896655459e-02 -4.672629269856451439e-01 0.000000000000000000e+00 1.839842984638171419e-01 0.000000000000000000e+00 -4.427403587198635096e-03 -6.059429877012179055e-01
0.000000000000000000e+00 1.078331158049327526e-01 9.927625678520608440e-03 0.000000000000000000e+00 9.803077805340713879e-02 0.000000000000000000e+00 2.784454639537609633e-01 2.103454026044561387e-02 0.000000000000000000e+00 -9.309103031281253104e-02 0.000000000000000000e+00 -5.048753569106797512e-01 1.183461042347797726e-02 0.000000000000000000e+00 -4.894005762869319542e-01 0.000000000000000000e+00 1.946799704203694692e-01 -2.786750249255005862e-02 0.000000000000000000e+00 -6.112721170292597650e-01
0.000000000000000000e+00 1.178469406576631573e-01 0.000000000000000000e+00 0.000000000000000000e+00 9.083570810201584134e-02 0.000000000000000000e+00 2.998661066240168593e-01 0.000000000000000000e+00 0.000000000000000000e+00 -1.034406096341143472e-01 0.000000000000000000e+00 -5.153781886626322972e-01 0.000000000000000000e+00 0.000000000000000000e+00 -5.100955030163522030e-01 0.000000000000000000e+00 1.879334448187787998e-01 0.000000000000000000e+00 0.000000000000000000e+00 -5.807701828899697327e-01
-1.207819550709023776e-01 1.494802900013557367e-02 4.420303345900168657e-02 0.000000000000000000e+00 0.000000000000000000e+00 1.456917951394633426e-01 4.058712261206354199e-01 -5.407295177304533712e-02 0.000000000000000000e+00 0.000000000000000000e+00 7.053935873189912664e-01 5.110234639067234158e-02 -2.819067575079981514e-01 0.000000000000000000e+00 0.000000000000000000e+00 8.561244923197407486e-01 8.528262020151757827e-01 -3.479699108726903023e-01 0.000000000000000000e+00 0.000000000000000000e+00
-1.330377891218831876e-01 -3.326169582057186217e-03 6.757584689440063186e-02 0.000000000000000000e+00 0.000000000000000000e+00 1.507114282779823955e-01 4.262859332593845196e-01 -7.347487989066701919e-02 0.000000000000000000e+00 0.000000000000000000e+00 6.922103970915363114e-01 3.765333676078043423e-02 -2.796731682116171958e-01 0.000000000000000000e+00 0.000000000000000000e+00 8.189103103558357244e-01 8.455547482896504929e-01 -3.220879070178521708e-01 0.000000000000000000e+00 0.000000000000000000e+00
-2.910703865565746340e-01 -1.116203774859397396e-01 1.206782128121092756e-01 0.000000000000000000e+00 -1.083770641379389055e-01 4.081493187252883681e-01 6.072816999594816689e-01 -1.610889822471620048e-01 0.000000000000000000e+00 1.835647740100498915e-01 1.872634753745406888e-01 -3.668237358251636437e-01 -8.632900587462853659e-02 0.000000000000000000e+00 -3.677635318735922310e-01 5.354902652600698754e-02 2.605976291199050832e-01 -8.339544571182785915e-03 0.000000000000000000e+00 -5.301020461905859849e-01
0.000000000000000000e+00 1.005205606903994964e-01 0.000000000000000000e+00 -9.474497515792296154e-03 1.095216052066732282e-01 0.000000000000000000e+00 2.959791144119255368e-01 0.000000000000000000e+00 9.306618508409941759e-03 -1.155068990108367999e-01 0.000000000000000000e+00 -4.881856289105342417e-01 0.000000000000000000e+00 1.422486881203749096e-02 -5.013180326766589756e-01 0.000000000000000000e+00 2.034360707736632135e-01 0.000000000000000000e+00 5.385453912474826715e-03 -5.919026180270610116e-01
-1.313583247897236739e-01 1.341796136572731730e-02 5.198797747896787003e-02 0.000000000000000000e+00 0.000000000000000000e+00 1.229204984954011537e-01 3.862499288915138274e-01 -3.674960736262406630e-02 0.000000000000000000e+00 0.000000000000000000e+00 7.028763021841744063e-01 4.803100709061773610e-02 -2.971604349149503665e-01 0.000000000000000000e+00 0.000000000000000000e+00 8.429226095107795746e-01 8.612773301344254229e-01 -3.423787004905534115e-01 0.000000000000000000e+00 0.000000000000000000e+00
-1.334974791921708093e-01 -1.373494029835167080e-02 4.740432489604420874e-02 0.000000000000000000e+00 0.000000000000000000e+00 1.460184176988958693e-01 4.204270935670609277e-01 -4.865115165479933640e-02 0.000000000000000000e+00 0.000000000000000000e+00 7.201364104745797690e-01 5.903055768901051270e-02 -2.842321141833527576e-01 0.000000000000000000e+00 0.000000000000000000e+00 8.377262097029233301e-01 8.526254534410399044e-01 -3.413703241971003388e-01 0.000000000000000000e+00 0.000000000000000000e+00
3.408985816989902329e-01 3.838932196208704739e-01 -1.260337539165949927e-01 0.000000000000000000e+00 3.446513365554479402e-01 -1.664625825276600524e-01 1.708003142240940575e-01 6.634261925952394945e-02 0.000000000000000000e+00 -2.118520946818515105e-01 1.270419354241656695e-01 -4.021559003976899471e-01 -5.898414002728828709e-02 0.000000000000000000e+00 -4.152319468195223573e-01 -2.956044425126908015e-02 1.831322945612461894e-01 1.480489932465758884e-02 0.000000000000000000e+00 -6.090457253920973368e-01
-1.266263839417039461e-01 0.000000000000000000e+00 1.936441264409634599e-01 3.196558398040575399e-01 -2.172613032049184323e-01 -3.460331469880485455e-01 0.000000000000000000e+00 2.345823830837805435e-01 2.158908971645102648e-01 -5.091252103325145661e-01 6.838008668515427324e-01 0.000000000000000000e+00 -2.522622928544849263e-01 9.543351559863659517e-02 -9.139229011418210924e-02 -2.616979619364505072e-01 0.000000000000000000e+00 -7.248983013180898549e-02 -4.222211356436640362e-01 -4.653054881461683445e-01
1.810888010232661882e-01 2.420496018221170997e-01 0.000000000000000000e+00 1.649847682174337971e-01 1.099211601333874716e-01 3.041310602817595132e-01 5.229351308553960020e-01 0.000000000000000000e+00 2.705042724106328511e-01 -7.288971607832400723e-02 1.653320622770234061e-01 -3.739184458297625246e-01 0.000000000000000000e+00 1.587082218510268705e-01 -4.704582754156466096e-01 7.902155553208284333e-02 2.579896216039209156e-01 0.000000000000000000e+00 8.046012264056176533e-02 -6.000532736277236490e-01
0.000000000000000000e+00 1.123986673430294320e-01 0.000000000000000000e+00 0.000000000000000000e+00 1.075315823331507159e-01 0.000000000000000000e+00 2.861593558893950062e-01 0.000000000000000000e+00 0.000000000000000000e+00 -1.028666282584085601e-01 0.000000000000000000e+00 -5.121404406501163242e-01 0.000000000000000000e+00 0.000000000000000000e+00 -4.993279292536582648e-01 0.000000000000000000e+00 1.763807529242937822e-01 0.000000000000000000e+00 0.000000000000000000e+00 -6.034579970884518252e-01
0.000000000000000000e+00 1.101803497953070254e-01 5.829580139440650871e-02 1.341871053389324109e-01 0.000000000000000000e+00 0.000000000000000000e+00 2.901851357683014054e-01 -5.557044662548841357e-02 -1.434556425451908312e-01 0.000000000000000000e+00 0.000000000000000000e+00 -4.737331735432113167e-01 -3.244981615242221173e-01 -7.395954431354365699e-01 0.000000000000000000e+00 0.000000000000000000e+00 2.189209519823598349e-01 -3.656030470209956085e-01 -8.545673189564771954e-01 0.000000000000000000e+00
0.000000000000000000e+00 9.998552895961403120e-02 8.658131941120000841e-02 1.433462243710966755e-01 0.000000000000000000e+00 0.000000000000000000e+00 2.751002786392892641e-01 -8.738073185301854784e-02 -1.523686964009908773e-01 0.000000000000000000e+00 0.000000000000000000e+00 -4.710628819921885424e-01 -3.068463863097334876e-01 -7.032024353126051786e-01 0.000000000000000000e+00 0.000000000000000000e+00 2.281732000669790816e-01 -3.667256579847008591e-01 -8.447889571725989422e-01 0.000000000000000000e+00
0.000000000000000000e+00 1.080352542787885589e-01 8.480440691428078881e-02 1.525157619254005059e-01 0.000000000000000000e+00 0.000000000000000000e+00 3.227164607818538977e-01 -3.504250697532881181e-02 -1.130340108796741294e-01 0.000000000000000000e+00 0.000000000000000000e+00 -4.642892947738000986e-01 -2.853213954766665728e-01 -6.955125821850456358e-01 0.000000000000000000e+00 0.000000000000000000e+00 2.164431488802636971e-01 -3.816525403112823733e-01 -8.489390297604559876e-01 0.000000000000000000e+00
0.000000000000000000e+00 1.416769985084890826e-01 -1.637846450062757364e-01 -3.673214628673686644e-01 3.692731921826020725e-01 0.000000000000000000e+00 3.084496721915186424e-01 -2.685377040157273520e-01 -6.274862899330300170e-01 3.342069284283006869e-01 0.000000000000000000e+00 -4.608615140556918677e-01 -5.186464926050710078e-01 -1.165542216204382253e+00 3.193453782558570153e-01 0.000000000000000000e+00 1.652711229687424122e-01 3.210779773123223491e-01 7.191955525516813275e-01 -1.075467442103943627e+00
-1.419052898850697020e-01 0.000000000000000000e+00 0.000000000000000000e+00 -1.546220769877271750e-01 1.098648679364293002e-01 -4.138445365724809921e-01 0.000000000000000000e+00 0.000000000000000000e+00 -4.220895170824982001e-01 -8.906619724083425504e-02 6.688605714814462866e-01 0.000000000000000000e+00 0.000000000000000000e+00 6.637593796145467850e-01 -4.938924715587888481e-01 -2.589547034717391005e-01 0.000000000000000000e+00 0.000000000000000000e+00 -2.319253006661424754e-01 -6.173045357346568229e-01
-8.191133302486686141e-02 5.059163708584525632e-02 7.256001590761732012e-02 6.568446858477158812e-02 0.000000000000000000e+00 -1.738138003152568389e-01 1.924896698295715525e-01 -5.397672105444012436e-02 -2.998747420828713484e-01 0.000000000000000000e+00 3.250178746116393347e-01 -2.386545495523895721e-01 -3.098603200159440463e-01 -3.882630900894614712e-01 0.000000000000000000e+00 1.523273149289139372e-01 3.314517185664634380e-01 -3.677338617471070936e-01 -7.061077747174691055e-01 0.000000000000000000e+00
-1.238235831780375579e-01 0.000000000000000000e+00 8.898924501109325980e-02 2.270151573318622551e-02 0.000000000000000000e+00 -4.187697183553475422e-01 0.000000000000000000e+00 -6.392289810021545282e-02 -5.560937557993572700e-01 0.000000000000000000e+00 6.301798465232377744e-01 0.000000000000000000e+00 -2.984580002279288991e-01 -7.541048876025104042e-02 0.000000000000000000e+00 -3.065601939473028281e-01 0.000000000000000000e+00 -3.984531636569421664e-01 -1.170313661223186807e+00 0.000000000000000000e+00
-1.210740834296711865e-01 0.000000000000000000e+00 1.543077159604406834e-01 2.761779818580286094e-01 -1.874441685093065635e-01 -3.787539451419127401e-01 0.000000000000000000e+00 1.883823257713945765e-01 2.628507467077212389e-02 -3.618155272651334409e-01 6.592814984209629525e-01 0.000000000000000000e+00 -3.894705834409835088e-01 -2.319414323364600850e-01 1.213538211211781653e-01 -2.344241223665583240e-01 0.000000000000000000e+00 1.123596711522919511e-01 -6.653248278840562246e-02 -6.868027743076776659e-01
-1.396208203843692652e-01 2.111957234142321227e-03 5.957431641510149700e-02 9.221885140748217746e-03 0.000000000000000000e+00 2.718951060988687995e-01 4.834884487060093772e-01 -3.916893394337365997e-02 1.248889309306647766e-01 0.000000000000000000e+00 5.026629441972908507e-01 -1.174500223064093574e-01 -3.070625103940253231e-01 -2.123775246506529879e-01 0.000000000000000000e+00 1.149081739026407978e-01 3.220900728143475389e-01 -3.730037361434586085e-01 -7.573476046415248408e-01 0.000000000000000000e+00
-1.233302506596128806e-01 0.000000000000000000e+00 1.261135283298715215e-01 1.786667091228904269e-01 -1.206572041227539638e-01 -4.207771741088149886e-01 0.000000000000000000e+00 -7.899115526083549943e-02 -5.575569539226521432e-01 -3.324225318173140709e-03 6.710835342092870137e-01 0.000000000000000000e+00 -1.597891033696960394e-01 2.118274522472746169e-01 -1.634103514780158861e-01 -2.679473155194077028e-01 0.000000000000000000e+00 9.783796120743731839e-02 -1.281438854939209726e-02 -7.782537964677795905e-01
1.833736273602178113e-01 2.815183421815384279e-01 -3.582300722234924573e-01 -6.551766317720633115e-01 6.731594111171049777e-01 -2.503491951480237843e-01 1.181254998303293280e-01 5.781312359202653295e-02 -1.271207064175059187e-01 -1.830995264143818746e-01 4.986899829699260600e-01 -1.377152058698309922e-01 5.692786416868422794e-02 6.010832408853222786e-01 -5.634201016053785871e-01 -3.930614753796385363e-01 -1.016849082833447271e-01 7.002440602352677512e-02 -1.781393454075747562e-01 -7.453631137793499395e-01
-7.720849770257327549e-01 -4.558660437825693412e-01 0.000000000000000000e+00 -7.143023547151774455e-01 6.728875984940452248e-02 3.945906430319368052e-01 5.828176477597579730e-01 0.000000000000000000e+00 3.946581667699941010e-01 -1.067229742017251348e-01 1.253024035726377772e-01 -4.191520259242735857e-01 0.000000000000000000e+00 1.464695299176462517e-01 -5.268242801129353614e-01 -2.539468517711851447e-01 -3.069543926041029547e-03 0.000000000000000000e+00 -2.361846475786958388e-01 -6.296909032742633583e-01
-1.104388511836945364e-01 0.000000000000000000e+00 0.000000000000000000e+00 -6.597511872439654201e-02 4.528473724228998520e-02 -3.988915495798878719e-01 0.000000000000000000e+00 0.000000000000000000e+00 -2.971982150516983001e-01 -1.838596248144519774e-01 6.698693971887157428e-01 0.000000000000000000e+00 0.000000000000000000e+00 6.359895428291413300e-01 -4.640048743429497358e-01 -2.733305923841423124e-01 0.000000000000000000e+00 0.000000000000000000e+00 -2.518500470643683098e-01 -6.046713567848671644e-01
1.602455330810159950e-01 2.211567646399983933e-01 -5.493077690132810997e-02 0.000000000000000000e+00 2.141833921323128276e-01 -2.259847614779956770e-01 1.202765032065890860e-01 9.109379642713545666e-02 0.000000000000000000e+00 -2.373803174434268859e-01 2.399877981836487095e-01 -3.327317509150818919e-01 -1.063452252573403312e-01 0.000000000000000000e+00 -3.070236985860583800e-01 5.126962922562541269e-01 6.009576337479204389e-01 -1.868199280055711231e-01 0.000000000000000000e+00 -2.207661727038974786e-01
-2.893608208045426733e-01 -1.105778750836497737e-01 0.000000000000000000e+00 -2.950019131512626736e-01 1.149979566628834687e-01 -1.037115834487014610e-01 2.537377179931347704e-01 0.000000000000000000e+00 -1.159652282792640182e-01 -6.283090255937273660e-02 2.683443602782630277e-01 -3.013486166856417237e-01 0.000000000000000000e+00 2.184539936148812145e-01 -4.736382571082658477e-01 7.587943999406784878e-02 2.642289451824429980e-01 0.000000000000000000e+00 6.661079962433244517e-03 -5.102931739653493448e-01
-1.187532253350810085e-01 0.000000000000000000e+00 5.263051888847879167e-02 0.000000000000000000e+00 1.645000078002133159e-02 -3.657571674774108272e-01 0.000000000000000000e+00 1.073388679812622981e-01 0.000000000000000000e+00 -4.075494046573356344e-01 6.639681742493069860e-01 0.000000000000000000e+00 -2.804403677501279835e-01 0.000000000000000000e+00 -5.711456951900228257e-02 -2.718530320787585497e-01 0.000000000000000000e+00 1.155370141688256275e-01 0.000000000000000000e+00 -7.840119554253710543e-01
-1.687079996080926292e-01 0.000000000000000000e+00 1.593115178467357368e-02 -4.791958356795580215e-02 0.000000000000000000e+00 -4.084988695107232837e-01 0.000000000000000000e+00 -8.292786452767969552e-02 -5.594555720879399452e-01 0.000000000000000000e+00 6.481966559121518090e-01 0.000000000000000000e+00 -2.965686920198490339e-01 -6.294039928720113197e-02 0.000000000000000000e+00 -3.208148954625780758e-01 0.000000000000000000e+00 -3.624850534450823059e-01 -1.157026071337629913e+00 0.000000000000000000e+00
-1.391483350023652865e-01 0.000000000000000000e+00 3.592917628088757726e-02 -4.424205793699801520e-02 5.525314908592759977e-03 -3.531973493920849694e-01 0.000000000000000000e+00 2.821138425223474466e-01 3.158417277877914597e-01 -5.504610077785130340e-01 6.958749640203658604e-01 0.000000000000000000e+00 -9.945307951427700965e-02 3.862099225817053338e-01 -2.802067916214944221e-01 -2.899694618242064648e-01 0.000000000000000000e+00 -1.136672716822351853e-01 -5.238580861774646547e-01 -4.209216702548054245e-01
1.109269189433314817e-01 1.892831835360657133e-01 0.000000000000000000e+00 7.397230796015125120e-02 1.161472748598648130e-01 4.577754245625507146e-01 6.498136726872463242e-01 0.000000000000000000e+00 3.243967927890834546e-01 1.336279787138656971e-02 -5.938519037106040899e-02 -5.329865717228352562e-01 0.000000000000000000e+00 -8.507731995695161364e-02 -4.638712217121085946e-01 1.020159667314674001e-01 2.507147961488326304e-01 0.000000000000000000e+00 1.226596933808623835e-01 -6.134336531985815633e-01
0.000000000000000000e+00 1.249754409365644581e-01 0.000000000000000000e+00 0.000000000000000000e+00 9.817375546496018290e-02 0.000000000000000000e+00 2.851341014679731889e-01 0.000000000000000000e+00 0.000000000000000000e+00 -1.037851697724273964e-01 0.000000000000000000e+00 -5.184561597846338854e-01 0.000000000000000000e+00 0.000000000000000000e+00 -4.931576666002065457e-01 0.000000000000000000e+00 1.640642646917542802e-01 0.000000000000000000e+00 0.000000000000000000e+00 -5.937450216084098065e-01
2.858742590726854327e-01 3.411621644065628289e-01 -6.520375808167437615e-02 1.220990545114757492e-01 1.964951255107026673e-01 -1.191488015456425020e-01 2.135891601520308880e-01 1.352447970289767376e-01 1.376483289139419641e-01 -2.761357690735255499e-01 1.038110502449018369e-01 -4.306663482752125516e-01 -2.362667302194483288e-01 -3.798070682049274338e-01 -1.649290474750677027e-01 4.278081447641378654e-01 5.457303524168318765e-01 -3.465575486288110518e-01 -3.605465648533133782e-01 -3.133188650128132524e-02
0.000000000000000000e+00 9.193985985936196925e-02 0.000000000000000000e+00 0.000000000000000000e+00 7.517885936767754185e-02 0.000000000000000000e+00 3.251097990928323300e-01 0.000000000000000000e+00 0.000000000000000000e+00 -9.409096009718169451e-02 0.000000000000000000e+00 -4.969387123338424583e-01 0.000000000000000000e+00 0.000000000000000000e+00 -5.367541150973187403e-01 0.000000000000000000e+00 1.712789844985367627e-01 0.000000000000000000e+00 0.000000000000000000e+00 -6.088429155097666579e-01
-2.664571546946851721e-01 -7.407533041739217117e-02 6.223763326110698380e-02 -1.302676209640011018e-01 1.088023756004576764e-02 -4.593803321629157388e-01 -6.569216564636057298e-02 1.635791213283826484e-01 -1.072476083744134112e-01 -3.504958223048669774e-01 6.802972980342976150e-01 -4.587820375739404266e-03 -2.450298027397796452e-01 1.324260441253050646e-01 -1.581234235098759877e-01 1.845861893235298257e-01 3.601979721705370618e-01 -1.807519741663826673e-01 -2.574555699397915731e-01 -2.567902679825279089e-01
0.000000000000000000e+00 1.016537175860341841e-01 0.000000000000000000e+00 0.000000000000000000e+00 9.142117560101425955e-02 0.000000000000000000e+00 3.167040557114013666e-01 0.000000000000000000e+00 0.000000000000000000e+00 -9.787274235182817639e-02 0.000000000000000000e+00 -4.688747545072999845e-01 0.000000000000000000e+00 0.000000000000000000e+00 -4.658266412525772227e-01 0.000000000000000000e+00 1.771331530258159204e-01 0.000000000000000000e+00 0.000000000000000000e+00 -5.847768502710040117e-01
0.000000000000000000e+00 1.090918744016058095e-01 -7.952979082054887836e-03 0.000000000000000000e+00 9.767422832582411951e-02 0.000000000000000000e+00 3.040905108072832208e-01 3.949113031207302990e-03 0.000000000000000000e+00 -7.418447655144083663e-02 0.000000000000000000e+00 -5.375757542117841625e-01 2.211879493917855502e-02 0.000000000000000000e+00 -5.307415602683741573e-01 0.000000000000000000e+00 2.215997755900023791e-01 4.322712051139048633e-02 0.000000000000000000e+00 -5.863042858834444093e-01
0.000000000000000000e+00 7.548955355200945294e-02 0.000000000000000000e+00 2.254047245857130136e-02 5.185620402917249377e-02 0.000000000000000000e+00 3.123417301370676191e-01 0.000000000000000000e+00 -6.856229192575424847e-02 -3.419428885845196553e-02 0.000000000000000000e+00 -4.838738979597873580e-01 0.000000000000000000e+00 -4.010906990472364042e-02 -4.585943099656442090e-01 0.000000000000000000e+00 2.000743433366068136e-01 0.000000000000000000e+00 -2.892687992803691377e-02 -5.761847291049148057e-01
-2.074718585793346448e-01 0.000000000000000000e+00 -3.474545439962870574e-01 -9.769601927078520598e-01 6.384777544648473357e-01 -4.253770735817898330e-01 0.000000000000000000e+00 -6.614503962705678419e-02 -5.436242890168474506e-01 -1.596517944400119293e-02 6.302793321750501665e-01 0.000000000000000000e+00 -3.572824828123544738e-01 -1.817217181778126023e-01 5.072595348659346415e-02 -2.628043005677456190e-01 0.000000000000000000e+00 -1.518675441305589874e-02 -2.720204913637012667e-01 -5.949970212235863309e-01
5.707642563297888987e-03 1.232022982286412188e-01 0.000000000000000000e+00 0.000000000000000000e+00 1.136473386018561210e-01 1.323078507511079444e-02 3.073938661117651128e-01 0.000000000000000000e+00 0.000000000000000000e+00 -7.646466290714579173e-02 -2.491403270770383219e-03 -5.073094312616164281e-01 0.000000000000000000e+00 0.000000000000000000e+00 -4.943300431252988791e-01 3.824804021332713078e-02 2.386748985725886951e-01 0.000000000000000000e+00 0.000000000000000000e+00 -5.534340492427515246e-01
0.000000000000000000e+00 1.141054044844369703e-01 3.154419219863738213e-03 0.000000000000000000e+00 9.833394399391333363e-02 0.000000000000000000e+00 2.910060215178762455e-01 3.709889039936636532e-03 0.000000000000000000e+00 -9.957289795443106939e-02 0.000000000000000000e+00 -4.954370139298081011e-01 -7.000722738336762410e-03 0.000000000000000000e+00 -5.049233421791350374e-01 0.000000000000000000e+00 1.931650523355696591e-01 1.001525038671996840e-02 0.000000000000000000e+00 -5.957128617511688873e-01
-3.063594246236315752e-02 8.418003975991376897e-02 0.000000000000000000e+00 0.000000000000000000e+00 7.037415448771702775e-02 -1.391769682980164430e-02 2.866292943425220452e-01 0.000000000000000000e+00 0.000000000000000000e+00 -1.190624792237984508e-01 -1.494060889544056650e-03 -5.097707333473756597e-01 0.000000000000000000e+00 0.000000000000000000e+00 -5.082447414081154857e-01 6.016389549943183118e-02 2.508880096587270958e-01 0.000000000000000000e+00 0.000000000000000000e+00 -5.327456144284417050e-01
0.000000000000000000e+00 1.138073998905939077e-01 1.779334168370779595e-02 3.057386092114335735e-02 8.516305932043259641e-02 0.000000000000000000e+00 3.004972677427672489e-01 4.644858063350569555e-03 -2.564073447518244731e-05 -9.014018851920375941e-02 0.000000000000000000e+00 -4.871935940314621738e-01 -1.247158929981396075e-01 -3.022801331926209256e-01 -2.756955369794047983e-01 0.000000000000000000e+00 1.959497712168485617e-01 -7.756994725529173240e-02 -2.019024194317088627e-01 -4.563461361810681183e-01
2.987855429017136077e-02 1.449478290422313020e-01 -1.223049215173679372e-01 -2.472068261040187842e-01 2.924068181521182197e-01 3.617707327704419162e-01 5.825594047041114942e-01 -1.629621316756451610e-01 -5.267911249869450252e-02 1.919457135033784401e-01 -1.411202401234762371e-01 -5.714675861440884352e-01 -3.594167687462050953e-01 -9.242341114719485606e-01 4.668717432327196271e-02 1.862002456969061026e-01 3.815400393034520388e-01 -4.997870943236356056e-01 -9.502166442677543179e-01 1.963233021837584857e-01
-7.731784725993175525e-04 9.131487545399856465e-02 0.000000000000000000e+00 0.000000000000000000e+00 7.767437908447959172e-02 3.457933044672898554e-02 3.306686417842856218e-01 0.000000000000000000e+00 0.000000000000000000e+00 -8.147779719229296391e-02 -5.895852022286809241e-02 -5.607495003840681225e-01 0.000000000000000000e+00 0.000000000000000000e+00 -5.624251793795226328e-01 2.546103491447599884e-02 1.954319443271465007e-01 0.000000000000000000e+00 0.000000000000000000e+00 -5.772345070679398837e-01
0.000000000000000000e+00 1.062009015410516344e-01 0.000000000000000000e+00 0.000000000000000000e+00 8.891014993318956117e-02 0.000000000000000000e+00 3.010754755724264764e-01 0.000000000000000000e+00 0.000000000000000000e+00 -1.010773103277863572e-01 0.000000000000000000e+00 -5.278522309347991603e-01 0.000000000000000000e+00 0.000000000000000000e+00 -5.205177103702326447e-01 0.000000000000000000e+00 1.899036419291695865e-01 0.000000000000000000e+00 0.000000000000000000e+00 -6.090978684365875306e-01
-9.428403436728021933e-03 1.074626099735911805e-01 0.000000000000000000e+00 0.000000000000000000e+00 8.545021498035536289e-02 -2.198871250430117080e-02 2.824944110055383484e-01 0.000000000000000000e+00 0.000000000000000000e+00 -1.230668283773011240e-01 -3.023038009456361155e-02 -5.420137039447348037e-01 0.000000000000000000e+00 0.000000000000000000e+00 -5.373202013235439667e-01 -8.340897751627246448e-03 1.941502100000581654e-01 0.000000000000000000e+00 0.000000000000000000e+00 -6.091382245721274069e-01
0.000000000000000000e+00 1.182213302132218841e-01 0.000000000000000000e+00 -2.458622917550128475e-02 1.394703214786508494e-01 0.000000000000000000e+00 2.941593528394547130e-01 0.000000000000000000e+00 -5.297039407007007872e-03 -9.145611998539197873e-02 0.000000000000000000e+00 -5.086704874589851322e-01 0.000000000000000000e+00 1.507531693277964005e-03 -5.021789710151830510e-01 0.000000000000000000e+00 1.883264581471518206e-01 0.000000000000000000e+00 -4.004162572469030512e-02 -5.655201784454362279e-01
0.000000000000000000e+00 9.848987990176794050e-02 0.000000000000000000e+00 0.000000000000000000e+00 9.021544864871383629e-02 0.000000000000000000e+00 2.934569333895024612e-01 0.000000000000000000e+00 0.000000000000000000e+00 -9.098847945428745199e-02 0.000000000000000000e+00 -5.166858167194712248e-01 0.000000000000000000e+00 0.000000000000000000e+00 -5.098099145049759251e-01 0.000000000000000000e+00 1.980333065881286769e-01 0.000000000000000000e+00 0.000000000000000000e+00 -5.936226685730425778e-01
-1.076018986378688390e-02 9.896035141264421242e-02 0.000000000000000000e+00 0.000000000000000000e+00 8.932399859096200323e-02 1.917644564679057625e-02 3.166171186038301277e-01 0.000000000000000000e+00 0.000000000000000000e+00 -7.312805122382021183e-02 -3.756984553640847074e-02 -5.251801823106272415e-01 0.000000000000000000e+00 0.000000000000000000e+00 -5.210903099043371345e-01 2.778592015774714388e-02 2.109464245659233295e-01 0.000000000000000000e+00 0.000000000000000000e+00 -5.820226033227258178e-01
0.000000000000000000e+00 1.378332530636451336e-01 -2.190969662884023061e-01 -5.034559197089315541e-01 4.518782097682436105e-01 0.000000000000000000e+00 2.749417835269544752e-01 2.188558306623377692e-01 4.768680978930022185e-01 -4.412094278988161200e-01 0.000000000000000000e+00 -5.041562542456879958e-01 -1.246988836121044608e-01 -2.564384254482618974e-01 -3.270804093258066203e-01 0.000000000000000000e+00 2.255398889699126441e-01 -1.892691029908343814e-01 -4.385235634586260867e-01 -2.817512723230748972e-01
-1.410715821552993854e-01 0.000000000000000000e+00 0.000000000000000000e+00 -1.262924472388664288e-01 8.572453357391143780e-02 -4.042834524018153464e-01 0.000000000000000000e+00 0.000000000000000000e+00 -3.781451030211139264e-01 -1.139278897835061949e-01 6.992187658330608624e-01 0.000000000000000000e+00 0.000000000000000000e+00 6.280837881403485978e-01 -4.483519325481074569e-01 -2.641358675668268874e-01 0.000000000000000000e+00 0.000000000000000000e+00 -2.637408261050521174e-01 -5.915277822283149245e-01
1.065837275386572747e-01 1.827811659994189597e-01 7.188303669864455625e-02 2.490384994023342180e-01 0.000000000000000000e+00 4.633697259962275550e-01 6.484939781757863564e-01 -3.107492736126946098e-02 3.221992987309709178e-01 0.000000000000000000e+00 5.213121208826179132e-01 -8.696125320112689516e-02 -2.901034410864811730e-01 -1.812976883257112759e-01 0.000000000000000000e+00 7.585932274657849472e-01 7.912062834879901585e-01 -3.138582834920953246e-01 -7.618717495181476229e-02 0.000000000000000000e+00
0.000000000000000000e+00 1.165328289887317403e-01 7.487610107632246270e-02 1.537148169534018338e-01 0.000000000000000000e+00 0.000000000000000000e+00 2.973200101669784545e-01 -6.630455469317034223e-02 -1.524959828294939201e-01 0.000000000000000000e+00 0.000000000000000000e+00 -4.717844516032693170e-01 -3.335111146095937062e-01 -7.230707978794804758e-01 0.000000000000000000e+00 0.000000000000000000e+00 2.364556411202731467e-01 -3.939840443188404318e-01 -8.680552260631376749e-01 0.000000000000000000e+00
-1.898406347625252455e-01 -2.344049540385727270e-02 -7.789597345509446935e-02 -3.480680949261027446e-01 2.052817076017019182e-01 -6.140024279118825312e-01 -1.960959003797856370e-01 3.085489794066401115e-01 9.690909949718144734e-02 -5.996032648013576161e-01 -2.711991255685581859e-01 -7.062399966351022851e-01 -2.987978514598266244e-02 -3.033386101322259609e-01 -4.751727983096045715e-01 5.280805784859395752e-02 2.547364765009473841e-01 -8.941199264473616293e-02 -1.686594213366175432e-01 -4.271417207881594846e-01
0.000000000000000000e+00 1.224885166180025714e-01 0.000000000000000000e+00 0.000000000000000000e+00 9.921242290996995505e-02 0.000000000000000000e+00 2.932546873212328320e-01 0.000000000000000000e+00 0.000000000000000000e+00 -1.085053405092168133e-01 0.000000000000000000e+00 -5.234986930529014204e-01 0.000000000000000000e+00 0.000000000000000000e+00 -5.162737135339262595e-01 0.000000000000000000e+00 1.883914394702122241e-01 0.000000000000000000e+00 0.000000000000000000e+00 -5.980635300073587901e-01
1.948882369303818751e-01 2.490432555412293858e-01 9.411906899923555558e-02 3.625772373673527005e-01 0.000000000000000000e+00 -1.201189717666438922e-01 2.165021816598106108e-01 -4.519326142700638704e-02 -2.447273229133205552e-01 0.000000000000000000e+00 -1.891346830792881573e-01 -6.143831341861234474e-01 -3.319691830424754686e-01 -9.013413054527514845e-01 0.000000000000000000e+00 6.083345210178547902e-01 6.778126689004635441e-01 -3.497539317250159541e-01 -2.496415728525175903e-01 0.000000000000000000e+00
-1.254162409062236361e-01 0.000000000000000000e+00 5.097743497207227886e-02 2.040077595225536777e-03 0.000000000000000000e+00 -4.074993625727680868e-01 0.000000000000000000e+00 -6.241797280749149246e-02 -5.546715486210419543e-01 0.000000000000000000e+00 6.484191308040604396e-01 0.000000000000000000e+00 -2.931521214521924934e-01 -4.390374096778772162e-02 0.000000000000000000e+00 -3.044049716859709709e-01 0.000000000000000000e+00 -3.688360429419820230e-01 -1.153906443160061635e+00 0.000000000000000000e+00
-1.341702682652638479e-01 3.484571558537374880e-03 8.086337651392422332e-02 0.000000000000000000e+00 1.459237430689207943e-02 -5.568994107110543379e-02 2.558215137865598177e-01 3.508285516317943137e-02 0.000000000000000000e+00 -1.222519619764050047e-01 1.583970829208217190e-01 -3.816415093640959100e-01 -4.609429849248253275e-02 0.000000000000000000e+00 -3.909925572740421407e-01 -8.239304055997499765e-02 1.480223408748923275e-01 6.215081825212909195e-02 0.000000000000000000e+00 -6.206977629872392210e-01
-1.584238440684278271e-01 0.000000000000000000e+00 4.240006142844022358e-02 -2.227162486053257603e-02 0.000000000000000000e+00 -4.157457265362458632e-01 0.000000000000000000e+00 -6.122535991748130624e-02 -5.565088288434357766e-01 0.000000000000000000e+00 6.563473746486582217e-01 0.000000000000000000e+00 -3.091476235249935867e-01 -6.374536772549234398e-02 0.000000000000000000e+00 -3.259935122772005811e-01 0.000000000000000000e+00 -3.625070272459361420e-01 -1.151135995782877286e+00 0.000000000000000000e+00
-1.484692876270931605e-01 0.000000000000000000e+00 4.907745235024656150e-02 -2.054602805747669791e-02 0.000000000000000000e+00 -4.003348186399081632e-01 0.000000000000000000e+00 -6.550039826463759096e-02 -5.400746575892256818e-01 0.000000000000000000e+00 6.572886820303585065e-01 0.000000000000000000e+00 -3.301768773368816690e-01 -8.702514323000039298e-02 0.000000000000000000e+00 -3.148221725210949562e-01 0.000000000000000000e+00 -3.772113404343991894e-01 -1.168796282570624401e+00 0.000000000000000000e+00
-1.546615240308377992e-01 0.000000000000000000e+00 -2.433259740693549666e-02 -1.898174950707158248e-01 1.164109382567287410e-01 -3.822924255581326425e-01 0.000000000000000000e+00 1.828451587048438021e-01 5.407298937173629638e-02 -4.073155555840162201e-01 6.605330871258418002e-01 0.000000000000000000e+00 -2.320463218418462870e-01 9.644357402073344687e-02 -1.058158819218686930e-01 -2.939196654784789198e-01 0.000000000000000000e+00 -1.215342053086507362e-01 -5.412091850174169938e-01 -4.305440558401202877e-01
2.452931298830054660e-02 1.280049949622495686e-01 0.000000000000000000e+00 0.000000000000000000e+00 1.176515673856136229e-01 2.568733612554617574e-02 3.166418627469166913e-01 0.000000000000000000e+00 0.000000000000000000e+00 -7.396821473623356458e-02 -2.510230487121657347e-02 -5.267610662241790642e-01 0.000000000000000000e+00 0.000000000000000000e+00 -5.286260890937188872e-01 1.783289251907837006e-02 2.068391643866355212e-01 0.000000000000000000e+00 0.000000000000000000e+00 -5.817534384250440116e-01
0.000000000000000000e+00 1.087663280742150046e-01 0.000000000000000000e+00 0.000000000000000000e+00 1.019851139117426697e-01 0.000000000000000000e+00 2.932101233237760507e-01 0.000000000000000000e+00 0.000000000000000000e+00 -1.086629080420576238e-01 0.000000000000000000e+00 -5.067202803700099345e-01 0.000000000000000000e+00 0.000000000000000000e+00 -4.968289026241150541e-01 0.000000000000000000e+00 1.932233116731314759e-01 0.000000000000000000e+00 0.000000000000000000e+00 -6.072547287219793866e-01
0.000000000000000000e+00 8.704875398256387009e-02 0.000000000000000000e+00 0.000000000000000000e+00 8.862504490470896057e-02 0.000000000000000000e+00 3.004363676335095601e-01 0.000000000000000000e+00 0.000000000000000000e+00 -9.883021355321955359e-02 0.000000000000000000e+00 -5.170319452067017041e-01 0.000000000000000000e+00 0.000000000000000000e+00 -5.077172486755865410e-01 0.000000000000000000e+00 1.996520780530225136e-01 0.000000000000000000e+00 0.000000000000000000e+00 -5.777297166715005261e-01
0.000000000000000000e+00 1.056315459174262672e-01 6.409729521329590729e-02 1.453670370004600809e-01 0.000000000000000000e+00 0.000000000000000000e+00 2.981844039954853476e-01 -7.835135807480465842e-02 -1.651413732846913340e-01 0.000000000000000000e+00 0.000000000000000000e+00 -4.808152157898084589e-01 -3.091630477289452061e-01 -7.188838574695380901e-01 0.000000000000000000e+00 0.000000000000000000e+00 2.368697238863494980e-01 -3.595272177906411182e-01 -8.406208076796158890e-01 0.000000000000000000e+00
3.053421358711203015e-02 1.495968891223782848e-01 -1.635123190185978903e-01 -3.651107776193843191e-01 3.768935578399382202e-01 -2.322706382259472346e-01 1.054848487465334939e-01 1.919811991253084771e-01 1.801174580754136001e-01 -3.891021733531879190e-01 5.276613269025851594e-01 -6.329824072466128104e-02 -5.247636866107767695e-01 -7.259696791669463245e-01 3.881402024972199216e-01 -2.988177013999193665e-01 -4.469391871015662709e-02 2.232171673202227591e-01 2.108349609134750613e-01 -9.476985640478788886e-01
1.650039566487057074e-01 2.290604509826379975e-01 0.000000000000000000e+00 1.613837055570767620e-01 9.681063771994562195e-02 -3.351394249888456356e-01 4.676390965812521339e-02 0.000000000000000000e+00 -3.274170825152589726e-01 -9.853410426568151581e-02 1.576225278504064520e-01 -3.952299947013434567e-01 0.000000000000000000e+00 1.451012826450828463e-01 -4.899159946044435165e-01 -1.639446501894809005e-01 6.877948385807147735e-02 0.000000000000000000e+00 -1.534034048887508717e-01 -6.041055204053856764e-01
0.000000000000000000e+00 1.147938601598329639e-01 -7.709620911613586369e-02 -1.585155131539739970e-01 2.063594202184436122e-01 0.000000000000000000e+00 3.089812486490736143e-01 -1.160979733803574471e-01 -2.766494370523374102e-01 1.016643939977778521e-01 0.000000000000000000e+00 -4.631238315724411914e-01 -4.386069864692521136e-01 -9.780409078397240830e-01 1.781424951497048159e-01 0.000000000000000000e+00 1.722571179668418162e-01 8.969067199344774033e-02 1.761150481787225053e-01 -7.202873693687130707e-01
-1.430150943718992151e-01 0.000000000000000000e+00 0.000000000000000000e+00 -1.374527839006010332e-01 9.043523905113451389e-02 -4.028744649373147690e-01 0.000000000000000000e+00 0.000000000000000000e+00 -3.624947423841958782e-01 -1.466201273242165870e-01 6.888408425941309199e-01 0.000000000000000000e+00 0.000000000000000000e+00 6.259948618493951233e-01 -4.383205840762743333e-01 -2.735257377465045159e-01 0.000000000000000000e+00 0.000000000000000000e+00 -2.586047656350262125e-01 -5.968823300630003992e-01
-1.369819930018305876e-01 0.000000000000000000e+00 4.529832936814748995e-02 0.000000000000000000e+00 -1.048386765172617391e-02 -3.697976507651676847e-01 0.000000000000000000e+00 1.625307012618863178e-01 0.000000000000000000e+00 -3.639224207911385678e-01 6.699174447162895563e-01 0.000000000000000000e+00 -2.755769540682118657e-01 0.000000000000000000e+00 -3.819300432942428214e-02 -2.478671417714894964e-01 0.000000000000000000e+00 1.122493092036607326e-01 0.000000000000000000e+00 -7.679806783286433625e-01
-6.629682300784273813e-03 9.680831137213306847e-02 0.000000000000000000e+00 0.000000000000000000e+00 7.711364923175882680e-02 2.156643941747243484e-02 3.166194613578964256e-01 0.000000000000000000e+00 0.000000000000000000e+00 -7.760937093979997092e-02 2.620169374569865373e-02 -4.832603011186786812e-01 0.000000000000000000e+00 0.000000000000000000e+00 -4.659068480394140677e-01 1.797795982863237968e-02 2.088643495978231290e-01 0.000000000000000000e+00 0.000000000000000000e+00 -5.881663227552408335e-01
0.000000000000000000e+00 1.017749245680868164e-01 8.631443866400682896e-03 0.000000000000000000e+00 1.034712188354779544e-01 0.000000000000000000e+00 3.049443654907932899e-01 8.905723570189085989e-03 0.000000000000000000e+00 -9.011678170688022793e-02 0.000000000000000000e+00 -5.072409688001845440e-01 -1.097842899956226123e-02 0.000000000000000000e+00 -5.023857517640785142e-01 0.000000000000000000e+00 1.863306288008294009e-01 -2.619222638957675875e-05 0.000000000000000000e+00 -6.006128732317820296e-01
-1.362196037732756049e-01 0.000000000000000000e+00 3.408769631490074503e-02 -2.405182192814988434e-02 0.000000000000000000e+00 -4.234161273296173644e-01 0.000000000000000000e+00 -9.086903830356846123e-02 -5.852122671643186225e-01 0.000000000000000000e+00 6.385481681638646156e-01 0.000000000000000000e+00 -2.947509641762178778e-01 -7.455089217664753742e-02 0.000000000000000000e+00 -3.258487479449982960e-01 0.000000000000000000e+00 -3.762237751877722247e-01 -1.175989255592999827e+00 0.000000000000000000e+00
-2.305756376406800923e-01 -7.322827348697633076e-02 1.315832485148174871e-02 -1.880557618655241403e-01 4.255845701318513447e-02 2.243649971956010458e-01 4.717394332502975463e-01 -6.936476245642982097e-02 3.265986285190955463e-02 4.481948807059066286e-02 9.383212032426463400e-02 -4.358827271594999386e-01 -6.107357194369165965e-02 -3.473392397179737856e-02 -4.143294299500465128e-01 2.940699523755304079e-01 4.320392921211688719e-01 -5.997743200258504048e-02 1.149121874736373505e-01 -4.570868663399529352e-01
0.000000000000000000e+00 6.585940570875799260e-02 2.854696986132903569e-01 6.359798549155434300e-01 -3.486470140810947194e-01 0.000000000000000000e+00 2.822190597962110914e-01 4.886697544953340355e-02 1.091281552873022975e-01 -1.877226812160850411e-01 0.000000000000000000e+00 -4.876946092401828192e-01 -2.688837019530467831e-01 -5.862876439591111488e-01 -9.314196138843089390e-02 0.000000000000000000e+00 1.958129240155021544e-01 -6.696781493963127607e-02 -1.849715360831911959e-01 -4.570465727580212412e-01
-1.336065962419033804e-01 0.000000000000000000e+00 0.000000000000000000e+00 -1.266246562669622322e-01 8.400537368982377573e-02 -4.158357067424509612e-01 0.000000000000000000e+00 0.000000000000000000e+00 -3.782864195662496432e-01 -1.270636873603092631e-01 6.917403458850059916e-01 0.000000000000000000e+00 0.000000000000000000e+00 6.577702406618145536e-01 -4.738055942636418272e-01 -2.658878447714164706e-01 0.000000000000000000e+00 0.000000000000000000e+00 -2.426980246026533561e-01 -6.075772579883299551e-01
2.015216994127822514e-01 2.747142390641489351e-01 -1.490600585921778576e-01 -1.341609478319472082e-01 3.314939752180934285e-01 -4.001748021893716811e-02 2.519290740661125350e-01 9.641479765788417422e-02 1.675176719423510929e-01 -2.536696225283827100e-01 -2.807101005945936145e-01 -7.470927887055727190e-01 3.214931557153479780e-01 4.775810432031105668e-01 -1.042006204328065344e+00 4.233367443048345335e-01 5.259131934566855238e-01 -1.002552485495392665e-01 1.362503552974769216e-01 -3.930089699867511666e-01
0.000000000000000000e+00 1.146279554495766712e-01 0.000000000000000000e+00 0.000000000000000000e+00 9.381898045608037806e-02 0.000000000000000000e+00 3.001098075546168586e-01 0.000000000000000000e+00 0.000000000000000000e+00 -1.026588846031403490e-01 0.000000000000000000e+00 -5.019778412479950491e-01 0.000000000000000000e+00 0.000000000000000000e+00 -4.962381294037861990e-01 0.000000000000000000e+00 1.785443393282982183e-01 0.000000000000000000e+00 0.000000000000000000e+00 -6.030430962350287194e-01
1.064292469925396389e-01 1.832300902220460048e-01 0.000000000000000000e+00 9.478506950412374232e-02 1.080991886747602743e-01 -3.812230340528903194e-01 2.139662578591083886e-02 0.000000000000000000e+00 -3.649471451628463758e-01 -1.112355267597003039e-01 2.302425880953133386e-01 -3.347773153516195310e-01 0.000000000000000000e+00 2.023200497200473014e-01 -4.802452925225875191e-01 -3.111165920957588704e-01 -3.460949187458267629e-02 0.000000000000000000e+00 -2.858750496110887274e-01 -6.139697752800541419e-01
1.444789764043833205e-02 1.195483680532384296e-01 0.000000000000000000e+00 0.000000000000000000e+00 1.115115015264456361e-01 2.032614597413039473e-02 3.084091235128714192e-01 0.000000000000000000e+00 0.000000000000000000e+00 -8.549949144849529337e-02 -2.008281699893022659e-03 -5.149348152567964076e-01 0.000000000000000000e+00 0.000000000000000000e+00 -4.954154585468658056e-01 3.205532981489743471e-02 2.236468116471106438e-01 0.000000000000000000e+00 0.000000000000000000e+00 -5.708893967865608099e-01
0.000000000000000000e+00 1.068710187837076109e-01 -1.448764404977166513e-02 0.000000000000000000e+00 8.955055718369901718e-02 0.000000000000000000e+00 2.954587890528566629e-01 7.082857404810453950e-03 0.000000000000000000e+00 -1.053443134280667576e-01 0.000000000000000000e+00 -4.998762040138176044e-01 -8.303261489689909430e-03 0.000000000000000000e+00 -5.114048326011070289e-01 0.000000000000000000e+00 2.022074279938505803e-01 1.354387166421198649e-02 0.000000000000000000e+00 -5.892893264751248861e-01
-1.504371649424449675e-01 0.000000000000000000e+00 6.122612661263561462e-02 0.000000000000000000e+00 -7.410783050421161818e-03 -3.904253829345017968e-01 0.000000000000000000e+00 1.503006800381384012e-01 0.000000000000000000e+00 -3.751249994129554621e-01 6.502002004927635026e-01 0.000000000000000000e+00 -2.810417995421990445e-01 0.000000000000000000e+00 -5.000070591817341870e-02 -2.575429468986037973e-01 0.000000000000000000e+00 1.158864738419660423e-01 0.000000000000000000e+00 -7.696091963637052835e-01
-3.970630165278856150e-01 -1.787900462294161330e-01 0.000000000000000000e+00 -3.724239307821596290e-01 7.971221662620461834e-02 -5.424992896821487776e-01 -9.983016516488213421e-02 0.000000000000000000e+00 -5.463357612266003249e-01 -9.333740746337453043e-02 1.298198379044242790e-01 -3.977466975001853200e-01 0.000000000000000000e+00 1.357559987476363861e-01 -5.058381616632434685e-01 3.265006011680202103e-01 4.426313312236437314e-01 0.000000000000000000e+00 3.080592059282117323e-01 -5.794578345509664441e-01
0.000000000000000000e+00 1.223931405634854780e-01 -7.160661488550545961e-03 0.000000000000000000e+00 9.511998202558438753e-02 0.000000000000000000e+00 2.980036330815585832e-01 5.930076048286644919e-03 0.000000000000000000e+00 -8.706316206348306552e-02 0.000000000000000000e+00 -5.150079229617978704e-01 -9.777165039897619050e-03 0.000000000000000000e+00 -5.117172304986034037e-01 0.000000000000000000e+00 1.972247632612648682e-01 1.294205883219705019e-02 0.000000000000000000e+00 -5.863652768045243269e-01
0.000000000000000000e+00 1.027443308797468674e-01 0.000000000000000000e+00 0.000000000000000000e+00 9.219435786715950154e-02 0.000000000000000000e+00 3.076191139262900998e-01 0.000000000000000000e+00 0.000000000000000000e+00 -9.590793270021305550e-02 0.000000000000000000e+00 -5.083027552141815564e-01 0.000000000000000000e+00 0.000000000000000000e+00 -4.997142787602464886e-01 0.000000000000000000e+00 1.975783090513803242e-01 0.000000000000000000e+00 0.000000000000000000e+00 -6.005934179190700606e-01
0.000000000000000000e+00 1.088296584926175259e-01 0.000000000000000000e+00 0.000000000000000000e+00 9.162386299677488521e-02 0.000000000000000000e+00 3.034224654553390188e-01 0.000000000000000000e+00 0.000000000000000000e+00 -1.003197826608276388e-01 0.000000000000000000e+00 -5.103899591027396543e-01 0.000000000000000000e+00 0.000000000000000000e+00 -5.054662989565557041e-01 0.000000000000000000e+00 1.853827898227307369e-01 0.000000000000000000e+00 0.000000000000000000e+00 -6.113798701698236471e-01
0.000000000000000000e+00 1.056712386612564253e-01 0.000000000000000000e+00 0.000000000000000000e+00 9.004918652691795700e-02 0.000000000000000000e+00 2.890511610933129694e-01 0.000000000000000000e+00 0.000000000000000000e+00 -1.088344039358085935e-01 0.000000000000000000e+00 -5.146955843677649689e-01 0.000000000000000000e+00 0.000000000000000000e+00 -5.057743148999720439e-01 0.000000000000000000e+00 2.126142678131997810e-01 0.000000000000000000e+00 0.000000000000000000e+00 -5.918680919079087888e-01
0.000000000000000000e+00 9.797382754934387539e-02 0.000000000000000000e+00 0.000000000000000000e+00 8.807785774398248224e-02 0.000000000000000000e+00 2.925556538542845586e-01 0.000000000000000000e+00 0.000000000000000000e+00 -9.283728550468585416e-02 0.000000000000000000e+00 -5.157297578986080877e-01 0.000000000000000000e+00 0.000000000000000000e+00 -4.921917902088558394e-01 0.000000000000000000e+00 1.911477732593604706e-01 0.000000000000000000e+00 0.000000000000000000e+00 -5.961810921880549285e-01
-3.482483550619591695e-02 7.346828812635616823e-02 0.000000000000000000e+00 0.000000000000000000e+00 6.224808236941552220e-02 2.840089719329418061e-02 3.067781777241516683e-01 0.000000000000000000e+00 0.000000000000000000e+00 -7.017841311247227654e-02 1.433758373817740905e-03 -5.033662835156965665e-01 0.000000000000000000e+00 0.000000000000000000e+00 -5.071633752790422056e-01 -1.354934625267237985e-02 1.844409103581757803e-01 0.000000000000000000e+00 0.000000000000000000e+00 -6.120829764882689261e-01
0.000000000000000000e+00 1.494949812418384094e-01 -3.504627969483098404e-01 -8.097613737207405293e-01 6.671562836166408106e-01 0.000000000000000000e+00 2.992402721031907076e-01 -1.166282734998091430e-01 -2.666289883642080083e-01 9.378614492893055932e-02 0.000000000000000000e+00 -4.968862289736606930e-01 -2.578810562154286168e-01 -5.703217300244249888e-01 -1.112183856296748152e-01 0.000000000000000000e+00 2.096955059879833660e-01 -1.915766614167633830e-01 -4.481789012480899004e-01 -2.918505487870408643e-01
3.365707867688008670e-02 1.268988923000416158e-01 0.000000000000000000e+00 0.000000000000000000e+00 1.212065787736032185e-01 7.244396684387026386e-03 3.116807797323755125e-01 0.000000000000000000e+00 0.000000000000000000e+00 -8.065974598371350446e-02 3.143348275599509856e-02 -4.815425549073564793e-01 0.000000000000000000e+00 0.000000000000000000e+00 -4.684821770165626953e-01 3.711547534023262179e-02 2.358909529738313637e-01 0.000000000000000000e+00 0.000000000000000000e+00 -5.579371099039248660e-01
0.000000000000000000e+00 1.095727838645663699e-01 0.000000000000000000e+00 -1.774520125143289745e-03 9.668590382175699938e-02 0.000000000000000000e+00 2.930443501358973024e-01 0.000000000000000000e+00 -4.425066807682190989e-02 -5.270168357655224955e-02 0.000000000000000000e+00 -5.129215998329419435e-01 0.000000000000000000e+00 3.070758342483927497e-02 -5.331897512829633090e-01 0.000000000000000000e+00 1.894899580869396361e-01 0.000000000000000000e+00 -1.150886982741497304e-02 -5.901172266461167659e-01
-1.785696879092767489e-02 1.039832200648651422e-01 0.000000000000000000e+00 0.000000000000000000e+00 9.066214476513512199e-02 3.900055493389192190e-02 3.262037888570756272e-01 0.000000000000000000e+00 0.000000000000000000e+00 -6.752281510350773008e-02 -4.447624121221900595e-02 -5.468950501664328057e-01 0.000000000000000000e+00 0.000000000000000000e+00 -5.522866745169308089e-01 6.541159639719938690e-02 2.476072180250758481e-01 0.000000000000000000e+00 0.000000000000000000e+00 -5.467326738694948673e-01
0.000000000000000000e+00 1.003779390198000082e-01 0.000000000000000000e+00 -3.550389469121857829e-03 1.010544220216096911e-01 0.000000000000000000e+00 2.963196884007875953e-01 0.000000000000000000e+00 -1.136203954176340236e-02 -9.285890975986225981e-02 0.000000000000000000e+00 -5.194221524981851301e-01 0.000000000000000000e+00 4.683789802232978666e-02 -5.413627097133479893e-01 0.000000000000000000e+00 1.911551894497851012e-01 0.000000000000000000e+00 -7.217261058233351290e-04 -6.021541405470567376e-01
3.122224262670409214e-02 1.210527867027903770e-01 0.000000000000000000e+00 0.000000000000000000e+00 1.221955025866502814e-01 4.758636271153639241e-02 3.423155505864607928e-01 0.000000000000000000e+00 0.000000000000000000e+00 -5.147226886966117798e-02 1.000136847535486317e-02 -5.213118690862080795e-01 0.000000000000000000e+00 0.000000000000000000e+00 -5.130103556393333930e-01 3.501290943002886846e-02 2.332409363964912941e-01 0.000000000000000000e+00 0.000000000000000000e+00 -5.588492214410867298e-01
0.000000000000000000e+00 9.753841492886405895e-02 0.000000000000000000e+00 0.000000000000000000e+00 9.794142404290860637e-02 0.000000000000000000e+00 2.825913315109769286e-01 0.000000000000000000e+00 0.000000000000000000e+00 -1.090991476623996842e-01 0.000000000000000000e+00 -5.129694601029346490e-01 0.000000000000000000e+00 0.000000000000000000e+00 -4.924820507056654195e-01 0.000000000000000000e+00 1.901084378211418680e-01 0.000000000000000000e+00 0.000000000000000000e+00 -5.958305296084159819e-01
0.000000000000000000e+00 9.350857333435080854e-02 7.360189974817568648e-02 1.334903437212438815e-01 0.000000000000000000e+00 0.000000000000000000e+00 3.101263779220262973e-01 -4.324678863891663616e-02 -1.388253521884335595e-01 0.000000000000000000e+00 0.000000000000000000e+00 -4.894838875634694997e-01 -3.403526574800602167e-01 -7.395206472581535850e-01 0.000000000000000000e+00 0.000000000000000000e+00 2.330377565207927826e-01 -3.790569373808607145e-01 -8.501971874621111480e-01 0.000000000000000000e+00
-1.388485999850905261e-01 0.000000000000000000e+00 6.279333280826168706e-02 5.288570348691823061e-03 0.000000000000000000e+00 -4.192377049907225484e-01 0.000000000000000000e+00 -6.327387939250193882e-02 -5.475470593645557216e-01 0.000000000000000000e+00 6.464428015879944978e-01 0.000000000000000000e+00 -2.929528095018692491e-01 -6.888618594489932800e-02 0.000000000000000000e+00 -3.216769683871356644e-01 0.000000000000000000e+00 -3.578194095205027847e-01 -1.164241247922798816e+00 0.000000000000000000e+00
-5.518656370528807198e-01 -3.026962466813286068e-01 5.956863641579765445e-02 -4.086581639655700871e-01 0.000000000000000000e+00 2.240983821523083175e-01 4.626825918233492541e-01 -4.280043167519893138e-02 8.048544006678637341e-02 0.000000000000000000e+00 5.075407479752297446e-01 -9.995823885796040198e-02 -3.229478446202312947e-01 -2.313398429592290195e-01 0.000000000000000000e+00 -6.894122914068512298e-02 1.714178169590470091e-01 -3.347539910639099059e-01 -8.947282405104077796e-01 0.000000000000000000e+00
-1.042591352494799395e-01 0.000000000000000000e+00 1.751027464423824676e-01 3.025427465927190696e-01 -1.871292399222566627e-01 -3.723002778548745728e-01 0.000000000000000000e+00 1.768695852570503213e-01 -2.107137404892672761e-02 -3.414795292129713666e-01 6.879370720527866467e-01 0.000000000000000000e+00 -4.934999757283917154e-02 5.604018844196994031e-01 -4.158090098454060302e-01 -2.920412372674275336e-01 0.000000000000000000e+00 -1.087307735993734703e-01 -5.664171004900888651e-01 -3.805149863529873056e-01
2.346160519988750234e-02 1.283663548350469918e-01 0.000000000000000000e+00 0.000000000000000000e+00 1.230689628570879324e-01 5.569517897469441342e-02 3.390921668047220949e-01 0.000000000000000000e+00 0.000000000000000000e+00 -4.614579005120789806e-02 2.516581158759445200e-03 -5.084376027972271617e-01 0.000000000000000000e+00 0.000000000000000000e+00 -5.016224649540164116e-01 1.819622284342459206e-02 2.164797946400725814e-01 0.000000000000000000e+00 0.000000000000000000e+00 -5.698719744547335875e-01
0.000000000000000000e+00 1.080429900188186326e-01 6.110274950259902971e-02 1.351293298489405215e-01 0.000000000000000000e+00 0.000000000000000000e+00 3.028420050950311748e-01 -5.596246165362825375e-02 -1.388583252294506298e-01 0.000000000000000000e+00 0.000000000000000000e+00 -4.738773300510455422e-01 -3.119211934021251520e-01 -7.144517765205391502e-01 0.000000000000000000e+00 0.000000000000000000e+00 2.320055997734405684e-01 -3.597130995771742890e-01 -8.480117310470738357e-01 0.000000000000000000e+00
0.000000000000000000e+00 1.317836478745768314e-01 -3.241177190338297986e-01 -7.359017732710837478e-01 6.027878207744052919e-01 0.000000000000000000e+00 2.790890500693068987e-01 1.603721195919219356e-01 3.386463248981718688e-01 -3.377364745719361738e-01 0.000000000000000000e+00 -4.894442281277313067e-01 -3.238573130155765756e-01 -7.373435317397298849e-01 1.031571779319279125e-02 0.000000000000000000e+00 1.876442007529525446e-01 7.512829890575770109e-02 1.450393658883798453e-01 -6.872300923425385122e-01
5.974932571295563447e-03 1.173460173372146975e-01 0.000000000000000000e+00 0.000000000000000000e+00 1.014040841363319512e-01 2.301493391413923090e-02 3.170026427138826208e-01 0.000000000000000000e+00 0.000000000000000000e+00 -6.922739284666058757e-02 4.622028195032107378e-02 -4.684712188658889387e-01 0.000000000000000000e+00 0.000000000000000000e+00 -4.647739211737632048e-01 1.671417559028005526e-02 2.065170434026072921e-01 0.000000000000000000e+00 0.000000000000000000e+00 -5.751750845985663663e-01
0.000000000000000000e+00 9.091733584779591870e-02 -1.288686130723027366e-02 0.000000000000000000e+00 7.720360254864142013e-02 0.000000000000000000e+00 2.971591692734085743e-01 1.300349989431622694e-02 0.000000000000000000e+00 -9.191695282727847804e-02 0.000000000000000000e+00 -5.213251207389398845e-01 2.086433629999173006e-02 0.000000000000000000e+00 -5.007229940734601037e-01 0.000000000000000000e+00 1.851632476414621364e-01 1.603870457306035002e-02 0.000000000000000000e+00 -6.012726167352828721e-01
-1.415577164944371025e-01 0.000000000000000000e+00 6.640766377383783281e-02 0.000000000000000000e+00 2.527046211875796228e-02 -3.859478761671866764e-01 0.000000000000000000e+00 1.741888698689288695e-01 0.000000000000000000e+00 -3.493476615430249343e-01 6.293421129010701165e-01 0.000000000000000000e+00 -2.435579159096514512e-01 0.000000000000000000e+00 -4.623289248379727767e-02 -2.345890678915398542e-01 0.000000000000000000e+00 8.721161906140591225e-02 0.000000000000000000e+00 -7.603321356311087964e-01
-3.729676686692293130e-01 -1.838749924187687013e-01 0.000000000000000000e+00 -3.173239510125808183e-01 6.273365735873343008e-02 -5.294130946995844189e-01 -8.756723453805803636e-02 0.000000000000000000e+00 -4.951004999274086216e-01 -9.745184641765047839e-02 4.401773607919984288e-02 -4.933608582810041221e-01 0.000000000000000000e+00 7.787942639870849837e-02 -5.614758179049601505e-01 2.543971706251798442e-02 2.155703104116019064e-01 0.000000000000000000e+00 -2.021538303738077552e-02 -5.587031079387355659e-01
-1.274741542440380737e-01 0.000000000000000000e+00 1.869806256479435436e-01 3.249360207295092784e-01 -2.382130877264937718e-01 -4.116407349027637053e-01 0.000000000000000000e+00 9.078004189027233384e-02 -2.816463084208423728e-01 -1.680037142307239384e-01 6.327079320518247396e-01 0.000000000000000000e+00 -3.930748144501005070e-01 -2.725460843729032301e-01 1.224131576477719974e-01 -3.288676184128027091e-01 0.000000000000000000e+00 -4.399252674102861471e-01 -1.368043581198442382e+00 1.346773611695231132e-01
-9.234861542841768522e-04 1.323525391523697192e-01 -3.635395529211886689e-01 -8.174245081171472860e-01 6.766435110027286814e-01 -5.320511719001068673e-01 -9.343443388181910114e-02 -1.998109469407535477e-01 -9.479213591708656184e-01 1.846315061514667011e-01 4.018027734595517875e-01 -2.139438473274863362e-01 -1.499326074236351225e-01 7.505409125368273093e-02 -2.815501454071426268e-01 -4.878088013383118371e-01 -1.231032109851022960e-01 -3.314124522991591659e-01 -1.241179036778773170e+00 -7.497738919598517793e-02
-1.508572779124807695e-01 0.000000000000000000e+00 0.000000000000000000e+00 -1.469157668020090457e-01 9.213250770641966125e-02 -4.207375417523146477e-01 0.000000000000000000e+00 0.000000000000000000e+00 -4.334149823237387622e-01 -7.841519649112325963e-02 6.945831633763989155e-01 0.000000000000000000e+00 0.000000000000000000e+00 6.322598640849450558e-01 -4.479978761482413807e-01 -2.531173852098861921e-01 0.000000000000000000e+00 0.000000000000000000e+00 -2.190472778913695739e-01 -6.075194075998400223e-01
-1.066463087161343692e-01 1.787332097507265266e-02 2.583110019541485364e-02 0.000000000000000000e+00 0.000000000000000000e+00 1.276720824365684959e-01 3.985897249161257649e-01 -3.637564074262243652e-02 0.000000000000000000e+00 0.000000000000000000e+00 6.892350545515456561e-01 1.874746126683610181e-02 -2.853930505230714010e-01 0.000000000000000000e+00 0.000000000000000000e+00 8.305886615399242778e-01 8.440857342867953417e-01 -3.262843735838869552e-01 0.000000000000000000e+00 0.000000000000000000e+00
-3.829825687495562736e-01 -1.831012621384363603e-01 5.323898508372763849e-02 -2.465370856866123117e-01 0.000000000000000000e+00 2.030004225937552531e-02 3.162504710869036839e-01 -8.307369909096515292e-03 -7.492646437911842927e-02 0.000000000000000000e+00 1.017822895527397131e-01 -4.038550678726529619e-01 -3.341144736312336994e-01 -6.405158278033795671e-01 0.000000000000000000e+00 3.538629735036583068e-01 4.939252914664394312e-01 -3.548695279201566910e-01 -4.824963441888335258e-01 0.000000000000000000e+00
0.000000000000000000e+00 9.914786517896627405e-02 6.793719691549315876e-02 1.527006422979972078e-01 0.000000000000000000e+00 0.000000000000000000e+00 3.287997142772547954e-01 -3.387712858201994554e-02 -1.160977715102849417e-01 0.000000000000000000e+00 0.000000000000000000e+00 -4.807025972588164220e-01 -3.034744920464284013e-01 -6.983220276913811864e-01 0.000000000000000000e+00 0.000000000000000000e+00 2.315433589586309571e-01 -3.641065532446826070e-01 -8.665461942412898688e-01 0.000000000000000000e+00
0.000000000000000000e+00 9.811632732699220039e-02 2.234359727395634349e-02 6.422488587651296876e-02 5.008539259699007484e-02 0.000000000000000000e+00 2.855643328197337572e-01 3.253543318427036812e-01 7.127454695206107971e-01 -6.031152953248454240e-01 0.000000000000000000e+00 -4.995626623053528448e-01 -1.231938036171346118e-01 -2.862428646901318263e-01 -3.032794407418728522e-01 0.000000000000000000e+00 1.604865685537621434e-01 2.331841475381541129e-01 5.209920546713840972e-01 -9.642465550829303345e-01
0.000000000000000000e+00 1.108352662766569630e-01 0.000000000000000000e+00 0.000000000000000000e+00 9.769862687665728518e-02 0.000000000000000000e+00 2.732475521044641642e-01 0.000000000000000000e+00 0.000000000000000000e+00 -1.066135302909896748e-01 0.000000000000000000e+00 -5.318932043523346698e-01 0.000000000000000000e+00 0.000000000000000000e+00 -5.197561537464419068e-01 0.000000000000000000e+00 1.936461353238257688e-01 0.000000000000000000e+00 0.000000000000000000e+00 -5.891592897507762494e-01
-4.239797928962517060e-01 -2.187537251377485170e-01 2.123287298040527626e-01 6.880922688991394920e-02 -2.394505729677346983e-01 -6.285637576780213065e-01 -1.976567335377985013e-01 2.642804946240925323e-01 -1.012623176506743938e-04 -5.607732309782138547e-01 4.797714016854438546e-01 -1.222128822487656696e-01 -1.978615078384645121e-01 3.359453195872656728e-02 -1.586990933539606796e-01 5.202838050444442697e-01 5.816494205672795292e-01 2.705515725094215229e-02 5.088005730223211787e-01 -5.813542109821989712e-01
-1.392534774291622757e-01 0.000000000000000000e+00 0.000000000000000000e+00 -1.190406117516148166e-01 8.347659514848392026e-02 -3.975599746942457546e-01 0.000000000000000000e+00 0.000000000000000000e+00 -3.576850634867451695e-01 -1.372888333742406930e-01 6.984488280872469534e-01 0.000000000000000000e+00 0.000000000000000000e+00 6.804647757304778111e-01 -4.704419327801118711e-01 -2.584378653968557038e-01 0.000000000000000000e+00 0.000000000000000000e+00 -2.090409675607468598e-01 -6.306420971283595023e-01
-1.259097587875012969e-01 7.429778178239181824e-03 3.601218225604786716e-02 0.000000000000000000e+00 0.000000000000000000e+00 1.008893996757368738e-01 3.965416131651124387e-01 -7.357422987356650179e-03 0.000000000000000000e+00 0.000000000000000000e+00 7.246711563894947528e-01 5.895283343233780060e-02 -3.059947699013832456e-01 0.000000000000000000e+00 0.000000000000000000e+00 8.439880595313625777e-01 8.534790901467851354e-01 -3.422924404228900319e-01 0.000000000000000000e+00 0.000000000000000000e+00
-1.250126027429256270e+00 -8.562013579876535108e-01 4.582956794541084289e-01 -1.211950990676773227e-01 -6.997067719220416704e-01 2.151453467337696157e-01 4.404668362994828001e-01 2.888505144542509173e-01 8.448520811313069423e-01 -5.385470565486777383e-01 6.737327190233191598e-02 -4.611350127345519301e-01 -6.073302805308287977e-02 -5.373650930576003709e-02 -4.173169898111556697e-01 1.978100221585300522e-01 3.508996619129626238e-01 -1.210208406055916786e-01 -7.647248437104198215e-02 -4.077359932842851697e-01
0.000000000000000000e+00 1.038116603219571138e-01 0.000000000000000000e+00 0.000000000000000000e+00 8.674881847907453536e-02 0.000000000000000000e+00 2.907347187929800736e-01 0.000000000000000000e+00 0.000000000000000000e+00 -1.099665517806962811e-01 0.000000000000000000e+00 -4.982270588908691011e-01 0.000000000000000000e+00 0.000000000000000000e+00 -5.061612843172685894e-01 0.000000000000000000e+00 1.987120149169827599e-01 0.000000000000000000e+00 0.000000000000000000e+00 -5.996435972373362899e-01
0.000000000000000000e+00 1.054494258229120990e-01 0.000000000000000000e+00 0.000000000000000000e+00 9.090105277864013456e-02 0.000000000000000000e+00 2.955332401611935333e-01 0.000000000000000000e+00 0.000000000000000000e+00 -9.982790483896342160e-02 0.000000000000000000e+00 -5.121269621392069427e-01 0.000000000000000000e+00 0.000000000000000000e+00 -4.884053504497425924e-01 0.000000000000000000e+00 1.788299740009189065e-01 0.000000000000000000e+00 0.000000000000000000e+00 -6.074581443485385090e-01
-2.006282534990306253e-03 1.253078613482463133e-01 0.000000000000000000e+00 0.000000000000000000e+00 9.334677498572471754e-02 3.317457314304640692e-02 3.209198660811040660e-01 0.000000000000000000e+00 0.000000000000000000e+00 -6.895776186826177434e-02 -5.107699459089516669e-03 -5.093469758948594439e-01 0.000000000000000000e+00 0.000000000000000000e+00 -5.120643162580477137e-01 2.798992903847261765e-02 2.140624655285122135e-01 0.000000000000000000e+00 0.000000000000000000e+00 -5.808743256339844452e-01
0.000000000000000000e+00 1.056426985478422925e-01 0.000000000000000000e+00 0.000000000000000000e+00 9.465225933076081011e-02 0.000000000000000000e+00 3.014771496079082236e-01 0.000000000000000000e+00 0.000000000000000000e+00 -9.065009705179383204e-02 0.000000000000000000e+00 -5.094450903695884048e-01 0.000000000000000000e+00 0.000000000000000000e+00 -5.115862296985234092e-01 0.000000000000000000e+00 1.968723206824220251e-01 0.000000000000000000e+00 0.000000000000000000e+00 -5.999835698380761029e-01
0.000000000000000000e+00 8.251389325441274569e-02 4.613819832889706762e-02 1.289532572249604270e-01 0.000000000000000000e+00 0.000000000000000000e+00 3.042654878548842201e-01 -6.794728955308933227e-02 -1.676416136971467519e-01 0.000000000000000000e+00 0.000000000000000000e+00 -4.744688068801214964e-01 -3.281440984607208455e-01 -7.319227819868562301e-01 0.000000000000000000e+00 0.000000000000000000e+00 2.289452714677620848e-01 -3.589282414660676657e-01 -8.246043254985213622e-01 0.000000000000000000e+00
0.000000000000000000e+00 9.746412065782178447e-02 9.009777724919304509e-02 2.142889964894540977e-01 -7.513311891416370181e-02 0.000000000000000000e+00 3.014322834517318972e-01 -8.028968998066920992e-02 -1.743160635163200911e-01 3.021671718019575126e-02 0.000000000000000000e+00 -5.110527923356298352e-01 1.600144154293750565e-02 8.549461485585446718e-02 -5.681158361206931628e-01 0.000000000000000000e+00 2.211193206445293824e-01 -2.200033399292086189e-01 -5.197040803948814736e-01 -2.228615546873133624e-01
-1.348944340252709040e-01 0.000000000000000000e+00 0.000000000000000000e+00 -1.640636255089161499e-01 1.209639598612453348e-01 -3.974797938265827169e-01 0.000000000000000000e+00 0.000000000000000000e+00 -3.641529935501019444e-01 -1.337279474010003022e-01 6.818094260482640001e-01 0.000000000000000000e+00 0.000000000000000000e+00 6.454040338075367478e-01 -4.724021119893788145e-01 -2.352460590619228353e-01 0.000000000000000000e+00 0.000000000000000000e+00 -2.084084749567919892e-01 -6.211463928876264085e-01
1.072247216775613216e-02 9.961117583926820673e-02 0.000000000000000000e+00 0.000000000000000000e+00 1.053637219228552163e-01 -3.903503844603830458e-03 2.986820933641355369e-01 0.000000000000000000e+00 0.000000000000000000e+00 -1.056146119980529013e-01 1.568516294829523650e-02 -4.900837983658251074e-01 0.000000000000000000e+00 0.000000000000000000e+00 -4.779670553365735208e-01 -1.080229322522088808e-02 1.804857947753245873e-01 0.000000000000000000e+00 0.000000000000000000e+00 -6.086019903119813668e-01
0.000000000000000000e+00 1.210225553408697252e-01 -1.482505455802204108e-01 -3.428387201665202277e-01 3.431709903895555636e-01 0.000000000000000000e+00 2.920622964101845520e-01 6.188766043224991353e-02 1.253770329240615489e-01 -1.825908945124816163e-01 0.000000000000000000e+00 -4.917259241420844362e-01 -2.159544952151123132e-01 -4.839679737140208937e-01 -1.833646372513658140e-01 0.000000000000000000e+00 2.273091730463603077e-01 -2.600789169871374762e-01 -6.338227951595765131e-01 -1.426660482476128089e-01
-6.322769773261769366e-01 -3.662853314793732551e-01 0.000000000000000000e+00 -5.845460172408246668e-01 5.395421030983199584e-02 -4.401339455018234426e-01 -1.728570105689952729e-02 0.000000000000000000e+00 -4.391434712837771759e-01 -9.753790961265484949e-02 -3.464671186007656223e-01 -7.705712712759533733e-01 0.000000000000000000e+00 -2.776541452139311694e-01 -5.635385898929995419e-01 -2.139302389969792717e-01 3.976138206686424814e-02 0.000000000000000000e+00 -1.860923215766057404e-01 -6.160078251365997959e-01
0.000000000000000000e+00 1.080783840819379560e-01 -2.801240005633708757e-03 1.519502554856136736e-02 8.240215288706505270e-02 0.000000000000000000e+00 2.704082412854340589e-01 2.092520221631532507e-01 4.366957654631626884e-01 -4.028000586022862928e-01 0.000000000000000000e+00 -4.892785893042067014e-01 -1.841191140927836978e-01 -4.122260199021730021e-01 -2.297669689801451476e-01 0.000000000000000000e+00 2.260444882842885805e-01 -1.648375886696814563e-01 -3.871236962168408402e-01 -3.166381292025493011e-01
-1.253462797823533814e-01 0.000000000000000000e+00 0.000000000000000000e+00 -8.837197520318480770e-02 5.131735124978271945e-02 -4.085613663789476879e-01 0.000000000000000000e+00 0.000000000000000000e+00 -3.968834974957003436e-01 -1.134612539800690656e-01 6.831142106878009823e-01 0.000000000000000000e+00 0.000000000000000000e+00 6.474237192160570142e-01 -4.485609260883660632e-01 -2.404997083565290350e-01 0.000000000000000000e+00 0.000000000000000000e+00 -2.223138317527353081e-01 -6.150884028082919119e-01
7.500017836958162709e-01 6.783263795833209819e-01 -1.921593993646072973e-01 2.537871916814243844e-01 4.679506377745420997e-01 -3.144136782858976131e-01 6.321968665802774057e-02 1.870616991963065523e-01 1.117988087421894622e-01 -3.754179649768356053e-01 3.498116586551175411e-01 -2.347119570281066270e-01 -1.088456658460624782e-01 1.290477957010327803e-01 -3.669680005344946316e-01 1.441727531344184077e-01 2.929149787119672554e-01 -4.974557626484515938e-02 -4.228542958281844566e-03 -4.729209847969240155e-01
6.069883316027462339e-01 5.427509729366849500e-01 0.000000000000000000e+00 5.728614333326980113e-01 1.303677376093725360e-01 5.013677640322009021e-02 3.453289495032653145e-01 0.000000000000000000e+00 2.010154993183521643e-02 -7.186159148519220830e-02 6.468100637439800904e-01 -3.292461325646695025e-02 0.000000000000000000e+00 5.741486123603609659e-01 -4.503668451030841124e-01 4.040941286042358249e-01 5.104572000541457433e-01 0.000000000000000000e+00 3.618440121860235781e-01 -5.669697218190475896e-01
0.000000000000000000e+00 1.064043769830297081e-01 0.000000000000000000e+00 0.000000000000000000e+00 8.617436073306458666e-02 0.000000000000000000e+00 3.058580149917104474e-01 0.000000000000000000e+00 0.000000000000000000e+00 -7.249113610017805798e-02 0.000000000000000000e+00 -5.008133673544780118e-01 0.000000000000000000e+00 0.000000000000000000e+00 -5.021051460448117121e-01 0.000000000000000000e+00 1.998534241088809338e-01 0.000000000000000000e+00 0.000000000000000000e+00 -6.099909847640402338e-01
0.000000000000000000e+00 9.422973150336483306e-02 1.948386780382222599e-02 0.000000000000000000e+00 9.126352549520604096e-02 0.000000000000000000e+00 3.066711653199604704e-01 -1.032160676385522613e-02 0.000000000000000000e+00 -1.076203903302004050e-01 0.000000000000000000e+00 -4.973408756887002236e-01 -9.306543776706154708e-03 0.000000000000000000e+00 -5.016429106307851438e-01 0.000000000000000000e+00 1.754311117970288880e-01 6.713811335133046398e-03 0.000000000000000000e+00 -6.003068822577737329e-01
0.000000000000000000e+00 8.900741678524105860e-02 0.000000000000000000e+00 0.000000000000000000e+00 8.295573943393218241e-02 0.000000000000000000e+00 2.826279666573614513e-01 0.000000000000000000e+00 0.000000000000000000e+00 -1.074622750144770406e-01 0.000000000000000000e+00 -5.168388704805527700e-01 0.000000000000000000e+00 0.000000000000000000e+00 -4.953320469422978212e-01 0.000000000000000000e+00 1.936622153516902867e-01 0.000000000000000000e+00 0.000000000000000000e+00 -6.166538403284266279e-01
0.000000000000000000e+00 9.462176758172301250e-02 0.000000000000000000e+00 -2.047385901342683306e-02 8.779831178117857016e-02 0.000000000000000000e+00 2.869617609799097191e-01 0.000000000000000000e+00 7.674677958267994010e-03 -1.084017276931158041e-01 0.000000000000000000e+00 -4.925560876365069340e-01 0.000000000000000000e+00 1.338406934681657390e-02 -4.998868239889295295e-01 0.000000000000000000e+00 1.724861679859671926e-01 0.000000000000000000e+00 -2.126350647649501158e-02 -5.856584135313402939e-01
-1.364294091455552083e-01 0.000000000000000000e+00 -8.797386728924265487e-03 -1.504701244609391586e-01 1.109108468831636329e-01 -3.810884559668057392e-01 0.000000000000000000e+00 1.631916839580664913e-01 3.129149679145118434e-02 -3.921818371256028390e-01 6.771641408519569749e-01 0.000000000000000000e+00 -2.808849044546615770e-01 -2.049657091760252736e-02 -3.239769007705013693e-02 -2.902421586247350138e-01 0.000000000000000000e+00 -5.680436640014469019e-02 -3.717041261095428428e-01 -5.164663484203564359e-01
-1.458134952400781115e-01 0.000000000000000000e+00 0.000000000000000000e+00 -1.029546243727827853e-01 6.291495765385854422e-02 -3.993632121862544793e-01 0.000000000000000000e+00 0.000000000000000000e+00 -3.984800787156461133e-01 -1.177375826408284532e-01 6.913143101126308920e-01 0.000000000000000000e+00 0.000000000000000000e+00 5.884683416461217176e-01 -4.130094312191309736e-01 -2.648678495374995334e-01 0.000000000000000000e+00 0.000000000000000000e+00 -2.470424657444869887e-01 -6.150372926524514394e-01
2.025065004538089963e-01 2.582537817035897021e-01 -7.809102040041120130e-02 0.000000000000000000e+00 2.482428244213154001e-01 -1.527307344083014273e-01 1.885219162335410592e-01 9.176643255889942175e-02 0.000000000000000000e+00 -1.812650568408882001e-01 -3.388304513138883367e-01 -7.572084327715029595e-01 1.263546189914473705e-01 0.000000000000000000e+00 -7.319318945890032069e-01 -8.174616627876164499e-01 -4.464439002068039120e-01 3.279225639181773677e-01 0.000000000000000000e+00 -1.185313500050029667e+00
0.000000000000000000e+00 1.213798899041480528e-01 0.000000000000000000e+00 0.000000000000000000e+00 1.146072049590662195e-01 0.000000000000000000e+00 3.007803291220770836e-01 0.000000000000000000e+00 0.000000000000000000e+00 -9.497861846069512171e-02 0.000000000000000000e+00 -5.051041275640091310e-01 0.000000000000000000e+00 0.000000000000000000e+00 -4.980541048281055261e-01 0.000000000000000000e+00 2.011257431421914210e-01 0.000000000000000000e+00 0.000000000000000000e+00 -5.975909850380843880e-01
0.000000000000000000e+00 1.017878855027748441e-01 6.218012710006078081e-02 1.424720057117488670e-01 0.000000000000000000e+00 0.000000000000000000e+00 3.131567332248537117e-01 -6.636651333471080272e-02 -1.449708804689698316e-01 0.000000000000000000e+00 0.000000000000000000e+00 -4.835315099352449630e-01 -3.194616873079443864e-01 -7.162795702571312928e-01 0.000000000000000000e+00 0.000000000000000000e+00 2.329587937698930911e-01 -3.806866290311755607e-01 -8.521982483917017737e-01 0.000000000000000000e+00
0.000000000000000000e+00 1.039972376626054767e-01 6.639898982883013501e-02 1.449314552909911347e-01 0.000000000000000000e+00 0.000000000000000000e+00 3.056552542857366994e-01 -5.427439745381685415e-02 -1.382313710084567271e-01 0.000000000000000000e+00 0.000000000000000000e+00 -4.776725308900034439e-01 -3.270308695259033782e-01 -7.321996576453784211e-01 0.000000000000000000e+00 0.000000000000000000e+00 2.380829713209357545e-01 -3.805989284055258381e-01 -8.687308727919301754e-01 0.000000000000000000e+00
0.000000000000000000e+00 1.061606959324509492e-01 8.462392817139516299e-02 1.577090031978173879e-01 0.000000000000000000e+00 0.000000000000000000e+00 3.081504515728312743e-01 -4.185944851969355951e-02 -1.258301898260835716e-01 0.000000000000000000e+00 0.000000000000000000e+00 -4.707444411859664224e-01 -2.966521028912244562e-01 -6.953854101251136788e-01 0.000000000000000000e+00 0.000000000000000000e+00 2.208539711661916261e-01 -3.524089452280061985e-01 -8.483823990551386807e-01 0.000000000000000000e+00
0.000000000000000000e+00 9.600742992093609651e-02 7.199333491200937685e-02 1.289930945704368948e-01 0.000000000000000000e+00 0.000000000000000000e+00 2.973368555665132917e-01 -5.280860789696514845e-02 -1.332075567139139882e-01 0.000000000000000000e+00 0.000000000000000000e+00 -4.863747827503205334e-01 -3.412751034770017955e-01 -7.448158632042936045e-01 0.000000000000000000e+00 0.000000000000000000e+00 2.331119435305643861e-01 -3.765606546285349965e-01 -8.441951036113043427e-01 0.000000000000000000e+00
0.000000000000000000e+00 9.275016397714205829e-02 6.413299283076299984e-02 1.263007108750163199e-01 0.000000000000000000e+00 0.000000000000000000e+00 3.137574008319569119e-01 -5.389000290059764442e-02 -1.383789469072997103e-01 0.000000000000000000e+00 0.000000000000000000e+00 -4.690109245191272924e-01 -3.295988345996117563e-01 -7.117894579109531605e-01 0.000000000000000000e+00 0.000000000000000000e+00 2.381514261163887869e-01 -3.578139110229445197e-01 -8.370581269640549049e-01 0.000000000000000000e+00
0.000000000000000000e+00 9.293671703096850756e-02 4.164934980677323373e-02 1.211825483292011396e-01 0.000000000000000000e+00 0.000000000000000000e+00 2.986474130503292135e-01 -5.036229691901713407e-02 -1.447902177883967911e-01 0.000000000000000000e+00 0.000000000000000000e+00 -4.807412836070140694e-01 -3.437185259381404512e-01 -7.372255108692880032e-01 0.000000000000000000e+00 0.000000000000000000e+00 2.128563027858649537e-01 -3.620569981808805515e-01 -8.440407214250892354e-01 0.000000000000000000e+00
-1.496736657858925013e-01 0.000000000000000000e+00 6.003201202530675934e-02 -5.677997870070527510e-04 0.000000000000000000e+00 -4.326245285924406048e-01 0.000000000000000000e+00 -4.879229447019815813e-02 -5.402055728022633341e-01 0.000000000000000000e+00 6.543175823916616007e-01 0.000000000000000000e+00 -2.769156846343318601e-01 -4.931931755379152099e-02 0.000000000000000000e+00 -3.401635589886764510e-01 0.000000000000000000e+00 -3.621727599084745841e-01 -1.173881041631828159e+00 0.000000000000000000e+00
-2.150797419422184331e-01 -5.020604309996296033e-02 2.764679381516821355e-02 -1.605680692033178980e-01 5.996023695782212726e-02 2.633864997357986404e-01 5.237437443195800402e-01 -1.577015300696320288e-01 -1.128372460505280561e-01 1.712542571211274067e-01 8.273509479473231676e-02 -4.110648085224686277e-01 -2.683392594143768628e-01 -5.482717496762771203e-01 -4.569684780016322612e-02 2.199752839671884064e-01 3.670774332867772771e-01 -1.036277978240541381e-01 -2.396614725285414749e-02 -4.280163728832747649e-01
0.000000000000000000e+00 1.142748430919511421e-01 0.000000000000000000e+00 0.000000000000000000e+00 9.431962425886340762e-02 0.000000000000000000e+00 3.001379421416262017e-01 0.000000000000000000e+00 0.000000000000000000e+00 -9.074404368108916763e-02 0.000000000000000000e+00 -5.082836888013744225e-01 0.000000000000000000e+00 0.000000000000000000e+00 -4.966776162151291807e-01 0.000000000000000000e+00 1.900523664298232329e-01 0.000000000000000000e+00 0.000000000000000000e+00 -5.969266215713074919e-01
0.000000000000000000e+00 1.046926378751684844e-01 0.000000000000000000e+00 -1.706462879040070157e-02 1.167094414374329620e-01 0.000000000000000000e+00 2.924538753192714169e-01 0.000000000000000000e+00 -1.648391220232748797e-02 -8.976132098193373432e-02 0.000000000000000000e+00 -5.179931147493742616e-01 0.000000000000000000e+00 3.634590883278164541e-02 -5.428558689182819696e-01 0.000000000000000000e+00 2.007455033927456056e-01 0.000000000000000000e+00 -1.421043300799798396e-02 -5.900255677311060376e-01
2.210194207510678133e-02 1.288929334284151518e-01 6.398251032382015757e-02 1.593209648805989642e-01 0.000000000000000000e+00 -1.690704285135033735e-01 1.868385034125004118e-01 -6.455205915827215424e-02 -3.087778286612846701e-01 0.000000000000000000e+00 5.223402291405002673e-01 -8.239643370496145536e-02 -2.903953718331508393e-01 -1.850973556567099554e-01 0.000000000000000000e+00 5.804102439029581451e-01 6.754527987079037565e-01 -3.394473802919678596e-01 -2.641815276116098454e-01 0.000000000000000000e+00
0.000000000000000000e+00 9.653263103196411954e-02 7.325371810883250789e-02 1.503154303218154353e-01 7.962363509903876146e-03 0.000000000000000000e+00 2.879795734855075118e-01 8.275535661030782031e-02 1.285565398960661909e-01 -1.818945475865821060e-01 0.000000000000000000e+00 -4.989000832778868189e-01 -3.251202064550956505e-03 9.967995039909915977e-03 -5.136830911690175583e-01 0.000000000000000000e+00 2.070851922232840869e-01 -8.169248876158916040e-02 -2.156503899702195692e-01 -4.368169213765819014e-01
4.648856504011521576e-03 1.195941997163493808e-01 0.000000000000000000e+00 0.000000000000000000e+00 1.111317148464391197e-01 2.581913671351605474e-02 3.267629041294070613e-01 0.000000000000000000e+00 0.000000000000000000e+00 -8.364798361110691027e-02 -1.072490085031398491e-02 -5.198742716365228889e-01 0.000000000000000000e+00 0.000000000000000000e+00 -5.213596983325261558e-01 -3.578259155194867674e-02 1.630154120308109356e-01 0.000000000000000000e+00 0.000000000000000000e+00 -6.356552253428424670e-01
0.000000000000000000e+00 1.157590655865160245e-01 7.500897783643822869e-02 1.360606198114175935e-01 0.000000000000000000e+00 0.000000000000000000e+00 3.129975462843753164e-01 -5.226461189175537342e-02 -1.302914664971005776e-01 0.000000000000000000e+00 0.000000000000000000e+00 -4.985857128304597707e-01 -3.106351928550691865e-01 -7.118086270045501651e-01 0.000000000000000000e+00 0.000000000000000000e+00 2.253770055586443444e-01 -3.936330594423700924e-01 -8.789051607062577931e-01 0.000000000000000000e+00
-1.429882616732332523e-01 0.000000000000000000e+00 4.795113395161346159e-02 -1.228300430758218903e-01 1.165165492934982505e-01 -3.984568335219419444e-01 0.000000000000000000e+00 -4.623690327993862370e-02 -4.607361112735872677e-01 -7.602336094316369808e-02 6.671281229164002236e-01 0.000000000000000000e+00 -2.557937901850345641e-01 1.484324269054979745e-02 -6.174052300785545094e-02 -2.835928922435209110e-01 0.000000000000000000e+00 -1.598865415355788799e-01 -6.149475720026809089e-01 -3.656827325058099043e-01
-1.439119579701461649e-01 0.000000000000000000e+00 -6.603901390132932425e-02 -2.666326209591945995e-01 1.893670398538322974e-01 -4.251908948898653340e-01 0.000000000000000000e+00 -1.741444610810284899e-01 -8.153222954958836421e-01 1.820872818831213713e-01 6.518033415832454880e-01 0.000000000000000000e+00 -3.096464126889124091e-01 -5.164028781560130177e-02 -3.728281760563363634e-02 -2.838301861769825796e-01 0.000000000000000000e+00 -2.302039878233961001e-01 -7.773809920424361586e-01 -2.619573362235186331e-01
-1.514642319154292371e-01 0.000000000000000000e+00 0.000000000000000000e+00 -1.526620737827409646e-01 1.092326924845025971e-01 -3.996631123840260202e-01 0.000000000000000000e+00 0.000000000000000000e+00 -3.749290912149618737e-01 -1.259585332999125507e-01 7.046217787932035348e-01 0.000000000000000000e+00 0.000000000000000000e+00 6.373515543249858029e-01 -4.584508258028538452e-01 -2.555797473888307136e-01 0.000000000000000000e+00 0.000000000000000000e+00 -2.481349931684673771e-01 -5.877920224325136056e-01
-1.234438598306856066e-01 0.000000000000000000e+00 4.261925109080652585e-02 0.000000000000000000e+00 -2.099753686416171942e-03 -3.780651151091993234e-01 0.000000000000000000e+00 1.701137048924189488e-01 0.000000000000000000e+00 -3.627283209274642650e-01 6.441479534522388528e-01 0.000000000000000000e+00 -2.673205326122823910e-01 0.000000000000000000e+00 -4.255904252795399134e-02 -2.657321662383663186e-01 0.000000000000000000e+00 1.232804018840141791e-01 0.000000000000000000e+00 -7.686598875804161457e-01
-2.191596210914758744e-02 8.442184268210944920e-02 0.000000000000000000e+00 0.000000000000000000e+00 8.549661844623254736e-02 2.907704586369269650e-02 3.164202003814251540e-01 0.000000000000000000e+00 0.000000000000000000e+00 -7.848239258236477944e-02 -2.227831640814718905e-02 -5.352990269930294476e-01 0.000000000000000000e+00 0.000000000000000000e+00 -5.222975772945449568e-01 3.176178401220705605e-02 2.148210450741408484e-01 0.000000000000000000e+00 0.000000000000000000e+00 -5.685511508696048377e-01
0.000000000000000000e+00 9.315395468676869462e-02 0.000000000000000000e+00 -2.621170935092623569e-02 1.037886321425646879e-01 0.000000000000000000e+00 3.022834765184619910e-01 0.000000000000000000e+00 -2.106147717539744516e-02 -8.284030793325089514e-02 0.000000000000000000e+00 -5.105283955430743870e-01 0.000000000000000000e+00 1.351463672795364182e-02 -5.116945593701375250e-01 0.000000000000000000e+00 2.021528674120147417e-01 0.000000000000000000e+00 -1.686487791951412143e-02 -5.784502633030242924e-01
0.000000000000000000e+00 1.108515900754014627e-01 0.000000000000000000e+00 0.000000000000000000e+00 9.962384278562008699e-02 0.000000000000000000e+00 2.914921731377784764e-01 0.000000000000000000e+00 0.000000000000000000e+00 -1.094074553691895685e-01 0.000000000000000000e+00 -5.126919556741876827e-01 0.000000000000000000e+00 0.000000000000000000e+00 -5.160947638692450212e-01 0.000000000000000000e+00 2.032191147906777517e-01 0.000000000000000000e+00 0.000000000000000000e+00 -5.874648537129470993e-01
0.000000000000000000e+00 1.040914499109949765e-01 0.000000000000000000e+00 1.412060865614268336e-03 9.428412696423864314e-02 0.000000000000000000e+00 2.926498339020439099e-01 0.000000000000000000e+00 -1.638526249413302036e-02 -8.111425449246920105e-02 0.000000000000000000e+00 -5.119014728599412534e-01 0.000000000000000000e+00 1.095700647182006222e-02 -5.103820833153398517e-01 0.000000000000000000e+00 2.034696331785119938e-01 0.000000000000000000e+00 -3.365461892913607089e-02 -5.694923233519241235e-01
-1.426613924464419092e-01 0.000000000000000000e+00 0.000000000000000000e+00 -1.342596773807466226e-01 8.532128701876452725e-02 -3.981266477228008194e-01 0.000000000000000000e+00 0.000000000000000000e+00 -3.912480704679286436e-01 -1.079195765302318200e-01 6.752768513509985748e-01 0.000000000000000000e+00 0.000000000000000000e+00 6.102750464455161117e-01 -4.396318365466282962e-01 -2.758954014410108235e-01 0.000000000000000000e+00 0.000000000000000000e+00 -2.913986776077213126e-01 -5.678005396297605145e-01
-1.160168139368435436e-01 0.000000000000000000e+00 0.000000000000000000e+00 -8.767759291732568627e-02 6.948839038320668571e-02 -4.201373961581504890e-01 0.000000000000000000e+00 0.000000000000000000e+00 -4.111243134184487946e-01 -9.567677210295762180e-02 6.819117336159167264e-01 0.000000000000000000e+00 0.000000000000000000e+00 6.466392798952557142e-01 -4.645201032939984542e-01 -2.771696849014304020e-01 0.000000000000000000e+00 0.000000000000000000e+00 -2.867012197440002019e-01 -5.791777597580495263e-01
-6.855781732683247087e-01 -4.017597534220020417e-01 3.880223136151933483e-02 -5.443161103756486430e-01 0.000000000000000000e+00 -1.671754457732151089e-01 1.849049928783585983e-01 -4.709214463649591398e-02 -3.034735414681851706e-01 0.000000000000000000e+00 2.798839601013315415e-01 -2.718270576393837512e-01 -3.162258607289306633e-01 -4.304260010678775394e-01 0.000000000000000000e+00 4.291834869054995671e-01 5.405884373008866817e-01 -3.379637767211974841e-01 -4.162871973565332451e-01 0.000000000000000000e+00
0.000000000000000000e+00 1.204770014072025497e-01 2.582331837288610182e-02 8.992399573643784783e-02 2.996497878595942577e-02 0.000000000000000000e+00 3.060717609806222206e-01 -5.541155588479724364e-02 -1.301813109245038846e-01 -4.276139101934250952e-03 0.000000000000000000e+00 -5.102813938394907822e-01 -4.217021218179024811e-02 -9.986819361142006135e-02 -4.400269229012036543e-01 0.000000000000000000e+00 2.321468600920487402e-01 -4.562459237621460661e-01 -1.055246677402549293e+00 1.446990989277643358e-01
-1.535272455049516982e-01 0.000000000000000000e+00 0.000000000000000000e+00 -1.298296164657335716e-01 8.891164152081350303e-02 -3.955139458808525355e-01 0.000000000000000000e+00 0.000000000000000000e+00 -3.489269027531806677e-01 -1.473514509368399894e-01 6.912626274673808746e-01 0.000000000000000000e+00 0.000000000000000000e+00 6.101556135880968901e-01 -4.316379416545439995e-01 -2.584811016140107220e-01 0.000000000000000000e+00 0.000000000000000000e+00 -2.291818420242709153e-01 -6.194261499612599975e-01
-2.439134742891416706e-03 1.022573324314602350e-01 0.000000000000000000e+00 0.000000000000000000e+00 8.875557710855880300e-02 5.281212530349587569e-02 3.444822004287667605e-01 0.000000000000000000e+00 0.000000000000000000e+00 -3.565484910892595394e-02 9.194577290604133424e-03 -5.015916252638897843e-01 0.000000000000000000e+00 0.000000000000000000e+00 -4.796979222760630046e-01 4.167379128816062900e-02 2.298190442109111220e-01 0.000000000000000000e+00 0.000000000000000000e+00 -5.521504707910857013e-01
0.000000000000000000e+00 1.245640527835965294e-01 -1.321335218598035932e-01 -2.907697525178088438e-01 2.898102536638599291e-01 0.000000000000000000e+00 2.930825083106313178e-01 9.840050098104520526e-03 -1.101601339632527626e-02 -8.672329414722235175e-02 0.000000000000000000e+00 -5.219645287250378463e-01 1.671068377115870474e-01 4.217700763292306920e-01 -7.981567859001982290e-01 0.000000000000000000e+00 2.047284605639424215e-01 -1.274670339478061742e-01 -3.102110984177732789e-01 -3.709793759413261283e-01
0.000000000000000000e+00 1.142196168135892753e-01 0.000000000000000000e+00 0.000000000000000000e+00 9.934145177452959052e-02 0.000000000000000000e+00 2.928295150838043370e-01 0.000000000000000000e+00 0.000000000000000000e+00 -1.090444540483687108e-01 0.000000000000000000e+00 -4.973193470156561102e-01 0.000000000000000000e+00 0.000000000000000000e+00 -4.913444130361826478e-01 0.000000000000000000e+00 2.095654914506451250e-01 0.000000000000000000e+00 0.000000000000000000e+00 -6.010079407615078750e-01
