0.000000000000000000e+00 0.000000000000000000e+00 0.000000000000000000e+00 0.000000000000000000e+00 0.000000000000000000e+00 0.000000000000000000e+00 0.000000000000000000e+00 0.000000000000000000e+00 0.000000000000000000e+00 0.000000000000000000e+00 0.000000000000000000e+00 0.000000000000000000e+00 0.000000000000000000e+00 0.000000000000000000e+00 0.000000000000000000e+00 0.000000000000000000e+00 0.000000000000000000e+00 0.000000000000000000e+00 0.000000000000000000e+00 0.000000000000000000e+00
0.000000000000000000e+00 0.000000000000000000e+00 -2.387153039036303270e-01 -1.762886872921851367e-01 0.000000000000000000e+00 0.000000000000000000e+00 0.000000000000000000e+00 -5.414429016546259965e-02 -3.854335207174036659e-01 0.000000000000000000e+00 0.000000000000000000e+00 0.000000000000000000e+00 2.244273373195371235e-02 1.336017243850535774e-01 0.000000000000000000e+00 0.000000000000000000e+00 0.000000000000000000e+00 3.409177416501362745e-01 -5.060273405703934191e-02 0.000000000000000000e+00
-2.313385328656684253e-02 0.000000000000000000e+00 0.000000000000000000e+00 0.000000000000000000e+00 0.000000000000000000e+00 -2.253839981590040620e-01 0.000000000000000000e+00 0.000000000000000000e+00 0.000000000000000000e+00 0.000000000000000000e+00 7.097641331065662751e-03 0.000000000000000000e+00 0.000000000000000000e+00 0.000000000000000000e+00 0.000000000000000000e+00 -3.071002720010356235e-01 0.000000000000000000e+00 0.000000000000000000e+00 0.000000000000000000e+00 0.000000000000000000e+00
0.000000000000000000e+00 0.000000000000000000e+00 0.000000000000000000e+00 0.000000000000000000e+00 2.042312225012745674e-01 0.000000000000000000e+00 0.000000000000000000e+00 0.000000000000000000e+00 0.000000000000000000e+00 -4.016350823061125980e-02 0.000000000000000000e+00 0.000000000000000000e+00 0.000000000000000000e+00 0.000000000000000000e+00 -8.150520872551092477e-01 0.000000000000000000e+00 0.000000000000000000e+00 0.000000000000000000e+00 0.000000000000000000e+00 -4.956027955514108463e-01
-4.793967382767676949e-02 5.610502981609780809e-02 0.000000000000000000e+00 0.000000000000000000e+00 2.154100024259563706e-01 9.258819874846785369e-02 3.490550373096305004e-01 0.000000000000000000e+00 0.000000000000000000e+00 -1.196540215645994221e-01 -7.527783690347188139e-02 -5.216038087211837260e-01 0.000000000000000000e+00 0.000000000000000000e+00 -5.587858431115947377e-01 4.478748032072320945e-02 1.792838146746159600e-01 0.000000000000000000e+00 0.000000000000000000e+00 -6.364704030609428242e-01
0.000000000000000000e+00 1.122977862717225439e-02 5.173264706561753190e-02 0.000000000000000000e+00 1.244385749424492538e-01 0.000000000000000000e+00 2.470934690512995857e-01 5.183915452701852444e-02 0.000000000000000000e+00 -8.378647709259166854e-02 0.000000000000000000e+00 -5.736563811054092854e-01 6.319116491769000143e-02 0.000000000000000000e+00 -4.538187681509979199e-01 0.000000000000000000e+00 2.555881009148459615e-01 -7.747192218518935553e-03 0.000000000000000000e+00 -6.510759246833733860e-01
1.928390541360499276e-03 4.350874813066474972e-02 0.000000000000000000e+00 0.000000000000000000e+00 1.114733370612212421e-01 2.880058156270363847e-03 2.848330350649997400e-01 0.000000000000000000e+00 0.000000000000000000e+00 -9.754081438464778930e-02 6.505683539143705327e-03 -5.011006269529179047e-01 0.000000000000000000e+00 0.000000000000000000e+00 -4.869581219374774506e-01 -2.199200750379245659e-02 1.801194770537571099e-01 0.000000000000000000e+00 0.000000000000000000e+00 -5.822746425342091303e-01
0.000000000000000000e+00 1.427768384006750657e-01 -5.916892356009500337e-02 8.815868308859709651e-03 4.474552971273364210e-02 0.000000000000000000e+00 3.371080171101788481e-01 -6.244133817683091003e-02 -1.298278172227406921e-02 -1.373999232835119710e-01 0.000000000000000000e+00 -4.659563403206035681e-01 1.929792397326390158e-02 8.793202704878469791e-03 -5.061927242521310211e-01 0.000000000000000000e+00 2.012399283982363729e-01 1.466378189726110295e-02 -1.247594757910238175e-02 -5.993572643822422386e-01
0.000000000000000000e+00 9.421174048669525569e-02 0.000000000000000000e+00 0.000000000000000000e+00 1.051178855817313379e-01 0.000000000000000000e+00 2.712800520758050782e-01 0.000000000000000000e+00 0.000000000000000000e+00 -8.685976853449813018e-02 0.000000000000000000e+00 -4.828265309087361734e-01 0.000000000000000000e+00 0.000000000000000000e+00 -5.275176777907049086e-01 0.000000000000000000e+00 2.035413812658267985e-01 0.000000000000000000e+00 0.000000000000000000e+00 -6.029744668774089655e-01
-1.098280429345893476e-02 9.211836823270794228e-02 0.000000000000000000e+00 -1.849062300397376303e-03 1.073943977866888139e-01 1.219206129800124404e-02 3.197546798112152477e-01 0.000000000000000000e+00 5.632372617493382888e-03 -1.269443944882779896e-01 7.638505162990139909e-03 -4.772099048897935902e-01 0.000000000000000000e+00 5.400706309597633897e-03 -5.142709617047517279e-01 1.545045499771029694e-02 2.000368304224547089e-01 0.000000000000000000e+00 -4.110585596209836642e-03 -5.938339897167160819e-01
0.000000000000000000e+00 1.102311010401643560e-01 -1.436484270961646201e-02 0.000000000000000000e+00 7.310759160034766002e-02 0.000000000000000000e+00 2.911164100216683814e-01 2.242843174788310828e-02 0.000000000000000000e+00 -9.234554047595150417e-02 0.000000000000000000e+00 -4.952858244016293265e-01 2.442762824385830492e-02 0.000000000000000000e+00 -4.893980005632872499e-01 0.000000000000000000e+00 1.816760274935542152e-01 3.303772104849164899e-03 0.000000000000000000e+00 -5.973016665099528666e-01
-2.904021447535357417e-02 9.640466380595848206e-02 0.000000000000000000e+00 0.000000000000000000e+00 1.197944754663247124e-01 -7.875228176797751528e-04 3.104478718147480887e-01 0.000000000000000000e+00 0.000000000000000000e+00 -9.967836258357531953e-02 -1.273333965800136020e-03 -4.862275567363201767e-01 0.000000000000000000e+00 0.000000000000000000e+00 -5.066118980576387321e-01 3.685187339949224077e-03 1.899060691034661907e-01 0.000000000000000000e+00 0.000000000000000000e+00 -6.066156054490193794e-01
0.000000000000000000e+00 8.691964081704284251e-02 1.150153627826948355e-02 8.963734121187609538e-03 1.235857261368005777e-01 0.000000000000000000e+00 3.341914732033788860e-01 -3.883609005072326259e-02 -1.307206411986196887e-02 -1.264855636547810858e-01 0.000000000000000000e+00 -5.000468634979805538e-01 2.280070805301932790e-02 1.301038452135518629e-02 -4.948128510972301664e-01 0.000000000000000000e+00 1.697799016643664338e-01 3.562918871737159009e-03 -1.924587128630959182e-02 -5.860963393382598863e-01
0.000000000000000000e+00 9.641987470483362466e-02 0.000000000000000000e+00 0.000000000000000000e+00 9.816753541996182941e-02 0.000000000000000000e+00 3.104897076848180948e-01 0.000000000000000000e+00 0.000000000000000000e+00 -1.114409393931792003e-01 0.000000000000000000e+00 -5.026094817030436479e-01 0.000000000000000000e+00 0.000000000000000000e+00 -4.889625186960795955e-01 0.000000000000000000e+00 1.896884959842260465e-01 0.000000000000000000e+00 0.000000000000000000e+00 -6.029378146551138684e-01
-1.506157338659270054e-02 8.592754956892832696e-02 1.967823005188312074e-02 4.258535596317052085e-03 1.195745021137747943e-01 -7.265288220306526448e-03 2.967554573894283787e-01 1.417307783641200136e-02 1.324535188135280567e-02 -1.172757270171458505e-01 1.563829513615096201e-02 -5.095688154226929445e-01 1.251448157441003607e-02 8.908465918938481692e-03 -5.046521744211400762e-01 -4.752044284254522237e-03 2.125512978074696191e-01 8.545261226690401002e-03 2.392572166264120628e-02 -6.052289519098694726e-01
0.000000000000000000e+00 1.139897722747174325e-01 0.000000000000000000e+00 0.000000000000000000e+00 8.536007431017898772e-02 0.000000000000000000e+00 2.807042401522882313e-01 0.000000000000000000e+00 0.000000000000000000e+00 -8.844814516581350761e-02 0.000000000000000000e+00 -4.987304021192152104e-01 0.000000000000000000e+00 0.000000000000000000e+00 -5.171334157130957898e-01 0.000000000000000000e+00 1.878573393023923177e-01 0.000000000000000000e+00 0.000000000000000000e+00 -5.926890551049758260e-01
-4.662377273906178655e-03 9.686339348400721527e-02 -2.377731726822654434e-02 0.000000000000000000e+00 1.017246827348875365e-01 3.090643645877187359e-03 3.058631648959148630e-01 -2.207110466960317263e-02 0.000000000000000000e+00 -1.178908263828293557e-01 8.933362782359356366e-03 -4.971102181762334649e-01 2.138942441022890356e-02 0.000000000000000000e+00 -4.894372309744837168e-01 5.831920569809241443e-03 1.912204185191520300e-01 8.021373213051734286e-03 0.000000000000000000e+00 -5.993444316351940193e-01
0.000000000000000000e+00 1.000501117414593771e-01 0.000000000000000000e+00 7.128080720156761661e-03 8.966343583644217907e-02 0.000000000000000000e+00 2.982097531692679548e-01 0.000000000000000000e+00 -6.708032458897535480e-03 -9.751425299569754790e-02 0.000000000000000000e+00 -5.429512416496412586e-01 0.000000000000000000e+00 -3.012828018094991511e-02 -4.681754275939088994e-01 0.000000000000000000e+00 1.750785589753620641e-01 0.000000000000000000e+00 -5.867661603126066161e-03 -5.770426219895207209e-01
-1.190359556344648684e-02 8.600354501444752719e-02 0.000000000000000000e+00 0.000000000000000000e+00 1.166123374523414941e-01 -6.531541578430929973e-03 3.097327743396307564e-01 0.000000000000000000e+00 0.000000000000000000e+00 -1.090419705775386855e-01 6.276691426778849281e-03 -4.904224984781782593e-01 0.000000000000000000e+00 0.000000000000000000e+00 -4.981791353214552465e-01 2.534648994662417124e-03 2.150674181624561143e-01 0.000000000000000000e+00 0.000000000000000000e+00 -6.212421236126638435e-01
0.000000000000000000e+00 9.067015915866155629e-02 0.000000000000000000e+00 0.000000000000000000e+00 1.160435343878411796e-01 0.000000000000000000e+00 3.042772535853374150e-01 0.000000000000000000e+00 0.000000000000000000e+00 -9.428536440861974566e-02 0.000000000000000000e+00 -4.909071854691992032e-01 0.000000000000000000e+00 0.000000000000000000e+00 -5.126706305327825008e-01 0.000000000000000000e+00 1.964617956138082489e-01 0.000000000000000000e+00 0.000000000000000000e+00 -6.101066314281264891e-01
0.000000000000000000e+00 7.413529380604885755e-02 0.000000000000000000e+00 0.000000000000000000e+00 1.158420538841500314e-01 0.000000000000000000e+00 3.015918021180288289e-01 0.000000000000000000e+00 0.000000000000000000e+00 -1.020534618294006018e-01 0.000000000000000000e+00 -4.932342932799251845e-01 0.000000000000000000e+00 0.000000000000000000e+00 -5.010426341249176740e-01 0.000000000000000000e+00 1.893150091980999039e-01 0.000000000000000000e+00 0.000000000000000000e+00 -5.782944182521690957e-01
0.000000000000000000e+00 1.063062250709165546e-01 0.000000000000000000e+00 0.000000000000000000e+00 1.037748162993770984e-01 0.000000000000000000e+00 3.019818501536205013e-01 0.000000000000000000e+00 0.000000000000000000e+00 -8.664175697061943238e-02 0.000000000000000000e+00 -4.915465313423002525e-01 0.000000000000000000e+00 0.000000000000000000e+00 -4.999750627373530931e-01 0.000000000000000000e+00 2.050327093920029931e-01 0.000000000000000000e+00 0.000000000000000000e+00 -6.069439311500606227e-01
-4.752689507443062442e-04 1.166730012303325986e-01 0.000000000000000000e+00 1.744898195606593358e-03 8.843327585799545809e-02 9.252856168906389150e-03 3.133341355379937188e-01 0.000000000000000000e+00 4.378202275808321803e-03 -1.165965212231558218e-01 -1.156030275294864761e-02 -5.075642597068932282e-01 0.000000000000000000e+00 -3.084077418544150032e-03 -4.970247260610321516e-01 4.596876106046925321e-03 1.982388187931400092e-01 0.000000000000000000e+00 -5.240719830097833806e-03 -6.022126218143388776e-01
0.000000000000000000e+00 8.727039155164659223e-02 0.000000000000000000e+00 0.000000000000000000e+00 1.040708040524229300e-01 0.000000000000000000e+00 3.110070686817999475e-01 0.000000000000000000e+00 0.000000000000000000e+00 -1.136493257487638242e-01 0.000000000000000000e+00 -4.984250712876445721e-01 0.000000000000000000e+00 0.000000000000000000e+00 -4.991195031479185307e-01 0.000000000000000000e+00 2.079390414417953414e-01 0.000000000000000000e+00 0.000000000000000000e+00 -5.922049187061926290e-01
0.000000000000000000e+00 7.102047374259591594e-02 0.000000000000000000e+00 0.000000000000000000e+00 1.204534859715916811e-01 0.000000000000000000e+00 2.964200851374928503e-01 0.000000000000000000e+00 0.000000000000000000e+00 -1.037899603666356668e-01 0.000000000000000000e+00 -4.859462077780246081e-01 0.000000000000000000e+00 0.000000000000000000e+00 -5.169504147566471586e-01 0.000000000000000000e+00 1.986279579969977838e-01 0.000000000000000000e+00 0.000000000000000000e+00 -6.027132495374332155e-01
0.000000000000000000e+00 1.128618203293230010e-01 -2.098268251878072227e-02 0.000000000000000000e+00 8.866067405588566597e-02 0.000000000000000000e+00 3.148030870085075650e-01 -1.353491477848996552e-02 0.000000000000000000e+00 -1.236375466830626491e-01 0.000000000000000000e+00 -4.865212714905935987e-01 -5.686330716200813790e-03 0.000000000000000000e+00 -5.389933957860750802e-01 0.000000000000000000e+00 1.985342215086219886e-01 -5.695364568848865217e-03 0.000000000000000000e+00 -5.944571394199997805e-01
0.000000000000000000e+00 1.067342681213938743e-01 0.000000000000000000e+00 6.202138877490202297e-05 1.026799666814858375e-01 0.000000000000000000e+00 3.147531078539082539e-01 0.000000000000000000e+00 1.351981384992502824e-02 -9.921145694418287420e-02 0.000000000000000000e+00 -5.152635391721487323e-01 0.000000000000000000e+00 -8.639142990675979447e-03 -5.009393024412086559e-01 0.000000000000000000e+00 2.007665334848065808e-01 0.000000000000000000e+00 -1.106533356845779137e-02 -6.047974711715449203e-01
0.000000000000000000e+00 8.922015296122662309e-02 0.000000000000000000e+00 0.000000000000000000e+00 1.022006918050050867e-01 0.000000000000000000e+00 3.143646393315538967e-01 0.000000000000000000e+00 0.000000000000000000e+00 -1.033336013451027491e-01 0.000000000000000000e+00 -5.194010145906029496e-01 0.000000000000000000e+00 0.000000000000000000e+00 -4.895882956740933989e-01 0.000000000000000000e+00 1.941620788381532847e-01 0.000000000000000000e+00 0.000000000000000000e+00 -5.978555556358903234e-01
0.000000000000000000e+00 1.066536681109734042e-01 0.000000000000000000e+00 0.000000000000000000e+00 1.054236498257697385e-01 0.000000000000000000e+00 2.990908689524467423e-01 0.000000000000000000e+00 0.000000000000000000e+00 -9.791251326063984961e-02 0.000000000000000000e+00 -5.031554950277610239e-01 0.000000000000000000e+00 0.000000000000000000e+00 -5.040335410064887833e-01 0.000000000000000000e+00 1.981842326900805362e-01 0.000000000000000000e+00 0.000000000000000000e+00 -6.020031732094497379e-01
-2.701640606318150145e-03 1.056119167648943286e-01 0.000000000000000000e+00 4.939427940755625884e-03 8.863407564752902312e-02 5.658696878428059844e-03 3.092596092374075289e-01 0.000000000000000000e+00 -3.562031652022168253e-03 -1.090885772736269327e-01 1.633896804413309881e-02 -4.859886658546169746e-01 0.000000000000000000e+00 1.941422319506728653e-02 -5.188794268067988824e-01 1.658126476663204785e-02 1.934418690243159544e-01 0.000000000000000000e+00 -2.005898674500988799e-04 -6.117093890358937802e-01
0.000000000000000000e+00 1.297443739713159405e-01 -2.802290881954509760e-02 0.000000000000000000e+00 7.054924134410112124e-02 0.000000000000000000e+00 2.861646562988441889e-01 -9.560330969538392842e-04 0.000000000000000000e+00 -8.229165730532740641e-02 0.000000000000000000e+00 -5.363060885687734869e-01 3.451246624083884051e-02 0.000000000000000000e+00 -4.798463194054323200e-01 0.000000000000000000e+00 1.863721968627619074e-01 -1.109042078812303225e-03 0.000000000000000000e+00 -5.984413545950423297e-01
-1.011326428735269053e-02 1.123452016966541289e-01 0.000000000000000000e+00 0.000000000000000000e+00 1.111155976047352306e-01 3.978402811871871621e-03 3.107045357366952087e-01 0.000000000000000000e+00 0.000000000000000000e+00 -1.151457756875254590e-01 9.445670377604853396e-03 -4.957123708769720083e-01 0.000000000000000000e+00 0.000000000000000000e+00 -5.100798288973812378e-01 7.739111982142507853e-03 2.178280517789984438e-01 0.000000000000000000e+00 0.000000000000000000e+00 -6.215644586760051826e-01
0.000000000000000000e+00 9.564725350616301580e-02 0.000000000000000000e+00 0.000000000000000000e+00 9.623173169909200741e-02 0.000000000000000000e+00 3.053130641401219370e-01 0.000000000000000000e+00 0.000000000000000000e+00 -1.027508131883185377e-01 0.000000000000000000e+00 -4.848366171226995425e-01 0.000000000000000000e+00 0.000000000000000000e+00 -4.875132457509614992e-01 0.000000000000000000e+00 2.006523152398612120e-01 0.000000000000000000e+00 0.000000000000000000e+00 -6.027820078836114703e-01
2.166809775845215773e-03 8.821203350904563423e-02 -8.536233168650465830e-03 -1.068258053007445710e-02 1.245072923938484316e-01 1.687895034990201382e-02 3.394351705838121736e-01 -4.013252500502157566e-02 9.217816083926008708e-03 -1.455088571758141880e-01 3.532151969414135204e-04 -4.976559412096253077e-01 -1.739669345536312001e-02 1.914017833298905201e-03 -5.073772456086587113e-01 2.541128844070074822e-03 2.040331553257971053e-01 4.733701592728553620e-03 -2.073376570122359083e-03 -6.048650618343827112e-01
0.000000000000000000e+00 7.549955326032230241e-02 0.000000000000000000e+00 0.000000000000000000e+00 1.087434777827200466e-01 0.000000000000000000e+00 2.880055080225288333e-01 0.000000000000000000e+00 0.000000000000000000e+00 -8.659775573355857348e-02 0.000000000000000000e+00 -5.174445804851283137e-01 0.000000000000000000e+00 0.000000000000000000e+00 -4.941913480009477166e-01 0.000000000000000000e+00 1.984441804590423575e-01 0.000000000000000000e+00 0.000000000000000000e+00 -6.020691876976463908e-01
0.000000000000000000e+00 1.123639320334326869e-01 -2.253547943889182975e-02 0.000000000000000000e+00 8.280276685869093767e-02 0.000000000000000000e+00 3.059033988534430870e-01 -2.414364659559967846e-02 0.000000000000000000e+00 -1.214446377882904410e-01 0.000000000000000000e+00 -5.337179952120671977e-01 1.673173965552382861e-02 0.000000000000000000e+00 -4.646997392235742708e-01 0.000000000000000000e+00 2.100080386808702848e-01 -1.422173919929941785e-02 0.000000000000000000e+00 -6.040950813680709963e-01
-2.706943735415030805e-02 6.627978987624288942e-02 0.000000000000000000e+00 8.411383678759182247e-03 1.137143508557784954e-01 -1.511918330602882339e-02 2.730839203224319500e-01 0.000000000000000000e+00 -2.906288440300323558e-02 -5.663010386463869505e-02 8.721771356112640802e-03 -4.915573855908557110e-01 0.000000000000000000e+00 1.157378217782071422e-02 -5.097813577216818715e-01 6.562823313555813873e-03 2.185454428992216758e-01 0.000000000000000000e+00 1.113675439897637669e-02 -6.301460682262107760e-01
0.000000000000000000e+00 3.745122761663172845e-02 3.573362072134270845e-02 0.000000000000000000e+00 1.524652108276866036e-01 0.000000000000000000e+00 3.043119457584264609e-01 -2.189673379247837615e-03 0.000000000000000000e+00 -8.609333604127891726e-02 0.000000000000000000e+00 -5.221625767552400266e-01 1.770952494036231659e-02 0.000000000000000000e+00 -4.957982455269903110e-01 0.000000000000000000e+00 2.067835395186960745e-01 4.555723008512229354e-03 0.000000000000000000e+00 -6.053487756370889983e-01
0.000000000000000000e+00 1.010790980979031778e-01 0.000000000000000000e+00 3.280076857614161803e-03 8.072241544125868806e-02 0.000000000000000000e+00 3.185346777425093756e-01 0.000000000000000000e+00 1.036783798625239700e-02 -9.774295622651957283e-02 0.000000000000000000e+00 -4.594417903347660093e-01 0.000000000000000000e+00 2.064059323578540384e-02 -5.323485647701672319e-01 0.000000000000000000e+00 2.145323898434721988e-01 0.000000000000000000e+00 -7.764270651106193466e-03 -6.344649986726026425e-01
-5.696002373568430886e-03 1.034651209697269869e-01 0.000000000000000000e+00 0.000000000000000000e+00 8.031231136455255215e-02 3.941974036072216393e-04 2.871323094933087572e-01 0.000000000000000000e+00 0.000000000000000000e+00 -8.701083950428963043e-02 -1.378326582169976319e-02 -5.148151222730356080e-01 0.000000000000000000e+00 0.000000000000000000e+00 -4.774117953788254431e-01 2.221343441466872362e-02 1.914976868548794731e-01 0.000000000000000000e+00 0.000000000000000000e+00 -6.019564113494765278e-01
0.000000000000000000e+00 1.011815930267482150e-01 0.000000000000000000e+00 0.000000000000000000e+00 9.041124819034565552e-02 0.000000000000000000e+00 2.919621800132679024e-01 0.000000000000000000e+00 0.000000000000000000e+00 -7.358580950300847023e-02 0.000000000000000000e+00 -4.780893387697097152e-01 0.000000000000000000e+00 0.000000000000000000e+00 -4.862984213636527553e-01 0.000000000000000000e+00 1.938164243184160862e-01 0.000000000000000000e+00 0.000000000000000000e+00 -5.842812770661454103e-01
0.000000000000000000e+00 4.754984970606371264e-02 7.378676789637174036e-03 -2.709766382045616581e-02 1.340872366622419543e-01 0.000000000000000000e+00 2.937908543964695696e-01 -1.145949148646976772e-02 -2.365273275108520368e-04 -9.363237593723114371e-02 0.000000000000000000e+00 -4.869880583969503629e-01 1.259392937905853480e-02 5.608762733793487554e-05 -5.145649827284806133e-01 0.000000000000000000e+00 2.108229296289503285e-01 -1.380286898659015618e-02 -2.038037897672013640e-02 -6.094469795983870064e-01
-1.300882732601129146e-02 1.026041419837844110e-01 0.000000000000000000e+00 0.000000000000000000e+00 9.320861704971759865e-02 3.926723317313970257e-03 3.098484602288801848e-01 0.000000000000000000e+00 0.000000000000000000e+00 -1.020615109596938047e-01 -1.909370353016854802e-02 -4.900035946445302493e-01 0.000000000000000000e+00 0.000000000000000000e+00 -5.084448557732399454e-01 4.190140828612372477e-03 1.899103313837895435e-01 0.000000000000000000e+00 0.000000000000000000e+00 -5.935517105102293689e-01
0.000000000000000000e+00 1.336104937452316788e-01 -5.585836378317197287e-02 0.000000000000000000e+00 6.372349394450613214e-02 0.000000000000000000e+00 3.236013538221170216e-01 -1.698630361046644249e-02 0.000000000000000000e+00 -1.182401297675985952e-01 0.000000000000000000e+00 -4.985809421152092025e-01 2.551318859953506310e-03 0.000000000000000000e+00 -5.122119167456177236e-01 0.000000000000000000e+00 1.655433540030693540e-01 2.536567981607333599e-02 0.000000000000000000e+00 -5.635939171676682680e-01
-7.203695608325500627e-03 1.154009753024248242e-01 0.000000000000000000e+00 1.746980517068986993e-02 8.938997393122559421e-02 1.831084426682147697e-03 2.775828529438351122e-01 0.000000000000000000e+00 -2.297278827845256749e-02 -6.553452152785596563e-02 -1.274643075973524563e-03 -4.834444742266353900e-01 0.000000000000000000e+00 5.214215291880882654e-03 -5.144153698597642155e-01 2.408801554984987998e-03 2.154173542938258579e-01 0.000000000000000000e+00 9.482426506037184774e-03 -6.089328588645070983e-01
0.000000000000000000e+00 8.672933951035478872e-02 0.000000000000000000e+00 0.000000000000000000e+00 1.137541478629360558e-01 0.000000000000000000e+00 2.870104860838008087e-01 0.000000000000000000e+00 0.000000000000000000e+00 -9.669325076485428549e-02 0.000000000000000000e+00 -5.012813450623383460e-01 0.000000000000000000e+00 0.000000000000000000e+00 -4.977521410677919755e-01 0.000000000000000000e+00 2.032788578041802852e-01 0.000000000000000000e+00 0.000000000000000000e+00 -6.014242429560622272e-01
-5.078097060826011061e-03 8.160567232946633331e-02 0.000000000000000000e+00 -1.225186044239476649e-02 1.250607677245816618e-01 -4.522286786915026557e-03 2.688067271863221475e-01 0.000000000000000000e+00 -1.476823417349028972e-02 -9.402318432547235316e-02 8.773884707315368625e-03 -4.912690964015137274e-01 0.000000000000000000e+00 -8.267763195019948996e-03 -4.997053640991503953e-01 -1.586272474929311706e-03 2.133317494314858342e-01 0.000000000000000000e+00 -6.389283185479240415e-03 -6.185904803419624010e-01
0.000000000000000000e+00 9.467175322016747885e-02 0.000000000000000000e+00 0.000000000000000000e+00 1.173526804773901422e-01 0.000000000000000000e+00 2.911690511176116547e-01 0.000000000000000000e+00 0.000000000000000000e+00 -1.044317690660005876e-01 0.000000000000000000e+00 -5.022777597753853573e-01 0.000000000000000000e+00 0.000000000000000000e+00 -4.862086375762543766e-01 0.000000000000000000e+00 1.939523628083166806e-01 0.000000000000000000e+00 0.000000000000000000e+00 -6.042292235170514392e-01
-3.334917095849545491e-03 8.630586372140813811e-02 -5.483530808458161009e-03 -9.545371893185118292e-03 1.134801423755166100e-01 -1.021246684126784349e-02 2.854097528224374680e-01 4.962864238753961904e-03 -1.082266613094200192e-02 -9.002179872426654961e-02 -2.004488054398916724e-02 -4.857173762252726679e-01 -3.749860750607642707e-03 4.504690897345380723e-03 -5.019550243713410964e-01 -1.018043647519696442e-02 2.094938145552540654e-01 -1.552610162252522977e-02 -8.340976420379184533e-03 -6.056605248499191685e-01
0.000000000000000000e+00 1.075655889294636902e-01 0.000000000000000000e+00 0.000000000000000000e+00 7.949523246083667338e-02 0.000000000000000000e+00 3.062438155967176501e-01 0.000000000000000000e+00 0.000000000000000000e+00 -1.067052627427913514e-01 0.000000000000000000e+00 -4.803578181428513338e-01 0.000000000000000000e+00 0.000000000000000000e+00 -5.260382565208600036e-01 0.000000000000000000e+00 1.965233260095886336e-01 0.000000000000000000e+00 0.000000000000000000e+00 -5.998683138462953535e-01
0.000000000000000000e+00 1.211069599265081620e-01 -1.623441458506353491e-02 0.000000000000000000e+00 8.905646168880620994e-02 0.000000000000000000e+00 3.352329044644369871e-01 -1.413225110527573797e-02 0.000000000000000000e+00 -1.357437288724429592e-01 0.000000000000000000e+00 -5.231329923979154417e-01 2.353809495716387840e-02 0.000000000000000000e+00 -4.693430613296796228e-01 0.000000000000000000e+00 1.825907102472210941e-01 -6.199347429914008056e-03 0.000000000000000000e+00 -5.819021902435973503e-01
0.000000000000000000e+00 8.756445229387348206e-02 0.000000000000000000e+00 0.000000000000000000e+00 1.165159929417732970e-01 0.000000000000000000e+00 3.097887884669781045e-01 0.000000000000000000e+00 0.000000000000000000e+00 -1.069032689349717208e-01 0.000000000000000000e+00 -4.921269361364932760e-01 0.000000000000000000e+00 0.000000000000000000e+00 -4.938634757625378624e-01 0.000000000000000000e+00 1.944705334728690227e-01 0.000000000000000000e+00 0.000000000000000000e+00 -5.972320643959597719e-01
-1.744034475585751545e-03 9.146989193390102357e-02 8.748817248954111545e-03 -1.558210378403413095e-02 1.103360148629026899e-01 -1.396806219131118028e-02 2.877686658032119760e-01 -2.171336010944707219e-03 -4.871947739422524681e-03 -1.048545730777188240e-01 -5.872696195518337797e-03 -5.076370888307581986e-01 6.602173319657771849e-03 -9.305533144133959489e-03 -4.957462243328362161e-01 8.204382028579870756e-03 1.520241303895707441e-01 2.941411146511324626e-02 -1.206269635482514271e-02 -5.731361581006987338e-01
0.000000000000000000e+00 1.144025283691606359e-01 0.000000000000000000e+00 0.000000000000000000e+00 8.767343152777849757e-02 0.000000000000000000e+00 3.052513633129668724e-01 0.000000000000000000e+00 0.000000000000000000e+00 -1.121328582271624019e-01 0.000000000000000000e+00 -4.874065848930693168e-01 0.000000000000000000e+00 0.000000000000000000e+00 -5.141606693470426315e-01 0.000000000000000000e+00 1.792840734613603548e-01 0.000000000000000000e+00 0.000000000000000000e+00 -5.975496578453483032e-01
0.000000000000000000e+00 1.194852417429815572e-01 -3.220721005171881673e-02 1.044236473716858918e-02 7.784859863330355345e-02 0.000000000000000000e+00 3.299888634809509669e-01 -1.368890170606664250e-02 1.208593714314942086e-02 -1.306925584396853857e-01 0.000000000000000000e+00 -5.101730987161632314e-01 2.202893039888779297e-02 1.119669520283431315e-02 -4.913484084941724950e-01 0.000000000000000000e+00 2.286726562890272763e-01 -3.258372781355541731e-02 7.791963974602621537e-03 -6.167588138398042430e-01
-1.277411438282034448e-02 1.052754709024302515e-01 0.000000000000000000e+00 0.000000000000000000e+00 1.104059613269875867e-01 3.422557270160457490e-04 2.873876190829489641e-01 0.000000000000000000e+00 0.000000000000000000e+00 -9.562841535891830613e-02 5.161097478800060270e-04 -4.725887794347839455e-01 0.000000000000000000e+00 0.000000000000000000e+00 -5.181153419136478311e-01 -6.861879102030100930e-03 1.851551968547672788e-01 0.000000000000000000e+00 0.000000000000000000e+00 -5.942762817120181840e-01
0.000000000000000000e+00 9.135852581145527396e-02 0.000000000000000000e+00 0.000000000000000000e+00 1.204903075040500010e-01 0.000000000000000000e+00 3.064016735755967225e-01 0.000000000000000000e+00 0.000000000000000000e+00 -9.723061272570347746e-02 0.000000000000000000e+00 -5.022953215692745887e-01 0.000000000000000000e+00 0.000000000000000000e+00 -4.908496228850374177e-01 0.000000000000000000e+00 1.800614838411949969e-01 0.000000000000000000e+00 0.000000000000000000e+00 -6.005184189391744587e-01
0.000000000000000000e+00 1.502834582165003818e-01 -6.103173277387156231e-02 1.063654523230355212e-02 3.484079059888380708e-02 0.000000000000000000e+00 2.615270572166497609e-01 1.869060557638005729e-02 -1.795041252352260613e-02 -6.685850334937797068e-02 0.000000000000000000e+00 -4.838784687252722372e-01 5.768247211241193592e-03 1.016554496573076651e-02 -5.082320149861436764e-01 0.000000000000000000e+00 1.845462083542468712e-01 1.025301728433599020e-02 -7.511413714922357196e-03 -5.901699792050844051e-01
0.000000000000000000e+00 1.247099972383766409e-01 0.000000000000000000e+00 0.000000000000000000e+00 1.029216022052357182e-01 0.000000000000000000e+00 2.953889636899566518e-01 0.000000000000000000e+00 0.000000000000000000e+00 -1.094541701441576476e-01 0.000000000000000000e+00 -4.920040591972423272e-01 0.000000000000000000e+00 0.000000000000000000e+00 -5.053311115495153771e-01 0.000000000000000000e+00 1.932826345360092735e-01 0.000000000000000000e+00 0.000000000000000000e+00 -5.835967968096913427e-01
0.000000000000000000e+00 9.166346349746472277e-02 -4.216007573433494179e-03 1.682415595340110842e-02 9.498046659618085419e-02 0.000000000000000000e+00 3.045419568499623808e-01 3.261492904954407801e-03 1.670223217971986834e-02 -1.050201348398614315e-01 0.000000000000000000e+00 -5.206280974152848184e-01 2.850377136415640014e-02 6.071619970430956401e-03 -4.833083095811994134e-01 0.000000000000000000e+00 2.383796558203179206e-01 -2.551356900749170847e-02 -7.919146328229979825e-03 -6.416064495690100289e-01
-8.968975381157338889e-03 7.218429226061844062e-02 0.000000000000000000e+00 0.000000000000000000e+00 1.029307835214480910e-01 -6.379530049962526747e-04 3.082307522442137571e-01 0.000000000000000000e+00 0.000000000000000000e+00 -1.016024709266123704e-01 1.142291192825123716e-02 -4.994581717931890208e-01 0.000000000000000000e+00 0.000000000000000000e+00 -4.897457342129840629e-01 -4.066001398391047225e-03 1.837518591718421412e-01 0.000000000000000000e+00 0.000000000000000000e+00 -5.972922096077785126e-01
0.000000000000000000e+00 1.058829534811032425e-01 0.000000000000000000e+00 0.000000000000000000e+00 1.061809424056949502e-01 0.000000000000000000e+00 2.990908715685390296e-01 0.000000000000000000e+00 0.000000000000000000e+00 -1.060237198230868372e-01 0.000000000000000000e+00 -4.930146461769265298e-01 0.000000000000000000e+00 0.000000000000000000e+00 -4.951387259146624031e-01 0.000000000000000000e+00 1.978669991001313078e-01 0.000000000000000000e+00 0.000000000000000000e+00 -6.068779431774844468e-01
0.000000000000000000e+00 9.067340222184813725e-02 0.000000000000000000e+00 0.000000000000000000e+00 1.169633083556752134e-01 0.000000000000000000e+00 2.911509686309570744e-01 0.000000000000000000e+00 0.000000000000000000e+00 -8.175278160308985242e-02 0.000000000000000000e+00 -5.020154001329462101e-01 0.000000000000000000e+00 0.000000000000000000e+00 -4.915469401063943811e-01 0.000000000000000000e+00 2.019919378823674116e-01 0.000000000000000000e+00 0.000000000000000000e+00 -6.025440178085154086e-01
0.000000000000000000e+00 1.110611166993574206e-01 0.000000000000000000e+00 0.000000000000000000e+00 9.373694581917489665e-02 0.000000000000000000e+00 3.165821162463501315e-01 0.000000000000000000e+00 0.000000000000000000e+00 -1.143230184833761154e-01 0.000000000000000000e+00 -4.990632343664829218e-01 0.000000000000000000e+00 0.000000000000000000e+00 -4.991832550319745265e-01 0.000000000000000000e+00 2.063172292240266215e-01 0.000000000000000000e+00 0.000000000000000000e+00 -6.027338412502655229e-01
0.000000000000000000e+00 9.172012321955565206e-02 3.956427766186340275e-03 0.000000000000000000e+00 1.169681419227370511e-01 0.000000000000000000e+00 2.863550387099240147e-01 -9.712853318651355761e-03 0.000000000000000000e+00 -8.382643202451575681e-02 0.000000000000000000e+00 -5.404686176974721201e-01 4.536338470809059970e-02 0.000000000000000000e+00 -4.583199235953677730e-01 0.000000000000000000e+00 1.997959894482423948e-01 -3.409823349117014138e-03 0.000000000000000000e+00 -6.050965052205385941e-01
-1.001302744391358891e-02 7.775399526232597280e-02 0.000000000000000000e+00 0.000000000000000000e+00 1.044608733420580721e-01 6.030125952011361132e-03 2.870874967398059363e-01 0.000000000000000000e+00 0.000000000000000000e+00 -9.883060935735900332e-02 7.177059337484067124e-03 -4.936297945945998800e-01 0.000000000000000000e+00 0.000000000000000000e+00 -5.109389283914387292e-01 7.150265644737509307e-03 1.982529681267082289e-01 0.000000000000000000e+00 0.000000000000000000e+00 -6.058158912704154631e-01
0.000000000000000000e+00 9.411541189594388457e-02 1.672815436916163211e-03 0.000000000000000000e+00 1.145198140199431835e-01 0.000000000000000000e+00 2.879922734476853541e-01 4.158063714265221658e-03 0.000000000000000000e+00 -8.841184713823796448e-02 0.000000000000000000e+00 -5.387346946548446924e-01 4.187740831040481781e-02 0.000000000000000000e+00 -4.607038664139967432e-01 0.000000000000000000e+00 1.758384702426161184e-01 1.680677259115590308e-02 0.000000000000000000e+00 -5.858939755860992360e-01
0.000000000000000000e+00 9.199105183109966555e-02 0.000000000000000000e+00 -1.344514604822102249e-02 1.067543050642600910e-01 0.000000000000000000e+00 3.001785982750346804e-01 0.000000000000000000e+00 -5.020360542938360690e-03 -9.321607392131563141e-02 0.000000000000000000e+00 -4.697557832820129509e-01 0.000000000000000000e+00 1.008199646583330007e-02 -5.195191333938645739e-01 0.000000000000000000e+00 2.103038635833323067e-01 0.000000000000000000e+00 -1.281150166291022616e-02 -6.057392656178092194e-01
0.000000000000000000e+00 6.835176838224785167e-02 2.283641365424432176e-02 0.000000000000000000e+00 1.122461144930560206e-01 0.000000000000000000e+00 2.700786134501458324e-01 -1.879119870524529473e-03 0.000000000000000000e+00 -8.466357754017436732e-02 0.000000000000000000e+00 -4.722764371189532850e-01 -1.250736401061061653e-02 0.000000000000000000e+00 -5.249390220973879639e-01 0.000000000000000000e+00 1.600515046633423089e-01 3.067322928468579554e-02 0.000000000000000000e+00 -5.743526952589335099e-01
-7.823633825534630215e-03 7.398293449027582014e-02 0.000000000000000000e+00 -1.526661953577857465e-02 1.302765384261257431e-01 1.621076766018594156e-02 3.120364994354680177e-01 0.000000000000000000e+00 1.426604049173244709e-02 -1.066892383309343967e-01 -9.426335705665018702e-03 -4.971520988586216605e-01 0.000000000000000000e+00 3.303741543564421568e-04 -5.113242930044352708e-01 -1.220026541550133306e-02 1.989205753878297012e-01 0.000000000000000000e+00 -5.019297000351244896e-03 -5.697750696714504182e-01
0.000000000000000000e+00 8.571923205269846302e-02 1.044798464795342399e-02 0.000000000000000000e+00 1.101401823682169462e-01 0.000000000000000000e+00 3.156661507045883663e-01 -2.426424279916620727e-02 0.000000000000000000e+00 -1.290571332204753230e-01 0.000000000000000000e+00 -5.388178632438356264e-01 4.958836237869983232e-02 0.000000000000000000e+00 -4.620445503922575026e-01 0.000000000000000000e+00 2.203803376450544638e-01 -4.254965446595244602e-03 0.000000000000000000e+00 -6.201078207484275184e-01
0.000000000000000000e+00 1.108811222553107850e-01 0.000000000000000000e+00 2.300705598426507070e-02 8.775887351979287654e-02 0.000000000000000000e+00 2.887604437557871884e-01 0.000000000000000000e+00 -9.017916699140839792e-03 -8.871838643787294254e-02 0.000000000000000000e+00 -4.867535060159223770e-01 0.000000000000000000e+00 4.812462456388473878e-03 -5.126542559888455086e-01 0.000000000000000000e+00 1.899943730831547550e-01 0.000000000000000000e+00 -1.854655777457146770e-02 -5.880382762637896832e-01
-8.689948532504113143e-03 8.489489598738500509e-02 0.000000000000000000e+00 0.000000000000000000e+00 1.076077267877873084e-01 -6.550175278247083455e-03 2.968935340811048595e-01 0.000000000000000000e+00 0.000000000000000000e+00 -9.826355563131730642e-02 -4.647965307596050623e-04 -4.937332668343657471e-01 0.000000000000000000e+00 0.000000000000000000e+00 -4.825212624287722463e-01 7.190193558127930262e-03 1.962273615471041843e-01 0.000000000000000000e+00 0.000000000000000000e+00 -6.040270664844419324e-01
0.000000000000000000e+00 8.594121061907901427e-02 0.000000000000000000e+00 0.000000000000000000e+00 1.127316581434014836e-01 0.000000000000000000e+00 2.972674540037315571e-01 0.000000000000000000e+00 0.000000000000000000e+00 -8.971971021104124810e-02 0.000000000000000000e+00 -5.134506822599660403e-01 0.000000000000000000e+00 0.000000000000000000e+00 -4.921307708607224329e-01 0.000000000000000000e+00 2.067662061734616419e-01 0.000000000000000000e+00 0.000000000000000000e+00 -5.995992603957801537e-01
0.000000000000000000e+00 8.645331700351598092e-02 1.948815294866264661e-03 -1.154303552516058526e-02 1.056917820537867786e-01 0.000000000000000000e+00 2.952439768356106553e-01 -1.338306565845819203e-02 -3.426754238763685123e-02 -1.034873375905586979e-01 0.000000000000000000e+00 -5.168668225550162587e-01 3.883041702767288383e-02 5.149853679668811926e-03 -4.820751634256523199e-01 0.000000000000000000e+00 2.325806912564937767e-01 -2.976054912488410031e-02 1.797937798776489890e-02 -6.424280104837852834e-01
0.000000000000000000e+00 7.828088181178025073e-02 0.000000000000000000e+00 0.000000000000000000e+00 1.112640917017623521e-01 0.000000000000000000e+00 2.866412012993662661e-01 0.000000000000000000e+00 0.000000000000000000e+00 -9.764137621440895087e-02 0.000000000000000000e+00 -4.948799625807064340e-01 0.000000000000000000e+00 0.000000000000000000e+00 -5.157871449701686428e-01 0.000000000000000000e+00 1.819408031911294576e-01 0.000000000000000000e+00 0.000000000000000000e+00 -5.776842237070877184e-01
0.000000000000000000e+00 9.229868655683830247e-02 1.190052029683430490e-02 0.000000000000000000e+00 1.355249872153456159e-01 0.000000000000000000e+00 3.041715744462721860e-01 -1.472617800206686353e-02 0.000000000000000000e+00 -1.324638044958652006e-01 0.000000000000000000e+00 -5.187545560608248785e-01 2.509223728373405002e-02 0.000000000000000000e+00 -4.674703114599794707e-01 0.000000000000000000e+00 1.867221168483454985e-01 -1.167106717889645345e-02 0.000000000000000000e+00 -5.859550742139537638e-01
4.883033953059983528e-03 1.000599381770261448e-01 0.000000000000000000e+00 0.000000000000000000e+00 1.021502924391854278e-01 -2.221062806630031642e-03 2.862667178788980693e-01 0.000000000000000000e+00 0.000000000000000000e+00 -8.651590305873596565e-02 -2.004895310120907020e-02 -5.100215684511808512e-01 0.000000000000000000e+00 0.000000000000000000e+00 -4.974163347853541861e-01 4.341889297660959934e-03 2.146288209113016154e-01 0.000000000000000000e+00 0.000000000000000000e+00 -6.315962207683856189e-01
0.000000000000000000e+00 1.011982137418727667e-01 0.000000000000000000e+00 0.000000000000000000e+00 9.591160588743184723e-02 0.000000000000000000e+00 2.928349882227122558e-01 0.000000000000000000e+00 0.000000000000000000e+00 -9.260560529329293911e-02 0.000000000000000000e+00 -4.974014730815641827e-01 0.000000000000000000e+00 0.000000000000000000e+00 -4.798874307887275314e-01 0.000000000000000000e+00 1.743878338670657169e-01 0.000000000000000000e+00 0.000000000000000000e+00 -5.939575105141237099e-01
-2.995450451529102932e-03 8.819721697228774526e-02 0.000000000000000000e+00 1.048756912386502455e-02 1.154715642089935435e-01 1.359205378281615195e-02 2.909635269267445978e-01 0.000000000000000000e+00 -1.471974461299004923e-02 -9.111668551059780297e-02 1.833229125204269500e-03 -4.754607224823537703e-01 0.000000000000000000e+00 1.630570650048447298e-02 -5.116737689776041931e-01 4.845223668869532742e-03 2.027532555553024085e-01 0.000000000000000000e+00 -1.321616622114257962e-03 -5.995086491633435655e-01
0.000000000000000000e+00 1.263837778690228564e-01 -3.322090318869762998e-02 0.000000000000000000e+00 7.754611518036207130e-02 0.000000000000000000e+00 2.888644854821927344e-01 -3.708794118720349156e-03 0.000000000000000000e+00 -9.519006263068692519e-02 0.000000000000000000e+00 -5.014120564739134034e-01 -4.868282066668148250e-03 0.000000000000000000e+00 -5.160629715959356156e-01 0.000000000000000000e+00 2.086028031180897913e-01 -3.205671265860379933e-03 0.000000000000000000e+00 -5.912815305529324217e-01
-1.673408354170229095e-02 8.860980413852437287e-02 0.000000000000000000e+00 0.000000000000000000e+00 1.239635797581551679e-01 5.853316240383247930e-03 2.977481317491058044e-01 0.000000000000000000e+00 0.000000000000000000e+00 -1.163507693902175871e-01 -1.161692647218988926e-02 -5.024887576450244309e-01 0.000000000000000000e+00 0.000000000000000000e+00 -4.949377753789507839e-01 9.681659690733465662e-03 1.983013592663442626e-01 0.000000000000000000e+00 0.000000000000000000e+00 -6.006201063438409982e-01
0.000000000000000000e+00 1.042086820059125590e-01 1.419124534229086743e-02 2.273433838024526560e-02 9.049886522187625126e-02 0.000000000000000000e+00 2.969706326904822391e-01 -1.974753090068793321e-02 -3.198654816204919704e-02 -1.081579198913971279e-01 0.000000000000000000e+00 -5.424548265590507512e-01 2.363152311912340015e-02 -1.630277398276229472e-02 -4.587935309017194263e-01 0.000000000000000000e+00 1.600238433954272455e-01 3.174820152348034608e-02 5.285287234245971202e-03 -5.748541780775420218e-01
-1.754425412609221524e-02 9.138321657618533878e-02 0.000000000000000000e+00 0.000000000000000000e+00 9.617552163739349902e-02 2.468482473296734064e-02 3.041890064792079351e-01 0.000000000000000000e+00 0.000000000000000000e+00 -1.155713745224789257e-01 -1.663790152985658230e-02 -4.980906008622034142e-01 0.000000000000000000e+00 0.000000000000000000e+00 -4.923357829305739508e-01 7.868029406107281826e-03 2.018711990687709623e-01 0.000000000000000000e+00 0.000000000000000000e+00 -6.201682902635317074e-01
0.000000000000000000e+00 1.003616390068718944e-01 -3.123623368612181428e-03 0.000000000000000000e+00 9.288930205746188939e-02 0.000000000000000000e+00 3.078847908524999233e-01 -1.671074451660960539e-02 0.000000000000000000e+00 -1.072347328993024235e-01 0.000000000000000000e+00 -5.018146917063877055e-01 1.089902581947660432e-03 0.000000000000000000e+00 -4.833952076251928909e-01 0.000000000000000000e+00 2.240853279158435962e-01 -1.275022209461133468e-02 0.000000000000000000e+00 -6.117840247934239750e-01
0.000000000000000000e+00 1.052036443501629670e-01 0.000000000000000000e+00 0.000000000000000000e+00 1.061634951451305708e-01 0.000000000000000000e+00 3.000949135272337753e-01 0.000000000000000000e+00 0.000000000000000000e+00 -9.159975059503980277e-02 0.000000000000000000e+00 -4.830501219348611874e-01 0.000000000000000000e+00 0.000000000000000000e+00 -5.121510447476289585e-01 0.000000000000000000e+00 1.974403331062748457e-01 0.000000000000000000e+00 0.000000000000000000e+00 -5.955755143087372305e-01
0.000000000000000000e+00 1.049175245922859823e-01 -1.956848363470518187e-02 0.000000000000000000e+00 7.672823839060181894e-02 0.000000000000000000e+00 2.933924914010328511e-01 4.196449693229194200e-03 0.000000000000000000e+00 -9.452439791173419814e-02 0.000000000000000000e+00 -4.933748371995516080e-01 5.414156637217202445e-03 0.000000000000000000e+00 -5.049263984633113322e-01 0.000000000000000000e+00 1.841129662035874692e-01 1.618080968501201672e-02 0.000000000000000000e+00 -5.966761765964890829e-01
-1.231942866566517261e-02 8.834535844202712207e-02 0.000000000000000000e+00 5.864239310148025575e-04 1.193254556093714530e-01 -1.501055714680036082e-02 2.930646490848276553e-01 0.000000000000000000e+00 -4.060478727939432000e-03 -8.593443923238561211e-02 -1.778850854006115007e-02 -4.984437828430498540e-01 0.000000000000000000e+00 1.606444381659298537e-02 -4.919593638784807155e-01 7.930141525993932364e-03 2.130908568027753414e-01 0.000000000000000000e+00 3.064195882562778528e-03 -6.060073264620304823e-01
0.000000000000000000e+00 9.186231392821622710e-02 0.000000000000000000e+00 0.000000000000000000e+00 1.085541154409851577e-01 0.000000000000000000e+00 2.965860232241750993e-01 0.000000000000000000e+00 0.000000000000000000e+00 -1.032326358089089707e-01 0.000000000000000000e+00 -4.769560553044361328e-01 0.000000000000000000e+00 0.000000000000000000e+00 -5.234142776611453440e-01 0.000000000000000000e+00 1.938682201930448934e-01 0.000000000000000000e+00 0.000000000000000000e+00 -6.138473229800391895e-01
0.000000000000000000e+00 1.434145121912138165e-01 -4.709717238861374500e-02 5.613653602250861727e-03 6.587955793552183192e-02 0.000000000000000000e+00 2.581090277516743248e-01 1.655212794186466246e-03 -1.876856785736393668e-02 -7.155075666247506794e-02 0.000000000000000000e+00 -5.199583705220590657e-01 1.520647335612395137e-02 -4.210029880999482249e-03 -4.733899564522526804e-01 0.000000000000000000e+00 1.998025035649146353e-01 1.402845123645786451e-02 8.384890769934080779e-03 -5.917222192705914319e-01
-8.880773025096226972e-03 7.792746086753855883e-02 0.000000000000000000e+00 0.000000000000000000e+00 1.233244167419015880e-01 -7.887766417438475328e-03 2.937050301307287392e-01 0.000000000000000000e+00 0.000000000000000000e+00 -8.910485912823123966e-02 -5.840837068598970019e-03 -4.749935946122533781e-01 0.000000000000000000e+00 0.000000000000000000e+00 -5.054685177438621446e-01 7.900389430868940202e-04 2.072834148380561792e-01 0.000000000000000000e+00 0.000000000000000000e+00 -6.056661153621859528e-01
0.000000000000000000e+00 1.123355276722601270e-01 -6.252863297901154263e-03 0.000000000000000000e+00 9.549845801071574214e-02 0.000000000000000000e+00 3.266101995337608588e-01 3.762654684682903081e-03 0.000000000000000000e+00 -1.093287377396852389e-01 0.000000000000000000e+00 -4.909203604675070332e-01 1.075482973765875747e-02 0.000000000000000000e+00 -4.873672296546593952e-01 0.000000000000000000e+00 1.988427480064941799e-01 5.651302003746266726e-04 0.000000000000000000e+00 -5.956742994740150676e-01
-1.310604960027483140e-02 1.044719501203383583e-01 0.000000000000000000e+00 0.000000000000000000e+00 9.132653092258449790e-02 1.014802712530849665e-02 3.017658290357184692e-01 0.000000000000000000e+00 0.000000000000000000e+00 -1.000640286427054715e-01 6.540348878336198560e-03 -4.876297278469106655e-01 0.000000000000000000e+00 0.000000000000000000e+00 -5.159749696478498349e-01 -9.512460267266076817e-04 2.123275489624677215e-01 0.000000000000000000e+00 0.000000000000000000e+00 -6.087809057283333214e-01
0.000000000000000000e+00 9.116195961424700123e-02 1.311337531713453047e-02 1.106373827408045456e-02 9.014650527723223894e-02 0.000000000000000000e+00 3.107657183276107959e-01 -8.251904591428179878e-03 -6.103538030199969627e-04 -1.175526999040028553e-01 0.000000000000000000e+00 -4.967156227187919937e-01 2.175782063832362723e-02 2.964666399667663897e-03 -4.890163836771478922e-01 0.000000000000000000e+00 1.632292392594182628e-01 3.739443307657919213e-02 -1.268163048228305306e-02 -5.633052461197012306e-01
-5.081956301151931837e-03 8.158781093004971452e-02 0.000000000000000000e+00 0.000000000000000000e+00 1.015275120463273034e-01 -1.702633160902157754e-04 3.072001825214120130e-01 0.000000000000000000e+00 0.000000000000000000e+00 -1.067218206971209948e-01 7.275458322011367496e-03 -4.921981554981307849e-01 0.000000000000000000e+00 0.000000000000000000e+00 -4.870489892192836345e-01 4.932190648493340983e-03 2.061798936969521934e-01 0.000000000000000000e+00 0.000000000000000000e+00 -6.027244525681643150e-01
0.000000000000000000e+00 5.089295025457371557e-02 1.641696578980878646e-02 0.000000000000000000e+00 1.416647853042954375e-01 0.000000000000000000e+00 2.713717727741166152e-01 2.085624194123651687e-02 0.000000000000000000e+00 -6.560615099695890629e-02 0.000000000000000000e+00 -5.435329058036274530e-01 4.219162998879347204e-02 0.000000000000000000e+00 -4.590649048248519604e-01 0.000000000000000000e+00 1.938236279133557782e-01 1.675386672204558572e-02 0.000000000000000000e+00 -5.960589416100632310e-01
-1.378405753250832970e-02 9.006744017717931150e-02 0.000000000000000000e+00 0.000000000000000000e+00 1.169905346355939041e-01 1.436565135319773159e-02 2.843515854729258829e-01 0.000000000000000000e+00 0.000000000000000000e+00 -9.260168560288098427e-02 -2.135725887530861948e-03 -4.974527763760415167e-01 0.000000000000000000e+00 0.000000000000000000e+00 -4.924764847981931148e-01 -1.191036878067703100e-03 1.888063183360529917e-01 0.000000000000000000e+00 0.000000000000000000e+00 -5.915999021857937246e-01
0.000000000000000000e+00 7.911981847243011734e-02 1.436948425041820535e-02 0.000000000000000000e+00 1.238772566297669520e-01 0.000000000000000000e+00 2.856849830824207959e-01 1.352558328921452113e-02 0.000000000000000000e+00 -9.373124457556888944e-02 0.000000000000000000e+00 -5.229274902842796502e-01 2.941341182864073978e-02 0.000000000000000000e+00 -4.850144258553644172e-01 0.000000000000000000e+00 2.014946379249338282e-01 2.327341857974035699e-03 0.000000000000000000e+00 -6.141277081167870744e-01
0.000000000000000000e+00 9.404351807255438567e-02 0.000000000000000000e+00 -7.533543293522461295e-04 1.019888754155545141e-01 0.000000000000000000e+00 3.103289926614545280e-01 0.000000000000000000e+00 1.100806372746362602e-02 -1.058782492628169147e-01 0.000000000000000000e+00 -4.698544066186893797e-01 0.000000000000000000e+00 1.911439463857540072e-02 -5.203461723842256470e-01 0.000000000000000000e+00 1.930000522549080166e-01 0.000000000000000000e+00 -3.465391908554616048e-03 -5.905365900002017554e-01
-1.318525202741058569e-02 8.718743858798079505e-02 3.841549531870594447e-02 0.000000000000000000e+00 1.193447677165943854e-01 1.387756135318415733e-02 3.147771252698864375e-01 -6.532254409229094547e-03 0.000000000000000000e+00 -1.149307972354099150e-01 -1.746963018566085810e-02 -5.228358008540121560e-01 2.173981813353656478e-02 0.000000000000000000e+00 -4.684774443474720163e-01 8.719927389162000081e-03 1.570543466687160661e-01 1.815440786752080260e-02 0.000000000000000000e+00 -5.754698990678301929e-01
0.000000000000000000e+00 1.300479473871902214e-01 0.000000000000000000e+00 1.509488452078325271e-02 8.584670707474256757e-02 0.000000000000000000e+00 2.845516810781594241e-01 0.000000000000000000e+00 5.813464482730500496e-03 -8.362713877486480096e-02 0.000000000000000000e+00 -4.825892336998715559e-01 0.000000000000000000e+00 -8.429583719745923492e-03 -5.069965129908196033e-01 0.000000000000000000e+00 1.925537188177409431e-01 0.000000000000000000e+00 -7.824568136558004983e-03 -6.092095464706269725e-01
-1.194609790060637000e-02 1.246631132636975003e-01 0.000000000000000000e+00 0.000000000000000000e+00 7.655198851016814521e-02 3.241577804054935480e-02 3.136619559681731451e-01 0.000000000000000000e+00 0.000000000000000000e+00 -1.027563582941935644e-01 8.562554360913680884e-03 -5.138546146943976378e-01 0.000000000000000000e+00 0.000000000000000000e+00 -4.882924023464881857e-01 -1.512445923200501224e-02 2.065535085802098214e-01 0.000000000000000000e+00 0.000000000000000000e+00 -5.923362400868112942e-01
0.000000000000000000e+00 1.106034072204343521e-01 0.000000000000000000e+00 4.715088610247643308e-03 7.972803834296324221e-02 0.000000000000000000e+00 2.688379747270252529e-01 0.000000000000000000e+00 -3.096631709867171678e-02 -1.049609895492260858e-01 0.000000000000000000e+00 -4.812960967137778767e-01 0.000000000000000000e+00 2.019467003428789334e-02 -5.122801286958875711e-01 0.000000000000000000e+00 1.942098243451781392e-01 0.000000000000000000e+00 -3.553338135336280013e-03 -5.932052944867244326e-01
0.000000000000000000e+00 1.150052119791841604e-01 -1.806872191005227252e-02 0.000000000000000000e+00 8.013602759033103262e-02 0.000000000000000000e+00 2.941647712464956488e-01 -3.276227191204324554e-03 0.000000000000000000e+00 -9.972381887279867241e-02 0.000000000000000000e+00 -5.168596083999632551e-01 7.531070694150678729e-03 0.000000000000000000e+00 -4.844308834831511090e-01 0.000000000000000000e+00 1.838860708797688259e-01 1.159070823535781822e-02 0.000000000000000000e+00 -5.891140627694559928e-01
0.000000000000000000e+00 1.077374902851785665e-01 0.000000000000000000e+00 0.000000000000000000e+00 8.946720104495575754e-02 0.000000000000000000e+00 2.944272556747450365e-01 0.000000000000000000e+00 0.000000000000000000e+00 -1.106565000576718860e-01 0.000000000000000000e+00 -4.983917481636361280e-01 0.000000000000000000e+00 0.000000000000000000e+00 -5.029364952028366753e-01 0.000000000000000000e+00 1.858571994462096255e-01 0.000000000000000000e+00 0.000000000000000000e+00 -5.855549295956974376e-01
0.000000000000000000e+00 1.227415907090937119e-01 -1.488971953329380933e-02 3.059824258365716199e-02 6.819175847961574111e-02 0.000000000000000000e+00 3.149292215190105382e-01 -1.816347006596872107e-02 2.342386711695586266e-03 -1.291120895596935547e-01 0.000000000000000000e+00 -4.645216973739719757e-01 -2.491272476600731034e-02 1.878830037112494411e-02 -5.301624904838375674e-01 0.000000000000000000e+00 1.929386432560429576e-01 7.684218405678896330e-03 -3.472688911790841864e-03 -6.075051355477896209e-01
-1.023989164877473282e-02 1.025403862996128457e-01 0.000000000000000000e+00 0.000000000000000000e+00 9.042697325482533521e-02 -3.695873826033917176e-03 3.145272360719773008e-01 0.000000000000000000e+00 0.000000000000000000e+00 -9.722954287756244152e-02 9.776339869704716440e-03 -4.742223039501282100e-01 0.000000000000000000e+00 0.000000000000000000e+00 -5.294844964937629461e-01 1.600492423805164807e-04 2.137526280039492854e-01 0.000000000000000000e+00 0.000000000000000000e+00 -5.956864996527529987e-01
0.000000000000000000e+00 6.489913432485555633e-02 1.833010456385222864e-02 0.000000000000000000e+00 1.288819815254975687e-01 0.000000000000000000e+00 2.991230369646464826e-01 2.296381501004972348e-02 0.000000000000000000e+00 -7.767536437867811339e-02 0.000000000000000000e+00 -4.872649584954122370e-01 2.952294206959370920e-03 0.000000000000000000e+00 -5.206435928231892829e-01 0.000000000000000000e+00 1.672779623821209483e-01 2.893260207403468634e-02 0.000000000000000000e+00 -5.654956543726721296e-01
0.000000000000000000e+00 7.633279713118412690e-02 0.000000000000000000e+00 0.000000000000000000e+00 1.165377494642966527e-01 0.000000000000000000e+00 3.009849376271842569e-01 0.000000000000000000e+00 0.000000000000000000e+00 -1.073002270179681944e-01 0.000000000000000000e+00 -4.903300690909360715e-01 0.000000000000000000e+00 0.000000000000000000e+00 -5.041442418265329461e-01 0.000000000000000000e+00 1.928389144019963530e-01 0.000000000000000000e+00 0.000000000000000000e+00 -5.982643342030897760e-01
0.000000000000000000e+00 1.068945012243423393e-01 -1.118149306007613919e-05 7.728205041222110938e-03 1.106170138608229825e-01 0.000000000000000000e+00 3.044386415013313751e-01 -7.073772337769283769e-03 -1.938264140654292339e-03 -1.240342479805684184e-01 0.000000000000000000e+00 -4.945063192638986527e-01 6.620109808192903116e-03 4.967414437830516491e-03 -4.966292386784293966e-01 0.000000000000000000e+00 1.789933038061726767e-01 6.447566058984628007e-03 -3.017704359797599659e-03 -5.864715136330161949e-01
9.176919309591651322e-03 1.183538296764447828e-01 0.000000000000000000e+00 0.000000000000000000e+00 1.001482019027113979e-01 7.074250151153345725e-03 2.988860183082314159e-01 0.000000000000000000e+00 0.000000000000000000e+00 -9.092679697713305920e-02 -5.438564959599576781e-03 -5.091617074661223263e-01 0.000000000000000000e+00 0.000000000000000000e+00 -5.119119424769770221e-01 8.798787766073130900e-03 1.986274375046520602e-01 0.000000000000000000e+00 0.000000000000000000e+00 -5.869807054258215917e-01
0.000000000000000000e+00 7.453575545427959526e-02 0.000000000000000000e+00 0.000000000000000000e+00 1.163776876347551031e-01 0.000000000000000000e+00 2.922413428402544366e-01 0.000000000000000000e+00 0.000000000000000000e+00 -9.336424387921780921e-02 0.000000000000000000e+00 -5.040796358081034434e-01 0.000000000000000000e+00 0.000000000000000000e+00 -4.886483036521155343e-01 0.000000000000000000e+00 2.123933544975428189e-01 0.000000000000000000e+00 0.000000000000000000e+00 -5.942129035732195419e-01
0.000000000000000000e+00 1.022624624616761679e-01 0.000000000000000000e+00 -5.764929144470003902e-03 1.007225781606921888e-01 0.000000000000000000e+00 2.788980534549058143e-01 0.000000000000000000e+00 -1.205603317663046445e-02 -7.834337757633412502e-02 0.000000000000000000e+00 -4.778065684768192933e-01 0.000000000000000000e+00 8.908859055797047413e-03 -5.202558696270633831e-01 0.000000000000000000e+00 1.971770019565867726e-01 0.000000000000000000e+00 -1.946225149540051907e-02 -5.792330037902713169e-01
-6.826226089849744307e-03 1.082783970737204865e-01 5.298664755338544988e-03 0.000000000000000000e+00 9.878948420803713992e-02 1.526077755689309555e-02 3.555072833092030038e-01 -4.715351230127649840e-02 0.000000000000000000e+00 -1.646353877168331425e-01 -1.843556776364005390e-02 -5.005660593221193944e-01 -9.475147595379776466e-04 0.000000000000000000e+00 -5.164540705006686050e-01 7.648848432366286629e-03 1.771553780561727631e-01 1.866607002456268163e-02 0.000000000000000000e+00 -5.844036633027751559e-01
0.000000000000000000e+00 8.725141866459501516e-02 0.000000000000000000e+00 -1.500714635136648351e-02 1.086899691805089246e-01 0.000000000000000000e+00 2.975402819694709655e-01 0.000000000000000000e+00 8.963301907616343100e-03 -1.111385965050071256e-01 0.000000000000000000e+00 -5.298347873015306631e-01 0.000000000000000000e+00 -2.471177648294092116e-02 -4.690719901300239858e-01 0.000000000000000000e+00 1.973206559111990166e-01 0.000000000000000000e+00 -1.214673411487733785e-02 -6.018996385924259007e-01
2.783156000837802221e-03 7.726397191549376486e-02 -6.025880437934802089e-03 0.000000000000000000e+00 1.104402273858327288e-01 -9.073809614751184374e-03 2.774582326422470047e-01 2.598921106714324053e-02 0.000000000000000000e+00 -7.508716896623637838e-02 -6.804373564000981180e-04 -5.225960787993678691e-01 2.743636735974620822e-02 0.000000000000000000e+00 -4.736408499586376442e-01 -7.188493309069395737e-04 1.909952488873612464e-01 9.521828072035764048e-03 0.000000000000000000e+00 -5.897115141467530464e-01
0.000000000000000000e+00 1.037096772278278262e-01 0.000000000000000000e+00 -1.084466348213787394e-02 1.137964579814632754e-01 0.000000000000000000e+00 3.040668068004844793e-01 0.000000000000000000e+00 2.135438249989378076e-03 -1.144531749223120370e-01 0.000000000000000000e+00 -4.803887466160415287e-01 0.000000000000000000e+00 1.747266061806371923e-02 -5.296092705726822558e-01 0.000000000000000000e+00 1.786036697876298429e-01 0.000000000000000000e+00 -1.523514464660670822e-02 -5.778175595979814227e-01
-2.446363047177785646e-02 1.052473254603022573e-01 -1.940281463946774698e-02 0.000000000000000000e+00 8.850061032033279540e-02 8.466869707939337492e-03 3.321574173047076584e-01 -3.337001088680473238e-02 0.000000000000000000e+00 -1.528302691379248568e-01 -2.901627370294513307e-03 -5.037796452482879994e-01 1.163413883438938791e-02 0.000000000000000000e+00 -4.857910567517489953e-01 1.374819103666234665e-02 1.928031349340945666e-01 2.144530873611184222e-03 0.000000000000000000e+00 -6.004562160951127936e-01
0.000000000000000000e+00 9.103606252930668274e-02 0.000000000000000000e+00 0.000000000000000000e+00 1.060019908312990755e-01 0.000000000000000000e+00 2.938828035939796690e-01 0.000000000000000000e+00 0.000000000000000000e+00 -1.083424103368240687e-01 0.000000000000000000e+00 -5.099592145454712178e-01 0.000000000000000000e+00 0.000000000000000000e+00 -4.928037988703332650e-01 0.000000000000000000e+00 2.020045933122079085e-01 0.000000000000000000e+00 0.000000000000000000e+00 -5.969710042819976747e-01
0.000000000000000000e+00 1.033919427627398302e-01 -1.097336672923400480e-02 6.463266801278216150e-03 9.133128795407446932e-02 0.000000000000000000e+00 3.394898502557704423e-01 -5.181425212028332311e-02 9.030911185536659794e-04 -1.552640250603522787e-01 0.000000000000000000e+00 -4.959213049530823980e-01 -1.315259941233696064e-02 3.130884609876324887e-02 -5.161122488395201158e-01 0.000000000000000000e+00 1.618097405128604560e-01 2.992530563545549305e-02 1.847377070292635301e-03 -5.794183811182126442e-01
-1.098737275291522889e-02 9.970102809695909063e-02 0.000000000000000000e+00 0.000000000000000000e+00 1.082158946019137480e-01 -2.496524787562844766e-03 3.070372304042928713e-01 0.000000000000000000e+00 0.000000000000000000e+00 -1.012456298439995406e-01 -3.325195056221558199e-03 -4.945285308088285259e-01 0.000000000000000000e+00 0.000000000000000000e+00 -5.003972846308499811e-01 -4.533232009553116865e-03 1.961034150603017112e-01 0.000000000000000000e+00 0.000000000000000000e+00 -6.035387367920285184e-01
0.000000000000000000e+00 1.039347198417093499e-01 0.000000000000000000e+00 0.000000000000000000e+00 9.090987033093012037e-02 0.000000000000000000e+00 3.050450648357613259e-01 0.000000000000000000e+00 0.000000000000000000e+00 -1.117112678125133096e-01 0.000000000000000000e+00 -4.815808927655537697e-01 0.000000000000000000e+00 0.000000000000000000e+00 -5.128780738752205526e-01 0.000000000000000000e+00 1.874825172134238771e-01 0.000000000000000000e+00 0.000000000000000000e+00 -5.993378667844114771e-01
0.000000000000000000e+00 1.066636399554866110e-01 0.000000000000000000e+00 0.000000000000000000e+00 8.931261327830919416e-02 0.000000000000000000e+00 3.016800064385116720e-01 0.000000000000000000e+00 0.000000000000000000e+00 -8.804508078780892699e-02 0.000000000000000000e+00 -5.028188379721810763e-01 0.000000000000000000e+00 0.000000000000000000e+00 -5.004290903244589250e-01 0.000000000000000000e+00 1.881015077839103267e-01 0.000000000000000000e+00 0.000000000000000000e+00 -5.937812934656357955e-01
-3.748528771300566487e-03 1.120611575752296363e-01 -1.514811903852624625e-02 -4.580751153192117939e-03 9.714052606332401751e-02 -1.423980093671647212e-02 2.921769536880996498e-01 -8.512348290525557915e-03 -2.272122957060350099e-02 -1.050637672880260914e-01 -2.488469101883711981e-02 -4.983995108483884606e-01 8.709515893880592080e-04 -1.913799496325412075e-03 -4.965361701698888797e-01 -2.095276697792659501e-02 1.964880462512904047e-01 1.487270670786587125e-02 -7.687899484299990510e-03 -5.841720765145301808e-01
0.000000000000000000e+00 8.906766749227504332e-02 0.000000000000000000e+00 0.000000000000000000e+00 1.126377716211282437e-01 0.000000000000000000e+00 2.942812533572512490e-01 0.000000000000000000e+00 0.000000000000000000e+00 -7.948647164970591705e-02 0.000000000000000000e+00 -4.976316650827771193e-01 0.000000000000000000e+00 0.000000000000000000e+00 -4.917057547601698664e-01 0.000000000000000000e+00 2.074308370940549096e-01 0.000000000000000000e+00 0.000000000000000000e+00 -6.093747644657655504e-01
0.000000000000000000e+00 8.851724895173794516e-02 0.000000000000000000e+00 0.000000000000000000e+00 1.018465958418815348e-01 0.000000000000000000e+00 2.966256646954061327e-01 0.000000000000000000e+00 0.000000000000000000e+00 -1.012592702907704756e-01 0.000000000000000000e+00 -4.861760284166079527e-01 0.000000000000000000e+00 0.000000000000000000e+00 -5.084967739996621994e-01 0.000000000000000000e+00 1.910393214994021427e-01 0.000000000000000000e+00 0.000000000000000000e+00 -5.936215918642906431e-01
9.456377413578218732e-03 8.553704615843095438e-02 0.000000000000000000e+00 -4.846210450334953457e-05 1.263378603472598560e-01 -1.244281898402502945e-02 3.048421069593235666e-01 0.000000000000000000e+00 -1.116199049039205346e-02 -9.867830844482004815e-02 3.750714725660511326e-03 -5.045224444851549306e-01 0.000000000000000000e+00 8.865264712830302901e-03 -4.976952673042499553e-01 -2.683262110747293774e-03 1.857475082398894473e-01 0.000000000000000000e+00 -2.164967638961245999e-02 -5.732089168832062986e-01
0.000000000000000000e+00 1.313939923895291739e-01 -3.183338986723396880e-02 0.000000000000000000e+00 7.832781733180142758e-02 0.000000000000000000e+00 3.090110567476827552e-01 -1.288655155780453303e-02 0.000000000000000000e+00 -1.202533148156998410e-01 0.000000000000000000e+00 -5.104889307594272507e-01 2.180472761933575573e-02 0.000000000000000000e+00 -4.689150255247022114e-01 0.000000000000000000e+00 2.052254186116177492e-01 -1.274185487519120460e-02 0.000000000000000000e+00 -6.147526128185895056e-01
-8.986171917682953328e-03 1.139254283918977873e-01 0.000000000000000000e+00 -2.353780733612559350e-03 1.019717832703523203e-01 -1.170468550246464047e-02 2.917979486374809861e-01 0.000000000000000000e+00 -1.119910755964687379e-02 -9.885746605887051064e-02 7.954757177179905964e-03 -4.886265145331986082e-01 0.000000000000000000e+00 2.765709408998157266e-03 -5.124082836654547668e-01 5.588212165077087804e-03 1.937022486924650233e-01 0.000000000000000000e+00 1.372087056751306738e-02 -5.937146537743900332e-01
0.000000000000000000e+00 1.033818743637788667e-01 -6.290900330840357157e-03 0.000000000000000000e+00 1.087068410917756689e-01 0.000000000000000000e+00 3.265901217373155530e-01 -2.142958206665567661e-02 0.000000000000000000e+00 -1.304179679393604463e-01 0.000000000000000000e+00 -5.085417673877387079e-01 2.186941848913263875e-03 0.000000000000000000e+00 -4.970480346953089490e-01 0.000000000000000000e+00 1.605671081235343356e-01 3.028072161321413922e-02 0.000000000000000000e+00 -5.703500911368200033e-01
0.000000000000000000e+00 1.056860420592403288e-01 0.000000000000000000e+00 5.335656666122372792e-03 8.333831312598576069e-02 0.000000000000000000e+00 2.890879587035133369e-01 0.000000000000000000e+00 -1.084509792098802342e-02 -1.068795688431772445e-01 0.000000000000000000e+00 -4.803375773300957996e-01 0.000000000000000000e+00 2.991343740403726997e-02 -5.192434471466094159e-01 0.000000000000000000e+00 1.641430520462212883e-01 0.000000000000000000e+00 -2.269574502595435653e-02 -5.825086893711012292e-01
-1.923281623407768065e-02 1.043163162081155032e-01 0.000000000000000000e+00 0.000000000000000000e+00 9.354048897141643837e-02 -5.921922246133169004e-03 3.234891960500752561e-01 0.000000000000000000e+00 0.000000000000000000e+00 -1.094772322539926401e-01 6.210958532740503552e-03 -5.054226378395861863e-01 0.000000000000000000e+00 0.000000000000000000e+00 -5.084303411484573099e-01 8.853099157670088482e-03 1.999442343050846227e-01 0.000000000000000000e+00 0.000000000000000000e+00 -5.957934899672759910e-01
0.000000000000000000e+00 1.165314350593000259e-01 0.000000000000000000e+00 2.308079767782862234e-03 9.336755913272265506e-02 0.000000000000000000e+00 3.065891289769205330e-01 0.000000000000000000e+00 -4.349695634895390378e-03 -1.054874471832640825e-01 0.000000000000000000e+00 -5.018937949738027093e-01 0.000000000000000000e+00 -3.343909689856910256e-03 -5.058730148419553485e-01 0.000000000000000000e+00 1.925050637382890728e-01 0.000000000000000000e+00 -1.098448269286794038e-02 -6.002156828648572695e-01
-1.154250905242562401e-02 5.955673228251679580e-02 3.175723492504037293e-02 0.000000000000000000e+00 1.485352946559528875e-01 1.392200478430499766e-03 3.197141745208273433e-01 -2.383156344625668444e-02 0.000000000000000000e+00 -1.374935946876834625e-01 -1.937804758181629027e-03 -5.165308148523872767e-01 3.208891318176239349e-02 0.000000000000000000e+00 -4.810022140713045569e-01 6.697198746621451856e-03 2.097360223859442707e-01 -1.700672610615835273e-02 0.000000000000000000e+00 -6.123741038746903786e-01
0.000000000000000000e+00 1.136148804817346536e-01 0.000000000000000000e+00 0.000000000000000000e+00 1.018838159075783067e-01 0.000000000000000000e+00 3.099335652874835034e-01 0.000000000000000000e+00 0.000000000000000000e+00 -1.117314187872598813e-01 0.000000000000000000e+00 -5.046515000395227490e-01 0.000000000000000000e+00 0.000000000000000000e+00 -5.042170429184924529e-01 0.000000000000000000e+00 1.980888909245746843e-01 0.000000000000000000e+00 0.000000000000000000e+00 -5.995510527841251269e-01
0.000000000000000000e+00 1.002130167899697166e-01 0.000000000000000000e+00 0.000000000000000000e+00 1.053875713873938524e-01 0.000000000000000000e+00 3.000300322350984983e-01 0.000000000000000000e+00 0.000000000000000000e+00 -1.085805626046680850e-01 0.000000000000000000e+00 -4.884010440473807724e-01 0.000000000000000000e+00 0.000000000000000000e+00 -5.089419009931598348e-01 0.000000000000000000e+00 1.922336624812824857e-01 0.000000000000000000e+00 0.000000000000000000e+00 -6.029786911947483397e-01
0.000000000000000000e+00 8.019069723112030867e-02 0.000000000000000000e+00 -8.006595461279441758e-03 1.067237487880024066e-01 0.000000000000000000e+00 2.862832915957692625e-01 0.000000000000000000e+00 -5.259741340098137222e-03 -8.719263731475593304e-02 0.000000000000000000e+00 -4.976789135873492809e-01 0.000000000000000000e+00 -2.944280229782558073e-03 -5.072243898565467202e-01 0.000000000000000000e+00 1.742004414147463598e-01 0.000000000000000000e+00 -3.575240768095130917e-02 -5.828692256504599545e-01
0.000000000000000000e+00 9.314393673836421361e-02 0.000000000000000000e+00 0.000000000000000000e+00 1.157881984243548379e-01 0.000000000000000000e+00 2.901807547844902357e-01 0.000000000000000000e+00 0.000000000000000000e+00 -1.114367450313366592e-01 0.000000000000000000e+00 -4.786800653638811909e-01 0.000000000000000000e+00 0.000000000000000000e+00 -5.214983978032733392e-01 0.000000000000000000e+00 1.926757796867907269e-01 0.000000000000000000e+00 0.000000000000000000e+00 -6.075426372177622492e-01
0.000000000000000000e+00 8.639128016190170123e-02 0.000000000000000000e+00 0.000000000000000000e+00 1.079835383590937170e-01 0.000000000000000000e+00 2.970633292573006679e-01 0.000000000000000000e+00 0.000000000000000000e+00 -9.958339651600983666e-02 0.000000000000000000e+00 -4.889391533251045696e-01 0.000000000000000000e+00 0.000000000000000000e+00 -5.088462390512970002e-01 0.000000000000000000e+00 1.964371955703750339e-01 0.000000000000000000e+00 0.000000000000000000e+00 -5.935557706060560212e-01
0.000000000000000000e+00 1.104149641786547897e-01 -1.245033978444253647e-02 4.209860610307171284e-03 7.941009396483630911e-02 0.000000000000000000e+00 2.972772619717466980e-01 1.739019224375635761e-03 3.685245374189547590e-03 -1.056632925358835101e-01 0.000000000000000000e+00 -4.948691003197394078e-01 1.938732890427468172e-02 2.008616155917831297e-02 -4.917157558432966868e-01 0.000000000000000000e+00 2.082454764629358412e-01 -2.203776147853151596e-02 -1.335689839259749517e-03 -6.185283207086063051e-01
0.000000000000000000e+00 7.423971822452450631e-02 0.000000000000000000e+00 0.000000000000000000e+00 1.253723728023145301e-01 0.000000000000000000e+00 2.949607220029200616e-01 0.000000000000000000e+00 0.000000000000000000e+00 -8.151089918695719749e-02 0.000000000000000000e+00 -4.946950392127699159e-01 0.000000000000000000e+00 0.000000000000000000e+00 -5.036392488789811495e-01 0.000000000000000000e+00 2.143864896774176632e-01 0.000000000000000000e+00 0.000000000000000000e+00 -6.057593362891829925e-01
0.000000000000000000e+00 1.144789844024094866e-01 -3.610120107922443200e-02 6.367168050925182780e-03 6.735600999048051152e-02 0.000000000000000000e+00 3.316169785914169221e-01 -1.780770472311887093e-02 1.345874498919118548e-02 -1.261533226188152335e-01 0.000000000000000000e+00 -5.297818372966591749e-01 4.583705556204416970e-02 4.190488226245586527e-03 -4.584660735800477616e-01 0.000000000000000000e+00 1.934374485171130309e-01 1.638705287748089962e-03 -1.458916593691428343e-02 -5.932971641213452552e-01
-5.878856290181331233e-03 9.477412553528988259e-02 0.000000000000000000e+00 0.000000000000000000e+00 9.371503311527666635e-02 -6.305771568024195334e-03 2.941264818309008433e-01 0.000000000000000000e+00 0.000000000000000000e+00 -9.981474938216097770e-02 9.264166552437681432e-03 -4.992070637577391001e-01 0.000000000000000000e+00 0.000000000000000000e+00 -5.016710741975909382e-01 -1.461930072077505596e-03 2.014606445974167770e-01 0.000000000000000000e+00 0.000000000000000000e+00 -6.054086988999237695e-01
0.000000000000000000e+00 1.306332650575357524e-01 -2.383535135029463126e-02 1.773079426930507241e-02 6.190398994580159631e-02 0.000000000000000000e+00 3.614596867362582233e-01 -4.458461494482062609e-02 -6.429203816030156296e-03 -1.596560260770328588e-01 0.000000000000000000e+00 -5.253839464635520207e-01 2.345449345014372078e-02 -1.091472670203923190e-02 -4.839639291084192885e-01 0.000000000000000000e+00 2.110320996493721124e-01 -2.473983939017108946e-02 -5.521444292902312999e-03 -6.183484703503505653e-01
5.837164285083710699e-03 8.517163885462486483e-02 0.000000000000000000e+00 0.000000000000000000e+00 9.806790506847097577e-02 1.488223161309781654e-02 2.922255776154685236e-01 0.000000000000000000e+00 0.000000000000000000e+00 -1.027455775238299562e-01 -4.368353766072596150e-03 -4.967955441336204259e-01 0.000000000000000000e+00 0.000000000000000000e+00 -4.946323191173579992e-01 -1.242187786698241078e-02 1.825479902083048944e-01 0.000000000000000000e+00 0.000000000000000000e+00 -6.010061700521736050e-01
0.000000000000000000e+00 1.112965575163294280e-01 -1.988199667576012394e-02 6.543726558659736237e-03 8.584319136651046012e-02 0.000000000000000000e+00 3.103801953475444630e-01 -4.781082353539668761e-04 1.155444592191492981e-02 -9.876988581570253500e-02 0.000000000000000000e+00 -4.972583834312505613e-01 -1.669880717269991988e-04 1.408746561705220661e-02 -5.068951326492049381e-01 0.000000000000000000e+00 1.951646914398902366e-01 -2.280152679466412521e-02 -1.658325500673323016e-02 -6.146874691914797628e-01
-8.808153048393203496e-03 9.348774947335092289e-02 0.000000000000000000e+00 0.000000000000000000e+00 1.131311672900336407e-01 6.078286452960578352e-03 2.661616917195357979e-01 0.000000000000000000e+00 0.000000000000000000e+00 -6.904142916980990363e-02 8.117402669527198564e-03 -4.883724958309753061e-01 0.000000000000000000e+00 0.000000000000000000e+00 -5.117961153908113792e-01 1.760337834474277885e-02 2.133415056335742355e-01 0.000000000000000000e+00 0.000000000000000000e+00 -6.281690769706161914e-01
0.000000000000000000e+00 5.964066207967394506e-02 1.921411935015322411e-02 0.000000000000000000e+00 1.452263403140751641e-01 0.000000000000000000e+00 3.191568969807232481e-01 -2.330155727644436792e-02 0.000000000000000000e+00 -1.311693579144848909e-01 0.000000000000000000e+00 -5.198409362589649918e-01 1.075524339220935641e-03 0.000000000000000000e+00 -5.026223355841259455e-01 0.000000000000000000e+00 2.173758774829644136e-01 -1.278045842026256061e-02 0.000000000000000000e+00 -6.102858433550641948e-01
9.891292949689035191e-03 7.077164048649561834e-02 0.000000000000000000e+00 -2.508139290368983573e-02 1.350691236914416948e-01 6.139307165906058954e-03 2.908890814395266311e-01 0.000000000000000000e+00 -1.128463505239665765e-03 -9.332196247974977599e-02 4.212546678951089099e-03 -4.630856628611370596e-01 0.000000000000000000e+00 1.156203469320120879e-02 -5.368240022769535935e-01 -3.053566715751037178e-03 2.091339221531789139e-01 0.000000000000000000e+00 -4.761806118966513228e-03 -5.969169965235170405e-01
0.000000000000000000e+00 8.829457396124766599e-02 0.000000000000000000e+00 0.000000000000000000e+00 1.028082961455516753e-01 0.000000000000000000e+00 3.027646961830225969e-01 0.000000000000000000e+00 0.000000000000000000e+00 -1.106774379964720750e-01 0.000000000000000000e+00 -4.961698029263779119e-01 0.000000000000000000e+00 0.000000000000000000e+00 -4.986191438001589815e-01 0.000000000000000000e+00 2.107612689617940072e-01 0.000000000000000000e+00 0.000000000000000000e+00 -5.913943250192482681e-01
-1.229733158819513658e-02 8.555775389780027884e-02 1.072190489762797801e-02 -5.442258339045069095e-03 1.170561617312328162e-01 -2.246015299935484079e-03 2.950464923861947364e-01 -8.491029179774583005e-03 -8.531898763096101498e-03 -1.180814044054610407e-01 -1.365417328706930444e-02 -5.219596189917812268e-01 1.678650249410745809e-02 -5.673096976967311605e-03 -4.825201406996756925e-01 7.685033173369652804e-03 2.374572208625395919e-01 -2.197218692899708184e-02 8.580655050881394116e-03 -6.312427131634166244e-01
0.000000000000000000e+00 9.650760026360928612e-02 0.000000000000000000e+00 0.000000000000000000e+00 1.028376069189978204e-01 0.000000000000000000e+00 3.180000061399766986e-01 0.000000000000000000e+00 0.000000000000000000e+00 -8.728438927658005442e-02 0.000000000000000000e+00 -5.037456480712413365e-01 0.000000000000000000e+00 0.000000000000000000e+00 -4.808546726024779394e-01 0.000000000000000000e+00 2.034946975946158865e-01 0.000000000000000000e+00 0.000000000000000000e+00 -6.060621613957978271e-01
0.000000000000000000e+00 1.053176978088110199e-01 2.173989197717990721e-03 2.132308744932440506e-02 1.010006108202131658e-01 0.000000000000000000e+00 2.573725805543781719e-01 2.681037671771301090e-02 -1.838922310543026489e-02 -7.015632957549133852e-02 0.000000000000000000e+00 -5.023106921316067286e-01 3.592629875126673866e-02 3.739083567262332236e-02 -4.892617621350927593e-01 0.000000000000000000e+00 1.241467962775098105e-01 4.058519795464800295e-02 -3.094079383639154746e-02 -5.465066418908149926e-01
0.000000000000000000e+00 1.045186861826164493e-01 0.000000000000000000e+00 0.000000000000000000e+00 1.069872049441558670e-01 0.000000000000000000e+00 3.049176549759661792e-01 0.000000000000000000e+00 0.000000000000000000e+00 -9.959037276457298471e-02 0.000000000000000000e+00 -4.915799435259277650e-01 0.000000000000000000e+00 0.000000000000000000e+00 -5.117979610782459332e-01 0.000000000000000000e+00 2.006338969372175318e-01 0.000000000000000000e+00 0.000000000000000000e+00 -6.041275803053486326e-01
-1.746498942521383657e-02 1.223377503373740960e-01 -1.292384258341529660e-02 0.000000000000000000e+00 7.435669990823712272e-02 8.934545555042005746e-03 2.911186767234804629e-01 7.007652335878196415e-03 0.000000000000000000e+00 -9.949424249153611399e-02 -1.229999703502470190e-02 -4.945232647027388850e-01 1.061188153242619350e-02 0.000000000000000000e+00 -4.989643858749018834e-01 -7.298290617097530006e-03 2.174939161739458393e-01 -1.396710819369659587e-02 0.000000000000000000e+00 -6.051644528729819283e-01
0.000000000000000000e+00 7.187563009476247156e-02 0.000000000000000000e+00 0.000000000000000000e+00 1.312841617340656519e-01 0.000000000000000000e+00 3.209745459296568515e-01 0.000000000000000000e+00 0.000000000000000000e+00 -1.209872005618123636e-01 0.000000000000000000e+00 -5.082104306966227503e-01 0.000000000000000000e+00 0.000000000000000000e+00 -4.956059106613906473e-01 0.000000000000000000e+00 1.890767308293074267e-01 0.000000000000000000e+00 0.000000000000000000e+00 -6.051763560448019108e-01
-2.739096935390066077e-03 9.708566330483742179e-02 0.000000000000000000e+00 0.000000000000000000e+00 9.594486497060190910e-02 5.627405324039487337e-03 3.023097219754703469e-01 0.000000000000000000e+00 0.000000000000000000e+00 -1.161256398417601782e-01 9.927934849413993373e-03 -4.947430074573083703e-01 0.000000000000000000e+00 0.000000000000000000e+00 -4.969065673838917729e-01 -1.141120575759274787e-02 1.816556860859109002e-01 0.000000000000000000e+00 0.000000000000000000e+00 -5.856777484882276230e-01
0.000000000000000000e+00 1.205568364520759467e-01 -1.268504181155281907e-02 0.000000000000000000e+00 9.128932121722686810e-02 0.000000000000000000e+00 2.990088696019310155e-01 -7.797941466300945847e-03 0.000000000000000000e+00 -9.409172561819527381e-02 0.000000000000000000e+00 -4.881179290792168057e-01 1.694360598483234115e-03 0.000000000000000000e+00 -5.051341745100887959e-01 0.000000000000000000e+00 1.936469203806455153e-01 -5.551010652876159704e-03 0.000000000000000000e+00 -6.108415735851350226e-01
1.102478151247645796e-02 1.052188450380003581e-01 0.000000000000000000e+00 0.000000000000000000e+00 9.381689546815784320e-02 -2.460870352130172661e-03 2.807204429019162228e-01 0.000000000000000000e+00 0.000000000000000000e+00 -1.038199986736107333e-01 8.698533758131416632e-03 -4.869425048166100001e-01 0.000000000000000000e+00 0.000000000000000000e+00 -5.065966562142559804e-01 8.872418521174992023e-03 1.819169791138735559e-01 0.000000000000000000e+00 0.000000000000000000e+00 -5.984231820413855596e-01
0.000000000000000000e+00 1.014542120456281976e-01 0.000000000000000000e+00 0.000000000000000000e+00 9.560828427457478129e-02 0.000000000000000000e+00 2.997885665180570203e-01 0.000000000000000000e+00 0.000000000000000000e+00 -1.053747314706293403e-01 0.000000000000000000e+00 -4.942226496519261381e-01 0.000000000000000000e+00 0.000000000000000000e+00 -4.947785491991003592e-01 0.000000000000000000e+00 2.044473064440606724e-01 0.000000000000000000e+00 0.000000000000000000e+00 -6.034421841629596939e-01
-1.070084728917147787e-02 7.551506597883674010e-02 1.287503719188300491e-02 0.000000000000000000e+00 1.236093923014440626e-01 1.188447157418620441e-02 3.186233875307546981e-01 -2.378350464233410996e-02 0.000000000000000000e+00 -1.389453444926457837e-01 -5.737872686000969336e-03 -4.960180033271948674e-01 8.978886724416088039e-04 0.000000000000000000e+00 -5.224769556182204955e-01 5.102737017806842357e-04 1.881763949423533311e-01 3.340046270899719484e-03 0.000000000000000000e+00 -5.916797513006106790e-01
0.000000000000000000e+00 1.085521074930488605e-01 0.000000000000000000e+00 0.000000000000000000e+00 9.177638533583395986e-02 0.000000000000000000e+00 2.953684305604473148e-01 0.000000000000000000e+00 0.000000000000000000e+00 -9.427085248972941200e-02 0.000000000000000000e+00 -5.043013103991387247e-01 0.000000000000000000e+00 0.000000000000000000e+00 -4.922876730408091150e-01 0.000000000000000000e+00 1.833979608036292730e-01 0.000000000000000000e+00 0.000000000000000000e+00 -5.995271118021421319e-01
0.000000000000000000e+00 9.955509568317266744e-02 -1.428269284593339065e-02 0.000000000000000000e+00 1.029371308414485930e-01 0.000000000000000000e+00 3.007249229608281449e-01 -5.640897287340167036e-03 0.000000000000000000e+00 -1.117358369459621609e-01 0.000000000000000000e+00 -5.192000459148615743e-01 3.018906467963711898e-02 0.000000000000000000e+00 -4.757672903046308854e-01 0.000000000000000000e+00 2.049212561751105333e-01 -1.009599809759704862e-02 0.000000000000000000e+00 -6.048738748238706719e-01
-6.125133504521726967e-03 8.271056489518814614e-02 0.000000000000000000e+00 2.046311058937387833e-03 1.096988343635383889e-01 -5.864138857241299289e-04 2.858331378246504739e-01 0.000000000000000000e+00 -1.413052549339253311e-02 -7.951157713844275721e-02 -4.063474942854991209e-03 -4.829023212936313647e-01 0.000000000000000000e+00 1.410483006539803991e-02 -5.185437451973348155e-01 7.136238586015479675e-03 1.982375375344389845e-01 0.000000000000000000e+00 3.069869236691533804e-03 -5.922552177499560422e-01
0.000000000000000000e+00 8.218663375225161716e-02 0.000000000000000000e+00 0.000000000000000000e+00 1.073817386715718858e-01 0.000000000000000000e+00 3.028184139056833701e-01 0.000000000000000000e+00 0.000000000000000000e+00 -8.709005935806030108e-02 0.000000000000000000e+00 -5.159418501404408053e-01 0.000000000000000000e+00 0.000000000000000000e+00 -4.899677385391857931e-01 0.000000000000000000e+00 2.207839564181221514e-01 0.000000000000000000e+00 0.000000000000000000e+00 -6.075651407450234354e-01
0.000000000000000000e+00 8.628772044513925710e-02 0.000000000000000000e+00 -5.115861781071621636e-03 1.041415013270655249e-01 0.000000000000000000e+00 3.178912718251467595e-01 0.000000000000000000e+00 2.178985612140814029e-02 -1.214808666693910633e-01 0.000000000000000000e+00 -4.927122777354739913e-01 0.000000000000000000e+00 -6.823475345709005546e-03 -5.043133949804383676e-01 0.000000000000000000e+00 2.151970465627836004e-01 0.000000000000000000e+00 1.496669233608832750e-02 -6.116344215949638397e-01
0.000000000000000000e+00 6.974084210450223753e-02 1.793909118816331902e-02 0.000000000000000000e+00 1.240828797471664052e-01 0.000000000000000000e+00 3.090530280490808024e-01 -1.367360262243904126e-02 0.000000000000000000e+00 -1.062528834971388503e-01 0.000000000000000000e+00 -5.006859006333702622e-01 8.748771099739829915e-03 0.000000000000000000e+00 -5.051170632565866736e-01 0.000000000000000000e+00 2.311962051816342789e-01 -2.612491585014095619e-02 0.000000000000000000e+00 -6.356374558764248395e-01
0.000000000000000000e+00 9.584566931795042433e-02 0.000000000000000000e+00 0.000000000000000000e+00 9.991850956271099149e-02 0.000000000000000000e+00 2.893732337654393860e-01 0.000000000000000000e+00 0.000000000000000000e+00 -8.639198648753912413e-02 0.000000000000000000e+00 -4.983999674962978355e-01 0.000000000000000000e+00 0.000000000000000000e+00 -4.891804380014252440e-01 0.000000000000000000e+00 1.906072742256494645e-01 0.000000000000000000e+00 0.000000000000000000e+00 -6.030213842678058267e-01
-1.609107974851693712e-02 7.495204129114131641e-02 0.000000000000000000e+00 0.000000000000000000e+00 1.270348619042022398e-01 8.999428535131838436e-03 2.700234087601963706e-01 0.000000000000000000e+00 0.000000000000000000e+00 -7.849775934328249993e-02 1.712486786255933667e-03 -4.873634516765774638e-01 0.000000000000000000e+00 0.000000000000000000e+00 -5.006497297765278853e-01 6.015032546416109425e-03 2.043923787580399498e-01 0.000000000000000000e+00 0.000000000000000000e+00 -6.123849545197280753e-01
0.000000000000000000e+00 9.386653331234187658e-02 -9.016915249126908685e-03 0.000000000000000000e+00 1.038458724820939816e-01 0.000000000000000000e+00 3.102758995178793722e-01 -1.836018436684159344e-03 0.000000000000000000e+00 -1.149288273845330832e-01 0.000000000000000000e+00 -5.078296770496715240e-01 7.308100771097092094e-03 0.000000000000000000e+00 -4.831235190397836776e-01 0.000000000000000000e+00 1.956553961705887190e-01 -1.909743897529857931e-03 0.000000000000000000e+00 -5.989415684078268631e-01
-5.294302978202499767e-03 1.147197059207347714e-01 0.000000000000000000e+00 5.940082751565507052e-03 9.107840343563240737e-02 -6.767164847722397479e-03 3.028339218304140212e-01 0.000000000000000000e+00 -1.853103754937493811e-02 -1.017999611574866431e-01 -1.181548885760146453e-02 -5.064237922397957226e-01 0.000000000000000000e+00 -1.950181751179384804e-03 -4.931078215302500123e-01 -1.223394939580584387e-04 2.069237180492788930e-01 0.000000000000000000e+00 3.150450786308975348e-03 -6.162176218261521399e-01
0.000000000000000000e+00 1.057350554273415455e-01 -1.718696114185865043e-02 0.000000000000000000e+00 8.774138395919070521e-02 0.000000000000000000e+00 2.989240659334720385e-01 -1.501644339175879292e-02 0.000000000000000000e+00 -1.107094505710654458e-01 0.000000000000000000e+00 -5.300532620432790720e-01 2.635223387219599173e-02 0.000000000000000000e+00 -4.862512019249452533e-01 0.000000000000000000e+00 2.068254078602351220e-01 -1.814168480828948216e-02 0.000000000000000000e+00 -5.970416830285368848e-01
-2.860640664404440984e-03 1.084767874251742897e-01 0.000000000000000000e+00 1.199616411476774752e-02 1.084170863500773380e-01 3.196156918462327370e-04 3.161538588143852913e-01 0.000000000000000000e+00 1.259484511794283987e-03 -1.159608633282979973e-01 -1.416636027407450205e-02 -4.869482197920766420e-01 0.000000000000000000e+00 5.889917016717893285e-03 -5.055934213395055776e-01 -8.678691802789470847e-03 1.859503499179831487e-01 0.000000000000000000e+00 -8.537154269533549916e-03 -5.788350333680948312e-01
0.000000000000000000e+00 1.115213870401960405e-01 0.000000000000000000e+00 0.000000000000000000e+00 8.650654217305420168e-02 0.000000000000000000e+00 2.898607830503320826e-01 0.000000000000000000e+00 0.000000000000000000e+00 -9.771986755261428959e-02 0.000000000000000000e+00 -4.821991564688575815e-01 0.000000000000000000e+00 0.000000000000000000e+00 -5.153463469074929248e-01 0.000000000000000000e+00 1.992047117267441991e-01 0.000000000000000000e+00 0.000000000000000000e+00 -5.968506561085067386e-01
0.000000000000000000e+00 8.968528701876313236e-02 -1.840643109638137945e-02 0.000000000000000000e+00 1.027965899611317929e-01 0.000000000000000000e+00 3.323422928850182645e-01 -1.799487247514121313e-02 0.000000000000000000e+00 -1.325245941355572554e-01 0.000000000000000000e+00 -4.922609157809618718e-01 8.974958775512555109e-04 0.000000000000000000e+00 -4.865952126179158288e-01 0.000000000000000000e+00 1.934181589600923734e-01 -8.303445896609595173e-03 0.000000000000000000e+00 -6.080976676723205410e-01
0.000000000000000000e+00 1.062881400165277546e-01 0.000000000000000000e+00 1.027539566023931254e-02 8.745062107203874224e-02 0.000000000000000000e+00 3.090976306865719225e-01 0.000000000000000000e+00 1.234791726564511347e-02 -1.105291954221795520e-01 0.000000000000000000e+00 -4.931911461345702130e-01 0.000000000000000000e+00 2.136329183003108853e-02 -4.972185090025598164e-01 0.000000000000000000e+00 2.105256576966205440e-01 0.000000000000000000e+00 5.893190507541232540e-03 -6.167281272091230671e-01
0.000000000000000000e+00 7.943474557562477112e-02 0.000000000000000000e+00 0.000000000000000000e+00 1.203154646770179526e-01 0.000000000000000000e+00 3.020786731608268716e-01 0.000000000000000000e+00 0.000000000000000000e+00 -1.162292421737164960e-01 0.000000000000000000e+00 -5.048386136821684245e-01 0.000000000000000000e+00 0.000000000000000000e+00 -5.183371001543556345e-01 0.000000000000000000e+00 1.910412397600125267e-01 0.000000000000000000e+00 0.000000000000000000e+00 -5.949159710884167618e-01
0.000000000000000000e+00 8.734094157285507420e-02 -9.795707696695417355e-03 0.000000000000000000e+00 9.119711431794444434e-02 0.000000000000000000e+00 3.081391464489317555e-01 -1.655833902102552338e-02 0.000000000000000000e+00 -1.099225131642695003e-01 0.000000000000000000e+00 -5.139854964675498739e-01 1.589407279104203263e-02 0.000000000000000000e+00 -4.795417036768634400e-01 0.000000000000000000e+00 2.011659989569668239e-01 -1.132141390509068535e-02 0.000000000000000000e+00 -6.029725885246202122e-01
0.000000000000000000e+00 9.671635249180265959e-02 0.000000000000000000e+00 -4.805859849997561918e-03 8.498685307793026056e-02 0.000000000000000000e+00 3.008871831686037446e-01 0.000000000000000000e+00 -1.510915767217957222e-02 -7.519120570597684350e-02 0.000000000000000000e+00 -5.005293254523237589e-01 0.000000000000000000e+00 1.147459607051299485e-02 -4.963820916049631049e-01 0.000000000000000000e+00 1.859271376611389970e-01 0.000000000000000000e+00 -1.517182677513920393e-02 -5.832325362603670849e-01
6.107224298511975194e-03 7.282632356486065661e-02 9.377564628535027536e-03 0.000000000000000000e+00 1.136933655616740035e-01 -6.829964561513853644e-03 3.179632973335591584e-01 -2.447747054353126284e-02 0.000000000000000000e+00 -1.313320074714323105e-01 -1.153245424108043614e-02 -4.950565680918259104e-01 -1.984944503779315778e-03 0.000000000000000000e+00 -4.997687041541272746e-01 5.098995099515835072e-03 1.710290579456569815e-01 2.548450930083410310e-02 0.000000000000000000e+00 -5.682739196039438001e-01
0.000000000000000000e+00 1.097282017812353794e-01 0.000000000000000000e+00 9.696187104476868988e-04 1.064119138364781197e-01 0.000000000000000000e+00 3.099928936172404725e-01 0.000000000000000000e+00 -9.916415529105099616e-03 -1.029326056556702229e-01 0.000000000000000000e+00 -5.118600605741933096e-01 0.000000000000000000e+00 -4.576541786033502118e-03 -5.023739563793021556e-01 0.000000000000000000e+00 1.795060456917468850e-01 0.000000000000000000e+00 -2.714526294883377183e-02 -5.869127624991246073e-01
-3.585843740069031248e-03 1.015711883843383317e-01 0.000000000000000000e+00 0.000000000000000000e+00 1.102475381705819435e-01 2.577788335766881440e-03 2.855259209346437954e-01 0.000000000000000000e+00 0.000000000000000000e+00 -8.729802335009148595e-02 -9.740806820411604394e-03 -5.051064294363301066e-01 0.000000000000000000e+00 0.000000000000000000e+00 -4.825438293699793046e-01 -1.060401794723302496e-02 2.261817709656587239e-01 0.000000000000000000e+00 0.000000000000000000e+00 -6.123656845382426939e-01
0.000000000000000000e+00 8.868524547221955101e-02 -5.203238654149035941e-03 0.000000000000000000e+00 1.159425639967621297e-01 0.000000000000000000e+00 3.133753681894848042e-01 2.296115095025433317e-03 0.000000000000000000e+00 -1.004990628927384527e-01 0.000000000000000000e+00 -5.307128510127242516e-01 9.726048401679827579e-03 0.000000000000000000e+00 -4.769121652239083353e-01 0.000000000000000000e+00 2.041693063930825058e-01 -1.752050000090812215e-02 0.000000000000000000e+00 -6.158554067671978549e-01
0.000000000000000000e+00 1.015474168539006877e-01 0.000000000000000000e+00 1.043361368600956816e-02 9.972314004352704486e-02 0.000000000000000000e+00 2.928247818878919051e-01 0.000000000000000000e+00 -1.124826770408027254e-02 -1.024747659590675569e-01 0.000000000000000000e+00 -5.192044790270345933e-01 0.000000000000000000e+00 -1.439869814907305048e-02 -4.770570229835249254e-01 0.000000000000000000e+00 1.732596139623029108e-01 0.000000000000000000e+00 -1.780203463478890330e-02 -5.864526817771740230e-01
2.754573748726169349e-03 1.064914581386881276e-01 -5.101878355434191423e-03 0.000000000000000000e+00 9.437460224883087445e-02 3.205000940849721432e-03 2.916377467520226974e-01 6.792386895006708586e-03 0.000000000000000000e+00 -9.251782916697560977e-02 -2.013142851288411174e-03 -5.446488781520754108e-01 5.172340209571089226e-02 0.000000000000000000e+00 -4.440869335733954593e-01 -1.649549382606831788e-03 2.405560538112599955e-01 -3.058734084418184701e-02 0.000000000000000000e+00 -6.396213184984100852e-01
0.000000000000000000e+00 8.878775272938575769e-02 0.000000000000000000e+00 -3.239729914618580744e-03 1.302978534092311957e-01 0.000000000000000000e+00 2.814669466110362173e-01 0.000000000000000000e+00 -3.858374564103693796e-03 -9.375456701385891101e-02 0.000000000000000000e+00 -5.051138237353582916e-01 0.000000000000000000e+00 5.368299459059418938e-03 -4.829603448598059900e-01 0.000000000000000000e+00 1.669138776477749608e-01 0.000000000000000000e+00 -2.832522467052066631e-02 -5.679299442322399694e-01
-1.479535714547051614e-02 1.187652826446026766e-01 -3.399021103604277227e-02 0.000000000000000000e+00 7.070953572800035836e-02 6.208969343011321550e-03 2.744398105805198607e-01 2.668921559883324218e-02 0.000000000000000000e+00 -8.418994987454392342e-02 -4.629441701593720385e-03 -5.130033250977508175e-01 1.346681717418806226e-02 0.000000000000000000e+00 -4.969040404422100377e-01 -4.912754265030515842e-03 1.883918005184598843e-01 1.405378670898690431e-02 0.000000000000000000e+00 -5.815535087630920863e-01
0.000000000000000000e+00 8.774851305529765555e-02 0.000000000000000000e+00 0.000000000000000000e+00 9.429085757313501737e-02 0.000000000000000000e+00 2.919642882475765866e-01 0.000000000000000000e+00 0.000000000000000000e+00 -9.202406181073158331e-02 0.000000000000000000e+00 -5.060044352198326267e-01 0.000000000000000000e+00 0.000000000000000000e+00 -5.056140596134330867e-01 0.000000000000000000e+00 1.825340283884865356e-01 0.000000000000000000e+00 0.000000000000000000e+00 -5.846740327533890280e-01
0.000000000000000000e+00 1.164534578318534297e-01 0.000000000000000000e+00 2.467715554022348670e-02 1.019049272143008333e-01 0.000000000000000000e+00 2.919498055434875949e-01 0.000000000000000000e+00 -7.633578149993165696e-03 -8.280893711144489411e-02 0.000000000000000000e+00 -4.814094136480405184e-01 0.000000000000000000e+00 1.346561848172232040e-02 -5.177062117022681598e-01 0.000000000000000000e+00 1.989076089236221367e-01 0.000000000000000000e+00 -4.821091460475753453e-03 -5.893772688105598512e-01
0.000000000000000000e+00 7.868930594265821643e-02 0.000000000000000000e+00 0.000000000000000000e+00 1.186241125417165088e-01 0.000000000000000000e+00 2.916730597341192222e-01 0.000000000000000000e+00 0.000000000000000000e+00 -8.731637221895791057e-02 0.000000000000000000e+00 -5.221616095141115022e-01 0.000000000000000000e+00 0.000000000000000000e+00 -4.900199386553805714e-01 0.000000000000000000e+00 1.862572120029631906e-01 0.000000000000000000e+00 0.000000000000000000e+00 -5.935324767109999566e-01
0.000000000000000000e+00 8.680691006030991086e-02 0.000000000000000000e+00 0.000000000000000000e+00 1.191629082434527698e-01 0.000000000000000000e+00 2.989031061964411706e-01 0.000000000000000000e+00 0.000000000000000000e+00 -1.013968259424379709e-01 0.000000000000000000e+00 -4.881723841751389736e-01 0.000000000000000000e+00 0.000000000000000000e+00 -5.116293198321756330e-01 0.000000000000000000e+00 2.038877028747418940e-01 0.000000000000000000e+00 0.000000000000000000e+00 -5.780035844187050298e-01
0.000000000000000000e+00 9.437188813997471337e-02 3.220613399482949099e-03 0.000000000000000000e+00 1.171907817424160114e-01 0.000000000000000000e+00 3.231798598207190620e-01 -2.983613252631933666e-02 0.000000000000000000e+00 -1.291947139354103213e-01 0.000000000000000000e+00 -4.957421375802861796e-01 -2.775621118718336194e-03 0.000000000000000000e+00 -5.006250702849625034e-01 0.000000000000000000e+00 1.845101314555503136e-01 1.369780025460716998e-02 0.000000000000000000e+00 -5.834363482203007711e-01
0.000000000000000000e+00 1.047474140793841768e-01 0.000000000000000000e+00 6.003381876510957907e-03 1.005118664866068434e-01 0.000000000000000000e+00 2.858064907421694612e-01 0.000000000000000000e+00 -1.841559626150093831e-02 -7.695608710857196333e-02 0.000000000000000000e+00 -4.782341790404916471e-01 0.000000000000000000e+00 3.152331610897500525e-02 -5.179837308231305393e-01 0.000000000000000000e+00 2.082673912117805892e-01 0.000000000000000000e+00 4.312083035224581473e-03 -6.036011102068072898e-01
-6.974764103828951997e-03 9.887240681263553821e-02 0.000000000000000000e+00 0.000000000000000000e+00 8.835143787141924721e-02 2.158545238146193299e-03 2.983981246784767061e-01 0.000000000000000000e+00 0.000000000000000000e+00 -1.082313450340581101e-01 5.493413697454929689e-05 -5.184375866050198178e-01 0.000000000000000000e+00 0.000000000000000000e+00 -4.945517047905475527e-01 3.274037185942413417e-03 1.970297740778483297e-01 0.000000000000000000e+00 0.000000000000000000e+00 -6.117060252574485490e-01
0.000000000000000000e+00 9.682402034105207222e-02 0.000000000000000000e+00 3.426556590727481994e-03 9.394447346289340472e-02 0.000000000000000000e+00 2.669201035636686314e-01 0.000000000000000000e+00 -3.019982240308411933e-02 -6.299625196694275120e-02 0.000000000000000000e+00 -4.868558036636866371e-01 0.000000000000000000e+00 -1.704988377438378458e-03 -5.043497471559450496e-01 0.000000000000000000e+00 1.994176952931493718e-01 0.000000000000000000e+00 4.820502425207070021e-04 -6.012599449287592268e-01
0.000000000000000000e+00 1.081695023423059621e-01 0.000000000000000000e+00 0.000000000000000000e+00 1.166466961277926734e-01 0.000000000000000000e+00 3.137705693347944691e-01 0.000000000000000000e+00 0.000000000000000000e+00 -1.020256811753530585e-01 0.000000000000000000e+00 -5.014098905998491951e-01 0.000000000000000000e+00 0.000000000000000000e+00 -5.017887354885547380e-01 0.000000000000000000e+00 2.065697352036761636e-01 0.000000000000000000e+00 0.000000000000000000e+00 -6.005486823099007720e-01
0.000000000000000000e+00 8.562969898228800503e-02 0.000000000000000000e+00 0.000000000000000000e+00 1.018899712783276762e-01 0.000000000000000000e+00 3.168339280558951088e-01 0.000000000000000000e+00 0.000000000000000000e+00 -1.061693593339065878e-01 0.000000000000000000e+00 -4.974323599144843122e-01 0.000000000000000000e+00 0.000000000000000000e+00 -4.867817431992738086e-01 0.000000000000000000e+00 1.874935021460984452e-01 0.000000000000000000e+00 0.000000000000000000e+00 -5.854813177531746904e-01
